51 100 4709939
http://dbpedia.org/ontology/torqueOutput 0.05006524547934532 0.049085017293691635 0.021600108593702316 -0.009303406812250614 -0.02155108004808426 -0.011039748787879944 0.03005906566977501 -0.009771807119250298 -0.020427482202649117 -0.012828294187784195 -0.04705014079809189 -0.0229526124894619 -0.0024344357661902905 0.022717095911502838 0.02435079589486122 -0.024590814486145973 -0.00760435638949275 -0.01810094341635704 0.017368650063872337 -0.035330504179000854 0.04373001679778099 -0.03346531093120575 0.009106470271945 0.014061571098864079 -0.027529679238796234 0.034075211733579636 0.028751377016305923 0.02914554812014103 0.015216944739222527 0.04154469817876816 -0.010466385632753372 0.03454861789941788 -0.01749868504703045 0.04596520960330963 -0.014038017019629478 0.013689519837498665 0.028613703325390816 0.02944992482662201 0.007410761900246143 0.0275859571993351 0.04632748290896416 0.020091984421014786 -0.032906416803598404 0.03305130451917648 -0.04006699100136757 0.02875690534710884 0.010242623277008533 0.02382860705256462 0.008984735235571861 -0.041204143315553665 0.03576470538973808 0.04991566762328148 -0.005820659454911947 0.02185272052884102 0.020089035853743553 -8.747804677113891E-4 -0.008236929774284363 -0.04582168906927109 -0.01019098237156868 -0.026537179946899414 -0.01021654438227415 -1.3116851914674044E-4 -0.03048258274793625 -1.7395662143826485E-4 0.020366009324789047 -0.03241250663995743 -0.035158004611730576 -0.019794359803199768 -0.002017990918830037 0.013954859226942062 -0.012502312660217285 0.032118476927280426 -0.0030223149806261063 -0.0020497224759310484 0.0293488260358572 0.016468165442347527 -0.029684368520975113 -0.011486423201858997 0.0290610883384943 0.0037567897234112024 0.018957605585455894 -0.005640149582177401 0.02586510218679905 0.030364932492375374 -0.027047324925661087 -0.013276118785142899 -0.0028881854377686977 -0.00290538277477026 0.010499588213860989 -0.022842969745397568 -0.02331983484327793 0.013604196719825268 0.006277486681938171 -0.02362482249736786 -0.01030292920768261 -0.0100362878292799 -0.02330576814711094 -0.006412254646420479 0.0044558048248291016 -0.006614049896597862
http://www.w3.org/2002/07/owl#Thing -0.8951543569564819 -0.015116880647838116 1.285150408744812 0.34712016582489014 1.1479326486587524 0.6410835981369019 -0.7475379109382629 0.06342125684022903 -6.277371721807867E-5 -0.021266186609864235 -0.02207854948937893 -0.009271742776036263 -0.1268167793750763 -0.3387516736984253 0.2577934265136719 -0.5098636150360107 -0.4937687814235687 -1.078869342803955 -2.530750274658203 2.011082649230957 -0.3119255006313324 0.23017431795597076 0.0716705396771431 -0.16594772040843964 -0.001739163533784449 -0.028226066380739212 0.00367923267185688 -0.01145896315574646 0.0023136271629482508 -0.0076507823541760445 -0.004342932719737291 -0.0019096598261967301 -0.04812709242105484 0.18865525722503662 -0.07661979645490646 -0.005756090395152569 0.052416328340768814 0.030965246260166168 -0.018373405560851097 0.007663792930543423 -0.020536838099360466 -0.016555199399590492 0.01649150252342224 0.020421350374817848 -0.3392426371574402 0.09568364173173904 -0.0839489996433258 -0.006174747366458178 -0.23294597864151 0.00246453657746315 -0.26031312346458435 -0.016906114295125008 0.01089499332010746 -0.016818203032016754 -0.024874763563275337 0.008625345304608345 0.002419843804091215 -0.00760139524936676 0.0022742007859051228 0.0015502949245274067 0.1219056248664856 -0.10881881415843964 -0.061777856200933456 0.08036401867866516 -0.0029614330269396305 -0.02783881686627865 -0.016566092148423195 0.010134232230484486 0.05116022750735283 0.02113397605717182 0.030229132622480392 3.747332375496626E-4 0.1063585951924324 -0.03066788986325264 0.022204894572496414 -0.06815623492002487 0.07418732345104218 0.005124046467244625 -0.06902377307415009 -0.0356135368347168 -0.0018044535536319017 0.004423598758876324 -0.0030261653009802103 -5.433457554318011E-4 -0.003927572164684534 -6.778205861337483E-4 0.008768157102167606 0.01533610187470913 0.027292704209685326 -0.05240445211529732 -0.10431251674890518 0.020672155544161797 -0.09491464495658875 0.42330390214920044 0.3456096649169922 0.29461026191711426 0.17476055026054382 0.005257833749055862 0.03134100139141083 3.524879284668714E-4
http://dbpedia.org/ontology/latestReleaseDate 0.045689940452575684 0.04552175849676132 0.03384104743599892 -0.007971092127263546 -0.02408895269036293 -0.01126868836581707 0.040606580674648285 -0.007201727479696274 -0.019067568704485893 -0.004939313046634197 -0.05069410800933838 -0.024976588785648346 -0.00942913256585598 0.03543208912014961 0.02049395442008972 -0.01287351455539465 -0.003808411071076989 -0.03350481763482094 0.022226514294743538 -0.043137889355421066 0.059604544192552567 -0.04502767324447632 0.001616145484149456 0.02675405517220497 -0.03094763495028019 0.03986640274524689 0.029202351346611977 0.04096422344446182 0.0131024569272995 0.03212821111083031 -0.009644671343266964 0.04527727887034416 -0.02022244967520237 0.043371107429265976 -0.014590870589017868 0.007772390730679035 0.03318673372268677 0.033375952392816544 0.010499857366085052 0.026583556085824966 0.05388615280389786 0.026895228773355484 -0.04221378266811371 0.029827697202563286 -0.04312100633978844 0.027870137244462967 0.008809080347418785 0.020530467852950096 0.00991036370396614 -0.044162847101688385 0.03937883675098419 0.05026896670460701 0.002280410612002015 0.015637502074241638 0.021138694137334824 -5.845864652656019E-4 -0.01363117340952158 -0.052159782499074936 -0.003970659803599119 -0.037467870861291885 -0.013066839426755905 0.003624394303187728 -0.026676293462514877 -0.0011696098372340202 0.020013175904750824 -0.0459306426346302 -0.03469213843345642 -0.018681980669498444 0.003555537201464176 0.008139366284012794 -0.02029893361032009 0.03151359409093857 0.008906034752726555 -0.010433023795485497 0.036741696298122406 0.0054503451101481915 -0.03155926614999771 -0.017044294625520706 0.022876745089888573 0.012502780184149742 0.018492484465241432 -0.01717955246567726 0.0317419059574604 0.021917130798101425 -0.021712759509682655 -0.02040638029575348 -0.014052857644855976 -0.01278983149677515 0.013394762761890888 -0.026687296107411385 -0.028201553970575333 0.015620873309671879 0.009447814896702766 -0.014850225299596786 -0.003727112663909793 -4.832977429032326E-4 -0.026681218296289444 -0.007454847916960716 0.001393073471263051 -0.011978832073509693
http://dbpedia.org/ontology/acceleration 0.004169262479990721 0.026107074692845345 0.03405144065618515 0.027004346251487732 0.019272033125162125 -0.0013122707605361938 0.009788274765014648 -0.013451369479298592 -0.019966166466474533 -0.002940548351034522 -0.023079443722963333 -0.023109251633286476 -0.006653294898569584 0.045882392674684525 0.015150098130106926 0.0012777778320014477 -0.01568041555583477 -0.04774188995361328 -0.008340250700712204 -0.031282342970371246 0.02495621144771576 -0.0535980686545372 0.007880515418946743 0.03684427961707115 -0.03464003652334213 0.01472756452858448 0.03941289708018303 0.01765534095466137 0.027363721281290054 0.03011862188577652 -0.040400851517915726 0.032168470323085785 -0.02537309005856514 0.02865578606724739 0.005266048014163971 0.04061930254101753 0.031310077756643295 0.048129573464393616 0.03295093774795532 0.057079389691352844 0.030130822211503983 0.011950435116887093 -0.028635192662477493 0.03613409399986267 -0.0388689786195755 0.0326223149895668 0.01556838396936655 0.03698232024908066 0.030622238293290138 -0.03166317939758301 0.04366825520992279 0.03668186813592911 -0.009263097308576107 0.03532697632908821 0.045621223747730255 -0.01045935321599245 -0.0312043484300375 -0.04287484660744667 -0.017295213416218758 -0.05706721544265747 -0.03943242132663727 0.03359343111515045 -0.0567983016371727 -0.00797470286488533 0.04237007722258568 -0.04857105761766434 -0.05425143241882324 -0.050675250589847565 0.05185062438249588 0.03678450360894203 0.010364828631281853 0.043822191655635834 -0.05587386712431908 0.012326881289482117 0.021097717806696892 0.05652682110667229 -0.0012334426864981651 -0.03655320033431053 -0.008111497387290001 -0.02178821712732315 0.03182913735508919 -0.06100933626294136 0.049142301082611084 0.00353663950227201 -0.026174349710345268 -0.035385534167289734 -0.0129079045727849 0.007671900559216738 0.023597192019224167 -0.008036026731133461 -0.01823853887617588 0.03250961750745773 0.017277918756008148 -0.03039894811809063 -0.01333201676607132 -4.796413704752922E-4 -0.03435169905424118 -0.005803598091006279 -0.006676312070339918 -0.010162228718400002
http://dbpedia.org/ontology/deathDate 0.0045570675283670425 0.03307081013917923 0.0467943511903286 0.01248767040669918 0.013140736147761345 0.0039707873947918415 0.031858254224061966 -0.007199176121503115 -0.028316980227828026 0.008766905404627323 -0.037408486008644104 -0.017886042594909668 0.003594539826735854 0.06652446836233139 0.008029532618820667 0.012301662936806679 -0.016695626080036163 -0.05397507920861244 -0.004663707688450813 -0.039817679673433304 0.04540196433663368 -0.05325992777943611 -0.002302477601915598 0.0524277538061142 -0.029261678457260132 0.02262844704091549 0.04043135046958923 0.03753548115491867 0.021806903183460236 0.021129857748746872 -0.033784251660108566 0.03813665732741356 -0.021500101312994957 0.015613462775945663 0.002824052469804883 0.0338260680437088 0.029068084433674812 0.04610992223024368 0.024821141734719276 0.03433672711253166 0.030172111466526985 0.015147378668189049 -0.04282856732606888 0.02510247379541397 -0.047520123422145844 0.03520606458187103 0.018837817013263702 0.039310429245233536 0.03798437863588333 -0.027213148772716522 0.05549026280641556 0.02587955631315708 -0.013408473692834377 0.031066935509443283 0.03817464038729668 -0.006629618816077709 -0.0317891389131546 -0.039943303912878036 -0.016259614378213882 -0.0469963438808918 -0.029966242611408234 0.032840415835380554 -0.047763530164957047 -0.004775806330144405 0.03629985451698303 -0.04555857926607132 -0.04542815685272217 -0.04223243147134781 0.051929276436567307 0.04028111696243286 0.012716729193925858 0.03408041223883629 -0.03634682670235634 0.006390647031366825 0.03419661521911621 0.03796900063753128 0.001151900738477707 -0.030276309698820114 -0.005240030586719513 -0.010058791376650333 0.03359953314065933 -0.07163717597723007 0.04682770371437073 0.006504087243229151 -0.021975688636302948 -0.03218008577823639 -0.024902649223804474 -2.6551494374871254E-4 0.018199823796749115 -0.01740894839167595 0.0017136260867118835 0.04221464321017265 0.039380431175231934 -0.03471771627664566 -0.009174362756311893 0.001572275534272194 -0.019660647958517075 -0.01638364978134632 -0.005913419649004936 -0.0246761292219162
http://dbpedia.org/ontology/birthDate 0.01305549219250679 0.033583033829927444 0.04660263657569885 0.019343020394444466 0.015024115331470966 0.008484454825520515 0.02228839322924614 -0.010868051089346409 -0.02152371034026146 -0.0029780708719044924 -0.027723805978894234 -0.026370486244559288 4.3275183998048306E-4 0.06634815037250519 0.01204474363476038 0.008979788050055504 -0.018687307834625244 -0.06215934082865715 -0.012263981625437737 -0.04056412726640701 0.037134017795324326 -0.05834171548485756 -8.671111427247524E-4 0.0507819727063179 -0.038253091275691986 0.013626083731651306 0.038305144757032394 0.02131720632314682 0.024562403559684753 0.02339588850736618 -0.0410868339240551 0.035284481942653656 -0.02918049693107605 0.02323298156261444 0.006465177983045578 0.04050089418888092 0.0267934650182724 0.04812907427549362 0.03301700949668884 0.045822545886039734 0.030073855072259903 0.0057735685259103775 -0.02514626644551754 0.036183495074510574 -0.029298555105924606 0.03704167157411575 0.02086695469915867 0.03901961073279381 0.03724857047200203 -0.03075738623738289 0.0603339709341526 0.025224976241588593 -0.005818531382828951 0.02893887646496296 0.04192143306136131 -0.0073659373447299 -0.02840408682823181 -0.042338497936725616 -0.019432829692959785 -0.05330396443605423 -0.04159460961818695 0.0280779879540205 -0.047724466770887375 -0.01608598418533802 0.04577304422855377 -0.03457976132631302 -0.04478622227907181 -0.0458674393594265 0.05305396020412445 0.03552064299583435 0.015442674979567528 0.036432813853025436 -0.04703681543469429 0.014142726548016071 0.028558412566781044 0.038646891713142395 0.006670186296105385 -0.03031063824892044 -0.006456100381910801 -0.012608173303306103 0.03747931122779846 -0.06562293320894241 0.046591866761446 7.251168135553598E-4 -0.01909514144062996 -0.03409726172685623 -0.018055634573101997 0.002735923742875457 0.025877023115754128 -0.013930946588516235 -0.003840121440589428 0.04519957676529884 0.033798929303884506 -0.02883538044989109 -0.011446955613791943 0.008501879870891571 -0.03441709280014038 -0.009892715141177177 -0.006577460095286369 -0.019976342096924782
http://dbpedia.org/ontology/retirementDate 0.031938180327415466 0.03881347179412842 0.03652504086494446 0.0019936487078666687 -0.010666344314813614 -0.0022356598637998104 0.03219030052423477 -0.0037259585224092007 -0.016416002064943314 -0.004387609660625458 -0.0509069599211216 -0.020983409136533737 -0.006066125817596912 0.024913428351283073 0.01569913513958454 -0.01709868386387825 -0.00942076463252306 -0.026722824200987816 0.016423216089606285 -0.036934398114681244 0.06670565158128738 -0.05500997602939606 -0.010586371645331383 0.04403875023126602 -0.032788168638944626 0.048678867518901825 0.04314199835062027 0.053818006068468094 0.005264315754175186 0.032543737441301346 -0.01362176239490509 0.047683194279670715 -0.01489515881985426 0.03481064736843109 -0.00916380062699318 0.011974480003118515 0.04094967991113663 0.05279713496565819 0.020752402022480965 0.03478157892823219 0.06002812087535858 0.03836091235280037 -0.0811825767159462 0.014433198608458042 -0.07330625504255295 0.04446710646152496 0.011460242792963982 0.035935044288635254 0.00893503800034523 -0.03857780620455742 0.035768263041973114 0.05713469162583351 -0.008247867226600647 0.041050542145967484 0.028920434415340424 -0.005305788479745388 -0.006095045246183872 -0.03321853280067444 -0.012607503682374954 -0.02184651419520378 -0.004211063496768475 0.022548947483301163 -0.03552822023630142 0.014392241835594177 0.010408587753772736 -0.06915013492107391 -0.018333401530981064 -0.0177321657538414 0.020866820588707924 0.022879062220454216 -0.006845714524388313 0.048642516136169434 -0.02162572741508484 -0.004607677925378084 0.035927705466747284 0.029301734641194344 -0.021396195515990257 -0.016308043152093887 0.023741591721773148 0.008940419182181358 0.021248994395136833 -0.030978232622146606 0.0434289425611496 0.03315293416380882 -0.032287392765283585 -0.02685864083468914 -0.01474778726696968 -0.011099735274910927 0.00149270030669868 -0.03582622483372688 -0.03519000858068466 0.018692176789045334 0.02344832755625248 -0.04462575912475586 -0.02811790443956852 -0.016177544370293617 -0.021049311384558678 -0.01288128737360239 0.004676184616982937 -0.015929915010929108
http://dbpedia.org/ontology/populationTotal 0.050365954637527466 0.048773787915706635 0.03209051489830017 -0.0015560267493128777 -0.01665773242712021 -0.006647089496254921 0.03695747256278992 -0.0083739859983325 -0.021168917417526245 -0.00429740734398365 -0.04875178635120392 -0.01583203300833702 -0.004326081834733486 0.018363453447818756 0.011861883103847504 -0.016669195145368576 -0.005710694473236799 -0.028851360082626343 0.0158127062022686 -0.03514893352985382 0.0725463479757309 -0.054080136120319366 0.0023865564726293087 0.01874939352273941 -0.02767075039446354 0.05365815386176109 0.03758131340146065 0.04136431962251663 0.010203811340034008 0.04048853740096092 -0.012076188810169697 0.057083334773778915 -0.020991770550608635 0.044912829995155334 -0.010424457490444183 0.00505946297198534 0.03601156920194626 0.05382811650633812 0.020461907610297203 0.029362229630351067 0.05765070766210556 0.029978109523653984 -0.06761643290519714 0.021841896697878838 -0.07522193342447281 0.04103187471628189 0.014477865770459175 0.03789345920085907 0.006442470010370016 -0.04269342124462128 0.0324636846780777 0.05398815870285034 -0.002651538234204054 0.03443814069032669 0.028325654566287994 3.977442975156009E-5 -0.005048742052167654 -0.04499775916337967 -0.011068037711083889 -0.02706577070057392 0.003424803726375103 0.017109716311097145 -0.03225143626332283 0.017836133018136024 0.011637788265943527 -0.07038896530866623 -0.017007367685437202 -0.012187534943223 0.0087893046438694 0.02396569959819317 -0.012654685415327549 0.045700766146183014 -0.00880449265241623 -0.0049187117256224155 0.04658612981438637 0.023982636630535126 -0.03160472214221954 -0.012559063732624054 0.033293016254901886 0.006995880976319313 0.012346018105745316 -0.02126561477780342 0.03831183910369873 0.03253016993403435 -0.03532593697309494 -0.026255682110786438 -0.013576538302004337 -0.021501677110791206 0.007033110596239567 -0.0476277694106102 -0.03757689148187637 0.013136858120560646 0.03226916119456291 -0.04891040176153183 -0.03336651995778084 -0.030205518007278442 -0.010010317899286747 -0.013499844819307327 0.009840834885835648 -0.017914000898599625
http://www.w3.org/1999/02/22-rdf-syntax-ns#Property -0.11227340251207352 -0.15562942624092102 -0.1792067140340805 0.04745452105998993 0.3927077054977417 0.16238626837730408 -0.42905598878860474 -0.02645980566740036 0.10128029435873032 0.057090770453214645 0.40685996413230896 0.1412964165210724 0.06555411219596863 -0.24004143476486206 -0.2101498395204544 0.15313002467155457 -0.02069135569036007 0.013220439665019512 -0.24924038350582123 0.31556349992752075 -0.23422648012638092 -0.11855464428663254 -0.22047576308250427 0.5279624462127686 -0.10742492228746414 -0.23842760920524597 0.1938759833574295 0.21395958960056305 0.11200935393571854 -0.28949204087257385 -0.15684671700000763 -0.20877832174301147 0.011816644109785557 -0.3231172263622284 0.1666068583726883 0.11319702118635178 -0.10740701109170914 -0.06357552856206894 0.03750285133719444 -0.00753867719322443 -0.1814272552728653 -0.1641286313533783 0.38946259021759033 0.08755296468734741 0.42046454548835754 -0.1787305325269699 0.04050315171480179 -0.08103181421756744 -0.12434133142232895 0.1069280281662941 -0.1713612675666809 -0.11008677631616592 -0.013967241160571575 -0.010342339053750038 -0.10442492365837097 0.027634672820568085 0.14825300872325897 0.5895067453384399 -0.027730977162718773 0.3290981352329254 0.21973131597042084 0.2042640894651413 0.27113500237464905 0.21084508299827576 -0.3302555978298187 -0.09229305386543274 0.6235929131507874 0.24624912440776825 0.3350336253643036 0.14419211447238922 0.3694630563259125 -0.24539761245250702 0.28337371349334717 0.08252525329589844 -0.2944534718990326 -0.4862162172794342 0.4865320324897766 0.1558261662721634 -0.42231881618499756 -0.15690237283706665 -0.2820727825164795 0.21480293571949005 -0.4723866581916809 -0.4103548526763916 0.13594532012939453 -0.08915305882692337 -0.18231159448623657 -0.05158071219921112 -0.16437795758247375 0.14430221915245056 0.18749217689037323 -0.23542363941669464 -0.5473167896270752 0.6564220190048218 0.4559800326824188 0.5166352391242981 -0.4404001832008362 0.15720438957214355 -0.18049496412277222 0.14908333122730255
http://dbpedia.org/ontology/marketCapitalisation 0.043787166476249695 0.04916761815547943 0.018249349668622017 0.004844343289732933 -0.010867981240153313 -0.01873161457479 0.02850031480193138 -0.016838330775499344 -0.018535468727350235 -0.01110860425978899 -0.0428721122443676 -0.02157973125576973 -0.009366484358906746 0.02285860851407051 0.026761043816804886 -0.022790729999542236 -0.009612355381250381 -0.025329483672976494 0.011244341731071472 -0.04354648292064667 0.06280796974897385 -0.05490728095173836 -0.004011867567896843 0.04339214786887169 -0.040537044405937195 0.045041512697935104 0.043053075671195984 0.04924694821238518 0.01342740748077631 0.034497275948524475 -0.019913947209715843 0.05463406443595886 -0.018309611827135086 0.036111220717430115 -0.009911928325891495 0.014824353158473969 0.04045523330569267 0.05121149122714996 0.013494236394762993 0.034549858421087265 0.059314753860235214 0.041082970798015594 -0.0725397989153862 0.014887312427163124 -0.06842273473739624 0.03283116966485977 0.008838973939418793 0.031777143478393555 9.574694558978081E-4 -0.05155830830335617 0.03326987102627754 0.06416425853967667 -0.005292852874845266 0.04413863271474838 0.027562104165554047 -0.007105193566530943 7.905613165348768E-4 -0.0278300978243351 -0.00792553462088108 -0.01789405569434166 6.646802648901939E-4 0.011478281579911709 -0.02944106049835682 0.012017698027193546 0.014467792585492134 -0.05850853770971298 -0.023529913276433945 -0.020378004759550095 0.017641864717006683 0.02414260059595108 -0.007204357534646988 0.044146206229925156 -0.019148750230669975 -0.002933700103312731 0.03175372630357742 0.033588625490665436 -0.029687348753213882 -0.02296709269285202 0.024891098961234093 0.004656259901821613 0.01729699783027172 -0.02367931418120861 0.04025370627641678 0.025456691160798073 -0.02676297537982464 -0.02330917678773403 -0.010394498705863953 -0.0011153090745210648 0.017302196472883224 -0.021220959722995758 -0.030595427379012108 0.023319240659475327 0.010570855811238289 -0.03197222203016281 -0.023483743891119957 -0.012053132988512516 -0.046099014580249786 -0.007614376023411751 -0.004183216951787472 -0.0114705516025424
http://dbpedia.org/ontology/length 0.029982199892401695 0.0321354903280735 0.016462551429867744 0.007563997060060501 0.004315195605158806 -0.006279016844928265 0.012774510309100151 -0.014763294719159603 -0.011299303732812405 -0.004766321741044521 -0.01748814806342125 -0.01508400496095419 -0.005700545851141214 0.01385678444057703 0.014307009056210518 -0.006697847507894039 -0.0069350143894553185 -0.028136463835835457 0.008106994442641735 -0.026562193408608437 0.04325808957219124 -0.04139922559261322 0.0023329120595008135 0.02247568778693676 -0.024683481082320213 0.027959220111370087 0.02890700288116932 0.026707375422120094 0.011058706790208817 0.02675098553299904 -0.019544171169400215 0.03047981858253479 -0.021723724901676178 0.030055183917284012 -1.9741570577025414E-4 0.01988912746310234 0.023238249123096466 0.03669189289212227 0.022474762052297592 0.03848280757665634 0.031764596700668335 0.018402379006147385 -0.03687416389584541 0.02131602168083191 -0.03086337074637413 0.019267382100224495 0.01771176978945732 0.026759164407849312 0.007628298364579678 -0.03499417379498482 0.03133440762758255 0.03704267740249634 -0.008769067004323006 0.02842605859041214 0.021775618195533752 0.001031257095746696 -0.01032065786421299 -0.030113082379102707 -0.00921743642538786 -0.030598167330026627 -0.0076374150812625885 0.013205422088503838 -0.028776800259947777 0.0019499165937304497 0.014918724074959755 -0.04936378821730614 -0.010205347090959549 -0.01743224263191223 0.028926653787493706 0.020616713911294937 0.004932861775159836 0.03611106052994728 -0.014096143655478954 0.006061180494725704 0.02968369424343109 0.014014522545039654 -0.01249425858259201 -0.013418277725577354 0.006483562756329775 -0.0066267354413867 0.01489591971039772 -0.025283105671405792 0.025272458791732788 0.015028091147542 -0.01673484966158867 -0.02520797587931156 -0.010700274258852005 -0.004866155330091715 0.0023184786550700665 -0.023990539833903313 -0.0253946203738451 0.008183968253433704 0.010172958485782146 -0.021010316908359528 -0.01636664569377899 -0.0059499903582036495 -0.018659524619579315 -0.008127537555992603 -0.0016932596918195486 -0.004021656699478626
http://www.openlinksw.com/schemas/virtrdf#QuadMapFText -0.00906395073980093 1.492118462920189E-4 -0.014141211286187172 0.025777164846658707 0.02062835916876793 -0.007127126678824425 -0.031640782952308655 -0.020152335986495018 -0.013290472328662872 -0.021292706951498985 0.009449753910303116 -0.017522793263196945 -0.007971620187163353 0.03170238435268402 0.017484277486801147 0.008949176408350468 -0.010275605134665966 -0.03123338147997856 -0.020173225551843643 -0.013036984950304031 -0.04452275484800339 -6.176684983074665E-4 0.014973076060414314 0.013926179148256779 -0.021039821207523346 -0.03093748167157173 0.026773866266012192 -0.03178000450134277 0.04460283741354942 0.01885843649506569 -0.039908770471811295 -0.017869990319013596 -0.030867716297507286 0.007080354727804661 0.005574362818151712 0.04110928997397423 -0.009639319963753223 -0.013143482618033886 0.019593846052885056 0.04145358130335808 -0.01680011674761772 -0.03392989933490753 0.07653512060642242 0.04644035920500755 0.07103963941335678 -0.018933886662125587 0.02823365293443203 -5.303437355905771E-4 0.03384828567504883 9.90012427791953E-4 0.0388750396668911 0.0034708394668996334 -0.003153339959681034 -0.027967054396867752 0.013811281882226467 -0.00459799962118268 -0.03852764144539833 -0.01153668761253357 0.0017513851635158062 -0.05287645012140274 -0.058423735201358795 0.01553562842309475 -0.013307112269103527 -0.03701839596033096 0.0364757776260376 0.05000534653663635 -0.04636015370488167 -0.03839645907282829 0.04102761298418045 0.010995697230100632 0.03202575072646141 -0.007451415993273258 -0.03206585720181465 0.0062795886769890785 -0.021449733525514603 0.01815778948366642 0.03519265353679657 -0.03231744468212128 -0.042776573449373245 -0.038459163159132004 0.016920126974582672 -0.03549289330840111 -0.010106969624757767 -0.04295801371335983 0.013394051231443882 -0.018855400383472443 -0.006155535113066435 0.03151199221611023 0.029615843668580055 0.050309259444475174 0.006243391893804073 0.02894509956240654 -0.031446922570466995 0.060078274458646774 0.04829240217804909 0.05406622216105461 -0.04398762434720993 0.022558078169822693 -0.024858666583895683 0.014825782738626003
http://dbpedia.org/ontology/operatingIncome 0.0364457368850708 0.041262492537498474 0.013711991719901562 0.010838828980922699 -0.00859026052057743 -0.017087966203689575 0.018894881010055542 -0.014057112857699394 -0.01781875267624855 -0.014478806406259537 -0.0422385036945343 -0.023503584787249565 -0.0014621249865740538 0.018490303307771683 0.023908626288175583 -0.01504921168088913 -0.009148288518190384 -0.028190456330776215 0.013902949169278145 -0.034005306661129 0.04169446974992752 -0.04829905182123184 0.007998155429959297 0.021099817007780075 -0.02854287251830101 0.03859281539916992 0.03128337487578392 0.023859353736042976 0.021702561527490616 0.04491901397705078 -0.02164677530527115 0.04570326954126358 -0.027877015992999077 0.04146254435181618 -0.013557344675064087 0.019069675356149673 0.027539227157831192 0.03994922339916229 0.026839544996619225 0.04207926616072655 0.044181160628795624 0.016652218997478485 -0.04358120635151863 0.030191557481884956 -0.03907082602381706 0.02720840647816658 0.017592664808034897 0.03015746735036373 0.010153211653232574 -0.042232684791088104 0.03800521045923233 0.047416575253009796 -0.003147395793348551 0.02824132703244686 0.028786107897758484 -0.001494244672358036 -0.017754776403307915 -0.04501436650753021 -0.008307700976729393 -0.03927812725305557 -0.0232100710272789 0.016050780192017555 -0.03947640210390091 -0.006416351068764925 0.025991393253207207 -0.04964262992143631 -0.03243165835738182 -0.029899869114160538 0.016973331570625305 0.021603001281619072 -0.015029780566692352 0.044764190912246704 -0.01412644051015377 0.0019933925941586494 0.03523252159357071 0.03729838877916336 -0.02576383203268051 -0.022812627255916595 0.016968529671430588 -7.523288950324059E-4 0.02105700969696045 -0.021291617304086685 0.03336825966835022 0.02578362077474594 -0.02293071523308754 -0.017668213695287704 -0.0029058679938316345 -0.002119092270731926 0.01239029597491026 -0.02274516224861145 -0.029933517798781395 0.01812286674976349 0.018951665610074997 -0.03402914106845856 -0.01956811547279358 -0.00799690093845129 -0.03465932607650757 -0.007133277133107185 -0.008012124337255955 -0.00503065949305892
http://dbpedia.org/ontology/diameter 0.04714402183890343 0.039588551968336105 0.02742592990398407 -0.004618781618773937 -0.0173882395029068 -0.012668813578784466 0.03136754035949707 -0.005395210348069668 -0.011889288201928139 -0.005939776077866554 -0.04342368617653847 -0.018969077616930008 -0.0037681497633457184 0.018220461905002594 0.016878509894013405 -0.018866268917918205 -0.005429920274764299 -0.02518032118678093 0.01600603014230728 -0.03215785697102547 0.0648847222328186 -0.049214668571949005 -0.005071524530649185 0.0249335877597332 -0.02299230732023716 0.04573148861527443 0.03168417140841484 0.04416695982217789 0.008064931258559227 0.03394049406051636 -0.009792212396860123 0.04636618122458458 -0.013999849557876587 0.0398784801363945 -0.006632229313254356 0.011298413388431072 0.03754465654492378 0.042748235166072845 0.019777819514274597 0.03204372897744179 0.05106708034873009 0.02618398889899254 -0.060327135026454926 0.01447116769850254 -0.0676623061299324 0.03501911833882332 0.007779850624501705 0.027917228639125824 6.742230616509914E-4 -0.03607480600476265 0.02546895295381546 0.045672837644815445 -0.002052693162113428 0.036897383630275726 0.020183265209197998 -0.00273304944857955 -0.002142703626304865 -0.03362106531858444 -0.009521017782390118 -0.01986711472272873 -0.001168280839920044 0.012002133764326572 -0.027926919981837273 0.016314256936311722 0.014202849939465523 -0.06799452006816864 -0.0143660269677639 -0.009826060384511948 0.003561887890100479 0.02143673039972782 -0.01505632046610117 0.04413493722677231 -0.004813589155673981 -9.849036578088999E-4 0.036639194935560226 0.017580701038241386 -0.03060130774974823 -0.017354803159832954 0.024695836007595062 0.006940608844161034 0.017366677522659302 -0.015578477643430233 0.037213001400232315 0.032623015344142914 -0.022925496101379395 -0.016313062980771065 -0.012186497449874878 -0.014988848939538002 0.004198209382593632 -0.041228558868169785 -0.03456961363554001 0.013563747517764568 0.029365219175815582 -0.043669573962688446 -0.02538052573800087 -0.021096674725413322 -0.010357659310102463 -0.01820150390267372 0.009331725537776947 -0.008065478876233101
. -0.6018028855323792 -0.47517848014831543 -0.29569825530052185 0.4864253103733063 -0.5171816945075989 -0.2897370159626007 0.30615052580833435 -0.025702811777591705 -4.693364317063242E-4 0.024449316784739494 0.03497752547264099 0.01130946446210146 0.09298811852931976 0.24841372668743134 -0.18914461135864258 0.3742865324020386 0.32893243432044983 0.7193338871002197 1.6833280324935913 -1.3363302946090698 0.6275423765182495 -0.4642859399318695 -0.14456772804260254 0.33581167459487915 0.00902978703379631 0.07534344494342804 -0.015235671773552895 0.027316592633724213 -0.00640087341889739 -0.09035436809062958 -0.005905108526349068 -0.032119203358888626 0.14680908620357513 -0.5866276621818542 0.23945876955986023 0.02219473384320736 -0.024868516251444817 -0.014235951006412506 0.009375468827784061 -0.0028069145046174526 0.011452583596110344 0.008901194669306278 -0.007579505443572998 -0.011239244602620602 0.22097280621528625 -0.061978794634342194 0.055436719208955765 0.004766624420881271 0.2577667236328125 -0.002700342098250985 0.2879588007926941 0.018596431240439415 -0.024869533255696297 0.037558794021606445 0.056786298751831055 -0.019762061536312103 -0.09826920181512833 0.3962911367416382 -0.11459648609161377 -0.048068273812532425 -0.41385722160339355 0.3673074245452881 0.21356643736362457 -0.2746046185493469 0.004595434758812189 0.012676120735704899 0.00170197116676718 -0.007212587632238865 -0.10777661949396133 -0.044390078634023666 -0.0633869618177414 -0.0011755237355828285 -0.2985691428184509 0.08726505190134048 -0.06738661229610443 0.1881001591682434 -0.13245907425880432 -0.014180767349898815 0.12292515486478806 0.06162109225988388 4.723473102785647E-4 -0.0037113740108907223 4.1684201278258115E-5 -0.002685713116079569 0.003407163778319955 -0.001694852951914072 -0.009111786261200905 -0.01199362799525261 0.002653887728229165 0.004596564453095198 -0.008374101482331753 -0.00293789803981781 0.052945900708436966 -0.24395787715911865 -0.1991410106420517 -0.16838134825229645 0.17022405564785004 0.006213807035237551 0.030055470764636993 0.0014647666830569506
http://dbpedia.org/ontology/foalDate 0.05894581973552704 0.044253792613744736 0.020284056663513184 -0.011480548419058323 -0.03210059925913811 -0.018107429146766663 0.03514130413532257 -0.007215411402285099 -0.019716676324605942 -0.01348469965159893 -0.05649746581912041 -0.029484760016202927 -0.009591048583388329 0.023489102721214294 0.02537107840180397 -0.029908636584877968 1.9759632414206862E-4 -0.014620756730437279 0.02593071386218071 -0.04728369414806366 0.04784229025244713 -0.03750966861844063 0.004580777138471603 0.003939582500606775 -0.02190183848142624 0.045102205127477646 0.02444549836218357 0.0225133765488863 0.014112266711890697 0.04824332520365715 -0.012426767498254776 0.03862779960036278 -0.01575586572289467 0.04812503978610039 -0.01867566630244255 0.00545117910951376 0.030721934512257576 0.03251808136701584 0.006472986191511154 0.03639141470193863 0.05043826997280121 0.023292873054742813 -0.036315880715847015 0.035766225308179855 -0.043744444847106934 0.025625983253121376 0.008124775253236294 0.017266513779759407 0.006307463627308607 -0.04237973690032959 0.03697177767753601 0.057761721312999725 -0.002394795883446932 0.02360401302576065 0.019074982032179832 -0.0015785337891429663 -0.018830131739377975 -0.04865902662277222 -0.0013700308045372367 -0.034259818494319916 -0.01276460848748684 -5.102320574223995E-4 -0.03426068276166916 -0.007314192596822977 0.02993898093700409 -0.034829281270504 -0.044876828789711 -0.021460920572280884 -0.01100072544068098 0.008583711460232735 -0.02959771268069744 0.03849540650844574 0.001799257006496191 -0.0051435683853924274 0.037145089358091354 0.026415463536977768 -0.0327070876955986 -0.015985868871212006 0.03127513453364372 0.010414224117994308 0.017567358911037445 -0.007533871568739414 0.03722972050309181 0.03837849944829941 -0.023678259924054146 -0.014792446047067642 -0.0016218419186770916 -0.003465361660346389 0.0198674313724041 -0.02294849418103695 -0.03503647819161415 0.02178398333489895 0.007430309429764748 -0.019585980102419853 -0.016843324527144432 -0.002022127155214548 -0.032160770148038864 -0.009005224332213402 -0.0021043079905211926 -0.008381567895412445
http://www.openlinksw.com/schemas/virtrdf#QuadStorage 0.007616221904754639 0.001641611335799098 -0.012482067570090294 0.02994343265891075 0.011083971709012985 -0.015271555632352829 -0.015440993010997772 -0.011445815674960613 -0.015655843541026115 -0.018138151615858078 0.005203677341341972 -0.02044098637998104 -0.00926185492426157 0.025638220831751823 0.017091743648052216 0.0022091474384069443 -0.003824247047305107 -0.02794990874826908 -0.01524536032229662 -0.015364257618784904 -0.022163614630699158 -0.006411255337297916 0.014983720146119595 0.015566367655992508 -0.017267288640141487 -0.011635852046310902 0.01760832406580448 -0.0171541515737772 0.03158406913280487 0.017829712480306625 -0.03394513204693794 0.0017584455199539661 -0.02258971333503723 0.008376406505703926 -0.0021078858990222216 0.0287042073905468 -0.012325197458267212 -0.01781223714351654 0.009027393534779549 0.03318400681018829 -0.007194269448518753 -0.02359231933951378 0.053030744194984436 0.0340413972735405 0.047782041132450104 -0.02219468727707863 0.018200848251581192 -0.005379507318139076 0.01952502131462097 -0.010616946965456009 0.030956581234931946 0.005954165477305651 0.0016854273853823543 -0.012319250963628292 0.016560183838009834 -0.005656624212861061 -0.034603219479322433 -0.029116475954651833 0.006590668577700853 -0.036842528730630875 -0.042123548686504364 0.002183149103075266 -0.01941307820379734 -0.03149125725030899 0.03727899119257927 0.031008770689368248 -0.0464644581079483 -0.04182353988289833 0.0345829613506794 0.014415622688829899 0.018881339579820633 -0.004654129967093468 -0.03101896494626999 0.012977476231753826 -0.01724984124302864 0.019381225109100342 0.03309663012623787 -0.017462322488427162 -0.034210480749607086 -0.028974033892154694 0.013906012289226055 -0.03298768028616905 -0.007893324829638004 -0.03473559394478798 0.004154516384005547 -0.009455297142267227 -0.0020390055142343044 0.02861710637807846 0.024210531264543533 0.04141483083367348 0.006156475283205509 0.020820535719394684 -0.017873719334602356 0.043886300176382065 0.033902015537023544 0.0363452285528183 -0.029103118926286697 0.017402254045009613 -0.01669096015393734 0.014080613851547241
http://www.openlinksw.com/schemas/virtrdf#array-of-QuadMapATable 0.001870589330792427 -3.5219290293753147E-4 -0.008149474859237671 0.026928657665848732 0.014892525970935822 -0.009962895885109901 -0.02813696302473545 -0.015328140929341316 -0.015307635068893433 -0.021451212465763092 0.008488385006785393 -0.019687164574861526 -0.004364495165646076 0.022187966853380203 0.017588850110769272 -8.89655202627182E-5 -0.0071874563582241535 -0.027813738211989403 -0.015887906774878502 -0.008560344576835632 -0.03174315765500069 -0.007721720729023218 0.01655411161482334 0.013741713017225266 -0.01645410805940628 -0.0268353633582592 0.016218431293964386 -0.01829892210662365 0.027418892830610275 0.010981237515807152 -0.028187725692987442 -0.009460548870265484 -0.018845900893211365 0.01093919575214386 0.003342024516314268 0.028721695765852928 -0.010609578341245651 -0.010362347587943077 0.013923387974500656 0.033164896070957184 -0.012651877477765083 -0.022679943591356277 0.053384266793727875 0.036883533000946045 0.04692402854561806 -0.020521730184555054 0.01905563287436962 -0.002941535320132971 0.022657375782728195 -0.0029865733813494444 0.034877438098192215 0.003638126887381077 0.0017273788107559085 -0.023573938757181168 0.015702135860919952 -0.00649018632248044 -0.03402063995599747 -0.014271668158471584 0.005014555528759956 -0.042368609458208084 -0.04502850025892258 0.00803536456078291 -0.010336494073271751 -0.0318431593477726 0.03409052640199661 0.04298967495560646 -0.04343041777610779 -0.03294741362333298 0.03444390743970871 0.009941525757312775 0.013842117041349411 -0.0050310902297496796 -0.028003733605146408 0.002252796432003379 -0.01686752215027809 0.016268860548734665 0.028292162343859673 -0.024542946368455887 -0.030686892569065094 -0.028183231130242348 0.014645454473793507 -0.023342197760939598 -0.002932749455794692 -0.034533947706222534 0.010466054081916809 -0.01438335794955492 -0.002775622997432947 0.02884908765554428 0.023474913090467453 0.04348042607307434 0.0043261973187327385 0.018939273431897163 -0.023360535502433777 0.04325370863080025 0.04069487005472183 0.04186765104532242 -0.03348460793495178 0.012012357823550701 -0.015706580132246017 0.01215985044836998
http://dbpedia.org/ontology/deathYear 0.05585759878158569 0.04966665804386139 0.024737995117902756 -0.0020819557830691338 -0.02864157408475876 -0.016587238758802414 0.043507203459739685 -0.010392590425908566 -0.023112857714295387 -0.015419570729136467 -0.05697230249643326 -0.025024857372045517 -0.004394127056002617 0.026120899245142937 0.02763672173023224 -0.02784039080142975 -4.250535275787115E-4 -0.019666144624352455 0.028071682900190353 -0.04707273095846176 0.05730343982577324 -0.040190450847148895 0.011051593348383904 0.010019837878644466 -0.02311064675450325 0.04737614095211029 0.0285893976688385 0.030246488749980927 0.00489241536706686 0.04920932650566101 -0.013012006878852844 0.04876351356506348 -0.020676905289292336 0.054073210805654526 -0.01451671589165926 0.0131216486915946 0.03849099203944206 0.03980380296707153 0.01884782500565052 0.039368946105241776 0.05744080990552902 0.03314371034502983 -0.05172004550695419 0.03022681549191475 -0.06216979771852493 0.032310351729393005 0.015270302072167397 0.029015768319368362 0.011698530986905098 -0.04788412153720856 0.03866559639573097 0.05251055955886841 -0.0029544453136622906 0.025792088359594345 0.026143202558159828 0.0016360217705368996 -0.009403818286955357 -0.0484592579305172 -0.011717109940946102 -0.037978388369083405 -0.012410685420036316 3.399108536541462E-4 -0.03199000656604767 0.0034335569944232702 0.027923110872507095 -0.05007126182317734 -0.047558560967445374 -0.024145152419805527 -0.004407275468111038 0.012206136249005795 -0.024957112967967987 0.041561923921108246 -0.009236141107976437 -0.012221776880323887 0.038951873779296875 0.03341852128505707 -0.04590363800525665 -0.018946915864944458 0.036697059869766235 0.007547585293650627 0.019100356847047806 -0.012437105178833008 0.04514307156205177 0.04188087582588196 -0.02813887968659401 -0.019181666895747185 -5.246438086032867E-4 -0.003496263874694705 0.012352760881185532 -0.03366437181830406 -0.04097495973110199 0.01716039888560772 0.013012667186558247 -0.041337888687849045 -0.025743622332811356 -0.014038268476724625 -0.034506406635046005 -0.011793180368840694 0.00218110135756433 -0.0045801750384271145
http://dbpedia.org/ontology/netIncome 0.044251687824726105 0.05009367689490318 0.0237584188580513 0.0022180082742124796 -0.012756616808474064 -0.01364121027290821 0.03151684254407883 -0.013995598070323467 -0.019060373306274414 -0.0011980431154370308 -0.04926605895161629 -0.023153038695454597 -0.0024154111742973328 0.01882000081241131 0.01579531654715538 -0.021986447274684906 -0.0058673471212387085 -0.01941775344312191 0.021405572071671486 -0.04236391931772232 0.06714046746492386 -0.044860560446977615 0.00462285615503788 0.020880024880170822 -0.02941560372710228 0.052628472447395325 0.03330627828836441 0.04457521066069603 0.01156883779913187 0.035754889249801636 -0.009258297272026539 0.0549650639295578 -0.012720661237835884 0.04009441286325455 -0.0069100200198590755 0.01023330632597208 0.035141926258802414 0.03979595750570297 0.019197048619389534 0.03749650716781616 0.0551966056227684 0.03540782257914543 -0.06247307360172272 0.023323846980929375 -0.061360932886600494 0.037741951644420624 0.013992227613925934 0.023194164037704468 -0.0014818347990512848 -0.04394439980387688 0.034085940569639206 0.05769304558634758 -5.307378596626222E-4 0.033351246267557144 0.023475412279367447 -0.006055554375052452 -0.0032771099358797073 -0.04298044741153717 -0.009452913887798786 -0.028781656175851822 -0.004220752976834774 0.005674140062183142 -0.02971510775387287 0.0034957614261657 0.013267436996102333 -0.058157481253147125 -0.026222266256809235 -0.01763053610920906 0.009974878281354904 0.01894306018948555 -0.01451900601387024 0.041827406734228134 -0.009099128656089306 7.469062693417072E-4 0.03522326052188873 0.02270413190126419 -0.026866907253861427 -0.016439054161310196 0.030130598694086075 0.014671008102595806 0.022036533802747726 -0.017728179693222046 0.04066799581050873 0.029553428292274475 -0.02907738834619522 -0.020627440884709358 -0.007244467735290527 -0.00996741745620966 0.0074937548488378525 -0.039884693920612335 -0.03255588188767433 0.01514143031090498 0.02287873812019825 -0.0410178042948246 -0.026508959010243416 -0.01694631390273571 -0.01657709665596485 -0.014961153268814087 0.003439410589635372 -0.013219529762864113
http://dbpedia.org/ontology/birthYear 0.05344409868121147 0.048653725534677505 0.02358301728963852 -0.0034608948044478893 -0.025764133781194687 -0.025516366586089134 0.043747298419475555 -0.015352321788668633 -0.020817091688513756 -0.009849433787167072 -0.05548984184861183 -0.022440221160650253 -0.006740923970937729 0.02625918574631214 0.026964623481035233 -0.026987038552761078 -0.004596605896949768 -0.027886299416422844 0.021970486268401146 -0.04426625743508339 0.0537237748503685 -0.04392725229263306 0.008066721260547638 0.011117649264633656 -0.028284065425395966 0.04795615002512932 0.029477333649992943 0.030144471675157547 0.012040887959301472 0.05164723098278046 -0.015159661881625652 0.04445456713438034 -0.017919057980179787 0.05140751600265503 -0.013091681525111198 0.01634404808282852 0.03647245466709137 0.04238668829202652 0.012471693567931652 0.037277743220329285 0.051473237574100494 0.026585102081298828 -0.041259098798036575 0.03081447072327137 -0.051698602735996246 0.027363969013094902 0.013406096026301384 0.03115685097873211 0.009342124685645103 -0.047448910772800446 0.04580205678939819 0.05021413043141365 -0.006684516090899706 0.024569381028413773 0.02848292887210846 -0.007476111873984337 -0.018344063311815262 -0.06286994367837906 -0.0085765291005373 -0.03642147406935692 -0.016840370371937752 5.9295911341905594E-5 -0.042831577360630035 -0.011703288182616234 0.03764604032039642 -0.03556213900446892 -0.05537446588277817 -0.036160681396722794 -0.007957102730870247 0.002645614091306925 -0.03109048493206501 0.044370558112859726 -0.007554793730378151 -0.006112699396908283 0.04001152142882347 0.02921333722770214 -0.04574260115623474 -0.028369348496198654 0.033858031034469604 0.00770264957100153 0.026045531034469604 -0.014915559440851212 0.039186205714941025 0.03362623602151871 -0.028730401769280434 -0.013675245456397533 -4.466976970434189E-4 4.7045364044606686E-4 0.018590858206152916 -0.024460352957248688 -0.037885427474975586 0.0204139593988657 0.009649422019720078 -0.03600405529141426 -0.01795867830514908 -0.013056743890047073 -0.042410533875226974 -0.012497971765697002 -0.0027978341095149517 -0.007029122207313776
http://dbpedia.org/ontology/averageAnnualGeneration 0.00717430142685771 0.03055734932422638 0.046107541769742966 0.01784358359873295 0.015330204740166664 7.618567906320095E-4 0.02062171697616577 -0.012520741671323776 -0.028112607076764107 0.0012839888222515583 -0.042198359966278076 -0.022181544452905655 0.002022625645622611 0.06366559118032455 0.020603029057383537 0.003065540688112378 -0.013506032526493073 -0.059094201773405075 -0.0015615059528499842 -0.03855724632740021 0.04284117743372917 -0.05652185156941414 -8.86889174580574E-5 0.048387039452791214 -0.03882933035492897 0.022556064650416374 0.04206260293722153 0.03089301660656929 0.026616401970386505 0.02772337757050991 -0.036630019545555115 0.04024231433868408 -0.030900519341230392 0.023648332804441452 0.003004079218953848 0.031094200909137726 0.034561507403850555 0.05083107575774193 0.03036407381296158 0.04717753455042839 0.03563929721713066 0.011725213378667831 -0.04301759600639343 0.027081307023763657 -0.04755402356386185 0.03669923543930054 0.023269323632121086 0.04143671691417694 0.0355752669274807 -0.034441299736499786 0.05245719105005264 0.03908458352088928 -0.008700864389538765 0.03926841914653778 0.04482570290565491 -0.006929248571395874 -0.024024542421102524 -0.06123237684369087 -0.02273200824856758 -0.056039776653051376 -0.04151126742362976 0.031857483088970184 -0.05727626383304596 -0.010947639122605324 0.04762416332960129 -0.054952263832092285 -0.05807831138372421 -0.05705305188894272 0.035026952624320984 0.027158306911587715 0.0016573909670114517 0.05262665078043938 -0.053277552127838135 0.007767772767692804 0.03994583338499069 0.05137436091899872 -0.019614307209849358 -0.03890971839427948 0.012434606440365314 -0.004706278443336487 0.03699016571044922 -0.07198721915483475 0.06316878646612167 0.017922908067703247 -0.029516004025936127 -0.03845149651169777 -0.023305222392082214 5.172155797481537E-4 0.02062106318771839 -0.023394189774990082 -0.020546667277812958 0.03758353367447853 0.04216741770505905 -0.051103245466947556 -0.026487678289413452 -0.013423778116703033 -0.02948683127760887 -0.013820359483361244 -0.004903033375740051 -0.023147158324718475
http://dbpedia.org/ontology/topSpeed 0.049618110060691833 0.05224265158176422 0.023014266043901443 -5.639214068651199E-4 -0.017821788787841797 -0.018732402473688126 0.03361281380057335 -0.00823756493628025 -0.027099892497062683 -0.013820611871778965 -0.05734319984912872 -0.026102878153324127 -0.011650266125798225 0.02583382837474346 0.022366557270288467 -0.021800648421049118 -0.010973448865115643 -0.026077356189489365 0.019194677472114563 -0.045091815292835236 0.05739181488752365 -0.05252229794859886 0.008046755567193031 0.013516729697585106 -0.03603428974747658 0.04818885028362274 0.03391474857926369 0.03309744596481323 0.0112548116594553 0.051825977861881256 -0.020399000495672226 0.0519147589802742 -0.025873441249132156 0.0503678172826767 -0.011349004693329334 0.009775925427675247 0.03886660188436508 0.05056772381067276 0.02109328843653202 0.047600600868463516 0.05607141554355621 0.030080193653702736 -0.05989784002304077 0.028614835813641548 -0.06595227867364883 0.03473962843418121 0.014360175468027592 0.031539157032966614 0.004379246383905411 -0.047678105533123016 0.04547338932752609 0.05830630287528038 -0.006948881782591343 0.0380941741168499 0.030158936977386475 -7.769458461552858E-4 -0.01883360743522644 -0.05005250871181488 -0.011422909796237946 -0.037377092987298965 -0.012934119440615177 0.01400117576122284 -0.03979989141225815 -5.096159293316305E-4 0.028974143788218498 -0.057832494378089905 -0.04234171658754349 -0.029095390811562538 0.0016188863664865494 0.02314646728336811 -0.024698399007320404 0.05299266427755356 -0.017824307084083557 -0.0025529221165925264 0.038034141063690186 0.034347161650657654 -0.0389106348156929 -0.029755840077996254 0.02827366441488266 0.008388452231884003 0.026331230998039246 -0.019947659224271774 0.04723579064011574 0.0390513576567173 -0.033049773424863815 -0.01867085136473179 -0.007986683398485184 -0.009222044609487057 0.014308162033557892 -0.029965093359351158 -0.044566065073013306 0.025897232815623283 0.026316700503230095 -0.039821356534957886 -0.030155155807733536 -0.021924998611211777 -0.036143019795417786 -0.015334672294557095 -0.0033275620080530643 -0.005244957283139229
http://www.w3.org/1999/02/22-rdf-syntax-ns#type -0.7178427577018738 0.02513647824525833 1.123755931854248 0.25775524973869324 0.915965735912323 0.5134403109550476 -0.5775492787361145 0.0504472590982914 -5.62337227165699E-4 -0.016590265557169914 -0.014009805396199226 -0.007257502991706133 -0.1414962261915207 -0.37725019454956055 0.2877810001373291 -0.5689603686332703 -0.5437604784965515 -1.1875066757202148 -2.7878353595733643 2.2167227268218994 0.020503627136349678 -0.015036016702651978 -0.0046815997920930386 0.010759416036307812 0.0014527207240462303 0.012667043134570122 -0.0024358646478503942 0.004867213312536478 -0.0023423589300364256 -0.0349096916615963 -0.0026793123688548803 -0.011591043323278427 0.04070650786161423 -0.16533821821212769 0.06782118231058121 0.007295588031411171 0.016049781814217567 0.009701250120997429 -0.005612445995211601 0.00195476901717484 3.774647484533489E-4 5.3738996939500794E-5 -3.5182636929675937E-4 8.833485189825296E-4 0.03641508147120476 -0.010039480403065681 0.009485497139394283 0.0010779821313917637 0.09620979428291321 -0.0016960466746240854 0.10798588395118713 0.007819180376827717 -0.005944745149463415 0.009207891300320625 0.013712961226701736 -0.004722695332020521 -0.023431193083524704 0.09318316727876663 -0.027127493172883987 -0.011760955676436424 -0.07264244556427002 0.0647827759385109 0.03656743839383125 -0.04785139113664627 3.891024098265916E-4 -0.038925353437662125 -0.03213614225387573 0.011005518026649952 -0.02171415276825428 -0.00864699762314558 -0.013121751137077808 5.698386812582612E-4 -0.21412864327430725 0.062345366925001144 -0.04735815152525902 0.13549800217151642 -0.09395349770784378 -0.008571594953536987 0.08735950291156769 0.04442094266414642 -9.560605394653976E-4 0.0017462276155129075 -0.0015300899976864457 -6.583881331607699E-4 8.383157546631992E-4 -0.0019071933347731829 -0.0050072576850652695 -0.00565764307975769 -0.012154909782111645 0.04097340628504753 0.04484246298670769 -0.02055302821099758 0.17464664578437805 -0.7925666570663452 -0.6469451189041138 -0.548482358455658 -0.9795384407043457 -0.02431829832494259 -0.18005719780921936 0.0013734671520069242
http://dbpedia.org/ontology/redline 0.03171442821621895 0.046456411480903625 0.03022792376577854 0.01379991602152586 -0.013320822268724442 -0.016979672014713287 0.02855224907398224 -0.011233248747885227 -0.01740746758878231 -0.0048639546148478985 -0.04734467342495918 -0.02696731872856617 -0.0018702764064073563 0.026814088225364685 0.027252012863755226 -0.027306966483592987 -0.011264102533459663 -0.03621435910463333 0.015336988493800163 -0.046154893934726715 0.06402017921209335 -0.06082163006067276 2.0720716565847397E-4 0.04626908153295517 -0.03633011132478714 0.04539960250258446 0.040572285652160645 0.049467235803604126 0.014883337542414665 0.03976701945066452 -0.027421286329627037 0.05789904296398163 -0.025446416810154915 0.03700018674135208 -0.009927202947437763 0.01310741063207388 0.043416544795036316 0.05490057170391083 0.016610736027359962 0.04513202980160713 0.05938161164522171 0.033404067158699036 -0.07512560486793518 0.020982038229703903 -0.06996941566467285 0.03503168746829033 0.012671560049057007 0.0339009165763855 0.003945264965295792 -0.051654256880283356 0.03135371953248978 0.05793431028723717 -0.0029863701201975346 0.0376909114420414 0.029542462900280952 9.78045747615397E-4 -0.009982099756598473 -0.03457081690430641 -0.013503070920705795 -0.030588915571570396 -0.007336375303566456 0.012893215753138065 -0.037743017077445984 0.006838943809270859 0.01937457174062729 -0.06457191705703735 -0.02786123938858509 -0.0219954252243042 0.01579008251428604 0.02145206928253174 -0.011794596910476685 0.051035407930612564 -0.017709530889987946 -0.0057735806331038475 0.037315595895051956 0.035999856889247894 -0.030772535130381584 -0.02807115763425827 0.026797667145729065 0.0040819840505719185 0.02473806031048298 -0.024718426167964935 0.04188549891114235 0.034579798579216 -0.030540674924850464 -0.025262121111154556 -0.013560662046074867 -0.010204668156802654 0.013087818399071693 -0.031194154173135757 -0.03236023709177971 0.015432076528668404 0.022254060953855515 -0.03602563217282295 -0.01870027929544449 -0.007346210069954395 -0.033902280032634735 -0.010427728295326233 -0.002538432599976659 -0.011722113937139511
http://dbpedia.org/resource/? -0.1159302294254303 -0.05517352372407913 0.03193172067403793 0.07430750131607056 0.061289526522159576 0.041602715849876404 -0.0374877005815506 0.005353758577257395 -0.0012679087230935693 0.007674047257751226 0.022736890241503716 0.0012318205554038286 0.004745056387037039 0.0048222532495856285 -0.004725506063550711 -1.9064989464823157E-4 0.00698722992092371 0.01561523787677288 0.026092270389199257 -0.026474514976143837 0.009149745106697083 -0.006199775263667107 -0.007375740446150303 0.006508829537779093 -1.594884233782068E-4 0.009255719371140003 0.0029648959171026945 0.012186959385871887 0.002685154788196087 0.029039988294243813 0.00902860052883625 0.009734489023685455 -0.014140318147838116 0.05800579860806465 -0.028088632971048355 -0.010467005893588066 0.0020923824049532413 0.003793397918343544 -0.0014267268124967813 0.0026234500110149384 -0.005365144927054644 -8.493065251968801E-4 0.0050149415619671345 -0.007520143408328295 -0.011488343589007854 0.0036801889073103666 4.2035954538732767E-4 7.178578525781631E-4 -0.013846171088516712 0.003768166294321418 -0.01718037761747837 -0.0012822645949199796 -0.00433094147592783 8.353780140168965E-4 0.004071080591529608 -0.006533937528729439 -0.02002095989882946 0.05681164935231209 -0.021360622718930244 -0.01065648440271616 -0.04092731326818466 0.03894926607608795 0.02650328353047371 -0.030694594606757164 0.0034255925565958023 0.03356824070215225 0.025974273681640625 -0.014602827839553356 0.05860837921500206 0.02413029596209526 0.036586958914995193 0.001433670986443758 0.020524021238088608 -0.0012574749998748302 -0.0011997015681117773 -0.013718362897634506 0.023016655817627907 -0.0010091313160955906 -0.015276351943612099 -0.010599770583212376 7.704331655986607E-4 -0.004291082266718149 0.004574742633849382 -0.0017275948775932193 0.0010151955066248775 -0.006224741693586111 -0.0024990325327962637 -0.011589061468839645 -0.031131204217672348 0.04737476631999016 0.09484944492578506 -0.01977350376546383 -5.201966851018369E-4 0.01117589883506298 0.011576628312468529 0.004624077584594488 0.018625078722834587 0.004626227077096701 0.004750766791403294 -0.0021354779601097107
http://www.openlinksw.com/schemas/virtrdf#QuadMap 0.0032441848888993263 0.003902767552062869 -0.010659229010343552 0.02745860069990158 0.010458961129188538 -0.003761096391826868 -0.026203319430351257 -0.012273987755179405 -0.011246280744671822 -0.02246668003499508 0.0026063406839966774 -0.017669137567281723 -0.007840735837817192 0.02491350658237934 0.015419479459524155 0.0024220338091254234 -0.0024745340924710035 -0.028636738657951355 -0.01037542149424553 -0.015489431098103523 -0.0328291617333889 -0.007351691834628582 0.017050331458449364 0.01652081124484539 -0.013127356767654419 -0.02156928740441799 0.02234148047864437 -0.024319607764482498 0.03493308648467064 0.015345302410423756 -0.03035270795226097 -0.004055052064359188 -0.02725493721663952 0.009461803361773491 0.0041617341339588165 0.0327889546751976 -0.006917272694408894 -0.012451579794287682 0.009716525673866272 0.03042965568602085 -0.010497807525098324 -0.023577459156513214 0.05536916106939316 0.035226721316576004 0.049323029816150665 -0.01526002399623394 0.023782771080732346 0.002392072696238756 0.02283063530921936 -0.004778482485562563 0.032344091683626175 0.011367852799594402 -0.00223372271284461 -0.020003944635391235 0.008867192082107067 -0.006797140929847956 -0.028824500739574432 -0.01431278232485056 0.009010892361402512 -0.03767193853855133 -0.04075023904442787 0.00572412833571434 -0.019082125276327133 -0.03524565324187279 0.03350081294775009 0.03674124926328659 -0.04200071468949318 -0.037419550120830536 0.03417950123548508 0.004826677497476339 0.01956287771463394 -0.005529093090444803 -0.026355281472206116 0.00842251256108284 -0.016099823638796806 0.017470180988311768 0.026896480470895767 -0.018336191773414612 -0.026129255071282387 -0.03156786039471626 0.017290929332375526 -0.02601177804172039 -0.0035056190099567175 -0.0265714880079031 0.006158582400530577 -0.014947912655770779 -0.005873381160199642 0.024200236424803734 0.026030614972114563 0.038200948387384415 0.008805552497506142 0.024529483169317245 -0.02708282694220543 0.04057557135820389 0.03451419994235039 0.046566762030124664 -0.03201781213283539 0.01066610962152481 -0.01656598597764969 0.01084158755838871
http://www.openlinksw.com/schemas/virtrdf#QuadMapValue -0.007520277984440327 -0.005632923915982246 -0.026505043730139732 0.06945113092660904 0.04500303417444229 -0.008738702163100243 -0.06708603352308273 -0.03319739177823067 -0.029272018000483513 -0.045437414199113846 0.022417765110731125 -0.03928495943546295 -0.017523927614092827 0.05952046811580658 0.0373869426548481 0.021543066948652267 -0.009352580644190311 -0.06524166464805603 -0.05197778344154358 -0.022005712613463402 -0.09864497929811478 -0.005803489591926336 0.04102660343050957 0.03309576213359833 -0.04527917131781578 -0.07549905776977539 0.05044659227132797 -0.05974006652832031 0.08984088897705078 0.03262785077095032 -0.08916531503200531 -0.03086038865149021 -0.058568209409713745 0.017588824033737183 0.016891347244381905 0.09085134416818619 -0.019524669274687767 -0.015847977250814438 0.03656831383705139 0.0884127989411354 -0.03215159475803375 -0.06569848954677582 0.14625869691371918 0.09759655594825745 0.13385483622550964 -0.03729351609945297 0.05623923987150192 7.935748435556889E-4 0.06718605756759644 -0.015079866163432598 0.08494262397289276 0.015610740520060062 -0.0054583437740802765 -0.05317393317818642 0.03478849306702614 -0.01648750528693199 -0.09300338476896286 -0.022731587290763855 0.010530254803597927 -0.10410282760858536 -0.1097898781299591 0.030794108286499977 -0.03497660532593727 -0.08664225041866302 0.08323191851377487 0.10242617875337601 -0.09428077936172485 -0.09231653809547424 0.08769439160823822 0.02314603514969349 0.05431085079908371 -0.017879806458950043 -0.0751233771443367 0.01717851124703884 -0.04515037313103676 0.04758642986416817 0.07948583364486694 -0.06799621134996414 -0.08756714314222336 -0.08517763763666153 0.042955540120601654 -0.08251406252384186 -0.01855001412332058 -0.07906685024499893 0.011293817311525345 -0.05090537667274475 -0.016329877078533173 0.07431954145431519 0.07039595395326614 0.09737952798604965 0.02223730832338333 0.06289789080619812 -0.05961708724498749 0.11348830163478851 0.1013161838054657 0.11323550343513489 -0.0906781256198883 0.037648119032382965 -0.05329686030745506 0.01879199407994747
http://www.openlinksw.com/schemas/virtrdf#QuadMapFormat 0.006050048395991325 0.01568930596113205 -0.08160132169723511 0.18347230553627014 0.05843620002269745 -0.06700947880744934 -0.14820922911167145 -0.10718737542629242 -0.07799895107746124 -0.12591445446014404 0.04023425281047821 -0.10440696775913239 -0.05100492015480995 0.1319466084241867 0.1091613844037056 0.015444265678524971 -0.026072897017002106 -0.15905435383319855 -0.08569727092981339 -0.07319197803735733 -0.1580386459827423 -0.05852128192782402 0.08744344115257263 0.09961807727813721 -0.13472463190555573 -0.11192215234041214 0.1426931470632553 -0.10459548234939575 0.19542747735977173 0.1207643523812294 -0.2105504721403122 -0.02559703029692173 -0.15094241499900818 0.08159071207046509 0.024737713858485222 0.19576352834701538 -0.04715932533144951 -0.07294157892465591 0.0675855278968811 0.2116144448518753 -0.07201134413480759 -0.13187716901302338 0.35202091932296753 0.21824389696121216 0.3161573112010956 -0.11993903666734695 0.12066560238599777 -0.02631528116762638 0.11435165256261826 -0.03539882227778435 0.1636321246623993 0.05913938954472542 -0.006105560343712568 -0.09411121159791946 0.08327273279428482 -0.04161073639988899 -0.1974051296710968 -0.15225854516029358 0.02544623240828514 -0.2626822292804718 -0.2761017382144928 0.025836974382400513 -0.1446932703256607 -0.20518702268600464 0.2342914342880249 0.19754129648208618 -0.28815993666648865 -0.2401479333639145 0.2528080344200134 0.07691314816474915 0.15309928357601166 -0.029577696695923805 -0.21951641142368317 0.06352448463439941 -0.11202601343393326 0.12424425780773163 0.2277601659297943 -0.1302003562450409 -0.24972300231456757 -0.2149808257818222 0.08899571001529694 -0.2349834442138672 -0.0320601649582386 -0.22559431195259094 0.05472835898399353 -0.09675872325897217 -0.03590822219848633 0.16587847471237183 0.16095766425132751 0.2334986925125122 0.04686259478330612 0.11715753376483917 -0.13091087341308594 0.24837854504585266 0.21890988945960999 0.25231486558914185 -0.20630386471748352 0.08591651916503906 -0.10805369913578033 0.04998716339468956
http://dbpedia.org/ontology/installedCapacity 0.00988776981830597 0.0339830182492733 0.046217579394578934 0.027669789269566536 0.020851541310548782 0.0026349560357630253 0.02555667608976364 -0.01441153883934021 -0.024661988019943237 0.0017404481768608093 -0.029738999903202057 -0.02501090243458748 0.0028771725483238697 0.05601796507835388 0.014127261936664581 0.009144488722085953 -0.018152205273509026 -0.05952831730246544 -0.007730092387646437 -0.03556368499994278 0.03960959613323212 -0.060559552162885666 -0.0029518422670662403 0.05099954456090927 -0.03790720924735069 0.019570209085941315 0.047399457544088364 0.028815031051635742 0.023765146732330322 0.020994581282138824 -0.035836268216371536 0.04381629452109337 -0.02431359514594078 0.024223996326327324 0.006584927439689636 0.030779600143432617 0.025248710066080093 0.05043313652276993 0.03211052715778351 0.04982076957821846 0.03287455067038536 0.018176116049289703 -0.05769868940114975 0.028312813490629196 -0.051971182227134705 0.043208491057157516 0.016512619331479073 0.05138994753360748 0.034959569573402405 -0.025535063818097115 0.05057618021965027 0.031845323741436005 -0.013425243087112904 0.04910839721560478 0.04709157720208168 -0.010220619849860668 -0.023717021569609642 -0.0377686470746994 -0.021552853286266327 -0.05377347394824028 -0.035650961101055145 0.03602667897939682 -0.054404716938734055 0.0019273958168923855 0.03471458703279495 -0.06690103560686111 -0.03884756565093994 -0.05205996707081795 0.052163030952215195 0.04431239888072014 0.008208969607949257 0.04926281422376633 -0.060630958527326584 0.012140733189880848 0.03485808148980141 0.06157764047384262 -0.008715901523828506 -0.03946429118514061 -0.0024788465816527605 -0.011125504039227962 0.0325486846268177 -0.066704161465168 0.061118289828300476 0.02091204561293125 -0.026189053431153297 -0.040284015238285065 -0.02813851088285446 -0.00315265404060483 0.019731134176254272 -0.02447396144270897 -0.013692938722670078 0.03731658682227135 0.05079520866274834 -0.05886419117450714 -0.031596194952726364 -0.01702599786221981 -0.01574014499783516 -0.023121245205402374 -0.001095419516786933 -0.023835252970457077
http://dbpedia.org/resource/SEK_class_?? -0.06417211145162582 -0.031738825142383575 0.025879569351673126 0.04527704790234566 0.03903179243206978 0.02088441513478756 -0.03588204085826874 0.003014819696545601 8.120272541418672E-4 0.005792577750980854 0.00996541976928711 0.00420355424284935 0.009201787412166595 0.014205202460289001 -0.01580958440899849 0.02811722457408905 0.0050550904124975204 0.0227512214332819 0.04890095070004463 -0.03628702089190483 0.03802892565727234 -0.027788031846284866 -0.007614981383085251 0.017140960320830345 -4.792272229678929E-4 0.004473594017326832 -0.006085414905101061 3.1031586695462465E-4 -0.0020787981338799 0.009542668238282204 0.005810373462736607 -0.0025292085483670235 -0.0032399522606283426 0.020883938297629356 -0.008862852118909359 -0.0020135974045842886 0.004603932611644268 0.0021882278379052877 -0.00421015964820981 3.115908184554428E-4 0.002854401245713234 0.001331243314780295 -0.0032805120572447777 0.0054612052626907825 -0.0038729447405785322 0.005457088816910982 -0.004256422631442547 3.744396090041846E-4 -0.005051000975072384 0.004957042634487152 -0.007315377239137888 0.0013945662649348378 0.002598582301288843 -0.002857599640265107 -6.967383669689298E-4 1.6808710643090308E-4 -0.020860398188233376 0.07426156103610992 -0.02165697142481804 -0.009461581707000732 -0.04821750894188881 0.0431920662522316 0.02578791044652462 -0.03752346336841583 0.002756032394245267 0.013213894329965115 0.010471418499946594 -0.008993808180093765 0.012317628599703312 0.004836265929043293 0.0029698368161916733 -0.0010975392069667578 0.005460753105580807 -0.006250981241464615 0.003653858322650194 -0.0033173684496432543 0.01016322709619999 -0.003492798423394561 -0.004894167184829712 -0.0018123630434274673 0.005836551543325186 9.496253915131092E-4 0.00699204346165061 -0.003526438493281603 -0.001157088321633637 -0.003746864851564169 -0.009930230677127838 -0.005026054568588734 0.0017597107216715813 -0.001228471752256155 -0.0048919375985860825 0.006696989294141531 -0.0048873089253902435 0.002172695240005851 0.0019293054938316345 0.008470956236124039 0.015290237963199615 0.005656689405441284 0.005975586827844381 -0.0011264161439612508
http://www.openlinksw.com/schemas/virtrdf#QuadMapATable -0.004142800346016884 -0.0015714587643742561 -0.01455882377922535 0.018344372510910034 0.011563437059521675 -0.0030777747742831707 -0.02569660358130932 -0.013908155262470245 -0.00758858397603035 -0.013053355738520622 0.010868245735764503 -0.01804698444902897 -0.0032333796843886375 0.020441453903913498 0.013302188366651535 0.009926630184054375 -0.007276920601725578 -0.027179617434740067 -0.014017962850630283 -0.009834127500653267 -0.030008206143975258 -7.380370516330004E-5 0.01076844148337841 0.010404675267636776 -0.019901644438505173 -0.022669073194265366 0.019511330872774124 -0.026266805827617645 0.03361986204981804 0.012732291594147682 -0.033587247133255005 -0.010821153409779072 -0.026513749733567238 0.011012325994670391 0.005313493311405182 0.03180534020066261 -0.007121009286493063 -0.005037725903093815 0.013572163879871368 0.026104755699634552 -0.018409084528684616 -0.01957889087498188 0.060540471225976944 0.03983018547296524 0.0474984385073185 -0.010904846712946892 0.025477824732661247 0.003355493303388357 0.02955038845539093 -3.8659898564219475E-5 0.03094928339123726 2.1620281040668488E-4 0.0032607517205178738 -0.024100951850414276 0.009610328823328018 -0.011312094517052174 -0.030684538185596466 -0.012178207747638226 0.003391517326235771 -0.04266149178147316 -0.04326798766851425 0.009216472506523132 -0.017490731552243233 -0.03664436563849449 0.03023170493543148 0.036388516426086426 -0.03158027306199074 -0.037467144429683685 0.03730708360671997 0.006787312217056751 0.021146878600120544 -0.007704049814492464 -0.02228201925754547 0.0060023474507033825 -0.014963436871767044 0.010582249611616135 0.029439318925142288 -0.02570338360965252 -0.03590642288327217 -0.02853696420788765 0.01762939989566803 -0.03264951333403587 -0.011723732575774193 -0.03347809612751007 0.008350370451807976 -0.013434401713311672 0.0011895005591213703 0.03006652742624283 0.025239719077944756 0.04298444464802742 0.012465556152164936 0.023272212594747543 -0.028356395661830902 0.042081721127033234 0.03230299428105354 0.04565737396478653 -0.03344607353210449 0.018992116674780846 -0.02135816216468811 0.009663419798016548
http://dbpedia.org/ontology/zipCode 0.044856540858745575 0.050474416464567184 0.0275767520070076 0.0014579212293028831 -0.009480542503297329 -0.009979017078876495 0.03152628615498543 -0.008945736102759838 -0.01815621554851532 -0.0015537531580775976 -0.04252259433269501 -0.015408005565404892 6.342181004583836E-4 0.022186562418937683 0.011857492849230766 -0.015216952189803123 -0.00996160227805376 -0.031424328684806824 0.017543423920869827 -0.03841322287917137 0.07544700056314468 -0.05681009590625763 -0.01350320689380169 0.03957095742225647 -0.030885323882102966 0.053894441574811935 0.03660620376467705 0.05446043238043785 0.00459310133010149 0.029499229043722153 -0.019597040489315987 0.05743946135044098 -0.01597493141889572 0.029128026217222214 -0.005123126320540905 0.007745865732431412 0.041506052017211914 0.055236946791410446 0.012504762038588524 0.028771083801984787 0.06334715336561203 0.035866789519786835 -0.08271641284227371 0.008669431321322918 -0.07327745109796524 0.042788468301296234 0.008153347298502922 0.034856006503105164 -0.006073202937841415 -0.044290851801633835 0.029147643595933914 0.05009377747774124 -0.00902178231626749 0.03870261460542679 0.023517325520515442 -0.0026546334847807884 -0.0011716377921402454 -0.030572183430194855 -0.011785358190536499 -0.015109594911336899 0.0023466139100492 0.0195340346544981 -0.03278374299407005 0.010641718283295631 0.01223840657621622 -0.07274220883846283 -0.015993814915418625 -0.01662624441087246 0.025229712948203087 0.03139394521713257 -0.006155684124678373 0.05035081133246422 -0.01929093524813652 0.0015028659254312515 0.03473193198442459 0.022988710552453995 -0.02253667078912258 -0.017823461443185806 0.02235650084912777 0.007023013196885586 0.016496136784553528 -0.03298451751470566 0.04083048552274704 0.03161081671714783 -0.026326073333621025 -0.02332909032702446 -0.01777433045208454 -0.020313583314418793 0.00847860611975193 -0.03621608018875122 -0.03323845937848091 0.01832304708659649 0.027108676731586456 -0.052391327917575836 -0.035977575927972794 -0.018701769411563873 -0.02156861126422882 -0.021665580570697784 0.0011042746482416987 -0.012844517827033997
http://dbpedia.org/ontology/restingDate 0.034655217081308365 0.050676919519901276 0.027835959568619728 0.012967804446816444 -0.01124540250748396 -0.0091926921159029 0.03587014600634575 -0.013555217534303665 -0.022680366411805153 -0.005054401233792305 -0.05120791122317314 -0.021936269477009773 -0.005438534077256918 0.026546604931354523 0.023338982835412025 -0.019735533744096756 -0.012799413874745369 -0.03297556936740875 0.019220825284719467 -0.04173513501882553 0.06998090445995331 -0.06644023954868317 -1.0735169053077698E-4 0.035774633288383484 -0.036083467304706573 0.04633651301264763 0.04042365774512291 0.05400657281279564 0.01590610481798649 0.03246135264635086 -0.018604155629873276 0.055314093828201294 -0.019172724336385727 0.039984628558158875 -0.011424921452999115 0.018969889730215073 0.04822228103876114 0.050367727875709534 0.020188340917229652 0.03954019770026207 0.056839924305677414 0.033596646040678024 -0.06831616163253784 0.024244992062449455 -0.06340956687927246 0.03893601894378662 0.007357594557106495 0.03254984691739082 0.004299771040678024 -0.04877305403351784 0.03792291879653931 0.06278146803379059 -0.006796212866902351 0.031774695962667465 0.031677160412073135 0.0011377445189282298 -0.013267381116747856 -0.04104584828019142 -0.012404674664139748 -0.023675380274653435 -0.008190837688744068 0.016065029427409172 -0.0313911996781826 0.010104562155902386 0.023296570405364037 -0.061318289488554 -0.02767973765730858 -0.026963692158460617 0.013589560985565186 0.026845518499612808 -0.008545882999897003 0.05049804970622063 -0.022216111421585083 -0.003986119292676449 0.0352010503411293 0.03797534853219986 -0.02739102393388748 -0.027973603457212448 0.025205636397004128 0.007331894710659981 0.02075132355093956 -0.02659134566783905 0.04061559587717056 0.0332813523709774 -0.030607443302869797 -0.02955523133277893 -0.012834005989134312 -0.00783633440732956 0.011707762256264687 -0.028932450339198112 -0.03999222069978714 0.022849785163998604 0.02276410162448883 -0.04019429534673691 -0.019190022721886635 -0.011032262817025185 -0.030937353149056435 -0.01416688784956932 0.003521111560985446 -0.007876981981098652
http://dbpedia.org/ontology/fuelCapacity 0.023765703663229942 0.02314215898513794 0.023697031661868095 0.008360627107322216 0.006357785314321518 -0.003223537001758814 0.013031643815338612 -0.00992629025131464 -0.011796623468399048 -2.497753594070673E-4 -0.025393130257725716 -0.017773861065506935 8.756216848269105E-4 0.0132730258628726 0.0045951553620398045 -0.007022545672953129 -0.006038646679371595 -0.02881746180355549 -0.0012556121218949556 -0.019046366214752197 0.045074932277202606 -0.047513462603092194 -0.011735265143215656 0.04544517397880554 -0.02939710207283497 0.036525387316942215 0.03339134156703949 0.03710535913705826 0.014313369989395142 0.021223874762654305 -0.01914362981915474 0.0394279807806015 -0.01673131436109543 0.022794047370553017 0.0024076325353235006 0.017344053834676743 0.029432388022542 0.047559138387441635 0.02637358009815216 0.028511419892311096 0.040463127195835114 0.03227047622203827 -0.06262163817882538 0.014668343588709831 -0.06231968104839325 0.03160307928919792 0.011050873436033726 0.03471522778272629 4.5697111636400223E-4 -0.035838667303323746 0.018077466636896133 0.03953488543629646 -0.011790604330599308 0.03780212625861168 0.023699060082435608 9.013920789584517E-4 -2.9596127569675446E-4 -0.007582507561892271 -0.018438279628753662 -0.01451810635626316 -2.4076364934444427E-4 0.02814323641359806 -0.02287813276052475 0.02044903300702572 0.01003496814519167 -0.06264615058898926 0.0027985675260424614 -0.015908077359199524 0.04347085580229759 0.03230607509613037 0.007826725021004677 0.03678390756249428 -0.027776585891842842 0.009512770920991898 0.02897961251437664 0.02810056321322918 -0.005392923019826412 -0.013049102388322353 0.006217921152710915 0.0013518979540094733 0.008566992357373238 -0.030534544959664345 0.02655012160539627 0.015865227207541466 -0.022666731849312782 -0.026247017085552216 -0.025282878428697586 -0.008648302406072617 0.00245730415917933 -0.033443253487348557 -0.02602892369031906 0.01908503659069538 0.016926325857639313 -0.034996528178453445 -0.022991692647337914 -0.01005796529352665 -0.025693871080875397 -0.009959517046809196 8.934398647397757E-4 -0.009528335183858871
http://www.openlinksw.com/schemas/virtrdf#array-of-QuadMapColumn -0.009118040092289448 -0.002242118353024125 -0.026455756276845932 0.06279916316270828 0.045890677720308304 -0.012468576431274414 -0.07438241690397263 -0.03964260220527649 -0.02615622989833355 -0.04867927357554436 0.025199588388204575 -0.03542701527476311 -0.019501451402902603 0.06635873764753342 0.04137631133198738 0.014616169035434723 -0.01321425475180149 -0.06536663323640823 -0.05185240879654884 -0.018838882446289062 -0.09623291343450546 -0.009342600591480732 0.03862880915403366 0.04005461558699608 -0.04850104823708534 -0.0796441063284874 0.044329531490802765 -0.06440823525190353 0.08788146823644638 0.03575732558965683 -0.09208567440509796 -0.03945138677954674 -0.061474304646253586 0.013016956858336926 0.013580256141722202 0.08482632040977478 -0.021552864462137222 -0.016842706128954887 0.039922527968883514 0.08304712921380997 -0.034732021391391754 -0.060242775827646255 0.15103775262832642 0.10029540956020355 0.13764794170856476 -0.04187799245119095 0.05267295241355896 0.007406713906675577 0.06984362751245499 -0.011412975378334522 0.08320310711860657 0.00863831676542759 -0.001319254981353879 -0.06191658973693848 0.0392179936170578 -0.020828092470765114 -0.09118153899908066 -0.016790276393294334 0.012797344475984573 -0.09954699873924255 -0.11610960215330124 0.03072601556777954 -0.02994433231651783 -0.08138319104909897 0.08267199993133545 0.10106061398983002 -0.08887423574924469 -0.08584500849246979 0.0881369411945343 0.025332128629088402 0.049698200076818466 -0.02403816394507885 -0.07775726914405823 0.01778990775346756 -0.04443507641553879 0.05100982263684273 0.07185988873243332 -0.06412661075592041 -0.09616672247648239 -0.09040053188800812 0.04226764664053917 -0.07793372869491577 -0.022641226649284363 -0.08823851495981216 0.01579201966524124 -0.046506959944963455 -0.009026279672980309 0.07636258006095886 0.07774235308170319 0.10261799395084381 0.02253613993525505 0.05906364694237709 -0.060353834182024 0.11759249866008759 0.09872166067361832 0.12495003640651703 -0.09013159573078156 0.03929160535335541 -0.057586491107940674 0.024750027805566788
http://www.openlinksw.com/schemas/virtrdf#array-of-QuadMapFormat -0.035327423363924026 -0.04055681452155113 -0.13240496814250946 0.18818271160125732 0.093317911028862 -0.04964043200016022 -0.24078814685344696 -0.09846949577331543 -0.06654296070337296 -0.15191657841205597 0.09935004264116287 -0.09183225780725479 -0.05462530627846718 0.08824512362480164 0.11306216567754745 0.015381383709609509 -0.008285936899483204 -0.12243831157684326 -0.11858171969652176 -0.026978913694620132 -0.30203333497047424 0.02240687981247902 0.100089430809021 0.06029035523533821 -0.09449834376573563 -0.23325712978839874 0.10103240609169006 -0.19363373517990112 0.21778567135334015 0.0605095736682415 -0.22135043144226074 -0.12479908019304276 -0.14852717518806458 0.028847185894846916 0.046046849340200424 0.21136857569217682 -0.050792060792446136 -0.040823087096214294 0.09809815883636475 0.21794144809246063 -0.09898287057876587 -0.1618870496749878 0.38430923223495483 0.24696685373783112 0.35112273693084717 -0.0951262041926384 0.1429101675748825 0.01213493850082159 0.18724483251571655 -0.007879778742790222 0.20705676078796387 0.009361585602164268 -0.014060248620808125 -0.1596246212720871 0.07944008708000183 -0.052862659096717834 -0.21145795285701752 0.039859216660261154 0.031775690615177155 -0.20924139022827148 -0.2585248053073883 0.09495360404253006 -0.027790650725364685 -0.18791238963603973 0.15389132499694824 0.28225913643836975 -0.13587787747383118 -0.18514147400856018 0.18100744485855103 0.01920338161289692 0.1088247001171112 -0.06613259017467499 -0.1912013739347458 0.020432190969586372 -0.13811635971069336 0.12961943447589874 0.18106718361377716 -0.16786077618598938 -0.22749072313308716 -0.22431977093219757 0.1090053915977478 -0.1513192355632782 -0.06044357270002365 -0.20318275690078735 0.022064611315727234 -0.13229358196258545 -0.050852350890636444 0.16760827600955963 0.18439701199531555 0.2309047281742096 0.06144164502620697 0.16271468997001648 -0.15530066192150116 0.2987004816532135 0.24989359080791473 0.3005266487598419 -0.22090429067611694 0.0954827070236206 -0.12603387236595154 0.05676591023802757
http://dbpedia.org/ontology/height 0.041167594492435455 0.04518997669219971 0.02545289881527424 -0.007018690463155508 -0.01520669087767601 -0.006805467884987593 0.03556347265839577 -0.0044087497517466545 -0.02181551232933998 2.520768903195858E-4 -0.047446444630622864 -0.013593888841569424 6.032863166183233E-5 0.023007724434137344 0.02072584629058838 -0.011064072139561176 -0.009124664589762688 -0.021890046074986458 0.017021890729665756 -0.03656190633773804 0.06302893906831741 -0.05075038596987724 8.572624064981937E-4 0.024967513978481293 -0.02581986039876938 0.04645039141178131 0.02536032721400261 0.043807756155729294 0.009291411377489567 0.03118153288960457 -0.016249261796474457 0.044813331216573715 -0.018631462007761 0.03656387701630592 -0.010157694108784199 0.01183643750846386 0.03541117161512375 0.04140913859009743 0.0187849011272192 0.030195537954568863 0.05610773339867592 0.029579520225524902 -0.06814462691545486 0.019117120653390884 -0.0649644061923027 0.03498407080769539 0.00963878259062767 0.03222561255097389 0.011912595480680466 -0.03903083875775337 0.03217288479208946 0.04499572142958641 -0.007079889997839928 0.030292242765426636 0.026855023577809334 -8.588745258748531E-4 -0.010595465078949928 -0.03612064570188522 -0.01446192990988493 -0.0286555178463459 -0.0014836685732007027 0.014088315889239311 -0.0308642890304327 0.010783974081277847 0.011328676715493202 -0.06467759609222412 -0.021581755951046944 -0.01591927744448185 0.011567124165594578 0.02053835429251194 -0.01858721673488617 0.041179109364748 0.0025342614389955997 1.068231649696827E-4 0.04164419323205948 0.014781047590076923 -0.030948283150792122 -0.017583442851901054 0.028630802407860756 0.009672274813055992 0.017925744876265526 -0.019774561747908592 0.03857334330677986 0.028840521350502968 -0.026819420978426933 -0.019526919350028038 -0.01810542121529579 -0.01231396198272705 0.001157122664153576 -0.04288092255592346 -0.02908826619386673 0.011772891506552696 0.020540131255984306 -0.04092144966125488 -0.02621651068329811 -0.015202285721898079 -0.015909312292933464 -0.01760302670300007 0.0016349263023585081 -0.011027120053768158
http://www.w3.org/2002/07/owl#FunctionalProperty 0.02892831526696682 0.032869644463062286 -0.1315780133008957 0.2913430631160736 0.052137162536382675 -0.11045078188180923 -0.20175014436244965 -0.14893117547035217 -0.07433021068572998 -0.1649099588394165 -0.01679036021232605 -0.10748268663883209 -0.06816713511943817 -0.1655694991350174 0.12434361129999161 -0.1707388460636139 0.0075617590919137 -0.048973310738801956 -0.002613021992146969 -0.06278474628925323 -0.06423621624708176 -0.06918284296989441 0.10595493018627167 0.020600758492946625 -0.16836845874786377 -0.006486847996711731 0.16960467398166656 -0.03525475412607193 0.1629917472600937 0.2289736121892929 -0.1765834540128708 0.10200846195220947 -0.13399645686149597 0.18175780773162842 -0.026939941570162773 0.12968292832374573 0.08807189017534256 0.16446371376514435 0.17405186593532562 0.33137837052345276 0.17092826962471008 0.08411279320716858 -0.15338121354579926 0.11107134819030762 -0.12311996519565582 0.07098369300365448 0.05669761821627617 0.0881395936012268 -0.028375204652547836 -0.13621465861797333 0.07023560255765915 0.1854764223098755 -0.04863104969263077 0.10683805495500565 0.13373097777366638 -0.026673438027501106 -0.06491505354642868 0.1391785442829132 -0.04852034151554108 -0.05769810080528259 -0.061625488102436066 0.1755581498146057 -0.03665877878665924 0.02249397151172161 0.021996891126036644 -0.11361472308635712 0.05459596961736679 -0.08915495127439499 0.14020709693431854 0.10119052231311798 -0.03351213410496712 0.19487632811069489 -0.32581204175949097 -0.0068905651569366455 0.06143961101770401 0.3834242820739746 -0.06843005865812302 -0.22226014733314514 3.05145513266325E-4 -0.12227825075387955 0.09913530945777893 -0.06458970904350281 0.12499973922967911 0.08708242326974869 -0.1453017145395279 -0.11872174590826035 0.00740538164973259 0.11898773163557053 0.1240677684545517 0.053579606115818024 -0.23847901821136475 0.03824938088655472 -0.0012131892144680023 -0.12473008781671524 -0.09804397821426392 -0.06471415609121323 -0.16128329932689667 0.07367105036973953 -0.029831990599632263 0.12074542045593262
http://www.w3.org/2002/07/owl#InverseFunctionalProperty -0.006975749973207712 0.0011339278426021338 -0.011482778936624527 0.029345598071813583 0.016177792102098465 -0.003079257672652602 -0.025332076475024223 -0.017635488882660866 -0.010601932182908058 -0.020261844620108604 0.007679167203605175 -0.01292399875819683 -0.005848738364875317 0.02657279185950756 0.013342998921871185 0.005041930358856916 -0.008542105555534363 -0.020913446322083473 -0.021191060543060303 -0.01022783387452364 -0.0326722115278244 -0.001107074087485671 0.01521361991763115 0.011394526809453964 -0.015599073842167854 -0.023226255550980568 0.020929474383592606 -0.018391508609056473 0.0310344360768795 0.011368142440915108 -0.036700502038002014 -0.013682566583156586 -0.02541448175907135 0.012454495765268803 0.005166829563677311 0.029932819306850433 -0.005352826323360205 -0.012922845780849457 0.014644496142864227 0.03550625219941139 -0.009988395497202873 -0.024248089641332626 0.05897834151983261 0.035309694707393646 0.04519135504961014 -0.01133016124367714 0.016322003677487373 0.0032234294340014458 0.026062125340104103 -5.843173712491989E-4 0.027861416339874268 0.007221512496471405 -0.004946776665747166 -0.021960372105240822 0.014457634650170803 -0.00420050835236907 -0.0375765897333622 -0.010757549665868282 0.006734618917107582 -0.03954184800386429 -0.04529748857021332 0.0087047154083848 -0.020187171176075935 -0.03142236918210983 0.0337822251021862 0.03393569588661194 -0.04173766449093819 -0.03399861231446266 0.0360431894659996 0.0033847270533442497 0.016459418460726738 -0.0022718249820172787 -0.029440173879265785 0.005939813330769539 -0.017520733177661896 0.016242992132902145 0.026692397892475128 -0.023000668734312057 -0.03340762108564377 -0.03222249820828438 0.016063621267676353 -0.024752087891101837 -0.008389214053750038 -0.02943134307861328 0.008427594788372517 -0.019574841484427452 -2.711145207285881E-4 0.022231025621294975 0.030355099588632584 0.036878980696201324 0.005630780942738056 0.018595466390252113 -0.02584817074239254 0.03913823515176773 0.03455182537436485 0.04720231890678406 -0.02843388542532921 0.01880718395113945 -0.01682235486805439 0.006828472018241882
http://dbpedia.org/ontology/weight 0.047847118228673935 0.04293268546462059 0.022536419332027435 -1.630093902349472E-5 -0.0072302427142858505 -0.016604037955403328 0.032416850328445435 -0.016238894313573837 -0.017570842057466507 -0.0082319974899292 -0.04729204624891281 -0.0193458441644907 -0.0020755527075380087 0.021118972450494766 0.017544010654091835 -0.021058108657598495 -0.008594006299972534 -0.024206072092056274 0.017138222232460976 -0.039981644600629807 0.06469662487506866 -0.04590167477726936 0.0057407584972679615 0.023127885535359383 -0.0309235081076622 0.050734009593725204 0.0386875681579113 0.03532960265874863 0.014348853379487991 0.03882209211587906 -0.01489213202148676 0.04834873974323273 -0.022348051890730858 0.04370415583252907 -0.007046230137348175 0.012408435344696045 0.042393554002046585 0.045852936804294586 0.016319898888468742 0.041228801012039185 0.05319898948073387 0.03490133211016655 -0.06249465048313141 0.029776182025671005 -0.05948173254728317 0.03444821387529373 0.00956212542951107 0.023959901183843613 0.007308874279260635 -0.04802069067955017 0.02906137704849243 0.059412673115730286 -0.003025670303031802 0.03453676030039787 0.021149635314941406 -0.0065973736345767975 -0.011293360963463783 -0.0429241806268692 -0.007070756517350674 -0.030715733766555786 -0.007913710549473763 0.00801202654838562 -0.0361284576356411 0.011864610947668552 0.016493821516633034 -0.06424224376678467 -0.02585713565349579 -0.02443992905318737 0.006245472934097052 0.024210937321186066 -0.01734820008277893 0.048484042286872864 -0.005547638051211834 -0.0067731295712292194 0.03420669212937355 0.023625822737812996 -0.03102773055434227 -0.022015351802110672 0.020495016127824783 0.009999682195484638 0.017291830852627754 -0.019641157239675522 0.04007517546415329 0.02787187322974205 -0.030544083565473557 -0.022556230425834656 -0.010670584626495838 -0.015620088204741478 0.010432202368974686 -0.03910575807094574 -0.029458768665790558 0.01074756495654583 0.023078197613358498 -0.034370239824056625 -0.027021411806344986 -0.017438028007745743 -0.02071685716509819 -0.014400303363800049 0.005897399969398975 -0.006900587119162083
http://dbpedia.org/ontology/powerOutput 0.025216666981577873 0.030176974833011627 0.016554441303014755 -0.0011086270678788424 0.004831119906157255 -0.006756974849849939 0.01611930876970291 -0.008491139858961105 -0.013711171224713326 -0.004390834365040064 -0.027192624285817146 -0.014623196795582771 7.529217400588095E-4 0.030417341738939285 0.00910022109746933 -0.006595800165086985 -0.01103027630597353 -0.030349578708410263 0.006400436628609896 -0.02669442445039749 0.03599143028259277 -0.04054819047451019 -0.004042621701955795 0.02782025933265686 -0.026208247989416122 0.03126220032572746 0.02804708480834961 0.03133470565080643 0.01219740230590105 0.02778587117791176 -0.016148332506418228 0.029137272387742996 -0.014320866204798222 0.02941443771123886 -0.0042816950008273125 0.01554536446928978 0.025661766529083252 0.03392622619867325 0.014672940596938133 0.02691769413650036 0.03440907597541809 0.01616715081036091 -0.027494056150317192 0.033095382153987885 -0.026669446378946304 0.021811895072460175 0.012586347758769989 0.02105465531349182 0.014930770732462406 -0.0332651250064373 0.033377647399902344 0.03184301778674126 1.4648737851530313E-4 0.01311558112502098 0.016447342932224274 -0.004892309661954641 -0.012411080300807953 -0.032326504588127136 -0.007586907595396042 -0.028932075947523117 -0.00877436064183712 0.009445656090974808 -0.030585438013076782 8.462322875857353E-4 0.011478224769234657 -0.04254354164004326 -0.021205401048064232 -0.02164444699883461 0.022870983928442 0.0247590783983469 0.00540257478132844 0.02112516388297081 -0.0059456299059093 0.004049141891300678 0.01714540645480156 0.0038521704263985157 -0.008141692727804184 -0.015589226968586445 4.833596758544445E-4 -0.005525391548871994 0.009796509519219398 -0.027563968673348427 0.020904939621686935 0.005202233791351318 -0.012959092855453491 -0.022128306329250336 -0.020964426919817924 -0.01030510850250721 0.008379830047488213 -0.02084849402308464 -0.012641970999538898 0.01631099544465542 0.01251973956823349 -0.011194359511137009 0.00184288015589118 -3.1349295750260353E-4 -0.018053721636533737 -0.007931810803711414 3.5001873038709164E-4 -0.00688521284610033
http://www.openlinksw.com/schemas/virtrdf#array-of-QuadMap -0.0012948093935847282 5.210437811911106E-4 -0.015213445760309696 0.025666378438472748 0.02322808839380741 -0.007272991351783276 -0.029704419896006584 -0.014480653218925 -0.017682230100035667 -0.017569459974765778 0.01638641394674778 -0.015329720452427864 -0.0043065957725048065 0.03148243576288223 0.014740245416760445 0.007874076254665852 -0.0038667814806103706 -0.03385193645954132 -0.020525328814983368 -0.010764474049210548 -0.044060371816158295 -0.009557192213833332 0.016471263021230698 0.017309969291090965 -0.018254105001688004 -0.03391522541642189 0.018942108377814293 -0.030811484903097153 0.039281848818063736 0.017949899658560753 -0.045053597539663315 -0.010263852775096893 -0.03299325332045555 0.012439390644431114 0.009258936159312725 0.039068255573511124 -0.007194703910499811 -0.013657841831445694 0.018195865675807 0.041691701859235764 -0.015435674227774143 -0.03116362914443016 0.06838954985141754 0.04625442251563072 0.06521546095609665 -0.020174825564026833 0.024261493235826492 0.0037133973091840744 0.03647121787071228 -0.004057181067764759 0.03695317730307579 0.008440200239419937 -0.003785270033404231 -0.02714419737458229 0.017364501953125 -0.005860927980393171 -0.042949020862579346 -0.012075282633304596 4.8701977357268333E-4 -0.0448717437684536 -0.054804980754852295 0.015908323228359222 -0.022942200303077698 -0.03959808126091957 0.04181398078799248 0.04165974631905556 -0.0398854985833168 -0.04161639139056206 0.047086119651794434 0.014218045398592949 0.032510630786418915 -0.012811240740120411 -0.033694151788949966 0.011172875761985779 -0.02205241471529007 0.016506202518939972 0.04223644360899925 -0.027015266939997673 -0.04382868483662605 -0.045713428407907486 0.019410869106650352 -0.03616121783852577 -0.006276138126850128 -0.04595917835831642 0.009521066211163998 -0.016401400789618492 -0.003723571076989174 0.03302789479494095 0.029817407950758934 0.04538276419043541 0.013346446678042412 0.029542120173573494 -0.02679968811571598 0.055961139500141144 0.048194609582424164 0.0581778958439827 -0.042761970311403275 0.021996114403009415 -0.027074549347162247 0.01486293040215969
http://dbpedia.org/resource/.??? -0.03861372917890549 -0.020364144816994667 0.009782450273633003 0.0271929744631052 0.024391191080212593 0.01244016271084547 -0.009605096653103828 -0.0031405999325215816 3.3187452936545014E-4 0.00795922800898552 0.020625755190849304 2.6412669103592634E-4 9.413750376552343E-4 -0.0010136673226952553 3.439334686845541E-4 -0.004862341098487377 0.0023968289606273174 0.0027366210706532 -6.552659906446934E-4 7.892865687608719E-5 0.0014852818567305803 -0.008954822085797787 -0.0037241685204207897 0.001974578248336911 -0.0033843708224594593 0.003276902250945568 0.003241114318370819 0.00652184896171093 0.004368541296571493 0.012219361029565334 0.0030626291409134865 0.004091089125722647 -0.01040157862007618 0.07724429666996002 -0.03037690930068493 -0.013403412885963917 -0.01031332928687334 -0.005083524622023106 0.007152128964662552 0.001351257087662816 -0.0241231806576252 -0.016598636284470558 0.019974596798419952 -0.010296684689819813 0.004224160686135292 -0.003470437368378043 -0.0011418028734624386 -0.005337925162166357 -0.010392448864877224 0.0055731902830302715 -0.007748693227767944 -0.002806254429742694 6.201042560860515E-4 0.004239870235323906 0.001019791467115283 -0.0040213121101260185 -0.009810162708163261 0.04463532194495201 -0.014485908672213554 -0.007057183887809515 -0.052065409719944 0.047777287662029266 0.023703444749116898 -0.03549952059984207 0.001174497650936246 0.03772453963756561 0.025171322748064995 -0.012365779839456081 0.0387963131070137 0.014585861004889011 0.01752515509724617 0.0027805278077721596 -0.0023453403264284134 0.005059014540165663 6.78558717481792E-4 0.0054560210555791855 0.009712337516248226 1.3072916772216558E-4 -0.015568360686302185 -0.004302916117012501 0.0030261820647865534 -0.009649911895394325 0.0031659547239542007 -0.00440839771181345 -5.770704592578113E-5 0.0025580832734704018 -0.0058669657446444035 -0.0028302676510065794 -0.02382003888487816 0.04507491737604141 0.07514265179634094 -0.01970754936337471 4.361988976597786E-4 0.00868130661547184 0.0027346143033355474 0.00828168448060751 0.0031634580809623003 0.005357939284294844 0.0026548663154244423 0.004615292884409428
http://dbpedia.org/ontology/co2Emission 0.05261288955807686 0.04454268887639046 0.022830665111541748 -0.01272711344063282 -0.014296645298600197 -0.010991293005645275 0.026784226298332214 -0.010667805559933186 -0.02214137092232704 -0.009617185220122337 -0.042178571224212646 -0.022288834676146507 -0.0066542611457407475 0.011784047819674015 0.019563734531402588 -0.023626413196325302 -0.009067592211067677 -0.02731044590473175 0.016207443550229073 -0.033919356763362885 0.05431567132472992 -0.04971611127257347 0.0017106974264606833 0.024990331381559372 -0.03120848909020424 0.0391436368227005 0.039304185658693314 0.03502985090017319 0.00956039596349001 0.038036830723285675 -0.019824238494038582 0.05060485377907753 -0.016540538519620895 0.03939878195524216 -0.011950988322496414 0.018572762608528137 0.039947208017110825 0.0516803115606308 0.026275159791111946 0.04100194573402405 0.05933653190732002 0.03292849659919739 -0.0685615986585617 0.026692353188991547 -0.06443428248167038 0.033524226397275925 0.01204579696059227 0.03762783482670784 0.0026131360791623592 -0.042136188596487045 0.03272296488285065 0.05036477744579315 -0.004662003833800554 0.04137885197997093 0.0223002377897501 -0.005152890924364328 -0.007443738169968128 -0.027591314166784286 -0.011860129423439503 -0.017057064920663834 -0.004790052771568298 0.015797195956110954 -0.03331389278173447 0.01422470435500145 0.018116792663931847 -0.07182509452104568 -0.020138908177614212 -0.015679148957133293 0.019110171124339104 0.021685216575860977 -0.009564275853335857 0.04455332085490227 -0.013148469850420952 0.004156684968620539 0.037057600915431976 0.0339384451508522 -0.022034764289855957 -0.017186235636472702 0.021145999431610107 0.005616104230284691 0.021739523857831955 -0.027046168223023415 0.040430355817079544 0.03105839528143406 -0.03628832846879959 -0.02532811462879181 -0.01583767496049404 -0.008416238240897655 0.017802851274609566 -0.031386613845825195 -0.04384623467922211 0.025161197409033775 0.02852335385978222 -0.04696495831012726 -0.03509407863020897 -0.020455488935112953 -0.0382610522210598 -0.014066928066313267 -3.015906549990177E-4 -0.013711229898035526
http://dbpedia.org/ontology/fuelConsumption 0.05625751614570618 0.05225084349513054 0.015887560322880745 -0.005420521833002567 -0.019345872104167938 -0.021457107737660408 0.03389207646250725 -0.012265916913747787 -0.018509915098547935 -0.013880562037229538 -0.048854850232601166 -0.02814464457333088 -0.009308417327702045 0.0189825352281332 0.024322884157299995 -0.028864098712801933 -0.008909091353416443 -0.027127377688884735 0.015993837267160416 -0.04784169793128967 0.06061512604355812 -0.05168168991804123 0.007100511342287064 0.026685277000069618 -0.03163528069853783 0.04880208894610405 0.04178917407989502 0.04082459956407547 0.013199548237025738 0.046860601752996445 -0.019834959879517555 0.049658142030239105 -0.024883393198251724 0.04824633523821831 -0.01243019849061966 0.013048822060227394 0.046233341097831726 0.046207018196582794 0.024436190724372864 0.04550693929195404 0.05851176753640175 0.035699013620615005 -0.0663270354270935 0.02614322118461132 -0.07062709331512451 0.032901473343372345 0.014643112197518349 0.029562214389443398 0.0077308472245931625 -0.04760858044028282 0.0398799367249012 0.06105775013566017 -0.006056284531950951 0.03447039797902107 0.027697542682290077 -0.004930855240672827 -0.005555569194257259 -0.04398421198129654 -0.016070526093244553 -0.03140118345618248 -0.008044058457016945 0.011340262368321419 -0.03927735984325409 0.009204082190990448 0.018834102898836136 -0.06146800518035889 -0.03139716759324074 -0.023772025480866432 0.009642940945923328 0.027782417833805084 -0.01168842613697052 0.05276256799697876 -0.021023813635110855 -0.002625517314299941 0.04440769925713539 0.034241292625665665 -0.030299924314022064 -0.021138995885849 0.026968928053975105 0.006829483434557915 0.01687830686569214 -0.025998543947935104 0.04283583536744118 0.03851960971951485 -0.03308950364589691 -0.01972520723938942 -0.013187490403652191 0.0010787546634674072 0.016285203397274017 -0.034974146634340286 -0.045429181307554245 0.02457534335553646 0.024608690291643143 -0.044169507920742035 -0.02963121235370636 -0.02142748236656189 -0.040712498128414154 -0.00828111357986927 -1.2367311865091324E-4 -0.006341251544654369
