82 100 1000
http://dbpedia.org/class/yago/WikicatRoman-eraPhilosophers 0.0040868958458304405 -0.0018168594688177109 -0.0014499914832413197 0.0010766973719000816 -0.0014760795747861266 -0.0015227323165163398 -7.06719234585762E-4 -7.799211889505386E-4 0.0014222535537555814 0.0025745858438313007 0.0029590206686407328 0.0019719211850315332 0.0014007920399308205 1.2331688776612282E-4 -0.004513508174568415 -0.003726074006408453 -0.003484513610601425 -0.0037236602511256933 -0.003599256742745638 -0.004683701787143946 0.002146250568330288 -0.0011684935307130218 0.0011950094485655427 -0.002462375443428755 -0.004238758701831102 0.0027824498247355223 0.0030876242090016603 -0.002589818090200424 0.0026824669912457466 0.0029286853969097137 0.0011314244475215673 0.003658534726127982 -3.629704297054559E-4 0.003721424378454685 4.5381614472717047E-4 0.00407174089923501 -8.676389115862548E-4 -0.004066332243382931 -0.0031806593760848045 0.0033512760419398546 -7.07295024767518E-4 0.0019116327166557312 -0.0014663892798125744 -0.0017580176936462522 -0.001357933972030878 -0.0027092795353382826 -0.0015470592770725489 -0.0034508882090449333 -8.570535574108362E-4 -0.004444915801286697 3.3365923445671797E-4 -0.001139425439760089 0.001098370412364602 -2.1620932966470718E-4 0.0027348226867616177 0.004848579876124859 4.6314086648635566E-4 0.003097950015217066 -0.0018476054538041353 -0.004514662548899651 0.004097485914826393 -0.002191409468650818 -0.0031608263961970806 -0.002312582451850176 0.002609581220895052 8.138256380334496E-4 -0.0016140947118401527 -0.0032131788320839405 0.002488353056833148 -0.002670501358807087 -0.004584801848977804 0.0015645516104996204 0.00280720554292202 0.002425542799755931 0.004499746020883322 0.0032230899669229984 -0.004225642886012793 0.00169057073071599 -0.0016512779984623194 -4.1255727410316467E-4 0.0027111710514873266 0.0031271083280444145 -0.003334878711029887 0.003061154391616583 7.180963875725865E-4 -0.0039053186774253845 -0.0054838452488183975 -0.002518128138035536 0.0033848427701741457 -0.0038627400062978268 0.002802459290251136 -0.00375927216373384 -0.002012527547776699 0.002537715947255492 -0.003828509710729122 1.0276008833898231E-4 0.0016583643155172467 0.0017851436277851462 0.0017552920617163181 -0.0056562265381217
http://dbpedia.org/resource/Hipparchia_of_Maroneia -0.005390504375100136 -0.006111436989158392 -0.011200600303709507 -0.0029109101742506027 0.001988237025216222 0.004741153679788113 -0.0016854701098054647 0.0021851523779332638 0.007193046621978283 0.0021197032183408737 0.00401476863771677 0.007588124834001064 0.006566748954355717 -0.0034107347019016743 -0.007224774453788996 -1.7818034393712878E-4 0.006022891029715538 0.009707958437502384 -0.0017123162979260087 0.010414510034024715 -0.00704797962680459 0.008343691937625408 -0.005834822077304125 -0.0034043872728943825 0.012374449521303177 -7.663800497539341E-4 -0.013672510161995888 -7.245544111356139E-6 -0.010132072493433952 -0.006538113579154015 0.012395438738167286 -0.0021693215239793062 0.009982083924114704 -0.015772253274917603 0.00329597108066082 -0.007999488152563572 -0.0038941246457397938 -0.012820490635931492 4.555227351374924E-4 -0.012112925760447979 -0.010351713746786118 -0.005214816890656948 0.010796628892421722 -0.010364668443799019 0.0051918053068220615 -0.0019787230994552374 -0.0017941826954483986 -0.0011623138561844826 0.0025085341185331345 0.01374832820147276 -0.010522370226681232 -0.015101665630936623 0.004945226479321718 -0.010937951505184174 -0.004645788110792637 -5.052059423178434E-4 0.0037966384552419186 0.018861347809433937 0.006373060401529074 0.014082046225667 0.006230863742530346 -0.002246525138616562 0.008993956260383129 0.0101633844897151 -0.017673268914222717 0.009153909981250763 0.013428730890154839 0.011789236217737198 -1.6906586824916303E-4 -0.0015492463717237115 0.0053520225919783115 -0.006351097021251917 0.015538777224719524 0.004501438699662685 -0.0040209232829511166 -0.018161416053771973 0.008138192817568779 0.011782747693359852 -0.008013494312763214 0.004989198874682188 -0.008753049187362194 0.012417427264153957 -0.015714595094323158 -0.007644047494977713 0.005645157303661108 0.005854173097759485 0.003692633705213666 -0.006942777428776026 -0.010920699685811996 -0.0010249612387269735 0.005784136243164539 -0.003586933948099613 -1.8115801503881812E-4 0.012077739462256432 8.207000209949911E-4 -9.817053796723485E-4 0.011311774142086506 -0.00309165776707232 0.0026218171697109938 0.003963591065257788
http://dbpedia.org/resource/Hermogenes_(philosopher) -0.004791744519025087 -0.010259601287543774 -0.0010051820427179337 -0.011097511276602745 -6.737965741194785E-4 0.006295131053775549 0.0011098793474957347 0.007796445861458778 0.0069883824326097965 0.008498109877109528 0.007148780860006809 0.006746265105903149 0.0048524742014706135 -0.0022145144175738096 -0.013781718909740448 0.0032100225798785686 -5.327386315912008E-4 0.008787206374108791 -0.006139845121651888 0.0043388609774410725 -5.1768263801932335E-5 0.008193514309823513 -0.006024937145411968 -0.004179891664534807 0.006402413826435804 -0.00655741710215807 -0.010985526256263256 0.0014698553131893277 -0.003943476360291243 -0.013541582971811295 0.012091086246073246 -0.008203061297535896 0.010990258306264877 -0.009310825727880001 0.006751900538802147 -0.0011039694072678685 -0.0039017267990857363 -0.00639388058334589 0.0020038282964378595 -0.015625054016709328 -0.004627117421478033 -0.007852274924516678 0.0067780762910842896 -0.0021257600747048855 2.651080721989274E-4 4.641438717953861E-4 -0.007350371219217777 -0.005896423943340778 -7.29114399291575E-5 0.004833471495658159 -0.0029045785777270794 -0.01729402504861355 0.002044693334028125 -0.00848850142210722 -0.004511711653321981 0.0013987140264362097 0.007897716946899891 0.013410125859081745 -0.0026188294868916273 0.00801502913236618 0.01064032968133688 -0.002267981879413128 0.010055601596832275 0.005318602547049522 -0.008466307073831558 0.005821934435516596 0.013449522666633129 0.01280977763235569 -1.9825826166197658E-4 0.0035322681069374084 0.004871413577347994 -0.007145820185542107 0.005309554748237133 1.7405941616743803E-4 7.774429395794868E-4 -0.01877533458173275 0.01028374768793583 0.012927422299981117 0.0012325899442657828 0.0038791364058852196 -0.009135405533015728 7.411144324578345E-4 -0.005722037982195616 -0.008907634764909744 9.905478218570352E-4 6.270387675613165E-4 0.002032795688137412 -0.008866575546562672 -0.007394813466817141 0.003665642812848091 0.006367386784404516 -0.00708161061629653 -0.006309149321168661 0.010191081091761589 0.003166797338053584 0.005153898149728775 0.008551008999347687 -0.0035760949831455946 0.005996502470225096 8.642938919365406E-4
http://dbpedia.org/class/yago/Philosopher110423589 -0.001413519959896803 -0.0021027708426117897 -0.004614867269992828 0.0032499541994184256 -1.2507298379205167E-4 -0.003118322230875492 -0.004991559777408838 2.152383531210944E-4 0.004976122640073299 -4.163354969932698E-5 0.002437449060380459 4.2738119373098016E-4 -0.005146322306245565 -0.008634268306195736 8.155264658853412E-4 -0.005587359890341759 0.001940639573149383 0.009158345870673656 4.832012637052685E-4 0.0023704057093709707 -0.01087177824229002 0.0013340156292542815 0.005398311652243137 -0.009129471145570278 0.005660202354192734 -0.005224647466093302 -0.0061960346065461636 -0.007972648367285728 -0.0018216727767139673 0.0017040951643139124 1.3304947060532868E-4 -0.005379703361541033 0.005450709722936153 0.002594252349808812 -3.1685212161391973E-4 0.0026145849842578173 2.8419733280315995E-4 -0.0022600351367145777 -9.628515690565109E-4 9.693771717138588E-4 -0.004795097280293703 -0.0034794812090694904 0.010339477099478245 0.003745039226487279 0.0014458615332841873 -0.0014745049411430955 -0.005249088630080223 -0.002050339477136731 -3.51085007423535E-4 0.0022056088782846928 -0.0081864632666111 -0.003721259068697691 0.002366019180044532 -0.003675236366689205 -0.0024246489629149437 0.0013132974272593856 -3.2347626984119415E-4 0.001963665708899498 0.004422404803335667 5.214902339503169E-4 8.326121605932713E-4 -6.232616142369807E-4 -2.332674921490252E-4 0.0019348168279975653 -0.0018272122833877802 0.003813450690358877 -0.004669875837862492 0.0030104152392596006 -0.0046942881308496 -0.002349019981920719 -0.004130283370614052 -3.306177968624979E-4 7.544235559180379E-4 0.003363854018971324 -0.005661653354763985 3.2415706664323807E-4 -2.527876931708306E-4 9.772027842700481E-4 -0.004004434682428837 -0.0038353202398866415 -0.0011112713254988194 0.00810289941728115 0.0010026186937466264 -0.0030790127348154783 -0.002889701398089528 7.926788530312479E-4 0.007033531088382006 -4.6995782759040594E-4 -0.0041705407202243805 -1.1318062024656683E-4 -0.0026856232434511185 -0.005252508446574211 -0.009751998819410801 0.003639416303485632 0.0015369760803878307 0.0034653765615075827 0.002069311449304223 0.0031110027339309454 -9.973029373213649E-4 0.002261535730212927
http://dbpedia.org/resource/Cassius_Longinus_(philosopher) 0.004679212346673012 6.830941420048475E-4 8.897414081729949E-4 -0.0052949488162994385 0.003912483341991901 0.0036366740241646767 -0.004075196571648121 -2.1900406864006072E-4 -0.004514428321272135 -0.003367890603840351 -0.004358371254056692 0.0027971842791885138 0.0037866984494030476 -0.0017348919063806534 0.0027120974846184254 -0.005227662157267332 0.0029739218298345804 0.004951939918100834 -0.002449373947456479 -0.004090297967195511 -0.0025182452518492937 -0.002683935221284628 -0.0032274869736284018 -0.0020809064153581858 0.005882377736270428 -0.0013092475710436702 -0.0060132150538265705 0.003864597762003541 0.002398864133283496 0.004443032201379538 0.0026240285951644182 0.0017791567370295525 0.0051047308370471 -0.004242104012519121 -0.0019724236335605383 -0.005010600201785564 -0.004414390306919813 -7.227656315080822E-4 0.0016861081821843982 -0.0035649752244353294 0.001898856833577156 -8.618059218861163E-4 0.0036454671062529087 0.0036125080659985542 -7.714062230661511E-4 0.004130412358790636 -6.193828885443509E-4 -0.002034722827374935 0.004064864944666624 -0.0019969900604337454 -1.264589955098927E-4 -0.0035227660555392504 0.0029428889974951744 -0.004476694390177727 -0.004216321744024754 0.004059944301843643 -6.369317416101694E-4 2.1648802794516087E-4 0.002927506808191538 0.004856413695961237 0.003259907243773341 3.198005288140848E-5 0.00512522691860795 0.005326774436980486 -0.0015803753631189466 0.0023520353715866804 -0.0022355031687766314 -0.0030127083882689476 0.0036064423620700836 0.004880178719758987 0.0012233478482812643 -0.00463403994217515 0.0018103671027347445 -0.004138600081205368 0.004797646775841713 -0.005848368629813194 -3.164033405482769E-4 -0.00411393353715539 -0.002457273891195655 0.002460852498188615 0.004770052619278431 -0.001651095924898982 0.0014407595153898 0.002795674605295062 -0.004745048936456442 -0.003622735384851694 0.0027189496904611588 -0.0036164044868201017 -9.270770824514329E-4 0.002861634362488985 0.003921764437109232 -0.0015913491370156407 0.0010269673075526953 0.004918125923722982 -0.004372894298285246 0.0015397442039102316 0.004540409427136183 -0.0016241846606135368 -0.003316034795716405 0.004615386016666889
http://www.w3.org/2002/07/owl#Thing 0.004060877952724695 -0.007783572189509869 -0.01311932411044836 -0.0011727253440767527 0.002500348724424839 -0.006408766843378544 -0.006664730608463287 -0.005473011173307896 0.003679444780573249 -0.0053007411770522594 0.0033646586816757917 0.004612849093973637 0.002233584178611636 -0.011885970830917358 -0.0012846916215494275 -0.005157965235412121 0.0029311729595065117 0.012054476886987686 2.3667654022574425E-4 0.0033643341157585382 -0.007558942772448063 0.013812934048473835 0.005920835770666599 -0.00897695031017065 0.005672820843756199 -0.002711742650717497 -0.0025388109497725964 -0.011773316189646721 0.002433707006275654 -0.0013282083673402667 0.005685321055352688 -0.0067081088200211525 4.525695403572172E-4 -0.002625393681228161 0.0012476221891120076 -0.005333601962774992 -0.002087802393361926 -0.010589084587991238 -0.0054731592535972595 -1.1345473467372358E-5 -0.007174342405050993 -4.972394672222435E-4 0.013483928516507149 0.004203670658171177 0.0129871079698205 -0.007082660216838121 -0.0029698305297642946 -0.012408521957695484 -0.0015962350880727172 -7.200808613561094E-4 -0.012298103421926498 1.597585214767605E-4 0.0045555029064416885 -0.0072103701531887054 -0.011494974605739117 -9.487979114055634E-4 0.0016138070495799184 0.0050966329872608185 0.00955544039607048 0.005209661088883877 3.564209910109639E-4 -0.008895323611795902 0.00642980495467782 0.0035793217830359936 -0.004264430608600378 0.011766699142754078 0.0011869576992467046 0.001231235102750361 -0.012980958446860313 -0.002705613151192665 -0.007288676220923662 -0.0031396406702697277 0.008390839211642742 -0.006258721929043531 -0.009769488126039505 -0.0059983935207128525 -0.0036864050198346376 -8.085865993052721E-4 -0.004623311571776867 0.0029801311902701855 -0.003784680273383856 0.013420680537819862 -0.007095722481608391 -0.004199381452053785 8.190529188141227E-4 0.004473165608942509 0.009797745384275913 3.6678864853456616E-4 0.003110236255452037 0.004290990997105837 0.0014069406315684319 -0.011022279039025307 -0.00833896640688181 0.014945358969271183 0.0016997932689264417 0.0024731908924877644 -0.0010926767718046904 0.0034190702717751265 2.3703472106717527E-4 0.012326648458838463
http://dbpedia.org/resource/Hermippus_of_Smyrna -0.0073035405948758125 -0.01369643397629261 -0.00774944294244051 -0.005990498699247837 0.007432111538946629 0.002678673481568694 -0.0021790512837469578 6.648533744737506E-4 0.007922776974737644 0.007526427041739225 0.010961418971419334 0.015184088610112667 0.007428818382322788 -0.011140924878418446 -0.011194458231329918 0.0026603371370583773 0.004114342853426933 0.009434481151401997 -0.004692100454121828 0.01349353976547718 -0.008962823078036308 0.006357609760016203 -0.0040959641337394714 -0.002838603686541319 0.009046707302331924 -0.003585421945899725 -0.008587902411818504 0.0010299556888639927 -0.004066944122314453 -0.007549137808382511 0.007432414684444666 -0.008081331849098206 0.011725105345249176 -0.014325780794024467 0.0030241378117352724 -0.0036716784816235304 -0.008679759688675404 -0.006636863574385643 -0.006659574341028929 -0.015799492597579956 -0.009241048246622086 -0.0034171021543443203 0.014692023396492004 -0.010626481845974922 0.008112329058349133 -0.007441573776304722 -0.006715512368828058 -0.0015583743806928396 -0.00701935775578022 0.005342012271285057 -0.009361041709780693 -0.01845770888030529 -4.2494054650887847E-4 -0.010025258176028728 -0.007360704243183136 8.969882619567215E-4 0.006959674879908562 0.013043470680713654 0.004184592980891466 0.02017574943602085 0.013735617510974407 -0.003074559150263667 0.01221801433712244 0.0029958332888782024 -0.010095876641571522 0.012171023525297642 0.017995595932006836 0.011003014631569386 -5.738426698371768E-4 -0.004964371211826801 0.0018296597991138697 -0.010943020693957806 0.01124445628374815 0.005821259692311287 -0.005177923012524843 -0.021819092333316803 0.0035825357772409916 0.008212924934923649 -0.005694711115211248 0.003987245727330446 -0.007738069165498018 0.011463361792266369 -0.01736566424369812 -0.012518064118921757 0.007705911993980408 0.007113975938409567 0.0013441536575555801 -0.005265444982796907 -0.009128729812800884 0.00676005007699132 0.013851515017449856 -0.014160729944705963 -0.010854595340788364 0.010860062204301357 0.009009734727442265 0.0019555012695491314 0.011570833623409271 -0.0016999297076836228 0.0017965695587918162 0.005714223720133305
http://dbpedia.org/resource/Hippo_(philosopher) -9.492913959547877E-4 -0.0035659852437675 0.0024521173909306526 2.50420649535954E-4 4.406804218888283E-4 0.006448361091315746 0.004895501304417849 0.002118848729878664 -6.598833133466542E-4 -0.001610019477084279 4.478423506952822E-4 0.003417923580855131 0.00556581187993288 0.003953904844820499 -0.0021944802720099688 0.0014785610837861896 0.004841244779527187 0.004770462401211262 0.0030735968612134457 3.9406129508279264E-4 -0.0017125933663919568 0.0039055312518030405 0.0029697264544665813 -0.0011171736987307668 0.006827178411185741 -0.002604333683848381 -0.0024323819670826197 -0.001490857219323516 -0.0063767097890377045 -0.0019753880333155394 0.001638723537325859 9.618728654459119E-5 0.0010073703015223145 -0.0013293563388288021 0.0014159266138449311 0.0017482034163549542 -4.997868381906301E-5 -0.0015105926431715488 0.004087350331246853 -0.002060526981949806 5.843318649567664E-4 0.003724695648998022 0.002830683486536145 -0.001784373540431261 -0.004225136246532202 0.0013252331409603357 0.001160206156782806 0.0030861578416079283 0.004679677076637745 -8.331848657689989E-4 -0.001596961636096239 -0.007242303341627121 7.557452772744E-4 -0.004157200921326876 0.0010648011229932308 0.005528878420591354 0.004882401321083307 0.008954769000411034 -0.0028861449100077152 -9.180916240438819E-4 0.001809227978810668 -0.001337983412668109 0.006626775022596121 0.006415104027837515 -0.0019857988227158785 -0.0022800227161496878 0.0011395183391869068 0.005981692112982273 0.003502476029098034 0.0037212036550045013 0.003912505693733692 -0.005567845888435841 -0.0012319053057581186 -0.0019394983537495136 -0.002497793873772025 -9.750754106789827E-4 -0.0019088533008471131 0.007320065051317215 -5.314769077813253E-5 -9.101203177124262E-4 -0.0050085922703146935 0.0020570573396980762 5.010024760849774E-4 -3.525027132127434E-4 0.0039802114479243755 -0.003110775724053383 0.0012103815097361803 -0.0013607973232865334 -0.00426839292049408 -0.002514505060389638 0.004688148386776447 -0.004127344116568565 -0.004041244275867939 -0.0014361166395246983 4.385672800708562E-4 0.002858680672943592 3.8392277201637626E-4 -0.0027216554153710604 0.0032833071891218424 0.002841336652636528
http://dbpedia.org/resource/Damascius 0.0054863798432052135 -0.0035198985133320093 -0.0030671150889247656 0.003473495366051793 0.004299991298466921 -0.004874534904956818 0.002688058651983738 0.005064503289759159 -0.003115782281383872 2.985323080793023E-4 0.0021197558380663395 -0.003429850796237588 -0.0012558128219097853 0.0021876778919249773 -1.7061748076230288E-4 -8.159089484252036E-4 0.001203505089506507 -0.0013546240516006947 -0.0035479420330375433 -0.002112566726282239 -0.0014685300411656499 0.004047486465424299 0.0010201216209679842 3.003241145052016E-4 0.005191838834434748 0.002149864798411727 -0.005757003091275692 -0.0030404524877667427 0.0023508272133767605 -0.0026868677232414484 -0.0018057546112686396 0.003865569131448865 0.0013217328814789653 -0.006036584731191397 -0.005849743727594614 -0.0016103225061669946 -0.006446048151701689 -0.007224331609904766 3.192310032318346E-5 0.0018139755120500922 0.00419005099684 -0.0038403470534831285 -8.155370014719665E-4 1.9014248391613364E-4 -7.969218422658741E-4 -0.003867584280669689 -6.5726472530514E-4 -0.0019724564626812935 5.428393487818539E-4 -0.004800666123628616 0.0037976407911628485 -0.0045637390576303005 0.0029358426108956337 7.321964367292821E-4 0.0029251715168356895 0.0011590698268264532 -0.003815452568233013 9.780662367120385E-4 0.0029976251535117626 0.00710800476372242 0.001995393307879567 8.792621083557606E-4 0.006987880915403366 0.0024032024666666985 -0.002141684992238879 0.002222266048192978 0.003954215906560421 -0.00265271938405931 -0.0030981148593127728 0.003611920401453972 -0.003411471378058195 -0.0017306939698755741 0.001358624780550599 0.0040428549982607365 -0.0012427153997123241 -6.892075907671824E-5 0.001124309841543436 0.0023497510701417923 0.0010189602617174387 0.0027985302731394768 -1.3903883518651128E-4 0.0032648369669914246 -0.004871420096606016 -0.0022756652906537056 -0.004527262412011623 0.0040400680154562 0.002193478401750326 0.0024971598759293556 -0.0015714698238298297 0.005392158403992653 0.0013881742488592863 0.003213396994397044 0.0037820814177393913 0.005243485327810049 -0.001046057092025876 -0.0034689512103796005 0.005573911126703024 0.003862346289679408 3.8771293475292623E-4 0.006915307138115168
http://dbpedia.org/resource/Onasander 0.0010906618554145098 1.5337136574089527E-5 -0.004708736203610897 0.0010767049388960004 -0.0023618408013135195 0.0026886912528425455 -0.00624471390619874 -9.646252728998661E-4 -0.0028940304182469845 -0.00562417833134532 6.57298369333148E-5 -7.722671143710613E-4 0.004325143527239561 -0.0037229242734611034 0.002263113157823682 -0.005591187160462141 -0.001519923098385334 0.004111548885703087 -0.004353890661150217 0.004557390231639147 -0.005735968705266714 0.005775222554802895 0.004963066428899765 -7.065397221595049E-4 -0.001834282767958939 -0.004691783804446459 0.0019314709352329373 0.0011177820852026343 0.006583122536540031 0.004257148131728172 0.0034142551012337208 -0.003220070619136095 0.0016333980020135641 0.0016242323908954859 -0.0029532266780734062 0.0015999912284314632 -0.006636489648371935 -0.007109024561941624 -0.001569837681017816 -0.0036913002841174603 7.738242857158184E-6 -0.003003434743732214 0.00809522531926632 7.681132992729545E-4 0.00538637675344944 0.0027981745079159737 -0.002392088994383812 0.001729007693938911 -7.418805616907775E-4 -0.002006715629249811 -0.0027740085497498512 -0.0012902860762551427 -0.0020118404645472765 -8.405772387050092E-4 -1.6727636102586985E-4 0.0039354367181658745 0.004815105348825455 -0.001216299133375287 -0.0031702392734587193 0.005050496198236942 7.675447850488126E-4 -0.0030084929894655943 6.24394859187305E-4 0.002694577444344759 -0.002154744230210781 0.006435946561396122 4.889921983703971E-4 0.0037702869158238173 -0.0030092878732830286 0.0034492495469748974 0.0025461502373218536 -0.003650105558335781 -0.004242112394422293 0.004184108227491379 -0.002412899862974882 5.807936540804803E-4 2.6614090893417597E-4 0.0042492421343922615 0.002913103671744466 -0.004875206388533115 0.004386092536151409 0.00466751866042614 -0.005258897319436073 8.45464994199574E-4 -0.004565324634313583 0.0012602980714291334 0.004077294375747442 0.004370288923382759 3.3510159119032323E-4 0.00316634401679039 0.0042306846007704735 -0.0032541847322136164 -0.004165733233094215 2.394805196672678E-4 0.002838370157405734 -0.003973281476646662 -0.0015158180613070726 0.004505529068410397 0.003647385397925973 0.005715613253414631
http://dbpedia.org/resource/Hecataeus_of_Abdera -0.008272355422377586 -0.01860039308667183 -0.011498497799038887 -0.010984303429722786 -0.002140004187822342 0.0036124184262007475 -0.011218748986721039 0.0033954703249037266 0.011218193918466568 0.007593958638608456 0.01962032914161682 0.018727051094174385 0.010572210885584354 -0.015607908368110657 -0.01682892255485058 0.0036057750694453716 0.006327361334115267 0.018409710377454758 -0.008487064391374588 0.019622985273599625 -0.012149220332503319 0.014164479449391365 -0.005811349488794804 -0.009030437096953392 0.020939230918884277 -0.010771092027425766 -0.021463943645358086 -0.005170032382011414 -0.005114399828016758 -0.01574082486331463 0.015051967464387417 -0.013194823637604713 0.014186390675604343 -0.014590585604310036 2.7626659721136093E-4 -0.016273507848381996 -0.01915993168950081 -0.018207965418696404 -0.011351963505148888 -0.015364093706011772 -0.013347209431231022 -0.004879017826169729 0.01685352995991707 -0.009807338938117027 0.009674271568655968 -0.010219542309641838 -0.00948397722095251 -0.005997472908347845 -0.006385805085301399 0.01659393310546875 -0.017878351733088493 -0.025027859956026077 0.0019152708118781447 -0.014522278681397438 -0.01917455345392227 0.0031240342650562525 0.013925937004387379 0.026828669011592865 0.006296846084296703 0.0271577350795269 0.016155580058693886 -0.0036439767573028803 0.02204047702252865 0.007449862081557512 -0.02392689883708954 0.015372950583696365 0.026651393622159958 0.025057891383767128 4.60787327028811E-4 -0.004867685027420521 0.0076826345175504684 -0.015058767981827259 0.014249774627387524 -0.0024960744194686413 -0.004419148899614811 -0.03275757655501366 0.006156404037028551 0.020170927047729492 -0.0024102276656776667 0.0027796891517937183 -0.012517368420958519 0.020104996860027313 -0.01702210120856762 -0.006626623682677746 0.012632027268409729 0.006504524499177933 0.005766207352280617 -0.0011140946298837662 -0.008035336621105671 0.0044209640473127365 0.009168844670057297 -0.0171269029378891 -0.00859329104423523 0.022804630920290947 0.010273540392518044 0.011256352998316288 0.01836720108985901 0.008540102280676365 -0.0028195204213261604 0.012295013293623924
http://dbpedia.org/resource/Hippias -3.2021664083004E-4 -0.00256536528468132 -1.1558574624359608E-4 -0.007218000944703817 0.0018409740878269076 0.00332847167737782 0.0014559199335053563 1.1527007154654711E-4 0.007637065835297108 0.004222458694130182 0.009516674093902111 0.006456883158534765 1.5871512005105615E-5 -0.007112390361726284 -0.002890942618250847 0.004910530522465706 0.0015184360090643167 0.0031869898084551096 0.0021669785492122173 0.0037748091854155064 0.002115236595273018 0.003112963866442442 -0.001136595499701798 -0.005961621180176735 0.009788326919078827 -0.004476940259337425 -0.009282157756388187 -0.0035388730466365814 -0.0077045392245054245 -0.008557229302823544 0.006478923838585615 -0.00810572411864996 0.0013758621644228697 -0.0070544942282140255 0.0045924922451376915 -0.0013951025903224945 -0.005841348320245743 -0.003169201547279954 -2.571420627646148E-4 -0.005536594428122044 -0.008844846859574318 -7.057155598886311E-4 8.895922801457345E-4 -0.0088550616055727 0.006622916553169489 -0.006107931025326252 0.0015869418857619166 -1.5383167192339897E-4 -8.154148235917091E-4 0.001029115286655724 -0.0028035228606313467 -0.009043388068675995 -0.0024213751312345266 -0.001977398060262203 -0.005721317604184151 0.006582407746464014 0.005942695774137974 0.004883299116045237 0.00415669335052371 0.0041487691923975945 0.005564249586313963 -0.004663380328565836 0.005364433862268925 -8.305955561809242E-4 -0.004608341958373785 0.006037713028490543 0.01161919254809618 0.007953913882374763 0.004530913662165403 -0.0026545182336121798 0.006845357362180948 -0.0017168691847473383 0.0041118343360722065 0.005749514326453209 0.0020303393248468637 -0.013985121622681618 -1.0958951315842569E-4 0.010260517708957195 -0.0021452640648931265 -0.0013959328643977642 -0.0033507065381854773 0.002179535338655114 -0.007023250218480825 -0.002544386312365532 0.0066442107781767845 -0.0011695163557305932 0.0051071676425635815 3.216103941667825E-4 -0.007466083858162165 7.500532083213329E-4 0.0012012297520413995 -0.00858131144195795 -0.005726570729166269 0.008813065476715565 4.26111655542627E-5 0.0026953336782753468 0.005541580263525248 -6.031717639416456E-4 -0.0015211643185466528 0.0035532130859792233
http://dbpedia.org/class/yago/Wikicat4th-centuryBCPhilosophers 0.0052836681716144085 0.001415630686096847 3.8508314173668623E-4 -8.675717981532216E-5 0.0013939671916887164 0.003461942309513688 -0.0035542421974241734 -0.0023010720033198595 -0.004712565336376429 0.004334437195211649 -8.524005534127355E-4 0.0013027172535657883 1.129843876697123E-4 4.839720786549151E-4 0.0014537554234266281 -7.515317993238568E-4 -0.0016553804744035006 -0.0012000444112345576 -9.136529406532645E-4 0.0038697763811796904 -0.0022506476379930973 9.87765844911337E-4 -9.70786961261183E-4 0.0012995180441066623 0.00365784321911633 -0.004130292218178511 -0.002310277195647359 -0.0028947447426617146 -0.0022977429907768965 -0.002688242355361581 -0.0018263872480019927 0.0013719383860006928 0.0036686635576188564 -0.0026565981097519398 -0.0032922402024269104 0.0031641230452805758 0.003257675329223275 -0.0021500668954104185 -0.004485395736992359 0.0017112334026023746 -0.0042275176383554935 -5.751803983002901E-4 -0.00187102856580168 0.005062150303274393 -0.003557281568646431 0.0047052279114723206 0.004551622550934553 -0.0019472899148240685 -0.003054960398003459 -0.005118958652019501 -0.003907953854650259 -0.0024988935329020023 0.0047233919613063335 -0.0022674889769405127 8.282901253551245E-4 0.004571743309497833 0.0016411595279350877 -0.002691959962248802 7.054780144244432E-4 -0.0040770890191197395 0.0019790860824286938 0.002150424290448427 -0.00528254359960556 -0.004800665657967329 0.0018729495350271463 0.0044278413988649845 0.003288529347628355 -0.0043583158403635025 -5.550693604163826E-4 -4.3650082079693675E-4 -0.0018107903888449073 -0.0022407767828553915 0.0014415356563404202 0.001483210944570601 2.2022717166692019E-4 0.0015865728491917253 0.002081124344840646 0.00275443191640079 -0.001396044623106718 -0.0025030721444636583 0.0011684271739795804 -0.0014369821874424815 -0.002512318780645728 0.001116186031140387 0.003857834031805396 3.754274075618014E-5 0.0017782397335395217 4.8670938122086227E-4 0.0043066819198429585 -0.0035524587146937847 -0.005198084283620119 0.002269305754452944 -0.002191674429923296 -0.0031210947781801224 -0.003447078401222825 -0.0014670670498162508 -0.0014057669322937727 0.005087879486382008 0.0016943142982199788 0.004194456618279219
http://dbpedia.org/class/yago/PhysicalEntity100001930 -0.002333894604817033 0.003308771178126335 -0.007842572405934334 0.0036864057183265686 -0.0011447936994954944 0.002372405491769314 0.001424904796294868 -0.0018739483784884214 -0.0013283423613756895 0.0021232275757938623 0.002291355049237609 0.0025772780645638704 4.936698824167252E-4 -8.083018474280834E-4 4.998957738280296E-4 0.001932561513967812 -0.002726015169173479 0.0010988557478412986 0.0024864524602890015 0.0012981632025912404 8.205127087421715E-4 -0.0028259786777198315 0.005072363186627626 -0.006981409154832363 0.0021508182398974895 -0.005289233755320311 -0.0034557702019810677 0.0015995993744581938 0.004183905199170113 -0.001978583401069045 0.0025541926734149456 9.495699196122587E-4 6.513440166600049E-4 -0.0013308681081980467 -0.004759797360748053 0.004129600711166859 0.0019957642070949078 -0.005014379043132067 0.0028335414826869965 0.0014093981590121984 -0.004710282664746046 -0.0029111679177731276 0.0068811699748039246 3.652503073681146E-4 0.005533681716769934 0.0014801190700381994 -0.004365151282399893 0.0016429133247584105 -3.49015201209113E-4 -0.0011018072254955769 2.5245395954698324E-4 0.0024054264649748802 -2.5067117530852556E-4 -0.00577784376218915 0.0029259389266371727 0.005759204272180796 -0.003933045081794262 -0.0020356127060949802 0.0012575860600918531 0.004390913061797619 -9.158768225461245E-4 3.4257216611877084E-4 0.004570839926600456 0.002431014785543084 0.003367263823747635 0.0033186571672558784 -2.323795633856207E-4 -0.0018337841611355543 -0.0037624959368258715 0.002710673026740551 0.002313602715730667 0.0021241202484816313 -0.0036391147878021 -0.0015252340817824006 -0.004111793823540211 0.0037301096599549055 0.0010098753264173865 -0.003968901466578245 7.824592175893486E-4 0.0026417390909045935 -5.595280090346932E-4 0.0016266672173514962 -0.0031514291185885668 0.001336669665761292 2.0439349464140832E-4 -0.003323959419503808 0.0034023281186819077 0.00206309393979609 -4.6492659021168947E-4 0.004129820968955755 -0.00567355751991272 0.0018203144427388906 0.002218990819528699 -6.435083341784775E-4 0.004725519567728043 0.002410802524536848 3.836068499367684E-4 -7.53247004467994E-4 0.0028914697468280792 0.0046938033774495125
http://dbpedia.org/resource/Damon_of_Athens 0.005578844808042049 1.3687508180737495E-4 5.949586047790945E-4 0.004232984036207199 -0.0025355080142617226 0.0027549865189939737 -0.0027970310766249895 -4.3931155232712626E-4 -0.0034146837424486876 -0.0036534855607897043 6.87894644215703E-5 0.003852004883810878 -0.0012317568762227893 -0.004393064882606268 -0.0040531158447265625 0.0014832692686468363 0.003248469904065132 -0.0019038523314520717 -0.004090158734470606 0.003775843419134617 0.0010233840439468622 -6.226335535757244E-4 0.003985993098467588 -0.006706313695758581 0.004022441804409027 -7.165410788729787E-4 0.0024709138087928295 -0.00616348534822464 0.004161594435572624 0.003088721539825201 0.0010533821769058704 0.0035397966857999563 -0.003196071134880185 5.402155220508575E-4 -6.857445114292204E-4 -0.005430368706583977 -0.005631846375763416 -9.007421613205224E-5 8.063127170316875E-4 -0.006164648570120335 -3.201593644917011E-4 -0.005545702297240496 0.007928538136184216 -1.7777609173208475E-4 -0.0017686494393274188 -9.297561482526362E-4 0.0034755347296595573 0.002193199936300516 4.6443252358585596E-4 0.0010828115046024323 -0.0024691997095942497 -9.763604030013084E-4 0.0038703810423612595 -0.005344389006495476 0.0011464609997346997 0.0039955670945346355 0.0023789028637111187 -0.0023226398043334484 0.005133458878844976 0.0020165685564279556 0.005273308139294386 0.0026641511358320713 0.004285166040062904 0.005942516028881073 -0.002503518480807543 0.003912616986781359 0.0032681948505342007 0.006217229180037975 -0.00488119525834918 -9.344292629975826E-5 -4.872504505328834E-4 -0.0037048999220132828 -0.0013333961833268404 -0.0028305095620453358 0.0020102295093238354 7.950293365865946E-5 -7.353157852776349E-4 0.004818452522158623 0.00424804724752903 -0.003874881425872445 -0.00439901277422905 0.0015397126553580165 -0.0054244487546384335 -0.00348751456476748 -0.003813777584582567 -0.002993146888911724 0.0033395050559192896 -0.0036783369723707438 0.003183333668857813 2.571652876213193E-4 -0.0034769014455378056 -0.004532208666205406 4.2564733303152025E-4 0.005520402919501066 0.0010612469632178545 -0.0030711640138179064 0.003386738710105419 0.006196044385433197 0.0012211166322231293 0.0011363899102434516
http://dbpedia.org/resource/Hierocles_of_Alexandria -0.002634971169754863 -0.014426168985664845 -0.004208829719573259 -0.009517780505120754 -1.4890448073856533E-4 0.008906147442758083 -0.0038421896751970053 0.007507237605750561 0.0048828693106770515 0.004217530135065317 0.004548155702650547 0.004038877319544554 0.0039868438616395 -0.005000516306608915 -0.010103026404976845 -1.2784730643033981E-5 0.005873505026102066 0.013279370963573456 -9.645159589126706E-4 0.004330333322286606 -0.004838921129703522 0.004984717350453138 -0.007165143266320229 -0.006624773610383272 0.010400652885437012 -9.079370647668839E-5 -0.008316244930028915 -0.0019151564920321107 -4.1004345985129476E-4 -0.005155845079571009 0.006923908833414316 -0.006039392203092575 0.01032499223947525 -0.012197007425129414 -0.002693546237424016 -0.010856966488063335 -0.010973920114338398 -0.007622625678777695 -0.005424885079264641 -0.007849863730370998 -0.006792985834181309 -0.0042236861772835255 0.010873761959373951 -0.003720985958352685 0.007625078782439232 -0.001530962297692895 -0.00869719311594963 -0.006417533382773399 -0.003278920892626047 0.0074190497398376465 -0.01037521567195654 -0.007836956530809402 0.002116534160450101 -0.0030512255616486073 -0.009229270741343498 0.005068710073828697 0.002455866662785411 0.01634025387465954 0.006609475240111351 0.012446154840290546 0.011717834509909153 -4.3735880171880126E-4 0.010090384632349014 0.005407099146395922 -0.009187278337776661 0.004113900009542704 0.016349688172340393 0.01678871549665928 -0.0017252108082175255 0.003402505535632372 5.1023910054937E-4 -0.00893852487206459 0.013230260461568832 0.005944712553173304 -6.163723301142454E-4 -0.013053402304649353 0.010533472523093224 0.013496644794940948 -0.003851618617773056 0.005531466566026211 -0.009052799083292484 0.008461851626634598 -0.007619577459990978 -0.0018473637755960226 0.006726172287017107 0.002406617160886526 6.201202049851418E-4 -0.006573890335857868 -0.0016641919501125813 0.0020292524714022875 0.008076319471001625 -0.004167470149695873 -0.0048500485718250275 0.01361385639756918 0.00217536767013371 0.007308343891054392 0.011126558296382427 -0.00161043182015419 0.001967337680980563 4.080916987732053E-4
http://dbpedia.org/resource/Pythagoras -0.014690344221889973 -0.030271783471107483 -0.0452684685587883 -0.01249191164970398 6.74157403409481E-4 0.004779632668942213 -0.024803945794701576 0.0012257153866812587 0.010029290802776814 -0.006109845824539661 0.02095341682434082 0.021463412791490555 0.005458800122141838 -0.0479215607047081 -0.014402743428945541 -0.006551295984536409 0.01798449642956257 0.04575144499540329 -0.008083396591246128 0.028773479163646698 -0.03792082518339157 0.036388639360666275 -3.504048800095916E-4 -0.03305930271744728 0.03377826139330864 -0.021408962085843086 -0.03282526880502701 -0.02181827463209629 -0.011609189212322235 -0.007356651592999697 0.022725559771060944 -0.024157891049981117 0.016058117151260376 -0.028467589989304543 8.387005073018372E-4 -0.022805387154221535 -0.027580626308918 -0.044201403856277466 -0.021742526441812515 -0.03142011910676956 -0.02557220309972763 -0.020205920562148094 0.04285690560936928 -0.01417604275047779 0.04153081774711609 -0.026247140020132065 -0.012232009321451187 -0.027186941355466843 -0.020295917987823486 0.02471778355538845 -0.032990120351314545 -0.032392263412475586 0.011864151805639267 -0.038936588913202286 -0.0367775522172451 0.012812451459467411 0.01870410516858101 0.041591841727495193 0.02091836743056774 0.037019021809101105 0.025114266201853752 -0.01482774131000042 0.04644528031349182 0.013791097328066826 -0.03242400661110878 0.044311489909887314 0.03290810436010361 0.037548989057540894 -0.018793901428580284 -0.01568087749183178 -0.0033888902980834246 -0.03658096864819527 0.02611951343715191 -0.005351283587515354 -0.021336950361728668 -0.045048657804727554 0.004240803886204958 0.023305632174015045 -0.009132307954132557 0.0039082057774066925 -0.018274815753102303 0.046052563935518265 -0.04402545094490051 -0.010704653337597847 0.020105117931962013 0.02407197654247284 0.025165636092424393 0.008289922028779984 -0.01669887639582157 0.026427894830703735 0.013870751485228539 -0.033515848219394684 -0.028263771906495094 0.050949595868587494 0.022780563682317734 0.017740510404109955 0.020334338769316673 0.01910187304019928 -0.0032655128743499517 0.02663882076740265
http://dbpedia.org/resource/Proclus -0.009283375926315784 -0.03355170413851738 -0.050743214786052704 -0.0014258689479902387 -0.003521325998008251 -0.002586526330560446 -0.04170781373977661 0.0025707948952913284 0.012365340255200863 -0.012393404729664326 0.028909053653478622 0.01539674587547779 0.0015803672140464187 -0.04969504848122597 -0.0037616160698235035 -0.010536610148847103 0.017207620665431023 0.044411882758140564 -0.004534202627837658 0.027911493554711342 -0.050938621163368225 0.045034416019916534 0.0031204030383378267 -0.034323450177907944 0.027134619653224945 -0.027456626296043396 -0.031827472150325775 -0.028517253696918488 -0.002673226408660412 -0.007260850165039301 0.01829279027879238 -0.033279839903116226 0.017293723300099373 -0.0211322158575058 -0.004365905653685331 -0.02150779217481613 -0.035288456827402115 -0.049254272133111954 -0.01752866618335247 -0.024141032248735428 -0.029488442465662956 -0.02236180379986763 0.061696652323007584 -0.007929029874503613 0.052348554134368896 -0.03455636650323868 -0.006558428518474102 -0.03611151874065399 -0.019487034529447556 0.021016929298639297 -0.036905817687511444 -0.028513608500361443 0.011914696544408798 -0.0416424460709095 -0.03722304850816727 0.011092458851635456 0.015846144407987595 0.04204823449254036 0.023257246240973473 0.03884759917855263 0.020009716972708702 -0.020466642454266548 0.05005108565092087 0.003721561748534441 -0.02827117219567299 0.06209981441497803 0.03136570006608963 0.030479466542601585 -0.026236869394779205 -0.0228193961083889 -0.0014908696757629514 -0.04119562730193138 0.026913117617368698 -0.006202722433954477 -0.029345357790589333 -0.035480692982673645 0.010357473976910114 0.014991345815360546 -0.012124577537178993 -0.0013606343418359756 -0.01909572258591652 0.04871562123298645 -0.04540371894836426 -0.016001630574464798 0.017429141327738762 0.023757027462124825 0.02633483335375786 0.011719588190317154 -0.008850538171827793 0.037484489381313324 0.007565457373857498 -0.03094981610774994 -0.04166713356971741 0.05609821900725365 0.025555256754159927 0.020234668627381325 0.011386861093342304 0.02349652163684368 -0.01091386191546917 0.03527233377099037
http://dbpedia.org/class/yago/WikicatWriters 0.004164924845099449 -0.00220513716340065 0.005083038937300444 -0.0033474841620773077 0.0014333873987197876 0.005543685518205166 0.0036163446493446827 -0.0010733343660831451 0.0032342097256332636 -0.0022967197000980377 -0.0010718685807660222 -4.6011991798877716E-4 0.0038934077601879835 0.002322457730770111 0.0036698286421597004 -2.0679057342931628E-4 -0.004993341863155365 -0.005451562814414501 -0.005035632289946079 7.428278331644833E-4 -0.0010200463002547622 -0.004416340496391058 9.726860444061458E-4 8.161258301697671E-4 0.0010755175026133657 -0.0013419690076261759 -0.003367603989318013 -0.0015888344496488571 0.004770288709551096 -0.004103858955204487 0.0030823866836726665 0.001454507582820952 -0.0041767917573452 0.0020601656287908554 0.001188652589917183 -6.966667715460062E-4 0.001569576794281602 -0.0010336765553802252 0.004958711564540863 0.0011577610857784748 -0.0028020513709634542 -0.00465125497430563 -5.315784364938736E-4 -0.0019005113281309605 0.002587552648037672 0.003281449666246772 0.0022567857522517443 -0.002861491870135069 0.002521464368328452 -0.004214614164084196 -3.417483239900321E-4 0.0010351615492254496 -0.001810214831493795 4.83492884086445E-4 0.0016993696335703135 0.0035125415306538343 4.275602987036109E-5 6.756671355105937E-4 -0.0023805329110473394 4.1225895984098315E-5 0.0035226657055318356 0.0030320731457322836 0.0027646715752780437 6.977634038776159E-4 1.7256761202588677E-4 -0.0031721072737127542 3.4544512163847685E-4 -0.002614090219140053 0.005717851221561432 -0.003386545227840543 0.001497288467362523 3.7292923661880195E-4 -0.002580048516392708 0.0019112543668597937 0.0044624381698668 -0.0013357801362872124 0.003402426140382886 0.004204801749438047 0.004139596596360207 6.714300252497196E-5 0.004743634257465601 0.003552668262273073 1.3654428767040372E-4 -2.2491731215268373E-5 -0.004929362330585718 -5.980232963338494E-4 1.0482536163181067E-4 -0.0013144132681190968 8.860927191562951E-4 1.1320493649691343E-4 0.003688865341246128 -0.0016659613465890288 0.005647436715662479 0.001503349863924086 0.0031618382781744003 0.003929515369236469 0.004429738502949476 9.79165080934763E-4 0.005415054503828287 0.0016281332354992628
http://dbpedia.org/resource/Abaris_the_Hyperborean -3.295338246971369E-4 -0.005598825868219137 -0.012878269888460636 -0.004793055355548859 -0.0036805137060582638 3.851972287520766E-4 -0.009139085188508034 -6.878010462969542E-4 0.0052787791937589645 0.0027009500190615654 0.006033127661794424 -0.0012019129935652018 0.004031277261674404 -0.013446957804262638 -0.002700621960684657 7.652872009202838E-4 3.477892023511231E-4 0.005512464325875044 0.002051721327006817 0.002804711926728487 -0.0028902797494083643 0.01122062373906374 -0.0018742021638900042 -0.009184367954730988 0.00199653091840446 2.9506426653824747E-4 -0.0037874113768339157 -0.008642059750854969 0.0032512301113456488 -0.001176684396341443 0.0026164113078266382 -0.002286963863298297 -7.987432763911784E-4 5.033571505919099E-4 -0.0017547525931149721 -0.003621636424213648 -0.006883482914417982 -0.005725336726754904 1.992706093005836E-4 -0.009672494605183601 -0.008081978186964989 3.4603048698045313E-4 0.012298964895308018 0.0015218470944091678 0.002253451384603977 6.060772575438023E-4 0.003723657224327326 -0.001728647737763822 -5.883332923986018E-4 0.005524377338588238 -0.0067484257742762566 -0.009102956391870975 0.007082553580403328 -0.009487122297286987 -0.008723142556846142 -0.0010251777712255716 0.0055763148702681065 0.005027602892369032 0.0019382896134629846 0.0026859554927796125 0.003160702995955944 -0.0024318641517311335 0.005808503367006779 -0.002751180436462164 -0.006601892877370119 0.006526464130729437 0.010224680416285992 0.0021787798032164574 2.5787856429815292E-5 -0.003170113079249859 -3.6640733014792204E-4 -0.006329029332846403 0.008578249253332615 3.5088532604277134E-4 -5.076370434835553E-4 -0.011470289900898933 0.0015164872165769339 -6.362263229675591E-4 -0.0022985911928117275 0.004415400326251984 -2.9799994081258774E-4 0.00404054019600153 -0.011732598766684532 -0.0037511116825044155 0.003158677602186799 0.005780024919658899 0.00930880382657051 0.004529865924268961 -0.004242172930389643 0.009427405893802643 0.005504565313458443 -0.002935777185484767 -0.01022828184068203 0.006841918453574181 -0.0017035703640431166 0.004745061043649912 0.0034966077655553818 0.007929818704724312 -0.0035223495215177536 0.006703597493469715
http://dbpedia.org/class/yago/Orator110380672 0.001327036996372044 -0.0038512989412993193 -5.860180826857686E-4 -0.00258364574983716 -0.0018788527231663465 -0.006486327387392521 0.004007001407444477 -0.00111264712177217 0.0024681645445525646 -0.006007595453411341 -0.0017167719779536128 -0.005718165077269077 -0.00510400952771306 -0.0012186485109850764 0.0010910093551501632 0.0018064235337078571 0.004577271640300751 1.1262512998655438E-4 0.005041937343776226 -0.001177318161353469 0.002946090418845415 0.0015896171098574996 0.0015273167518898845 4.935793112963438E-4 -0.00312601774930954 0.004870875738561153 0.003193415468558669 -0.004199575632810593 0.001471419120207429 -0.0015315146883949637 0.0012996492441743612 -0.003495550714433193 2.4480477441102266E-4 8.342416840605438E-4 0.0038388243410736322 0.004984632600098848 0.0010566520504653454 0.002724030055105686 0.00469697080552578 0.0025716566015034914 -0.0035978080704808235 -0.0023858139757066965 5.942741991020739E-4 0.0012387894093990326 -0.00135993049480021 0.0019852053374052048 -6.840157584520057E-5 -0.002847472671419382 -0.0034251841716468334 -0.005686262622475624 0.0030219433829188347 0.0026554660871624947 -0.0013620691606774926 -7.263773586601019E-4 3.033323446288705E-4 -0.0029192473739385605 -0.005554308649152517 -0.0044665588065981865 7.829401874914765E-4 -0.002661864971742034 -0.0011767115211114287 -0.001880934927612543 0.002221490954980254 -0.005338586401194334 -0.0010657132370397449 0.005437084008008242 -0.005274055525660515 -0.002511969767510891 0.0015347452135756612 0.0015190084232017398 0.0024956236593425274 0.005853366106748581 -0.0031706190202385187 -0.002239662455394864 -0.004407274536788464 0.001925216754898429 7.168411393649876E-4 0.0013571265153586864 0.005438803229480982 0.0031819993164390326 -0.001276506925933063 -0.0032859810162335634 2.7411349583417177E-4 7.458437466993928E-4 -4.2139727156609297E-4 -0.00273161381483078 -0.0010631446493789554 -0.002702797995880246 -2.1259981440380216E-4 0.00474265031516552 -0.0033418971579521894 -0.004253993276506662 0.0018760762177407742 -9.655450121499598E-4 0.002874830737709999 -0.0033579340670257807 -0.0024488535709679127 3.254753755754791E-5 0.0025601156521588564 -0.003587209852412343
http://dbpedia.org/resource/Heraclides_Lembus -0.0038228980265557766 -0.013539052568376064 -0.007657867390662432 -0.005106869153678417 0.0038198567926883698 0.0018659655470401049 -0.009786656126379967 0.0038435901515185833 0.003077689791098237 0.0022281850688159466 0.01171682309359312 0.006053638644516468 0.00808744691312313 -0.012518825009465218 -0.008306915871798992 -0.0014986810274422169 4.962465027347207E-4 0.010663068853318691 -0.002641458762809634 0.012422459200024605 -0.006906260270625353 0.007848270237445831 -0.001588798244483769 -0.006056591402739286 0.013371733948588371 -0.008738874457776546 -0.014893067069351673 2.1629093680530787E-4 -0.00952230952680111 -0.014691940508782864 0.014552302658557892 -0.007437416352331638 0.01313485112041235 -0.01187153346836567 -8.45969479996711E-4 -0.01169334352016449 -0.015547302551567554 -0.014210447669029236 -0.00242645968683064 -0.01357088889926672 -0.011243294924497604 -0.006099941674619913 0.00875348411500454 -0.008471720851957798 0.005750794894993305 -0.010245145298540592 -0.006243370473384857 -0.009317617863416672 -0.005923875607550144 0.011872622184455395 -0.009563321247696877 -0.01847977563738823 0.0061835842207074165 -0.01309728529304266 -0.00880021508783102 0.005203033331781626 0.007066227495670319 0.01659046672284603 0.004989864770323038 0.013024634681642056 0.009713293984532356 -0.0030405079014599323 0.02225686050951481 0.007482439745217562 -0.013553734868764877 0.016880281269550323 0.014035364612936974 0.017063047736883163 0.0016278323018923402 0.0018319709924980998 0.0014171900693327188 -0.012713738717138767 0.012837092392146587 -7.929694838821888E-4 -0.00624207453802228 -0.02252817153930664 0.0082670534029603 0.01048679556697607 -0.002370634349063039 0.007921992801129818 -0.01133660413324833 0.01660074107348919 -0.012117331847548485 -0.011894548311829567 0.011156006716191769 0.00739036500453949 0.003787233727052808 -0.0025387918576598167 -0.012042737565934658 0.010098007507622242 0.008096598088741302 -0.011378176510334015 -0.006183770019561052 0.014351123943924904 0.010579532943665981 0.003628775477409363 0.013864717446267605 -0.0014565530000254512 0.003814762458205223 0.006494944915175438
http://dbpedia.org/class/yago/Scientist110560637 -8.329456904903054E-4 -5.954229272902012E-4 -0.0032244056928902864 0.0012467714259400964 -0.0027740076184272766 -0.005349257495254278 -0.008298570290207863 0.003489149734377861 -9.434321545995772E-4 0.0022844369523227215 -0.0023711449466645718 -0.0034588766284286976 8.683244814164937E-4 -0.0036006541922688484 -0.0024921507574617863 -0.006795187946408987 -0.0028560825157910585 0.007507826201617718 0.0036490336060523987 0.00643573934212327 -0.006511565297842026 0.006186807993799448 0.004112693481147289 -0.0012822960270568728 9.347067680209875E-4 -0.006590419448912144 -0.003182035870850086 -0.0056104292161762714 0.001988036325201392 0.001586190308444202 0.003076766850426793 -4.066759720444679E-5 -1.0207430750597268E-4 1.6599346417933702E-4 9.381985873915255E-4 -0.0041623665019869804 -0.005140038672834635 -0.002364217769354582 -0.0012421440333127975 0.0017120166448876262 -0.0028079559560865164 -0.0017792313592508435 0.008158360607922077 -3.765356377698481E-4 0.007071038708090782 -0.0060859136283397675 -2.601761952973902E-4 -0.0011426048586145043 -0.005406188312917948 -4.3026357889175415E-4 -0.007887717336416245 -0.003661759663373232 -0.001604448538273573 -6.644724635407329E-4 7.391250692307949E-4 -0.001608202001079917 0.0035151545889675617 -2.2052467102184892E-4 0.001247120089828968 0.005668355152010918 0.0031731468625366688 -0.002037948463112116 0.004095683805644512 0.0031096821185201406 0.002310369396582246 0.00402654567733407 2.841655514203012E-4 0.002127976855263114 -2.921782433986664E-4 -0.007821960374712944 -0.0020662604365497828 -0.0017201087903231382 9.293332113884389E-4 -4.026820242870599E-4 1.7878797370940447E-4 0.0012603469658643007 -0.002922089770436287 -8.035522187128663E-4 -5.480762920342386E-4 -0.0036966914776712656 7.274459931068122E-4 0.006055773701518774 -0.004954018164426088 9.888903005048633E-4 5.549701163545251E-4 0.0010566251585260034 0.0031951679848134518 0.006058820523321629 -2.485915319994092E-4 0.0047319019213318825 0.001764749875292182 0.0015111304819583893 4.236109962221235E-4 0.009154634550213814 0.006461769342422485 3.8661735015921295E-4 -0.0021758866496384144 0.00139298674184829 0.0022751542273908854 0.00207975204102695
http://dbpedia.org/resource/Hieronymus_of_Rhodes -0.00572094414383173 -0.009508680552244186 -0.0016407922375947237 -0.005372119601815939 -0.0016708829207345843 0.008325682953000069 -0.0027808791492134333 0.00698638753965497 0.004314941354095936 0.001201100880280137 0.001052971463650465 0.0032267719507217407 -3.01018008030951E-4 -0.0019302591681480408 -0.0056698378175497055 0.0032307058572769165 0.001064511714503169 0.008061934262514114 5.432718899101019E-4 0.004677820950746536 -0.0018912231316789985 0.007568839937448502 -0.005487129092216492 0.0017396723851561546 0.004750951658934355 -0.0013498819898813963 1.050835708156228E-4 0.0032199814449995756 -0.005818192847073078 -9.84786543995142E-4 0.007216122932732105 -0.006428453605622053 0.004844909533858299 -0.0060410029254853725 -0.0025828394573181868 -0.0029397655744105577 -0.006320936605334282 -0.005707364995032549 0.0013841813197359443 -0.003754270263016224 -0.0022127293050289154 6.622658693231642E-4 -7.224376895464957E-4 -0.007867827080190182 6.444419268518686E-4 0.0035275358241051435 -3.205358807463199E-4 0.0013294806703925133 0.004346936009824276 0.008928507566452026 -0.0013134493492543697 -0.002716467482969165 -0.001186674227938056 7.189442403614521E-4 -0.001267855055630207 -3.4187419805675745E-4 0.0028410395607352257 0.004517828114330769 0.004090945702046156 0.006764104589819908 0.0027508644852787256 0.002316544996574521 0.002393544651567936 0.0039713215082883835 -0.008698564022779465 0.002197283087298274 0.0058538662269711494 0.007021797820925713 0.0021363201085478067 -0.002711816690862179 0.004079698584973812 -0.0021883510053157806 6.969377864152193E-6 -0.0029898174107074738 -0.0049103032797575 -0.008250154554843903 0.007281544618308544 0.009075182490050793 -7.481882348656654E-4 0.005035277456045151 -7.904027588665485E-4 -0.0016230661422014236 -0.002982813399285078 -6.559785106219351E-4 2.2965345124248415E-4 0.0013385125203058124 0.004185426514595747 0.0013502627843990922 -0.008046555332839489 0.004544940777122974 -2.901042462326586E-4 -0.0032463192474097013 -0.004230787977576256 0.004726546350866556 0.0024644506629556417 0.004914166871458292 0.0044976575300097466 0.003954194486141205 3.504477208480239E-4 2.4605535145383328E-5
http://www.wikidata.org/entity/Q24229398 -9.226034162566066E-4 0.00770356273278594 0.009456105530261993 -5.849316366948187E-4 0.005096298176795244 -0.0033062321599572897 0.011670980602502823 -6.377408280968666E-4 0.0015621298225596547 0.004865604918450117 -0.007271886337548494 -0.001575389294885099 -0.00372440367937088 0.01792517490684986 -0.004738629329949617 0.006018750369548798 -0.009221881628036499 -0.011835947632789612 -0.002829687437042594 -0.010127736255526543 0.011007263325154781 -0.013096415437757969 0.0013011912815272808 0.013038095086812973 -0.0017311362316831946 0.006704395636916161 0.012354487553238869 0.00291399285197258 -0.0023585688322782516 -0.002803204581141472 -0.003548885229974985 0.008562752045691013 -0.009608201682567596 0.0021848673932254314 1.6222910198848695E-4 0.0051119071431458 0.006325914524495602 0.007455974351614714 0.007763665169477463 0.010451415553689003 0.0053356788121163845 0.003974406514316797 -0.009089982137084007 0.006661903113126755 -0.011406397446990013 0.010814797133207321 5.906104925088584E-4 0.006917308550328016 0.0014521840494126081 -0.0037491684779524803 0.012089109048247337 0.008522879332304 -0.004172096960246563 0.008372497744858265 0.010195138864219189 0.002084593055769801 -0.006829090416431427 -0.008622153662145138 -9.248385322280228E-4 -0.010825244709849358 -0.008818632923066616 0.004704995080828667 -0.010581901296973228 -1.4331532292999327E-4 0.009336602874100208 -0.014796731062233448 -0.012013977393507957 -0.003862661076709628 0.010768686421215534 0.008254162967205048 0.0018500812584534287 0.007349617779254913 -0.008482047356665134 6.251536542549729E-4 0.005553720984607935 0.014030370861291885 -0.005454111844301224 -4.7601619735360146E-4 0.003943937364965677 -0.004981860052794218 0.005382152274250984 -0.008659102022647858 0.006462703924626112 -0.0010924733942374587 -0.004622993059456348 -0.010592288337647915 -0.009976983070373535 3.865188919007778E-4 0.005411916878074408 -0.011356761679053307 -0.0035430919378995895 0.010775016620755196 0.007234491873532534 -0.015406587161123753 -0.00955037958920002 -0.004788697697222233 -0.005077684763818979 -0.005266712047159672 -2.603514585644007E-4 -0.007248613517731428
http://dbpedia.org/resource/Philip_of_Opus -0.004842489957809448 -0.008705606684088707 -0.0012226143153384328 -1.3882247731089592E-4 -0.0026236081030219793 0.003691334743052721 -0.00466078519821167 0.0016616303473711014 0.0035207420587539673 0.0033416789956390858 0.006436563096940517 0.0030926100444048643 -0.001339534530416131 -0.008148439228534698 -0.006671914830803871 0.0035674707032740116 0.005752782803028822 0.0013151346938684583 0.0022866250947117805 0.004583301022648811 -3.7565722595900297E-4 0.006553231738507748 -0.0011949148029088974 0.0016051565762609243 0.001181705272756517 -0.006631852127611637 -0.005553565453737974 0.0034201189409941435 0.002025009598582983 -0.007557290606200695 0.009441792964935303 6.633123848587275E-4 0.0027725270483642817 -0.0059618717059493065 -0.0035822740755975246 -0.008427907712757587 -0.009672143496572971 -0.011418569833040237 3.2404589001089334E-4 -0.00846873503178358 -2.064668806269765E-4 -6.697700591757894E-4 0.009608186781406403 -0.004931321833282709 0.007824786007404327 -0.001161471358500421 -0.005790399853140116 -0.005440881010144949 -0.005466733127832413 5.80707797780633E-4 -0.00889790803194046 -0.007957449182868004 0.006519003305584192 -0.00829685665667057 -0.004038830287754536 0.005731744226068258 0.005603233817964792 0.007224487140774727 0.002713506342843175 0.004776083864271641 0.004098602570593357 0.0017329304246231914 0.013355476781725883 0.005551066715270281 -0.009309660643339157 0.0013099978677928448 0.010996140539646149 0.011233308352530003 0.00394388847053051 -0.001567998668178916 -0.0011670216917991638 -0.009075130335986614 0.006135894451290369 -0.001740958890877664 0.0010283032897859812 -0.014120431616902351 9.126426884904504E-4 0.004316621460020542 -0.00433097779750824 0.006644877605140209 -0.004157386254519224 0.0038155855145305395 -0.006885034963488579 -0.0077286940068006516 0.00238184817135334 -5.697672604583204E-4 -0.0017296457663178444 -0.00489930622279644 -2.133408561348915E-4 0.0035978059750050306 -6.130477413535118E-4 -0.009533313103020191 -0.005502707324922085 0.009750318713486195 0.006516824942082167 6.498935399577022E-4 0.001991171855479479 0.006079238373786211 0.0024644900113344193 0.005474425852298737
. -0.15471592545509338 -0.003283532802015543 0.3333945572376251 -0.1803547441959381 0.1523752063512802 0.23760457336902618 0.3152613341808319 0.13460303843021393 0.035531170666217804 0.2883375585079193 0.00793979037553072 0.1183711364865303 0.14597557485103607 0.33489057421684265 -0.2423725128173828 0.28923165798187256 -0.1281367987394333 -0.2017122209072113 -0.06776236742734909 0.013251944445073605 0.35253870487213135 -0.24620887637138367 -0.18392546474933624 0.2940549850463867 0.0024123371113091707 0.09734434634447098 0.058145273476839066 0.27730393409729004 -0.100474052131176 -0.2710072696208954 0.02578280307352543 0.1283998042345047 0.03423021733760834 -0.1919621080160141 0.11416463553905487 0.04783037677407265 0.08905085176229477 0.2585917115211487 0.10360229015350342 -0.11876538395881653 -0.0017747071105986834 0.06467285007238388 -0.3554040193557739 -0.12089544534683228 -0.324100136756897 0.26907017827033997 -0.029295247048139572 0.27401086688041687 0.21548707783222198 0.07286080718040466 0.10455164313316345 -0.15031975507736206 -0.06529705226421356 0.19950230419635773 0.12524887919425964 -0.020939389243721962 0.020496143028140068 0.08536797761917114 -0.1374698430299759 0.0025379094295203686 0.07526794075965881 0.19723650813102722 -0.09141862392425537 0.15020562708377838 -0.09181665629148483 -0.3428935706615448 0.22474372386932373 0.05286836251616478 0.3426738977432251 0.26048043370246887 0.2545197606086731 0.06333382427692413 0.029311537742614746 0.14758765697479248 0.11658506095409393 -0.16528736054897308 0.14964957535266876 0.15542256832122803 -0.05316280573606491 0.09929219633340836 -0.05129735544323921 -0.2890884280204773 0.08387379348278046 -0.09422428160905838 -0.0030438550747931004 -0.11155112832784653 -0.2313794195652008 -0.22845228016376495 -0.08074091374874115 -0.24985504150390625 0.20904208719730377 0.11627587676048279 0.28805506229400635 -0.20688441395759583 -0.07770062237977982 -0.05871661379933357 0.21907678246498108 -0.21745330095291138 0.12798283994197845 -0.2898198366165161
http://dbpedia.org/resource/Polus 0.0011419738875702024 -0.00413618003949523 -0.004389937501400709 -0.004488765727728605 0.002226239535957575 0.001402695314027369 -7.849889807403088E-4 -8.708413952263072E-5 -0.0014008900616317987 0.00108634983189404 -0.0023524772841483355 0.0036251978017389774 -8.325235103257E-4 -0.001292640925385058 7.439070614054799E-4 0.004019692074507475 5.694107385352254E-4 -0.002959589473903179 0.0010646965820342302 -0.0039011293556541204 0.003246087348088622 -0.0021652057766914368 -7.821650942787528E-4 -0.0051445127464830875 0.00498866755515337 0.0020334110595285892 -0.00408258056268096 -0.0015808189054951072 0.0024290254805237055 -0.0018048877827823162 -0.0012037849519401789 5.246398504823446E-4 4.297217237763107E-4 -0.0037016160786151886 -0.00274395733140409 -0.0033599974121898413 -0.002633383497595787 0.0038618906401097775 0.0010790335945785046 -7.088021957315505E-4 -0.0014653210528194904 -0.0039331139996647835 0.003759027225896716 -0.005191543605178595 0.0034420513547956944 -0.0024374283384531736 -1.0110740549862385E-4 0.002003750763833523 -0.004042205400764942 0.004359803162515163 -0.0036259074695408344 -3.8748947554267943E-4 4.7337543219327927E-4 -0.0035442966036498547 0.001334754517301917 0.0010244068689644337 0.0023903781548142433 0.0036942707374691963 0.004486843477934599 0.003502283478155732 6.204096716828644E-4 -0.005058573093265295 0.0050720633007586 -5.926089361310005E-4 -0.0010819120798259974 0.003140564076602459 -0.0033401111140847206 -0.0019516514148563147 0.0037902886979281902 -0.001330208731815219 4.084975807927549E-4 -0.0010243166470900178 -0.001623451942577958 0.004874538630247116 0.0017384738894179463 0.0019951267167925835 -0.0024633726570755243 -0.0016649086028337479 0.00327519909478724 -0.003126183059066534 0.0010883890790864825 -0.0024691286962479353 -0.0019156335620209575 -0.003948087338358164 0.001905018463730812 0.004071923438459635 0.0032263584434986115 0.003378244349732995 4.969155415892601E-4 -0.0027052632067352533 -1.483199157519266E-4 -0.0024996998254209757 0.0017750260885804892 -5.169767973711714E-6 0.0028036765288561583 0.0010450200643390417 -3.0585567583329976E-4 0.00471498304978013 -0.0014255449641495943 -0.001207492547109723
http://www.wikidata.org/entity/Q4964182 8.132592774927616E-4 0.006571510341018438 0.0066797565668821335 6.301983376033604E-4 -0.003470018273219466 -0.0012061764718964696 -6.959966849535704E-4 1.939131470862776E-4 -0.0052983686327934265 0.0031239346135407686 0.0011070661712437868 -0.0014379407512024045 5.590993096120656E-4 0.007206965237855911 -5.832960596308112E-5 -9.173578582704067E-4 -7.214359357021749E-4 -0.0029388582333922386 0.0013356583658605814 -0.0058476002886891365 0.007049837149679661 -0.007054433226585388 0.003419626969844103 7.886769017204642E-4 -0.002585046226158738 0.005767300724983215 0.008050402626395226 -0.002419369760900736 0.002534876111894846 0.007263221777975559 -0.007190026342868805 0.00482498062774539 -0.005240206141024828 0.0016068731201812625 -0.004046192858368158 0.007522950414568186 0.006192121654748917 0.007213931065052748 0.0012697101337835193 0.008662591688334942 0.0010323538444936275 -0.00138865876942873 -0.0054817041382193565 -0.0016904404619708657 -0.007587612606585026 -0.001797419274225831 -8.077109814621508E-4 0.008066656067967415 -0.002786981174722314 -1.7669130465947092E-4 0.0010313424281775951 0.008230230771005154 0.0029848958365619183 0.002933111507445574 0.00496756611391902 0.0019455348374322057 -1.600189134478569E-4 -0.0025316840037703514 -0.003752174787223339 -0.003331983694806695 -0.002414246555417776 9.764350252225995E-4 -0.01029224880039692 8.485355647280812E-4 -8.729079854674637E-5 -0.002911703195422888 -0.0026058387011289597 -0.0012345812283456326 -0.0018185300286859274 -6.645186804234982E-4 -0.002868055831640959 0.007386385928839445 -0.004877816885709763 0.0023926470894366503 0.005652570631355047 0.0048477137461304665 -0.005256840027868748 -0.005996029358357191 0.004245064686983824 0.002409281674772501 0.0034591560252010822 -0.0019598123617470264 0.0022364254109561443 4.165344871580601E-4 -0.0031257630325853825 -0.006647326052188873 -0.0028896089643239975 0.003709972370415926 0.00413588946685195 -5.383320967666805E-5 4.061165964230895E-4 0.006296671461313963 0.003619062714278698 -0.008566788397729397 -0.001704080612398684 -0.0046659051440656185 -0.007166363764554262 -0.0032186154276132584 -0.0026963462587445974 -0.00524033373221755
http://dbpedia.org/class/yago/WikicatAncientGreekRhetoricians 0.0020855912007391453 0.004849447403103113 6.949601229280233E-4 -0.0014986009337008 -0.005110151134431362 -0.0030032419599592686 0.0027172244153916836 -0.0029619960114359856 0.0029515372589230537 -0.0011321828933432698 3.669972356874496E-4 4.420788318384439E-4 -0.005370326340198517 -0.0033910353668034077 0.005810920149087906 -0.0012049166252836585 9.536352008581161E-4 0.004652948584407568 -0.0045285881496965885 -0.0033758811186999083 0.002394684124737978 -3.245437692385167E-4 0.0028012653347104788 0.002363617531955242 0.0011827248381450772 -9.021258447319269E-4 5.372827872633934E-4 2.778353518806398E-4 3.41256643878296E-4 -0.0029383362270891666 0.0044042570516467094 0.003188306698575616 -7.561568054370582E-4 0.0031202237587422132 -0.00361618772149086 0.0017566136084496975 0.0036532992962747812 -0.0038419929333031178 0.0016558626666665077 7.517707417719066E-4 0.002276844112202525 0.0010829833336174488 -6.780336261726916E-4 -0.002693518763408065 -0.0014670690288767219 0.0024380746763199568 0.001635195454582572 -0.005833416245877743 -0.003478123340755701 -0.002361143473535776 8.726482046768069E-4 0.002280007814988494 0.004138740710914135 -4.8735321615822613E-4 0.0038161571137607098 -3.537857628543861E-5 -0.0017887561116367579 3.261728270445019E-4 0.0032793597783893347 -3.429047064855695E-4 -0.0036529838107526302 -0.00379230291582644 0.003147817449644208 2.1149699750822037E-4 0.0047347950749099255 -0.002502317074686289 -3.924535121768713E-4 -0.003964379895478487 2.64015921857208E-4 -0.00365976570174098 0.001567427534610033 -0.0036014665383845568 -6.379850674420595E-4 -5.908054881729186E-4 0.0022982158698141575 0.0011956115486100316 -8.484227873850614E-5 -0.002536103595048189 -0.0034027183428406715 8.686090004630387E-4 0.0032452368177473545 0.0017567212926223874 0.002767746103927493 5.535801756195724E-4 0.0018780488753691316 -0.004012147430330515 9.780335240066051E-4 -0.0032994605135172606 0.0011758877662941813 5.288833635859191E-4 -0.00659063458442688 0.0038330156821757555 -0.0026929727755486965 0.0015917618293315172 0.004459901712834835 5.869519081898034E-4 6.266911805141717E-5 0.0014438863145187497 0.0022355972323566675 -5.091855418868363E-4
http://dbpedia.org/class/yago/WikicatAncientGreekWriters 0.004092296119779348 -0.0028713999781757593 0.0059064538218081 0.0031515902373939753 0.0024053240194916725 -0.0013862057821825147 0.0023188209161162376 2.1403166465461254E-4 -0.005111902020871639 0.004293918609619141 3.767036832869053E-4 0.004463591612875462 -7.27630453184247E-4 1.9749905914068222E-4 0.0013766934862360358 -0.0011335338931530714 -0.0021453681401908398 -0.005484748166054487 0.00289843138307333 0.00138706190045923 0.0025831726379692554 0.002526376862078905 0.002876634243875742 -0.0019218624802306294 0.002112319227308035 -4.622161213774234E-4 0.004904812201857567 -0.0026537657249718904 -0.001992901787161827 0.002582211047410965 -0.004276208113878965 0.003664845135062933 0.0027126730419695377 0.0017161857103928924 5.241266335360706E-4 -0.0025077571626752615 -0.0014261645264923573 0.001053294399753213 4.5518376282416284E-4 -0.002981774043291807 0.005431989673525095 6.727046566084027E-4 0.002305052476003766 2.706310187932104E-4 0.0019506270764395595 0.003037586808204651 -0.0034072150010615587 -0.0012948920484632254 -0.0012840974377468228 0.0025272914208471775 -0.0019171128515154123 6.933397380635142E-4 -0.002554793143644929 0.004260877147316933 0.0015648504486307502 8.369635324925184E-4 9.094990673474967E-4 -0.0015729168662801385 0.003707664553076029 -0.00120901211630553 0.003534506307914853 8.850167505443096E-4 0.002988652093335986 0.0017504265997558832 -0.0024873705115169287 -0.007102949544787407 -0.0028216023929417133 6.783510325476527E-4 0.00537531403824687 -0.0031712192576378584 0.0030289986170828342 -0.0026378317270427942 -0.0042291320860385895 1.0003521310864016E-4 0.0013506626710295677 3.744384157471359E-4 7.708084303885698E-4 -8.057673694565892E-4 0.004732126835733652 -0.0018800093093886971 0.002287332434207201 -0.005907261278480291 0.0011654281988739967 0.0043730540201067924 0.0015211082063615322 -0.0029513020999729633 -0.0032377876341342926 -0.004266613163053989 0.0013761136215180159 0.0030625364743173122 -0.0018925864715129137 -7.745374459773302E-4 0.005809520836919546 -0.005747683346271515 2.938532561529428E-4 0.001530237845145166 -2.712911809794605E-4 -0.0020464034751057625 0.0026408066041767597 5.186821217648685E-4
http://dbpedia.org/class/yago/WikicatAncientGreekMathematicians 0.00352277304045856 0.001997798215597868 0.0022625315468758345 0.004766363650560379 2.8362037846818566E-4 0.0038743524346500635 0.00844669435173273 -2.5246775476261973E-4 1.2483386672101915E-4 0.005480864550918341 0.0010982236126437783 -0.00275875604711473 -0.0033742350060492754 0.004135281778872013 0.003126711118966341 -4.118387296330184E-4 0.0020871241576969624 -0.003987915348261595 -9.065328049473464E-4 -0.004929547198116779 0.01105052512139082 -0.010822249576449394 0.002561386441811919 0.0018034279346466064 -0.006683737970888615 0.0036698125768452883 0.004435724578797817 0.004466199781745672 -0.0011749893892556429 0.003611140651628375 6.519752787426114E-4 -6.066398345865309E-4 -0.002373349154368043 0.005734223406761885 1.7071343609131873E-4 0.0017052482580766082 0.007948838174343109 0.006203844677656889 -0.0019899006001651287 0.006727095693349838 0.0015529767842963338 0.004952056333422661 -0.005724154878407717 -0.0010748837376013398 -0.006102436222136021 4.538875073194504E-4 0.0037243440747261047 0.006680912803858519 0.005974877625703812 -0.00480868574231863 0.00689152255654335 -0.0016632365295663476 -0.005413576494902372 0.0045031094923615456 0.002667380962520838 -0.00569593021646142 -0.0031700502149760723 -7.058043265715241E-4 0.0017231140518561006 -0.005070114973932505 -0.0029779737815260887 0.006888322997838259 -0.0095803989097476 -0.0026970040053129196 0.0017105310689657927 -0.004624237772077322 -0.004156237002462149 -2.760504721663892E-4 -2.8643972473219037E-4 0.006708517204970121 0.003288493026047945 0.00797721091657877 -0.006535857450217009 0.004630484618246555 8.139609708450735E-4 0.0039761802181601524 -0.002598387189209461 -1.2785762373823673E-4 8.753656875342131E-4 0.004291523713618517 0.005483170505613089 -0.001734800054691732 0.007073166314512491 0.004868222866207361 -0.0063099367544054985 -0.003243447979912162 -0.001826339983381331 -0.0010257684625685215 8.359712228411809E-5 -0.005620650481432676 0.00356747186742723 0.009232370182871819 0.009638054296374321 -0.010704940184950829 0.0020214365795254707 -0.0035724330227822065 4.62425930891186E-4 -0.0026177370455116034 0.004506269004195929 3.913604887202382E-4
http://dbpedia.org/resource/Hermotimus_of_Clazomenae -0.009201417677104473 -0.010458794422447681 -0.009952346794307232 -0.00779393594712019 0.0037814064417034388 5.932251224294305E-4 -0.0037991185672581196 0.003337542060762644 0.006163382437080145 0.0030013895593583584 0.006160754710435867 0.008695866912603378 0.0065509602427482605 -0.004517851397395134 -0.00973222590982914 3.984658978879452E-4 -5.464707501232624E-4 0.007091821171343327 8.320386987179518E-4 0.007257456425577402 -0.006573614198714495 0.006562972906976938 -0.006813312415033579 -0.004026672802865505 0.008318631909787655 -5.256644217297435E-4 -0.010501468554139137 6.007865304127336E-4 -0.007077240385115147 -0.004746916703879833 0.01141894981265068 -0.007000606972724199 0.010644274763762951 -0.007951844483613968 -3.996814484708011E-4 -0.008653054013848305 -0.00588489044457674 -0.005884179845452309 -0.004437072668224573 -0.013444695621728897 -0.005123266484588385 -9.501951280981302E-4 0.006311157718300819 -0.0013026052620261908 0.00628992123529315 -0.0026473405305296183 -0.005326039623469114 -0.006241620052605867 -0.0010789097286760807 0.003221432212740183 -0.009380902163684368 -0.015272298827767372 0.006104364991188049 -0.010103433392941952 -0.011687122285366058 0.002312867669388652 0.009886249899864197 0.010850767605006695 0.003270715242251754 0.013784509152173996 0.011533918790519238 -0.005430037155747414 0.00674313073977828 0.005421394482254982 -0.013670125976204872 0.004941122606396675 0.009430507197976112 0.00808733981102705 -5.55451144464314E-4 0.0037197116762399673 0.0055846525356173515 -0.012721842154860497 0.005701181013137102 0.003913241904228926 -0.0075815520249307156 -0.017211880534887314 6.594879669137299E-4 0.006453990004956722 -0.0051977913826704025 7.481779321096838E-4 -0.010064313188195229 0.0034619139041751623 -0.009093276225030422 -0.0064346506260335445 0.0064703235402703285 0.0032395096495747566 -0.0017164746532216668 -0.005409913137555122 -0.002422232646495104 0.0012898542918264866 0.0032380344346165657 -0.005670345388352871 -0.002126626670360565 0.00835603941231966 0.008065369911491871 -0.0017627207562327385 0.005117533728480339 0.0018164936918765306 0.001573186251334846 0.006725769490003586
http://xmlns.com/foaf/0.1/Person 0.004667017143219709 -0.0051315356977283955 -0.006901904474943876 -5.60802174732089E-4 -0.0037491812836378813 -0.003933832049369812 -0.008375589735805988 -0.0028999564237892628 0.0044805570505559444 -0.002480579074472189 -6.281579844653606E-4 -0.0015060787554830313 -0.002725491998717189 -0.0047707329504191875 0.004757625050842762 -0.007543622050434351 -1.7842062516137958E-4 0.0023742320481687784 0.002888196147978306 0.002715580863878131 -0.004991185385733843 0.0023913420736789703 0.0060479361563920975 -0.01127169281244278 0.004848317708820105 -2.885842404793948E-4 -0.0011462429538369179 -0.005429606884717941 -0.0031618624925613403 0.007004342973232269 0.0030001334380358458 -0.0030915054958313704 0.005356420297175646 0.0011210294906049967 -4.6528136590495706E-4 -0.0021233304869383574 -2.174707769881934E-4 -0.00793944951146841 -0.003104790346696973 0.0012615955201908946 -4.288021591491997E-4 -0.007528378162533045 0.0048392643220722675 -0.0030466660391539335 0.0038140560500323772 -0.007429206278175116 0.00261072744615376 -0.005306735634803772 -0.0026510613970458508 -3.906394704245031E-4 -0.006474331486970186 -6.90299435518682E-4 7.828049710951746E-4 -0.0060565839521586895 -0.008714314550161362 8.062778506428003E-4 0.00488645862787962 0.0027003309223800898 0.0035340210888534784 0.008886816911399364 0.005511910188943148 -0.007504411973059177 0.0071564349345862865 0.001038418267853558 -0.0029605620075017214 0.011312117800116539 0.003043592907488346 -5.774832679890096E-4 -0.003279271302744746 -0.002629355061799288 -2.182783791795373E-4 -0.004980637226253748 0.007538773585110903 0.0014712908305227757 -0.005232956726104021 0.0024925803299993277 -0.001504768617451191 -0.004676711745560169 -0.00503825768828392 -0.005409577861428261 -0.005349650047719479 0.011126558296382427 -0.004690640605986118 2.475133806001395E-5 0.0020737177692353725 0.007907859049737453 0.0015280786901712418 0.0033109798096120358 0.0040271389298141 0.004584489855915308 0.003150360891595483 -0.0045161060988903046 -0.008635671809315681 0.00836256518959999 0.004204063210636377 1.4579709386453032E-4 -0.004879064857959747 2.262157795485109E-4 -2.8381653828546405E-4 0.002308590803295374
http://dbpedia.org/class/yago/Person100007846 0.005434628110378981 0.0011139016132801771 -0.004085100255906582 0.006485318299382925 -0.003729346441105008 0.0011632195673882961 -0.006137699820101261 -0.002686901483684778 0.005183760076761246 -0.006075849756598473 0.004753574263304472 -0.002450722735375166 -4.104725376237184E-4 -0.007629357744008303 -0.0015795506769791245 -0.005688345525413752 0.00203659082762897 0.0026909317821264267 -0.0024858713150024414 -0.002427702536806464 -0.005946832243353128 0.0018564392812550068 0.002297191647812724 -0.0026324910577386618 -0.0016122405650094151 -0.0059354654513299465 -0.004849982913583517 -0.010194278322160244 -0.001845186110585928 0.005045153666287661 -0.0021306383423507214 -0.0011508716270327568 0.0012389301555231214 0.0019789545331150293 -0.001758601632900536 9.71757632214576E-4 -0.0034905734937638044 -0.004668489098548889 0.0013828922528773546 0.002700973767787218 9.809243492782116E-4 -0.005923575256019831 0.013032136484980583 0.003789292648434639 0.009760868735611439 -0.002150692278519273 -0.0011507624294608831 -0.007186298258602619 -0.009010071866214275 -0.0035774216521531343 -1.7792748985812068E-4 -0.004510050173848867 0.005555672105401754 -0.0025172296445816755 -0.004812545608729124 0.005255683790892363 0.005233376286923885 0.0010749839711934328 0.0014814332826063037 0.006236349232494831 -5.867381696589291E-4 -0.006629733834415674 0.0059928023256361485 -0.005021359771490097 0.0035684662871062756 0.010709875263273716 0.0019193441839888692 0.005288824904710054 -0.00528295012190938 -0.004534799139946699 -0.0056047760881483555 -2.073925279546529E-4 -0.002840138506144285 0.002566529205068946 8.929111063480377E-4 -8.864921983331442E-4 0.0022924738004803658 -4.783677577506751E-4 -1.4202909369487315E-4 0.001487317611463368 0.004400850273668766 0.00930936448276043 -4.361288156360388E-4 -6.405489984899759E-4 5.773944430984557E-4 0.004445055034011602 0.009078966453671455 0.001008239109069109 -1.6051325656007975E-4 9.232722804881632E-4 -0.002589788753539324 -0.0015314653282985091 -0.0011080726981163025 0.0027599746827036142 -0.0021549579687416553 0.005661486182361841 -0.004709634464234114 0.009353688918054104 -0.0032638327684253454 0.0074715763330459595
http://www.w3.org/1999/02/22-rdf-syntax-ns#type 0.15198679268360138 0.2376452386379242 0.1583990603685379 0.15457868576049805 -0.04887866973876953 -0.12206555157899857 0.07177787274122238 -0.11462996155023575 -0.12976107001304626 -0.10680202394723892 -0.20215049386024475 -0.21265818178653717 -0.1001456156373024 0.2006966769695282 0.181577667593956 -0.07446450740098953 -0.057100843638181686 -0.24555566906929016 0.0475723072886467 -0.2184537798166275 0.11780624091625214 -0.17670966684818268 0.10168149322271347 0.10268709063529968 -0.22288379073143005 0.10482233017683029 0.21893596649169922 0.009557966142892838 0.1282254308462143 0.22185251116752625 -0.1843848079442978 0.14708048105239868 -0.18144859373569489 0.27779966592788696 -0.03306679427623749 0.17199555039405823 0.19531914591789246 0.19314199686050415 0.08552137762308121 0.29606419801712036 0.20595325529575348 0.10381577908992767 -0.16976888477802277 0.17291684448719025 -0.13102838397026062 0.06631556898355484 0.09287578612565994 0.09494099766016006 0.026354316622018814 -0.2100272923707962 0.2183874547481537 0.3073849081993103 -0.04121570289134979 0.14404138922691345 0.20258721709251404 -0.07699111104011536 -0.16253027319908142 -0.3412926197052002 -0.07944831997156143 -0.3262251317501068 -0.23713813722133636 0.05374518036842346 -0.31014683842658997 -0.14803487062454224 0.29552504420280457 -0.178960919380188 -0.3853395879268646 -0.28593873977661133 -0.013927442021667957 -0.015782149508595467 -0.1529303342103958 0.2465389370918274 -0.24849718809127808 -0.04564344882965088 0.10604861378669739 0.39641785621643066 -0.15382219851016998 -0.24317823350429535 0.09437011927366257 -0.10133275389671326 0.19270837306976318 -0.18226495385169983 0.2596170902252197 0.14572858810424805 -0.1280088871717453 -0.12859751284122467 -0.04172860458493233 0.09713098406791687 0.15267454087734222 -0.08196307718753815 -0.1931534856557846 0.17896144092082977 0.1003522202372551 -0.2395191341638565 -0.10011955350637436 -0.07970237731933594 -0.26439765095710754 -0.007464628200978041 -0.020721925422549248 -0.04969735071063042
http://dbpedia.org/class/yago/Wikicat5th-centuryBCGreekPeople -0.0017740376060828567 0.005993257276713848 0.005118518136441708 -0.0020898121874779463 -0.0029992694035172462 -0.0034549874253571033 0.005646253004670143 -0.0010668121976777911 -0.005937262903898954 -0.003910290542989969 -3.6963142338208854E-4 -0.0029270087834447622 -0.001791535527445376 -3.1393583049066365E-4 -0.0012915111146867275 -0.001332236104644835 2.286989001731854E-5 -0.0013436194276437163 -0.0023383263032883406 5.856931093148887E-4 0.0030754737090319395 -0.00694500096142292 0.004053909797221422 -4.712766894954257E-5 -0.004405996296554804 0.0018898057751357555 0.006144901737570763 -0.002381719881668687 -5.884531856281683E-5 -0.0010333284735679626 0.0013188784942030907 -9.86322178505361E-4 9.802930289879441E-4 0.0022743246518075466 -0.0026059416122734547 -3.283361147623509E-4 0.0014078724198043346 0.004372052848339081 0.0021431962959468365 0.005592849105596542 0.00394862424582243 0.003298996714875102 -0.0013754136161878705 0.0013206296134740114 0.0017905000131577253 -0.0010811836691573262 0.004336854442954063 0.006224070675671101 -0.0032291419338434935 -6.091900868341327E-4 0.004535303451120853 -1.1232982797082514E-4 -0.0031663000117987394 0.006319533567875624 -0.0014932460617274046 -0.0018409594194963574 1.3411497639026493E-4 -0.0025290525518357754 0.002822126727551222 0.0015799094690009952 -0.005821031518280506 5.40074659511447E-4 -0.0056080990470945835 1.1282907507847995E-5 -6.932849064469337E-4 -0.007424880750477314 -0.004152053967118263 7.951864390634E-4 -4.1164126014336944E-4 -0.001774929347448051 -0.005385447759181261 0.0026158643886446953 -5.133973900228739E-4 -0.002135559683665633 0.005988236051052809 0.00478001032024622 -0.00192746939137578 -0.00337969115935266 -0.0015610128175467253 -0.004676737356930971 0.0020985016599297523 -8.410169975832105E-4 0.007281005382537842 0.0033815905917435884 -0.004411383531987667 -0.0028650665190070868 -0.00489191897213459 8.601121371611953E-4 -0.0026726711075752974 -0.0024904711171984673 0.0017907528672367334 0.00580671988427639 0.004467599559575319 -0.0023148534819483757 -0.002279467647895217 -0.0030027905013412237 -0.0010720065329223871 -6.657257908955216E-4 0.0034190197475254536 1.7635655240155756E-4
http://dbpedia.org/resource/Gorgias -0.006652440410107374 -0.023419423028826714 -0.04175591841340065 0.0010764636099338531 -0.00708647258579731 -0.0029432133305817842 -0.026858555153012276 -9.937374852597713E-5 0.010869930498301983 -0.011598154902458191 0.015323398634791374 0.007614318281412125 0.005849205888807774 -0.033992063254117966 -0.0019906351808458567 -0.010797295719385147 0.01219943631440401 0.035552360117435455 -0.005330086685717106 0.022396568208932877 -0.03768099471926689 0.029390057548880577 0.003007882507517934 -0.02423490211367607 0.021559959277510643 -0.019709168002009392 -0.029511433094739914 -0.019896818324923515 -0.005354057066142559 -0.0038341074250638485 0.016861392185091972 -0.026802193373441696 0.017882589250802994 -0.018767835572361946 -0.008802160620689392 -0.01893773302435875 -0.02709265612065792 -0.035326454788446426 -0.013161738403141499 -0.019212478771805763 -0.01493462547659874 -0.01573852449655533 0.03950975462794304 -0.007190878503024578 0.03461036458611488 -0.02630521170794964 -0.00427932059392333 -0.025123411789536476 -0.017847031354904175 0.010787703096866608 -0.03190971910953522 -0.023031679913401604 0.011541820131242275 -0.027134014293551445 -0.026320965960621834 0.011079691350460052 0.018246527761220932 0.02459629625082016 0.019000567495822906 0.030238213017582893 0.022754408419132233 -0.017197320237755775 0.032349634915590286 0.008442645892500877 -0.017751211300492287 0.03963315486907959 0.022529534995555878 0.019879071041941643 -0.026660243049263954 -0.020422350615262985 -0.006056339479982853 -0.03229284659028053 0.026044856756925583 -0.007820584811270237 -0.01738792099058628 -0.025441057980060577 0.002230242593213916 0.00908401608467102 -0.009619459509849548 -0.0015222897054627538 -0.017222315073013306 0.04037928208708763 -0.03619096800684929 -0.003613147884607315 0.01042484026402235 0.021060382947325706 0.023899875581264496 0.005699678789824247 -0.005843916442245245 0.030159132555127144 0.003318273462355137 -0.02655751258134842 -0.02562588080763817 0.03887085244059563 0.020514370873570442 0.011664978228509426 0.01365692913532257 0.017693335190415382 -0.008257039822638035 0.030336907133460045
http://schema.org/Person 0.005903454031795263 -0.0037516166921705008 -9.071042877621949E-4 0.006725400686264038 0.002488025464117527 8.029643213376403E-4 -0.006001622881740332 -9.567725355736911E-4 -0.0026500013191252947 -0.008021409623324871 6.717698852298781E-5 4.695160314440727E-4 6.854614475741982E-4 -0.0062811425887048244 1.5036854892969131E-4 -0.005223825573921204 0.003927254118025303 0.0026234746910631657 0.003032716689631343 2.626229543238878E-4 -0.0029890236910432577 0.004282618407160044 0.0010831492254510522 -0.005033168941736221 -0.002258336404338479 0.002999328775331378 -0.004871732089668512 -0.0016930158017203212 -0.0011716277804225683 0.002850495046004653 -0.0014064121060073376 -0.005164585541933775 0.0038338121958076954 0.006952254567295313 -0.005636583082377911 0.004410128109157085 -0.003867597784847021 -0.0046102250926196575 9.429118363186717E-4 0.005117034539580345 -0.004031553864479065 -7.976339547894895E-4 0.00753212021663785 0.005241008475422859 0.003258049488067627 -0.0033687250688672066 0.002145932987332344 -0.0035074763000011444 0.0025753406807780266 2.762515505310148E-4 -0.002299584448337555 0.005579313263297081 -0.002847639610990882 4.574377671815455E-4 -0.0024935512337833643 -0.0015184845542535186 0.0022530537098646164 -0.0031209327280521393 0.004998998250812292 -0.005104586016386747 0.0036630078684538603 -1.1188488861080259E-4 2.6426458498463035E-4 0.003117172047495842 0.0025812198873609304 0.007037341594696045 -0.005146727431565523 0.00213034194894135 -0.007431497797369957 -0.0025238655507564545 -6.641712971031666E-4 0.004374472424387932 -0.004079203587025404 0.0017226237105205655 0.002786924596875906 0.0035842868965119123 -0.0031370092183351517 0.0020087286829948425 0.00481463223695755 -0.005459762644022703 -0.002600613050162792 0.006058321334421635 6.66508567519486E-4 0.0032088682055473328 0.0021534611005336046 0.0036912544164806604 0.005383898504078388 0.00536440871655941 -0.0027086061891168356 0.00521921506151557 -0.0013011966366320848 -0.006024579051882029 -0.007858602330088615 0.001433989149518311 0.004983844235539436 -3.0683103250339627E-4 -0.005812646355479956 0.007486804388463497 -0.004740252159535885 0.0021575819700956345
http://dbpedia.org/resource/Damo_(philosopher) 0.0036944341845810413 -0.004741676617413759 0.0018081427551805973 0.001534199109300971 -0.0020858265925198793 -0.0025765851605683565 -0.004135081544518471 0.0017762082861736417 0.003725141054019332 -0.0036530739162117243 0.0012617047177627683 -9.711770107969642E-4 -2.0279665477573872E-4 -2.336594188818708E-4 0.0012727625435218215 -6.670317379757762E-4 0.00160783261526376 -0.0027946033515036106 -0.002848880598321557 0.003038788679987192 0.0020033479668200016 -0.0025206778664141893 -0.004071814473718405 0.003436428029090166 0.00485141109675169 -0.0029769381508231163 7.543974788859487E-4 0.002378083299845457 0.0029039178043603897 -8.343275403603911E-4 0.0010105632245540619 -7.896734750829637E-4 0.0017138849943876266 -0.0013419167371466756 0.003349404549226165 0.0030358151998370886 3.784800646826625E-4 -0.003160845022648573 0.004061563406139612 9.019911522045732E-4 -0.0011517060920596123 -0.005721575580537319 0.006093638017773628 -0.0044479225762188435 -0.003022878197953105 -4.7514369362033904E-4 -8.859587833285332E-4 -0.0013313449453562498 -0.00292844302020967 0.0024359626695513725 -0.003897510003298521 -0.002961844438686967 0.0033080116845667362 0.0014604291645810008 -0.00220320001244545 4.105483094463125E-5 0.0014943525893613696 0.002411373658105731 0.003405050141736865 0.0014044212875887752 -0.0026371274143457413 9.87574108876288E-4 0.0017505998257547617 0.00412186561152339 0.0036450615152716637 -0.0029830948915332556 0.0011987736215814948 0.003955485299229622 -0.0036287743132561445 0.0034194677136838436 -9.730198653414845E-4 0.0011666861828416586 -8.769105188548565E-4 0.0024910324718803167 -0.0021367031149566174 -0.002678308170288801 -0.0011765146628022194 -0.0024109266232699156 -0.0027776318602263927 -0.003457247046753764 0.0031769312918186188 3.547598607838154E-4 5.362151932786219E-5 -7.355276611633599E-4 0.0040863812901079655 0.0018812248017638922 0.0011592399096116424 0.0010167082073166966 0.0016493473667651415 -7.333994726650417E-4 -0.0028189232107251883 9.990176185965538E-4 0.004467546474188566 0.0012253847671672702 0.0036569058429449797 0.0021407322492450476 -0.001220962032675743 -0.003160631051287055 0.0016923581715673208 0.0055949147790670395
http://dbpedia.org/class/yago/Wikicat5th-centuryBCPhilosophers -0.002372974529862404 -0.0013605852145701647 -0.009439811110496521 5.370530998334289E-4 -0.0015475101536139846 0.0022538253106176853 -0.002877863124012947 7.911513675935566E-4 0.0026936738286167383 -0.00437198905274272 -0.0010206502629444003 -0.001491881674155593 -0.002065600361675024 -0.00508397351950407 -0.0019714769441634417 -0.0030580656602978706 3.449794166954234E-5 0.005099697504192591 2.4572157417424023E-4 0.0051124123856425285 -0.007117236498743296 0.006953681819140911 -0.003746420843526721 -0.002010788768529892 0.0037535130977630615 -0.002907982561737299 -0.001995542086660862 -0.007692292798310518 0.0045602149330079556 -0.0016364252660423517 -2.607009082566947E-4 -8.694675634615123E-4 0.005437659099698067 -0.0032726405188441277 -0.00575433112680912 -0.006811954081058502 0.001364593394100666 -0.003678038017824292 -0.0064486488699913025 -0.006848703138530254 -0.0050157057121396065 -0.0024367577861994505 0.005818958394229412 0.0026878563221544027 0.0050147464498877525 -0.00790965836495161 0.0023355726152658463 -9.037735289894044E-4 0.0015995895955711603 -0.0011148008052259684 6.35807344224304E-4 -0.0020455545745790005 0.0016541106160730124 -0.0018321045208722353 -0.00779102323576808 -0.0033171765971928835 -3.1825597397983074E-4 0.0012041397858411074 0.005396046210080385 0.0015731804305687547 -0.0019833713304251432 -0.005789142567664385 -3.3486224128864706E-4 -0.00325005897320807 -0.0069456505589187145 0.0102378586307168 0.00321906222961843 0.004185172729194164 -0.006846062373369932 -0.007178592495620251 -0.001683183596469462 -0.00617279252037406 0.005913295317441225 0.0032079126685857773 -8.593657403253019E-4 -0.0023046359419822693 1.7493000996182673E-5 0.002429552609100938 3.2934368937276304E-4 4.314710386097431E-4 2.1880841813981533E-4 0.009707650169730186 -0.0016583522083237767 0.0033978407736867666 -0.0034490555990487337 -0.0014777143951505423 4.554205806925893E-4 -0.0027417077217251062 -0.005645690485835075 0.005869841668754816 -0.004542141687124968 -0.0063011534512043 -0.00445680832490325 0.007168788928538561 0.005772637668997049 -0.002885484369471669 8.268121746368706E-4 0.006322087254375219 0.003476405516266823 0.001620939001441002
http://dbpedia.org/resource/Satyrus_the_Peripatetic 0.0028683124110102654 -0.0070097739808261395 0.00166734226513654 -0.0015625671949237585 0.002829942386597395 5.766352405771613E-4 -0.004378683399409056 8.20401415694505E-4 0.0034753631334751844 6.925657507963479E-4 9.097163565456867E-4 -0.002014659810811281 0.0022029238753020763 -0.004160868003964424 -0.00450739823281765 0.0016643933486193419 0.004450509324669838 0.0014342720387503505 -0.005897499155253172 0.005911416374146938 -0.0054502058774232864 0.005180287640541792 -0.0053192791528999805 0.002389090834185481 0.0045409840531647205 0.0036699860356748104 -0.005800104234367609 -0.0039953188970685005 0.00216826144605875 0.002820007037371397 0.0036801679525524378 -0.003005059203132987 4.778744769282639E-4 -6.868748459964991E-4 9.974156273528934E-4 -0.0010054755257442594 -0.005079147405922413 -0.004598249681293964 0.0023004007525742054 -0.006813363637775183 -0.004236467182636261 0.0023334859870374203 0.005788845010101795 0.0022105632815510035 -0.001566417282447219 -0.004682580940425396 0.0023634296376258135 0.0024870368652045727 -0.0018798242090269923 -0.0016865101642906666 -0.006777792703360319 -0.0035892401356250048 -0.003376748412847519 -0.003041992662474513 -0.003289091633632779 0.005361068062484264 3.357391688041389E-4 0.004899612627923489 0.0013706767931580544 -4.853163845837116E-4 6.315689533948898E-4 1.338234869763255E-4 0.006342084612697363 0.004281605128198862 5.055803339928389E-4 0.004516019020229578 0.008345479145646095 0.001679563196375966 0.004067296627908945 -0.002863501664251089 -8.414342300966382E-4 -0.0049181352369487286 -0.0023695421405136585 0.0027888603508472443 -0.0017903209663927555 6.004350143484771E-4 0.002367893233895302 0.004346755333244801 -0.0011496740626171231 0.0022992477752268314 -0.0034173401072621346 -0.0019605630077421665 -0.005757417995482683 -0.0019486343953758478 0.002198404399678111 0.0027521869633346796 -0.003649418940767646 0.00150902452878654 -0.005721583962440491 -0.0031609428115189075 -2.913120551966131E-4 0.0015127682127058506 -0.0045448183082044125 0.0059603238478302956 0.0012470899382606149 0.005231213755905628 0.006444362457841635 0.003568200394511223 -1.8887067562900484E-4 0.003770529991015792
http://dbpedia.org/resource/Hermagoras_of_Amphipolis -0.005608648993074894 -0.005502227693796158 -0.010804364457726479 -0.006979202851653099 0.0016987130511552095 4.4904282549396157E-4 -0.0012172647984698415 0.0010365661000832915 0.007246725261211395 0.003458349034190178 0.010943214409053326 0.010823402553796768 0.0012759981909766793 -0.004694621078670025 -0.0028587982524186373 0.0028070444241166115 9.432877413928509E-4 0.013903733342885971 -0.005754147656261921 0.003965570125728846 -0.0032306858338415623 0.011111123487353325 -0.005023160949349403 2.569698845036328E-4 0.005533772055059671 -0.005789453163743019 -0.008397235535085201 0.0017844955436885357 -0.005111648701131344 -0.007623597048223019 0.010131089948117733 -0.0025039021857082844 0.00805074255913496 -0.013296909630298615 -0.0027934478130191565 -0.007244872860610485 -0.012282098643481731 -0.01029549352824688 -0.007661944720894098 -0.014928039163351059 -0.010386577807366848 -7.351333042606711E-4 0.012635136023163795 -0.011025477200746536 0.007898712530732155 -0.006306550465524197 -0.00335083925165236 1.7419783398509026E-4 0.0010713943047448993 0.003775043645873666 -0.00725927809253335 -0.007839986123144627 0.003045886754989624 -0.002914479235187173 -0.00738786393776536 -7.875775918364525E-4 0.010189831256866455 0.01710641197860241 0.008673122152686119 0.01321285031735897 0.013088797219097614 -0.007384043186903 0.01510359812527895 0.006374090909957886 -0.0143346656113863 0.012606760486960411 0.014358719810843468 0.013576501980423927 -0.0016980605432763696 -5.080853588879108E-4 0.007324068807065487 -0.012349318712949753 0.010614600032567978 2.900674007833004E-5 -0.008860035799443722 -0.015492500737309456 0.0012325083371251822 0.009997629560530186 4.1376391891390085E-4 0.005577943753451109 -0.009823755361139774 0.008548357523977757 -0.009709026664495468 -0.009223618544638157 0.00729327742010355 0.007272440008819103 0.005864778067916632 0.0015442336443811655 -0.003071773797273636 0.007297232747077942 0.01066536270081997 -0.0041512176394462585 -0.008665760047733784 0.011698196642100811 0.0016121561639010906 7.097969646565616E-4 0.006400948390364647 0.001979775493964553 3.8831878919154406E-4 -0.0013377151917666197
http://dbpedia.org/class/yago/Organism100004475 0.004017318598926067 -0.0050727794878184795 -0.01032041385769844 -0.0037055285647511482 3.8585663423873484E-4 -0.0023887164425104856 -3.410878125578165E-4 -0.005408523604273796 0.0018976255087181926 -0.00661470415070653 0.0029292639810591936 -0.004600382875651121 0.0016949918353930116 -0.0037757097743451595 -0.0012653268640860915 -0.002750924788415432 0.004242953844368458 0.00719987228512764 -4.1198605322279036E-4 0.0014710972318425775 -0.007577465381473303 6.176905008032918E-4 8.743276703171432E-4 -0.009288882836699486 0.0043993499130010605 -0.006451936438679695 -0.006527366582304239 -0.007376034744083881 0.0050746360793709755 -0.0014258621959015727 6.166581297293305E-4 0.001293130568228662 0.004207610618323088 5.779282946605235E-5 0.0015952115645632148 -0.0035505143459886312 -0.0034024801570922136 -0.005159893073141575 0.0023721843026578426 0.003489420749247074 0.0036256820894777775 -0.004082330036908388 0.008016997016966343 0.005555661860853434 0.00798088125884533 -0.006699690595269203 -5.85121801123023E-4 -0.008712981827557087 -0.003744581015780568 0.004464573226869106 5.420632660388947E-4 -0.0013386838836595416 0.00571967801079154 6.33029849268496E-4 -0.007881800644099712 2.1653017029166222E-4 0.001743700006045401 0.002303903456777334 0.001290809246711433 7.587006548419595E-4 -5.274139766697772E-5 -0.0013951003784313798 0.0024923987220972776 -0.002495915861800313 1.5078100841492414E-4 0.010875319130718708 -0.0053858160972595215 6.885802722536027E-4 -0.0011634139809757471 -0.002985939849168062 -0.007053243461996317 0.0014809159329161048 0.003021863056346774 0.0024963614996522665 -1.7876383935799822E-5 0.002522035501897335 -0.004891127347946167 -0.0019083934603258967 -0.002787476172670722 0.0016534688184037805 8.858967339619994E-4 0.0011342772049829364 -0.002841720124706626 -0.003917960450053215 -8.395750191994011E-4 0.005823411978781223 8.735149167478085E-4 0.002044633962213993 -0.004303195513784885 0.004611618351191282 0.0018087789649143815 -0.0019837445579469204 -2.125257160514593E-4 0.006556181702762842 -7.911624852567911E-4 0.004748769570142031 -0.0035912368912249804 0.008097445592284203 4.29608509875834E-4 0.00922210980206728
http://dbpedia.org/class/yago/WikicatAncientGreekPhilosophers -0.0026755838189274073 0.006367940921336412 0.004431617446243763 -0.0026914665941148996 0.0022737900726497173 -0.0022910747211426497 0.004362005274742842 -0.005413251928985119 -0.0013815585989505053 0.0021986113861203194 -0.0068969218991696835 -0.0026337651070207357 1.2765330029651523E-4 0.008727380074560642 -0.0010852605337277055 0.0015230656135827303 -0.007554694544523954 -0.006288825534284115 0.0022707395255565643 -0.007599235977977514 0.008169325068593025 -0.003855701768770814 -0.001847386360168457 0.0025004777126014233 -0.003856492694467306 0.007147024851292372 0.009202045388519764 -4.1454785969108343E-4 0.006579340901225805 0.0044150203466415405 -0.0017369078705087304 0.0040011634118855 -0.005267951171845198 0.001921312534250319 -0.002003197558224201 0.004821853246539831 0.005078919231891632 0.004465670324862003 0.008230268023908138 0.007056757342070341 0.0061493124812841415 -7.686014869250357E-4 -0.005226940847933292 0.0020138367544859648 -0.002556459978222847 0.006212194450199604 0.003088969737291336 0.004993716720491648 0.0027410341426730156 6.493784603662789E-4 0.00455546984449029 0.0027480211574584246 -0.002681805519387126 0.004642959218472242 0.0031343211885541677 0.0036198152229189873 2.806085685733706E-4 -0.005122035276144743 -0.007731904741376638 -0.011003334075212479 -0.008334054611623287 0.007500792853534222 -0.003239512210711837 0.002555528189986944 0.0018245931714773178 -0.008005387149751186 -0.006661157589405775 -1.8532884132582694E-4 0.0012276660418137908 0.0035304133780300617 0.003938289824873209 0.00930632185190916 -0.002182870637625456 9.931875683832914E-5 0.006134281866252422 0.004105554893612862 -0.005447673611342907 -0.007794470526278019 0.004077098332345486 0.0020569125190377235 0.001299183233641088 -0.0055248732678592205 0.006441987585276365 9.942073374986649E-4 8.222638280130923E-4 -0.004008919466286898 -0.004810466896742582 -0.004423090722411871 -0.0029148897156119347 -0.004704867955297232 -0.0063095418736338615 0.008243346586823463 0.006307081785053015 -0.004011726472526789 -0.002249776618555188 -0.0033257000613957644 -0.004174231085926294 7.387421210296452E-4 3.494002448860556E-4 -0.002073588315397501
