1344 100 40000
http://dbpedia.org/resource/Category:260s_BC_deaths -0.04692975431680679 0.021590588614344597 -0.04252585396170616 -0.020759938284754753 -0.033555980771780014 -0.07347535341978073 -0.03201017156243324 -0.03470504656434059 -0.0011069168103858829 -0.010167966596782207 -0.05103663355112076 -0.017052898183465004 -0.04896416887640953 -0.03643566370010376 -0.1139480248093605 0.09111299365758896 0.06694252789020538 0.03406408801674843 0.057466764003038406 0.014757866971194744 0.09740280359983444 -0.020632291212677956 -0.01075222808867693 -0.0011160318972542882 -0.035749904811382294 0.07123953104019165 0.009917988441884518 -0.030648119747638702 -0.013607019558548927 -0.0424916110932827 0.01595171168446541 0.0035497399512678385 -0.009666350670158863 0.05771880969405174 0.026288706809282303 0.06757642328739166 0.04999931529164314 0.02905944548547268 0.06710537523031235 0.016997670754790306 -0.023583678528666496 -0.025187022984027863 -0.07378508895635605 -0.06743655353784561 -0.02110234461724758 0.046015072613954544 0.0020056962966918945 0.01075590867549181 -3.8286097696982324E-4 -0.011138014495372772 0.041261594742536545 -0.012047491036355495 0.019159836694598198 -0.009985437616705894 0.020931992679834366 -0.00424977345392108 -0.0036649375688284636 -7.151950849220157E-4 0.002749719889834523 -0.012165621854364872 -0.034952037036418915 0.05750100687146187 0.03339528664946556 0.05511106550693512 -0.0452251061797142 0.013918212614953518 -0.004569418728351593 0.025035254657268524 0.0547819547355175 0.06704644858837128 0.005313478875905275 0.03633354231715202 -0.03835918754339218 0.008111273869872093 -0.003980862908065319 -0.056865300983190536 -0.012656514532864094 0.08470836281776428 0.021001525223255157 0.03710860013961792 -0.039997003972530365 -0.018378527835011482 -0.03744043782353401 -0.03245139867067337 0.03670452535152435 -0.02735154889523983 -0.027983617037534714 -0.06616266071796417 -0.04124470055103302 -0.030046185478568077 0.046912629157304764 -0.06670744717121124 0.05544023960828781 0.01765276864171028 0.04488980770111084 -9.027124615386128E-4 0.02191084437072277 -0.010137979872524738 0.049632728099823 -0.03506698086857796
http://dbpedia.org/resource/Quintilian -0.051886186003685 0.022738929837942123 -0.051249876618385315 -0.009223240427672863 0.010994616895914078 -0.002222649985924363 0.010458357632160187 -0.04507787525653839 -0.030431684106588364 -0.0171351358294487 -0.018039537593722343 -0.002275968436151743 -0.02079334296286106 -0.036920152604579926 -0.049982231110334396 0.016064146533608437 0.003243481507524848 0.005906074307858944 -6.185902748256922E-5 0.013797199353575706 0.013335298746824265 -0.006697679404169321 0.0051556057296693325 -0.014232100918889046 -0.0025807502679526806 0.004702194128185511 -3.755480283871293E-4 -0.019369617104530334 -0.031581372022628784 0.006008189171552658 -0.006273083388805389 0.009921545162796974 -0.026331603527069092 0.01532181166112423 0.02330620214343071 0.023043610155582428 0.03372467681765556 -0.0028187658172100782 0.005044079851359129 0.01381750963628292 -0.013271071016788483 -0.01859697327017784 -0.04309243708848953 -0.02544451132416725 0.00849064625799656 0.008338101208209991 -0.004675522446632385 0.015088596381247044 -0.007693379186093807 0.011827036738395691 0.02139412797987461 3.6650936817750335E-4 0.002368389628827572 -0.008153237402439117 -0.004992240108549595 -0.007378423120826483 4.906158428639174E-4 -0.004144556354731321 -4.089324502274394E-4 -0.0039005570579320192 -0.01003069244325161 0.01969703659415245 0.006210377439856529 0.01149708405137062 -0.001684051239863038 0.017168445512652397 -0.007271489594131708 0.00852134171873331 0.0077086156234145164 0.004920949228107929 -0.00858306884765625 0.01165497675538063 -0.010910057462751865 0.005313720554113388 -0.010613004676997662 -4.40617382992059E-4 -0.004339886363595724 0.01300375908613205 0.01016319915652275 0.0072844382375478745 -0.01234181597828865 0.012474743649363518 -0.014425977133214474 -0.0020604808814823627 0.013412712141871452 0.0010755793191492558 -8.218229049816728E-4 0.003996815532445908 9.684432880021632E-4 -8.066244190558791E-4 9.98968374915421E-4 -0.005857973359525204 -0.00805038120597601 -0.0017557210521772504 0.018529953435063362 -0.01751805655658245 -0.015483844093978405 0.016447681933641434 -0.005418222863227129 0.003023899160325527
http://dbpedia.org/resource/Thomas_Taylor_(neoplatonist) -0.08907168358564377 0.029961582273244858 -0.07289710640907288 -0.04413258284330368 0.054336681962013245 0.04225027188658714 0.0765637755393982 -0.08498447388410568 -0.06596167385578156 -0.031358253210783005 -0.024635137990117073 0.03185725957155228 -0.009331763722002506 -0.06266888231039047 -0.06354423612356186 -0.011537625454366207 -0.00287279998883605 0.008149717003107071 -0.04589121416211128 0.03415466472506523 0.002807211596518755 -0.02064071036875248 -0.002932308241724968 -0.018338248133659363 0.026454607024788857 -0.007268215995281935 3.5193155054003E-4 -0.016810644418001175 -0.06643415987491608 0.045758090913295746 -0.006485548336058855 0.02745634689927101 -0.055859796702861786 -0.036226075142621994 0.05575357750058174 0.016624463722109795 0.05713088810443878 0.0031496058218181133 -0.06341079622507095 -0.02135196328163147 0.004627632908523083 -0.02012680470943451 -0.07400095462799072 -0.002738550305366516 0.03737795352935791 0.004653488751500845 -0.029500450938940048 0.057912107557058334 -0.013345671817660332 0.0736464262008667 0.06167549639940262 -0.02877763658761978 -0.007582115475088358 -0.03308597579598427 -0.02343672327697277 0.005109203979372978 -0.002846725285053253 0.007058312185108662 -0.002467438578605652 -0.003001369768753648 0.00787186250090599 0.028794165700674057 4.4654618250206113E-4 0.011463331058621407 0.004394784104079008 -0.03264923766255379 0.012811850756406784 0.023103130981326103 0.009162599220871925 -0.015286504290997982 -0.02499276027083397 -0.008331463672220707 0.004872565157711506 -8.238045847974718E-4 0.008248025551438332 -0.024766769260168076 -0.014547166414558887 0.02065136842429638 -0.026160789653658867 0.0026563070714473724 0.015376616269350052 0.021720487624406815 -0.021643534302711487 0.03260558098554611 0.02580668218433857 0.016482923179864883 9.886054322123528E-4 0.05629565194249153 -0.004672609735280275 0.012760202400386333 0.004418496508151293 0.024038348346948624 0.0070513952523469925 3.027761704288423E-4 0.01690889522433281 0.011563330888748169 0.020099034532904625 0.027802864089608192 -0.01312265731394291 -0.019891375675797462
http://dbpedia.org/resource/Category:270s_BC_deaths -0.024896886199712753 0.010630807839334011 -0.036391481757164 -9.314315393567085E-4 -0.006899197585880756 -0.012446677312254906 -0.004610717296600342 -0.017773723229765892 -0.01810642145574093 0.007977691479027271 -0.02760179713368416 0.0107856011018157 -0.005478257313370705 -0.01770532689988613 -0.07075463235378265 0.038493167608976364 0.00753882946446538 -0.001998752588406205 -0.001065733376890421 0.005837355274707079 0.0427217110991478 -0.008593599312007427 -0.0037443386390805244 0.003950111567974091 -0.015304532833397388 0.015501385554671288 0.0037946251686662436 -0.005067140329629183 -0.013606054708361626 0.004392679315060377 0.0014067954616621137 0.009522033855319023 -0.006111145485192537 4.158727824687958E-4 0.005191241391003132 0.015470672398805618 0.007044794969260693 0.015445479191839695 0.012765945866703987 0.005379347130656242 -5.36726729478687E-4 -0.0015977236907929182 -0.03813639655709267 -0.00956935528665781 -0.019821707159280777 0.020356878638267517 0.0011532034259289503 0.014123689383268356 0.0023244796320796013 0.005430662538856268 0.01955936662852764 -0.005829207133501768 0.004543425980955362 -0.008041717112064362 0.0032289549708366394 0.0012450679205358028 0.0069726561196148396 0.015066377818584442 0.004836868494749069 -0.013282847590744495 -6.883586756885052E-4 0.040699321776628494 0.009195729158818722 0.037452422082424164 -0.0064976573921740055 -0.024115150794386864 -0.00483701191842556 0.02253444865345955 0.03453291580080986 0.02779662236571312 -0.011693071573972702 0.010419628582894802 -0.02323811687529087 0.007596487179398537 0.011914397589862347 -0.03783392906188965 -0.01095079816877842 0.027110151946544647 0.0011909175664186478 0.009513761848211288 0.0028740782290697098 -0.011086772195994854 -0.01150992140173912 -5.925035802647471E-4 0.016915636137127876 -0.01820138841867447 -0.007885271683335304 -0.0045291525311768055 -0.007248266600072384 -0.013116604648530483 0.020609326660633087 -0.00640074210241437 0.035511262714862823 0.006055202800780535 0.016617804765701294 0.002484673634171486 0.013320965692400932 -0.0013342013116925955 0.016350746154785156 -0.016478264704346657
http://dbpedia.org/ontology/mainInterest 0.1214480996131897 0.04006725922226906 -0.18029744923114777 0.2390834391117096 -0.05531206727027893 -0.015976443886756897 -0.18541188538074493 0.0833948478102684 0.012249347753822803 0.11556708067655563 -0.016186051070690155 0.0717054158449173 0.23151934146881104 0.02967240661382675 -0.03895213082432747 -0.18669486045837402 -0.12730899453163147 -0.04048950597643852 -0.5158159136772156 0.04651433601975441 -0.14888571202754974 -0.010797622613608837 -0.02219710685312748 -0.05073405057191849 0.20838068425655365 -0.17646613717079163 -0.021022507920861244 -0.014570768922567368 0.05755142122507095 0.15229128301143646 -0.025597097352147102 0.04711836203932762 0.016204748302698135 0.14247530698776245 -0.2225295454263687 -0.05784930661320686 -0.08354583382606506 -0.1294439435005188 0.04684774577617645 0.1406158208847046 0.006518260575830936 0.07029663771390915 0.24487237632274628 0.025343354791402817 -0.05248699709773064 -0.1474432796239853 0.14511190354824066 -0.34156879782676697 -0.05305131897330284 -0.3217478096485138 -0.26702412962913513 0.2434399276971817 0.1109929084777832 -0.019057746976614 0.034635018557310104 0.02757321298122406 0.028741123154759407 0.038426533341407776 0.08423790335655212 -0.15087150037288666 -0.16388802230358124 0.16548624634742737 0.07214949280023575 0.17134487628936768 -0.030121497809886932 0.19103217124938965 -0.21474029123783112 0.054762810468673706 0.08673460781574249 0.12458944320678711 -0.17928358912467957 0.13524143397808075 -0.29234346747398376 -0.01040530577301979 0.03653515875339508 -0.10965824127197266 -0.039807189255952835 0.011238845065236092 0.11852108687162399 0.021744003519415855 -0.07687938958406448 -0.010307581163942814 -0.05036173388361931 -0.10899203270673752 0.054351259022951126 -0.06864692270755768 0.08506106585264206 -0.020538832992315292 0.0015067813219502568 -0.038607776165008545 -2.725915692280978E-4 -0.15924738347530365 0.13333135843276978 0.18865647912025452 0.1313243955373764 0.0974530577659607 -0.23182548582553864 0.07724791020154953 0.1370958387851715 0.1980152279138565
http://dbpedia.org/resource/Category:3rd-century_Greek_people -0.027894427999854088 0.007702104281634092 -0.020611576735973358 -0.017499830573797226 0.02007913403213024 0.028001222759485245 0.025565020740032196 -0.030591053888201714 -0.0237448550760746 -0.012777538038790226 -0.006035615690052509 0.012562607415020466 5.829390720464289E-4 -0.02359274961054325 -0.00466149253770709 -0.02293461002409458 -0.002216348657384515 0.004354985896497965 -0.023748822510242462 0.005902064964175224 -0.02175755240023136 -0.0035820244811475277 0.0017684444319456816 -0.00912836566567421 0.014843236654996872 -0.018207738175988197 7.736510597169399E-4 -0.004656091798096895 -0.020765243098139763 0.02845790423452854 -0.007481227163225412 0.016709251329302788 -0.01859726756811142 -0.022859672084450722 0.009747798554599285 -0.009338624775409698 0.011598356068134308 -0.010371578857302666 -0.04968399927020073 -0.009550306014716625 0.016188930720090866 -0.005217115394771099 -0.009089522995054722 0.02534855715930462 0.018056290224194527 -0.007026174105703831 -0.010279731824994087 0.023116309195756912 -0.004732300993055105 0.029542166739702225 0.021809551864862442 -0.010175982490181923 -0.0019483770010992885 -0.01952352561056614 -0.01560205314308405 0.00795734953135252 -0.0017372432630509138 0.013964585959911346 0.005362785886973143 -0.005752398166805506 0.01605195738375187 0.0018919468857347965 -0.006181812379509211 6.90773013047874E-5 0.007750112563371658 -0.029016368091106415 0.0024927693884819746 0.010754995979368687 -0.005715645849704742 -0.015694966539740562 -0.015797335654497147 -0.009867623448371887 0.0036253435537219048 -0.013933449052274227 0.00955834798514843 -0.011847280897200108 -0.02489888295531273 -0.0027535560075193644 -0.012754280120134354 -0.01363501138985157 0.02168148010969162 0.0225641131401062 -0.0063761156052351 0.02490047551691532 0.012218166142702103 0.012997935526072979 0.009505989961326122 0.0459156259894371 -5.945870652794838E-4 0.0033199884928762913 -0.005324650090187788 0.015215087682008743 -0.00445148441940546 0.007558166049420834 -0.004318411462008953 0.013993040658533573 0.00850590504705906 0.01752844639122486 -0.010558861307799816 -0.005251333117485046
http://dbpedia.org/resource/Syllogism -0.04088495299220085 0.028777778148651123 -0.0452490895986557 -0.0368083193898201 0.005963279400020838 -0.013466841541230679 -0.0018873498775064945 -0.0402575246989727 -0.015236449427902699 -0.020732533186674118 -0.015284905210137367 0.0035844589583575726 -0.011595584452152252 -0.043078482151031494 -0.03812221810221672 -6.650496507063508E-4 0.019540738314390182 0.023772038519382477 -0.02598682790994644 0.022106051445007324 0.007065955083817244 -0.015475860796868801 -0.0029191146604716778 -0.02776273898780346 -3.2291864044964314E-4 0.015420964919030666 0.0049081784673035145 -0.019171711057424545 -0.008786508813500404 0.010500152595341206 0.008573831059038639 -0.0065588075667619705 -0.02287021465599537 0.029949896037578583 0.013086408376693726 0.014889088459312916 0.02889171428978443 -1.7487136938143522E-4 -0.004942586645483971 -0.00173943059053272 -0.005806673783808947 -0.02555770054459572 -0.016464395448565483 -0.006603704299777746 0.035860929638147354 -0.01500989031046629 -0.008415374904870987 -0.0012659088242799044 -0.012718189507722855 0.018385276198387146 0.019798237830400467 -0.004938153084367514 0.009619802236557007 -0.025911543518304825 -0.003559720702469349 0.004459294490516186 0.003014048095792532 0.001023442717269063 0.002097036689519882 -9.582510101608932E-4 -0.017295243218541145 0.01043364405632019 0.018884647637605667 0.014313234016299248 -0.015199193730950356 0.007120330352336168 -0.006311863660812378 -3.623256925493479E-4 -0.0016969275893643498 0.0021780505776405334 -0.01496805064380169 -8.29051248729229E-4 -0.0094986567273736 -0.002040433930233121 -0.00198366679251194 -0.028194811195135117 -0.01291725691407919 0.033234596252441406 -0.013933184556663036 0.0078040179796516895 -0.008576867170631886 0.013212192803621292 -0.01995496079325676 -0.003817993449047208 0.02014838717877865 -7.855083094909787E-5 -8.753857109695673E-4 0.001472511445172131 -0.017807723954319954 0.002743298653513193 0.015155905857682228 -0.014464197680354118 0.022510947659611702 0.020099332556128502 0.014108634553849697 0.015194980427622795 0.028782878071069717 0.010775008238852024 0.01390709076076746 -0.018058927729725838
http://dbpedia.org/resource/Category:200s_BC_deaths -0.01850694976747036 0.02548724226653576 -0.03595881909132004 -0.008905402384698391 -0.027571048587560654 -0.05058225244283676 -0.03946946933865547 -0.029088929295539856 -0.007873663678765297 1.4163923333398998E-4 -0.032116182148456573 0.002566903829574585 -0.029190199449658394 -0.0242240559309721 -0.07147690653800964 0.04504118114709854 0.03591426834464073 0.020952600985765457 0.014106588438153267 0.01573150046169758 0.054597172886133194 -0.010793627239763737 -0.002476481022313237 -0.02021772600710392 -0.03236304223537445 0.036061204969882965 0.006049018353223801 -0.024848883971571922 0.002135962015017867 -0.01666341722011566 0.012351177632808685 -0.014151704497635365 -0.0020456621423363686 0.05212542042136192 8.115249220281839E-4 0.03037955053150654 0.016320930793881416 0.011966078542172909 0.02782542258501053 0.009807033464312553 -0.012956103309988976 -0.013760308735072613 -0.02071812003850937 -0.0266162920743227 0.007432326674461365 0.002363132545724511 0.003355393186211586 -0.02137589268386364 7.175242062658072E-4 -0.010122047737240791 0.014467449858784676 0.0014370139688253403 0.018296074122190475 -0.01054708193987608 0.008511247113347054 -0.004566466435790062 -0.0037735539954155684 4.947491106577218E-4 1.9446297665126622E-4 0.004732385743409395 -0.028164146468043327 0.0370822474360466 0.03677501529455185 0.03088165819644928 -0.02828965336084366 0.021396685391664505 -0.004024073481559753 0.00718291848897934 0.01940949074923992 0.041144561022520065 -0.005235395394265652 0.021290268748998642 -0.021658822894096375 0.008353271521627903 0.0050931330770254135 -0.04686678200960159 -0.0033590910024940968 0.05128690227866173 0.006759061478078365 0.022897031158208847 -0.03127194195985794 -0.015354051254689693 -0.027382252737879753 -0.021517211571335793 0.015981709584593773 -0.02663440816104412 -0.012604932300746441 -0.04260857030749321 -0.019726615399122238 -5.291543493513018E-5 0.02913348190486431 -0.046001583337783813 0.04501080885529518 0.01453280821442604 0.02442113123834133 0.012413855642080307 0.029537204653024673 0.006885680835694075 0.028425142168998718 -0.02112514339387417
http://dbpedia.org/resource/Logos -0.07489325851202011 0.040433626621961594 -0.08150411397218704 -0.04352741315960884 -0.008630353957414627 -0.042411550879478455 -0.011783766560256481 -0.07318786531686783 -0.031549740582704544 -0.05090172961354256 -0.033109307289123535 -9.515066049061716E-4 -0.03751109167933464 -0.08949437737464905 -0.0717775970697403 0.0059547582641243935 0.05418134108185768 0.04603424295783043 -0.014028837904334068 0.02460978552699089 0.034430522471666336 -0.02736726589500904 0.013143996708095074 -0.04584221541881561 -0.0030601208563894033 0.026943132281303406 0.006149054039269686 -0.04028092697262764 -0.023884238675236702 0.02357582189142704 0.00952591560781002 0.0021542522590607405 -0.04435993731021881 0.05863654240965843 0.03244151920080185 0.0502946637570858 0.06898516416549683 -0.0047768098302185535 0.00471808947622776 0.011682200245559216 -0.008361428044736385 -0.04147760570049286 -0.05053253844380379 -0.031038157641887665 0.054921120405197144 -0.002094818279147148 -0.005923930089920759 0.0031660841777920723 -0.025354240089654922 0.03049977868795395 0.0431557223200798 -0.010416567325592041 0.013260327279567719 -0.03454041853547096 0.002237560460343957 -0.002717294031754136 7.167289732024074E-4 0.002433610614389181 0.004569176118820906 -0.0069897715002298355 -0.02909781038761139 0.03278797119855881 0.029612001031637192 0.029519204050302505 -0.017819663509726524 0.02095227874815464 -0.01782217063009739 0.008934364654123783 0.002419333904981613 0.010817903093993664 -0.03560609742999077 0.007575920317322016 -0.024263281375169754 -0.013019256293773651 -0.0010262129362672567 -0.04331829026341438 -0.03710164502263069 0.05679694190621376 -0.007637295871973038 0.022278059273958206 -0.015353558585047722 0.017294155433773994 -0.03927982226014137 0.00532436091452837 0.03027736023068428 -0.004481689538806677 0.0035396867897361517 0.006824572570621967 -0.03360361605882645 -0.0061135487630963326 0.03475262597203255 -0.03220619261264801 0.031816549599170685 0.02867494896054268 0.02733328752219677 0.020082861185073853 0.030312946066260338 0.023899897933006287 0.029705701395869255 -0.030281230807304382
http://dbpedia.org/resource/Photios_I_of_Constantinople -0.11027492582798004 0.050963860005140305 -0.1192433312535286 -0.022980619221925735 0.037498947232961655 0.011788217350840569 0.03624053671956062 -0.09500369429588318 -0.07229763269424438 -0.025960756465792656 -0.039347052574157715 0.020968306809663773 -0.005694895517081022 -0.08193021267652512 -0.10562361776828766 -0.003167791059240699 -0.015105019323527813 0.008457868359982967 -0.0633087307214737 0.03240679204463959 -2.106468309648335E-4 -0.019742567092180252 -0.0022722030989825726 -0.022162344306707382 0.005831955000758171 -0.011858250014483929 -9.55841620452702E-4 -0.03181969001889229 -0.06433074176311493 0.0456671342253685 -0.004117877222597599 0.030384140089154243 -0.05517854541540146 0.015172002837061882 0.03183746337890625 0.03552106395363808 0.06899213790893555 -0.005506327375769615 -0.02812202088534832 0.019897406920790672 -0.002536040497943759 -0.019894426688551903 -0.08123123645782471 -0.015683064237236977 0.037806738168001175 -0.0011563306907191873 -0.008002243936061859 0.028225934132933617 -0.010993425734341145 0.041667237877845764 0.04767747223377228 -0.0015802648849785328 0.00806952454149723 -0.025734854862093925 -0.01197232585400343 0.001183263841085136 0.014033949002623558 -0.002592796692624688 0.004091313108801842 -0.0040028695948421955 -0.01192231010645628 0.041766323149204254 0.0070961592718958855 0.023717550560832024 0.009490422904491425 0.0025276425294578075 -0.02647394873201847 0.019806424155831337 0.023908156901597977 0.01024128869175911 -0.03087688237428665 0.011803679168224335 -0.012942584231495857 0.016333436593413353 -0.0011728329118341208 -0.01488002110272646 -0.012690607458353043 0.02244384028017521 -0.0036435259971767664 0.013316232711076736 -0.01064517255872488 0.017925187945365906 -0.020252790302038193 0.012398073449730873 0.023911839351058006 0.0032220929861068726 0.002410921733826399 0.04138291999697685 -0.00513413455337286 0.013243692927062511 0.005425815004855394 0.019312070682644844 -0.004325769376009703 0.0050815376453101635 0.030008655041456223 -0.014288176782429218 -0.024114999920129776 0.0295857023447752 -0.010773025453090668 -0.010854273103177547
http://ar.dbpedia.org/resource/???????? 0.0028657359071075916 0.03926863521337509 -0.08345916867256165 0.016860293224453926 0.01128328125923872 8.292838465422392E-4 -0.020387619733810425 -0.08448081463575363 -0.05077281594276428 -0.0515667162835598 -0.025507895275950432 0.017350103706121445 -0.016390511766076088 -0.07899440079927444 0.01647542603313923 -0.06736773252487183 0.026894913986325264 0.0475023090839386 -0.035497743636369705 0.01038568839430809 -0.05655048415064812 0.014906595461070538 0.02872133068740368 -0.0731036439538002 0.014653819613158703 -0.014362535439431667 -0.007422177121043205 -0.053377680480480194 -0.0013889772817492485 0.07147416472434998 -0.015911877155303955 -0.018892882391810417 -0.05292519927024841 0.012875944375991821 0.019081737846136093 -0.00652287807315588 0.037877850234508514 -0.045724257826805115 -0.09403888881206512 -0.0037209116853773594 -0.0013277094112709165 -0.0362105667591095 0.013558169826865196 0.004037180449813604 0.1042684018611908 -0.05740305408835411 -0.014997945167124271 -0.03181598335504532 -0.047090236097574234 0.035954415798187256 0.02521117404103279 0.016464270651340485 0.0020765960216522217 -0.046288516372442245 -0.023939164355397224 8.251519757322967E-4 -0.008554656989872456 -0.02473168447613716 0.010838746093213558 0.013309100642800331 -0.023956328630447388 -0.011002112179994583 0.024867113679647446 -0.018700623884797096 0.00886368565261364 0.04471758380532265 -0.03346620127558708 -0.018377292901277542 -0.055447306483983994 -0.040459342300891876 -0.05573936179280281 -0.009562008082866669 -0.006279920227825642 -0.0314873531460762 0.006069403141736984 -0.0014284343924373388 -0.039649248123168945 -0.01772424578666687 -0.011778021231293678 -0.0144372982904315 0.00918599870055914 0.062111400067806244 -0.03431454673409462 0.020193548873066902 -0.005298490170389414 0.01728804036974907 0.028736036270856857 0.04777688533067703 0.014949006028473377 0.04728958010673523 -0.030554648488759995 -0.026092898100614548 -0.033479444682598114 0.04548727348446846 0.013935724273324013 0.03293853998184204 0.0020665370393544436 0.06035570800304413 -0.021303920075297356 0.020712465047836304
http://ml.dbpedia.org/resource/???????? -0.0044123451225459576 0.020260436460375786 -0.02848161943256855 -0.0030036980751901865 0.0038291492965072393 0.012921341694891453 -0.016158923506736755 -0.01709410548210144 -0.02292715758085251 -0.010611653327941895 0.0071826414205133915 0.010932291857898235 0.020278308540582657 -0.027829397469758987 0.015132786706089973 -0.06093569099903107 -0.009064004756510258 0.008802860975265503 -0.05879846587777138 0.006757116876542568 -0.052702806890010834 -0.0012541983742266893 0.007791271433234215 -0.02891138568520546 0.033560823649168015 -0.03687559813261032 -0.004779420793056488 -0.008404030464589596 0.008766950108110905 0.05067162960767746 -0.004470887128263712 -0.004101286176592112 -0.009606215171515942 0.020989980548620224 -0.0374767892062664 -0.02640233002603054 -0.01918116584420204 -0.029231049120426178 -0.027861233800649643 0.010950936935842037 0.01623329147696495 0.00610287394374609 0.05057225376367569 0.029956068843603134 0.03771865367889404 -0.052859243005514145 0.011505740694701672 -0.034294333308935165 -0.019638611003756523 -0.009881219826638699 -0.023075779899954796 0.02576880156993866 0.011606663465499878 -0.021481895819306374 -0.017610641196370125 0.009731787256896496 0.011501921340823174 0.005358605645596981 0.017935631796717644 -0.015697574242949486 -0.018195727840065956 -0.004313542507588863 -1.4239711163099855E-4 0.006082918960601091 0.0193718820810318 0.008771254681050777 -0.03246982768177986 -0.0039242287166416645 -0.02915375865995884 -0.02331613376736641 -0.04838460683822632 -0.0021443020086735487 -0.02566799521446228 -0.019582359120249748 0.0075354608707129955 -0.0045137288980185986 -0.03568437322974205 -0.01283479854464531 5.714991712011397E-4 -0.008020641282200813 0.013212422840297222 0.024228841066360474 -0.0014081076951697469 0.011543492786586285 0.003276989096775651 0.013398495502769947 0.03491906449198723 0.03667612001299858 0.0072840359061956406 0.005258531775325537 -0.01339151244610548 -0.0073343366384506226 0.005673715379089117 0.0353056900203228 0.012713662348687649 0.02975125052034855 -0.009355823509395123 0.0368664376437664 0.00696073193103075 0.02317659929394722
http://dbpedia.org/resource/Friedrich_Nietzsche -0.0757823958992958 0.029261190444231033 -0.06071655824780464 -0.038544006645679474 0.03419212996959686 0.03610651195049286 0.03155452385544777 -0.0303140040487051 -0.03806804493069649 -0.0013994266046211123 0.0026269324589520693 0.031896356493234634 0.038942549377679825 -0.03735742345452309 -0.04559335112571716 -0.03842960670590401 -0.02443561516702175 -0.006902344524860382 -0.12252376973628998 0.02553514391183853 -0.02919260412454605 -0.025529252365231514 -0.010208661668002605 -0.009862559847533703 0.06463287025690079 -0.05213380232453346 -0.002608036855235696 0.004536655265837908 -0.032819293439388275 0.05773733928799629 -0.009141440503299236 0.03791874274611473 -0.012962461449205875 -0.010779542848467827 -0.017716437578201294 -0.01715552620589733 -9.275217307731509E-4 -0.006820560898631811 -0.02688991278409958 0.00473010865971446 0.035261668264865875 0.019456399604678154 0.008369806222617626 0.03869613632559776 0.014748935587704182 -0.02807614393532276 0.005779033061116934 -0.002748182276263833 -0.009962850250303745 0.0037963297218084335 -0.018070034682750702 0.013210189528763294 0.009626492857933044 -0.034342605620622635 -0.012935842387378216 0.01331424992531538 0.021468564867973328 0.02616387978196144 0.009278434328734875 -0.030233805999159813 -0.011297007091343403 0.040249042212963104 -0.004218051675707102 0.03476141393184662 0.012237472459673882 -0.031489528715610504 -0.02738582342863083 0.03572823107242584 0.004812597297132015 -0.005283049773424864 -0.052826009690761566 -0.006093878764659166 -0.04273165762424469 -0.008300341665744781 0.012098526582121849 -0.029219387099146843 -0.04123472049832344 0.020128313452005386 -0.0035480682272464037 -0.01177908107638359 0.019776398316025734 0.02365611121058464 -0.007121953647583723 0.015401970595121384 0.0320381224155426 0.01386082824319601 0.02895512618124485 0.05856672674417496 -0.013456373475492 -0.008858783170580864 0.011950130574405193 5.715503357350826E-4 0.03831620141863823 0.035824570804834366 0.02229941077530384 0.03201289474964142 -0.014195205643773079 0.03227553144097328 0.025252848863601685 0.006015882361680269
http://dbpedia.org/resource/Euclid's_Elements -0.03440524637699127 0.0022509144619107246 0.002077452139928937 -0.01221355702728033 8.810041472315788E-4 0.004577345680445433 0.015748031437397003 -0.005325454752892256 0.004586051218211651 0.011461399495601654 -0.002605471294373274 -0.0029432864394038916 -0.011234059929847717 0.007036698050796986 -0.017892606556415558 0.023877901956439018 -0.001732598408125341 -0.009842881001532078 0.007024165242910385 0.007708372548222542 0.01573110930621624 -0.004795700777322054 -0.012507042847573757 0.0177229642868042 -0.0038818717002868652 0.0012629901757463813 -3.4946086816489697E-4 0.002943621249869466 -0.020832866430282593 -0.012531579472124577 -0.005224946420639753 -3.912338870577514E-4 0.010152854956686497 -0.019451087340712547 0.0033298467751592398 -0.004929638933390379 -0.00911412201821804 0.017097707837820053 0.004515139851719141 1.0571852180873975E-4 -0.002042940817773342 0.018635179847478867 -0.011676526628434658 0.0027790856547653675 -0.024339985102415085 0.013409968465566635 -0.0013477884931489825 0.012289945036172867 0.012035351246595383 -0.002036638790741563 -0.0011349398409947753 -0.007859613746404648 -0.011721186339855194 0.011045081540942192 9.907979983836412E-4 -0.007754251826554537 -1.3355677947402E-4 -1.5337072545662522E-4 -0.007649654988199472 0.004307047929614782 -0.001886721234768629 0.0033256113529205322 -6.666003027930856E-4 0.001743486151099205 0.0033499794080853462 4.193898057565093E-4 0.018474366515874863 0.004692728165537119 0.008576860651373863 -0.002906463108956814 0.017257118597626686 -0.00742221437394619 0.01867598295211792 0.012964103370904922 -0.004911213181912899 -0.0010734859388321638 0.01736459881067276 0.006170857232064009 -0.0014984698500484228 5.873049376532435E-4 -0.008411163464188576 -0.0061345938593149185 -1.9945291569456458E-4 -0.003847429994493723 4.2024708818644285E-5 4.672904615290463E-4 -0.01021744217723608 -0.0026992822531610727 0.009011752903461456 0.003200401086360216 -0.010427276603877544 0.002178808208554983 -0.01113392785191536 -0.009296917356550694 3.2142034615390003E-4 -0.0214683897793293 -0.007980553433299065 -0.006918018218129873 -0.012262987904250622 -0.0021369673777371645
http://dbpedia.org/resource/Commentaries_on_Aristotle -0.05250335857272148 0.011659457348287106 -0.03482036665081978 -0.032511185854673386 0.018443485721945763 0.00948677770793438 0.02965298481285572 -0.03818820044398308 -0.028164424002170563 -0.013421029783785343 -0.020466208457946777 0.006706380285322666 -0.003319022012874484 -0.037954263389110565 -0.05182395502924919 0.014239096082746983 0.017386874184012413 0.011865759268403053 -0.029269598424434662 0.025492966175079346 0.022250087931752205 -0.01903959922492504 -0.010364166460931301 -0.004673144780099392 0.014126136898994446 7.740210858173668E-4 0.0029005666729062796 -0.009501117281615734 -0.031769778579473495 0.014746418222784996 -1.8787948647513986E-4 0.01711372472345829 -0.02677479386329651 -0.0137228574603796 0.036699626594781876 0.02433924563229084 0.04649326950311661 0.008269047364592552 -0.01999635435640812 -0.011644886806607246 -1.1541409185156226E-4 -0.020547008141875267 -0.048533279448747635 -0.008308208547532558 0.013253913260996342 0.009545915760099888 -0.01716127246618271 0.029104487970471382 -0.003921749070286751 0.03523033484816551 0.03535172715783119 -0.021912535652518272 0.0037622556556016207 -0.019071288406848907 -0.00865206215530634 0.0017016710480675101 0.0022764108143746853 0.013304056599736214 -0.0030158974695950747 -0.007586348801851273 0.0015369232278317213 0.026710452511906624 0.00989122036844492 0.02674156241118908 -0.00802915170788765 -0.025083014741539955 0.0025178748182952404 0.0215592160820961 0.02849924936890602 0.008560334332287312 -0.01090255193412304 0.0028769581113010645 -0.012226061895489693 -0.0018249975983053446 1.7092007328756154E-4 -0.028820199891924858 -0.015675634145736694 0.02885257452726364 -0.007259210105985403 0.007015644107013941 0.004753347020596266 -9.35847288928926E-4 -0.019384043291211128 0.008630787953734398 0.020558442920446396 0.006239773705601692 -0.001978660933673382 0.012469135224819183 -0.013601335696876049 -0.005067374557256699 0.021525807678699493 -7.71594699472189E-4 0.026059314608573914 0.002181458752602339 0.01236928440630436 0.001329844817519188 0.01582466997206211 0.010368232615292072 0.015844399109482765 -0.024051666259765625
http://dbpedia.org/resource/Andronicus_of_Rhodes -0.09415967762470245 0.08596160262823105 -0.16990827023983002 -0.010981344617903233 0.05889129638671875 0.0070099132135510445 0.01693345047533512 -0.219109445810318 -0.09275653213262558 -0.058194439858198166 -0.027281561866402626 0.022797437384724617 -0.14001818001270294 -0.15286311507225037 -0.04426219314336777 -0.01941945217549801 0.017414569854736328 0.0688629075884819 0.13768337666988373 0.02145233191549778 -0.03569595143198967 0.10347434878349304 0.04802737012505531 -0.11215800046920776 -0.17449471354484558 0.04020905867218971 -0.011680541560053825 -0.10072099417448044 -0.05090590938925743 0.02480391226708889 -0.04748648405075073 -0.13395342230796814 -0.04231523722410202 0.019016917794942856 0.004422839730978012 -0.04174421355128288 0.021284151822328568 -0.05061328783631325 -0.1505257785320282 -0.021888166666030884 -0.05545509606599808 -0.0463067889213562 -0.03808236122131348 -0.03716679662466049 0.12273230403661728 -0.07286443561315536 -0.030407022684812546 -0.05862254649400711 -0.035615574568510056 0.07093599438667297 0.04700784012675285 0.015505509451031685 -0.042075298726558685 0.0016943021910265088 -0.03921191766858101 -0.0171457938849926 -0.03303561732172966 -0.10200823843479156 -0.004977364093065262 0.1558055877685547 -0.03954730182886124 -0.07138919085264206 0.08579888939857483 -0.08192085474729538 0.04503680393099785 0.14454594254493713 0.013388422317802906 -0.07111428678035736 -0.12941589951515198 -0.0893133282661438 -0.008353415876626968 -0.050489071756601334 0.13348470628261566 -0.006150940433144569 -0.03603961318731308 0.047764092683792114 0.05322187393903732 -0.03896838426589966 -0.021244358271360397 0.04039688780903816 -0.07168908417224884 0.10954394191503525 -0.0755847617983818 0.0017647631466388702 -0.06258825212717056 -0.020643379539251328 -0.03678208217024803 -0.00430445559322834 0.11926619708538055 0.1746452897787094 -0.12770679593086243 -0.03667012229561806 -0.2205328643321991 -0.011744104325771332 -1.8689734861254692E-4 -0.05750222131609917 -0.006642866879701614 0.1058066114783287 -0.18873266875743866 0.01031217910349369
http://dbpedia.org/resource/Philolaus -0.11428617686033249 0.011810784228146076 -0.04327458143234253 -0.08408995717763901 0.04253259301185608 0.021078510209918022 0.08597231656312943 -0.06523240357637405 -0.021134644746780396 -0.004780758172273636 -0.016934119164943695 0.010259739123284817 -0.04770592600107193 -0.024087224155664444 -0.05494463071227074 0.05350907891988754 0.037704434245824814 0.021329650655388832 0.08156675100326538 0.01894925720989704 0.055612895637750626 -0.006799370516091585 -0.008412502706050873 0.001727075083181262 -0.022224880754947662 0.04663999751210213 0.008943630382418633 -0.01676701195538044 -0.05518724024295807 -0.038217272609472275 -0.0020361721981316805 -0.012998267076909542 -0.03236986696720123 -0.05128695070743561 0.07857681065797806 0.02930944599211216 0.052605561912059784 0.029258420690894127 -0.01981852389872074 -0.02931918390095234 -0.04481428489089012 -0.0327393040060997 -0.09751450270414352 -0.06664866954088211 -0.008810927160084248 0.051191337406635284 -0.03126044571399689 0.06629030406475067 0.0017207880737259984 0.05462625250220299 0.06257349997758865 -0.041666850447654724 -0.020099112764000893 0.005436499137431383 0.008137250319123268 -0.017717884853482246 -0.018041761592030525 -0.010242626070976257 -0.0198165662586689 0.027330873534083366 4.957656492479146E-4 0.005883397534489632 0.02426217682659626 0.0018867416074499488 -0.03859369084239006 -0.005115695297718048 0.05502820387482643 0.020938877016305923 0.01715405099093914 0.0027809739112854004 0.04343624785542488 0.00620513129979372 0.044286299496889114 0.013141926378011703 -0.01728058233857155 -0.016864560544490814 0.02699032612144947 0.04834470897912979 0.0022477509919553995 0.028751034289598465 -0.03516777604818344 0.011091845110058784 -0.03981146961450577 -0.013086030259728432 0.00928007997572422 -0.013236586935818195 -0.04230371490120888 -0.03444980829954147 -0.01027086190879345 0.017938580363988876 0.011294560506939888 -0.03372789919376373 -0.022452307865023613 -0.021769121289253235 0.018060028553009033 -0.03469867259263992 0.017207542434334755 -0.0018961555324494839 -0.02060108073055744 -0.04927987977862358
http://dbpedia.org/resource/Protagoras_(dialogue) -0.051499009132385254 0.01881621591746807 -0.03560621663928032 -0.036058343946933746 0.021021803840994835 0.006935786921530962 0.021601298823952675 -0.046959858387708664 -0.03164059296250343 -0.022988054901361465 -0.010144202038645744 0.015084967948496342 -0.010839862748980522 -0.036766666918992996 -0.028117312118411064 -0.008506887592375278 0.010595379397273064 0.012225968763232231 -0.028084395453333855 0.023841314017772675 -0.0047994572669267654 -0.013371667824685574 -0.002119025681167841 -0.020512519404292107 0.021569237112998962 -0.0034968615509569645 -0.0032738633453845978 -0.012355892919003963 -0.03557692840695381 0.02908749133348465 -2.3353008145932108E-4 0.007795568555593491 -0.027333954349160194 -0.02238050475716591 0.02073967084288597 -0.0021762524265795946 0.01605709083378315 -0.00272019999101758 -0.04339572414755821 -0.01099562831223011 0.0070610432885587215 -0.008980778977274895 -0.025516286492347717 0.011646611616015434 0.028552426025271416 -0.010656491853296757 -0.01132877729833126 0.023564718663692474 -0.004174480680376291 0.03478282690048218 0.023593099787831306 -0.017806628718972206 -0.004072565119713545 -0.021285327151417732 -0.015274585224688053 0.004888803232461214 0.0016638918314129114 0.004322802647948265 5.724737420678139E-4 9.551637340337038E-4 -0.0020114684011787176 0.014955637976527214 0.006896401289850473 0.012289706617593765 -0.0027362119872123003 -0.019835159182548523 0.00607991311699152 0.008966291323304176 -0.0019620084203779697 -0.019153499975800514 -0.014323710463941097 -0.014868508093059063 -0.00189680396579206 -0.010834804736077785 0.005949593614786863 -0.02725442685186863 -0.014801830053329468 0.021806195378303528 -0.01670534536242485 -0.007336508482694626 0.007881511002779007 0.02015160210430622 -0.017536984756588936 0.011706727556884289 0.015674332156777382 0.007301880978047848 0.00590749504044652 0.034183718264102936 -0.00466703437268734 0.016955360770225525 0.0056359609588980675 1.4106091111898422E-4 0.006803611293435097 0.017232434824109077 0.013121075928211212 0.015174655243754387 0.017041750252246857 0.026297224685549736 -0.0011168422643095255 -0.014072245918214321
http://dbpedia.org/resource/Poseidon -0.05788744240999222 0.01658434048295021 -0.03155016154050827 -0.03440907597541809 -9.987393859773874E-4 -0.015278372913599014 0.005911876447498798 -0.03364360332489014 -0.00664242310449481 -0.007830251939594746 -0.008657412603497505 0.003885972546413541 -0.01901225745677948 -0.02517145872116089 -0.04419062286615372 0.021261557936668396 0.012072189711034298 0.00676482729613781 -0.002122878096997738 0.02269357442855835 0.02318163402378559 -0.006936655845493078 -0.0024443205911666155 -0.003828226588666439 -0.01261234749108553 0.010719619691371918 0.007940041832625866 -0.006886318325996399 -0.014367513358592987 -0.009909629821777344 2.5074664154089987E-4 -4.518644418567419E-4 -0.0011429977603256702 0.0184012558311224 0.004781071096658707 0.011883525177836418 0.010248257778584957 0.011818391270935535 0.014713152311742306 0.00538218766450882 -0.007471645250916481 7.481470820493996E-4 -0.020149998366832733 -0.019244404509663582 0.002494637155905366 -0.0023540700785815716 0.0012409801129251719 -0.004410282708704472 0.005663668736815453 0.0068701789714396 0.004322944208979607 -0.001382399583235383 0.004013292025774717 -5.997198168188334E-4 0.007514956407248974 -0.0068425280041992664 0.0032379881013184786 -0.00681652594357729 0.003273972310125828 0.00899556279182434 -0.02220006473362446 0.009348197840154171 0.017216110602021217 0.006551255472004414 -0.008523641154170036 0.01528260949999094 -5.075212102383375E-4 1.4136300887912512E-4 0.011042878963053226 0.00835745595395565 -0.0013679693220183253 -0.0012362960260361433 -7.788855582475662E-4 0.010004006326198578 -0.0013396735303103924 -0.017051277682185173 0.0023593974765390158 0.021561510860919952 0.004969047382473946 0.012531941756606102 -0.01861579902470112 0.0020486274734139442 -0.01638813316822052 -0.009856433607637882 0.014041258953511715 -0.005803514737635851 -0.010871597565710545 -0.012459221296012402 -0.0040754531510174274 0.0030569578520953655 0.0036511835642158985 -0.01815675012767315 0.005078311078250408 0.007023601792752743 0.016453009098768234 -0.006415083538740873 5.527234170585871E-4 0.011055728420615196 0.0011400214862078428 -0.009225226007401943
http://dbpedia.org/resource/Category:Roman-era_Athenian_philosophers -0.0620722733438015 -0.0025992372538894415 -0.02563675306737423 -0.055218152701854706 0.03760891407728195 0.028108641505241394 0.07544216513633728 -0.04043743386864662 -0.021160541102290154 0.00706720445305109 -0.048044923692941666 0.031186221167445183 -0.0011555202072486281 -0.017329858615994453 -0.09273772686719894 0.06594445556402206 0.029098695144057274 0.01546882838010788 -0.02462887391448021 0.04126164689660072 0.06734433770179749 -0.04798624664545059 -0.03515474125742912 0.009379886090755463 0.027775010094046593 0.021706419065594673 -0.001072343671694398 -0.005203793756663799 -0.06436965614557266 -0.009038031101226807 0.00881973933428526 0.025485249236226082 -0.03153965622186661 -0.07907627522945404 0.07765842229127884 0.011902115307748318 0.04689797759056091 0.025199556723237038 -0.03966895118355751 -0.03620001673698425 -0.017094973474740982 -0.021356957033276558 -0.07778023928403854 -0.026155849918723106 -0.009343456476926804 0.04774479568004608 -0.028713086619973183 0.0503690131008625 0.003702680580317974 0.0435773991048336 0.04904472455382347 -0.04151751473546028 -0.005475287325680256 -0.02260184846818447 0.004342553671449423 -0.011989668011665344 -0.01806028187274933 0.023100225254893303 -0.011405096389353275 -0.01758730039000511 0.006909653544425964 0.060094982385635376 0.03321424871683121 0.050448134541511536 -0.05308319628238678 -0.05707016587257385 0.03720439597964287 0.05395035445690155 0.07319901883602142 0.03981975466012955 0.01963675022125244 0.01453261449933052 -0.019110631197690964 0.005576582625508308 0.009582928381860256 -0.07423990964889526 -0.002024973975494504 0.06364084780216217 -0.017232125625014305 0.009172230027616024 -0.0035866396501660347 -0.018091393634676933 -0.03770280256867409 -4.1631574276834726E-5 0.038134489208459854 -0.009263449348509312 -0.021622082218527794 0.0012209783308207989 -0.02858121693134308 -0.008470621891319752 0.03742967173457146 -0.029922407120466232 0.055846452713012695 0.018789183348417282 0.024933258071541786 0.01716063916683197 0.053257063031196594 -0.004539353772997856 0.03463147580623627 -0.05154399573802948
http://dbpedia.org/resource/Chalcis -0.03293066844344139 0.025092333555221558 -0.036434974521398544 -0.008951541036367416 0.0068987393751740456 -3.7415226688608527E-4 -0.001168333925306797 -0.02530273050069809 -0.02771712839603424 -0.007926834747195244 -0.014132902957499027 0.01305590569972992 -5.117023829370737E-5 -0.028444577008485794 -0.041250165551900864 -0.005740865133702755 0.0018867090111598372 1.4088733587414026E-4 -0.026904869824647903 0.006497188471257687 0.005238067824393511 -0.008651267737150192 -0.0025879195891320705 -0.008461224846541882 0.0065625132992863655 -0.0039526610635221004 0.002537383930757642 -0.0068352255038917065 -0.018242957070469856 0.019196460023522377 2.5875939172692597E-5 0.012475192546844482 -0.0068510668352246284 0.010593689046800137 -0.008595263585448265 0.0017524297581985593 0.008666311390697956 -0.002307928167283535 5.794232129119337E-4 0.007009307853877544 0.011890197172760963 0.001081316382624209 -0.010148792527616024 0.004597563296556473 0.004073988646268845 -0.0022215424105525017 0.0021406649611890316 0.004226250573992729 -0.0012911787489429116 0.013148012571036816 0.006927559617906809 0.004488249309360981 0.010113737545907497 -0.019286565482616425 -0.004160694777965546 0.0081197964027524 0.012868866324424744 0.007908985018730164 0.001586772152222693 -0.009103930555284023 -0.002770044142380357 0.025567160919308662 -0.006083117797970772 0.023045141249895096 5.707507953047752E-4 -0.010955286212265491 -0.015252063050866127 0.007390672340989113 0.011470280587673187 0.0047903344966471195 -0.025388922542333603 0.003502192674204707 -0.02385537698864937 -0.0037400275468826294 0.009204786270856857 -0.020545653998851776 -0.020089218392968178 0.014336292631924152 -0.005232945084571838 -0.001305050915107131 0.01035491656512022 7.455563172698021E-4 -0.007453714497387409 0.010391131043434143 0.012645278126001358 -0.00477987015619874 0.011239329352974892 0.01922527700662613 -0.009795322082936764 -0.010806265287101269 0.01349184475839138 0.005047019571065903 0.025336088612675667 0.011917750351130962 0.016016997396945953 0.006635159254074097 0.0017941645346581936 0.014278840273618698 0.01240464299917221 -0.005323715973645449
http://dbpedia.org/resource/Astrology -0.08098289370536804 0.0428314283490181 -0.10774216800928116 -0.014436416327953339 -0.005710218567401171 -0.03882024809718132 -0.01109135989099741 -0.08646570891141891 -0.04601156711578369 -0.03024708293378353 -0.044493578374385834 0.004630131181329489 -0.042607907205820084 -0.08417123556137085 -0.09992948919534683 0.016180910170078278 0.04113611578941345 0.0420643649995327 -0.003433418460190296 0.033509429544210434 0.03447013720870018 -0.007886082865297794 0.007635404821485281 -0.03256650269031525 -0.01657373271882534 0.024016929790377617 9.910105727612972E-4 -0.04651564732193947 -0.032753799110651016 0.022339675575494766 0.00442056730389595 -0.0037464178167283535 -0.0442296527326107 0.05626765638589859 0.022471370175480843 0.049218516796827316 0.06387653201818466 -0.00785604864358902 0.005674269981682301 0.01836339198052883 -0.014172552153468132 -0.04276586323976517 -0.06636054068803787 -0.04352894052863121 0.045458562672138214 -5.927188904024661E-4 -0.006131802219897509 -0.0043968381360173225 -0.023111507296562195 0.022004660218954086 0.04870523884892464 -0.0025889193639159203 0.014669179916381836 -0.02364310249686241 -0.005358334165066481 4.1522824903950095E-4 -4.452847642824054E-4 -0.011894956231117249 0.006282082758843899 -3.582111676223576E-4 -0.04274817183613777 0.032536957412958145 0.03259021043777466 0.02922627702355385 -0.020658226683735847 0.04112875834107399 -0.022527210414409637 0.008439882658421993 0.010078518651425838 0.018501676619052887 -0.030124081298708916 0.01220563892275095 -0.020945170894265175 0.00452263792976737 -0.008805656805634499 -0.037613075226545334 -0.013619174249470234 0.051511894911527634 0.0010847069788724184 0.024701854214072227 -0.030916934832930565 0.014237988740205765 -0.04566171392798424 -0.007678299676626921 0.02671097032725811 -0.007472931873053312 -0.0015698742354288697 -0.010018490254878998 -0.013964555226266384 0.007770601660013199 0.016231177374720573 -0.0376599058508873 0.01540416106581688 0.022055288776755333 0.04122548922896385 -0.005376822780817747 -5.544611485674977E-4 0.029425691813230515 0.015879368409514427 -0.018792061135172844
http://dbpedia.org/resource/Augustus -0.07044459879398346 0.028399808332324028 -0.04970799386501312 -0.047701865434646606 0.012317106127738953 -0.012330252677202225 0.00901607796549797 -0.051522158086299896 -0.018490638583898544 -0.02433217130601406 -0.01931946910917759 0.005232524126768112 -0.02539772540330887 -0.045487403869628906 -0.05415991321206093 0.011339843273162842 0.02905971370637417 0.025704145431518555 -0.021457139402627945 0.033592481166124344 0.029921384528279305 -0.02571689710021019 0.0020730821415781975 -0.018814854323863983 0.006937017664313316 0.015843544155359268 0.005770355928689241 -0.026536336168646812 -0.023532863706350327 0.008751094341278076 0.009248911403119564 -0.008334476500749588 -0.017767496407032013 0.0258770901709795 0.019820502027869225 0.02394208498299122 0.03596318140625954 0.0026170965284109116 -0.006955526769161224 -0.0018911819206550717 -0.011143597774207592 -0.021216556429862976 -0.028316227719187737 -0.020115969702601433 0.038612302392721176 1.6626081196591258E-4 -0.008609000593423843 0.004144759848713875 -0.014517589472234249 0.024046115577220917 0.028564006090164185 -0.008578725159168243 0.001838060561567545 -0.016076581552624702 -0.0021082109306007624 -0.003129757707938552 6.710365414619446E-4 -0.003603162243962288 0.007326803635805845 0.0035068730358034372 -0.0180146936327219 0.01936952956020832 0.03502603992819786 0.012094119563698769 -0.024486565962433815 0.019579803571105003 -0.0015388182364404202 0.0038226910401135683 0.007149913813918829 0.0048112631775438786 -0.009652556851506233 0.004780567716807127 -0.0014073471538722515 9.091118117794394E-4 -0.008899038657546043 -0.03747569024562836 -0.009957228787243366 0.04544947296380997 -0.007661445531994104 0.021693041548132896 -0.023706886917352676 0.005804052110761404 -0.02990361675620079 -0.00679851183667779 0.022917073220014572 -0.002641888801008463 -0.010863633826375008 -0.0049178460612893105 -0.019818389788269997 0.008332761935889721 0.016526686027646065 -0.029030492529273033 0.01976163126528263 0.011480159126222134 0.019031019881367683 0.014688104391098022 0.0341712087392807 0.0206526517868042 0.019632631912827492 -0.03228488564491272
http://dbpedia.org/resource/Mathematics -0.0387311726808548 0.036848604679107666 -0.08578817546367645 0.03263687342405319 0.023872146382927895 0.03950539976358414 0.003588499268516898 -0.01911204308271408 -0.04354801028966904 0.02009403146803379 -0.013385678641498089 0.049556151032447815 0.08342112600803375 -0.015958014875650406 -0.051178377121686935 -0.06726114451885223 -0.0657573789358139 -0.021119888871908188 -0.20286743342876434 0.032104164361953735 -0.0520121194422245 -0.021490875631570816 -0.018209800124168396 -0.01085427775979042 0.088028185069561 -0.06531625241041183 -0.007994039915502071 0.007123206742107868 -0.029903734102845192 0.07931886613368988 -0.009828389622271061 0.04991406574845314 -0.017363665625452995 -0.020296817645430565 -0.04505792260169983 -0.03461585193872452 -0.007793843280524015 -0.03429755941033363 -0.04855543375015259 0.019655201584100723 0.03748316317796707 0.02762220799922943 0.03038509003818035 0.04643026366829872 -9.274308104068041E-5 -0.04330012574791908 0.02259276807308197 -0.04137766733765602 -0.004195504356175661 -0.029809074476361275 -0.04901537299156189 0.04642494395375252 0.01716890186071396 -0.034162964671850204 -0.01540144719183445 0.019602717831730843 0.01573040522634983 0.035972435027360916 0.022481879219412804 -0.04577408358454704 -0.01716320402920246 0.05865340307354927 0.007978313602507114 0.05387478694319725 0.014561512507498264 -0.010321888141334057 -0.03808964043855667 0.042919497936964035 0.029840318486094475 0.00978962704539299 -0.06373760104179382 0.014409560710191727 -0.07038076221942902 -0.00205343053676188 0.02530098520219326 -0.058395277708768845 -0.028408324345946312 0.0018574014538899064 -8.835280896164477E-4 -0.003430421929806471 0.009979241527616978 0.0157216414809227 -0.01215075608342886 0.0018243415979668498 0.033961739391088486 0.002584416652098298 0.028845127671957016 0.065846748650074 0.004912798758596182 -0.0024965160991996527 -0.002769481623545289 0.005639503709971905 0.048376791179180145 0.051285840570926666 0.033231575042009354 0.04185619577765465 -0.0496981106698513 0.04489223659038544 0.02437211386859417 0.037892896682024
http://dbpedia.org/resource/Archytas -0.09953230619430542 0.08774644881486893 -0.19150719046592712 -1.263972371816635E-4 0.0988965556025505 0.07565602660179138 0.04972591996192932 -0.20124861598014832 -0.12471199780702591 -0.0037330137565732002 -0.04382271692156792 0.07340404391288757 -0.0465429350733757 -0.11614488065242767 -0.07512987405061722 -0.05574285611510277 -0.032242510467767715 0.0402228944003582 -0.009930947795510292 0.034655358642339706 -0.06611011177301407 0.06637825816869736 0.021241597831249237 -0.07798811048269272 -0.07082187384366989 -0.026306290179491043 -0.017863649874925613 -0.06883645057678223 -0.08035918325185776 0.0787222757935524 -0.05468199774622917 -0.06286872178316116 -0.04913269728422165 -0.0654236450791359 -0.010111724026501179 -0.08574798703193665 -0.011610683053731918 -0.052441276609897614 -0.1876535713672638 -0.024922361597418785 -0.020489487797021866 -0.004577781073749065 -0.013042565435171127 0.015245840884745121 0.0794844776391983 -0.06930023431777954 -0.018362971022725105 -0.05168572813272476 -0.02815057896077633 0.049532558768987656 0.018562668934464455 0.033147454261779785 -0.0338888093829155 -0.01883937418460846 -0.042511288076639175 -0.0020952809136360884 -0.02141215279698372 -0.05528552085161209 0.00604135962203145 0.07995390892028809 -0.03235740587115288 -0.013646550476551056 0.051092181354761124 -0.0255319532006979 0.04696755111217499 0.07062298059463501 -0.006801579147577286 -0.009833519347012043 -0.08504021912813187 -0.07319045066833496 -0.051524568349123 -0.04466366395354271 0.06300535798072815 -0.013172572478652 -0.005374798085540533 0.0036117148119956255 0.006474321708083153 -0.0329202301800251 -0.02139989659190178 0.008995207957923412 -0.037324484437704086 0.11072167009115219 -0.07151269167661667 0.01588420197367668 -0.03072192333638668 -0.014155595563352108 -0.004584447480738163 0.061687372624874115 0.10066188871860504 0.133784681558609 -0.1082395538687706 -0.026780346408486366 -0.152975931763649 0.031251974403858185 0.025247491896152496 -0.01411376055330038 -0.041399456560611725 0.12491241097450256 -0.14619606733322144 0.04899681732058525
http://dbpedia.org/class/yago/Ruler110541229 0.04363669827580452 -0.023625805974006653 0.019309628754854202 0.025653891265392303 -0.013844595290720463 -0.0036833900958299637 -0.014453466050326824 0.03406614065170288 0.02123311534523964 0.010759697295725346 -0.005494243465363979 -0.006113039329648018 0.015268757939338684 0.033129528164863586 0.012341246008872986 0.007532839197665453 0.001146612805314362 3.2214049133472145E-4 0.0019679816905409098 -0.004766812548041344 0.006185895763337612 -0.001463723136112094 -0.005156640894711018 0.015256918966770172 0.012069640681147575 0.0031211646273732185 -0.0065793064422905445 0.012482846155762672 0.016550853848457336 -0.008824177086353302 0.003895900910720229 0.0015159761533141136 0.004173981491476297 -0.0069802189245820045 0.001241570571437478 0.0012674336321651936 -0.0017392344307154417 -0.0021751245949417353 0.010471648536622524 -0.003294232999905944 -0.006992264185100794 0.0018006563186645508 0.01117098331451416 -0.008791262283921242 -0.025286229327321053 0.009907289408147335 0.007824540138244629 -0.007185854017734528 0.002171854255720973 -0.023455210030078888 -0.012815435416996479 2.3876415798440576E-4 0.004447538405656815 0.00626901350915432 0.010629171505570412 -0.003826641943305731 -0.01010225247591734 -0.0010018842294812202 -0.005553624127060175 -0.009078240022063255 0.0038558526430279016 0.0022256893571466208 0.005951942875981331 0.013493412174284458 -0.015669872984290123 -0.0017269421368837357 0.005023977253586054 0.006690392270684242 0.019338082522153854 0.021878238767385483 0.010717321187257767 0.01730736345052719 -0.015606970526278019 5.066229496151209E-4 0.003412954742088914 -0.0034872631076723337 0.004810214973986149 0.011026822030544281 0.01600596122443676 -0.0027848330792039633 -0.007806351874023676 -0.013858960010111332 -0.0020551560446619987 -0.015440856106579304 -0.0036590765230357647 -0.001985719194635749 0.0015892732189968228 -0.027525873854756355 -0.01505186501890421 -0.015592986717820168 0.010384833440184593 -0.023478344082832336 0.014310386963188648 0.005134258884936571 0.001771937240846455 0.005608547478914261 -0.007081519812345505 -0.022212544456124306 0.01609181798994541 0.0023640263825654984
http://dbpedia.org/resource/Category:Political_philosophers -0.026592643931508064 0.020522983744740486 -0.053804557770490646 0.02025601454079151 -0.028644215315580368 -0.060619838535785675 -0.038819313049316406 -0.03611952066421509 -0.002106980187818408 0.017353611066937447 -0.0540149062871933 -0.005412488244473934 -0.035985156893730164 -0.022972114384174347 -0.11333297938108444 0.08358264714479446 0.029777254909276962 0.01695757731795311 0.03224881365895271 0.023025192320346832 0.0801161527633667 -0.0028133802115917206 -0.013800585642457008 0.0010547986021265388 -0.044345371425151825 0.05436006933450699 -4.3789955088868737E-4 -0.020936332643032074 -0.02438703551888466 -0.03415105119347572 0.008317856118083 -2.4132546968758106E-4 -0.00399590702727437 0.03249038755893707 0.011835237964987755 0.03855599835515022 0.023294320330023766 0.02434910275042057 0.05198967084288597 0.015917139127850533 -0.02228391170501709 -0.006330653093755245 -0.06105450168251991 -0.043786995112895966 -0.037600237876176834 0.03127098083496094 0.009725590236485004 -0.005285417661070824 0.0061651370488107204 -0.015342618338763714 0.019011802971363068 0.004365543369203806 0.016587184742093086 0.010095935314893723 0.017189251258969307 -0.009872950613498688 -0.003572298912331462 -0.001874860841780901 -0.0059397174045443535 0.002182195894420147 -0.029298000037670135 0.04844861850142479 0.03675320744514465 0.04997384548187256 -0.026302648708224297 0.02344217337667942 -0.003038977738469839 0.014451047405600548 0.05854308232665062 0.054711271077394485 0.009885547682642937 0.02472762204706669 -0.023111887276172638 0.022894427180290222 6.98442046996206E-4 -0.04244093969464302 0.014420592226088047 0.051083315163850784 0.0130356689915061 0.03656137362122536 -0.038597989827394485 -0.021008774638175964 -0.033178675919771194 -0.03287668153643608 0.016682986170053482 -0.04036800563335419 -0.026957912370562553 -0.0545659102499485 -0.014314983040094376 -0.005339781753718853 0.01673992909491062 -0.041835762560367584 0.03140497952699661 0.00634893961250782 0.03665117174386978 -0.019498588517308235 -0.0024698013439774513 -0.009896861389279366 0.015057341195642948 -0.021281609311699867
http://dbpedia.org/resource/Template:Gutenberg_author 0.0014902111142873764 0.03545444831252098 -0.04908297583460808 0.004330046940594912 -0.00556821096688509 -0.009594774805009365 -0.0425686351954937 -0.03995668143033981 -0.03479517623782158 -0.029808880761265755 0.0019936771132051945 0.020386893302202225 -0.0067237564362585545 -0.05040102079510689 0.01030509639531374 -0.057164646685123444 0.0022376757115125656 0.030836209654808044 -0.03636962175369263 0.0036115706898272038 -0.04746108129620552 0.010184753686189651 0.024369101971387863 -0.04595048725605011 0.004921433981508017 -0.020723547786474228 -0.0017630438087508082 -0.025334767997264862 0.007642020005732775 0.06357374787330627 -0.006212449632585049 -0.011361681856215 -0.010387285612523556 0.016441719606518745 -0.04394742101430893 -0.04251668229699135 -0.02420203760266304 -0.030957739800214767 -0.06448591500520706 7.92598002590239E-4 0.032287515699863434 0.0033885056618601084 0.04141036421060562 0.0527791865170002 0.05024109035730362 -0.06296081840991974 0.006273437291383743 -0.033972885459661484 -0.016956724226474762 0.015820464119315147 -0.017535602673888206 0.011377688497304916 0.003203806234523654 -0.042329687625169754 -0.0242519062012434 0.014984270557761192 0.010562111623585224 -0.00433255173265934 0.011087968945503235 0.004589708521962166 -0.013476100750267506 -0.004187690559774637 0.006893975660204887 -0.0060786837711930275 0.022633306682109833 -0.0033783456310629845 -0.03092857077717781 -0.007854335941374302 -0.050578679889440536 -0.03838127851486206 -0.061315249651670456 -0.02505221590399742 -0.012751813977956772 -0.03223061561584473 0.020717615261673927 -0.01710425689816475 -0.05238217115402222 -0.013759362511336803 -0.014418603852391243 -0.021754276007413864 0.020415762439370155 0.04215359687805176 -0.010391625575721264 0.029244182631373405 0.0033805868588387966 0.012719741091132164 0.04024457186460495 0.05425049364566803 0.016305934637784958 0.028115589171648026 -0.02245767042040825 -0.002677756128832698 -0.011326488107442856 0.038706861436367035 0.002628802554681897 0.040758464485406876 0.014268537051975727 0.05429094657301903 -0.016288133338093758 0.02248324826359749
http://www.wikidata.org/entity/Q24229398 0.1821822077035904 -0.0637483149766922 0.012647458352148533 0.22742849588394165 -0.14009816944599152 -0.13765069842338562 -0.1510888785123825 0.08602351695299149 0.08560828119516373 0.11631941795349121 -0.1328185498714447 -0.006434006150811911 0.018018070608377457 0.11766389012336731 -0.13691560924053192 0.18572716414928436 0.050609394907951355 -0.006419670768082142 0.0378568060696125 -0.0037010698579251766 0.14708666503429413 0.004525571595877409 -0.053128402680158615 0.08035455644130707 0.013343235477805138 0.05684293806552887 -0.01708947867155075 -0.0013528141425922513 0.014629489742219448 -0.062105875462293625 0.013257550075650215 0.03714592009782791 0.014909734018146992 -0.008792681619524956 0.005453604739159346 0.0528985895216465 0.0059279268607497215 0.014637012965977192 0.12460801005363464 0.06152009218931198 -0.07836402207612991 0.03631972149014473 -0.028248805552721024 -0.11285939067602158 -0.20115944743156433 0.103775255382061 0.042471013963222504 -0.07722120732069016 0.022370221093297005 -0.1809593141078949 -0.048864468932151794 0.07253838330507278 0.04560261592268944 0.04439043253660202 0.08154339343309402 -0.02446214109659195 -0.039701398462057114 0.021564843133091927 -0.001249287510290742 -0.10757414251565933 -0.08954602479934692 0.15300123393535614 0.06667174398899078 0.1569460928440094 -0.11914534121751785 0.05715443193912506 -0.04217281565070152 0.08392229676246643 0.21697010099887848 0.18687422573566437 0.027045346796512604 0.14605455100536346 -0.16599494218826294 0.028681283816695213 6.166548701003194E-4 -0.09670994430780411 0.030331406742334366 0.08010315150022507 0.1289786696434021 0.039964210242033005 -0.0831836387515068 -0.08071155101060867 -0.07612911611795425 -0.10879788547754288 0.039560139179229736 -0.09625880420207977 -0.023223381489515305 -0.17987564206123352 -0.0460645854473114 -0.08114389330148697 0.05531500279903412 -0.1894085556268692 0.0868430957198143 0.06786064058542252 0.09274264425039291 -0.03205503895878792 -0.15372909605503082 -0.07095237076282501 0.10900764167308807 0.06866826862096786
. -0.16766227781772614 -0.1440611332654953 0.6649012565612793 -0.5281484127044678 -0.23465439677238464 -0.34500476717948914 -0.5055023431777954 0.20353753864765167 0.26540523767471313 0.07014673948287964 0.09888087213039398 0.03785601630806923 -0.09593658149242401 0.2954670488834381 0.031101234257221222 0.3357263505458832 -0.024393634870648384 -0.019187364727258682 -0.2852007746696472 0.35635000467300415 0.19823093712329865 -0.11416784673929214 -0.27512985467910767 0.15924596786499023 -0.10206841677427292 0.15010817348957062 0.03649791330099106 0.201527938246727 0.2213694155216217 -0.2594098448753357 -0.0140283964574337 -0.4790341854095459 0.6418858766555786 -0.043799906969070435 -0.777545690536499 -0.7412702441215515 -1.2500044107437134 -0.05113314464688301 -0.23689210414886475 -0.3070785105228424 0.17777596414089203 0.5783088207244873 1.0286203622817993 0.7729229927062988 -0.016059687361121178 -0.47223007678985596 -0.02109552174806595 -0.23579879105091095 0.19146381318569183 -0.010772844776511192 -0.5534367561340332 -0.1069280132651329 -0.30888813734054565 0.08978315442800522 -0.08126883953809738 -0.14407940208911896 -0.12367259711027145 -0.10033112019300461 8.136770338751376E-4 0.2785857021808624 -0.13290755450725555 -0.513204038143158 0.4245162010192871 -0.36126708984375 -0.0233517587184906 0.19904553890228271 0.4149641990661621 -0.25739267468452454 -0.5747509598731995 -0.4428260028362274 0.23524674773216248 -0.444623202085495 0.5044873356819153 -0.0917227491736412 -0.08451275527477264 -0.09737272560596466 0.27651578187942505 -0.07034633308649063 -0.2560265362262726 -0.07592525333166122 -0.2957342565059662 0.17479437589645386 -0.05338406190276146 -0.26501354575157166 -0.2055036425590515 0.15502922236919403 0.030003586784005165 0.040830858051776886 0.1941051036119461 0.46800580620765686 -0.2761635184288025 -0.1808759719133377 -0.14136001467704773 0.12584950029850006 -0.10634242743253708 0.2918553054332733 0.507326602935791 0.1812591254711151 -0.37731435894966125 -0.137966126203537
http://dbpedia.org/resource/Marsilio_Ficino -0.052102357149124146 0.030661165714263916 -0.04600277543067932 -0.027859626337885857 0.033896129578351974 0.031764376908540726 0.02011086605489254 -0.028137631714344025 -0.03735522925853729 -0.01015419140458107 0.0030863280408084393 0.026872873306274414 0.03118222765624523 -0.031607549637556076 -0.014501186087727547 -0.05210250988602638 -0.018716713413596153 -0.003263427410274744 -0.08961132168769836 0.009729329496622086 -0.03407928720116615 -0.014728614129126072 0.0012171200942248106 -0.01893262378871441 0.04594045877456665 -0.03636741638183594 -7.416679873131216E-4 7.011907291598618E-5 -0.02509942464530468 0.05458395928144455 -0.00943582970649004 0.02848729118704796 -0.02076827548444271 -0.0072205206379294395 -0.015052407048642635 -0.013411800377070904 0.0016950183780863881 -0.01138682197779417 -0.03497012332081795 0.0024925139732658863 0.033105380833148956 0.006674373056739569 0.008464929647743702 0.041405659168958664 0.029328342527151108 -0.02882922813296318 9.80924116447568E-4 0.008184528909623623 -0.007359039504081011 0.0210211593657732 -0.0056151412427425385 0.003281486453488469 0.010591628029942513 -0.03841467946767807 -0.020271029323339462 0.013222256675362587 0.02066311612725258 0.026467356830835342 0.013769187964498997 -0.019913984462618828 0.00231734337285161 0.021872475743293762 -0.015145285986363888 0.018816620111465454 0.01895716041326523 -0.039539411664009094 -0.019030634313821793 0.02094775065779686 -0.009534066542983055 -0.016666539013385773 -0.04869234189391136 -0.008340351283550262 -0.032003648579120636 -0.016964128240942955 0.022991051897406578 -0.02635154128074646 -0.04781735688447952 0.0044976091012358665 -0.013199700973927975 -0.013833271339535713 0.037552494555711746 0.020041944459080696 0.00244444003328681 0.02646302431821823 0.019816361367702484 0.012117183767259121 0.030260056257247925 0.0681166797876358 -0.007186809554696083 -0.011660578660666943 0.008303076960146427 0.01990695111453533 0.03338319808244705 0.03129374235868454 0.016510283574461937 0.03794271871447563 0.0022429535165429115 0.03684733062982559 0.02165401726961136 0.005408558063209057
http://dbpedia.org/resource/Callicles -0.017813071608543396 -0.027535006403923035 0.008296322077512741 0.00950600765645504 0.029446393251419067 0.010675058700144291 0.05530279129743576 -0.043068598955869675 0.009730542078614235 0.0184039119631052 -0.025597957894206047 -0.001068038516677916 -0.04340388625860214 0.034029342234134674 -0.004039950668811798 0.07161567360162735 0.011121388524770737 0.002705620601773262 0.1070326417684555 0.009504249319434166 0.042918384075164795 0.03637661784887314 -0.012786591425538063 0.019310370087623596 -0.059622205793857574 0.047919563949108124 -0.008284888230264187 -0.0014722100459039211 -0.03907623887062073 -0.06419046968221664 -0.008869120851159096 -0.04146021977066994 -0.011289112269878387 -0.10703714191913605 0.08488775789737701 -0.00626225583255291 0.03496365249156952 0.021642327308654785 -0.03313751891255379 -0.03334967419505119 -0.07398097962141037 -0.011249481700360775 -0.06920254230499268 -0.07475573569536209 -0.034491028636693954 0.05488789081573486 -0.021033475175499916 0.025649599730968475 0.01769465021789074 0.020216623321175575 0.038606107234954834 -0.02633701078593731 -0.03793269395828247 0.04937360808253288 0.011304771527647972 -0.031313832849264145 -0.04025806114077568 -0.035925015807151794 -0.025525111705064774 0.06521143019199371 -0.00806255079805851 -0.02142292633652687 0.047755252569913864 -0.03656960651278496 -0.017683496698737144 0.04917692393064499 0.06157297268509865 -0.010225499980151653 0.007331463973969221 -0.00862156879156828 0.07961598038673401 -0.0024326136335730553 0.07480932027101517 0.014515207149088383 -0.030005166307091713 0.03337089717388153 0.07785721123218536 3.212527954019606E-4 0.014627181924879551 0.018714554607868195 -0.05817119777202606 0.007974679581820965 -0.03045843541622162 -0.01973949745297432 -0.03609354421496391 -0.03223467990756035 -0.056776147335767746 -0.06388236582279205 0.04168672114610672 0.0618542842566967 -0.04988538846373558 -0.03120366856455803 -0.10072924196720123 -0.03975718095898628 -6.744342972524464E-4 -0.06890507787466049 -0.032506026327610016 -0.0040818131528794765 -0.07478588819503784 0.0022771870717406273
http://dbpedia.org/class/yago/WikicatPeopleFromAlexandria 0.07425615191459656 -0.02684074454009533 0.017574233934283257 0.07575682550668716 -0.047559190541505814 -0.049122314900159836 -0.04528773948550224 0.04287302866578102 0.03563228249549866 0.02522442303597927 -0.03095828741788864 -0.01637103781104088 -0.004105301108211279 0.05059746652841568 -0.014714395627379417 0.056859053671360016 0.03224337846040726 0.005216446705162525 0.04529035836458206 -0.016805939376354218 0.04894914850592613 0.009184891358017921 -0.00667269341647625 0.02182241901755333 0.006106982473284006 0.027085429057478905 -3.7750470801256597E-4 -0.002359447767958045 0.02050555869936943 -0.03127003088593483 0.004536605905741453 0.008374077267944813 -1.604805001989007E-4 -0.0013336476404219866 0.019854789599776268 0.03288022801280022 0.013973541557788849 0.010572224855422974 0.04585243761539459 0.009496540762484074 -0.037119124084711075 -0.0084889717400074 -0.02003958821296692 -0.05500039458274841 -0.05322224646806717 0.03985966742038727 0.009605057537555695 -0.02013351395726204 -5.795247270725667E-4 -0.05437905713915825 -4.6415807446464896E-4 0.015203103423118591 0.01451690960675478 0.013930724002420902 0.027827294543385506 -0.014235849492251873 -0.013051245361566544 0.00441425247117877 -0.0029023613315075636 -0.03160899877548218 -0.022878233343362808 0.03493229299783707 0.014435138553380966 0.03168892115354538 -0.041519585996866226 0.02026558108627796 -0.003159264335408807 0.0207920391112566 0.06191137060523033 0.05774879828095436 0.01821826584637165 0.05072592571377754 -0.04775182530283928 0.0032237002160400152 -7.791551761329174E-4 -0.011519255116581917 0.00907248817384243 0.023209786042571068 0.04063525050878525 0.013228110037744045 -0.020475123077630997 -0.026000890880823135 -0.020938219502568245 -0.02986300364136696 0.006871234159916639 -0.026320751756429672 -0.009710907936096191 -0.0682157427072525 -0.022976242005825043 -0.03631579130887985 0.01631513610482216 -0.061345912516117096 0.02342286705970764 0.01710299588739872 0.017120691016316414 -0.004394917748868465 -0.04166359826922417 -0.0291913989931345 0.0401093028485775 0.01931975781917572
http://dbpedia.org/resource/Ptolemy_I_Soter -0.08562223613262177 0.015222962014377117 -0.044534046202898026 -0.046881053596735 0.029194103553891182 0.009012920781970024 0.039735209196805954 -0.05007994547486305 -0.026443058624863625 -0.023867173120379448 -0.00361369620077312 0.0032288231886923313 -0.016652250662446022 -0.04449295252561569 -0.042831458151340485 0.006854993756860495 -0.0036275554448366165 0.0014411595184355974 -0.007875075563788414 0.020327022299170494 0.01343007292598486 -0.0065462845377624035 0.0011636787094175816 -0.00602757977321744 -0.005591060966253281 -9.785698057385162E-5 -7.338591967709363E-5 -0.014148938469588757 -0.03328370302915573 0.0033051292411983013 -0.005092923995107412 0.007179444655776024 -0.02027815766632557 -0.006720205768942833 0.0244019515812397 0.018609004095196724 0.032849136739969254 0.0062662274576723576 -0.009656079113483429 -0.001790356356650591 -0.001484576379880309 -0.0072300853207707405 -0.04009919613599777 -0.01025573629885912 0.02114337682723999 0.006968257948756218 -0.011307512409985065 0.03199616074562073 -0.0017650107620283961 0.03538111597299576 0.031527310609817505 -0.011286892928183079 -0.008403520099818707 -0.007422752678394318 -0.007405854761600494 -6.282763788476586E-4 5.053419154137373E-4 -0.0048743546940386295 8.538283291272819E-4 0.01141004916280508 -0.004809742793440819 0.0026878812350332737 0.0048837801441550255 -0.00987461768090725 0.006495342589914799 -0.002457808703184128 0.014890558086335659 0.004956892691552639 -0.007939987815916538 -0.009589023888111115 0.003300685901194811 -0.007502380758523941 0.0197010301053524 0.007238152902573347 -0.01191997341811657 0.004243727773427963 0.004222822841256857 0.013821609318256378 -0.014533217996358871 0.013126984238624573 -0.010015149600803852 0.014515535905957222 -0.013760441914200783 0.009216482751071453 0.006467771250754595 0.010619043372571468 -0.00712486682459712 0.01729867048561573 0.0048965029418468475 0.013806850649416447 -0.005740697495639324 0.009661907330155373 -0.020795075222849846 -0.01331919152289629 0.0037749791517853737 -0.01285029947757721 0.005628024227917194 0.013153046369552612 -0.01825123466551304 -0.01383206620812416
http://dbpedia.org/resource/Category:Ancient_Crotonians -0.058061908930540085 0.03987641632556915 -0.08660497516393661 0.014425692148506641 -0.007286428939551115 -0.020876016467809677 -0.016748575493693352 -0.0474739708006382 -0.030326247215270996 0.02560424618422985 -0.04869922995567322 0.009806853719055653 -0.01237566489726305 -0.04010618478059769 -0.1279250532388687 0.060054559260606766 -0.003605723613873124 6.556951557286084E-4 -0.018558237701654434 0.022561054676771164 0.05286559835076332 -0.004807948600500822 -0.010056587867438793 0.0014830054715275764 -0.029506493359804153 0.01828225515782833 -0.0023428306449204683 -0.01663976162672043 -0.045476701110601425 5.568446358665824E-4 -0.006472059991210699 0.006161012686789036 -0.00831184908747673 0.022187665104866028 -0.01891333796083927 0.016049126163125038 0.00453324057161808 0.015542836859822273 0.02668001875281334 0.02243923209607601 -0.005147633608430624 0.002673185197636485 -0.04317402094602585 -0.020954884588718414 -0.034534331411123276 0.013478120788931847 0.007971387356519699 -0.02057129703462124 0.008295103907585144 -0.018465416505932808 0.0024626762606203556 0.02056235820055008 0.01643698662519455 -0.006318839732557535 0.009810391813516617 0.005640014074742794 0.008818365633487701 0.0014673047699034214 4.255794920027256E-4 0.001741842133924365 -0.03391646593809128 0.06368289142847061 0.021641824394464493 0.058887165039777756 -0.017531951889395714 0.00587379839271307 -0.019688209518790245 0.031372953206300735 0.054408539086580276 0.046658024191856384 -0.018604563549160957 0.02206937037408352 -0.037387024611234665 0.024684565141797066 0.004592316225171089 -0.05411464720964432 0.0033413064666092396 0.03788340091705322 0.012861941941082478 0.028677336871623993 -0.03716159611940384 -0.00872927438467741 -0.03627796843647957 -0.020129375159740448 0.021295813843607903 -0.03324849158525467 -0.019631491973996162 -0.024955764412879944 0.0046956101432442665 -0.0038405985105782747 0.009854278527200222 -0.03351688012480736 0.024589406326413155 0.0069129690527915955 0.043128497898578644 -0.018790442496538162 -0.016308128833770752 0.01579943671822548 0.009263411164283752 -0.007252870127558708
http://dbpedia.org/resource/Internet_Encyclopedia_of_Philosophy -0.07158555090427399 0.0252040084451437 -0.0696394145488739 -0.029224850237369537 0.022864744067192078 0.02190048061311245 0.03188430890440941 -0.05494032800197601 -0.036407262086868286 -0.012313040904700756 -0.020250458270311356 0.01158621720969677 -0.006741045508533716 -0.05203003063797951 -0.06483343988656998 -6.738643860444427E-4 0.0013512291479855776 7.465837406925857E-4 -0.02890661172568798 0.026043254882097244 0.009398793801665306 -0.015459606423974037 -0.006439527031034231 -0.013660489581525326 -0.004957829602062702 -0.002999291755259037 0.005948521662503481 -0.013620080426335335 -0.036586809903383255 0.018899699673056602 -6.27353263553232E-4 0.016936467960476875 -0.026538699865341187 0.007374812848865986 0.019307712092995644 0.01841779612004757 0.03913533315062523 7.241822313517332E-4 -0.023066312074661255 0.0017550612101331353 0.006667700596153736 -0.010144553147256374 -0.04711031913757324 -0.006384347565472126 0.02228628471493721 -5.910354666411877E-4 -0.008237438276410103 0.02259998209774494 -0.0014145742170512676 0.03937623277306557 0.027331367135047913 -0.009025271050632 -0.004850070923566818 -0.014444704167544842 -0.012785717844963074 -0.0011053946800529957 0.002641438040882349 -2.761433715932071E-4 -0.005038936156779528 0.009473079815506935 -0.0022213479969650507 0.020056625828146935 -9.745527058839798E-4 0.01886104606091976 0.006094989366829395 -0.00833229348063469 -9.919555159285665E-4 0.014350710436701775 0.009344438090920448 0.005255525466054678 -0.0138167142868042 -0.0038499711081385612 -8.98891594260931E-5 0.004354027099907398 0.007502955384552479 -0.021281108260154724 -0.012297510169446468 0.020283415913581848 -0.012211283668875694 0.009707986377179623 -0.0030663928482681513 0.004043519496917725 -0.014276707544922829 0.011398851871490479 0.019106624647974968 0.0017543125431984663 -0.00843694806098938 0.02297043614089489 -0.0046604168601334095 0.0034775659441947937 0.0027551616076380014 0.014886857941746712 0.009485837072134018 -7.86108779720962E-4 0.01641877368092537 -0.004099921323359013 0.010181037709116936 0.01866564154624939 -0.007788218092173338 -0.014550152234733105
http://xmlns.com/foaf/0.1/Person 0.252329021692276 -0.08704880625009537 0.09026405960321426 0.2075810581445694 -0.10489998757839203 -0.0824744775891304 -0.10885915160179138 0.12373478710651398 0.09968835115432739 0.0841468796133995 -0.07372670620679855 -0.01645555905997753 0.025300627574324608 0.14042767882347107 0.018547795712947845 0.10369639843702316 0.05302675440907478 -0.0016532925656065345 0.0880974754691124 -0.05165790393948555 0.06905899196863174 0.021779542788863182 -0.024167818948626518 0.06926973164081573 0.025848757475614548 0.04491765797138214 -0.010754765011370182 0.01179780438542366 0.05451293662190437 -0.05725104361772537 0.01519496738910675 0.023859623819589615 0.013082767836749554 -0.04676029458642006 0.0277787484228611 0.028489936143159866 0.008047261275351048 0.005769010167568922 0.0631098747253418 0.019743097946047783 -0.0608341284096241 0.009043987840414047 -0.004385876934975386 -0.08096720278263092 -0.14387667179107666 0.09195149689912796 0.023712966591119766 -0.04799647256731987 0.007348400074988604 -0.12641681730747223 -0.01722436398267746 0.03585434705018997 0.028964288532733917 0.03822626173496246 0.060315269976854324 -0.017908597365021706 -0.04927336424589157 0.016700996086001396 -0.008467135950922966 -0.08203529566526413 -0.040416207164525986 0.07275782525539398 0.023701496422290802 0.08587370812892914 -0.0839860737323761 0.00965240690857172 -0.015225376933813095 0.04968630149960518 0.13245528936386108 0.11806663125753403 0.031420644372701645 0.10610054433345795 -0.11613781005144119 -9.594723233021796E-4 0.004217318259179592 -0.03999444469809532 0.009643124416470528 0.027661597356200218 0.09015040844678879 0.0060193706303834915 -0.019156770780682564 -0.060895781964063644 -0.026821210980415344 -0.056820787489414215 0.00414512911811471 -0.05916638299822807 -0.011131144128739834 -0.1262509971857071 -0.03447306528687477 -0.07533477991819382 0.03702219948172569 -0.13698410987854004 0.047615572810173035 0.043416496366262436 0.026474572718143463 -0.002446237485855818 -0.09341920912265778 -0.0686931237578392 0.08316638320684433 0.06210513785481453
http://dbpedia.org/resource/Gorgias 0.0020957663655281067 0.07618127763271332 -0.17129263281822205 0.05106193572282791 -0.04182110354304314 -0.03893112763762474 -0.12300024926662445 -0.022260868921875954 -0.040045931935310364 -0.0879870131611824 0.025382837280631065 -0.0014162748120725155 0.06572367250919342 -0.12270556390285492 0.04755125939846039 -0.19150838255882263 -0.002829561708495021 0.04755933955311775 -0.23540416359901428 0.01403853576630354 -0.15002720057964325 -0.006615509744733572 0.04384336620569229 -0.11238954216241837 0.12985551357269287 -0.11082679778337479 0.008142239414155483 -0.07447195053100586 0.06907419115304947 0.1410439908504486 -0.0037115339655429125 0.016506625339388847 -0.057050611823797226 0.188844233751297 -0.1026989221572876 0.022561991587281227 0.0052633946761488914 -0.10773725807666779 0.007426040712743998 0.08508370816707611 0.02812117710709572 -0.02413378283381462 0.1500227451324463 0.02020355500280857 0.13413096964359283 -0.1483454555273056 0.06106364354491234 -0.1738113909959793 -0.09656821191310883 -0.10252508521080017 -0.09211813658475876 0.11414428055286407 0.07579479366540909 -0.09206307679414749 -0.0023479945957660675 0.012823664583265781 0.03129041567444801 0.007379808928817511 0.06863486021757126 -0.1174943745136261 -0.113421231508255 0.02832666225731373 0.016352642327547073 0.03881919011473656 0.009528479538857937 0.1116044670343399 -0.16589419543743134 0.006953355390578508 -0.06566412001848221 -0.037147682160139084 -0.20008105039596558 0.04666749760508537 -0.1783776730298996 -0.07046877592802048 0.008031168021261692 -0.021013319492340088 -0.1243748813867569 0.010911328718066216 0.0419742725789547 -0.022250927984714508 0.003625827142968774 0.096383236348629 -0.044689178466796875 -0.01174871064722538 0.06096683815121651 0.0231684148311615 0.11626657098531723 0.08388722687959671 -0.033574655652046204 -0.026885032653808594 0.009495873935520649 -0.10069026798009872 0.06570086628198624 0.1519535630941391 0.08394636958837509 0.13059669733047485 -0.0837501734495163 0.13391143083572388 0.10092049092054367 0.10046902298927307
http://dbpedia.org/resource/Category:4th-century_BC_philosophers -0.1191883236169815 0.07210750132799149 -0.15400537848472595 0.04117674380540848 -0.07643761485815048 -0.13628754019737244 -0.10790936648845673 -0.10094613581895828 -0.04450724646449089 0.06376074254512787 -0.1347329169511795 0.01825661025941372 -0.07170785218477249 -0.05770598724484444 -0.3399803936481476 0.21559667587280273 0.015840642154216766 -0.004065904300659895 -0.007546286564320326 0.07447969168424606 0.2022959142923355 -0.009481030516326427 -0.048783522099256516 0.018816016614437103 -0.11610321700572968 0.09376586228609085 -0.006028051022440195 -0.03851417824625969 -0.07500438392162323 -0.04235779494047165 -5.303332582116127E-4 0.007455026730895042 0.03136177733540535 0.0763777643442154 -0.06591051816940308 0.0291559100151062 -0.024948883801698685 0.05827335640788078 0.11658164858818054 0.058816030621528625 -0.022159680724143982 0.04395138472318649 -0.09778757393360138 -0.03139019012451172 -0.12260636687278748 0.03718766197562218 0.03379742428660393 -0.0370972603559494 0.03587154299020767 -0.051203008741140366 -9.041705634444952E-4 0.03648148849606514 0.024759566411376 0.02037953771650791 0.019037507474422455 -0.0075056119821965694 0.01101954746991396 0.008573937229812145 0.004173315595835447 0.004109300673007965 -0.08415690809488297 0.15428514778614044 0.07891654223203659 0.13925674557685852 -0.04088006913661957 0.039779894053936005 -0.023999789729714394 0.05295857787132263 0.12822484970092773 0.13824839890003204 4.6446570195257664E-4 0.049308691173791885 -0.06111164018511772 0.07640016824007034 0.019191350787878036 -0.14024995267391205 0.03108331933617592 0.09848817437887192 0.028398748487234116 0.07937300205230713 -0.10024391114711761 -0.056196220219135284 -0.07792689651250839 -0.06818516552448273 0.03947805240750313 -0.09540969878435135 -0.06083933636546135 -0.08976307511329651 0.0019575173500925303 0.007006552070379257 0.02159241959452629 -0.065737284719944 0.0678577646613121 0.0024503436870872974 0.08889645338058472 -0.047879308462142944 -0.031286999583244324 0.009992009960114956 0.006557593122124672 -0.028834383934736252
http://dbpedia.org/resource/Catholic_Church -0.043501004576683044 0.02684098295867443 -0.0720781683921814 0.0015040922444313765 0.007021376863121986 -0.00608838489279151 0.007933715358376503 -0.050193626433610916 -0.032923534512519836 -0.014611353166401386 -0.03968706727027893 0.00913713127374649 -0.011882244609296322 -0.04848403111100197 -0.06467515975236893 0.00995081290602684 0.01643948256969452 0.01230020634829998 -0.011494524776935577 0.013231535442173481 0.018186435103416443 -0.012477911077439785 0.003508147783577442 -0.017773959785699844 0.0028395187109708786 0.0054839001968503 -0.0016438011080026627 -0.027959253638982773 -0.03974709287285805 0.021657783538103104 -0.0017724124481901526 0.019923143088817596 -0.0392770990729332 0.012080730870366096 0.03115818463265896 0.03776715695858002 0.060700494796037674 -0.0049410006031394005 -0.011589241214096546 0.01389465294778347 -0.002093023154884577 -0.022618092596530914 -0.053480539470911026 -0.025974398478865623 0.01917063444852829 0.00718214176595211 -0.011566584929823875 0.02279464341700077 -0.015153424814343452 0.022036824375391006 0.043131016194820404 0.002208736492320895 0.00206756591796875 -0.013892212882637978 7.576429634355009E-4 3.8431372377090156E-4 0.001399348839186132 -0.0026456040795892477 0.0017959480173885822 -0.014373955316841602 -0.019085446372628212 0.029285158962011337 0.0022564891260117292 0.024934563785791397 -0.004071681760251522 0.0018912546802312136 -0.012354465201497078 0.020831190049648285 0.021767500787973404 0.016929006204009056 -0.017270293086767197 0.01749456860125065 -0.016903400421142578 0.0014399713836610317 8.815089240670204E-4 -0.017876137048006058 -0.011867516674101353 0.025251029059290886 0.003259390825405717 0.012157785706222057 0.0026299632154405117 0.0061318762600421906 -0.023837914690375328 0.012294677086174488 0.020687459036707878 -0.003947486635297537 -0.004277081228792667 0.013101797550916672 -0.0053809150122106075 0.0015920123551040888 0.014520309865474701 -0.002473051194101572 0.009388314560055733 0.005356587469577789 0.017848756164312363 -0.004606189671903849 -0.019382713362574577 0.013201234862208366 0.002270616590976715 6.553103448823094E-4
http://dbpedia.org/resource/Template:Snd 0.010455949231982231 0.03340338543057442 -0.052168816328048706 0.02269701659679413 -0.007049687672406435 -0.02007029764354229 -0.049691878259181976 -0.048657022416591644 -0.03023444674909115 -0.025183487683534622 -0.018960457295179367 0.014958186075091362 -0.0123472074046731 -0.04712619632482529 -0.002710514236241579 -0.0407240130007267 0.0027930547948926687 0.024060027673840523 -0.011336675845086575 -0.006337356753647327 -0.03517058491706848 0.024859419092535973 0.023980513215065002 -0.046908166259527206 -0.005870881490409374 -0.017183655872941017 -0.010143703781068325 -0.031037479639053345 -0.0019239047542214394 0.053543586283922195 -0.013866973109543324 -0.011747974902391434 -0.012651701457798481 0.014509146101772785 -0.036649588495492935 -0.03596768155694008 -0.01971072144806385 -0.026800114661455154 -0.0568072535097599 -0.001393539598211646 0.015712566673755646 0.0010114297037944198 0.03226570412516594 0.03265254944562912 0.03470616042613983 -0.045585840940475464 0.0058790771290659904 -0.038990844041109085 -0.017888715490698814 5.9546764532569796E-5 -0.009045110084116459 0.022330623120069504 0.003969409037381411 -0.037007853388786316 -0.016604356467723846 0.013250487856566906 0.0036661841440945864 -0.00920279324054718 0.012533045373857021 0.0012309541925787926 -0.016477461904287338 0.0013304023304954171 0.007106028497219086 0.005585919134318829 0.021090487018227577 0.012073250487446785 -0.03380265459418297 1.6037398017942905E-4 -0.039843689650297165 -0.02521238476037979 -0.06022511422634125 -0.014297076500952244 -0.016030386090278625 -0.020433198660612106 0.01970147155225277 -0.010461508296430111 -0.03884328529238701 -0.0171092189848423 -0.00719508808106184 -0.014049009419977665 0.014134056866168976 0.041144147515296936 -0.017058147117495537 0.014649179764091969 0.006726668681949377 1.5713306493125856E-4 0.028114067390561104 0.041380997747182846 0.016473868861794472 0.02666587382555008 -0.02663750946521759 -0.018752722069621086 -0.01655312068760395 0.03505159169435501 0.008717384189367294 0.025228409096598625 -0.01511498261243105 0.05231150612235069 -0.01900707371532917 0.03686327487230301
http://dbpedia.org/resource/Hermagoras_of_Amphipolis -0.17487457394599915 0.05365530773997307 -0.10745955258607864 -0.13306698203086853 0.14636828005313873 0.1561829149723053 0.16511650383472443 -0.12904798984527588 -0.11063697189092636 -0.07045403867959976 0.03556143864989281 0.0601051039993763 0.02093462459743023 -0.1243373230099678 0.007270239293575287 -0.13409173488616943 -0.04550952464342117 0.006558995693922043 -0.15525218844413757 0.053618285804986954 -0.12202440947294235 -0.025333352386951447 0.007820971310138702 -0.05185684561729431 0.0845751017332077 -0.09396681934595108 -0.004797810222953558 -0.02082603983581066 -0.08166748285293579 0.11580044776201248 -0.027479954063892365 0.021396534517407417 -0.06354872137308121 -0.0741376206278801 0.0192289836704731 -0.051793843507766724 0.004071379080414772 -0.03922870010137558 -0.17324677109718323 -0.037788257002830505 0.05289602279663086 5.47338742762804E-4 0.010390092618763447 0.08110518753528595 0.11805662512779236 -0.07579641044139862 -0.03803548589348793 0.05683780461549759 -0.03310803696513176 0.12235230952501297 0.03036363795399666 -0.017430920153856277 -0.029516899958252907 -0.07255323231220245 -0.06854031980037689 0.014011288993060589 0.01384249608963728 0.016267472878098488 0.01151543390005827 0.010868470184504986 0.03466114401817322 -0.02759794145822525 -0.03530985116958618 -0.03316899761557579 0.05409446731209755 -0.04981454461812973 0.005630290135741234 0.022111861035227776 -0.08134805411100388 -0.11680879443883896 -0.07740287482738495 -0.06471187621355057 0.03862391412258148 -0.028873447328805923 -0.004663200117647648 0.013734358362853527 -0.0423722043633461 -0.025100845843553543 -0.05994772911071777 -0.04154503345489502 0.05074990913271904 0.09269461780786514 -0.001334784901700914 0.07176206260919571 0.011765428818762302 0.06147145479917526 0.04608631134033203 0.1780499517917633 0.027145331725478172 0.0589805543422699 -0.03428811579942703 0.06829535961151123 -0.049036551266908646 0.020278746262192726 0.004510212689638138 0.03974732756614685 0.014247963204979897 0.09097355604171753 -0.0612148754298687 -0.0022702375426888466
http://dbpedia.org/resource/Lucretius -0.01134577114135027 0.01657520793378353 -0.01439752895385027 0.005852582398802042 0.00358228525146842 0.0086464649066329 -0.007909763604402542 -6.829791818745434E-4 -0.012893373146653175 -0.004542672075331211 0.0012158434838056564 0.010585073381662369 0.022865060716867447 -0.00861467607319355 -0.0028154856991022825 -0.02551378682255745 -0.013394072651863098 -4.646886372938752E-4 -0.05249011144042015 0.005002553574740887 -0.013880083337426186 -0.009604807011783123 -0.003816731506958604 -0.010545817203819752 0.02678629383444786 -0.022664561867713928 0.0031722127459943295 -0.0011771764839068055 -0.002664105035364628 0.025018416345119476 -0.0015484991017729044 0.021978942677378654 -0.0026170345954596996 0.012100297026336193 -0.022952953353524208 -0.010554371401667595 -0.012680193409323692 -0.004972815979272127 6.033263634890318E-4 0.014623825438320637 0.020888403058052063 0.00944690965116024 0.014316044747829437 0.016381612047553062 -4.058511694893241E-4 -0.015284242108464241 0.010526157915592194 -0.016095004975795746 -0.007802087813615799 -0.01013978011906147 -0.012458071112632751 0.009640058502554893 0.010289939120411873 -0.0195931363850832 -0.0032545982394367456 0.012644301168620586 0.011771748773753643 0.018165305256843567 0.01179924700409174 -0.02698494680225849 -0.00877415481954813 0.02040635049343109 -0.004841569811105728 0.022979600355029106 0.002717856550589204 -0.011684159748256207 -0.01851845346391201 0.015665078535676003 4.8003249685280025E-4 0.0012368002207949758 -0.03485700860619545 -0.001223233062773943 -0.03423929587006569 -0.00554902758449316 0.0095839723944664 -0.015102693811058998 -0.03383873775601387 -6.267541903071105E-4 0.006276921834796667 -0.005474283825606108 0.019395755603909492 0.0036220396868884563 -0.004774535074830055 0.008849077858030796 0.015503129921853542 3.905754419974983E-4 0.021619899198412895 0.03283395618200302 -0.012846438214182854 -0.017724404111504555 0.012608624063432217 -0.0036042609717696905 0.031349681317806244 0.018731573596596718 0.008423620834946632 0.026133231818675995 -0.00785539299249649 0.012648550793528557 0.024533964693546295 0.013615867123007774
http://dbpedia.org/resource/Category:5th-century_Byzantine_women -0.004499396309256554 0.009931940585374832 -0.03857504203915596 0.02789994701743126 -0.016650287434458733 -0.02555195614695549 -0.028244366869330406 -0.01282496191561222 -0.004773443564772606 0.020458213984966278 -0.03185507655143738 0.004184659570455551 -0.01655002310872078 -0.004894295707345009 -0.05885719135403633 0.042480602860450745 1.531589077785611E-5 -0.006618557497859001 0.017034387215971947 0.004109841771423817 0.040945108979940414 0.005347910337150097 -0.0015964824706315994 0.006043728440999985 -0.03256278112530708 0.026276282966136932 -0.0012277208734303713 -0.011507047340273857 -0.005726248491555452 -0.013101477175951004 -0.003760575782507658 0.0018775846110656857 0.003623201511800289 0.018757488578557968 -0.008689669892191887 0.019145289435982704 0.012890072539448738 0.01078867632895708 0.022177990525960922 0.011019427329301834 -0.013658531941473484 0.0041190823540091515 -0.025139447301626205 -0.024547584354877472 -0.029284005984663963 0.013910913839936256 0.008233006112277508 -0.007328401319682598 0.00881786085665226 -0.013277912512421608 0.005598270799964666 0.010880643501877785 0.003500558901578188 0.009995470754802227 0.011828097514808178 -0.005392451770603657 0.004184859339147806 -0.008650610223412514 -0.0025729588232934475 0.012469226494431496 -0.01952015981078148 0.02907690405845642 0.01442257035523653 0.02349030040204525 -0.007441012188792229 0.022557998076081276 -8.520368137396872E-4 0.007385028526186943 0.025945177301764488 0.02795187011361122 0.012070042081177235 0.015079346485435963 -0.005066283047199249 0.0166168250143528 -0.002473803935572505 -0.01777457632124424 0.012345971539616585 0.011066415347158909 0.013350781053304672 0.02048249915242195 -0.0207650326192379 -0.017167750746011734 -0.015716485679149628 -0.02067350037395954 -0.003073655068874359 -0.022457310929894447 -0.019175510853528976 -0.028211725875735283 0.0023024622350931168 0.006012687925249338 0.001650506746955216 -0.009427374228835106 0.00841460283845663 -0.001921353512443602 0.015796542167663574 -0.014438456855714321 -0.007885043509304523 -0.008889079093933105 -0.005061370320618153 -0.002141619799658656
http://dbpedia.org/class/yago/WikicatAncientMathematicians 0.09966100007295609 -0.044921960681676865 0.015642136335372925 0.1152951642870903 -0.05901101604104042 -0.0568280927836895 -0.046249449253082275 0.05540882423520088 0.05774848908185959 0.06510504335165024 -0.0594390407204628 -0.009942029602825642 0.007908710278570652 0.08034195005893707 -0.0421532541513443 0.09604284912347794 0.016236141324043274 -0.016459856182336807 0.052688371390104294 -0.010980281978845596 0.07379502803087234 0.014425897039473057 -0.023872429504990578 0.04759804159402847 -0.01040215790271759 0.0391300693154335 -0.004109859466552734 0.00902243610471487 0.010276890359818935 -0.05916709452867508 0.0059378002770245075 0.00953057873994112 0.012148206122219563 -0.02271520160138607 0.031200116500258446 0.036258257925510406 0.026371076703071594 0.020845873281359673 0.061194658279418945 0.024368034675717354 -0.06000545620918274 0.00781090185046196 -0.0341729111969471 -0.08496879041194916 -0.10456658154726028 0.07566612213850021 0.020132042467594147 -0.03462720662355423 0.016578514128923416 -0.08338645845651627 -0.007255414500832558 0.01988820917904377 0.014789181761443615 0.045031726360321045 0.04330236464738846 -0.01902789995074272 -0.028528977185487747 -0.005715603474527597 -0.00837688334286213 -0.02605470083653927 -0.028969859704375267 0.06518487632274628 0.0283712949603796 0.06351611763238907 -0.0591108500957489 0.0406256765127182 -8.881522226147354E-4 0.029182201251387596 0.10288810729980469 0.10289040207862854 0.05036340281367302 0.07628598064184189 -0.05524004250764847 0.03050374984741211 -0.00811231043189764 -0.023722628131508827 0.04562566056847572 0.030445905402302742 0.0640270859003067 0.02794974111020565 -0.05340877175331116 -0.05777290463447571 -0.028903543949127197 -0.05475052818655968 7.118672947399318E-4 -0.05157234147191048 -0.03637313470244408 -0.11448553949594498 -0.007050270214676857 -0.029791170731186867 0.022716207429766655 -0.07475709915161133 0.026561258360743523 0.010966500267386436 0.0289585180580616 -0.03500921651721001 -0.07069414108991623 -0.05088606849312782 0.03652406483888626 0.021098487079143524
http://dbpedia.org/resource/Themistoclea -0.001221117447130382 0.008211573585867882 -0.0010831115068867803 -0.010354761965572834 0.01642467826604843 0.02587140165269375 0.004519594833254814 0.009527096524834633 -0.016141057014465332 0.005332724656909704 0.004150747787207365 0.02556789107620716 0.041916195303201675 -0.0024197788443416357 0.007270295172929764 -0.03845691308379173 -0.011060655117034912 3.5345679498277605E-4 -0.08061092346906662 0.004218401852995157 -0.03168680891394615 -0.016065632924437523 -0.0038937286008149385 -0.004986366257071495 0.05568297579884529 -0.031971950083971024 0.004411395639181137 0.013574868440628052 0.004731436725705862 0.036051925271749496 0.004642612300813198 0.02259785868227482 -0.004269708879292011 -0.010758668184280396 -0.021474801003932953 -0.019001401960849762 -0.012304797768592834 -0.012889286503195763 -0.01914971135556698 -0.004204225726425648 0.024473991245031357 0.0077792624942958355 0.032621074467897415 0.036153893917798996 0.008786230348050594 -0.023851288482546806 0.011028921231627464 -0.010750670917332172 -0.005240368656814098 -0.006522484123706818 -0.018848765641450882 0.010652799159288406 0.008702646940946579 -0.022657517343759537 -0.009079812094569206 0.011973763816058636 0.013040374033153057 0.02310081757605076 0.006268102675676346 -0.03499051183462143 0.007017430849373341 0.027384573593735695 -0.007268405985087156 0.02535533346235752 -0.003415086306631565 -0.03299107402563095 -0.01840062066912651 0.02361825481057167 0.013093888759613037 0.0012287170393392444 -0.03769085183739662 0.001065015560016036 -0.04731089994311333 -0.018428007140755653 0.020595993846654892 -0.029978975653648376 -0.04483368992805481 0.007543792482465506 -7.468269905075431E-4 -0.016460619866847992 0.026392022147774696 0.00798584520816803 0.0016737970290705562 0.01165086030960083 0.026645097881555557 0.007867466658353806 0.02219589613378048 0.03507758677005768 -0.019575797021389008 -0.026969697326421738 0.01604151725769043 0.002405092353001237 0.052733324468135834 0.031553108245134354 0.005574819166213274 0.03809984773397446 0.014403518289327621 0.015909267589449883 0.035223010927438736 0.008044148795306683
