1344 100 40000
http://dbpedia.org/resource/Category:260s_BC_deaths -0.12667644023895264 -0.04351293668150902 0.018715007230639458 -0.13235321640968323 0.06385014206171036 0.027522018179297447 0.18175746500492096 -0.05289257690310478 0.027927251532673836 0.027516910806298256 -0.04948245361447334 -0.020181972533464432 -0.027001138776540756 -0.00549318827688694 -0.0636352151632309 0.06507936865091324 0.05495074391365051 0.018699388951063156 0.006975570227950811 0.027722647413611412 0.08916034549474716 -0.06110362708568573 -0.03796301782131195 0.016346914693713188 0.041403837502002716 0.03583257645368576 0.006635298021137714 -0.006639973726123571 -0.030327167361974716 -0.02121048793196678 0.009092414751648903 0.016502901911735535 -0.010802122764289379 0.012375862337648869 0.019274229183793068 0.0338875949382782 0.032335247844457626 0.011080526746809483 0.03683537617325783 0.017979776486754417 -0.03185807168483734 -0.006576680112630129 -0.03233872726559639 -0.060471467673778534 -0.030534710735082626 0.055051736533641815 -0.009495106525719166 0.04019094258546829 0.009388044476509094 0.02613486535847187 0.05492744222283363 -0.040411658585071564 0.0045723882503807545 -0.007933042012155056 0.01824127323925495 -0.0085058081895113 -0.003889446845278144 0.029919004067778587 -0.0028342807199805975 -0.03166642040014267 -0.058020930737257004 0.021129030734300613 0.029744500294327736 0.022804193198680878 -0.01186741515994072 0.0747518390417099 -0.037752602249383926 -0.0033390114549547434 4.136401694267988E-4 0.028807247057557106 -0.01274166814982891 0.030492983758449554 -0.005750872660428286 0.012409956194460392 -0.02638624608516693 0.03341449797153473 0.014337582513689995 0.005878706928342581 0.03160480409860611 0.023536399006843567 -0.04763459786772728 -0.0014788371045142412 -0.013860965147614479 -0.03704181686043739 0.013818776234984398 -0.02494966797530651 -0.02086714282631874 -0.06270496547222137 -4.0753232315182686E-4 -0.003979238215833902 -0.005157053470611572 -0.060263194143772125 0.053693562746047974 -0.0029296937864273787 0.037278879433870316 -0.021583380177617073 -0.012392815202474594 -0.027218719944357872 0.020996853709220886 -0.009749419055879116
http://dbpedia.org/resource/Quintilian -0.0454862043261528 -0.013969171792268753 0.00711420550942421 -0.037301138043403625 0.020987655967473984 0.011117395013570786 0.055594220757484436 -0.02268883027136326 0.002030491828918457 7.230446790345013E-4 -0.013876759447157383 -0.01383197121322155 -0.015741677954792976 -0.016552485525608063 -0.019997339695692062 0.013090468943119049 0.021169045940041542 0.012167468667030334 -0.01527370885014534 0.020752951502799988 0.022748850286006927 -0.02528480999171734 -0.0029619610868394375 -0.01050268579274416 0.03212272748351097 -4.838963504880667E-4 1.7920642858371139E-4 -0.01562555320560932 -0.014074713923037052 0.012468171305954456 -0.008574260398745537 0.0022355210967361927 -0.005805125460028648 0.024511491879820824 -0.01794036477804184 -0.00958200078457594 -0.002096353331580758 -0.015981877222657204 -0.006885829847306013 0.01369301788508892 -8.672022959217429E-4 -0.0024915807880461216 0.0023939977400004864 0.005862436257302761 0.00421255873516202 0.0032644979655742645 -0.005618546158075333 0.018033398315310478 -0.002509169280529022 0.014963604509830475 0.013198275119066238 -0.007213328965008259 -2.4569506058469415E-4 -0.009560634382069111 -0.003785122884437442 -0.006852164398878813 6.73035392537713E-4 0.010066068731248379 -4.194850625935942E-4 -0.016908282414078712 -0.010350985452532768 0.010996818542480469 0.002297955797985196 0.007321290206164122 0.012010261416435242 0.007129307836294174 -0.014757934026420116 0.0061410521157085896 -0.007067352533340454 -0.012931380420923233 -0.02845728024840355 0.0014642003225162625 0.0016740607097744942 -7.113163592293859E-4 -0.013031349517405033 0.027426712214946747 -0.00812537781894207 -0.01886584982275963 0.0101438257843256 -0.0042801061645150185 -0.007196491118520498 0.027021333575248718 -0.005699579603970051 -9.359682444483042E-4 0.008858107961714268 0.004420614335685968 0.009137816727161407 0.010423307307064533 -0.0014030452584847808 -0.005590703804045916 9.121829643845558E-4 -0.014876757748425007 0.06055429205298424 0.023036284372210503 0.04675503447651863 0.00473451754078269 -0.0070549845695495605 0.004658401012420654 0.037650465965270996 -0.011739385314285755
http://dbpedia.org/resource/Thomas_Taylor_(neoplatonist) -0.022746365517377853 0.011767388321459293 -0.011710078455507755 -0.012356034480035305 0.03673529997467995 0.03792297840118408 0.05088578909635544 -0.027424419298768044 -0.04423549771308899 -0.017704451456665993 -0.008393005467951298 0.02808484435081482 0.010974768549203873 -0.05029283091425896 -0.05662212148308754 -0.014971427619457245 0.017619045451283455 0.016085930168628693 -0.08704430609941483 0.038316551595926285 -0.005197379272431135 -0.044355642050504684 -0.00815767515450716 -0.02172127179801464 0.07599911093711853 -0.03399714455008507 -9.400527342222631E-4 -0.008854971267282963 -0.0394589863717556 0.04959418624639511 -0.006546718068420887 0.026848895475268364 -0.01799422688782215 -0.014784364029765129 -0.006897564046084881 -0.02045861817896366 0.004094068426638842 -0.0035027731209993362 -0.05173707753419876 -0.018054993823170662 0.02071293443441391 0.0017319016624242067 -0.02335413545370102 0.027476651594042778 0.022311175242066383 -0.007632086053490639 -0.02248593233525753 0.04555312544107437 -0.008290402591228485 0.03941241651773453 0.02006698213517666 -0.012364120222628117 -0.002123296959325671 -0.029931453987956047 -0.01753947325050831 0.009395075030624866 4.129931621719152E-4 0.02082878164947033 0.00289778015576303 -0.02367427758872509 0.011985343880951405 0.026023495942354202 -0.009407734498381615 0.015806637704372406 0.005656087771058083 -0.04392208904027939 0.007863983511924744 0.021895943209528923 0.02681528776884079 -0.004279171582311392 -0.03163326159119606 -0.00487310066819191 -0.01342243142426014 -0.009004902094602585 0.01467766985297203 -0.027671417221426964 -0.042603906244039536 -0.0010137497447431087 -0.014697737991809845 -0.01616564206779003 0.031070716679096222 0.03834361582994461 -0.018835462629795074 0.03842960298061371 0.03277838975191116 0.018845655024051666 0.022761693224310875 0.0701768770813942 -0.017141040414571762 -0.012337415479123592 0.016195356845855713 -0.007390549872070551 0.12925808131694794 0.0614742711186409 0.07877650856971741 0.06775201112031937 0.040264423936605453 0.02575870417058468 0.08466134965419769 -0.05251828953623772
http://dbpedia.org/resource/Category:270s_BC_deaths -0.03681022301316261 -0.015027645975351334 0.011112487874925137 -0.038347672671079636 0.02455304190516472 0.01625039614737034 0.07353475689888 -0.01041373796761036 0.010155479423701763 0.015389920212328434 -0.010593166574835777 -0.004125628154724836 0.0033561650197952986 7.460126653313637E-4 -0.03176238387823105 0.02377934567630291 0.004783811513334513 -0.006924858316779137 -0.027185238897800446 0.012618956156075 0.03258374333381653 -0.033866528421640396 -0.017174480482935905 0.00990881584584713 0.028406290337443352 -0.0038257031701505184 0.0060201119631528854 0.012282615527510643 -0.01615631766617298 0.002814190462231636 0.002699044765904546 0.011368313804268837 1.1994561646133661E-4 0.0025566357653588057 0.0017496930668130517 0.010946134105324745 0.00487402081489563 0.011856647208333015 0.014516845345497131 0.005044198129326105 -0.007994454354047775 -0.002878796309232712 -0.028583891689777374 -0.016250748187303543 -0.0014285326469689608 0.008451104164123535 -0.006493689958006144 0.02354050986468792 3.8482772652059793E-4 0.015706192702054977 0.00816798023879528 -0.008354153484106064 -0.004968650173395872 -0.00375639577396214 -0.001788955763913691 2.946224412880838E-4 0.005487596150487661 0.02655889093875885 0.005346834193915129 -0.024137869477272034 -0.008909099735319614 0.03144197538495064 0.007081962190568447 0.02943306230008602 -0.008947311900556087 -0.01820794865489006 -0.009240002371370792 0.021632039919495583 0.02170781046152115 0.015161620453000069 -0.018915824592113495 0.011050177738070488 -0.023240167647600174 -3.8751703687012196E-4 0.003715623402968049 -0.013849860057234764 -0.012012781575322151 0.005988988094031811 0.008615978993475437 3.667516866698861E-4 0.004875021521002054 0.003861144883558154 -0.006304817274212837 0.0016785473562777042 0.012019540183246136 -0.011764682829380035 -0.007212396245449781 4.8193702241405845E-4 -0.005559995770454407 -0.01714293658733368 0.01706063002347946 -0.010308830998837948 0.044218119233846664 0.0023007213603705168 0.02014785446226597 -0.0015695493202656507 0.009441914036870003 -0.019358964636921883 0.010877028107643127 -0.02084364742040634
http://dbpedia.org/ontology/mainInterest -0.20580172538757324 0.01932847686111927 -0.1982383131980896 -0.11203202605247498 0.09132126718759537 0.02541894093155861 0.1937888115644455 -0.32912132143974304 -0.1270974576473236 -0.09997836500406265 -0.2650693655014038 0.06551509350538254 -0.12015077471733093 -0.05192190408706665 0.04749418795108795 0.008452525362372398 0.023058760911226273 0.01734059676527977 0.2030951827764511 -0.0720132365822792 0.1313006728887558 0.09100297093391418 0.03883742168545723 -0.0037892917171120644 -0.09559322148561478 0.1162843108177185 -0.005873271729797125 -0.08477228134870529 0.016120662912726402 0.18284201622009277 -0.02204994298517704 0.03144527226686478 -0.1976560354232788 0.12182256579399109 8.961600833572447E-4 0.07894788682460785 0.15081515908241272 -0.13490760326385498 -0.1802477091550827 0.08889155089855194 0.09917216747999191 -0.04585700482130051 -0.042418550699949265 0.07784698903560638 0.17256420850753784 -0.22068743407726288 0.056190375238657 -0.17377862334251404 -0.07734792679548264 -0.035458654165267944 -0.15199226140975952 0.15198275446891785 0.00825722236186266 -0.006199199240654707 -0.10225334018468857 0.07525809109210968 0.04272753372788429 -0.052179671823978424 0.06578851491212845 0.01911267265677452 -0.0024559227749705315 0.10249464958906174 -0.06877516210079193 0.08265766501426697 0.053603895008563995 -0.3081681728363037 -0.07082931697368622 0.19981980323791504 -0.10042964667081833 -0.15016795694828033 -0.300046443939209 -0.07145833224058151 0.02679695002734661 -0.04220441356301308 0.01556968130171299 0.13238604366779327 0.13913175463676453 -0.05305735021829605 -0.04858500510454178 0.010813531465828419 0.026056041941046715 -0.06685860455036163 0.06959044188261032 0.0019173210021108389 -0.01053487230092287 0.02756081521511078 -0.13814543187618256 0.01876104809343815 0.008929070085287094 -0.007344503421336412 0.0314711332321167 0.19999809563159943 -0.3682098388671875 -0.08328095078468323 -0.13000784814357758 -0.125931978225708 -0.33973026275634766 -0.04695067182183266 -0.43033546209335327 0.33870747685432434
http://dbpedia.org/resource/Category:3rd-century_Greek_people -2.4797976948320866E-5 0.008766992948949337 -0.015110033564269543 0.00932371336966753 0.005767317488789558 0.014620383270084858 0.0010589032899588346 -0.014538085088133812 -0.017956573516130447 -0.013316657394170761 0.0017358365003019571 0.0077877407893538475 0.008755502291023731 -0.029479969292879105 -0.015034519135951996 -0.024743057787418365 0.003068396355956793 0.009046602062880993 -0.04461992532014847 0.010074524208903313 -0.028647713363170624 -0.009403159841895103 0.002808718476444483 -0.015194684267044067 0.02791762351989746 -0.027325741946697235 0.0013230795739218593 -0.007196845021098852 -0.01451492216438055 0.02725999988615513 -0.006739950738847256 0.01478714682161808 -0.007651712745428085 -0.003372351173311472 -0.005438835825771093 -0.01050319243222475 0.0023139179684221745 -0.012235090136528015 -0.031101210042834282 -0.0022030831314623356 0.013304569758474827 -0.0040260800160467625 0.0036625461652874947 0.023585977032780647 0.01767285168170929 -0.012837872840464115 -0.005595135968178511 0.011440037749707699 -0.005437157116830349 0.012014629319310188 0.006773308850824833 0.0013146020937711 0.0012263202806934714 -0.014265371486544609 -0.011478948406875134 0.0069254133850336075 -0.001732348115183413 0.010703874751925468 0.0070357127115130424 -0.006128143984824419 0.01103128306567669 -0.0016761128790676594 -0.004673220682889223 -0.0022491898853331804 0.00458559300750494 -0.011482002213597298 -1.788086083251983E-4 0.002551151905208826 0.0033986493945121765 -0.003612480591982603 -0.010098230093717575 -0.0018295334884896874 -0.004797909874469042 -0.013150450773537159 0.00766292167827487 -0.015049314126372337 -0.031183961778879166 -0.0035623980220407248 -0.005485258996486664 -0.015156079083681107 0.01853368990123272 0.026766235008835793 -0.009372921660542488 0.02166837640106678 0.012827320024371147 0.009960758499801159 0.013069747015833855 0.04072971269488335 -0.0049090152606368065 -0.004529174417257309 -0.0010120481019839644 -8.748853579163551E-4 0.030459294095635414 0.02610836550593376 0.017113519832491875 0.02929159253835678 0.014951266348361969 0.01926850713789463 0.022289564833045006 -0.018099766224622726
http://dbpedia.org/resource/Syllogism -0.044939834624528885 3.167213872075081E-4 -0.008265509270131588 -0.04309336096048355 0.0381043441593647 0.025370532646775246 0.06757393479347229 -0.03827937692403793 -0.017684342339634895 -0.004891818854957819 -0.026311829686164856 0.008046490140259266 -0.005295201670378447 -0.030872346833348274 -0.04357052221894264 0.009100150316953659 0.01971123367547989 0.017587080597877502 -0.03515294939279556 0.024564241990447044 0.0037893387489020824 -0.03133319690823555 -0.015167394652962685 -0.012744798325002193 0.02869397960603237 -0.010017871856689453 0.001122019370086491 -0.002280721440911293 -0.02661876380443573 0.02825131081044674 0.002012187149375677 0.014750448986887932 -0.01593511737883091 -0.005079235415905714 -0.0056192874908447266 -0.016826573759317398 0.009263909421861172 -0.003246984677389264 -0.02476120926439762 -0.0025241710245609283 0.0019285388989374042 -0.005163943395018578 -0.007600015960633755 0.010081367567181587 0.00804054830223322 -0.00513091403990984 -0.01101334486156702 0.01817093789577484 0.0018645175732672215 0.025188004598021507 0.010771128349006176 -0.007790856063365936 9.050374501384795E-4 -0.020063433796167374 -0.007446998730301857 0.006285609677433968 0.00540359178557992 0.01486150547862053 -0.0020451571326702833 -0.01008143462240696 -0.019292354583740234 -0.009965126402676105 0.005648840218782425 -0.0037598260678350925 0.009497877210378647 0.02550703100860119 -0.01382515113800764 -0.014442643150687218 -0.011940541677176952 -0.010734274983406067 -0.01383659616112709 -0.005509214475750923 0.012694451957941055 0.004998596850782633 -0.01002262718975544 0.01977134682238102 0.005710539408028126 -0.009322288446128368 -0.012895606458187103 -0.00366130075417459 0.003635209985077381 0.010509800165891647 -0.004206398501992226 0.0051285456866025925 0.014132356271147728 0.003293809946626425 -6.634973105974495E-4 0.01529909111559391 0.00195861142128706 0.0057970499619841576 -0.006672929972410202 0.0013724996242672205 0.043309856206178665 0.019354956224560738 0.021262207999825478 0.015736913308501244 0.011171085759997368 -0.0012888158671557903 0.013542854227125645 -0.01376214437186718
http://dbpedia.org/resource/Category:200s_BC_deaths -0.07691124826669693 -0.02152089960873127 0.014142708852887154 -0.08143538981676102 0.04582001268863678 0.026488399133086205 0.12157362699508667 -0.03872673586010933 0.001453889417462051 0.017095208168029785 -0.03537357971072197 -6.591627607122064E-4 -0.01754872314631939 -0.002644957508891821 -0.041505005210638046 0.03470856323838234 0.02222188003361225 0.0046532792039215565 -0.010889098048210144 0.01854347065091133 0.04490266740322113 -0.04087290167808533 -0.023127101361751556 0.0023107293527573347 0.021257787942886353 0.0012071840465068817 0.004803595598787069 0.004569494165480137 -0.016248391941189766 -0.0015108847292140126 0.007978023029863834 0.008248896338045597 -0.002396251540631056 0.017019758000969887 0.0018219741759821773 0.014951197430491447 0.012970088981091976 0.005395808722823858 0.023723457008600235 0.01902196742594242 -0.01861989125609398 -2.7209363179281354E-4 -0.012417515739798546 -0.028427492827177048 -0.0033666519448161125 0.01237280573695898 -0.0071936361491680145 0.01403278298676014 0.010806565172970295 0.0204006340354681 0.016113221645355225 -0.014314914122223854 0.00130109500605613 -0.003853294998407364 -4.078641068190336E-4 -0.004041499458253384 -0.0017921142280101776 0.023225219920277596 -0.005181184504181147 -0.010694112628698349 -0.03815971687436104 0.00811920315027237 0.01982668787240982 0.0031957372557371855 -0.0015086564235389233 0.05450697988271713 -0.020852331072092056 -0.0105902049690485 -0.013086549937725067 0.014308840967714787 -0.007907631807029247 0.017930790781974792 0.004997769836336374 0.013178077526390553 -0.012993360869586468 0.030926818028092384 0.021472280845046043 -3.273003385402262E-4 0.011895401403307915 0.007500617299228907 -0.02308216318488121 -0.013846379704773426 -0.002287469571456313 -0.016488047316670418 -1.9000403699465096E-4 -0.019294628873467445 -0.01587953232228756 -0.031499478965997696 0.01026634406298399 0.009240986779332161 -0.006958595477044582 -0.017542235553264618 0.026798613369464874 -0.009548823349177837 0.008294988423585892 -0.007592215668410063 0.0018071398371830583 -0.014940667897462845 -0.015388250350952148 -6.232629530131817E-4
http://dbpedia.org/resource/Logos -0.0961913987994194 -0.01858999952673912 -0.014046775177121162 -0.0835435763001442 0.05765483155846596 0.03638966754078865 0.1338382363319397 -0.0713656023144722 -0.018244411796331406 -0.014489026740193367 -0.04423169046640396 0.005309221334755421 -0.016392240300774574 -0.06278793513774872 -0.06753753870725632 0.011215250007808208 0.05465918406844139 0.036496471613645554 -0.05568423494696617 0.0388822928071022 0.030098479241132736 -0.06443241983652115 -0.011906134895980358 -0.02600874751806259 0.06659244000911713 -0.014579350128769875 5.121090216562152E-4 -0.018006784841418266 -0.050051797181367874 0.05186343938112259 -0.0012170366244390607 0.02946627326309681 -0.03315047174692154 -0.0034966054372489452 3.4414883702993393E-4 -0.009471045807003975 0.027411216869950294 -0.01934528537094593 -0.038511909544467926 0.008748487569391727 -6.094819400459528E-4 -0.006439197342842817 -0.008657685481011868 -8.76671401783824E-5 0.00766946142539382 0.023017551749944687 -0.010410083457827568 0.03241197392344475 -0.001367820193991065 0.04509073495864868 0.04757094383239746 -0.030380457639694214 0.0033229198306798935 -0.02811579592525959 0.005989122670143843 -0.006861328613013029 1.3717229012399912E-4 0.029453787952661514 -0.0040074922144412994 -0.02852168120443821 -0.04507584124803543 -0.003659486072137952 0.020020142197608948 -0.0016182370018213987 0.023586159572005272 0.07485631853342056 -0.03855610266327858 -0.023193061351776123 -0.02755124866962433 -0.014098838903009892 -0.03749546408653259 0.0018726045964285731 0.014118211343884468 -0.0010713150259107351 -0.01955004781484604 0.04163099080324173 -0.002779183443635702 -0.02816607803106308 6.311405741143972E-5 0.005956920329481363 -0.012043469585478306 0.01989215426146984 -0.016202615574002266 0.007229994051158428 0.01706155762076378 -0.0055131735280156136 0.011753524653613567 0.015276746824383736 0.011319762095808983 0.01462065614759922 -0.01998579315841198 -0.024715431034564972 0.05563269555568695 0.021117690950632095 0.03105442225933075 0.012807539664208889 -0.006891957484185696 0.011668850667774677 0.03282832354307175 -0.010819417424499989
http://dbpedia.org/resource/Photios_I_of_Constantinople -0.05706745386123657 0.0014246721984818578 -0.008116369135677814 -0.039087578654289246 0.05093040317296982 0.03873205929994583 0.09220103174448013 -0.05128270387649536 -0.03315568342804909 -0.011619377881288528 -0.04155267775058746 0.013941442593932152 -0.007908781059086323 -0.046881258487701416 -0.05645723268389702 0.009679121896624565 0.03682193532586098 0.0254050400108099 -0.04902074858546257 0.03548378497362137 0.029265908524394035 -0.05095967650413513 -0.012696869671344757 -0.012265908531844616 0.0617961585521698 -0.012276691384613514 -0.0014324034564197063 -0.025124622508883476 -0.022283097729086876 0.04866023361682892 -0.006745657883584499 0.015414208173751831 -0.01968400739133358 0.044218335300683975 -0.04752004146575928 -0.017374075949192047 0.003764284308999777 -0.030118636786937714 -0.05928696319460869 0.017907746136188507 0.02333766780793667 0.005743409041315317 -0.007506794296205044 0.037871815264225006 0.027065273374319077 -0.008042911998927593 -0.00994838122278452 0.0313895158469677 -0.004633208271116018 0.024075688794255257 0.024388741701841354 -0.004480090457946062 0.008205200545489788 -0.020733032375574112 -0.006308159325271845 0.0027325355913490057 0.011057863011956215 0.0035759941674768925 0.0071668559685349464 -0.023694276809692383 -0.002085992367938161 0.016572972759604454 -0.0116659514605999 0.007753477431833744 0.03343259170651436 -0.04861026257276535 -0.026226885616779327 0.026450777426362038 -0.006888788193464279 -0.033395860344171524 -0.06408988684415817 -0.013165272772312164 0.024464892223477364 0.001091154757887125 -0.010025419294834137 0.058341652154922485 -0.012265552766621113 -0.06223861128091812 0.0020672501996159554 -0.014864630997180939 0.0085262730717659 0.05075820907950401 6.676213233731687E-4 0.023641441017389297 0.008314861916005611 0.014631746336817741 0.016675960272550583 0.055161766707897186 -0.002742028096690774 0.003174092387780547 -0.001973825739696622 0.011468686163425446 0.12639175355434418 0.0690440982580185 0.09878627955913544 0.03586125001311302 -0.021532263606786728 0.006640852428972721 0.07039311528205872 -0.03515243157744408
http://ar.dbpedia.org/resource/???????? -0.06424301862716675 -0.00241058855317533 -0.04425425827503204 -0.053611110895872116 0.01784840039908886 0.004092573653906584 0.03504862263798714 -0.06699411571025848 -0.033534739166498184 -0.043286338448524475 -0.010804407298564911 -0.0032034553587436676 -0.020143641158938408 -0.0785452201962471 -0.0033649569377303123 -0.04708395525813103 0.018360836431384087 0.03891563415527344 -0.05855068191885948 0.01174925733357668 -0.05500762537121773 0.01195130217820406 0.022977283224463463 -0.05546555295586586 0.02416878193616867 -0.03325553983449936 -0.003937788773328066 -0.034510400146245956 0.007085992954671383 0.0642535388469696 -0.018792513757944107 -0.00771639309823513 -0.004094898700714111 0.03007042407989502 -0.03325969725847244 -0.026526207104325294 -0.019903695210814476 -0.03972320258617401 -0.023013567551970482 0.026296298950910568 0.02685675024986267 0.0012746370630338788 0.04808756336569786 0.05487968772649765 0.06168067827820778 -0.03757772594690323 -0.016195954754948616 0.005402679089456797 -0.017792074009776115 0.04142699018120766 -0.013536070473492146 0.017632214352488518 -0.010304541327059269 -0.041718147695064545 -0.031457193195819855 0.008394690230488777 0.0033552718814462423 -0.002840865170583129 0.006202918477356434 0.003728029550984502 0.0013483250513672829 -0.04496035352349281 -0.008993327617645264 -0.050450269132852554 0.03964972123503685 0.05950114130973816 -0.008463929407298565 -0.05641276389360428 -0.033455800265073776 -0.03061366081237793 -0.012291133403778076 -0.019993716850876808 0.0014221234014257789 -0.026235712692141533 0.016457419842481613 -0.009351041167974472 -0.05425391346216202 -0.03230653703212738 -0.03902548924088478 -0.04149661958217621 0.05513903126120567 0.06266345083713531 -0.0037068442907184362 0.054561927914619446 -0.003977506421506405 0.04160652309656143 0.038939133286476135 0.11461039632558823 0.02209937386214733 0.035153575241565704 -0.036515235900878906 0.034576166421175 -0.002793258288875222 0.04177271947264671 -0.003234219504520297 0.06301187723875046 0.018936851993203163 0.049601223319768906 -0.030343640595674515 0.017756883054971695
http://ml.dbpedia.org/resource/???????? -0.00944562628865242 0.01002353522926569 -0.033223219215869904 0.005733980797231197 0.0013098560739308596 0.0012310708407312632 -0.003609872655943036 -0.04266442358493805 -0.03019954450428486 -0.030347978696227074 -0.014639344066381454 0.0037372971419245005 -0.0029839170165359974 -0.03412395343184471 0.011568693444132805 -0.04005736485123634 -0.0016245911829173565 0.014840666204690933 -0.021035436540842056 0.00297321449033916 -0.045990075916051865 0.010957170277833939 0.014288193546235561 -0.026434002444148064 0.007397005800157785 -0.022791003808379173 -0.0028192270547151566 -0.015949372202157974 -0.008391802199184895 0.06321307271718979 -0.0057980576530098915 0.005483349319547415 -0.0314546674489975 -3.711528843268752E-4 -0.014391438104212284 -0.024486340582370758 0.0146554009988904 -0.03067013807594776 -0.0590062215924263 0.004231597762554884 0.02756221406161785 -0.001976324710994959 0.01676810532808304 0.04025616496801376 0.05659959465265274 -0.06443814933300018 0.0055069709196686745 -0.02158532850444317 -0.01831299252808094 0.019454898312687874 -0.02737976610660553 0.027990523725748062 -0.0022474785801023245 -0.02237212471663952 -0.035319071263074875 0.015095320530235767 0.013364925980567932 0.0022810744121670723 0.013051562942564487 4.937499761581421E-4 -0.001155460369773209 -3.473023243714124E-4 -0.01722010411322117 0.005098771769553423 0.025796540081501007 -0.029769299551844597 -0.015042588114738464 0.008587992750108242 -0.027355888858437538 -0.03828611969947815 -0.049928151071071625 -0.015312949195504189 -2.838492509908974E-4 -0.018551712855696678 0.005094649735838175 0.009332605637609959 -0.014522289857268333 -0.006033347453922033 -0.01535628642886877 -0.007824567146599293 0.022984886541962624 0.010056384839117527 0.007813380099833012 0.02101481705904007 0.0010151707101613283 0.019239816814661026 0.012430766597390175 0.03799130395054817 -2.9205039027146995E-4 -0.0018745189299806952 9.038511198014021E-4 0.02350112795829773 -0.060740698128938675 -0.014185886830091476 -0.03612757846713066 -0.0020066385623067617 -0.01195957139134407 0.018163170665502548 -0.04258108139038086 0.03131765499711037
http://dbpedia.org/resource/Friedrich_Nietzsche -0.009648460894823074 0.024079369381070137 -0.041567012667655945 0.01803424581885338 0.029422029852867126 0.022051014006137848 0.03511291369795799 -0.060092680156230927 -0.04290423542261124 -0.02473185397684574 -0.0360880047082901 0.027086446061730385 0.00994530413299799 -0.03659624233841896 -0.025775305926799774 -0.017467867583036423 0.0041111609898507595 0.008400395512580872 -0.05153748020529747 0.012355602346360683 -0.014889503829181194 -0.018717098981142044 1.2630036508198828E-4 -0.01557893492281437 0.04306328296661377 -0.027284082025289536 -0.003166401293128729 -0.013346544466912746 -0.04611336439847946 0.08724796026945114 -0.010170985944569111 0.04370769113302231 -0.05844439938664436 -0.0321400910615921 0.014760449528694153 -0.01712617091834545 0.05324169248342514 -0.02003416419029236 -0.10540224611759186 -0.0166216678917408 0.04212397709488869 -0.00985786598175764 -0.0317823588848114 0.03604522719979286 0.07070235908031464 -0.07091235369443893 1.6145237896125764E-4 -0.013460681773722172 -0.024665337055921555 0.031126772984862328 -0.01613898202776909 0.017404776066541672 -2.583461900940165E-5 -0.034430548548698425 -0.0316295325756073 0.021100236102938652 0.01885838434100151 0.018534192815423012 0.009274755604565144 -0.016127794981002808 -0.0061256480403244495 0.052546098828315735 -0.01460709422826767 0.04489418491721153 0.010604897513985634 -0.10199282318353653 -0.030497537925839424 0.07233580946922302 -0.009832397103309631 -0.03426022455096245 -0.10011179745197296 -0.01963917165994644 -0.019319457933306694 -0.018340401351451874 0.007271735928952694 0.005591961555182934 -0.015779606997966766 0.012231138534843922 -0.006740753538906574 -0.009867965243756771 0.02059733308851719 0.008771511726081371 -0.003956661559641361 0.013694733381271362 0.030720561742782593 0.009121296927332878 -0.003403655020520091 0.024591732770204544 -0.029623733833432198 -0.025789890438318253 0.03762388601899147 0.0029024567920714617 0.004247233737260103 0.01151276845484972 0.007945352233946323 0.004172682296484709 -0.03300153464078903 0.008883130736649036 0.0068713896907866 0.011380121111869812
http://dbpedia.org/resource/Euclid's_Elements 0.006919130217283964 0.0120994346216321 0.011628774926066399 0.0122075779363513 0.003417433239519596 0.014686482958495617 0.010781975463032722 0.009789622388780117 0.0033692659344524145 0.014379473403096199 0.007135280407965183 4.0064682252705097E-4 0.004756178706884384 0.01303202286362648 -0.0019975213799625635 0.004832718521356583 -0.009950042702257633 -0.015254417434334755 -0.0027439240366220474 -0.0050501530058681965 0.005458820145577192 -0.006102502346038818 -0.009935710579156876 0.01477333065122366 0.001540449564345181 -0.004325371701270342 -0.0012910733930766582 0.004597245715558529 -0.0014474168419837952 -0.007731080520898104 -0.0036636979784816504 -0.00754143949598074 0.006415388081222773 0.008498442359268665 0.004651360213756561 0.01071859523653984 0.0030524854082614183 0.009932475164532661 0.0169871523976326 0.008753472939133644 -0.010306295938789845 0.0024233798030763865 -0.003674992360174656 -0.01274603046476841 -0.0011748920660465956 -0.0054284147918224335 0.0024928583297878504 -0.00704451696947217 -3.8819992914795876E-4 -0.009481063112616539 -0.002564991358667612 -0.0026282016187906265 -0.0056806569918990135 0.014294208958745003 0.0018788317684084177 -0.0034056352451443672 0.0013626472791656852 -0.0018183260690420866 -0.002184626879170537 0.0015165865188464522 -0.0035797839518636465 0.004356329329311848 -0.0021705450490117073 0.005257164593786001 -4.5351634616963565E-4 -0.005788866896182299 0.0015278153587132692 0.008675467222929 9.74449678324163E-4 0.0015542458277195692 -0.0036412635818123817 -2.9355695005506277E-4 0.0018284707330167294 0.00639194855466485 1.9845698261633515E-4 4.358345177024603E-4 0.00723634846508503 0.003651507431641221 0.0053042336367070675 -0.0020939616952091455 -0.005897017195820808 -0.0070825666189193726 0.004272011108696461 -0.009318938478827477 -0.0017037888756021857 -0.003344510216265917 -0.011556104756891727 -0.015739068388938904 -0.002749205566942692 -0.010690223425626755 0.0028839230071753263 -0.006315975915640593 0.0446297861635685 0.01880733296275139 0.03044910542666912 7.897291798144579E-4 0.009761459194123745 -0.006170149426907301 0.031216131523251534 -0.021551141515374184
http://dbpedia.org/resource/Commentaries_on_Aristotle -0.030564436689019203 -6.872945232316852E-5 -0.0020337046589702368 -0.028495043516159058 0.031933873891830444 0.031214088201522827 0.05337356775999069 -0.021552227437496185 -0.02423960343003273 -0.0030562812462449074 -0.018397817388176918 0.012870341539382935 0.008844844065606594 -0.02813027799129486 -0.04612093046307564 0.011473942548036575 0.027395905926823616 0.012701493687927723 -0.04477906972169876 0.029196545481681824 0.020828235894441605 -0.0356312021613121 -0.01697625406086445 -0.002813129685819149 0.043472375720739365 -0.012856545858085155 7.574197952635586E-4 -0.0033271946012973785 -0.02618294395506382 0.021862732246518135 -0.0018896647961810231 0.02016785554587841 -0.014929385855793953 -0.013957912102341652 0.007523258216679096 -3.1988974660634995E-4 0.0203548576682806 4.785892670042813E-4 -0.031821660697460175 -0.01285560429096222 0.00597116444259882 -0.008323905058205128 -0.019460933282971382 0.00594007782638073 0.0034225797280669212 0.0068717049434781075 -0.015500010922551155 0.027622513473033905 -1.759665901772678E-4 0.0238187313079834 0.025584988296031952 -0.021027468144893646 0.005717069376260042 -0.015317189507186413 -0.0037937751039862633 0.0012204903177917004 0.0028962823562324047 0.01829501800239086 -0.002046220935881138 -0.015696218237280846 -0.004816783592104912 0.013509890995919704 0.006482976488769054 0.017870303243398666 0.0028938190080225468 -0.0156421922147274 -0.009108174592256546 0.013830559328198433 0.016236573457717896 -2.953389484900981E-4 -0.021166378632187843 6.424098392017186E-4 -0.005331169813871384 -0.0023714154958724976 -0.004737188573926687 -4.665924934670329E-4 -0.016631275415420532 -0.0029716063290834427 0.0015745076816529036 -0.0012736660428345203 0.005833393894135952 0.007555324584245682 -0.014545856975018978 0.008177229203283787 0.017433039844036102 0.005838734097778797 0.0063551440834999084 0.01242654025554657 -0.004634700249880552 -0.005172750446945429 0.009142001159489155 -0.01390115823596716 0.0800263062119484 0.027427995577454567 0.04628584161400795 0.017335254698991776 0.01215257216244936 0.008641974069178104 0.057120610028505325 -0.03480060026049614
http://dbpedia.org/resource/Andronicus_of_Rhodes -0.10214705765247345 -0.08745086193084717 0.11892177164554596 -0.12053290754556656 0.0306070726364851 -0.011698350310325623 0.1101299300789833 0.020005498081445694 0.05791733041405678 0.01865071803331375 0.1102287620306015 -0.07931999862194061 -0.031091388314962387 -0.07034630328416824 0.012500207871198654 -0.06539416313171387 -0.03349487856030464 0.02918323129415512 -0.14605829119682312 0.040799740701913834 -0.11444973200559616 0.023164834827184677 0.002221756149083376 -0.05651155859231949 -0.013458171859383583 -0.09219806641340256 0.007596240378916264 0.0037390347570180893 0.0420723557472229 0.009222588501870632 -0.038193318992853165 -0.11086872965097427 0.13168224692344666 0.15764515101909637 -0.17785854637622833 -0.0815911665558815 -0.14771051704883575 -0.05640086159110069 0.1648533195257187 0.10598799586296082 -0.016867894679307938 0.036886416375637054 0.14235375821590424 0.05758653208613396 0.08646652102470398 -0.1059897318482399 -0.02194935828447342 -0.01468692161142826 0.0038162905257195234 0.07047253102064133 -0.12094687670469284 0.04015512391924858 -0.07227028161287308 -0.0014842832460999489 -0.0597652904689312 0.011045110411942005 5.964958108961582E-4 0.011245335452258587 0.004585007205605507 0.05829872563481331 -0.025868231430649757 -0.12221479415893555 0.02252679318189621 -0.11481865495443344 0.09223130345344543 0.22867737710475922 -0.018060415983200073 -0.15716920793056488 -0.08647065609693527 -0.04580539092421532 0.014238154515624046 -0.028776908293366432 0.04839329794049263 -0.030405670404434204 -0.00649280333891511 0.037816859781742096 -0.04204762727022171 -0.04736800864338875 -0.06931424885988235 -0.050208356231451035 0.0483531579375267 0.12601238489151 0.017665883526206017 0.05664344131946564 -0.0549560971558094 0.04308103024959564 0.02398957498371601 0.14695675671100616 0.05699451267719269 0.07094014436006546 -0.06340109556913376 0.06772705167531967 0.18299776315689087 0.12233743071556091 0.11398394405841827 0.12727487087249756 0.12015674263238907 0.015951935201883316 -0.012380979023873806 -0.10019094496965408
http://dbpedia.org/resource/Philolaus -0.0651303306221962 -0.03955870494246483 0.04421388730406761 -0.07765447348356247 0.02793695032596588 0.018876342102885246 0.07762639969587326 0.01684155873954296 0.03038218431174755 0.03302183747291565 0.04035264626145363 -0.01233539916574955 0.004091257695108652 9.750350145623088E-4 -0.04178367555141449 0.024102287366986275 0.004215650260448456 0.001794896787032485 -0.043610282242298126 0.02627192996442318 0.018977735191583633 -0.027790479362010956 -0.020920805633068085 0.00324256531894207 0.025498025119304657 -0.0030602707993239164 0.008358599618077278 0.0018710859585553408 -0.01649056375026703 -0.017235998064279556 -0.0055092074908316135 -0.015185385011136532 0.019875718280673027 -0.007386466953903437 0.003134948667138815 -0.0010167710715904832 -0.006684606894850731 0.01345105655491352 0.048197899013757706 0.0048343464732170105 -0.03163996338844299 -0.004173908848315477 -0.0030525096226483583 -0.030331406742334366 -0.02130894362926483 0.02752004936337471 -0.019900484010577202 0.048290107399225235 0.007371613290160894 0.04107855632901192 0.015107551589608192 -0.031026437878608704 -0.02165793813765049 0.011592262424528599 0.008503415621817112 -0.010805003345012665 -0.0055192625150084496 0.027351299300789833 -0.013978389091789722 0.006769015919417143 0.00653070118278265 -0.0013036401942372322 0.011274364776909351 -5.461785476654768E-4 -0.022731779143214226 0.01839163526892662 0.03243561089038849 8.197816205210984E-4 0.04064774513244629 0.026730192825198174 0.02590455301105976 0.01456102728843689 -0.005791130010038614 0.004477894864976406 0.00610168045386672 -0.0453680194914341 -0.01623639278113842 0.04598377272486687 -0.006717205513268709 0.00115428667049855 -0.011288665235042572 0.015409384854137897 -0.01745850220322609 -0.010897512547671795 0.014484279789030552 -0.004946006461977959 -0.017274580895900726 -0.002464560093358159 -0.05383016914129257 -0.026854872703552246 0.06482112407684326 -0.03420834243297577 0.17526428401470184 0.04680713266134262 0.08890804648399353 0.04972207918763161 0.0987512543797493 -0.003793484764173627 0.1252676397562027 -0.12761567533016205
http://dbpedia.org/resource/Protagoras_(dialogue) -0.02027624100446701 0.011714542284607887 -0.014804476872086525 -0.012788532301783562 0.029590047895908356 0.02321200631558895 0.03880329802632332 -0.030294867232441902 -0.034600645303726196 -0.01622816175222397 -0.005266787484288216 0.018444830551743507 0.008051243610680103 -0.03514767438173294 -0.0337635762989521 -0.016675829887390137 0.0049824463203549385 0.007742350455373526 -0.06177029013633728 0.02144499309360981 -0.01986910216510296 -0.025290122255682945 -0.005700096022337675 -0.01934855431318283 0.04735502228140831 -0.02868843451142311 -0.0049873897805809975 -0.003905925201252103 -0.03198930621147156 0.04276827722787857 -0.0021963543258607388 0.01735868491232395 -0.02019169181585312 -0.016174528747797012 0.0051682391203939915 -0.008546152152121067 0.009213108569383621 -0.007965448312461376 -0.029233897104859352 7.058941409923136E-4 0.00852089375257492 -0.0055285184644162655 -0.011519217863678932 0.013931534253060818 0.028169844299554825 -0.021828273311257362 -0.008065265603363514 0.019389355555176735 -0.0029390507843345404 0.026983147487044334 0.003493010066449642 -0.0070676845498383045 -0.004461077973246574 -0.015899905934929848 -0.017832843586802483 0.010393032804131508 0.006584994029253721 0.013279959559440613 0.0024126959033310413 -0.005876483395695686 0.0012691515730693936 0.010217202827334404 -0.006482249591499567 0.009633023291826248 0.002437412738800049 -0.01846311241388321 -0.0028691948391497135 0.005233637522906065 0.008007888682186604 -0.00868953950703144 -0.018223054707050323 -0.008516865782439709 -0.01210818625986576 -0.01017705537378788 0.009392310865223408 -0.020367415621876717 -0.021165654063224792 0.009712322615087032 -0.0125556206330657 -0.0174047090113163 0.01991458237171173 0.0165968369692564 -0.0076671019196510315 0.015587452799081802 0.016297275200486183 0.006892587058246136 0.007528885267674923 0.03849327564239502 -0.0071216062642633915 8.768452098593116E-4 0.010272670537233353 1.323061587754637E-4 0.05599882826209068 0.032213158905506134 0.032946664839982986 0.03368348255753517 0.02530156448483467 0.02119673788547516 0.03469362482428551 -0.028442783281207085
http://dbpedia.org/resource/Poseidon -0.03773708641529083 -0.007505088113248348 0.009635388851165771 -0.034300997853279114 0.02338566444814205 0.014492165297269821 0.06519345194101334 -0.024928376078605652 0.004818025045096874 0.0042028059251606464 -0.009096048772335052 -1.7352262511849403E-4 -0.008428202010691166 -0.006916613318026066 -0.01890932209789753 0.012888848781585693 0.00931866280734539 0.0014067698502913117 -0.012384087778627872 0.017131948843598366 0.013756921514868736 -0.01965070143342018 -0.008569465950131416 0.0028541532810777426 0.012251343578100204 -0.005616670474410057 0.006059468723833561 0.002992145251482725 -0.009124698117375374 0.008359545841813087 -0.003089341800659895 0.005609049461781979 -7.598046213388443E-4 0.017259197309613228 -0.009153494611382484 -0.001910257851704955 0.010242057964205742 -0.0012216008035466075 -0.0024515960831195116 0.009596982970833778 -0.003998199477791786 0.0011182553134858608 -0.00456744572147727 -0.011249926872551441 0.008956953883171082 -0.010996151715517044 9.440426947548985E-5 -0.0026786434464156628 0.005426156334578991 0.017511142417788506 0.0034347185865044594 -0.006130205001682043 1.9010523101314902E-4 0.0030292687006294727 0.0039529320783913136 -0.003399319015443325 0.004916972480714321 0.004163135774433613 0.0027249481063336134 8.859890513122082E-4 -0.0248725526034832 -0.0034096238669008017 0.009610223583877087 -0.003377864370122552 0.005954050458967686 0.01986980438232422 -0.015834765508770943 -0.0064482013694942 -0.005178162362426519 -0.003999450244009495 -0.01907581463456154 -0.003038036869838834 0.00860283151268959 0.008005033247172832 -0.004710068926215172 0.020338401198387146 0.009917967021465302 -0.01194838248193264 0.007901196368038654 0.0026240868028253317 -0.009757153689861298 5.987270269542933E-4 -6.162055651657283E-4 -0.008342904970049858 0.00680836196988821 -0.005148302763700485 -0.010817567817866802 -0.01384618878364563 -0.0015191070269793272 -0.0033640835899859667 6.098755402490497E-4 -0.010382771492004395 0.05466698482632637 0.01890324428677559 0.033307671546936035 0.006170104257762432 0.005150914657860994 2.75243422947824E-4 0.03214393928647041 -0.020876189693808556
http://dbpedia.org/resource/Category:Roman-era_Athenian_philosophers -0.06976224482059479 -0.008128061890602112 7.632083143107593E-4 -0.08077942579984665 0.055490169674158096 0.04692902788519859 0.11123278737068176 -0.0259110014885664 -0.02252022549510002 0.012528768740594387 -0.02941696159541607 0.027927225455641747 0.010158002376556396 -0.0193418450653553 -0.07906066626310349 0.045187678188085556 0.025635648518800735 0.010858196765184402 -0.04969450458884239 0.030146973207592964 0.05441133677959442 -0.06166618689894676 -0.036353349685668945 0.007716268301010132 0.05632535740733147 -0.0011675196001306176 -0.0022343676537275314 0.007622427772730589 -0.050145749002695084 -0.0036098631098866463 0.010923652909696102 0.03314067795872688 -0.017757585272192955 -0.0566851980984211 0.05922338366508484 0.01614290289580822 0.03540933132171631 0.027090035378932953 0.009316044859588146 -0.01544203981757164 -0.0138742970302701 -0.016717126592993736 -0.06095946207642555 -0.029031839221715927 0.0034296808298677206 0.023323845118284225 -0.028137626126408577 0.052212513983249664 0.001334083848632872 0.039171893149614334 0.011454736813902855 -0.026268215849995613 -0.010542212054133415 -0.014131247997283936 -0.003929549362510443 -0.0014862266834825277 -0.00506919901818037 0.03627374395728111 -0.005555011797696352 -0.020661532878875732 0.014842202886939049 0.04621407762169838 0.00793513935059309 0.03914079815149307 -0.04623843729496002 -0.06701480597257614 0.02476593479514122 0.05235740914940834 0.075652576982975 0.04458344355225563 0.010380243882536888 0.014741973020136356 -0.03459267318248749 0.003606509417295456 0.01607337035238743 -0.06765653192996979 -0.03513845428824425 0.06023285165429115 -0.011408201418817043 -0.008057544939219952 0.02035968378186226 -0.00399077357724309 -0.024465370923280716 0.01519138365983963 0.039032530039548874 0.0020142134744673967 -0.009102987125515938 0.031478192657232285 -0.03536900132894516 -0.030658800154924393 0.04607856646180153 -0.02797805145382881 0.11309420317411423 0.03836121782660484 0.05350995063781738 0.044419579207897186 0.06671765446662903 -0.009807229973375797 0.06870624423027039 -0.07413638383150101
http://dbpedia.org/resource/Chalcis -0.029758643358945847 0.0027439608238637447 1.3653142377734184E-4 -0.019924849271774292 0.02717764861881733 0.01720971055328846 0.05456254258751869 -0.02824234776198864 -0.013614700175821781 -0.004790067207068205 -0.024086378514766693 0.005259712226688862 -0.0028162142261862755 -0.017112471163272858 -0.025420043617486954 -6.807487225160003E-4 0.015559244900941849 0.004355518613010645 -0.031076809391379356 0.015545536763966084 0.008946710266172886 -0.03041752427816391 -0.013067862018942833 -0.0035446526017040014 0.03659392148256302 -0.012491767294704914 0.00359054422006011 0.0010828400263562799 -0.030135013163089752 0.02507609874010086 -9.743045084178448E-4 0.018861962482333183 -0.01011536456644535 -0.002511115511879325 -0.011576194316148758 -0.013443220406770706 0.010441720485687256 -0.007826716639101505 -0.02872154489159584 -0.002042480045929551 0.01208739634603262 4.7083967365324497E-4 -0.013441387563943863 0.007834475487470627 0.01609574258327484 -0.011894944123923779 -0.003091903869062662 0.009493629448115826 -7.328840438276529E-4 0.022538047283887863 0.0010243267752230167 0.003914411645382643 0.002926148474216461 -0.019109511747956276 -0.01013548206537962 0.008339553140103817 0.010049867443740368 0.014318740926682949 7.513177115470171E-4 -0.0171633493155241 -0.010269910097122192 0.023957833647727966 -0.006505303550511599 0.021723804995417595 0.0037078976165503263 -0.018043136224150658 -0.020030640065670013 0.013595037162303925 -7.554033654741943E-4 -0.012234930880367756 -0.040534406900405884 7.031721179373562E-5 -0.010224256664514542 -0.007668367121368647 -0.0011978246038779616 0.012683911249041557 -0.005943275988101959 -0.008071384392678738 -0.0018199215410277247 -0.0037697129882872105 0.010098949074745178 0.006215718574821949 -0.005400725640356541 0.012068485841155052 0.012782170437276363 -0.0028584059327840805 0.004302493296563625 0.01641557179391384 -0.007097362540662289 -0.012644775211811066 0.010728739202022552 0.001184262102469802 0.012403702363371849 7.234867662191391E-4 0.009179584681987762 -0.0051054274663329124 -0.017535241320729256 -0.004200278781354427 -0.005383028648793697 0.004733676556497812
http://dbpedia.org/resource/Astrology -0.11416149884462357 -0.02506376802921295 -0.006587384268641472 -0.0978885218501091 0.06356222182512283 0.04154970869421959 0.1525074988603592 -0.07440713047981262 -0.02171889692544937 -0.0040608057752251625 -0.04599248990416527 0.005180420354008675 -0.029628025367856026 -0.05168864503502846 -0.06666378676891327 0.0184240210801363 0.06099981814622879 0.04028075933456421 -0.03424060717225075 0.04423654079437256 0.04806782677769661 -0.053776055574417114 -0.017098549753427505 -0.011443471536040306 0.06469603627920151 -0.004549305886030197 -1.4442922838497907E-4 -0.022005684673786163 -0.025935763493180275 0.03559008240699768 -0.0014367366675287485 0.008038978092372417 -0.01515793614089489 0.03863021358847618 -0.03132934495806694 -0.002027162117883563 0.004854538943618536 -0.025352487340569496 -0.0076601747423410416 0.02670021913945675 0.0026857275515794754 -0.006622505374252796 -0.0017746668308973312 0.0012737992219626904 0.010412114672362804 0.01672331616282463 -0.012919685803353786 0.02893301658332348 -0.0013273913646116853 0.03139211982488632 0.036805782467126846 -0.021648617461323738 0.0030691938009113073 -0.015039392746984959 -0.0043722097761929035 7.759442087262869E-4 0.00101195159368217 0.012205048464238644 0.001739919651299715 -0.022144490852952003 -0.04045134410262108 -0.0078078084625303745 0.00845219288021326 -0.004033299628645182 0.019004346802830696 0.04425230994820595 -0.030594656243920326 -0.010648174211382866 -0.023780617862939835 -0.018004711717367172 -0.040290605276823044 -0.0054297903552651405 0.017671089619398117 0.0037902025505900383 -0.01990039460361004 0.04485403746366501 -0.001261957106180489 -0.041625313460826874 0.0018913907697424293 -0.006352358963340521 -0.004734354559332132 0.035302888602018356 -0.010873446241021156 0.010205884464085102 0.00902861263602972 0.006963671650737524 0.014691452495753765 0.024709662422537804 0.018784604966640472 0.017584366723895073 -0.0265888012945652 -0.01284240186214447 0.08391085267066956 0.03755641356110573 0.06304934620857239 0.013501916080713272 -0.019753415137529373 0.005188945215195417 0.03762553259730339 -0.015122042037546635
http://dbpedia.org/resource/Augustus -0.05671379715204239 -0.006310976576060057 -2.2380053997039795E-4 -0.04388950392603874 0.04293091222643852 0.02945595607161522 0.07625654339790344 -0.036914095282554626 -0.01365901529788971 -0.0017019858350977302 -0.01825936883687973 0.007313992362469435 -0.010068493895232677 -0.026377331465482712 -0.04737689718604088 0.011536864563822746 0.021496379747986794 0.015196469612419605 -0.04336854815483093 0.03090681880712509 0.018813610076904297 -0.04015079140663147 -0.00884639099240303 -0.005040339659899473 0.04076185077428818 -0.014482182450592518 0.001095774001441896 -0.009330966509878635 -0.027370011433959007 0.028885193169116974 0.0015665673417970538 0.008864355273544788 -0.0027639870531857014 0.00664875702932477 -0.012224201112985611 -0.007962391711771488 0.009625247679650784 -0.007301509380340576 -0.01244969293475151 0.009461577981710434 -0.003945293370634317 0.001079606357961893 5.964067531749606E-4 -8.002367103472352E-4 0.01063498854637146 0.007874792441725731 -0.008338325656950474 0.017901651561260223 -0.0010274783708155155 0.026326581835746765 0.017403950914740562 -0.009660281240940094 -0.004612885881215334 -0.005120813846588135 -0.003314632223919034 -3.1171587761491537E-4 0.004667980596423149 0.01155649684369564 0.0036174850538372993 -0.00666677113622427 -0.015635039657354355 -0.00433713523671031 0.01507030799984932 -0.008875320665538311 0.0042525953613221645 0.03585677966475487 -0.013103174045681953 -0.01266443356871605 -0.0027209403924643993 -0.005432243458926678 -0.011576519347727299 0.0016421496402472258 0.014609002508223057 0.007045899983495474 -0.012926468625664711 0.011718264780938625 3.3054297091439366E-4 -0.007754539605230093 -0.00240155216306448 0.00474158301949501 -0.007044297643005848 0.0067053590901196 -0.0073451995849609375 0.002790138591080904 0.011227870360016823 -8.112085633911192E-4 -0.0033952081575989723 0.010011356323957443 -9.033954120241106E-5 0.007315014488995075 -0.005689669866114855 -0.011535199359059334 0.060790613293647766 0.012358483858406544 0.028813283890485764 0.02087562531232834 0.024752270430326462 0.007222617045044899 0.03983260691165924 -0.03544120863080025
http://dbpedia.org/resource/Mathematics -0.021296251565217972 0.04690612852573395 -0.06669971346855164 0.02402997761964798 0.04217270016670227 0.04593055322766304 0.04027896374464035 -0.08516645431518555 -0.0831817016005516 -0.04314306005835533 -0.07019783556461334 0.05698807165026665 0.00911985244601965 -0.03624195232987404 -0.030936600640416145 -0.017876191064715385 -0.010830072686076164 -0.0016316327964887023 -0.019991442561149597 -0.0066591352224349976 0.01644178293645382 -0.008104794658720493 0.0017572158249095082 -0.005651544779539108 0.032744936645030975 2.7494539972394705E-4 -0.005210926756262779 -0.013658284209668636 -0.029143961146473885 0.08956904709339142 -0.0042055812664330006 0.046804044395685196 -0.07544775307178497 -3.238360513933003E-4 0.008505224250257015 0.009604276157915592 0.055469680577516556 -0.03918949514627457 -0.09964634478092194 0.005926177836954594 0.04777837544679642 -0.0188139621168375 -0.04117099568247795 0.03191237524151802 0.07605481147766113 -0.0767134353518486 0.004070966970175505 -0.022222992032766342 -0.02864639088511467 0.00875670462846756 -0.023669447749853134 0.036748096346855164 0.007356360554695129 -0.029966063797473907 -0.03823577240109444 0.03136120364069939 0.013630535453557968 0.008108483627438545 0.026568306609988213 -0.02625815011560917 0.010306762531399727 0.050256941467523575 -0.031538769602775574 0.042096078395843506 0.02165685035288334 -0.1425188034772873 -0.02626480720937252 0.09355688095092773 -0.01695750281214714 -0.051978059113025665 -0.12301141023635864 -0.018133899196982384 -0.021902671083807945 -0.024580296128988266 0.015477625653147697 0.013772811740636826 -7.37473601475358E-5 -0.015990355983376503 -0.015628501772880554 -0.010542444884777069 0.030304092913866043 0.005276513285934925 0.007587061263620853 0.01779373362660408 0.026186825707554817 0.016016701236367226 -0.03036293387413025 0.03904762864112854 -0.018484944477677345 -0.029132317751646042 0.034181442111730576 0.052931707352399826 -0.043737657368183136 0.009678446687757969 0.0031468705274164677 -0.007156506646424532 -0.09502390772104263 -0.0026173852384090424 -0.07854172587394714 0.07044822722673416
http://dbpedia.org/resource/Archytas -0.06213444843888283 -0.023000305518507957 0.05095705762505531 -0.06215480715036392 0.056503843516111374 0.013953382149338722 0.10631594061851501 -0.0407150574028492 -0.004265265539288521 -0.0017847715644165874 0.06423120945692062 -0.032081373035907745 -0.0024703096132725477 -0.06701275706291199 0.0058821276761591434 -0.08592461049556732 -0.06805122643709183 0.015570251271128654 -0.1531788408756256 0.02063247747719288 -0.10696670413017273 0.029333924874663353 0.005392810329794884 -0.04718276485800743 0.0027232039719820023 -0.08689353615045547 0.002915038028731942 -0.006928759161382914 0.02204311639070511 0.0671105682849884 -0.040222298353910446 -0.06741338223218918 0.05741963908076286 0.132161945104599 -0.13084088265895844 -0.05587640032172203 -0.08326312154531479 -0.06956638395786285 0.08227284997701645 0.09741060435771942 0.013593326322734356 0.015564736910164356 0.10083890706300735 0.07628792524337769 0.14197956025600433 -0.15422944724559784 -0.0199899785220623 -0.02887609601020813 -0.021917244419455528 0.07836579531431198 -0.11611530184745789 0.059194765985012054 -0.06763669848442078 -0.015137401409447193 -0.08163518458604813 0.030539585277438164 0.00932793878018856 0.015175705775618553 0.021791238337755203 0.033405423164367676 -0.019663585349917412 -0.03896450996398926 -0.013716641813516617 -0.039843425154685974 0.05873186141252518 0.03961635380983353 -0.015824098140001297 -0.029349809512495995 -0.046525128185749054 -0.04572666436433792 -0.07259687036275864 -0.03852493315935135 -0.008640004321932793 -0.0499769002199173 0.030470455065369606 -0.016429048031568527 -0.07926685363054276 -0.02407454140484333 -0.06223205849528313 -0.07071080058813095 0.06937310099601746 0.11846698820590973 0.00700380839407444 0.06343907862901688 -0.029636498540639877 0.04424937814474106 3.3109638025052845E-5 0.16425856947898865 0.006500134244561195 0.01229957863688469 0.005341687239706516 0.07134798169136047 0.1523371934890747 0.14962461590766907 0.12786415219306946 0.1317073404788971 0.06212928518652916 0.0320483036339283 -0.05167185887694359 -0.03905578330159187
http://dbpedia.org/class/yago/Ruler110541229 -0.006559870205819607 -0.010424703359603882 -0.009872145019471645 -0.014531675726175308 -0.00881890021264553 -0.0073197465389966965 -0.012317279353737831 0.005250590853393078 0.006136014126241207 -0.001479476224631071 -0.0050502042286098 -0.0028527621179819107 -0.005868952721357346 0.014474011957645416 0.0074028437957167625 0.010168519802391529 0.001314244233071804 0.002238179324194789 0.033606115728616714 -0.009501013904809952 0.02021150477230549 0.011866705492138863 0.002740831347182393 0.0102250250056386 -0.01593622751533985 0.0237002931535244 -0.004674244672060013 0.0012301504611968994 0.016359509900212288 -0.02017979882657528 0.005854322109371424 -0.00635103601962328 -0.003708561649546027 -0.006327198818325996 0.02242257073521614 0.020553484559059143 0.008618690073490143 0.006923051550984383 0.027726342901587486 -6.568604148924351E-4 -0.006474876776337624 -0.0023010247386991978 -0.003699804190546274 -0.013132969848811626 -0.0185210183262825 0.010161718353629112 0.005821466911584139 -0.00123437843285501 0.0012099016457796097 -0.013003187254071236 -0.006241914816200733 -0.0037486825603991747 6.963656051084399E-4 0.009068368934094906 0.00696647958829999 -0.0036259733606129885 -0.007072723004966974 -0.010967415757477283 -0.005967150907963514 0.010180486366152763 0.013552178628742695 0.0028878184966742992 0.0011680967872962356 0.01045421976596117 -0.015048029832541943 -0.021572180092334747 0.015781303867697716 0.013749616220593452 0.016774220392107964 0.017802556976675987 0.013701362535357475 0.007617609575390816 -0.006809616461396217 0.004619786981493235 0.007695046253502369 -0.017436139285564423 0.0025627638678997755 0.02932184375822544 0.0068639772944152355 0.001963876187801361 -0.00891792494803667 -0.014622806571424007 -0.0020399531349539757 -0.01244776789098978 -0.0063203503377735615 8.250725804828107E-4 -0.007302563171833754 -0.022267911583185196 -0.015120470896363258 -0.008562421426177025 0.01248165126889944 -0.007688242942094803 -0.04207768663764 -0.021321922540664673 -0.024576950818300247 -0.014798911288380623 -0.013327027671039104 -0.01607457920908928 -0.0300387442111969 0.015831148251891136
http://dbpedia.org/resource/Category:Political_philosophers -0.08065933734178543 -0.024402664974331856 0.028017103672027588 -0.08915403485298157 0.054630864411592484 0.029081808403134346 0.14172399044036865 -0.0303184874355793 0.024624589830636978 0.036113109439611435 -0.03384428471326828 -0.01252527255564928 -0.018233271315693855 0.008466680534183979 -0.04460599645972252 0.053244903683662415 0.024551013484597206 0.0017238196451216936 0.007002876605838537 0.01972946897149086 0.07948020845651627 -0.044356439262628555 -0.03580798953771591 0.021756047382950783 0.02978852018713951 0.02856205217540264 0.0010372822871431708 0.009823348373174667 -0.012955805286765099 -0.03910180181264877 0.010622705332934856 0.0023969553876668215 0.004773905035108328 0.03164153918623924 0.010193370282649994 0.037798188626766205 0.008396610617637634 0.01628442294895649 0.06998330354690552 0.025714125484228134 -0.03301914408802986 -0.0023008547723293304 -0.02735782414674759 -0.05053865164518356 -0.025305844843387604 0.028466176241636276 -0.0027205413207411766 0.022287722676992416 0.006859887391328812 0.00776460999622941 0.02016063779592514 -0.017925342544913292 0.004265271592885256 0.0168430358171463 0.014150570146739483 -0.009530396200716496 -0.002831733552739024 0.02009241096675396 -0.005434943363070488 -0.01905732974410057 -0.03724813833832741 0.015094620175659657 0.021235967054963112 0.02249952033162117 -0.008797500282526016 0.030358655378222466 -0.023207878693938255 0.006242627277970314 0.009424492716789246 0.02010212652385235 -0.011853166855871677 0.018488852307200432 -0.00641428679227829 0.014393025077879429 -0.013286279514431953 0.03172009065747261 0.02088030055165291 -0.011062640696763992 0.02431354857981205 0.01505487784743309 -0.02812209166586399 2.893805503845215E-4 -0.006152679678052664 -0.02958081103861332 -8.900524699129164E-4 -0.0283296350389719 -0.02493840828537941 -0.04391350597143173 0.004373779986053705 -0.002372442279011011 -0.011582311242818832 -0.03054853342473507 0.06697578728199005 0.015049610286951065 0.054590966552495956 -0.015435413457453251 -0.023288078606128693 -0.03610607981681824 -0.002875960897654295 -0.009823168627917767
http://dbpedia.org/resource/Template:Gutenberg_author 0.0030017513781785965 0.02239481918513775 -0.026265550404787064 0.010478474199771881 0.014271950349211693 0.013184791430830956 1.6117250197567046E-5 -0.027370953932404518 -0.043608542531728745 -0.03503566235303879 0.00907717365771532 0.01951252669095993 0.01619175635278225 -0.05373182147741318 -0.00930932629853487 -0.061709124594926834 -0.008960871957242489 0.025221705436706543 -0.0890675038099289 0.011841055005788803 -0.06907761096954346 -0.010155358351767063 0.015011762268841267 -0.036894820630550385 0.03337547928094864 -0.049264080822467804 0.0023132076021283865 -0.005813554394990206 -0.009283185936510563 0.05889264866709709 -0.00412249518558383 0.004650753457099199 -0.00896585825830698 0.006871689110994339 -0.016703223809599876 -0.023986710235476494 -0.008428609929978848 -0.022288601845502853 -0.00815482996404171 0.019918719306588173 0.010880340822041035 -0.002505369484424591 0.028757505118846893 0.025256849825382233 0.057320985943078995 -0.06382793188095093 -7.448430988006294E-4 -0.012130668386816978 -0.010819343850016594 0.027653932571411133 -0.03579113259911537 0.01766386069357395 -0.010728232562541962 -0.035295821726322174 -0.03420029580593109 0.01841023936867714 0.00961767602711916 0.0025138177443295717 0.007740654982626438 -6.55182171612978E-4 -0.016028760001063347 -0.014103266410529613 -0.012115598656237125 -0.017600832507014275 0.02974269725382328 0.020034851506352425 -0.037826720625162125 -0.020304540172219276 -0.054180316627025604 -0.033996324986219406 -0.050273165106773376 -0.015610736794769764 -0.017248008400201797 -0.03179435431957245 0.015100780874490738 0.007326629012823105 -0.04804955795407295 -0.011701436713337898 -0.01637142151594162 -0.03173072263598442 0.031051991507411003 0.03663444146513939 -4.6220023068599403E-4 0.03420719876885414 -0.0014945773873478174 0.015285049565136433 0.02545982226729393 0.05549980327486992 0.023653669282794 0.018083205446600914 -0.028994889929890633 0.022430215030908585 -0.0569051131606102 0.002366523491218686 -0.02834591455757618 0.01193330716341734 -0.0027028711047023535 0.024969283491373062 -0.07488971948623657 0.040231797844171524
http://www.wikidata.org/entity/Q24229398 -0.17301252484321594 -0.0373077467083931 -0.04450533166527748 -0.20471110939979553 0.04228072240948677 0.006291278637945652 0.20776987075805664 -0.10462766140699387 0.05165809392929077 0.05152969807386398 -0.12276172637939453 2.0225424668751657E-4 -0.0876036211848259 0.08872617036104202 0.017456283792853355 0.1474778652191162 0.05810871720314026 -0.021633215248584747 0.2660417854785919 -0.06485552340745926 0.27230021357536316 0.029144393280148506 -0.03193049132823944 0.08819731324911118 -0.05679342895746231 0.19526487588882446 -5.829294677823782E-4 -0.024537134915590286 0.10761288553476334 -0.1604161560535431 0.0355551540851593 -0.05302819609642029 -0.016888856887817383 0.1321834772825241 0.09548719227313995 0.21111132204532623 0.06359259784221649 0.016440102830529213 0.24467530846595764 0.11617238819599152 -0.09436523169279099 -0.03042609989643097 -0.04814881831407547 -0.15888866782188416 -0.0774274691939354 0.08956824988126755 0.008644926361739635 -0.020666636526584625 -0.009538759477436543 -0.09338220953941345 0.02250121720135212 0.008694048039615154 0.02978639118373394 0.07211481034755707 0.06335912644863129 -0.016424711793661118 -0.025914231315255165 -0.02778903767466545 0.004828072618693113 -0.03424506634473801 -0.017681799829006195 0.11351712048053741 0.004229540936648846 0.10770118236541748 -0.11518700420856476 -0.1395053267478943 0.009767826646566391 0.13537847995758057 0.09649442136287689 0.09127933531999588 -0.005132345482707024 0.0695391446352005 -0.07528527081012726 0.016349362209439278 0.0017848338466137648 -0.041054341942071915 0.031050901859998703 0.034689247608184814 0.10214748233556747 0.03424380347132683 -0.07275390625 -0.0432811863720417 -0.01627768948674202 -0.08962289243936539 -0.029416093602776527 -0.062054071575403214 -0.08308405429124832 -0.17857876420021057 0.00857878290116787 -0.020373282954096794 -0.006877548061311245 -0.0497986264526844 -0.14797507226467133 -0.052484821528196335 -0.013336408883333206 -0.14319944381713867 -0.19722987711429596 -0.09553873538970947 -0.16559311747550964 0.15465906262397766
. 0.7235952019691467 0.4809369444847107 0.09197842329740524 0.7026379704475403 0.274336040019989 0.26418498158454895 0.08770251274108887 -0.009053009562194347 -0.26725926995277405 -0.005253660026937723 0.33268481492996216 0.22772322595119476 0.3540854752063751 0.22380360960960388 0.16546572744846344 -0.32351717352867126 -0.8147621750831604 -0.39377760887145996 -0.6709333658218384 -0.08854251354932785 -0.6047529578208923 -0.02187160775065422 -0.14733658730983734 -0.0028775816317647696 -0.009206530638039112 -0.5559322237968445 -0.002411428838968277 0.2323950082063675 -0.020889200270175934 0.16069930791854858 -0.04268841817975044 -0.07056447863578796 0.10959414392709732 0.0541791096329689 -0.14187072217464447 -0.015382419340312481 -0.04560305178165436 -0.0718582421541214 0.33175939321517944 0.25171321630477905 -0.13922752439975739 0.021990692242980003 0.2743697166442871 -0.03272620961070061 0.37437620759010315 -0.9087274074554443 0.21278800070285797 -0.7511065602302551 -0.02211063727736473 -0.2195127159357071 -1.047705054283142 0.5229173302650452 -0.28470996022224426 0.3809404671192169 -0.22137729823589325 0.052933476865291595 0.059245649725198746 -0.27898770570755005 0.04521751403808594 0.6812753081321716 -0.221944659948349 -0.2018556445837021 0.24491256475448608 -0.10413171350955963 -0.39802300930023193 0.47152701020240784 0.2641572058200836 -0.17982806265354156 0.07846403867006302 0.4490240514278412 0.6811621189117432 0.13590559363365173 0.24750040471553802 0.3488323986530304 -0.036954496055841446 -0.36026573181152344 0.666572093963623 -0.03719324991106987 0.16081909835338593 0.1624879091978073 -0.33148083090782166 -0.39203980565071106 0.2783281207084656 -0.4524420201778412 -0.5802991390228271 -0.19117385149002075 -0.2634756565093994 -0.4945964813232422 0.40430954098701477 0.2250009924173355 -0.46013137698173523 -0.13422532379627228 -0.5592957735061646 -0.3561346232891083 -0.35358646512031555 -0.17621096968650818 0.5047303438186646 0.23340646922588348 -0.14891637861728668 -0.18106846511363983
http://dbpedia.org/resource/Marsilio_Ficino 0.0028511472046375275 0.02380301058292389 -0.026557276025414467 0.02762221358716488 0.024560293182730675 0.019359486177563667 0.00937515776604414 -0.030435852706432343 -0.03514062240719795 -0.018831878900527954 -0.019657358527183533 0.02411789633333683 0.02185283601284027 -0.030152300372719765 -0.026147235184907913 -0.02724425308406353 0.003914909437298775 0.007718353532254696 -0.06922384351491928 0.017117828130722046 -0.026501737534999847 -0.025167183950543404 -0.0012072648387402296 -0.019579607993364334 0.04748740792274475 -0.031830839812755585 -8.596457191742957E-4 -0.005373339168727398 -0.050315920263528824 0.06747502088546753 -0.009405539371073246 0.04007537290453911 -0.04592586308717728 -0.038038965314626694 0.0075715272687375546 -0.022106053307652473 0.03378308191895485 -0.013340606354176998 -0.09145011007785797 -0.019816100597381592 0.03278255835175514 -0.006043368484824896 -0.025805026292800903 0.03491572290658951 0.05112427473068237 -0.0467369519174099 -0.0036489171907305717 0.007226869463920593 -0.011005444452166557 0.03406631574034691 -0.006971338763833046 0.007138439919799566 0.0027424567379057407 -0.03790544345974922 -0.029142647981643677 0.013493431732058525 0.015687773004174232 0.024311305955052376 0.01056951005011797 -0.014770137146115303 -0.0012699170038104057 0.037900060415267944 -0.015347756445407867 0.03216875344514847 0.010994256474077702 -0.07358399778604507 -0.0188056081533432 0.04664014279842377 -0.006070914678275585 -0.02779293991625309 -0.06944078207015991 -0.010615040548145771 -0.016865655779838562 -0.019022515043616295 0.012819286435842514 -0.003552787471562624 -0.024222183972597122 0.004697524476796389 -0.010588699951767921 -0.00827326811850071 0.027365460991859436 0.007821463979780674 -0.004517210181802511 0.01925087720155716 0.023814087733626366 0.005532967858016491 0.009319720789790154 0.03894898295402527 -0.018443245440721512 -0.02387196198105812 0.026037298142910004 0.006089121103286743 5.526664899662137E-4 0.010939672589302063 0.004966827109456062 0.011987126432359219 -0.016454312950372696 0.019423581659793854 0.010133846662938595 0.010097704827785492
http://dbpedia.org/resource/Callicles -0.029818706214427948 -0.03749918192625046 0.05158153548836708 -0.04759454354643822 0.003943038638681173 -0.0045758383348584175 0.01417246088385582 0.03997182101011276 0.03740058094263077 0.03241395950317383 0.05244150385260582 -0.01829913817346096 0.006203080527484417 0.039383746683597565 0.024111170321702957 0.013185366056859493 -0.044154129922389984 -0.02760481648147106 0.019593123346567154 -0.02037530019879341 0.008530027233064175 0.04973125085234642 -0.006167453248053789 0.02607700042426586 -0.06040722131729126 0.020462244749069214 -0.004761507734656334 0.022299055010080338 0.05071878805756569 -0.06882183998823166 -8.340675849467516E-4 -0.06717632710933685 0.04948374629020691 0.04221964627504349 0.014140130952000618 0.03832504525780678 -0.03178687021136284 0.014472370967268944 0.15730056166648865 0.04069394990801811 -0.06467236578464508 0.0012857042020186782 0.037856217473745346 -0.05931467190384865 -0.01699867844581604 0.01217634417116642 -0.008194035850465298 0.005290498025715351 0.007019489072263241 0.0010339815635234118 -0.02271352708339691 -0.011151782236993313 -0.027873270213603973 0.042873576283454895 0.006902993191033602 -0.011654774658381939 -0.014674589037895203 -5.38527499884367E-4 -0.0037467507645487785 0.03454887494444847 0.010474568232893944 -0.034965723752975464 0.01597980223596096 -0.03838048130273819 -0.01106362883001566 0.02915145643055439 0.031873226165771484 -0.018544014543294907 0.01616675592958927 0.020472289994359016 0.04704589769244194 0.0039170472882688046 -0.01762237958610058 -0.012931265868246555 0.01765158213675022 -0.037602171301841736 -0.007883232086896896 0.03595889359712601 -0.01192127913236618 -0.019201207906007767 -0.008019191212952137 0.013227041810750961 0.008214804343879223 -0.008662744425237179 -0.032006096094846725 -0.004659472499042749 -0.035930000245571136 -0.007612623739987612 -0.021506620571017265 -0.0047855987213552 0.025404607877135277 0.01306236069649458 0.1692981719970703 0.07521582394838333 0.11146366596221924 0.05929454788565636 0.08834665268659592 -0.006372291129082441 0.08633442968130112 -0.10349522531032562
http://dbpedia.org/class/yago/WikicatPeopleFromAlexandria -0.060099296271800995 -0.02131454087793827 -0.0189692210406065 -0.066525399684906 -0.005149387288838625 -0.020166799426078796 0.037298839539289474 -0.01765172742307186 0.026933422312140465 0.012362233363091946 -0.029688797891139984 -0.01594696193933487 -0.0408991239964962 0.03225896880030632 0.017689421772956848 0.04546422138810158 0.028475651517510414 0.0013690971536561847 0.10627422481775284 -0.028551984578371048 0.08524202555418015 0.026003766804933548 9.429281926713884E-4 0.02156560681760311 -0.027785921469330788 0.0688847005367279 0.0035785497166216373 -0.012952262535691261 0.04055487737059593 -0.05711833015084267 0.008194461464881897 -0.018070392310619354 -0.004162393510341644 0.02432490885257721 0.04006444290280342 0.06678732484579086 0.014577855356037617 0.01543938834220171 0.07853127270936966 0.019872087985277176 -0.037445638328790665 -0.013609115965664387 -0.014254222624003887 -0.056566301733255386 -0.037438951432704926 0.04609685763716698 0.002540024695917964 -0.0029059613589197397 -0.003049074672162533 -0.029839670285582542 0.02552223764359951 -0.007951809093356133 0.011428245343267918 0.017030619084835052 0.025009779259562492 -0.014807895757257938 -0.008003761991858482 -0.004684203304350376 -0.00259336456656456 -0.01094069890677929 -0.004368185065686703 0.022477153688669205 0.00363761093467474 0.016137000173330307 -0.033174801617860794 -0.014144106768071651 0.010729482397437096 0.024890674278140068 0.030171245336532593 0.03320906311273575 0.01620105654001236 0.026920689269900322 -0.027179842814803123 0.0029742992483079433 0.003920991439372301 -0.013499069958925247 0.003886023536324501 0.02397032454609871 0.026859963312745094 0.014752940274775028 -0.021941563114523888 -0.015893572941422462 -0.010686374269425869 -0.025606270879507065 -0.007574530318379402 -0.01677127741277218 -0.02029103972017765 -0.05933148041367531 -0.006215966772288084 -0.011344421654939651 -0.0023937970399856567 -0.02338162437081337 -0.0511598214507103 -0.020804427564144135 -0.019015325233340263 -0.036262720823287964 -0.05014112591743469 -0.02401634119451046 -0.04175158962607384 0.04472494125366211
http://dbpedia.org/resource/Ptolemy_I_Soter -0.012385210022330284 -0.00506563438102603 0.013823538087308407 -0.00411359965801239 0.02248694933950901 0.01792418770492077 0.031678590923547745 4.210142360534519E-4 -0.003310154192149639 3.6864960566163063E-4 0.010792621411383152 8.856364875100553E-4 0.00994595792144537 -0.017775436863303185 -0.02066195011138916 -0.004208019934594631 9.626220562495291E-4 3.2466440461575985E-4 -0.03923507407307625 0.017033761367201805 0.001309892162680626 -0.018951458856463432 -0.0038195340894162655 -0.003530818736180663 0.030857985839247704 -0.022571338340640068 -0.0033529133070260286 -0.0075745112262666225 -0.010912968777120113 0.017298482358455658 -0.008781601674854755 0.005658536683768034 5.204871413297951E-4 0.0013835926074534655 -0.020869974046945572 -0.015180165879428387 -4.8148323548957705E-4 -0.007700231857597828 -0.02068355493247509 -2.548226621001959E-4 0.007611433044075966 0.006449433974921703 0.005327442195266485 0.012311520054936409 0.011408407241106033 -0.0058801802806556225 -0.003537246957421303 0.013184189796447754 -0.0012834158260375261 0.014895141124725342 0.013850501738488674 -0.0044315531849861145 -0.003750844858586788 -0.0027228733524680138 -5.980308633297682E-4 0.0010801550233736634 8.640307933092117E-4 0.006538668647408485 0.003918352071195841 -0.005377653986215591 -0.008314796723425388 -5.930883344262838E-4 0.002410860965028405 -0.006901318207383156 0.014783747494220734 -0.004005522932857275 -0.0016990581061691046 0.004086815752089024 -0.006724828854203224 -0.008314797654747963 -0.01778850145637989 -0.0033256416209042072 0.012114825658500195 0.0029243221506476402 -0.009993501007556915 0.022544624283909798 -0.006300788838416338 -0.015183637849986553 -7.895769085735083E-4 7.682949071750045E-4 -0.0035463012754917145 0.022442873567342758 -0.008121423423290253 0.0054488093592226505 0.005977796856313944 0.006186786573380232 0.006371523253619671 0.014305616728961468 -0.006077684927731752 -0.004717310890555382 0.0033952854573726654 -0.019891610369086266 0.10537786781787872 0.045760635286569595 0.06836795061826706 0.03457042574882507 0.022673670202493668 0.011892326176166534 0.08311876654624939 -0.04797773435711861
http://dbpedia.org/resource/Category:Ancient_Crotonians -0.08442110568284988 -0.009847242385149002 0.01098034717142582 -0.0738535225391388 0.05854782834649086 0.042601291090250015 0.14434891939163208 -0.0447881780564785 -0.004010039381682873 0.020592669025063515 -0.04569901153445244 -0.00349329668097198 -0.009526765905320644 -0.012498857453465462 -0.05026918277144432 0.04070873185992241 0.017458342015743256 9.185558301396668E-4 -0.025211166590452194 0.019689226523041725 0.061139993369579315 -0.05091037601232529 -0.027929197996854782 0.018018869683146477 0.037071261554956436 0.009473961777985096 0.0023410674184560776 0.008811883628368378 -0.026018602773547173 0.005065139848738909 -8.965368615463376E-4 0.00696706073358655 -0.010398812592029572 0.04420493543148041 -0.022797448560595512 0.019394660368561745 0.013566428795456886 -0.0014489992754533887 0.021104250103235245 0.02980819344520569 -0.003948487341403961 -0.006706096697598696 -0.027059676125645638 -0.018745196983218193 0.01694381609559059 -0.01659983955323696 -0.009115585125982761 0.006016506347805262 -6.55473442748189E-4 0.02029629424214363 -0.008542094379663467 0.005050657782703638 -0.0013542603701353073 -0.005402552429586649 -0.0071623860858380795 0.01315523125231266 0.010246645659208298 0.019082525745034218 0.004130216781049967 -0.015421872958540916 -0.034290801733732224 0.04217279702425003 -0.0036539474967867136 0.04114009439945221 -0.0016105379909276962 -0.04273160547018051 -0.03574040159583092 0.04730663448572159 -0.0024385422002524137 -0.00887981802225113 -0.06713110953569412 0.0030316768679767847 -0.01015382818877697 0.003506594570353627 -0.009938491508364677 0.03688675910234451 0.01067121047526598 -0.02433953434228897 0.016135198995471 0.00188871705904603 -0.015616028569638729 0.016538824886083603 -0.00551785109564662 -0.008920903317630291 0.002100371988490224 -0.013468923978507519 -0.025504836812615395 -0.01297621987760067 0.005722797475755215 -0.015415744855999947 0.005267331376671791 -0.002263218630105257 0.08190207183361053 0.02611895278096199 0.07012028992176056 -0.004626918584108353 -0.026029672473669052 -0.028288377448916435 0.0022772890515625477 -0.010942026972770691
http://dbpedia.org/resource/Internet_Encyclopedia_of_Philosophy -0.03699532523751259 -0.005504339933395386 -0.001380720641463995 -0.030998703092336655 0.028438804671168327 0.03325747698545456 0.06124492734670639 -0.023860834538936615 -0.013743100687861443 -0.0030196395236998796 -0.014501472935080528 0.003782691201195121 0.005159958265721798 -0.03557610139250755 -0.04364785924553871 -0.0029681778978556395 0.023146938532590866 0.007551679387688637 -0.053153347223997116 0.03149275854229927 0.009085639379918575 -0.04402390867471695 -0.015632888302206993 -0.010581334121525288 0.04830728471279144 -0.022077463567256927 0.005795423872768879 -0.0032441262155771255 -0.022445717826485634 0.022153310477733612 -6.61929720081389E-4 0.019395912066102028 -0.003691398538649082 0.01063198409974575 -0.018842197954654694 -0.012321678921580315 0.002802235772833228 -0.008015630766749382 -0.02913746051490307 7.768247160129249E-4 0.015167931094765663 0.0027912228833884 -0.012325244024395943 0.013902299106121063 0.01705121248960495 -0.00647663464769721 -0.0091500673443079 0.02459663897752762 0.0023511764593422413 0.028140248730778694 0.009021177887916565 -0.007967507466673851 -0.006074478384107351 -0.011039774864912033 -0.009427251294255257 -4.0208303835242987E-4 0.0012363051064312458 0.01100124605000019 -0.00324442470446229 -0.009732043370604515 -0.004805501084774733 0.006979885511100292 -0.008136690594255924 0.011359483934938908 0.016224630177021027 -0.011743511073291302 -0.008060171268880367 0.009279221296310425 -0.0011450228048488498 -0.007096421904861927 -0.027216698974370956 -0.006824647542089224 0.003694640938192606 -0.0044471388682723045 0.0028941321652382612 0.011963891796767712 -0.020863618701696396 -0.018921853974461555 -0.004284156486392021 -0.008082463406026363 0.010101861320436 0.02178388088941574 -0.006867116317152977 0.01873905397951603 0.020096631720662117 0.007236509583890438 0.003721431829035282 0.03437848389148712 -0.0037526569794863462 -0.005719907581806183 -0.0023878789506852627 7.100901566445827E-4 0.08950604498386383 0.03541497886180878 0.05786624923348427 0.025076720863580704 0.00920695997774601 0.0037280090618878603 0.04084613174200058 -0.028995025902986526
http://xmlns.com/foaf/0.1/Person -0.08196370303630829 -0.0303941760212183 -0.048467908054590225 -0.12407035380601883 -0.027500301599502563 -0.0485374853014946 0.03187930956482887 -0.02873413823544979 0.06292079389095306 0.02436085231602192 -0.055374640971422195 -0.020499832928180695 -0.06788251549005508 0.06563539057970047 0.06496153771877289 0.07614517211914062 0.043182455003261566 -0.0038593290373682976 0.2254268378019333 -0.07573869079351425 0.14719974994659424 0.06686849892139435 0.004841170739382505 0.054404329508543015 -0.07572311908006668 0.15344858169555664 0.0036744107492268085 -0.022714903578162193 0.10057138651609421 -0.14605073630809784 0.03403259813785553 -0.04393491894006729 -0.0017905794084072113 0.04870270937681198 0.10893623530864716 0.15760350227355957 0.03863907605409622 0.03431291878223419 0.19864192605018616 0.05693376436829567 -0.07696346938610077 -0.025691479444503784 -0.026146991178393364 -0.12021827697753906 -0.0844496414065361 0.11346448212862015 0.0030888980254530907 2.1538919827435166E-4 -0.008068201132118702 -0.06343336403369904 0.05727672949433327 -0.019328303635120392 0.027006441727280617 0.036636900156736374 0.056443311274051666 -0.021459637209773064 -0.03646838665008545 -0.01533768605440855 -0.005694597493857145 -0.02884245105087757 -0.005885982420295477 0.053090617060661316 0.0065863062627613544 0.05577864870429039 -0.08929523825645447 -0.05425679683685303 0.024236321449279785 0.0560147799551487 0.07401076704263687 0.08387333899736404 0.049625981599092484 0.06179678440093994 -0.08829592913389206 -0.0013449679827317595 0.015520642511546612 -0.08284976333379745 -0.024360504001379013 0.07256339490413666 0.060852233320474625 0.018589530140161514 -0.02925129234790802 -0.03822009265422821 -0.01951179839670658 -0.04888513311743736 -0.018271341919898987 -0.038896672427654266 -0.03371153026819229 -0.11255455017089844 -2.457151458656881E-5 -0.01757761277258396 -0.0027307814452797174 -0.05483414605259895 -0.17541390657424927 -0.05764124169945717 -0.07464645057916641 -0.08685667812824249 -0.1103038638830185 -0.04588120058178902 -0.1454521268606186 0.13068042695522308
http://dbpedia.org/resource/Gorgias -0.12561608850955963 -0.014136415906250477 -0.16477391123771667 -0.035160597413778305 -0.009309816174209118 -0.0756593644618988 0.05953852832317352 -0.24348536133766174 -0.034392908215522766 -0.1428096443414688 -0.11800048500299454 -0.059142012149095535 -0.10906023532152176 -0.15420414507389069 0.11730794608592987 -0.11695203185081482 0.055965036153793335 0.09530211240053177 0.07425100356340408 -0.02287556789815426 -0.07823365926742554 0.07699000835418701 0.08949266374111176 -0.11438529193401337 0.0021412118803709745 -0.008369485847651958 0.0067100985907018185 -0.14851608872413635 -0.020052103325724602 0.2578258514404297 -0.03320080041885376 0.04535950720310211 -0.1764664500951767 0.04066021367907524 -0.03625085949897766 -0.03882787749171257 0.10184663534164429 -0.14759229123592377 -0.25968387722969055 0.03125864267349243 0.11098954826593399 -0.02603626437485218 0.0630154088139534 0.14067412912845612 0.20897702872753143 -0.209245964884758 0.03841870650649071 -0.13466067612171173 -0.08722206205129623 0.051157839596271515 -0.04523249343037605 0.08529206365346909 0.016609087586402893 -0.09352681785821915 -0.08526255935430527 0.03519715741276741 0.03509686514735222 -0.005379627458751202 0.04222191125154495 -0.04131113365292549 -0.07697229832410812 0.01724887080490589 -0.03538280725479126 0.012601702474057674 0.09657641500234604 -0.025461116805672646 -0.14797045290470123 0.04434993863105774 -0.14281465113162994 -0.17285668849945068 -0.28996962308883667 -0.040183521807193756 -0.04223871976137161 -0.07993897050619125 -0.0013308704365044832 0.10059555619955063 -0.044058602303266525 -0.03185948729515076 -0.009084477089345455 -0.02408428303897381 0.03456781432032585 0.05474817380309105 -0.026682905852794647 0.02940075844526291 0.0482594259083271 0.023204278200864792 0.03760519623756409 0.06902629882097244 -0.01414076890796423 -0.0014986611204221845 0.005061504431068897 -0.008772950619459152 -0.2751466631889343 -0.08787070959806442 -0.13975514471530914 -0.05843859910964966 -0.16856501996517181 0.06693372875452042 -0.15849557518959045 0.19149798154830933
http://dbpedia.org/resource/Category:4th-century_BC_philosophers -0.19219882786273956 -0.031210949644446373 0.07005691528320312 -0.20559687912464142 0.15079520642757416 0.10519082844257355 0.4036293029785156 -0.08273554593324661 0.04579579085111618 0.10648548603057861 -0.08460057526826859 -0.023128008469939232 -0.02985222078859806 0.06418362259864807 -0.10232281684875488 0.1431085467338562 0.013023441657423973 -0.0503133125603199 0.010333025828003883 0.030025014653801918 0.2237510085105896 -0.11676637083292007 -0.10271728038787842 0.08556042611598969 0.0677686259150505 0.04811463877558708 0.0018698141211643815 0.04083401337265968 -0.007700258865952492 -0.07072054594755173 0.011479196138679981 -0.007995270192623138 0.03325682505965233 0.14575543999671936 -0.04740247130393982 0.0820944681763649 0.005474119447171688 0.023016028106212616 0.15917092561721802 0.09810686111450195 -0.07338645309209824 -0.002290902193635702 -0.058027852326631546 -0.10002434253692627 -0.024025291204452515 -0.011482811532914639 0.0033631424885243177 5.197094869799912E-4 0.010349450632929802 -0.013308673165738583 -0.024957934394478798 0.014346528798341751 -0.008809705264866352 0.07077338546514511 0.0012193088186904788 0.004315546713769436 0.010824481956660748 0.027003446593880653 0.013694114051759243 -0.02695404551923275 -0.09392495453357697 0.07659484446048737 0.02011168748140335 0.07514846324920654 -0.024340081959962845 -0.012661030516028404 -0.06439715623855591 0.06696958094835281 -0.005477897357195616 0.05329139158129692 -0.06526298075914383 0.046442825347185135 1.969595905393362E-5 0.052913352847099304 -0.03380240127444267 0.10432491451501846 0.07512034475803375 -0.09116184711456299 0.0823870524764061 0.031049782410264015 -0.07176513969898224 -0.003995426464825869 0.009976079687476158 -0.06413803994655609 -0.0273709986358881 -0.06846214085817337 -0.09343837946653366 -0.10460343211889267 0.051416415721178055 -0.0027844018768519163 -0.05265266075730324 -0.03229067474603653 0.135576069355011 0.027982072904706 0.13225702941417694 -0.03847561404109001 -0.08924447000026703 -0.0748608186841011 -0.044901132583618164 0.004488207399845123
http://dbpedia.org/resource/Catholic_Church -0.0466189906001091 -0.0017501850379630923 -0.014565506018698215 -0.0445205383002758 0.02923993393778801 0.022449027746915817 0.06668940931558609 -0.03331359475851059 -0.009299824014306068 -0.0010615705978125334 -0.03385883942246437 0.005763511173427105 -0.009976629167795181 -0.029095085337758064 -0.03404587507247925 0.010131296701729298 0.037638671696186066 0.01637297496199608 -0.01259326096624136 0.016302037984132767 0.03387868031859398 -0.03176190331578255 -0.005565410014241934 -0.00976847019046545 0.038811881095170975 0.0042594862170517445 -0.0016439624596387148 -0.020192619413137436 -0.017068130895495415 0.01595202274620533 -0.0022965101525187492 0.009728149510920048 -0.01479743979871273 0.020692918449640274 -0.010425036773085594 0.007196827791631222 0.01389012485742569 -0.0152669046074152 -0.0225629024207592 0.010327668860554695 0.011217501945793629 -0.0030090543441474438 -0.0031841800082474947 0.006282042246311903 0.006335948593914509 0.009438877925276756 -0.013188226148486137 0.029281161725521088 -0.007317435462027788 0.015592406503856182 0.034388333559036255 -0.008119260892271996 0.001169480150565505 -0.010495714843273163 0.006384080275893211 -0.001181666855700314 4.974590847268701E-4 0.005727353505790234 0.0022996454499661922 -0.025267455726861954 -0.014466170221567154 0.009457703679800034 -0.0050829993560910225 0.010970785282552242 0.011033717542886734 -0.014119656756520271 -0.012689833529293537 0.0171536672860384 -9.438079432584345E-4 -0.0068440549075603485 -0.030340062454342842 0.002511287573724985 0.0023996143136173487 -0.00460687093436718 -0.003191101597622037 0.016315363347530365 -0.014293726533651352 -0.02261262945830822 0.005834545474499464 -0.0032968618907034397 0.011389398016035557 0.02662503905594349 -0.011989339254796505 0.017594631761312485 0.013341251760721207 0.004242594353854656 0.0094904825091362 0.027421871200203896 0.008680067956447601 0.009173953905701637 -0.006907267961651087 -0.006404400337487459 0.08051659911870956 0.043699927628040314 0.058694180101156235 0.023654885590076447 -0.02562003582715988 0.007611018605530262 0.042213067412376404 -0.005122738424688578
http://dbpedia.org/resource/Template:Snd -0.022472435608506203 0.007319030351936817 -0.019431238994002342 -0.017414739355444908 0.018268300220370293 0.0024879963602870703 0.022598765790462494 -0.03636263310909271 -0.02143634483218193 -0.02925843745470047 -0.004608228337019682 0.0025553214363753796 0.006270245183259249 -0.046300455927848816 -0.0028954537119716406 -0.050215885043144226 -0.009039920754730701 0.016916794702410698 -0.06783082336187363 0.004035195801407099 -0.04807296022772789 0.0020611505024135113 0.013003213331103325 -0.03541859611868858 0.024947676807641983 -0.03686133399605751 -0.0035775534342974424 -0.010732889175415039 -0.002244001952931285 0.04072916507720947 -0.009615246206521988 -0.006323376204818487 -5.17225475050509E-4 0.03666066750884056 -0.023780640214681625 -0.010485869832336903 -0.012637278065085411 -0.023231755942106247 0.018756281584501266 0.027852879837155342 -6.645037792623043E-4 -0.0036833786871284246 0.036055564880371094 0.014708063565194607 0.050369538366794586 -0.04633592441678047 -0.004739581607282162 -0.009011351503431797 -0.0134561313316226 0.022869424894452095 -0.024078337475657463 0.019912565127015114 -0.010456358082592487 -0.034892596304416656 -0.026852814480662346 0.01668059453368187 0.004563347436487675 0.005230361595749855 0.009767605923116207 -0.009540777653455734 -0.014345948584377766 -0.011178189888596535 -0.013197993859648705 -0.00823985505849123 0.028932172805070877 0.028211627155542374 -0.03605172410607338 -0.014853738248348236 -0.04901500046253204 -0.027985671535134315 -0.05154498293995857 -0.011870127171278 -0.01867634616792202 -0.025831354781985283 0.01617245376110077 0.01294340193271637 -0.043884001672267914 -0.019822629168629646 -0.015050816349685192 -0.029830818995833397 0.028514904901385307 0.04398100823163986 -0.00180797278881073 0.022359149530529976 -0.0022089052945375443 0.009731411933898926 0.01733436994254589 0.05172460153698921 0.021185513585805893 0.01712167076766491 -0.03027563914656639 0.019564617425203323 -0.04447382688522339 -0.002629126189276576 -0.02188698947429657 7.520428625866771E-4 -0.013630615547299385 0.01225474663078785 -0.07703549414873123 0.04284503683447838
http://dbpedia.org/resource/Hermagoras_of_Amphipolis 0.02365773916244507 0.022216860204935074 -0.018623655661940575 0.05258071795105934 0.02348943240940571 0.02744387276470661 -0.01608392409980297 -0.03136259689927101 -0.061799291521310806 -0.0570792630314827 0.04942469671368599 0.021785032004117966 0.047978516668081284 -0.11236471682786942 -0.04533727094531059 -0.0997842401266098 -0.014137043617665768 0.032194897532463074 -0.22397935390472412 0.061918940395116806 -0.15276342630386353 -0.033740513026714325 0.017842775210738182 -0.07654603570699692 0.10383784025907516 -0.12462575733661652 -0.003972572274506092 -0.035783663392066956 -0.06745021790266037 0.15045450627803802 -0.031091587617993355 0.03410806134343147 -0.02526901103556156 -0.05460701137781143 -0.057292912155389786 -0.11507520079612732 -0.024287933483719826 -0.0500381700694561 -0.18312807381153107 -0.03990058973431587 0.09253834933042526 0.009868434630334377 0.02862781472504139 0.14207607507705688 0.12366509437561035 -0.11967910826206207 -0.02302716113626957 0.02020552009344101 -0.024898609146475792 0.08895314484834671 -0.04799887537956238 0.02758573368191719 -0.03581216186285019 -0.06348598003387451 -0.07481059432029724 0.02561800181865692 0.017996493726968765 0.02967972308397293 0.010190393775701523 0.011578544974327087 0.0543258972465992 0.009146228432655334 -0.04212726652622223 0.005607325583696365 0.03819284588098526 -0.0991978794336319 0.02052345871925354 0.03774021938443184 0.015772901475429535 -0.05999138578772545 -0.08658212423324585 -0.04886047914624214 0.00351663026958704 -0.0350058376789093 0.017915554344654083 -0.05339427664875984 -0.0876021757721901 0.02358974516391754 -0.06898384541273117 -0.0533183217048645 0.08418307453393936 0.08243538439273834 -0.012680837884545326 0.08944886922836304 0.05018185079097748 0.058651454746723175 0.050557348877191544 0.19064044952392578 -0.05944720655679703 -0.022305987775325775 0.07272860407829285 0.02071618102490902 0.0971984788775444 0.04809695482254028 0.03154217451810837 0.10340029746294022 0.11024663597345352 0.07021235674619675 0.11841258406639099 -0.10263049602508545
http://dbpedia.org/resource/Lucretius -0.007462994661182165 0.01429719477891922 -0.016929270699620247 0.008973783813416958 0.007307288236916065 0.004166894592344761 0.009326119907200336 -0.026551058515906334 -0.011406018398702145 -0.01418499369174242 -0.025467101484537125 0.004564365837723017 -0.0027994983829557896 -0.007101885974407196 0.006011538207530975 -0.00493139773607254 0.005104845389723778 0.00739371869713068 0.010356013663113117 -9.95327834971249E-4 0.009241367690265179 -0.0021768445149064064 -1.3531297736335546E-4 -0.007208254653960466 0.0020230510272085667 0.006294546648859978 0.0033205226063728333 -0.010399732738733292 -0.01113368570804596 0.01875937730073929 5.562960868701339E-4 0.01724373735487461 -0.026761792600154877 -5.517888348549604E-4 0.012418984435498714 0.00558712612837553 0.02038145251572132 -0.004596496932208538 -0.02522193267941475 0.003682120004668832 0.0075186495669186115 -0.00821240060031414 -0.014704417437314987 -0.006775382440537214 0.015050530433654785 -0.012380101718008518 0.0036635613068938255 -0.010539152659475803 -0.013049501925706863 0.004771576263010502 0.013036137446761131 -0.0011875929776579142 0.008283410221338272 -0.017199747264385223 -0.004014273174107075 0.009517918340861797 0.004013614729046822 0.008055493235588074 0.008482694625854492 -0.020468804985284805 -0.018662286922335625 0.020454490557312965 -8.105718297883868E-4 0.021391434594988823 0.001066005090251565 -0.018401218578219414 -0.023937491700053215 0.023954056203365326 -0.020642949268221855 -0.0157677810639143 -0.047813691198825836 -0.004354784730821848 -0.015852676704525948 -0.006690141279250383 -0.0014334709849208593 0.015671616420149803 -0.010614288039505482 -0.009237646125257015 0.012190009467303753 0.002529687248170376 0.004680810030549765 -0.0024242044892162085 -0.009185648523271084 -5.709176184609532E-4 0.006971094291657209 -0.00765049085021019 0.0018982021138072014 -6.1140296747908E-4 -0.0016315781977027655 -0.006842019502073526 0.001036752830259502 -0.006076501682400703 -0.02939646877348423 -0.0047006867825984955 -0.009155906736850739 -0.010414737276732922 -0.044470492750406265 0.0024743343237787485 -0.022916819900274277 0.0411083847284317
http://dbpedia.org/resource/Category:5th-century_Byzantine_women -0.02879006788134575 -0.01494139526039362 0.0229484923183918 -0.03794202581048012 0.02404305897653103 0.019077958539128304 0.0602925680577755 -1.769736409187317E-4 0.013156049884855747 0.02649823948740959 -0.01724727638065815 -6.421022117137909E-4 -0.011123016476631165 0.0166399497538805 -0.014719484373927116 0.03008732572197914 0.005709498189389706 -0.011756712570786476 0.011914454400539398 0.00125612854026258 0.04672367498278618 -0.020061085000634193 -0.014042199589312077 0.019098803400993347 0.006562062539160252 0.016923535615205765 0.001670218538492918 0.010096846148371696 0.009067559614777565 -0.024608591571450233 -4.733979294542223E-4 -0.00269330944865942 0.016061931848526 0.03276924788951874 -0.0149221858009696 0.022450868040323257 -0.0035246158950030804 0.009730110876262188 0.04623625800013542 0.016847584396600723 -0.019696826115250587 0.005704815499484539 -0.004110591020435095 -0.028873318806290627 -0.01625014841556549 0.006390244700014591 4.5941167627461255E-4 0.007238999009132385 0.007845235988497734 -0.007244897540658712 -0.005851802881807089 0.0034837061539292336 -0.0038784039206802845 0.013416108675301075 0.007422028575092554 -0.002402039710432291 0.003839797107502818 3.640276554506272E-4 6.796338711865246E-4 -0.0024559786543250084 -0.017439235001802444 0.011770151555538177 3.8018939085304737E-4 0.00982440635561943 -0.0017912841867655516 0.003683018498122692 -0.00631294958293438 0.010963593609631062 -0.0024586129002273083 0.0041796560399234295 -0.0026075788773596287 0.007959806360304356 -3.823474980890751E-5 0.004472116939723492 -0.007220395840704441 0.017979860305786133 0.006010652985423803 -0.018025189638137817 0.015721458941698074 0.004658680874854326 -0.00535138975828886 0.002069361973553896 6.096438301028684E-5 -0.011042979545891285 -0.011682339943945408 -0.00872108992189169 -0.015991611406207085 -0.010869402438402176 0.004833016078919172 1.545207342132926E-4 -0.00494209211319685 0.003361191600561142 0.030080493539571762 0.00938111636787653 0.027421381324529648 -0.0058349682949483395 -0.015984490513801575 -0.030490828678011894 -0.019342001527547836 0.0022181072272360325
http://dbpedia.org/class/yago/WikicatAncientMathematicians -0.08088026940822601 -0.0322064533829689 -0.0059080771170556545 -0.10357340425252914 0.006834475323557854 -0.004910933319479227 0.07754847407341003 -0.011903570964932442 0.03788990154862404 0.03566383570432663 -0.05656832456588745 -6.453901878558099E-4 -0.04618242755532265 0.06273622810840607 0.00978809129446745 0.08962409943342209 0.026553211733698845 -0.020439032465219498 0.15227867662906647 -0.03477539122104645 0.1418813019990921 0.0255897156894207 -0.017726771533489227 0.05696133151650429 -0.054511908441782 0.10739763081073761 0.0033620651811361313 0.008893623948097229 0.0611102320253849 -0.10905671864748001 0.018391922116279602 -0.03267486393451691 0.014179575257003307 0.05506581813097 0.05271008238196373 0.10405589640140533 0.02597779966890812 0.029371993616223335 0.13561277091503143 0.04696211963891983 -0.05815742909908295 -0.0066735451109707355 -0.026898708194494247 -0.09264562278985977 -0.06528908014297485 0.07725408673286438 0.00434411596506834 -0.0011067198356613517 0.005645209923386574 -0.048607587814331055 0.021008258685469627 -0.01391786802560091 0.010710698552429676 0.04578942432999611 0.035129085183143616 -0.013689693063497543 -0.01944243349134922 -0.018681202083826065 -0.0023446762934327126 -0.005406604614108801 0.012056870386004448 0.04110883176326752 -8.849762962199748E-4 0.03736460208892822 -0.05019266903400421 -0.05691374093294144 0.024941658601164818 0.05023235082626343 0.046732351183891296 0.05248167738318443 0.03367156907916069 0.03163991868495941 -0.025931289419531822 0.015045330859720707 0.0024068597704172134 -0.014693038538098335 0.020858241245150566 0.029145272448658943 0.039065033197402954 0.015650128945708275 -0.03292692080140114 -0.03261566162109375 -0.004926001653075218 -0.03568064048886299 -0.019081076607108116 -0.021929051727056503 -0.0472024567425251 -0.08171955496072769 -0.0016496303724125028 -0.012605025433003902 0.016511263325810432 -0.003512826282531023 -0.02578268200159073 -0.005816818680614233 0.008190924301743507 -0.04633715748786926 -0.06548593193292618 -0.05968750640749931 -0.06976940482854843 0.04097633436322212
http://dbpedia.org/resource/Themistoclea 0.0011633449466899037 0.020807934924960136 -0.03315730020403862 0.016788005828857422 0.008330644108355045 0.004974878393113613 -0.01087278313934803 -0.030225208029150963 -0.03313544765114784 -0.01692420430481434 -0.027964849025011063 0.02517998032271862 0.009602708742022514 -0.017519237473607063 -0.012762396596372128 -0.0073964656330645084 0.0021382400300353765 0.00842020008713007 -0.01872151903808117 0.003040839685127139 -0.014430072158575058 -0.0035864110104739666 0.002232783706858754 -0.005969496909528971 0.014505426399409771 -0.00529657443985343 0.004337584134191275 0.0014185478212311864 -0.02675575762987137 0.039048854261636734 0.0055883340537548065 0.0310803409665823 -0.04115412384271622 -0.04429822787642479 0.026803717017173767 -0.0046637170016765594 0.03775402158498764 -0.005289873108267784 -0.06579210609197617 -0.024930709972977638 0.021547488868236542 -0.011216651648283005 -0.028982916846871376 0.018394211307168007 0.031457480043172836 -0.02924891747534275 0.0025340511929243803 2.747690014075488E-4 -0.009964069351553917 0.02020433358848095 -0.002067399676889181 0.008556501008570194 6.329183233901858E-4 -0.02497979626059532 -0.021002236753702164 0.012183517217636108 0.010188539512455463 0.011945346370339394 0.0017162277363240719 -0.015476752072572708 0.010947058908641338 0.041868265718221664 -0.008729532361030579 0.03302236273884773 -0.011374136433005333 -0.0653805360198021 -0.006724409759044647 0.046172596514225006 0.013055670075118542 -0.01095604244619608 -0.04287295043468475 -0.007112611550837755 -0.026106612756848335 -0.015155347064137459 0.01313357800245285 -0.021434351801872253 -0.01536641363054514 0.02297002449631691 -0.005242363084107637 -0.0027364506386220455 0.012765752151608467 -0.009472708217799664 -0.0068546743132174015 0.007041670847684145 0.02682936005294323 0.0027038338594138622 -0.006188852712512016 0.009283243678510189 -0.017545154318213463 -0.021838758140802383 0.02082900144159794 0.011910539120435715 -0.05135653540492058 -0.019639253616333008 -0.039905909448862076 -0.012079612351953983 -0.013186740688979626 0.009736400097608566 -0.03576837480068207 0.03254144266247749
