1079 100 30000
http://dbpedia.org/resource/Category:260s_BC_deaths 0.02771608717739582 0.022683463990688324 0.03496723622083664 7.706969336140901E-5 -0.02282426878809929 -0.01169506274163723 0.017268186435103416 -0.0051528578624129295 -0.011751150712370872 -0.007497292943298817 -0.03325953334569931 -0.03824097290635109 0.005610479507595301 -0.03715270385146141 0.00704431114718318 -0.02151722088456154 0.01862424984574318 0.0011062491685152054 0.009478192776441574 -0.015337767079472542 -0.0010328756179660559 -0.040879786014556885 0.013687779195606709 -0.01111697033047676 -0.024342458695173264 0.01497675385326147 0.03198891133069992 0.011194177903234959 0.011903381906449795 0.04135045036673546 -0.03924932703375816 0.032401710748672485 -0.04465988650918007 0.06957326829433441 0.0036011270713061094 0.04287084937095642 0.009100873954594135 0.047067414969205856 0.02612551860511303 0.04069461673498154 0.03537460044026375 -0.006562036462128162 -0.009814255870878696 0.011580543592572212 0.005591884721070528 0.002005533780902624 0.018652232363820076 0.01631796546280384 0.0012428517220541835 0.028362929821014404 -0.002690817229449749 0.003232415532693267 -0.010877602733671665 -0.014117928221821785 0.012208729051053524 3.8601443520747125E-4 0.0027838393580168486 -0.019378844648599625 -0.004475639201700687 0.011971333995461464 0.005697093904018402 -0.003416545921936631 0.01368220429867506 -0.023404689505696297 0.012189177796244621 -0.012463453225791454 -0.0241484846919775 -0.038994934409856796 -0.029322989284992218 0.005350494757294655 -0.004126690328121185 0.009222234599292278 0.02059349976480007 -0.0018764931010082364 0.007782932836562395 0.0053424653597176075 0.011951086111366749 -0.015779707580804825 -0.009952143765985966 0.011839514598250389 -0.009077897295355797 0.048841990530490875 -0.03756178170442581 0.007768820971250534 0.015667706727981567 0.03260040283203125 0.01889975368976593 0.037415310740470886 -0.010630687698721886 0.044581398367881775 0.014344913884997368 -0.021026594564318657 -0.009067140519618988 0.0254177525639534 0.005036440212279558 0.013626194559037685 0.014909811317920685 0.02644873596727848 0.0013745755422860384 0.0028132700826972723
http://dbpedia.org/resource/Quintilian 0.015870938077569008 0.002936667064204812 0.016420675441622734 -0.003256584983319044 -0.014241153374314308 -0.0060743652284145355 -0.0023503287229686975 -0.006251661106944084 0.008070376701653004 -0.00480736093595624 -0.004985921550542116 -0.024327071383595467 0.0038954748306423426 -0.027477357536554337 0.00265934388153255 -0.01801561936736107 0.02016494981944561 0.011814778670668602 0.010505978949368 0.0025472608394920826 -0.019231198355555534 -0.016469700261950493 0.006720168516039848 -0.003079605521634221 -0.005724029149860144 0.014193983748555183 0.012572110630571842 -0.006946678273379803 -8.728817338123918E-4 0.02113625779747963 -0.023182660341262817 0.0016012636478990316 -0.005705912131816149 0.053279124200344086 0.01416125800460577 0.022708401083946228 -0.007489668671041727 0.013363856822252274 0.012183351442217827 0.007394048385322094 0.005259168334305286 -0.009133059531450272 0.017087601125240326 -0.0028574923053383827 0.015673527494072914 -0.004141117911785841 0.008925475180149078 0.0021704642567783594 3.7535070441663265E-4 0.02369960956275463 -0.01899297907948494 0.003817805787548423 -0.0052382731810212135 -0.008668893948197365 0.010917648673057556 0.009725730866193771 0.013253547251224518 -7.83840543590486E-4 0.0012127886293455958 0.017428981140255928 0.016767822206020355 -0.009441932663321495 0.021098751574754715 -0.0173649825155735 0.011008813045918941 -0.0044672200456261635 -0.005876360461115837 -0.02080431766808033 -0.01646461710333824 0.009365633130073547 0.0025309110060334206 -0.00469252560287714 0.00625544972717762 -0.008298713713884354 -0.00137825938872993 -0.002810136415064335 0.014643356204032898 -0.016111386939883232 -0.0072339726611971855 0.006887821014970541 -0.002182244323194027 0.02457488887012005 -0.013743897899985313 -0.0012695033801719546 0.01008216105401516 0.020802678540349007 0.004748706240206957 0.02197890542447567 -4.6863968600519E-4 0.02769141085445881 0.010984993539750576 -0.017162077128887177 -0.01938052661716938 0.011235360987484455 -0.0023546575102955103 0.013149424456059933 0.00807842519134283 0.010641148313879967 -0.0019559883512556553 0.00881599448621273
http://dbpedia.org/resource/Thomas_Taylor_(neoplatonist) 0.007758239284157753 -0.05422184616327286 -0.010681778192520142 -0.020168405026197433 -0.013822220265865326 0.01949440687894821 0.007099936716258526 9.86567814834416E-4 0.028543442487716675 -0.008222422562539577 0.02197391539812088 -0.004838910419493914 -0.00793879758566618 -0.007631869986653328 0.01862880028784275 -0.032263047993183136 0.02799796126782894 0.009303580969572067 0.007485775742679834 0.03324186056852341 -0.04242749139666557 0.011891404166817665 -0.008984438143670559 -0.012294813990592957 0.005727660376578569 0.015320462174713612 -0.01749209314584732 -0.03167913109064102 -0.015611649490892887 0.0039917947724461555 -0.009622085839509964 -0.0245827566832304 0.018206296488642693 0.05201561376452446 0.026218991726636887 0.01503603346645832 -0.025701019912958145 -0.0030489573255181313 -7.856066804379225E-5 -0.016205942258238792 -0.020887387916445732 -0.03292884677648544 0.04350356385111809 -0.03493190184235573 0.04193831980228424 0.0039048318285495043 0.0029391131829470396 -0.03434045985341072 0.00175873760599643 0.057483233511447906 -0.07592206448316574 -0.00940375030040741 0.001080647693015635 -0.0033011343330144882 -2.6077497750520706E-4 0.03983744606375694 0.03439384698867798 0.02606431022286415 0.005622437689453363 0.07872379571199417 0.04501820355653763 -0.022512249648571014 0.04969952255487442 -0.006186519283801317 0.004392012022435665 0.033687155693769455 0.0482199527323246 -0.013250954449176788 -0.026682531461119652 -0.005284033715724945 0.02416197769343853 -0.041716378182172775 0.04394879937171936 -0.00519014336168766 -0.021416286006569862 -0.021046681329607964 0.0433579683303833 0.002694461029022932 -0.03329198434948921 0.021253854036331177 -0.03349514305591583 0.022580385208129883 -0.04005098342895508 -0.011095267720520496 0.04675723984837532 0.051286157220602036 0.012856586836278439 5.247931694611907E-4 -6.204235833138227E-4 0.049260225147008896 0.04475487023591995 0.0018610241822898388 -0.021173473447561264 0.003320146817713976 -0.004161747172474861 0.020046928897500038 0.0033961948938667774 -0.009200368076562881 -0.014028980396687984 0.0011805302929133177
http://dbpedia.org/resource/Category:270s_BC_deaths -0.007107230369001627 -0.005334710702300072 -0.014204539358615875 0.001325369579717517 -1.9206291472073644E-4 -0.004654373973608017 -5.200490122660995E-4 0.0026981784030795097 0.006191276013851166 -0.007271804381161928 0.004059888888150454 -0.004338238388299942 -9.744175476953387E-4 -0.01451144926249981 -0.006842341274023056 0.0017879599472507834 0.006440904922783375 0.009765749797224998 0.003284816164523363 0.008853774517774582 -0.011168323457241058 0.004174644127488136 0.0027434818912297487 -0.0092235766351223 0.002425053156912327 0.0016883080825209618 0.0041006519459187984 -8.380963699892163E-4 0.0033039478585124016 0.00783323124051094 -0.002873638877645135 -0.0033715672325342894 4.988505388610065E-4 0.00972816813737154 -0.001904556411318481 0.009199007414281368 -0.0023081256076693535 -3.376175300218165E-4 -0.007263668347150087 0.002290822332724929 -0.00472040893509984 -0.004897309001535177 0.004893337842077017 9.615106391720474E-4 0.01725389063358307 -0.020619481801986694 -4.3712276237783954E-5 5.746923488914035E-5 -0.010565381497144699 0.004111044574528933 -0.00230805273167789 -0.005687615368515253 0.003072656923905015 -0.011877340264618397 -0.007664271164685488 0.0023362133651971817 0.003239099867641926 0.005878770258277655 0.009347702376544476 0.008915726095438004 0.006407478358596563 -4.5648892410099506E-4 0.007206501439213753 -0.004329833667725325 -0.012488785199820995 0.017094530165195465 0.011592467315495014 0.010193603113293648 -0.007030323147773743 -0.009260435588657856 0.0010738885030150414 -0.011059441603720188 0.014128233306109905 0.002173983259126544 -0.011189517565071583 -0.018356116488575935 0.0024434279184788465 0.010506442748010159 0.0014256592839956284 -0.0047208396717906 -0.008205479010939598 0.02532746084034443 -0.02241361513733864 0.0011239855084568262 0.004737461917102337 0.0046499609015882015 0.013083047233521938 0.010549003258347511 -0.010808796621859074 0.01796369068324566 -0.004901139065623283 -0.013806229457259178 -0.011200563050806522 0.025339461863040924 0.01620800606906414 0.00772732961922884 0.013891106471419334 0.01834268867969513 -0.0033794580958783627 0.01424860768020153
http://dbpedia.org/ontology/mainInterest 0.09833993762731552 0.09809806197881699 0.14326749742031097 -0.011774929240345955 0.008670707233250141 0.04960360378026962 0.19316524267196655 -0.03697614744305611 -0.08231786638498306 -0.013583158142864704 -0.1712363064289093 -0.10169727355241776 -0.04821023344993591 0.3000901937484741 0.15283016860485077 -0.04132611304521561 0.010621189139783382 -0.22870679199695587 0.019678033888339996 -0.19411221146583557 0.1291704773902893 -0.2133537083864212 -0.021235236898064613 0.15795695781707764 -0.10455874353647232 0.11012161523103714 0.09892264753580093 0.051896288990974426 0.05266451835632324 0.09835153818130493 -0.12113411724567413 0.14535075426101685 -0.07328833639621735 0.04203769937157631 -0.02508397586643696 0.08882323652505875 0.08807796239852905 0.17260849475860596 0.10532250255346298 0.13361722230911255 0.13557381927967072 0.025760367512702942 -0.13597579300403595 0.009007382206618786 -0.12452881038188934 0.17395460605621338 0.025365659967064857 0.07763531059026718 0.07199827581644058 0.032173894345760345 0.022635694593191147 0.0719112902879715 -0.058320146054029465 0.10461702197790146 0.15123632550239563 0.06098037213087082 0.023105312138795853 -0.13325417041778564 -0.07158377021551132 0.0045677535235881805 -0.017958885058760643 0.020595906302332878 -0.042393192648887634 -0.034585367888212204 0.07157716155052185 -0.07906872034072876 -0.07128260284662247 -0.11074483394622803 0.018520446494221687 0.0474386028945446 0.057791221886873245 0.008052852004766464 -0.020110247656702995 -0.018384922295808792 0.08331886678934097 0.1403704285621643 0.04119246080517769 -0.0743061974644661 -0.04107086732983589 0.02671227790415287 0.0707966759800911 -0.12252867221832275 0.09742517024278641 0.061056412756443024 0.021044423803687096 -0.007274379953742027 -0.041584696620702744 -0.017011910676956177 0.05128498375415802 -0.04047107696533203 0.06446927040815353 0.14590156078338623 0.09549611061811447 -0.19398139417171478 -0.12918221950531006 -0.03663161024451256 -0.10341548174619675 -0.12271218001842499 -0.03562602400779724 -0.12936937808990479
http://dbpedia.org/resource/Logos 0.018643828108906746 -0.004074936732649803 0.018470291048288345 -0.005440721288323402 -0.02224445343017578 0.006503615528345108 0.026032136753201485 -0.018197838217020035 2.2002472542226315E-4 -0.016290057450532913 -0.02864554151892662 -0.043904390186071396 -0.0032757550943642855 0.009528146125376225 0.02761513739824295 -0.03642071411013603 0.01797984167933464 -0.03875770792365074 0.014663328416645527 -0.023502327501773834 -9.26814042031765E-4 -0.05290712043642998 0.008182116784155369 0.014495443552732468 -0.03639201819896698 0.04177547246217728 0.03883463889360428 0.0023228158243000507 0.017843274399638176 0.05357840284705162 -0.04884309694170952 0.02768726646900177 -0.035559412091970444 0.11722908914089203 0.01921246200799942 0.0660012811422348 0.017527127638459206 0.055609092116355896 0.02793598361313343 0.0487460233271122 0.03376305103302002 -0.020124193280935287 -0.002016956452280283 0.004744499921798706 0.008574621751904488 0.012515179812908173 0.014194108545780182 0.006384359672665596 0.009271061979234219 0.027188215404748917 -0.013432802632451057 0.028258830308914185 -0.016534756869077682 0.00131823995616287 0.02683071605861187 0.011804956942796707 0.002227045362815261 -0.018777912482619286 -0.005501529201865196 0.017402442172169685 0.017833717167377472 -0.00547261256724596 0.014232315123081207 -0.016637591645121574 0.03722715377807617 -0.010998843237757683 -0.016835162416100502 -0.053893525153398514 -0.021658694371581078 0.00873982347548008 0.009095798246562481 0.0035404022783041 0.02665582485496998 -0.011394735425710678 -0.011789355427026749 0.007052714470773935 0.01717846654355526 -0.017580190673470497 -0.020827997475862503 0.0024405396543443203 -0.013515813276171684 0.030395634472370148 -0.032850466668605804 0.008031384088099003 0.01808169111609459 0.030133724212646484 0.012006144970655441 0.030434202402830124 1.8499023281037807E-4 0.040803682059049606 0.02394229918718338 -0.007373514585196972 -0.009554930031299591 0.007586804684251547 -0.008047698065638542 0.01167465653270483 -0.0023241196759045124 0.017667029052972794 -0.005284676793962717 0.0026033634785562754
http://dbpedia.org/resource/Photios_I_of_Constantinople 0.021106673404574394 -0.021810149773955345 0.021318376064300537 -0.02060157060623169 -0.011225602589547634 0.018181119114160538 0.025736644864082336 -0.006590203382074833 0.014127817004919052 -0.015888838097453117 -0.01148409117013216 -0.026631729677319527 -0.009829504415392876 0.011560404673218727 0.03258870169520378 -0.0370720736682415 0.02967478707432747 -0.01869482360780239 5.639354349114001E-4 4.067733825650066E-4 -0.03193245083093643 -0.03150414302945137 -0.01107864547520876 0.013616560027003288 -0.020174209028482437 0.030544469133019447 0.010693431831896305 -0.026349324733018875 -6.663548992946744E-4 0.02484389953315258 -0.03563370555639267 0.009206421673297882 0.0028141543734818697 0.07312001287937164 0.029581643640995026 0.040294624865055084 -0.010090913623571396 0.03575635701417923 0.013865254819393158 0.017094509676098824 0.013077965937554836 -0.034694988280534744 0.029353810474276543 -0.019046297296881676 0.025658633559942245 0.026259129866957664 0.01545826718211174 -0.010676980018615723 0.00983294378966093 0.05969467759132385 -0.054929934442043304 0.015356816351413727 -0.015356963500380516 0.012493751011788845 0.033570948988199234 0.040494177490472794 0.030440721660852432 0.005394298117607832 -0.005450138356536627 0.05471492186188698 0.041583411395549774 -0.01987987756729126 0.03937175124883652 -0.013357196003198624 0.017209094017744064 0.012414155527949333 0.027706360444426537 -0.03291279450058937 -0.019731692969799042 0.00908326543867588 0.027356082573533058 -0.03736370429396629 0.024013470858335495 -0.010153647512197495 -0.01388435810804367 -0.0022784185130149126 0.03594323992729187 -0.017250673845410347 -0.03847041353583336 0.015172543935477734 -0.01976785436272621 0.0032810380216687918 -0.01871510036289692 0.0013678522082045674 0.03422892466187477 0.034100234508514404 0.008686186745762825 0.013653192669153214 0.00451285857707262 0.046900175511837006 0.051642462611198425 0.01286537665873766 -0.012341278605163097 -0.013277482241392136 -0.022870462387800217 0.012281876988708973 -0.007332046516239643 -0.015598558820784092 -0.011701310984790325 -0.017385585233569145
http://ar.dbpedia.org/resource/???????? 0.014736616052687168 -0.04674750193953514 0.008297758176922798 -0.023814989253878593 -0.013939684256911278 0.024709297344088554 0.057441387325525284 -0.0172200296074152 0.009770131669938564 -0.01833968237042427 -0.016445375978946686 -0.03582660108804703 -0.01711157336831093 0.08998357504606247 0.06347499042749405 -0.04979773983359337 0.035214267671108246 -0.07106951624155045 -6.693392060697079E-5 -0.017053019255399704 -0.02786523848772049 -0.048325806856155396 -0.015303962863981724 0.02350066602230072 -0.03290807828307152 0.055006612092256546 0.024301642552018166 -0.022289209067821503 -0.0032698397990316153 0.04139989614486694 -0.04285368323326111 0.00284055108204484 -0.003242358798161149 0.10545995831489563 0.03146021068096161 0.05562422797083855 0.010919272899627686 0.053728263825178146 0.022317897528409958 0.03256409242749214 0.014762376435101032 -0.04507150501012802 0.022810423746705055 -0.02681022137403488 0.030663490295410156 0.04418935999274254 0.01773097924888134 -0.02674584835767746 0.030854636803269386 0.07168975472450256 -0.07333789765834808 0.03167638182640076 -0.01830068975687027 0.031080294400453568 0.044893778860569 0.05295933037996292 0.04027353227138519 0.0036779583897441626 -0.01967414654791355 0.07859750092029572 0.05310855805873871 -0.0194162018597126 0.0354342944920063 -0.0036673021968454123 0.02754606306552887 0.02374075911939144 0.05191565677523613 -0.040828920900821686 -0.01878179796040058 -6.676508346572518E-4 0.05452194809913635 -0.056177154183387756 0.04794846102595329 -0.016752691939473152 -0.02581893466413021 -0.020668616518378258 0.056123241782188416 -0.004229246638715267 -0.049201615154743195 0.02149060182273388 -0.033973995596170425 0.010259615257382393 -0.04222885146737099 0.0070867352187633514 0.05218229442834854 0.053947288542985916 0.010163177736103535 0.005476743448525667 0.0027629851829260588 0.05385056883096695 0.07808074355125427 0.03860084339976311 -0.006391692440956831 -0.03469961881637573 -0.028661375865340233 0.009276289492845535 -0.01553170196712017 -0.030412236228585243 -0.025542885065078735 -0.031195074319839478
http://dbpedia.org/resource/Friedrich_Nietzsche 0.025184718891978264 -0.017344916239380836 0.03272196650505066 -0.017037861049175262 -8.511001360602677E-4 0.021770402789115906 0.03206140547990799 -0.010793270543217659 0.005252488423138857 -0.008301246911287308 -0.012245383113622665 -0.024151381105184555 -0.006032359320670366 0.04474300891160965 0.029033517464995384 -0.028525030240416527 0.01932167075574398 -0.04141993448138237 0.0034582335501909256 -0.014178061857819557 -0.015914268791675568 -0.028720039874315262 -0.014184471219778061 0.0351826436817646 -0.02020198479294777 0.02835778333246708 0.009821084327995777 -0.02323680929839611 -0.003358509624376893 0.01702401414513588 -0.023145463317632675 0.006682682782411575 6.870231591165066E-4 0.058385252952575684 0.03179480507969856 0.0339217334985733 0.005643635988235474 0.03314857929944992 0.01481896173208952 0.015248297713696957 0.018215445801615715 -0.015789015218615532 0.007338987197726965 -0.017096439376473427 -0.0024143799673765898 0.04490400478243828 0.019478674978017807 -0.003225715598091483 0.019166750833392143 0.03171223774552345 -0.02895338460803032 0.029916934669017792 -0.013459905982017517 0.028697054833173752 0.058707840740680695 0.04013173654675484 0.02934195287525654 -0.01795898750424385 -0.013469334691762924 0.02430717647075653 0.02416006475687027 -0.0028757432010024786 0.0161383505910635 -0.010513115674257278 0.03403136134147644 -0.01050157006829977 0.007904475554823875 -0.03477482125163078 9.166693198494613E-4 0.01619689352810383 0.023019518703222275 -0.01876489818096161 0.004488312639296055 -0.011268721893429756 0.0025316921528428793 0.01400655135512352 0.020796701312065125 -0.02232270874083042 -0.02255025878548622 0.006883726920932531 -0.0016584204277023673 -0.03324286639690399 0.018194451928138733 0.004327474627643824 0.019927211105823517 0.007256035692989826 -0.01360655203461647 -0.014013774693012238 0.024280397221446037 0.018659086897969246 0.03844085708260536 0.041662752628326416 0.008465982973575592 -0.043578945100307465 -0.030202209949493408 -0.007623924873769283 -0.024187767878174782 -0.03452810272574425 -0.01307264156639576 -0.020685583353042603
http://dbpedia.org/resource/Commentaries_on_Aristotle 0.01174920704215765 -0.01444873958826065 0.00769084831699729 -0.014410565607249737 -0.014922326430678368 0.015199915505945683 0.0257524736225605 -0.009157554246485233 -0.0034951085690408945 -0.006838494911789894 -0.02062910981476307 -0.026930002495646477 -0.0038735591806471348 0.020388338714838028 0.026633068919181824 -0.018794432282447815 0.01321539469063282 -0.019924171268939972 0.0024350155144929886 -0.018354767933487892 -0.009384001605212688 -0.03558499366044998 -0.0037701271940022707 0.004492794629186392 -0.018217260017991066 0.023809047415852547 0.01820039004087448 0.003522676881402731 0.01017059851437807 0.03410624340176582 -0.027973446995019913 0.012157527729868889 -0.015675146132707596 0.06025659665465355 0.012019844725728035 0.03581744059920311 0.011067456565797329 0.03369744494557381 0.017944371327757835 0.029244378209114075 0.015146610327064991 -0.017115989699959755 0.006588505581021309 -0.0021581612527370453 0.019357452169060707 0.0151768634095788 0.006637325044721365 -0.0049621108919382095 0.003890783991664648 0.03442830592393875 -0.020916040986776352 0.005263623781502247 -0.008617370389401913 0.0012539741583168507 0.008903020061552525 0.015040225349366665 0.01695067249238491 -0.004664397332817316 -0.0012403101427480578 0.03870947286486626 0.02572220377624035 -0.01285469252616167 0.023012641817331314 -0.011485612019896507 0.010473033413290977 0.008398192934691906 0.010470293462276459 -0.02716742269694805 -0.025530077517032623 -0.0016592382453382015 0.021719733253121376 -0.017158741131424904 0.036201007664203644 -0.010542172007262707 -0.008352587930858135 -0.005446804687380791 0.020783891901373863 -0.00648152781650424 -0.025407209992408752 0.012809844687581062 -0.01592165045440197 0.031729426234960556 -0.03649379685521126 0.007357473950833082 0.02152971923351288 0.034409794956445694 0.018499914556741714 0.017762236297130585 -0.009335055947303772 0.034023113548755646 0.03198964521288872 -0.0032040688674896955 -0.008981242775917053 0.005086442921310663 -0.010777776129543781 0.010252043604850769 0.0011594113893806934 -8.927084854803979E-4 -0.014268903061747551 -0.006602221168577671
http://dbpedia.org/resource/Andronicus_of_Rhodes -0.0014633563114330173 -0.07798687368631363 -0.0226425901055336 -0.021672049537301064 -0.03387511521577835 0.00836506299674511 -0.01929946430027485 -0.013648826628923416 0.05070338398218155 -0.015920544043183327 0.04047892242670059 -0.02500390075147152 0.008509170264005661 -0.09707724303007126 -0.01596757397055626 -0.04603121429681778 0.06136015057563782 0.05599980056285858 0.00814028736203909 0.07520029693841934 -0.1082206666469574 0.03449448198080063 -0.002897957805544138 -0.06066468730568886 0.009928595274686813 0.009283365681767464 -0.00850975513458252 -0.06011725217103958 -0.03692688047885895 -0.0047072130255401134 9.128587553277612E-4 -0.05969632789492607 0.03736557438969612 0.11429168283939362 0.06419195234775543 0.028535302728414536 -0.0461779348552227 -0.03372469171881676 -0.03729976713657379 -0.035874124616384506 -0.05518573150038719 -0.07218616455793381 0.11315930634737015 -0.028385037556290627 0.11001335084438324 -0.050538402050733566 0.006488006561994553 -0.059338752180337906 -0.0022837596479803324 0.09484204649925232 -0.10857708007097244 -0.010845968499779701 -5.406192503869534E-4 -0.020812951028347015 0.007974257692694664 0.061628296971321106 0.05006420984864235 0.06295668333768845 0.016822535544633865 0.10461501777172089 0.08657477051019669 -0.03740214928984642 0.09399343281984329 -0.0017990902997553349 -0.01234344020485878 0.07804928719997406 0.09132067114114761 6.190184503793716E-4 -0.04633018374443054 -0.0034840861335396767 0.04078952223062515 -0.0657130554318428 0.05561981722712517 -0.013551744632422924 -0.06492173671722412 -0.0678328201174736 0.035626932978630066 0.026420392096042633 -0.03635982424020767 0.009805270470678806 -0.058599069714546204 0.07990875840187073 -0.09965566545724869 -0.008392744697630405 0.048915568739175797 0.07301969081163406 0.04092853143811226 0.029337121173739433 -0.03424936905503273 0.10042114555835724 0.05194252356886864 -0.05690701678395271 -0.06403687596321106 0.08186301589012146 0.04860033839941025 0.03511431813240051 0.05067030340433121 0.06265842169523239 -0.007556159980595112 0.04355404153466225
http://dbpedia.org/resource/Philolaus 0.0028986353427171707 -0.023985112085938454 0.0017246692441403866 -0.01609867252409458 0.0031658110674470663 0.020936446264386177 0.019005684182047844 -0.006102283485233784 0.010372822172939777 8.437031647190452E-5 0.0014072000049054623 -0.0036372775211930275 -0.00424228236079216 0.011225338093936443 0.014760380610823631 -0.011640987358987331 0.022063344717025757 -0.016421016305685043 -0.002210839418694377 0.008713094517588615 -0.03346238657832146 -0.0032798228785395622 -0.011754537001252174 0.005680042784661055 -0.004830804653465748 0.01565125584602356 -0.006081970874220133 -0.025674976408481598 -0.005485011730343103 -0.0019881785847246647 -0.0035997056402266026 -0.005543016828596592 0.017854295670986176 0.0172947458922863 0.022020144388079643 0.007489231880754232 -0.0022670028265565634 0.006153865717351437 -0.00518578989431262 -0.009183969348669052 -0.005153222940862179 -0.02464926615357399 0.024202730506658554 -0.02004891447722912 0.013034411706030369 0.015068422071635723 0.0024516740813851357 -0.019261837005615234 0.005365962162613869 0.032153286039829254 -0.037819016724824905 0.009376571513712406 -0.005072772037237883 0.013626706786453724 0.023875918239355087 0.0355985201895237 0.021335210651159286 0.012879845686256886 -0.001964680617675185 0.029320230707526207 0.029867300763726234 -0.013981522060930729 0.02485617622733116 0.0062176878564059734 0.0019217890221625566 0.022490086033940315 0.040369097143411636 -0.003528733504936099 -0.004912984557449818 -0.0015647849068045616 0.02467966265976429 -0.02895640954375267 0.00877123512327671 -0.010182555764913559 -0.018305016681551933 -0.00949234701693058 0.014597058296203613 0.002683784579858184 -0.021908780559897423 0.0012597310123965144 -0.010414205491542816 -0.007546164095401764 -0.006999839097261429 -0.007687819190323353 0.01758022978901863 0.011356827802956104 0.005341668613255024 -0.0054889037273824215 0.003345356322824955 0.019144417718052864 0.0373612716794014 0.019158340990543365 -0.007462347857654095 -0.01302102580666542 -0.008532363921403885 -0.0015604514628648758 -0.004979625344276428 -0.01836383156478405 -0.005967788863927126 -0.006615131627768278
http://dbpedia.org/resource/Protagoras_(dialogue) 0.004866868257522583 -0.026141511276364326 0.005551772657781839 -0.0187440924346447 -0.007399928290396929 0.015044222585856915 0.012334750033915043 -0.004297472070902586 0.01703615114092827 -0.0016480202320963144 0.004143466241657734 -0.011694785207509995 -0.002966878470033407 -0.003984689712524414 0.00819353573024273 -0.015562579967081547 0.02715231291949749 -5.732515710406005E-4 -0.001235939096659422 0.01263237465173006 -0.028400247916579247 -8.944518631324172E-4 -0.010154421441257 -8.197171264328063E-4 -0.001636060536839068 0.014357808977365494 -0.003014038084074855 -0.017225908115506172 -0.006119346246123314 0.0032902664970606565 -0.011776749044656754 -0.006518764887005091 0.011639739386737347 0.027078993618488312 0.01375570148229599 0.008934752084314823 -0.01378158200532198 0.009692197665572166 0.0037553415168076754 0.0012690104776993394 -0.0021365946158766747 -0.016890181228518486 0.02075575292110443 -0.01976231299340725 0.021289225667715073 0.0076933265663683414 0.003067965619266033 -0.012409733608365059 0.00727289542555809 0.04225703701376915 -0.0454290434718132 9.649316198192537E-4 -0.006593069527298212 0.006411648355424404 0.014152485877275467 0.027577029541134834 0.023140205070376396 0.016040589660406113 -4.825258220080286E-4 0.050080131739377975 0.027599597349762917 -0.013713601045310497 0.0253911130130291 -0.002424017060548067 0.005532384384423494 0.02199896052479744 0.030593030154705048 -0.005070389714092016 -0.01046810857951641 0.0033877857495099306 0.02786453627049923 -0.03059416450560093 0.019759470596909523 -0.005837137345224619 -0.01016091275960207 -0.01121499389410019 0.02194630168378353 -0.0018945381743833423 -0.025220179930329323 0.011624030768871307 -0.02012842334806919 0.006861171219497919 -0.017644627019762993 -0.008495986461639404 0.028463661670684814 0.030918598175048828 0.007899589836597443 -8.715720032341778E-4 0.003952833358198404 0.026286188513040543 0.04020562022924423 0.006041272543370724 -0.012085068970918655 0.0012641663197427988 -0.003516936907544732 0.010886874981224537 -0.001268117455765605 -0.009685615077614784 -0.009261679835617542 -0.00928008183836937
http://dbpedia.org/resource/Category:Roman-era_Athenian_philosophers -0.025575600564479828 -0.03269410878419876 -0.048760417848825455 0.008383436128497124 0.009381536394357681 0.006256900727748871 0.001066409982740879 -0.0025420254096388817 -3.042166354134679E-4 0.0011787707917392254 0.01413600705564022 0.01754019968211651 0.0012446495238691568 0.03441501408815384 0.0077598486095666885 0.01094895415008068 -0.006291492376476526 -0.019364846870303154 -0.012207222171127796 -0.007771927863359451 0.009249775670468807 -0.004306312650442123 -0.0019282196881249547 0.004800164140760899 -0.008305506780743599 0.002285429509356618 0.005343279335647821 0.006092861294746399 -0.002063782187178731 1.6549226711504161E-4 0.00574613967910409 -0.0014603972667828202 0.001365943462587893 -0.014716295525431633 -0.01505862083286047 -1.2440464342944324E-4 0.010832330211997032 -0.009010129608213902 -0.016502613201737404 -0.0029414792079478502 -0.023615330457687378 0.001559186726808548 0.005988982040435076 0.007582185324281454 0.008811084553599358 -0.016405189409852028 -0.010441897436976433 -0.019597960636019707 -0.002495402470231056 -0.015689389780163765 0.012251719832420349 -0.005900208372622728 0.0022197181824594736 0.009134034626185894 -0.0263332799077034 -0.0036739581264555454 -0.008605322800576687 0.015019495040178299 0.0101070087403059 -0.005488385446369648 -2.147162740584463E-4 -0.006157515104860067 -0.004335354082286358 0.007356593851000071 -0.010704176500439644 0.023510973900556564 0.023948028683662415 0.02544672042131424 -1.8812160124070942E-4 -0.021164951846003532 0.003075801767408848 -0.008976154029369354 0.01205053273588419 0.006866103503853083 -0.013695141300559044 -0.02720102109014988 -0.004017143975943327 0.023067956790328026 0.0047368016093969345 -0.014525465667247772 -0.009382357820868492 0.014384855516254902 -0.02027508057653904 -0.001359015703201294 -0.001375640626065433 -0.009744293987751007 0.008827767334878445 -0.0042375363409519196 -0.004979719873517752 -0.005165368318557739 -0.005602230783551931 -4.7612300841137767E-4 0.005331314168870449 0.006373623851686716 0.017062203958630562 0.0035498591605573893 0.011118466965854168 0.006527683697640896 -0.007802128791809082 0.004514496307820082
http://dbpedia.org/resource/Chalcis 0.012017223984003067 -0.0015200386987999082 0.02307712659239769 -0.00204591266810894 -0.0011676981812343001 0.009468290023505688 0.01856982707977295 -0.006074882112443447 0.004972632043063641 -0.005785719025880098 -0.013462367467582226 -0.01804644800722599 0.0025076766032725573 -0.004592877812683582 0.005003572441637516 -0.02146533690392971 0.021445170044898987 -0.012205581180751324 0.0016735158860683441 0.003865251550450921 -0.02387526072561741 -0.015589660033583641 -0.0010681550484150648 0.006228860002011061 -0.012548387050628662 0.017098836600780487 0.014177912846207619 -0.011081088334321976 -0.0028496473096311092 0.012092720717191696 -0.01168867852538824 0.0027142618782818317 0.0011058577802032232 0.031743984669446945 0.014168718829751015 0.022843724116683006 -0.002174472203478217 0.01245530229061842 0.008476069197058678 0.009058632887899876 0.004432057496160269 -0.011916745454072952 0.004462704993784428 -0.011068588122725487 0.013904178515076637 0.01440946664661169 0.006370129995048046 0.003627619706094265 -4.278053529560566E-5 0.025304127484560013 -0.019007306545972824 0.00721410196274519 -0.0018625446828082204 0.00925864651799202 0.033209655433893204 0.0318419486284256 0.02175879292190075 -0.001692447578534484 -0.013282452709972858 0.015939787030220032 0.023962462320923805 -0.0031868084333837032 0.01901893876492977 -0.0016978597268462181 0.0024404553696513176 0.017584295943379402 0.026132117956876755 -0.014718255959451199 -0.004604078363627195 0.006491965614259243 0.013741984963417053 -0.017191020771861076 0.0068741547875106335 -0.012850077822804451 -0.009560403414070606 -0.0014359853230416775 0.01127861998975277 -0.002971290610730648 -0.02019229345023632 0.0033816371578723192 -0.0051291570998728275 -0.006037281360477209 -0.005705591756850481 0.005874071270227432 0.014774059876799583 0.010374101810157299 7.655341178178787E-4 0.004753102548420429 0.007904580794274807 0.022777540609240532 0.024546455591917038 0.01107829436659813 -0.00815997738391161 -0.012727913446724415 -0.006486557424068451 9.568120003677905E-4 -0.005213703960180283 -0.008142250590026379 -3.897893475368619E-5 -0.002340244594961405
http://dbpedia.org/resource/Astrology 0.02302606776356697 -0.006880193017423153 0.020558053627610207 -0.00662977434694767 -0.030163599178195 6.616259925067425E-4 0.02112305536866188 -0.005120200105011463 2.2667087614536285E-4 -0.01592583954334259 -0.021186446771025658 -0.036723241209983826 0.0032271072268486023 -0.03027931973338127 0.017130792140960693 -0.029415929690003395 0.01477043516933918 -0.0035116185899823904 0.020110802724957466 -0.021881401538848877 0.0017025703564286232 -0.04041309282183647 0.014372026547789574 -0.007152791600674391 -0.02537509612739086 0.02196386829018593 0.025128277018666267 0.011706139892339706 0.01049785315990448 0.0460636280477047 -0.04399072006344795 0.024155383929610252 -0.03950352221727371 0.08677683025598526 0.012769405730068684 0.05089607089757919 0.003765776753425598 0.050737567245960236 0.02859935536980629 0.04144030436873436 0.03054475039243698 -0.0136655792593956 0.004576591309159994 -0.001604439108632505 0.02560589089989662 0.0032700742594897747 0.009316638112068176 0.003954249434173107 0.0027376010548323393 0.043822985142469406 -0.023109355941414833 -0.003204233245924115 -0.012925355695188046 -0.015232732519507408 -0.0063479067757725716 0.0011740323388949037 0.003625921905040741 -0.001645615790039301 0.005308742634952068 0.04136233404278755 0.021010732278227806 -0.01310010813176632 0.027379805222153664 -0.028530053794384003 0.011817669495940208 -0.00645503168925643 -0.01320632454007864 -0.044612061232328415 -0.038093455135822296 -0.007226293906569481 0.012107486836612225 -0.003034137422218919 0.04136383533477783 -0.0048746815882623196 -0.005645167548209429 0.0021973177790641785 0.02667625993490219 -0.011674600653350353 -0.018810495734214783 0.011301041580736637 -0.011572224088013172 0.05852134898304939 -0.050351519137620926 0.00628224853426218 0.02606092020869255 0.05671370401978493 0.019456245005130768 0.040693800896406174 -0.01673402450978756 0.06001465395092964 0.022271253168582916 -0.02857496775686741 -0.017301835119724274 0.027608828619122505 -0.0048851617611944675 0.01772824488580227 0.010353515855967999 0.028409691527485847 0.0010061850771307945 -1.3898988254368305E-4
http://dbpedia.org/resource/Augustus 0.0013641505502164364 -0.011046568863093853 -1.744300388963893E-4 -0.0027583593036979437 -0.011195896193385124 -0.002022526925429702 0.016223009675741196 -0.007216191850602627 -0.003640345297753811 -0.005975417327135801 -0.013130118139088154 -0.01938716694712639 -7.109800935722888E-5 0.007147848606109619 0.01336031686514616 -0.01470470055937767 0.006797014269977808 -0.01391429640352726 0.0060510700568556786 -0.014620046131312847 0.010985137894749641 -0.025026291608810425 0.003613140434026718 0.004075140226632357 -0.008991321548819542 0.007178574800491333 0.013145765289664268 0.011569381691515446 0.007337911520153284 0.021299153566360474 -0.020319893956184387 0.009610109962522984 -0.016298692673444748 0.03893563896417618 -2.6947291917167604E-4 0.01739448681473732 0.006418043281883001 0.022401999682188034 0.014259164221584797 0.020608024671673775 0.007960343733429909 -0.006182622630149126 0.002246662275865674 0.006431458052247763 0.010567871853709221 6.932321703061461E-4 0.005016108509153128 0.003382838796824217 -0.0033233168069273233 0.015397629700601101 -0.0012894425308331847 -0.004166466183960438 -0.010682549327611923 -0.007570229470729828 -0.009856726974248886 -0.003009404521435499 -0.004679480101913214 -0.0032822031062096357 0.002720070770010352 0.016908010467886925 0.004136029630899429 -0.01141896191984415 0.012857508845627308 -0.0066083455458283424 -0.0015756248030811548 0.004772834945470095 -0.005577965639531612 -0.013246615417301655 -0.020861757919192314 -0.007393048610538244 8.938973187468946E-4 -0.001393960090354085 0.02227041870355606 -0.006303707603365183 -0.00528730871155858 -0.002253508660942316 0.01070996280759573 0.0026401467621326447 -0.0085831293836236 0.0034852009266614914 -0.0046345810405910015 0.02919640578329563 -0.028793973848223686 0.005816524848341942 0.012613102793693542 0.019664129242300987 0.010301169008016586 0.021083790808916092 -0.011397255584597588 0.023576950654387474 0.007335893344134092 -0.016114838421344757 -0.0025357273407280445 0.013772561214864254 0.0029072838369756937 0.008723443374037743 0.004123466555029154 0.008761333301663399 -0.0045224567875266075 0.0012866618344560266
http://dbpedia.org/resource/Mathematics 0.041804634034633636 -0.022026093676686287 0.06540416181087494 -0.02486472949385643 -0.004672422539442778 0.03521331772208214 0.04858669266104698 -0.011664436198771 0.004865322727710009 -0.0063170623034238815 -0.02503824234008789 -0.026768306270241737 -0.019672637805342674 0.07871764898300171 0.0531088151037693 -0.034531284123659134 0.027245476841926575 -0.0673266276717186 0.002158242277801037 -0.020686086267232895 -0.013364391401410103 -0.0484946183860302 -0.021500838920474052 0.05219326540827751 -0.018169056624174118 0.045908473432064056 0.014029356651008129 -0.024814844131469727 -0.0053016715683043 0.02534438855946064 -0.037069618701934814 0.014933191239833832 0.01172070112079382 0.07181162387132645 0.03151121363043785 0.051999397575855255 -9.293073671869934E-4 0.0530274398624897 0.0398651659488678 0.03128281608223915 0.028151046484708786 -0.017450349405407906 0.0031202114187180996 -0.031071022152900696 -0.015834283083677292 0.07932531088590622 0.025844236835837364 0.004130599554628134 0.03865759074687958 0.050828028470277786 -0.059668827801942825 0.03923313692212105 -0.01827748864889145 0.04537215828895569 0.07777946442365646 0.06224716082215309 0.042399242520332336 -0.029292335733771324 -0.02961749956011772 0.040625881403684616 0.03027004934847355 -0.00607731007039547 0.014546436257660389 -0.013037998229265213 0.046013243496418 -0.021053390577435493 -4.4252342195250094E-4 -0.05850241705775261 0.010676550678908825 0.0342513844370842 0.03910026326775551 -0.019880009815096855 -0.0034058361779898405 -0.013673277571797371 0.01369965635240078 0.03951256349682808 0.03621043637394905 -0.04701715707778931 -0.035517703741788864 0.027009954676032066 0.006553595419973135 -0.07285325229167938 0.049528464674949646 -0.0035008881241083145 0.038954075425863266 0.011941155418753624 -0.018134240061044693 -0.028154665604233742 0.035142697393894196 0.01988636702299118 0.0716404989361763 0.07115379720926285 0.010676948353648186 -0.07966610789299011 -0.0595935694873333 -0.010360333137214184 -0.04835214838385582 -0.06997133791446686 -0.013783680275082588 -0.04841660335659981
http://dbpedia.org/resource/Archytas -0.025864074006676674 -0.02051612362265587 -0.02688656374812126 -0.0017573152435943484 0.015233468264341354 0.0049322680570185184 -0.03982758894562721 0.01429167203605175 0.019217928871512413 0.009728224948048592 0.04992509260773659 0.05084734410047531 0.012432222254574299 -0.030269863083958626 -0.03469419851899147 0.03384340554475784 -0.0240244772285223 0.037599463015794754 -0.017549606040120125 0.04475507140159607 -0.007381917908787727 0.05955982208251953 -0.003985497634857893 -0.018876172602176666 0.041384708136320114 -0.04387801140546799 -0.04601074755191803 -0.009108031168580055 -0.013903106562793255 -0.05235206335783005 0.05447022244334221 -0.03638569265604019 0.033349569886922836 -0.0698900893330574 -0.002688395092263818 -0.048197682946920395 -0.015031070448458195 -0.057944536209106445 -0.025898130610585213 -0.04629552736878395 -0.042983002960681915 0.004753455985337496 0.014913874678313732 -0.008272924460470676 0.0026837659534066916 -0.020833704620599747 -0.007905003614723682 -0.02076595090329647 -0.008894508704543114 -0.04891849309206009 0.020639197900891304 -0.014716020785272121 0.01988089084625244 -0.0038413056172430515 -0.03268386796116829 -0.019207917153835297 -0.012373711913824081 0.02531900815665722 0.007192821707576513 -0.03493501618504524 -0.015431716106832027 0.00844750739634037 -0.015917720273137093 0.025891175493597984 -0.020098481327295303 0.001626162906177342 0.006030157208442688 0.041930168867111206 0.029243210330605507 -0.01438077911734581 -0.019682511687278748 0.011209418065845966 -0.025435354560613632 0.011922999285161495 -0.0020986476447433233 -0.020360583439469337 -0.018533818423748016 0.022562842816114426 0.02717742696404457 -0.012366767041385174 0.0070874919183552265 -0.015350368805229664 0.021523626521229744 -0.01859140209853649 -0.026260700076818466 -0.03370191901922226 -0.010097604244947433 -0.029246727004647255 0.006161079276353121 -0.03540638089179993 -0.0235170666128397 -0.004365571308881044 0.0027998611330986023 0.009784139692783356 0.020959744229912758 -0.002958276541903615 0.008633037097752094 -6.98375515639782E-4 0.012490848079323769 0.017043469473719597
http://dbpedia.org/resource/Category:Political_philosophers 0.004897101782262325 0.01778401806950569 0.0037418075371533632 0.004026906564831734 -0.010505801066756248 -0.011569480411708355 0.00985685084015131 -0.002574074314907193 -0.01740446873009205 -0.010664346627891064 -0.024258311837911606 -0.021168408915400505 -9.790679177967831E-5 -0.024388087913393974 0.006200504954904318 -0.013504505157470703 0.006042046472430229 0.0014771490823477507 0.0022016640286892653 -0.01799626089632511 0.0022521098144352436 -0.0239421296864748 0.0073885307647287846 -0.0030773363541811705 -0.015227464959025383 0.005578414537012577 0.025839075446128845 0.010200370103120804 0.017609355971217155 0.021502863615751266 -0.021430734544992447 0.025345217436552048 -0.03532916679978371 0.02740081213414669 -0.010561573319137096 0.016550924628973007 0.012615053914487362 0.030593279749155045 0.010858802124857903 0.027415890246629715 0.02680332027375698 -0.0010914773447439075 -0.010984377935528755 0.015568169765174389 0.006994716823101044 -0.009977305307984352 0.00237356498837471 0.015384161844849586 -0.0037085087969899178 0.01168715488165617 0.011523880064487457 -0.00332958553917706 -0.007157190702855587 -0.011895427480340004 -0.004050778690725565 -0.010934222489595413 -0.006223324686288834 -0.007111869752407074 0.0027532209642231464 0.006365776062011719 -0.004146020859479904 -0.00322996499016881 0.007368972059339285 -0.015661172568798065 -0.001981257228180766 -0.001117516541853547 -0.014662464149296284 -0.014175291173160076 -0.01923280395567417 -0.004336331970989704 -0.004503988660871983 0.002095212694257498 0.012420231476426125 -0.0017289568204432726 -0.0037787584587931633 -6.4337276853621E-5 9.220826323144138E-4 -0.0012182691134512424 -0.005272483918815851 4.381479520816356E-4 5.297985044308007E-4 0.040475714951753616 -0.03802219778299332 0.008241312578320503 -5.951267667114735E-4 0.019439389929175377 0.015103769488632679 0.03499261662364006 -0.015233359299600124 0.022350182756781578 -0.0014277700101956725 -0.02595064975321293 -0.003995767794549465 0.02504008822143078 0.01028996892273426 0.007630134467035532 0.0175088532269001 0.02425687201321125 -0.001925499876961112 0.002182688331231475
http://dbpedia.org/resource/Template:Gutenberg_author 0.01615101285278797 -0.011879419907927513 0.017975088208913803 -0.01093464344739914 -0.010817037895321846 0.009899549186229706 0.006512749474495649 -0.0073331245221197605 0.01727142557501793 -0.00600253464654088 8.485966827720404E-5 -0.0018645264208316803 -0.0018464855384081602 0.011303944513201714 0.0173476692289114 -0.023668786510825157 0.019671695306897163 -0.0025343219749629498 0.0013590555172413588 0.010930025018751621 -0.032323386520147324 0.004944513086229563 -0.009512619115412235 0.008453499525785446 5.443834816105664E-4 0.012527135200798512 -0.01091234851628542 -0.023241829127073288 -0.005692170932888985 -8.627459756098688E-4 -0.008032561279833317 -0.00991983711719513 0.006801677867770195 0.028606299310922623 0.02085496112704277 0.014805016107857227 -0.012347192503511906 0.006007036659866571 0.0036509823985397816 0.0012171557173132896 0.004437991883605719 -0.017272166907787323 0.011807935312390327 -0.020223435014486313 0.013074875809252262 0.02861825004220009 0.011930462904274464 -0.011693516746163368 0.010681096464395523 0.03315969556570053 -0.042625442147254944 0.011461498215794563 -0.0034261569380760193 0.008757736533880234 0.020305151119828224 0.022977348417043686 0.021348807960748672 -5.280789919197559E-4 -0.012420766986906528 0.029388505965471268 0.023572027683258057 -0.011158043518662453 0.02156190574169159 -0.007469646632671356 0.017483312636613846 3.2029469730332494E-4 0.009546244516968727 -0.023473910987377167 0.0020711657125502825 0.009843558073043823 0.015498828142881393 -0.021533634513616562 0.005556258372962475 -0.00471674557775259 -0.006398031488060951 0.0068181599490344524 0.02274707891047001 -0.01362330187112093 -0.015898635610938072 0.015085230581462383 -0.007923154160380363 -0.01577727124094963 0.005780031904578209 -0.009820839390158653 0.021221641451120377 0.019084861502051353 -0.006821604911237955 -0.013646801933646202 0.013269852846860886 0.015972256660461426 0.03018833138048649 0.020175134763121605 -0.004437238909304142 -0.022623084485530853 -0.023532377555966377 0.0014295775908976793 -0.020590780302882195 -0.030212227255105972 -0.01095077209174633 -0.01395206619054079
http://www.wikidata.org/entity/Q24229398 0.027270259335637093 0.1577884703874588 0.04024401307106018 0.033529769629240036 -0.002404657658189535 -0.04789624735713005 -0.015150786377489567 0.042475152760744095 -0.08409488946199417 0.03073001839220524 -0.04332246258854866 -0.0015686250990256667 0.005102389957755804 -0.034220557659864426 -0.01896640472114086 0.06270352751016617 -0.10177529603242874 0.053792256861925125 0.05360100790858269 -0.09899408370256424 0.20112620294094086 -0.05094582960009575 0.04492984339594841 -0.024552805349230766 0.017252616584300995 -0.062080852687358856 0.0034360107965767384 0.1378452628850937 0.06683671474456787 6.541302427649498E-4 -0.02044673264026642 0.06995734572410583 -0.10038481652736664 -0.10912695527076721 -0.0972975566983223 -0.03386964276432991 0.038021501153707504 0.025359097868204117 0.04964151233434677 0.053396303206682205 0.0817854106426239 0.09908097237348557 -0.13986632227897644 0.062180791050195694 -0.10925815254449844 -0.013791657984256744 -0.012715510092675686 0.09125073254108429 -0.016255194321274757 -0.0976814553141594 0.1244751438498497 -0.04919318109750748 -0.015297703444957733 -0.07561762630939484 -0.12547512352466583 -0.1685243546962738 -0.10491504520177841 -0.05245203152298927 0.02895299345254898 -0.09445858001708984 -0.14186789095401764 0.037696536630392075 -0.10790786147117615 -0.03292248398065567 -0.015714045614004135 -0.14263589680194855 -0.21254853904247284 -0.027056138962507248 -0.024020100012421608 -0.021099723875522614 -0.10303673148155212 0.1459376960992813 -0.030591873452067375 0.042655546218156815 0.10584425926208496 0.10934139788150787 -0.03979393094778061 -0.01662866584956646 0.06890283524990082 8.448819862678647E-4 0.06453575938940048 0.05771312117576599 0.026766261085867882 0.02799660712480545 -0.058080293238162994 0.003377542132511735 0.002378479577600956 0.035413481295108795 -0.03515062853693962 -0.06839293986558914 -0.13682225346565247 -0.04880112409591675 0.046254679560661316 0.03749220818281174 -0.013127393089234829 -0.0026388345286250114 0.011530528776347637 0.026244305074214935 0.03945523500442505 -0.004235237371176481
http://dbpedia.org/resource/Marsilio_Ficino 0.016557244583964348 -0.03189112991094589 0.02073991857469082 -0.015697171911597252 -0.003191344439983368 0.019041594117879868 0.027777506038546562 -0.010981300845742226 0.013706973753869534 -0.010631294921040535 -0.00539185106754303 -0.015618527308106422 -0.009602717123925686 0.04516955837607384 0.03150442987680435 -0.026652153581380844 0.0301361121237278 -0.03030012547969818 -0.005437230691313744 0.004220030270516872 -0.03353721275925636 -0.010082662105560303 -0.01814146526157856 0.024301929399371147 -0.016793575137853622 0.03319857269525528 0.005442426074296236 -0.03336745873093605 -0.014764613471925259 0.015133623033761978 -0.014060583896934986 -0.002858890686184168 0.014548404142260551 0.06484544277191162 0.036200109869241714 0.026196690276265144 -0.0076911188662052155 0.022057291120290756 0.004516311455518007 0.008971726521849632 0.006604613736271858 -0.02915595844388008 0.023398950695991516 -0.02893833816051483 0.007652774918824434 0.04192940518260002 0.01773383654654026 -0.016541508957743645 0.024703234434127808 0.03974144533276558 -0.05320930853486061 0.02370448037981987 -0.008056489750742912 0.027740294113755226 0.05074026808142662 0.05055771395564079 0.03317391127347946 -0.003757149912416935 -0.02010655589401722 0.03624343499541283 0.03732379153370857 -0.0050062574446201324 0.022466877475380898 -0.001308732433244586 0.03168497979640961 0.00266841147094965 0.026394667103886604 -0.02617977000772953 0.007179738953709602 0.019825225695967674 0.03181495890021324 -0.0306837260723114 0.013229014351963997 -0.012309669516980648 -0.010399429127573967 -1.8928339704871178E-4 0.03141552209854126 -0.023914271965622902 -0.02724587172269821 0.01124878041446209 -0.013028749264776707 -0.03418899327516556 0.010276743210852146 -0.010201336815953255 0.024172572419047356 0.011003687046468258 -0.0068251448683440685 -0.009782638400793076 0.02671302668750286 0.02651304006576538 0.05480014532804489 0.038942910730838776 -0.0012619129847735167 -0.038731932640075684 -0.03319147601723671 -5.585991311818361E-4 -0.021149426698684692 -0.03387656807899475 -0.018202677369117737 -0.02330138348042965
http://dbpedia.org/resource/Callicles -0.012402934022247791 0.018373295664787292 -0.003972332924604416 0.0024793974589556456 0.0024539660662412643 -0.007344501093029976 -0.010904443450272083 0.004529045894742012 -0.0019537832122296095 0.00862853229045868 0.009782257489860058 0.01548771746456623 0.007140676490962505 -0.0030783817637711763 -0.010615604929625988 0.015646111220121384 -0.012835579924285412 0.012245719321072102 -1.9610393792390823E-4 0.0039288196712732315 0.023429613560438156 0.008925402536988258 8.311255369335413E-4 -0.007291180547326803 0.009318750351667404 -0.014353768900036812 -0.007981337606906891 0.012886247597634792 -0.004031842108815908 -0.0179872028529644 0.022631023079156876 0.002156249713152647 -3.2698168070055544E-4 -0.03215761482715607 -0.007964084856212139 -0.022595638409256935 0.006084269843995571 -0.012715783901512623 -0.009996001608669758 -0.011846118606626987 -0.0018121267203241587 0.01598815992474556 -0.01816590502858162 0.005330222193151712 -0.013044134713709354 -0.006679798476397991 -0.0024567090440541506 0.0039710719138383865 -0.0054725040681660175 -0.029456961899995804 0.025362301617860794 -0.009474693797528744 0.0013567197602242231 -0.002427513711154461 -0.011879091151058674 -0.018414229154586792 -0.019728045910596848 0.0013203684939071536 0.0015714869368821383 -0.03207063674926758 -0.02192584238946438 0.011875522322952747 -0.029209168627858162 0.006919162347912788 -0.010868874378502369 -0.008880943059921265 -0.008813138119876385 0.012990563176572323 0.0068008252419531345 -0.011751551181077957 -0.009698715060949326 0.015667971223592758 -0.015549792908132076 0.0048523880541324615 0.0074958764016628265 1.632395724300295E-4 -0.01824038289487362 0.013186284340918064 0.016214005649089813 -0.012110861949622631 0.005227710586041212 -0.006517605856060982 0.007122809533029795 -2.23739116336219E-4 -0.020240338519215584 -0.01870439201593399 -0.002863463945686817 -0.0030826141592115164 -0.003540417877957225 -0.026408683508634567 -0.023649338632822037 0.002494360087439418 0.009099927730858326 -2.648889785632491E-4 0.007338220253586769 -0.004438641015440226 0.002090347232297063 0.003576376475393772 0.005442457739263773 -7.910587009973824E-4
http://dbpedia.org/class/yago/WikicatPeopleFromAlexandria -0.0011009539011865854 0.03509574383497238 -4.799616290256381E-4 0.013895140960812569 -0.003896154463291168 -0.014577040448784828 -0.0116309504956007 0.005720938555896282 -0.01740974746644497 0.009577598422765732 -0.001902689109556377 0.0014973635552451015 0.006107792258262634 -0.01961200311779976 -0.008461972698569298 0.022586802020668983 -0.025765905156731606 0.018348287791013718 0.007857163436710835 -0.013834969140589237 0.04392273724079132 -0.006116097792983055 0.012514150701463223 -0.009599546901881695 0.006434496026486158 -0.014942855574190617 -0.003421202301979065 0.032493267208337784 0.01384812593460083 0.001614219043403864 0.00446161488071084 0.007149184122681618 -0.014394434168934822 -0.02809419296681881 -0.023057840764522552 -0.011952530592679977 0.004093129187822342 5.654878914356232E-4 0.0045095449313521385 0.008709261193871498 0.009405304677784443 0.019165901467204094 -0.02883354388177395 0.021100711077451706 -0.01998959295451641 -0.017340615391731262 -0.001017279108054936 0.019683506339788437 -0.010843190364539623 -0.033846378326416016 0.03482122719287872 -0.007244515232741833 -0.0035849539563059807 -0.024233641102910042 -0.03749909624457359 -0.03737489879131317 -0.03296526148915291 -0.0032375804148614407 0.007159898057579994 -0.028015829622745514 -0.031303636729717255 0.011290179565548897 -0.027745289728045464 -0.005279178731143475 -0.0036429367028176785 -0.030175480991601944 -0.04527496173977852 0.0030509924981743097 0.0016584002878516912 -0.0034194146282970905 -0.026897571980953217 0.03747737035155296 -0.007718187756836414 0.007235002238303423 0.01461709477007389 0.018435722216963768 -0.012713279575109482 -0.002824164228513837 0.02228689193725586 -0.006631712429225445 0.011430006474256516 0.01975182816386223 0.0037055788561701775 1.396128791384399E-4 -0.02247139811515808 -0.004683070350438356 -0.001141377491876483 0.005333066917955875 -0.009212390519678593 -0.021897051483392715 -0.04075005277991295 -0.021673858165740967 0.008513306267559528 0.02128937654197216 0.0019134500762447715 0.005106591619551182 0.010236295871436596 0.013391543179750443 0.012478789314627647 0.007327117025852203
http://dbpedia.org/resource/Ptolemy_I_Soter 0.0015518481377512217 -0.02038596197962761 0.013060126453638077 -0.012561479583382607 -9.365715086460114E-4 0.008379717357456684 0.010017557069659233 -0.004118447192013264 0.018395403400063515 -0.010103974491357803 0.005092913284897804 -0.007772823330014944 0.004647592548280954 -0.009186062961816788 0.0032396619208157063 -0.01945483684539795 0.026872163638472557 -0.01073372084647417 -0.0034267378505319357 0.015258335508406162 -0.03801104798913002 0.006336711347103119 -0.00808045919984579 -0.0014827295672148466 -0.006847613491117954 0.006894931197166443 -0.001962898997589946 -0.02908109687268734 -0.014502487145364285 0.004108883906155825 -0.006708236876875162 -0.007142032030969858 0.013139900751411915 0.025611121207475662 0.022143051028251648 0.014496772550046444 -0.006535788998007774 7.208756869658828E-5 -0.006050232797861099 -0.009388890117406845 -0.00391053082421422 -0.019056260585784912 0.019367940723896027 -0.009832322597503662 0.022560952231287956 0.009391742758452892 0.009933102875947952 -0.010115794837474823 8.496413938701153E-4 0.02803797461092472 -0.032058920711278915 0.006479524075984955 -0.0035392397549003363 0.013401797041296959 0.028452541679143906 0.0286873672157526 0.017286065965890884 0.0015935887349769473 -0.0025302967987954617 0.02532995492219925 0.025168681517243385 -0.0061916569247841835 0.0215358454734087 0.001984572969377041 0.006635352503508329 0.02550273761153221 0.030050400644540787 -0.006004836410284042 0.0023778462782502174 0.00166777812410146 0.01786782220005989 -0.023269662633538246 0.012334145605564117 -0.006346943788230419 -0.014267411082983017 -0.0182886254042387 0.013156172819435596 -0.0038975875359028578 -0.016004906967282295 0.001503694336861372 -0.01196868997067213 -0.0014843186363577843 -0.0076592834666371346 -0.00751432403922081 0.014756467193365097 0.005896423943340778 -7.025923114269972E-4 0.0036835656501352787 0.008404837921261787 0.02336150035262108 0.033661749213933945 0.00964975357055664 -0.005551912821829319 -0.006415349896997213 4.750755615532398E-4 -2.751925785560161E-4 -0.002687679138034582 -0.004125986248254776 -0.009839029051363468 -0.006166341248899698
http://dbpedia.org/resource/Category:Ancient_Crotonians 0.007768501061946154 -0.0019672561902552843 0.005396359134465456 -0.002143110381439328 -4.458455659914762E-4 0.0017440413357689977 0.002824468072503805 6.999624019954354E-5 0.005465700291097164 -3.632601292338222E-4 0.0020024224650114775 -0.00470504118129611 -7.215532241389155E-5 -0.00908698607236147 0.0034053968265652657 -0.00821048952639103 0.015523689799010754 -0.0027708422858268023 0.0035029491409659386 0.011073189787566662 -0.019953077659010887 -0.0036538203712552786 -0.002579091815277934 0.001010246342048049 -0.0042237574234604836 0.008324739523231983 -0.004805701319128275 -0.010440697893500328 -0.003671427955850959 0.00455464655533433 -0.010450508445501328 -0.005589131731539965 0.005035512614995241 0.016868341714143753 0.0102018928155303 5.584391765296459E-4 -0.005693641025573015 0.003459066152572632 0.008474539034068584 -0.0018753588665276766 0.005815205164253712 -0.010879500769078732 0.007102751638740301 -0.006429402623325586 0.01606391742825508 0.0017110805492848158 0.0086646294221282 -0.004125191830098629 0.0044438582845032215 0.03006470575928688 -0.021941084414720535 -0.008770600892603397 -0.00636186683550477 -0.0046729217283427715 0.014759978279471397 0.010331137105822563 0.01877066306769848 0.002751618390902877 -0.002984063932672143 0.02700713835656643 0.01492252666503191 -0.011332600377500057 0.021716510877013206 -0.013365782797336578 0.005949036683887243 0.0025616337079554796 0.0021021924912929535 -0.018460461869835854 -0.0089091332629323 0.0026299897581338882 0.007930390536785126 -0.008631323464214802 0.015392699278891087 7.385506178252399E-4 -0.006805228069424629 0.005766826681792736 0.01036975160241127 -0.009907354600727558 -0.009672867134213448 0.009577427990734577 -0.0040756412781775 0.01359209418296814 -0.01486498024314642 -0.0033286819234490395 0.010408896952867508 0.021038955077528954 -2.862328547053039E-4 0.004825644660741091 -0.0039609214290976524 0.021439721807837486 0.012907256372272968 -0.004107321612536907 -0.010372528806328773 0.003838267643004656 -0.0013712600339204073 0.007367463316768408 -0.003769654780626297 -0.009465190581977367 -0.005683651193976402 -2.5963629013858736E-4
http://dbpedia.org/resource/Internet_Encyclopedia_of_Philosophy 0.008561615832149982 -0.02153625525534153 -0.0027366557624191046 -0.015514935366809368 -0.0085520651191473 0.017026161774992943 0.01000117976218462 0.0031758458353579044 0.012794255279004574 -0.005345448851585388 0.01229877956211567 -0.007748129311949015 -0.0018435890087857842 -0.010088849812746048 0.007162345107644796 -0.012155106291174889 0.011417105793952942 0.001006151782348752 0.003113857237622142 0.005241874605417252 -0.016756784170866013 -0.0021834997460246086 -0.008140651509165764 -0.005040226969867945 3.677024506032467E-4 0.004870622418820858 -0.00931178592145443 -0.00987330824136734 -0.006341664120554924 0.0014916535001248121 -0.004211642779409885 -0.004980565048754215 0.009088193997740746 0.02031797170639038 0.00817429181188345 0.009846632368862629 -0.013928638771176338 0.0022457025479525328 0.0027690886054188013 -0.009895283728837967 -0.010414738208055496 -0.016456933692097664 0.01639541983604431 -0.018732720986008644 0.028565306216478348 0.0026517235673964024 -0.0014958318788558245 -0.01500795129686594 0.0016061966307461262 0.036954086273908615 -0.03883541375398636 -0.007756644859910011 -6.280577508732677E-4 -6.59323064610362E-4 4.596506478264928E-4 0.021622175350785255 0.016534598544239998 0.016133340075612068 -8.073723874986172E-4 0.045202866196632385 0.026403574272990227 -0.015300423838198185 0.0321604385972023 -0.0016468879766762257 -0.005749751813709736 0.026571670547127724 0.023240244016051292 0.006929358467459679 -0.01344934944063425 -0.001670129131525755 0.013440098613500595 -0.021760787814855576 0.026168514043092728 0.0016356101259589195 -0.013474103063344955 -0.015216005966067314 0.025255825370550156 0.00784037634730339 -0.016052275896072388 0.01253951620310545 -0.01603156514465809 0.02401232160627842 -0.028677819296717644 -0.006930908188223839 0.023112939670681953 0.030611233785748482 0.00554595747962594 0.004031075164675713 -0.004486781544983387 0.027481824159622192 0.02613002434372902 3.2522203400731087E-4 -0.016577433794736862 0.004561790265142918 0.0017860711086541414 0.010923958383500576 5.845926934853196E-4 -0.0038725496269762516 -0.010051604360342026 -0.007024414837360382
http://xmlns.com/foaf/0.1/Person -0.003849670523777604 0.1018947884440422 -0.004347573965787888 0.03659632429480553 0.0022274309303611517 -0.04250302165746689 -0.03726701810956001 0.031827233731746674 -0.054628629237413406 0.02656415104866028 -0.009694663807749748 0.027674930170178413 1.7604103777557611E-4 -0.04562421143054962 -0.02943633496761322 0.06280691921710968 -0.07847123593091965 0.06475915759801865 0.04298699274659157 -0.05544055625796318 0.14838367700576782 -0.007217171136289835 0.037721265107393265 -0.028416825458407402 0.024917704984545708 -0.05896952748298645 -0.016489878296852112 0.09919366985559464 0.04028933867812157 -0.017185237258672714 0.004513828549534082 0.03564947843551636 -0.061291515827178955 -0.1056375801563263 -0.07645837217569351 -0.044017110019922256 0.017645517364144325 -0.004719821736216545 0.019431782886385918 0.02529849298298359 0.042231518775224686 0.07987351715564728 -0.09588684141635895 0.0427623949944973 -0.0746140331029892 -0.03428725153207779 -0.01084293331950903 0.05308878421783447 -0.02643621154129505 -0.09102258831262589 0.10974115133285522 -0.0513620600104332 -0.005163798574358225 -0.0627632662653923 -0.1214827224612236 -0.1447509229183197 -0.08539928495883942 -0.023262102156877518 0.02935878187417984 -0.07801923155784607 -0.11589528620243073 0.033693376928567886 -0.08857139945030212 -0.009239941835403442 -0.022024981677532196 -0.1048254743218422 -0.1647115796804428 0.0032570241019129753 -0.011034396477043629 -0.025108102709054947 -0.09027262032032013 0.11408713459968567 -0.03127463534474373 0.03931195288896561 0.07224775105714798 0.07117798924446106 -0.03966574743390083 -0.0029410982970148325 0.06664232909679413 -0.004980809520930052 0.05005926638841629 0.0491175539791584 0.016781464219093323 0.011889972724020481 -0.05922338739037514 -0.01244199275970459 0.0023612105287611485 0.02084895595908165 -0.03212375566363335 -0.06833241879940033 -0.1205233559012413 -0.04932760074734688 0.0310739167034626 0.046745605766773224 0.003020434407517314 -0.0011539707193151116 0.007561948150396347 0.034082815051078796 0.025765560567378998 0.011817430146038532
http://dbpedia.org/resource/Gorgias 0.16072484850883484 0.06384296715259552 0.2736389935016632 -0.045961543917655945 -0.03928806260228157 0.018639151006937027 0.04408165067434311 -0.0284830741584301 0.011365626007318497 -0.019158639013767242 -0.06944151222705841 -0.10217492282390594 -0.003132327226921916 -0.09938070923089981 -0.001983202761039138 -0.09344055503606796 0.08578186482191086 0.011764057911932468 0.016670508310198784 0.009816505946218967 -0.0979268029332161 -0.04916861280798912 -0.011312712915241718 0.028959207236766815 -0.02178163267672062 0.05709734931588173 0.023274049162864685 -0.06301594525575638 0.005922030191868544 0.06811874359846115 -0.06563831865787506 0.04527561739087105 -0.016328489407896996 0.1845550537109375 0.10821446776390076 0.09386946260929108 -0.04668145254254341 0.09687495231628418 0.08171145617961884 0.049222540110349655 0.10891357809305191 -0.0325300507247448 0.005247782915830612 -0.033657923340797424 -0.012568983249366283 0.1244664192199707 0.09317663311958313 0.04312538355588913 0.03839784488081932 0.12244176119565964 -0.11712708324193954 0.059047631919384 -0.028088506311178207 0.029780274257063866 0.17808546125888824 0.09594149887561798 0.08982565253973007 -0.08760836720466614 -0.04980986565351486 0.04351841285824776 0.054251253604888916 0.010757540352642536 0.05943883955478668 -0.06414972990751266 0.11279810965061188 -0.09902492165565491 -0.09973763674497604 -0.1817130744457245 0.0054109953343868256 0.09888685494661331 0.015117748640477657 0.009788368828594685 -0.03132494539022446 -0.03205490484833717 0.05422605946660042 0.11480796337127686 0.04589730501174927 -0.14198938012123108 -0.04856302589178085 0.057234276086091995 0.026410305872559547 -0.08174126595258713 0.07991432398557663 -0.01993277482688427 0.06235405430197716 0.059874266386032104 -0.03336890786886215 0.003579734591767192 0.0636855736374855 0.08323086053133011 0.12121295928955078 0.06156853586435318 -0.016691764816641808 -0.07609529048204422 -0.09225352108478546 0.0026763947680592537 -0.08151157945394516 -0.07104840129613876 0.012179328128695488 -0.036388516426086426
http://dbpedia.org/resource/Category:4th-century_BC_philosophers 0.015579360537230968 0.07326894998550415 0.010183935984969139 0.026663238182663918 0.007394157350063324 -0.03325698524713516 0.02952001802623272 -0.012794068083167076 -0.038459260016679764 -0.013001232407987118 -0.060371171683073044 -0.04019330069422722 0.004660641308873892 -0.0371641106903553 -0.01735544204711914 -0.008456298150122166 0.011821558699011803 -0.010294478386640549 -0.004202326759696007 -0.0471004955470562 -0.003219518344849348 -0.038242366164922714 0.028140198439359665 -0.023701857775449753 -0.031138313934206963 0.0016200416721403599 0.05973158776760101 0.018147706985473633 0.028766348958015442 0.04732660576701164 -0.04381847381591797 0.04922936111688614 -0.04323098063468933 -0.02179587073624134 -0.03064722567796707 0.010944177396595478 0.02077467180788517 0.03946032002568245 0.005225128494203091 0.033850353211164474 0.03453662991523743 -0.00591613631695509 -0.023961752653121948 0.05017530173063278 0.024602914229035378 -0.03918769955635071 -0.007652715314179659 0.03174091503024101 -0.03418293222784996 0.022231798619031906 0.054743021726608276 -0.04249473661184311 -0.022891364991664886 -0.037693314254283905 -0.006873742677271366 -0.0239237230271101 -0.018671702593564987 -0.008426830172538757 0.00743101118132472 0.023242104798555374 0.007881970144808292 -0.0056035565212368965 0.03201799467206001 -0.034276168793439865 -0.04124632105231285 0.02705712988972664 -0.009299159049987793 7.648338214494288E-4 -0.051250625401735306 -0.014618011191487312 -0.004982675425708294 0.002802534494549036 0.019045233726501465 -0.004255302250385284 0.0031679917592555285 -0.018498286604881287 -0.0111045241355896 0.019266905263066292 0.0044561950489878654 -0.009262329898774624 0.003840778721496463 0.10608810186386108 -0.07861687242984772 0.040191277861595154 -0.010908514261245728 0.01688174530863762 0.03419029340147972 0.07874931395053864 -0.04604075103998184 0.028455011546611786 -0.023316772654652596 -0.058769065886735916 -0.0058462610468268394 0.07363762706518173 0.04981851205229759 0.013553249649703503 0.041103001683950424 0.06998905539512634 0.005238402169197798 0.016486993059515953
http://dbpedia.org/resource/Catholic_Church 0.012460646219551563 -0.010396485216915607 0.0027270857244729996 -0.0034344277810305357 -0.009741558693349361 0.00872044451534748 0.021616540849208832 -0.006245369557291269 -0.003836060408502817 -0.010635419748723507 -0.014463263563811779 -0.022485705092549324 -0.001782487379387021 0.028287893161177635 0.02396552823483944 -0.02084963768720627 0.013756867498159409 -0.03039969690144062 0.009148684330284595 -0.013171946629881859 -0.004184599034488201 -0.030692635104060173 0.0014993726508691907 0.009143069386482239 -0.016554007306694984 0.021000752225518227 0.024365317076444626 0.003421889618039131 0.01038314402103424 0.029775159433484077 -0.030453819781541824 0.016699980944395065 -0.01593700610101223 0.05741642415523529 0.008840074762701988 0.03169397637248039 0.004369535017758608 0.03109397180378437 0.01758098229765892 0.025806806981563568 0.012276255525648594 -0.014647901058197021 0.0014340451452881098 -0.0013000811450183392 0.010136224329471588 0.008571137674152851 0.006325807422399521 -0.0032444216776639223 0.012606245465576649 0.02451036125421524 -0.010546132922172546 0.006894357968121767 -0.008099382743239403 0.003293931484222412 0.012621459551155567 0.01271582767367363 0.007254865486174822 -0.0034839981235563755 -0.005849713925272226 0.021528057754039764 0.01106594130396843 -0.007086821831762791 0.008943863213062286 -0.010146208107471466 0.0094398632645607 0.006962714251130819 0.009520288556814194 -0.02285188063979149 -0.009641459211707115 0.004980667028576136 0.010607489384710789 -0.011463133618235588 0.02181697078049183 -0.01048808079212904 -0.009767276234924793 -3.1191366724669933E-4 0.014453926123678684 -0.008009941317141056 -0.017860649153590202 0.007163393311202526 -0.009963620454072952 0.013099635019898415 -0.02007352188229561 0.009760034270584583 0.013301406987011433 0.02081141248345375 0.0042654285207390785 0.010697091929614544 -0.004840745124965906 0.021106844767928123 0.025050919502973557 0.004406698979437351 -0.004823914263397455 -0.0016613304615020752 -0.008187681436538696 0.00410178629681468 -0.005351529456675053 -0.0011822376400232315 -0.003109801560640335 -0.009822634048759937
http://dbpedia.org/resource/Template:Snd 0.009960293769836426 -0.012167437002062798 0.018359806388616562 -0.01634075865149498 -0.009131135419011116 0.009035620838403702 0.004642682150006294 0.004644344560801983 0.00966549851000309 -0.006537622306495905 0.003384685842320323 -0.009342350997030735 -0.010214008390903473 0.005109697580337524 0.012464916333556175 -0.012938378378748894 0.01385763380676508 0.003301506396383047 0.0018375450745224953 0.008712530136108398 -0.017650999128818512 -6.898499559611082E-4 -0.010655047371983528 0.005981835536658764 -0.002088622422888875 0.00977022759616375 -0.01190774142742157 -0.012519296258687973 -0.008945979177951813 -1.384372590109706E-4 -0.008676734752953053 -0.012799898162484169 0.011706346645951271 0.02487945184111595 0.0190679170191288 0.004928424954414368 -0.005052727647125721 0.009335632435977459 0.010186473838984966 0.002820634515956044 0.004229740705341101 -0.015935717150568962 0.01771477982401848 -0.02008337341248989 0.007911710999906063 0.025503534823656082 0.013098335824906826 -0.01006570365279913 0.012974448502063751 0.026246843859553337 -0.0482323132455349 0.009550632908940315 -0.0070882923901081085 0.005736540537327528 0.009767154231667519 0.02518250048160553 0.01800314150750637 5.891765467822552E-4 -0.0013370945816859603 0.02950090356171131 0.022484973073005676 -0.0042704869993031025 0.017648492008447647 -0.003029843559488654 0.015667207539081573 -0.0021637682802975178 0.010785051621496677 -0.016287462785840034 -0.005018640775233507 0.011287931352853775 0.01683882251381874 -0.01993574947118759 0.009412710554897785 -0.009862642735242844 4.586578579619527E-4 0.007026074454188347 0.02101246826350689 -0.010300948284566402 -0.013497834093868732 0.010582185350358486 -0.013255138881504536 -0.008300472050905228 0.004980914760380983 -0.010067119263112545 0.019375767558813095 0.020516466349363327 -0.005695575848221779 -0.013060454279184341 0.013222956098616123 0.018947940319776535 0.0335233099758625 0.01235306914895773 -0.008823182433843613 -0.01430484652519226 -0.025151455774903297 0.003476939396932721 -0.016936149448156357 -0.025249622762203217 -0.007416489999741316 -0.013688882812857628
http://dbpedia.org/resource/Hermagoras_of_Amphipolis -0.02850821055471897 -0.12959599494934082 -0.08780121803283691 -0.03460445627570152 -0.025961080566048622 0.028919290751218796 -0.016496233642101288 0.010804429650306702 0.07391857355833054 -0.01214824803173542 0.06813546270132065 0.013601705431938171 -8.495150832459331E-4 -0.029106879606842995 0.016464702785015106 -0.05068137124180794 0.05627763271331787 0.047288767993450165 0.0017200624570250511 0.09729232639074326 -0.1161114051938057 0.05279852822422981 -0.021773122251033783 -0.05189518630504608 0.01903660036623478 0.008967235684394836 -0.04298783093690872 -0.07181387394666672 -0.04629743844270706 -0.0113645875826478 -0.006282576825469732 -0.07807870209217072 0.04947281256318092 0.08070817589759827 0.05652739480137825 0.0016914280131459236 -0.04979877546429634 -0.03585644066333771 -0.03525073081254959 -0.0472358837723732 -0.0613856241106987 -0.08217421174049377 0.1200249046087265 -0.060340192168951035 0.12837544083595276 -0.026370741426944733 -0.0012434558011591434 -0.09127478301525116 -0.008529417216777802 0.1157446950674057 -0.14695146679878235 -0.04410632327198982 0.0061476584523916245 -0.033826716244220734 -0.03920358791947365 0.05755265802145004 0.06468900293111801 0.10713069140911102 0.020538389682769775 0.17857740819454193 0.11581335961818695 -0.06573130190372467 0.11350417882204056 0.005088282749056816 -0.034106358885765076 0.11282677203416824 0.14638645946979523 0.026338722556829453 -0.063226118683815 -0.042483869940042496 0.06372024118900299 -0.11642615497112274 0.11147116124629974 -0.011322340928018093 -0.08058498799800873 -0.09586431086063385 0.07515594363212585 0.044848501682281494 -0.0714469701051712 0.02186863124370575 -0.08575312793254852 0.10468628257513046 -0.12915436923503876 -0.02235492132604122 0.08803483098745346 0.10660166293382645 0.051268935203552246 0.013984136283397675 -0.03161449357867241 0.1129004955291748 0.08910921216011047 -0.029046842828392982 -0.06628452986478806 0.055666934698820114 0.017798107117414474 0.04225523769855499 0.034657884389162064 0.005502904299646616 -0.034027159214019775 0.007431732024997473
http://dbpedia.org/resource/Category:5th-century_Byzantine_women 0.006979894358664751 0.012235838919878006 0.006117440760135651 0.0011735927546396852 -0.005043519660830498 -0.008397625759243965 -2.0423569367267191E-4 0.0011107920436188579 -0.003946688491851091 -4.1710204095579684E-4 -0.007452756632119417 -0.007206904701888561 -0.0022372170351445675 -0.017545225098729134 -0.003203235100954771 -5.34509657882154E-4 0.0014639570144936442 0.012908115051686764 0.004304192494601011 -2.730354608502239E-4 0.0023134860675781965 -0.007723316550254822 0.0065913875587284565 -0.006571313366293907 0.0021134382113814354 -0.0025870632380247116 2.570546348579228E-5 0.007148187607526779 0.002477651461958885 0.0066055781207978725 -0.008001420646905899 0.008194193243980408 -0.012261436320841312 -0.00523240864276886 -0.0031700506806373596 0.005058446433395147 0.00490859430283308 0.0012895544059574604 8.317317115142941E-4 7.047528051771224E-4 0.011370803229510784 0.00471704313531518 -0.005827111192047596 0.009310092777013779 0.0018853473011404276 -0.0035684588365256786 -3.3836739021353424E-5 0.007151470053941011 -0.0010760137811303139 0.0017059928504750133 0.010105418041348457 -0.008446378633379936 -0.004729714244604111 -0.010054375045001507 -0.007144507486373186 -0.006190774496644735 -0.007711839862167835 -0.0010060350177809596 0.004022407345473766 0.002058102283626795 0.0019470765255391598 0.003771899500861764 0.005069512873888016 -0.010000565089285374 -0.008578911423683167 4.534538893494755E-4 -0.006134767550975084 -0.005147320684045553 -0.00834168866276741 0.003892407054081559 -0.007816670462489128 0.008468706160783768 0.0012671073200181127 7.093805470503867E-4 0.007189090363681316 0.00352351157926023 0.002701032906770706 -0.004272147081792355 0.001476762699894607 0.005399314220994711 0.0021416081581264734 0.008235272020101547 -0.0022425937931984663 0.005418726708739996 -8.858022047206759E-4 0.008257082663476467 0.002844032132998109 0.006798900663852692 -0.010782596655189991 0.0011078069219365716 -0.009326520375907421 -0.012020453810691833 -0.0015340634854510427 0.007279308047145605 0.005520080216228962 0.004508509300649166 0.009430347941815853 0.012864142656326294 -0.0013902311911806464 0.005301945377141237
http://dbpedia.org/class/yago/WikicatAncientMathematicians -0.01504181232303381 0.03622805327177048 -0.018949566408991814 0.017252542078495026 0.007630796171724796 -0.02264922298491001 -0.030564628541469574 0.011963358148932457 -0.019697315990924835 0.015753664076328278 0.010242920368909836 0.018641965463757515 0.009775922633707523 -0.018411459401249886 -0.019118458032608032 0.042076125741004944 -0.04656049236655235 0.019508810713887215 0.0023283357731997967 -0.019976060837507248 0.06594641506671906 0.00902787409722805 0.01234752219170332 -0.006065621040761471 0.013377485796809196 -0.029409518465399742 -0.005501229781657457 0.04530135542154312 0.012477396056056023 -0.020521238446235657 0.015798654407262802 0.009915227070450783 -0.013568985275924206 -0.07438109070062637 -0.042014703154563904 -0.02984335832297802 0.010440841317176819 -0.02270081825554371 -0.006236610002815723 0.0011984948068857193 -0.002315359655767679 0.03674565255641937 -0.039050132036209106 0.0299955103546381 -0.03205101937055588 -0.03144470974802971 -0.010428773239254951 0.02229364588856697 -0.010540544055402279 -0.06858180463314056 0.06498848646879196 -0.020488062873482704 0.008282732218503952 -0.01936143822968006 -0.06069318205118179 -0.06736356019973755 -0.050800614058971405 -0.0027905155438929796 0.010626347735524178 -0.06262235343456268 -0.05614746734499931 0.015824927017092705 -0.05310840904712677 0.001009244006127119 -0.022720854729413986 -0.02938956953585148 -0.05782157555222511 0.027217725291848183 0.0038993891794234514 -0.01081760786473751 -0.04623159393668175 0.05685355141758919 -0.02218625508248806 0.01999148167669773 0.020386839285492897 0.014444147236645222 -0.03698865324258804 0.00910157710313797 0.040027886629104614 -0.018309451639652252 0.02823086827993393 0.010747494176030159 0.018965251743793488 0.0052938032895326614 -0.0366605743765831 -0.0287875235080719 -0.0024350543972104788 -0.0016367330681532621 -0.012562327086925507 -0.049811236560344696 -0.06589759141206741 -0.019025590270757675 0.012625785544514656 0.021058905869722366 0.013375000096857548 -0.008279909379780293 0.012839705683290958 0.023299219086766243 0.012221726588904858 0.00923116784542799
http://dbpedia.org/class/yago/WikicatEpistemologists -0.012321893125772476 0.016377273947000504 -0.009363435208797455 0.011961091309785843 0.003528772620484233 -0.005880116950720549 -0.0028809558134526014 0.008265813812613487 -0.010795898735523224 0.005199071951210499 0.0022183286491781473 0.006506519857794046 -0.001287353108637035 0.010968439280986786 -0.0023479268420487642 0.019596679136157036 -0.018745657056570053 -0.003738792147487402 0.0019873206038028 -0.014920179732143879 0.03561510890722275 0.0025971063878387213 0.006826500874012709 0.001754928845912218 8.443051483482122E-4 -0.009027747437357903 -0.005695629864931107 0.016689538955688477 0.00969491247087717 -0.004155205562710762 0.00266014295630157 0.006099306512624025 -0.006344412453472614 -0.030279060825705528 -0.021235452964901924 -0.011452865786850452 0.00914712529629469 0.0012086138594895601 -0.0019328529015183449 -0.0022758471313863993 -1.1943347635678947E-4 0.014581352472305298 -0.015750359743833542 0.011647886596620083 -0.019314365461468697 -0.0139748090878129 -0.0036434829235076904 0.008396769873797894 -0.00309904501773417 -0.026221461594104767 0.03498243913054466 -0.010406019166111946 0.0025068530812859535 -0.0036717283073812723 -0.022424766793847084 -0.023669663816690445 -0.02043421007692814 -0.004087384324520826 0.002948372159153223 -0.021700803190469742 -0.02342790737748146 0.0018389462493360043 -0.026649966835975647 7.505051326006651E-5 -0.00776694854721427 -0.009211594238877296 -0.02182755246758461 0.012876415625214577 0.004390852525830269 -0.009129256010055542 -0.015870939940214157 0.017985165119171143 -0.0036655785515904427 0.008669397793710232 0.0035214421804994345 0.001348180347122252 -0.008665367029607296 0.004281979985535145 0.011972969397902489 -0.005048512015491724 0.012813030742108822 0.0010435758158564568 0.006138809025287628 0.0034180297516286373 -0.014594421721994877 -0.009190792217850685 -9.293603943660855E-4 -0.0017707671504467726 -0.011436191387474537 -0.017701657488942146 -0.022178571671247482 -0.003791856812313199 0.007902249693870544 0.00516783120110631 0.010344703681766987 -0.004954192787408829 0.008096704259514809 0.009462650865316391 0.00732885068282485 0.002438040217384696
http://dbpedia.org/resource/Category:5th-century_BC_philosophers -0.004958113189786673 0.014539618045091629 -0.027950003743171692 0.022078000009059906 -0.010867009870707989 -0.03134642168879509 0.009565029293298721 -0.016501661390066147 -0.008452356792986393 -0.01630592904984951 -0.034081410616636276 -0.03922222927212715 0.008071391843259335 -0.02900313399732113 0.0021568196825683117 -0.023051109164953232 0.013972285203635693 0.007828540168702602 0.008692554198205471 -0.011370924301445484 -0.019009504467248917 -0.018392983824014664 0.02795146033167839 -0.041497789323329926 -0.030067406594753265 0.014585306867957115 0.04008727893233299 0.004262293688952923 0.01976926438510418 0.04405383765697479 -0.04571031033992767 0.009351277723908424 -0.03415396437048912 0.059485141187906265 -0.01109180599451065 0.023186666890978813 0.004645065870136023 0.027339749038219452 -0.002366016386076808 0.025374243035912514 0.011728458106517792 -0.01819799467921257 0.013677042908966541 0.025415698066353798 0.05234979838132858 -0.053846325725317 -0.004910218063741922 0.005504239816218615 -0.0197308249771595 0.031359344720840454 -7.466878741979599E-4 -0.019854089245200157 -0.0165519118309021 -0.04168848693370819 -0.029298892244696617 -0.017676174640655518 -0.018964985385537148 0.012762771919369698 0.019205162301659584 0.042987216264009476 0.020458776503801346 -0.016609353944659233 0.033565446734428406 -0.028825227171182632 -0.008953617885708809 0.023335149511694908 8.196408743970096E-4 -0.023089434951543808 -0.050323840230703354 -0.017538966611027718 -0.005190672818571329 0.005091694183647633 0.04222263768315315 -0.010520923882722855 -0.017646024003624916 -0.027341652661561966 0.0056892940774559975 0.011889098212122917 -0.004010137636214495 -0.004394637420773506 -0.024902140721678734 0.12145005911588669 -0.09276679903268814 0.025455281138420105 0.0038831750862300396 0.05040304362773895 0.033409927040338516 0.07596924901008606 -0.05034378916025162 0.05890661105513573 -0.013529729098081589 -0.06614198535680771 -0.026604531332850456 0.079556405544281 0.042425207793712616 0.03265068307518959 0.03975587710738182 0.07677838206291199 0.004898217506706715 0.036180250346660614
http://dbpedia.org/resource/Echecratides 0.002556499559432268 -0.0617322213947773 -0.02230788953602314 -0.02514568902552128 -0.028760088607668877 0.022036844864487648 0.02698441594839096 -0.006928279064595699 0.022543365135788918 -0.016728920862078667 0.0066215102560818195 -0.024616984650492668 -0.009045956656336784 -0.022515155375003815 0.02777337096631527 -0.045512326061725616 0.04045140743255615 -0.001019997987896204 0.01164204441010952 0.009576406329870224 -0.03205670416355133 -0.026397092267870903 -0.009123709052801132 -0.020785629749298096 -0.012351125478744507 0.025243718177080154 0.012551425024867058 -0.015751129016280174 -0.00416326941922307 0.03319893032312393 -0.03711894899606705 -0.007778466213494539 -0.022366825491189957 0.10855068266391754 0.03470974788069725 0.05273471027612686 -0.01222606748342514 0.03605734556913376 0.009024418890476227 0.023037023842334747 0.003265186445787549 -0.04601557180285454 0.042045336216688156 -0.0261593759059906 0.06423796713352203 -0.00435811560600996 9.998934110626578E-4 -0.03343423828482628 -3.2534170895814896E-4 0.08283592760562897 -0.07633513957262039 -0.013106657192111015 -0.010913773439824581 -0.016070537269115448 -0.009997902438044548 0.031257860362529755 0.03072330169379711 0.03885481506586075 0.011249089613556862 0.11439160257577896 0.0632772371172905 -0.04324762150645256 0.06482339650392532 -0.019690895453095436 -3.7809228524565697E-4 0.03912322595715523 0.05347590520977974 -0.026182042434811592 -0.05531344935297966 -0.02616133727133274 0.04169034585356712 -0.06244576722383499 0.09264830499887466 -0.013819372281432152 -0.044907186180353165 -0.04791243374347687 0.0593477338552475 0.025673946365714073 -0.058433011174201965 0.021381033584475517 -0.055542875081300735 0.09899760037660599 -0.11257225275039673 -0.0072744362987577915 0.06976379454135895 0.09653714299201965 0.04022739827632904 0.033049337565898895 -0.024980060756206512 0.09456625580787659 0.0711582601070404 -0.02587888576090336 -0.044044576585292816 0.039539139717817307 0.007310555782169104 0.03964666649699211 0.02643394097685814 0.021110624074935913 -0.020910844206809998 -0.002609370741993189
http://dbpedia.org/class/yago/WikicatMoralPhilosophers -0.01255103014409542 0.012825777754187584 -0.020838920027017593 0.017047807574272156 0.00449339859187603 -0.013903222046792507 -0.01817263849079609 0.0071054850704967976 -0.009578332304954529 8.845997508615255E-4 0.006948475725948811 0.01135238353163004 0.004836556036025286 -0.015322748571634293 -0.014207283034920692 0.021856723353266716 -0.021907027810811996 0.011029806919395924 6.992631824687123E-4 -0.014277758076786995 0.03360900655388832 0.0022167665883898735 0.01463308185338974 -0.006493013352155685 0.007801120635122061 -0.01420557964593172 -0.006361913401633501 0.02035493403673172 0.010683911852538586 -0.002612919081002474 0.00951464008539915 0.0011313707800582051 -0.008838902227580547 -0.0343489795923233 -0.023685092106461525 -0.01928049698472023 0.004437898751348257 -0.0074399979785084724 8.090545888990164E-4 4.999925731681287E-4 0.0035597970709204674 0.018337486311793327 -0.019987735897302628 0.018889905884861946 -0.015702037140727043 -0.025940395891666412 -0.009750625118613243 0.013599607162177563 -0.011427931487560272 -0.029419826343655586 0.0401729978621006 -0.01711290143430233 -9.864046005532146E-4 -0.0204139556735754 -0.03409384563565254 -0.04009168967604637 -0.02491544559597969 0.002225234406068921 0.011726096272468567 -0.028684081509709358 -0.028509747236967087 0.009284460917115211 -0.023395108059048653 -0.0030217785388231277 -0.011600499972701073 -0.013423445634543896 -0.03304712474346161 0.007950782775878906 0.00456245057284832 -0.012836962938308716 -0.021990757435560226 0.02624051831662655 -0.00986084621399641 0.012997382320463657 0.008490857668220997 0.002476344583556056 -0.014141222462058067 0.003935951739549637 0.02366555482149124 -0.01191474124789238 0.008867776021361351 0.018394894897937775 -0.002154514892026782 -8.895194041542709E-4 -0.02087446302175522 -0.006460667122155428 -3.856627154164016E-4 0.003231761511415243 -0.014085634611546993 -0.01562698930501938 -0.03996880352497101 -0.014665352180600166 8.423438994213939E-4 0.02004254050552845 0.00987306796014309 -9.899709839373827E-4 0.005520888138562441 0.018367743119597435 0.009826603345572948 0.01094486378133297
http://dbpedia.org/resource/Ancient_philosophy 0.053626108914613724 -0.018069129437208176 0.06902563571929932 -0.03366900980472565 -0.00373363820835948 0.0328700877726078 0.072126105427742 -0.02060908079147339 0.004033519420772791 -0.015914009883999825 -0.051364898681640625 -0.04571503400802612 -0.019707318395376205 0.07051903009414673 0.05682089179754257 -0.04923245310783386 0.04463201388716698 -0.07473508268594742 -6.544120842590928E-4 -0.03650001809000969 -0.03375266492366791 -0.06942901760339737 -0.023685894906520844 0.06384177505970001 -0.03844383731484413 0.05688856169581413 0.024217218160629272 -0.035013485699892044 -7.746675692033023E-7 0.040313489735126495 -0.04552622511982918 0.03236124664545059 0.008612457662820816 0.06934854388237 0.03028271161019802 0.05624963343143463 0.0022701886482536793 0.057058803737163544 0.03197307139635086 0.030753597617149353 0.03581308200955391 -0.0350247360765934 0.0013628226006403565 -0.03157598152756691 -7.757328567095101E-4 0.07780460268259048 0.02233598381280899 -0.0010375954443588853 0.02513524517416954 0.06098647788167 -0.05120936408638954 0.039733607321977615 -0.016951875761151314 0.04842797666788101 0.09934868663549423 0.08422613888978958 0.060162629932165146 -0.032172754406929016 -0.03469346836209297 0.04908603057265282 0.05246308445930481 -0.009280451573431492 0.048897527158260345 -0.012015320360660553 0.03369666263461113 0.024257641285657883 0.04186628758907318 -0.03619611635804176 -0.0016751401126384735 0.030913256108760834 0.051800988614559174 -0.050441015511751175 0.008143991231918335 -0.019351698458194733 0.007198553066700697 0.020285988226532936 0.0332040973007679 -0.03249148651957512 -0.049653925001621246 0.020179735496640205 0.004178624600172043 -0.06808032840490341 0.025294480845332146 0.0028021500911563635 0.047358959913253784 0.00873020850121975 -0.01864030957221985 -0.01625911518931389 0.03321525827050209 0.02226870134472847 0.08268745243549347 0.06799968332052231 0.004526922479271889 -0.08176305145025253 -0.05126909166574478 -0.007021188735961914 -0.04622207581996918 -0.05570865049958229 -0.016900954768061638 -0.04650560021400452
http://dbpedia.org/property/knownFor 0.004597393795847893 0.0013738649431616068 0.002518385648727417 -0.005722030531615019 -0.0054884618148207664 -0.001761671737767756 -0.002058816608041525 0.007017818279564381 7.302960148081183E-4 -0.0012902281014248729 -0.0024846806190907955 0.0018561077304184437 -0.002782120369374752 -0.007566944696009159 -0.001136137405410409 0.004350442439317703 -0.004783179145306349 0.001983094261959195 0.008321724832057953 -0.005533261224627495 -0.0011524445144459605 0.0019318831618875265 -4.6363502042368054E-4 -0.006519902031868696 -3.975844010710716E-4 0.0032044323161244392 -0.004905263427644968 0.005025928374379873 0.002963233506307006 0.006032324396073818 -0.0028783150482922792 0.003855859162285924 -0.0021937876008450985 0.004669568967074156 0.0022186716087162495 -0.0031230347231030464 -0.0030404464341700077 -0.00463389465585351 0.004787817131727934 0.0026116918306797743 0.005628935061395168 -0.0024614608846604824 -1.1433820327511057E-4 0.0013521236833184958 0.005347094032913446 8.372872252948582E-4 -0.00390714081004262 0.0055106100626289845 0.0010589072480797768 0.004890635143965483 -0.006735200993716717 -0.008314389735460281 -0.002096420619636774 -0.007305426523089409 -0.006347214337438345 -0.006036098580807447 -0.0016771567752584815 0.005654114298522472 0.003810267196968198 -4.45296464022249E-4 -0.0038477247580885887 0.00291039003059268 -0.0010235352674499154 9.899083524942398E-4 -0.0020379601046442986 0.0012956091668456793 -0.00440641213208437 0.002250916790217161 -0.005556108895689249 -8.697431185282767E-4 -6.62062200717628E-4 1.9377816352061927E-4 0.00611183000728488 0.003913477994501591 0.005963003262877464 0.005477904342114925 0.004838903900235891 -0.0038402415812015533 -0.0032604981679469347 0.003600296564400196 0.002348783891648054 0.009639609605073929 -0.004664643667638302 0.002361687133088708 0.004947673063725233 0.007236241362988949 0.003927562385797501 -9.416623506695032E-4 -0.002575858496129513 0.003977171145379543 -9.214204037562013E-4 -6.518291775137186E-4 -0.003586911829188466 0.005939285736531019 0.004284940659999847 0.004308808129280806 0.005005740560591221 -0.0017772470600903034 0.0026485100388526917 0.005849842447787523
http://dbpedia.org/resource/Category:6th-century_BC_Greek_women 2.3827214317861944E-4 -0.019482500851154327 0.0024421527050435543 -0.006935760844498873 -0.0020108604803681374 0.002473000902682543 0.005866731517016888 -4.8157357377931476E-4 0.007395646534860134 0.003271006513386965 0.011219209060072899 9.637493058107793E-4 -0.0015404921723529696 0.007166444789618254 0.00847291573882103 -0.004167039413005114 0.006767787970602512 -2.5233696214854717E-4 -0.003684341674670577 0.010560323484241962 -0.02117973566055298 0.011340837925672531 -0.003982739523053169 0.0010432868730276823 0.004412312060594559 0.002505283569917083 -0.00985286757349968 -0.01222686655819416 -0.005910223815590143 -0.004598082043230534 -0.00312804919667542 -0.008008205331861973 0.01658286340534687 -4.924761597067118E-4 0.011556664481759071 -0.0064089614897966385 -0.010802621021866798 -0.004686782136559486 -0.006515848450362682 -0.002938132034614682 -0.004737382289022207 -0.011954542249441147 0.011990328319370747 -0.011169764213263988 0.015448248013854027 0.0027302424423396587 0.005765215959399939 -0.005729242693632841 0.001597888651303947 0.016714928671717644 -0.023241950199007988 0.0018719487125054002 -0.004059584811329842 0.001733172219246626 0.0031642357353121042 0.014261385425925255 0.012460583820939064 0.01005034614354372 -0.0030358615331351757 0.026230646297335625 0.016734138131141663 -0.009254097007215023 0.01246692892163992 -0.001793795614503324 0.0055344924330711365 0.0035191539209336042 0.01117230299860239 -0.007669131271541119 -0.00647259596735239 3.4776769462041557E-4 0.006500194780528545 -0.009949125349521637 0.01152084395289421 -0.0018756879726424813 -0.0033508222550153732 8.822315139696002E-4 0.013695545494556427 -0.004220630507916212 -0.010409791022539139 0.004897691775113344 -0.004825962707400322 -0.001005268539302051 4.6230695443227887E-4 -0.008115656673908234 0.013799771666526794 0.009586531668901443 -0.002344399457797408 -0.004931309260427952 0.0066694337874650955 0.011874217540025711 0.013270508497953415 0.007370171137154102 -0.007378021255135536 -0.003571626963093877 -0.006834920030087233 0.0014319120673462749 -0.001767772831954062 -0.01645847037434578 -0.0037058403249830008 -0.008478743024170399
http://dbpedia.org/resource/Hetaira 0.013378539122641087 0.007467301096767187 0.008342850022017956 5.44331909622997E-4 -0.004302074667066336 -0.004457055125385523 0.009847584180533886 -0.0019631413742899895 -0.002221201779320836 -0.003048840444535017 -0.011782528832554817 -0.016406241804361343 0.003153593046590686 -0.006535541266202927 9.419278358109295E-4 -0.007740214467048645 0.004457208327949047 -0.006922816392034292 0.004731474444270134 -0.005523503292351961 -0.0027137482538819313 -0.010188276879489422 0.0020281749311834574 -0.003872065804898739 -0.009252389892935753 0.0040793875232338905 0.012960155494511127 0.0041257417760789394 0.004135271534323692 0.013408936560153961 -0.01624460518360138 0.012947953306138515 -0.012270322069525719 0.02179725281894207 0.005917015019804239 0.008823747746646404 -0.0018285117112100124 0.01837688311934471 0.002743250224739313 0.008085685782134533 0.004932169336825609 -0.00917734019458294 -0.005581372417509556 0.002266012132167816 0.008949236944317818 -2.808495191857219E-4 0.0057705966755747795 0.0055563380010426044 -0.0056535592302680016 0.016266915947198868 -6.86023326124996E-4 0.0015237585175782442 -0.0069360570050776005 -0.0017548610921949148 0.004200057592242956 0.001984690548852086 0.004480018746107817 -0.006357532925903797 -0.0016973975580185652 0.01080103125423193 0.003557804971933365 -0.0069850170984864235 0.012022790499031544 -0.0056852069683372974 0.0012265705736353993 0.0040540555492043495 0.003987472504377365 -0.012568697333335876 -0.011247704736888409 0.0016967583214864135 0.005185339599847794 -0.0040171644650399685 0.005715920589864254 -0.004554567858576775 -0.0013448753161355853 -0.003013580571860075 0.004715155344456434 -0.007660429459065199 -0.005741539411246777 0.007014988921582699 -0.006394851952791214 0.01374048925936222 -0.011648752726614475 0.00549826817587018 0.0016885052900761366 0.009376246482133865 0.004453168250620365 0.015283775515854359 -0.002559791784733534 0.012330212630331516 0.010588234290480614 -0.003414035541936755 -0.004619230050593615 0.009291263297200203 -0.00337930116802454 2.4558958830311894E-4 0.0021953685209155083 0.01005768682807684 -0.0016040595946833491 0.003859484801068902
http://dbpedia.org/resource/Dicaearchus -0.034519799053668976 -0.27142804861068726 -0.12153566628694534 -0.07764662802219391 -0.034885160624980927 0.09845561534166336 0.06326410919427872 -0.04819994792342186 0.11818908154964447 -0.04908774048089981 0.0593387596309185 -0.023320484906435013 -0.037233930081129074 0.21055446565151215 0.16296932101249695 -0.13604797422885895 0.11768078058958054 -0.11475970596075058 -0.014562012627720833 0.0806673914194107 -0.19551493227481842 -0.01131932158023119 -0.0697513073682785 0.038878314197063446 -0.04884486272931099 0.13410544395446777 -0.00814196839928627 -0.14419282972812653 -0.06832738220691681 0.04083549231290817 -0.07123175263404846 -0.09405720233917236 0.10676178336143494 0.28003641963005066 0.1448226422071457 0.09600899368524551 -0.0418442077934742 0.025947220623493195 -0.016368530690670013 -0.011655301786959171 -0.0687122642993927 -0.1554969847202301 0.19283562898635864 -0.11758535355329514 0.15461388230323792 0.07520851492881775 0.039291661232709885 -0.15980178117752075 0.07294971495866776 0.18660283088684082 -0.26423180103302 0.05930030718445778 -0.005247368011623621 0.06978350877761841 0.0832270160317421 0.18106631934642792 0.1424332559108734 0.09765101224184036 -0.014247067272663116 0.26958632469177246 0.18529438972473145 -0.09143655002117157 0.1425231546163559 0.016558852046728134 0.07905778288841248 0.11054781079292297 0.21733002364635468 -0.059637587517499924 -0.04654262959957123 2.5705521693453193E-4 0.1498151272535324 -0.1963568776845932 0.14741717278957367 -0.05439663305878639 -0.12769685685634613 -0.09362572431564331 0.1503792554140091 0.006076687481254339 -0.14542156457901 0.03979199379682541 -0.12045521289110184 0.013571130111813545 -0.09895841032266617 -0.03520095348358154 0.14505185186862946 0.13356058299541473 0.025620441883802414 -0.029591592028737068 0.040707431733608246 0.1657141149044037 0.21135404706001282 0.0893532931804657 -0.0589267872273922 -0.06593688577413559 -0.06531853973865509 0.03652624040842056 -0.04950569197535515 -0.10190217941999435 -0.08544336259365082 -0.05225037410855293
http://dbpedia.org/resource/Boethius 0.002694518771022558 -0.03300510346889496 -0.001096304738894105 -0.013252624310553074 -0.005815130192786455 0.015300579369068146 0.014152978546917439 -0.0014061317779123783 0.017269860953092575 -0.006304455921053886 0.005299298092722893 -0.003308266866952181 -0.0010451206471771002 0.014840057119727135 0.015162819065153599 -0.01965298131108284 0.017757460474967957 -0.012087509036064148 0.0037974657025188208 0.005223893094807863 -0.027880636975169182 -0.0036785120610147715 -0.011393132619559765 0.001988440053537488 -0.007848392240703106 0.01763954758644104 -0.0014734282158315182 -0.017329325899481773 -0.0075110201723873615 0.008483586832880974 -0.011169852688908577 -0.012234526686370373 0.0178694948554039 0.028892232105135918 0.019448747858405113 0.009868667460978031 -0.013021553866565228 0.003105591516941786 -0.0029375674203038216 -4.3953931890428066E-4 -0.008623460307717323 -0.02476825751364231 0.027489518746733665 -0.01986691541969776 0.0214190986007452 0.01664261519908905 0.008020552806556225 -0.013362285681068897 0.006920678541064262 0.031056569889187813 -0.04491846263408661 0.004846835974603891 -0.002758607268333435 0.010823823511600494 0.01823139749467373 0.03394892439246178 0.02328072302043438 0.009103498421609402 -0.0064241597428917885 0.04444710910320282 0.024288373067975044 -0.014498325064778328 0.021870218217372894 0.003223111853003502 0.014175811782479286 0.02022969350218773 0.025947893038392067 -0.015434369444847107 -0.0015996744623407722 0.0022628167644143105 0.021314870566129684 -0.030326031148433685 0.021414559334516525 -0.01189016830176115 -0.014035993255674839 -0.007742892950773239 0.016942355781793594 -0.002146637998521328 -0.018082065507769585 0.01232265867292881 -0.018906814977526665 -0.00262771756388247 -0.005242160987108946 -0.0022625047713518143 0.026345888152718544 0.017027970403432846 -5.350361461751163E-4 -0.0015611212002113461 0.009047036059200764 0.020096080377697945 0.030074506998062134 0.013677901588380337 -0.010321017354726791 -0.011005271226167679 -0.015998631715774536 0.008293796330690384 -0.007909565232694149 -0.018736986443400383 -0.01387942023575306 -0.004861944820731878
