440 100 10000
Hermagoras_of_Amphipolis 0.10868636518716812 -6.220262730494142E-5 -0.03279442712664604 0.07925719767808914 -0.10140588134527206 -0.06666965037584305 -0.18395033478736877 0.02180623635649681 0.04792362079024315 -0.07172355055809021 0.048243265599012375 -0.08780919015407562 -0.0377180352807045 -0.04230470210313797 0.08932267874479294 -0.07298537343740463 -0.005942267831414938 0.002434775000438094 0.05666148290038109 -0.05064524710178375 -0.09230764210224152 0.07725604623556137 0.07244744151830673 -0.06805464625358582 -0.02535584382712841 -0.019776972010731697 -0.015085389837622643 -0.046547338366508484 0.06842809915542603 0.055673468858003616 -0.011071143671870232 -0.05892789736390114 -0.03204059228301048 0.0535154715180397 -0.020376943051815033 0.004710234235972166 -0.028828220441937447 -0.05316464602947235 0.012622394599020481 0.043109700083732605 0.01376635767519474 -0.03831414878368378 0.13918066024780273 0.041196972131729126 0.057144854217767715 -0.07504065334796906 0.019702116027474403 -0.08259101212024689 -0.04602343589067459 -0.05465176701545715 -0.03956206515431404 0.0575881190598011 0.007461138069629669 -0.032297536730766296 -0.030161404982209206 -0.002632546704262495 -0.004234859719872475 -0.0449603870511055 0.024299567565321922 -0.001539026154205203 -0.007042038720101118 -0.05860418453812599 -0.001302960910834372 -0.07302165031433105 0.04727517440915108 0.1109897568821907 -0.05149875581264496 -0.030660098418593407 -0.10482128709554672 -0.07873266935348511 -0.03024914860725403 -0.013097872026264668 0.0067039416171610355 -0.04690955951809883 -0.04390138015151024 0.05519692599773407 -0.009425176307559013 -0.026636376976966858 0.01984930969774723 -0.028400683775544167 0.014207827858626842 0.03787655383348465 -0.0346355177462101 -0.010102370753884315 -0.02553270384669304 0.030514398589730263 0.045269642025232315 0.039428357034921646 0.05492837354540825 0.056156545877456665 -0.04393696039915085 -0.0022436343133449554 -0.16705867648124695 0.03590289503335953 -0.02393358387053013 -0.05508405715227127 -0.09604589641094208 0.051963191479444504 -0.023314304649829865 0.062420085072517395
Diagoras_of_Melos 0.050833337008953094 0.004367196932435036 -0.025386612862348557 0.053283367305994034 -0.10292698442935944 -0.11293327808380127 -0.30448365211486816 0.008481371216475964 0.2082538902759552 -0.10227620601654053 0.23722469806671143 -0.23534534871578217 -0.024695197120308876 -0.06815187633037567 0.11771483719348907 -0.07941700518131256 0.04144630953669548 -0.0025410582311451435 0.04715731739997864 -0.0679735466837883 -0.17601589858531952 0.10686258226633072 0.031152063980698586 -0.09247482568025589 0.0028769560158252716 -0.049792565405368805 0.012854321859776974 -0.03950363025069237 0.15923483669757843 0.13721691071987152 -0.016704395413398743 -0.10800305008888245 -0.08546868711709976 0.07110142707824707 0.04018009081482887 0.00915407482534647 -0.09612518548965454 -0.13350015878677368 -0.016912246122956276 0.08226621896028519 0.01737499237060547 -0.09422580152750015 0.2877466082572937 0.1196678876876831 0.09259353578090668 -0.13746504485607147 0.020271966233849525 -0.14774037897586823 -0.08097393065690994 -0.10913502424955368 -0.04473506286740303 0.13269495964050293 0.011707594618201256 0.034433458000421524 -0.08894526213407516 -0.021274153143167496 0.013166447170078754 -0.050116732716560364 0.03033224307000637 -0.03363759443163872 -0.008357850834727287 -0.10786508023738861 0.03942602872848511 -0.1253790557384491 0.046221695840358734 0.1733466386795044 -0.02758360467851162 -0.04054560884833336 -0.2177860289812088 -0.15432792901992798 0.006751892156898975 -0.06675928831100464 0.033761754631996155 -0.14821630716323853 -0.20285789668560028 -0.07075098901987076 0.07877887785434723 -0.08273960649967194 0.04528387263417244 -0.014106995426118374 0.12062600255012512 0.11848538368940353 -0.1742887645959854 -0.04017381742596626 0.010939088650047779 0.07286231219768524 0.14404338598251343 0.1642686128616333 0.2391161024570465 0.15327227115631104 -0.08650794625282288 0.09002707898616791 -0.5712019801139832 0.10899297147989273 -0.1120900884270668 -0.28724050521850586 -0.24135923385620117 0.10406339168548584 -0.051062893122434616 0.07201875001192093
Ancient_Greek_women_philosophers -0.06496495753526688 0.012924267910420895 -0.0021494640968739986 -0.04304065927863121 0.03331030532717705 0.006724990904331207 0.014835808426141739 -0.0212264247238636 -0.011909423395991325 0.010010366328060627 -0.0037225380074232817 0.018045296892523766 0.0021479628048837185 -0.002290548523887992 -0.02689238078892231 0.009720396250486374 0.010473201051354408 0.007721007335931063 -0.02570505067706108 0.006964803673326969 0.021364588290452957 -0.005970344878733158 -0.03185224160552025 0.007631849031895399 0.02541356347501278 0.009844595566391945 -1.1417907080613077E-4 0.018251676112413406 -0.016211066395044327 0.019221758469939232 -0.001399743021465838 -0.009288275614380836 -0.013684924691915512 -0.021212805062532425 0.016018252819776535 0.011830449104309082 0.02396872639656067 0.004818497225642204 -0.01643974706530571 -0.010558858513832092 -0.005899796262383461 0.0019690843764692545 -0.003866091137751937 -0.01386294886469841 0.003212878480553627 0.004272479098290205 -4.541018570307642E-4 -0.01184923853725195 -0.009533900767564774 -0.005207393784075975 -0.007045643404126167 -0.0017931378679350019 0.0035842275246977806 -0.009514722973108292 4.1122009861283004E-4 0.006257412023842335 -0.006406443193554878 -8.951873169280589E-4 -0.019938260316848755 -0.003455852624028921 0.003413890954107046 0.008320330642163754 0.006101022940129042 0.007359554059803486 0.0057266163639724255 0.0019382764585316181 8.984112646430731E-4 0.01884017325937748 -0.009872237220406532 -0.01731107197701931 0.004551740828901529 -0.015222433023154736 0.006612373981624842 -0.022199127823114395 -0.022758014500141144 -0.04402901977300644 0.026146305724978447 -0.01033751666545868 0.01925363391637802 -0.0037247324362397194 0.029000604525208473 0.0032505104318261147 -0.0326993502676487 -7.980124792084098E-4 0.02238663285970688 0.002910084556788206 0.02214772067964077 0.03197762370109558 0.018800290301442146 -0.0012871333165094256 0.0054690842516720295 0.016411611810326576 -0.03987034782767296 0.014126008376479149 -0.00779440812766552 -0.038631539791822433 -0.013703186996281147 0.006253609899431467 0.01227982621639967 -0.018556727096438408
Speaker110630188 0.01699640415608883 -0.01079284492880106 0.002024133689701557 0.006098677404224873 0.008506210520863533 0.015708379447460175 0.059269580990076065 6.782386335544288E-4 0.020411420613527298 0.01222102902829647 4.0671805618330836E-4 0.004095626529306173 0.020325828343629837 0.006051762029528618 -0.024290503934025764 0.031508151441812515 7.902049110271037E-4 -0.006835473235696554 0.01306775864213705 0.020891932770609856 -0.0021627633832395077 -0.044511258602142334 0.00150509353261441 0.02402828261256218 -0.002201924566179514 -0.00820654071867466 0.018185261636972427 -0.011826030910015106 -0.019934099167585373 -0.03795809671282768 0.004622170701622963 0.04863005131483078 0.02551468275487423 3.0703775701113045E-4 0.0158031415194273 -0.028167663142085075 -0.022961685433983803 -0.0011238360311836004 -0.0024229800328612328 -0.0031951232813298702 0.016421178355813026 -0.0084697799757123 -0.06460854411125183 0.026996396481990814 -0.0253593847155571 0.03453674167394638 -0.017014678567647934 0.06917974352836609 0.04087800532579422 0.056102801114320755 0.052819203585386276 -0.04052620381116867 -0.007595516741275787 0.04986373707652092 -0.0026992708444595337 -0.01135040633380413 0.0269940122961998 0.05125855281949043 0.025533707812428474 -0.01540361437946558 2.0991379278711975E-4 0.01385137066245079 -0.0015853766817599535 0.03589200600981712 -0.045695967972278595 -0.06463070958852768 0.048219602555036545 -0.003003772348165512 0.07559360563755035 0.07472570240497589 0.005185353569686413 0.025680622085928917 -0.011072227731347084 0.055131182074546814 0.041749969124794006 0.021593287587165833 -0.03467687964439392 0.023117469623684883 -0.04379528388381004 0.014040185138583183 -0.042957741767168045 -0.014071978628635406 0.04707486554980278 0.008234824053943157 -0.019473137333989143 -0.0014811448054388165 -0.04489440098404884 -0.05331213027238846 -0.04421444982290268 -0.019258975982666016 0.015362420119345188 -0.0222951490432024 0.08528856188058853 -0.018666865304112434 0.0032037864439189434 0.057221509516239166 0.04813101515173912 -0.027125809341669083 -0.0010005118092522025 -0.0011104430304840207
Greek_schools_of_philosophy -0.011509047821164131 0.006389785557985306 -0.020952902734279633 -0.00805328693240881 -0.010781408287584782 -0.014242300763726234 -0.04717598110437393 -0.012055736035108566 -0.06542254984378815 -0.018893618136644363 -0.06152290105819702 0.03558368980884552 -0.03574984893202782 -0.028750868514180183 0.004966123029589653 -0.04287359118461609 -0.005679126363247633 0.01653679460287094 -0.01094005536288023 -0.008917266502976418 0.007624149322509766 0.044619120657444 0.015424488112330437 -0.03862025588750839 0.018958022817969322 0.020827921107411385 -0.023395361378788948 -0.00547692459076643 -0.030192147940397263 0.04274987429380417 0.00410726573318243 -0.024181004613637924 -0.03786865621805191 -0.004376878030598164 -0.007780705112963915 0.03625660389661789 0.059120312333106995 0.005609795916825533 -0.016638409346342087 -0.011004317551851273 -0.009864762425422668 0.015371383167803288 0.025015756487846375 -0.03550045192241669 0.04446737840771675 -0.018584812059998512 0.009801401756703854 -0.04737372323870659 -0.03916194662451744 -0.021274039521813393 -0.0318923145532608 0.016077931970357895 0.009381658397614956 -0.09079152345657349 0.011272009462118149 0.018962552770972252 -0.02767759934067726 -0.04003731161355972 -0.014234174974262714 0.006839833687990904 2.7457383112050593E-4 -0.007665999699383974 -0.01151717733591795 -0.026445526629686356 0.05113828554749489 0.0658167153596878 -0.05943899601697922 0.013777832500636578 -0.051294635981321335 -0.06410310417413712 -0.036563675850629807 -0.008095444180071354 -7.259218255057931E-4 -0.033301956951618195 -0.0031187369022518396 0.027378525584936142 -0.011015316471457481 9.667850099503994E-4 0.03805701807141304 -0.03067709505558014 0.010797984898090363 0.0021726670674979687 -0.008547947742044926 -0.0017764114309102297 0.004076680168509483 0.004759611561894417 0.018310947343707085 0.029671940952539444 -0.015775466337800026 3.164677764289081E-4 -0.004860563203692436 -0.022317184135317802 0.008888239040970802 0.01034120749682188 0.028610140085220337 0.013331964612007141 -0.024632122367620468 0.019843600690364838 0.0031446877401322126 0.018716419115662575
Eleusinian_Mysteries -0.021195530891418457 0.0010134290205314755 -0.00302761304192245 -0.008093167096376419 7.215896621346474E-4 -0.004223168827593327 -0.025269927456974983 -0.0019397911382839084 0.009667334146797657 6.458567222580314E-4 0.012717850506305695 -0.006637676618993282 2.0710137323476374E-4 -0.009519945830106735 -0.0032208969350904226 -0.0072740213945508 0.007201320957392454 4.1497545316815376E-4 -0.009600573219358921 -0.0013869086978957057 -0.0036898688413202763 0.013402961194515228 -0.006674963980913162 -6.33198069408536E-4 0.009692233987152576 0.0011745307128876448 0.004648412112146616 0.01100294291973114 0.003742815461009741 0.021670974791049957 0.004522313363850117 -0.01806352287530899 -0.012206906452775002 -0.005541122984141111 0.009363286197185516 0.013412128202617168 0.003893037559464574 -0.002215377753600478 -0.004698681179434061 0.006244204938411713 -0.001205784734338522 0.001222937018610537 0.019108150154352188 0.0017837013583630323 0.011428706347942352 -0.006772093009203672 -0.0018715669866651297 -0.015164404176175594 -0.012060330249369144 -0.016507450491189957 -0.005312521476298571 0.01052633486688137 -9.198133484460413E-4 -0.006893619429320097 -0.0044313883408904076 -0.003791904542595148 -0.008052323013544083 -0.007869325578212738 -0.011726702563464642 -0.009373612701892853 -0.0036205467768013477 -0.004291477147489786 0.0029258020222187042 -0.01280111912637949 0.008267257362604141 0.020846694707870483 -0.0025548129342496395 0.001337743946351111 -0.026207393035292625 -0.01978820562362671 0.006006310693919659 -0.008634847588837147 0.004481018986552954 -0.021554315462708473 -0.023364992812275887 -0.026609240099787712 0.01626139134168625 -0.006447711493819952 0.009756415151059628 -0.002827978925779462 0.018617115914821625 0.007541089318692684 -0.021316183730959892 -0.007928455248475075 0.01532540563493967 0.006811119616031647 0.014723840169608593 0.029575025662779808 0.023489605635404587 0.01370208989828825 -0.0047150892205536366 0.009993406943976879 -0.06066916882991791 0.015863489359617233 -0.0062486035749316216 -0.03665664419531822 -0.024522313848137856 0.008578111417591572 0.0028569954447448254 -0.004374005366116762
Onasander 0.005732247605919838 0.019911499693989754 -0.0382503904402256 0.0016986815026029944 -0.047204647213220596 -0.04670130833983421 -0.10744071751832962 -0.004953859373927116 -0.1277826428413391 -0.048380885273218155 -0.11160200834274292 0.04302626848220825 -0.08157101273536682 -0.035382647067308426 0.042940653860569 -0.1061989888548851 -0.016253776848316193 0.029497791081666946 0.009018776938319206 -0.043526336550712585 0.007367447949945927 0.1028490960597992 0.053988248109817505 -0.0803270936012268 -0.002640093443915248 0.027927443385124207 -0.05354633182287216 -0.017468644306063652 -0.01159637700766325 0.07108085602521896 -0.01417622808367014 -0.0710127204656601 -0.059906888753175735 0.01750999502837658 -0.05508842691779137 0.05486480891704559 0.09402012079954147 0.01889936812222004 -0.004532212391495705 -0.005284779705107212 -0.01346407737582922 0.023781947791576385 0.09411122649908066 -0.07336753606796265 0.08859912306070328 -0.05243796482682228 0.03393486142158508 -0.12085317075252533 -0.09377353638410568 -0.07888215780258179 -0.0898238867521286 0.056061625480651855 0.030731767416000366 -0.17133846879005432 0.015507850795984268 0.024069255217909813 -0.05625085532665253 -0.10816825926303864 -0.027034379541873932 0.019147738814353943 -0.008583154529333115 -0.03416232764720917 -0.01242051087319851 -0.08341745287179947 0.12034306675195694 0.1535833179950714 -0.14058396220207214 0.006649213843047619 -0.11614695191383362 -0.1394043117761612 -0.07541719824075699 -0.0020682280883193016 -0.00798983033746481 -0.06430978327989578 -0.008071611635386944 0.06799650192260742 -0.01692493073642254 -0.01721305400133133 0.07893440127372742 -0.06282290071249008 0.015437418594956398 0.005259383469820023 -0.0065732174552977085 0.0023840267676860094 -8.279401808977127E-4 0.007554012816399336 0.041679758578538895 0.04853793978691101 -0.02764577604830265 0.0073196617886424065 -0.024685490876436234 -0.03400493040680885 0.015590009279549122 0.020790470764040947 0.0356966033577919 0.0318666473031044 -0.05158999562263489 0.05008344352245331 0.00750686414539814 0.04498501494526863
Proclus -0.22403991222381592 0.06697804480791092 -0.08137831836938858 -0.16091318428516388 0.03773432597517967 -0.02300431951880455 -0.0831620916724205 -0.06924847513437271 -0.325162410736084 0.005724784918129444 -0.26859304308891296 0.21791142225265503 -0.13089174032211304 -0.06595870107412338 -0.029037365689873695 -0.13584017753601074 -0.013074787333607674 0.0764392837882042 -0.07448945194482803 -0.013741673901677132 0.11464457958936691 0.16107496619224548 0.004001130815595388 -0.0889141783118248 0.05457218363881111 0.09114967286586761 -0.09568237513303757 0.05409392714500427 -0.10939130187034607 0.1482754945755005 -0.003026342485100031 -0.14139536023139954 -0.11217337101697922 -0.04268793389201164 -0.04802451282739639 0.1467307209968567 0.2618224620819092 0.09517078101634979 -0.046909697353839874 -0.07096441835165024 -0.0688125267624855 0.09090808033943176 0.09615995734930038 -0.2149372398853302 0.1353348195552826 -0.057995423674583435 0.04131752625107765 -0.196878120303154 -0.15630924701690674 -0.13229598104953766 -0.1969558149576187 0.0413459911942482 0.04708563908934593 -0.33195528388023376 0.09103234857320786 0.06538356840610504 -0.1378682553768158 -0.17853040993213654 -0.12254507839679718 0.05982961505651474 -0.01155497319996357 -0.05134177953004837 -0.024824418127536774 -0.14395597577095032 0.23174887895584106 0.29533851146698 -0.23406080901622772 0.024274425581097603 -0.2349899560213089 -0.29766789078712463 -0.0789278894662857 -0.05622164160013199 0.03869342431426048 -0.13623791933059692 -0.061896417289972305 0.075515978038311 0.0698668584227562 -0.06888388097286224 0.1838729828596115 -0.10836511850357056 0.063184455037117 -0.025987515226006508 -0.047165412455797195 -0.03247300162911415 0.01805948093533516 0.005251296795904636 0.07184519618749619 0.11222949624061584 0.009463651105761528 0.02447524294257164 -0.03815765678882599 -0.0034705852158367634 -0.04906241595745087 -0.0018111224053427577 0.05574071779847145 -0.0456286258995533 -0.08494134247303009 0.0494987927377224 0.003440587315708399 0.012793481349945068
Philosophical_skepticism -0.04577914625406265 0.008024411275982857 -0.014953208155930042 -0.029941368848085403 0.01265379786491394 -0.005937349982559681 -0.021052956581115723 -0.011901050806045532 -0.029163137078285217 -0.0041553787887096405 -0.011535956524312496 0.019440190866589546 -0.0138308210298419 -0.014779920689761639 -0.007577106822282076 -0.011824365705251694 0.012715545482933521 0.014800925739109516 -0.02210315130650997 0.005241281818598509 0.004359188489615917 0.018567053601145744 -0.014646799303591251 -0.01579049602150917 0.018837623298168182 0.008168525993824005 -0.00999453291296959 0.008810283616185188 -0.013982869684696198 0.03368298336863518 0.002078933408483863 -0.017910204827785492 -0.022302621975541115 -0.012482126243412495 0.012966789305210114 0.01923939771950245 0.03082665428519249 -4.431059933267534E-4 -0.020151153206825256 -0.00915343314409256 -0.010261273011565208 0.005330849904567003 0.02161177061498165 -0.02412271499633789 0.023180004209280014 -0.010541697964072227 0.0023203056771308184 -0.024939674884080887 -0.024078138172626495 -0.018244188278913498 -0.019428366795182228 0.01025236863642931 0.004761164542287588 -0.034466683864593506 0.004840607289224863 0.007662109099328518 -0.017823107540607452 -0.00808936357498169 -0.017026262357831 -2.3840501671656966E-4 -0.0033675197046250105 -0.0080446507781744 0.0019782548770308495 -0.011456738226115704 0.021886417642235756 0.03794907405972481 -0.018391123041510582 0.01072776224464178 -0.03994818031787872 -0.04589742422103882 -0.0011649888474494219 -0.01226048544049263 0.007753646932542324 -0.03085385262966156 -0.03145147114992142 -0.014594454318284988 0.017481127753853798 -0.014668868854641914 0.029682280495762825 -0.013338347896933556 0.02123188227415085 0.006132402922958136 -0.024510614573955536 -0.002695919945836067 0.014175151474773884 0.01016378402709961 0.022779423743486404 0.031743571162223816 0.020447295159101486 0.007447682321071625 -0.004115141462534666 0.011401033960282803 -0.06406699120998383 0.010868474841117859 -0.0053846691735088825 -0.035669248551130295 -0.02624872326850891 0.014079980552196503 -0.002868975279852748 -0.004637845791876316
Hellenistic-era_philosophers -0.023050567135214806 0.007451087702065706 -0.003937137313187122 -0.011405475437641144 0.004936884623020887 -0.0029305038042366505 -0.015901653096079826 -0.011684343218803406 -0.00468041654676199 -4.1558343218639493E-4 -0.001314454828388989 -0.0035121170803904533 3.4027156652882695E-4 -0.008274102583527565 -0.0016811820678412914 -0.006682669278234243 9.66583495028317E-4 0.0030179438181221485 -0.0073698475025594234 -0.004937259014695883 -4.387986846268177E-4 0.007564475294202566 -0.011707158759236336 -0.003040672279894352 0.004289492033421993 -0.001655954634770751 -0.006203904747962952 0.010362133383750916 0.007753510028123856 0.013785570859909058 0.0011280416510999203 -0.015314311720430851 -0.008614338003098965 -0.008975648321211338 0.006501444149762392 0.011257427744567394 0.01187045406550169 -0.0025833246763795614 -0.007977420464158058 0.0035326264332979918 -0.0018052732339128852 -0.0051454282365739346 0.015843428671360016 -0.005544657818973064 0.008445543237030506 -0.004230379592627287 0.004012272227555513 -0.014658517204225063 -0.011970600113272667 -0.013077985495328903 -0.00966065376996994 0.011417748406529427 -9.674422326497734E-4 -0.01420353539288044 -0.0012796857627108693 -3.330647887196392E-4 -0.008222859352827072 -0.006603283807635307 -0.010975421406328678 -0.005107926204800606 0.0011403863318264484 -0.004092522896826267 0.005386365111917257 -0.008378531783819199 0.005221815314143896 0.00873506162315607 -0.008546152152121067 0.0019345416221767664 -0.015274891629815102 -0.023016799241304398 -5.803961539641023E-4 -0.004067244008183479 -4.590316384565085E-4 -0.01565662771463394 -0.014352094382047653 -0.01438847091048956 0.008728048764169216 -0.003378644585609436 0.014241049066185951 -0.006161868572235107 0.020066089928150177 0.0056433165445923805 -0.017482170835137367 -0.004422759171575308 0.00881874468177557 0.006566974800080061 0.010886850766837597 0.023935571312904358 0.014230710454285145 0.004735170863568783 0.0020935176871716976 0.014377033337950706 -0.03948449343442917 0.00908617302775383 -0.007807800080627203 -0.026004284620285034 -0.0177850853651762 0.009551222436130047 0.004028250463306904 -0.006401182152330875
PhysicalEntity100001930 0.022490084171295166 -0.010727987624704838 -0.0316619947552681 0.005269537679851055 0.03130222111940384 0.044236745685338974 0.1525958627462387 -0.04615946486592293 -0.01537866611033678 -0.01934368535876274 -0.05172133445739746 0.0326775498688221 0.03273184597492218 -0.020860692486166954 -0.0660237967967987 0.04672091826796532 0.028077511116862297 0.018274692818522453 -0.010374566540122032 0.04149535670876503 0.008059872314333916 -0.12259028851985931 0.03237691521644592 0.013915367424488068 0.04440704360604286 -0.022767405956983566 0.023122338578104973 -0.05397198721766472 -0.08909443765878677 -0.03913692757487297 0.004956240300089121 0.1349678337574005 0.008758741430938244 -0.03906988352537155 0.058181166648864746 -0.0389157235622406 -0.007865909487009048 0.0016757729463279247 -0.03232502192258835 -0.008465760387480259 0.039505697786808014 -0.03381861373782158 -0.19254469871520996 0.05098413676023483 -0.021357368677854538 0.07967612147331238 -0.04755021259188652 0.18943776190280914 0.06552993506193161 0.15966378152370453 0.16206198930740356 -0.09246957302093506 -0.016725752502679825 0.04512467980384827 -0.006219381000846624 -0.02172780968248844 0.03216301649808884 0.12559208273887634 0.057493362575769424 -0.07044065743684769 -0.009053267538547516 0.07970990240573883 -0.01440000906586647 0.11425808817148209 -0.11346231400966644 -0.19960783421993256 0.05856505036354065 0.03188229724764824 0.19567345082759857 0.17870645225048065 -0.046865351498126984 0.07047197967767715 -0.07687491178512573 0.09935099631547928 0.12853053212165833 0.03380940854549408 -0.1375204175710678 0.08981204032897949 -0.09375634044408798 0.01746821589767933 -0.06607279181480408 -0.01990904100239277 0.08237285166978836 0.05466271936893463 0.008333589881658554 -0.012635442428290844 -0.06990735977888107 -0.06763634830713272 -0.14762866497039795 -0.07568837702274323 0.07031402736902237 -0.08211228251457214 0.27044257521629333 -0.015794740989804268 0.05338034778833389 0.1751604676246643 0.10020102560520172 -0.025064243003726006 0.0294801015406847 -0.01393114123493433
5th-century_BC_Greek_people -0.07949940115213394 0.008470863103866577 0.011248035356402397 -0.05341474711894989 0.036770448088645935 0.0015661355573683977 -0.009416908025741577 -0.014724371954798698 0.007177472114562988 0.0284610316157341 0.025830121710896492 0.004381805192679167 0.008832432329654694 -0.003916217014193535 -0.019145440310239792 0.006564754527062178 0.018093133345246315 0.0035074809566140175 -0.03076198697090149 0.011612894013524055 0.02078123949468136 0.009778821840882301 -0.05107796937227249 0.004151580855250359 0.028554394841194153 0.011031648144125938 0.008056679740548134 0.0395662896335125 -0.012771796435117722 0.02952934242784977 0.005947448313236237 -0.015896527096629143 -0.025702688843011856 -0.023204339668154716 0.028953101485967636 0.021275131031870842 0.029672594740986824 8.449825691059232E-4 -0.01850590854883194 -0.00723674800246954 -0.015762489289045334 0.010787934064865112 0.018638433888554573 -0.020959224551916122 0.0023292414844036102 -0.011061582714319229 -9.174137376248837E-4 -0.026704762130975723 -0.01122662890702486 -0.012120258063077927 -0.020311834290623665 0.00554807111620903 0.008807452395558357 -0.015576117672026157 0.0042832656763494015 0.0016191252507269382 -0.007825281471014023 -0.001319793052971363 -0.023348866030573845 -0.002183862030506134 -4.149146261624992E-4 0.004838183056563139 0.012463818304240704 0.0023421435616910458 -0.001313445856794715 0.00762786902487278 0.0018099980661645532 0.021481351926922798 -0.03053862601518631 -0.044115688651800156 0.020109010860323906 -0.023649178445339203 0.016592446714639664 -0.04272662103176117 -0.054920755326747894 -0.07187505066394806 0.04958963021636009 -0.013586072251200676 0.02273365668952465 0.0063673360273242 0.050309378653764725 0.01739552803337574 -0.05385968089103699 -0.010487238876521587 0.03491714969277382 0.004331597592681646 0.037841059267520905 0.04934902861714363 0.05082163214683533 0.009716513566672802 0.003945167176425457 0.036404021084308624 -0.10200729221105576 0.016891201958060265 -0.014421290718019009 -0.07919920235872269 -0.024735795333981514 0.008217175491154194 8.922123233787715E-4 -0.02310330606997013
Pitagora 0.014708559028804302 0.016166385263204575 -0.027770888060331345 0.014042768627405167 -0.03588338568806648 -0.023450905457139015 -0.06394287943840027 -0.011553481221199036 -0.07140389829874039 -0.04217053949832916 -0.07120668888092041 0.007160377688705921 -0.050272244960069656 -0.014159740880131721 0.04658554494380951 -0.07283764332532883 -0.004130383022129536 0.02129395492374897 0.008659929037094116 -0.03567742928862572 -0.012218174524605274 0.059473149478435516 0.04634754732251167 -0.053246282041072845 -0.009807707741856575 0.009060944430530071 -0.0356525294482708 -0.018132004886865616 0.01218138262629509 0.04783563315868378 -0.012560178525745869 -0.04600278288125992 -0.029208023101091385 0.01856645941734314 -0.04572506621479988 0.03193863853812218 0.04239918291568756 0.005381847266107798 0.01604180783033371 0.0033764131367206573 -4.2174954432994127E-4 0.013241322711110115 0.0702647939324379 -0.0350322425365448 0.049861516803503036 -0.0316455215215683 0.01945444755256176 -0.07293573766946793 -0.055968161672353745 -0.05639757961034775 -0.0481877326965332 0.031263332813978195 0.017270425334572792 -0.0893549770116806 0.008075297810137272 0.013841761276125908 -0.03322836384177208 -0.07502952963113785 -0.01828032173216343 0.01607077568769455 -0.003942035138607025 -0.021612418815493584 -0.013463214039802551 -0.05000106245279312 0.07701507955789566 0.08622480928897858 -0.08490122854709625 0.0027597479056566954 -0.05781065300107002 -0.08080131560564041 -0.05320718139410019 -0.004331449046730995 -0.01538616232573986 -0.038604218512773514 0.00475178100168705 0.0489654615521431 -0.017713967710733414 -0.009798376820981503 0.036714568734169006 -0.03328756242990494 0.013623271137475967 -0.0035585633013397455 -0.001684368122369051 0.007428573444485664 -0.009396279230713844 0.006908318027853966 0.023193126544356346 0.03397368639707565 -0.011348959058523178 0.01201079972088337 -0.010784603655338287 -0.01788930781185627 0.019359223544597626 0.012706643901765347 0.028258780017495155 0.02227022685110569 -0.03295568376779556 0.03784649446606636 0.0057582245208323 0.03295065835118294
Dexippus_(philosopher) -0.035293132066726685 0.01298533659428358 -0.037830501794815063 -0.013910587877035141 -0.03750105947256088 -0.059931714087724686 -0.17137876152992249 -0.020029349252581596 0.054252855479717255 -0.061049684882164 0.08403712511062622 -0.10746373236179352 -0.035391904413700104 -0.044953618198633194 0.06643614917993546 -0.07488569617271423 0.02442437969148159 0.02005639486014843 0.008886663243174553 -0.04814930632710457 -0.08833802491426468 0.08247394859790802 0.02870117872953415 -0.06985335052013397 0.005768833681941032 -0.018307287245988846 -0.015805058181285858 -0.015034593641757965 0.090369813144207 0.10135502368211746 -0.009881077334284782 -0.10038340836763382 -0.0624689906835556 0.04410839080810547 0.00136849214322865 0.029838044196367264 -0.01809852570295334 -0.06512115150690079 -0.002427097875624895 0.041882388293743134 -0.0013937319163233042 -0.03740889951586723 0.190108522772789 0.03522203490138054 0.06286808103322983 -0.08606500178575516 0.022449377924203873 -0.12160999327898026 -0.06002277508378029 -0.09914388507604599 -0.06407594680786133 0.08369915932416916 0.014617187902331352 -0.015099676325917244 -0.03627694025635719 -0.007057965733110905 -0.011943073011934757 -0.06862131506204605 -0.003800202626734972 -0.001353660598397255 -0.005176992155611515 -0.07901724427938461 0.023464059457182884 -0.108089379966259 0.06375383585691452 0.1631060242652893 -0.045837827026844025 -0.025290973484516144 -0.17099688947200775 -0.12933744490146637 -7.281701546162367E-4 -0.04844371974468231 0.034416407346725464 -0.09251696616411209 -0.12365898489952087 -0.011452029459178448 0.06470435112714767 -0.06379582732915878 0.056493960320949554 -0.01854521594941616 0.0786338672041893 0.06220317259430885 -0.09765875339508057 -0.032770637422800064 -0.008776821196079254 0.0400427021086216 0.09165557473897934 0.10231226682662964 0.15168555080890656 0.09270733594894409 -0.06454648822546005 0.05742138624191284 -0.3422337770462036 0.06130126118659973 -0.057476192712783813 -0.17738960683345795 -0.1472780704498291 0.06558141112327576 -0.034183718264102936 0.042337942868471146
Ancient_Crotonians -0.015382667072117329 -0.0016127260169014335 0.001165559864602983 -0.011296194046735764 0.01099512167274952 0.002389394911006093 -0.0053918445482850075 -0.0066514392383396626 -0.008104996755719185 0.0038076594937592745 -0.001488887588493526 0.004431224428117275 -0.003474386176094413 0.0033010782208293676 0.003117121523246169 -7.905114907771349E-4 -8.310391567647457E-4 -0.0015096284914761782 -0.004181479103863239 -0.0027974199037998915 0.0020177559927105904 0.003950713202357292 -0.0025409962981939316 -0.0015153660206124187 0.0036163898184895515 -0.0015076431445777416 5.876884097233415E-4 0.0036216869484633207 -2.755216555669904E-4 0.0114041268825531 -0.005150656681507826 -0.005933091044425964 -0.0028560177888721228 -3.634349559433758E-4 3.516775614116341E-4 0.006067001260817051 0.0066958824172616005 -0.001587988925166428 0.0012631985591724515 0.001577048096805811 -0.0062217144295573235 0.0058402265422046185 0.010085240006446838 -0.004701199010014534 -0.0023075519129633904 -0.003196114208549261 -0.002954406663775444 -0.00670955004170537 -0.007963468320667744 -0.004378454759716988 -0.00419180141761899 0.005262044258415699 0.005573167931288481 -0.005192150827497244 -9.050874505192041E-4 0.0064084166660904884 -0.005956153851002455 -0.010298734530806541 -0.010467962361872196 -0.0016668722964823246 0.0017804678063839674 0.005170890130102634 0.005092570558190346 -0.0014367070980370045 0.0024747399147599936 0.009593799710273743 -0.004161086864769459 -6.164278602227569E-4 -0.009668081067502499 -0.01567075029015541 0.005335207097232342 -0.007824183441698551 0.003947982098907232 -0.012444701045751572 -0.004917290527373552 -0.009715327993035316 0.010971478186547756 -0.007116472814232111 0.0072402628138661385 -0.0017855822807177901 0.009740594774484634 -0.002256574109196663 -0.007513377815485001 -0.004856585990637541 0.004923684522509575 -0.004107731860131025 0.010967190377414227 0.006383898667991161 0.010686852969229221 -1.4815872418694198E-4 0.004422921687364578 0.0031999119091778994 -0.015390124171972275 0.003169393166899681 -5.13276201672852E-4 -0.007837407290935516 -0.006323665380477905 0.007031337358057499 0.004990946967154741 -0.003677909029647708
Thing 0.01040340680629015 -0.016152137890458107 -0.03069615364074707 -0.006093963980674744 0.03162626549601555 0.04297499358654022 0.15889844298362732 -0.045805204659700394 -0.007580971345305443 -0.0153517946600914 -0.0455501452088356 0.03197295218706131 0.033738479018211365 -0.023037295788526535 -0.06880733370780945 0.05532313883304596 0.02898719348013401 0.01193722803145647 -0.004880701191723347 0.04019678011536598 0.013091436587274075 -0.1145276129245758 0.02275911346077919 0.017847508192062378 0.040060028433799744 -0.016103625297546387 0.023908264935016632 -0.05037396401166916 -0.08196020871400833 -0.044785335659980774 0.010262608528137207 0.12336169183254242 0.014268637634813786 -0.03327468782663345 0.060079675167798996 -0.03833385184407234 -0.009089902974665165 0.0016582405660301447 -0.02923249825835228 -0.011939043179154396 0.03380786255002022 -0.03642026335000992 -0.1846350133419037 0.04723162204027176 -0.03161340951919556 0.07833009958267212 -0.04874662682414055 0.17699705064296722 0.06460040807723999 0.1441524475812912 0.15361525118350983 -0.09113522619009018 -0.01905176229774952 0.0561414435505867 -0.007042114622890949 -0.020156215876340866 0.030183156952261925 0.1171802207827568 0.052186787128448486 -0.0629759356379509 -0.005252886563539505 0.0735570564866066 -0.009116766043007374 0.10241541266441345 -0.10987760126590729 -0.18131180107593536 0.06128161400556564 0.02063685841858387 0.19064828753471375 0.17086291313171387 -0.03397097438573837 0.06993825733661652 -0.0676802322268486 0.09389704465866089 0.11201431602239609 0.030590981245040894 -0.1190328449010849 0.08627621084451675 -0.08733173459768295 0.028251057490706444 -0.07306424528360367 -0.021375365555286407 0.07674852013587952 0.04659315198659897 0.0016655044164508581 -0.015090162865817547 -0.07341555505990982 -0.07844051718711853 -0.13155348598957062 -0.06233387812972069 0.05919699743390083 -0.08144613355398178 0.24668362736701965 -0.018978940322995186 0.05031915009021759 0.1573556810617447 0.10018735378980637 -0.031132005155086517 0.031007936224341393 -0.01931794360280037
Demetrius_Lacon -0.0164213627576828 0.001422872650437057 -0.006502113305032253 -0.019037777557969093 0.024562830105423927 0.022679293528199196 0.07682810723781586 -0.015080559067428112 -0.022421719506382942 0.010946601629257202 -0.03478942811489105 0.030720043927431107 0.009526302106678486 -0.00674041360616684 -0.03508830443024635 0.019633619114756584 0.0016060976777225733 0.008391155861318111 0.004125503357499838 0.009970642626285553 0.013262125663459301 -0.038631998002529144 0.010317186824977398 0.013957047834992409 0.009656822308897972 -0.0020007395651191473 0.007620548829436302 -0.008626078255474567 -0.03179004415869713 -0.022942911833524704 0.007954806089401245 0.034589726477861404 0.020074378699064255 -0.0017531057819724083 0.009559163823723793 -0.01800425536930561 -0.013384533114731312 0.007614227011799812 0.005972333252429962 -0.011072895489633083 0.011016220785677433 -0.007385506294667721 -0.05718156322836876 0.006295403931289911 -0.021828999742865562 0.035799283534288406 -0.012416304089128971 0.0633125752210617 0.03479703515768051 0.050678785890340805 0.033995822072029114 -0.038093309849500656 -0.016314147040247917 0.04933837801218033 0.012742200866341591 -0.013099400326609612 0.013489597477018833 0.03202793374657631 0.008772588334977627 7.65549426432699E-4 -0.0010983541142195463 0.003994417376816273 -0.0012902169255539775 0.008585117757320404 -0.026366664096713066 -0.034364596009254456 0.026097988709807396 -0.022649571299552917 0.051300663501024246 0.05848202854394913 0.014043770730495453 0.023226387798786163 0.009975588880479336 0.05663677677512169 0.03909829258918762 0.04945969209074974 -0.01039802934974432 0.004496512934565544 -0.033027831465005875 0.01612657681107521 -0.04616766422986984 -0.020012445747852325 0.04651671275496483 -0.0044494736939668655 -0.02650509588420391 -0.009164714254438877 -0.043058332055807114 -0.05407201871275902 -0.022632312029600143 -0.016141405329108238 0.0012850944185629487 -0.013004593551158905 0.05178219452500343 -0.04004573076963425 -4.155589849688113E-4 0.036569077521562576 0.04094938933849335 -0.02754024975001812 -0.01422610692679882 -0.008943852037191391
3rd-century_BC_writers -0.02684691548347473 0.0051901438273489475 -0.010058383457362652 -0.01591624692082405 0.01682751625776291 0.011702763848006725 0.0205853208899498 -0.008880713023245335 0.008022601716220379 0.007498221006244421 0.0024641382042318583 0.00555604649707675 0.00755334785208106 -0.002636508084833622 -0.02212592400610447 0.010185484774410725 0.009293708950281143 -2.0190973009448498E-4 -0.012547679245471954 0.013522295281291008 2.3704845807515085E-4 -0.018116900697350502 -0.013317505829036236 3.7162602529861033E-4 0.0098459143191576 -0.0025159958750009537 0.0075140660628676414 0.0031373349484056234 -0.004720249213278294 0.0018949898658320308 0.0012271032901480794 0.005607880186289549 -0.009642081335186958 -0.011751054786145687 0.012613668106496334 -7.142357062548399E-4 -8.717256132513285E-4 -0.003641805611550808 -0.011581582948565483 -0.0035862410441040993 0.003964056260883808 -0.0015850553754717112 -0.019507993012666702 0.0044065057300031185 -0.0034620314836502075 0.005816888529807329 -0.007155613508075476 0.014887841418385506 0.006885572802275419 0.01473498810082674 0.010241366922855377 -0.009988951496779919 -0.0015285854460671544 0.00989402737468481 -0.002353012328967452 -0.0036964828614145517 9.807392780203372E-5 0.01481744647026062 -0.0032502207905054092 -0.010318809188902378 -0.0030133062973618507 0.0074478923343122005 5.783464293926954E-4 0.00954431015998125 -0.013753876090049744 -0.013844488188624382 0.015577527694404125 0.002027540234848857 0.011930382810533047 0.004888657480478287 0.004106748383492231 -8.778555784374475E-4 3.14340548356995E-4 -0.0038492486346513033 -0.004187641199678183 -0.014677127823233604 -0.004537341650575399 0.007877550087869167 -0.010088927112519741 0.007452562917023897 0.004233877174556255 0.001247447682544589 -0.00908641517162323 0.006759980693459511 0.013125148601830006 -0.003351746127009392 0.007401525508612394 0.00534161226823926 -1.070135404006578E-4 -0.006294083781540394 0.006460417993366718 -0.0016157340724021196 -0.011163591407239437 0.003949744626879692 0.0018247559200972319 -0.010197620838880539 0.007317905314266682 0.0011601191945374012 0.0034491815604269505 -0.010232657194137573
Short_description 7.05043668858707E-4 0.009877209551632404 -0.026545144617557526 -0.005293169990181923 -0.01450745202600956 -0.014190688729286194 -0.03981867805123329 -0.014679595828056335 -0.05149189382791519 -0.024093132466077805 -0.052065275609493256 0.019257064908742905 -0.028171481564641 -0.024977006018161774 0.004597332328557968 -0.03713721036911011 -0.001603416632860899 0.020248189568519592 -0.0015519248554483056 -0.0049768188036978245 0.0017006427515298128 0.0374673493206501 0.022454820573329926 -0.03709978237748146 0.006335045211017132 0.006439311895519495 -0.0212421752512455 -0.010126636363565922 -0.015369376167654991 0.03508453816175461 -0.0011508818715810776 -0.019421178847551346 -0.025292357429862022 -0.002372858114540577 -0.012756610289216042 0.022951271384954453 0.04107300564646721 -7.238187827169895E-4 -0.013785012997686863 -0.005965370684862137 -0.008036674931645393 0.006738742813467979 0.02558509074151516 -0.026822423562407494 0.04283534735441208 -0.023178447037935257 0.00404039490967989 -0.03551391139626503 -0.03203612565994263 -0.021608993411064148 -0.018401430919766426 0.011351493187248707 0.012798350304365158 -0.07087473571300507 0.007390474900603294 0.005881382152438164 -0.022280674427747726 -0.03005092218518257 -0.0033594088163226843 -0.002298755804076791 -0.005312912166118622 -0.0029753325507044792 -0.005701309069991112 -0.02115635946393013 0.0352884866297245 0.04853053018450737 -0.04994337260723114 0.009581081569194794 -0.0394342839717865 -0.051353082060813904 -0.03351578116416931 0.0019698808901011944 -0.015969878062605858 -0.024806221947073936 -0.0014239279553294182 0.024716496467590332 -0.015310313552618027 0.0026659888681024313 0.02374560572206974 -0.02567591704428196 0.006235077977180481 0.0024964322801679373 -8.479354437440634E-4 0.01054910384118557 0.00596955232322216 0.009761033579707146 0.018701210618019104 0.02260192297399044 -0.023113850504159927 0.0025042882189154625 9.882422164082527E-4 -0.023178551346063614 0.010463546961545944 0.013669027015566826 0.020472437143325806 0.01748216710984707 -0.016041597351431847 0.019360417500138283 0.009964199736714363 0.020122122019529343
Euhemerus -0.049930255860090256 -0.020740166306495667 0.004809344187378883 -0.017623161897063255 -0.0536508709192276 -0.09622716903686523 -0.2945363521575928 0.027225056663155556 0.18402625620365143 0.006493019871413708 0.25506481528282166 -0.12697833776474 -0.014943184331059456 -0.10687506198883057 0.022339675575494766 -0.005581187084317207 0.02365846000611782 0.012667078524827957 0.025991421192884445 -0.010100825689733028 -0.1013462245464325 0.12048745155334473 -0.05455119535326958 -0.06446430832147598 0.05325940623879433 -0.013111528009176254 0.022991560399532318 0.01970408298075199 0.04008499160408974 0.12513796985149384 0.03442423418164253 -0.09539912641048431 -0.09528981149196625 0.013686337508261204 0.10319472849369049 0.02843010425567627 -0.023176653310656548 -0.122384212911129 -0.0926230326294899 0.03914707154035568 -0.040383342653512955 -0.057262927293777466 0.24546027183532715 0.06848610192537308 0.12102952599525452 -0.14419445395469666 -0.0022814427502453327 -0.1533358246088028 -0.08105161041021347 -0.06475098431110382 -0.08163529634475708 0.10932613164186478 0.011165754869580269 -0.006360127590596676 -0.07494188845157623 -0.0035498200450092554 0.0022744617890566587 0.005701032932847738 0.007732865866273642 -0.017156481742858887 -0.006848423276096582 -0.11558473110198975 0.060435451567173004 -0.0938149094581604 0.03634917363524437 0.2091691493988037 0.005283857695758343 -0.04326891154050827 -0.2779141664505005 -0.2120550125837326 0.037908755242824554 -0.09882684051990509 0.09139999747276306 -0.17497140169143677 -0.2572351098060608 -0.09908073395490646 0.1374315321445465 -0.11460060626268387 0.09095516055822372 -0.004602074157446623 0.11128532141447067 0.13387686014175415 -0.18548192083835602 -0.06535188108682632 0.03786386549472809 0.09262154251337051 0.1352754682302475 0.17858347296714783 0.22925534844398499 0.1575414091348648 -0.10937050729990005 0.08063402771949768 -0.6492733955383301 0.09083858877420425 -0.10946547240018845 -0.3450745940208435 -0.2352595329284668 0.07495729625225067 -0.0766562819480896 0.0278985183686018
Commentators_on_Plato -0.08475326001644135 0.01115463674068451 -0.0037588358391076326 -0.05893119052052498 0.03184930607676506 0.009140932001173496 0.002732317429035902 -0.023041928187012672 -0.01738656312227249 0.009743105620145798 -0.0018730931915342808 0.02162003517150879 -0.006475960370153189 -0.008562056347727776 -0.014386513270437717 -0.005212084855884314 0.015019295737147331 0.010689097456634045 -0.03800077363848686 0.011295024305582047 0.02069425955414772 0.0076006134040653706 -0.03763044252991676 -0.0024133443366736174 0.026937279850244522 0.009705997072160244 -0.007577425334602594 0.03335651010274887 -0.0038658014964312315 0.03403377905488014 2.422696416033432E-4 -0.024294979870319366 -0.02528112381696701 -0.017447175458073616 0.018582211807370186 0.018800342455506325 0.030876075848937035 0.004177600145339966 -0.014848817139863968 -0.008218745701014996 -0.012632020749151707 0.009738764725625515 0.021514397114515305 -0.01903408393263817 0.004049011040478945 -0.008464188314974308 -0.0036963841412216425 -0.03081059642136097 -0.01974978856742382 -0.019629377871751785 -0.022854715585708618 0.011982748284935951 0.007320817559957504 -0.02122378908097744 0.0064897555857896805 0.00798549223691225 -0.012669069692492485 -0.014283386059105396 -0.024285128340125084 -1.504173269495368E-4 0.004445504862815142 0.001173241762444377 0.012241299264132977 -0.013106324709951878 0.015746472403407097 0.027569996193051338 -0.009455651044845581 0.007766592316329479 -0.03926115855574608 -0.04796339571475983 0.014563152566552162 -0.017623700201511383 0.011708702892065048 -0.03509527072310448 -0.045106615871191025 -0.039692725986242294 0.039323873817920685 -0.020661350339651108 0.028543746098876 -0.0012660621432587504 0.03967310115695 0.011778782121837139 -0.04384063929319382 -0.008762914687395096 0.02367723174393177 4.7712738160043955E-4 0.032187968492507935 0.041145019233226776 0.040170248597860336 0.01125273760408163 -0.007559068035334349 0.023979922756552696 -0.09156140685081482 0.01609140634536743 -0.014904915355145931 -0.06855584681034088 -0.02962830476462841 0.00958005990833044 -0.0021983960177749395 -0.01771029643714428
WikicatPresocraticPhilosophers 0.011277741752564907 -0.013319903053343296 0.001569861196912825 0.0017478030640631914 0.03696475178003311 0.043257441371679306 0.11378198862075806 -0.015673082321882248 0.03285118192434311 0.018931055441498756 0.007454399019479752 0.017381727695465088 0.04217832535505295 2.383239334449172E-4 -0.06006563827395439 0.06800561398267746 0.009000001475214958 -0.002918074605986476 4.699960700236261E-4 0.03586779907345772 0.009675106965005398 -0.0876268744468689 -0.003724203910678625 0.03497898206114769 0.015961933881044388 -0.01219850778579712 0.031423911452293396 -0.02200767770409584 -0.04174268618226051 -0.05083828419446945 0.012110630050301552 0.09122206270694733 0.0343099907040596 -0.019914228469133377 0.04401101917028427 -0.03942098468542099 -0.03019849769771099 -7.629657629877329E-4 -0.021980755031108856 -0.009256948716938496 0.015805834904313087 -0.022868342697620392 -0.12424717843532562 0.043768126517534256 -0.03736130893230438 0.05688329041004181 -0.03214835748076439 0.1248464286327362 0.05796445161104202 0.1019885316491127 0.10315949469804764 -0.06604282557964325 -0.013076601549983025 0.07897578924894333 -0.011768046766519547 -0.014040722511708736 0.03726023808121681 0.09798609465360641 0.034404657781124115 -0.03065033070743084 0.004652105271816254 0.041582509875297546 -0.006940527819097042 0.07659142464399338 -0.09364783763885498 -0.13875922560691833 0.07276899367570877 0.005420357920229435 0.1321197897195816 0.12392794340848923 0.0034766308963298798 0.03703400120139122 -0.025412626564502716 0.07184062153100967 0.06538601219654083 0.008119509555399418 -0.06338700652122498 0.04509777948260307 -0.07035411149263382 0.03334170952439308 -0.05308757722377777 -0.013685726560652256 0.05081518366932869 0.023640288040041924 -0.0021588208619505167 -0.005997390486299992 -0.0593339279294014 -0.06114282086491585 -0.07235389947891235 -0.039302315562963486 0.031276803463697433 -0.039575960487127304 0.14564581215381622 -0.019725877791643143 0.013626228086650372 0.09369678795337677 0.08129525184631348 -0.033025868237018585 0.012949095107614994 -0.023619230836629868
Hippo_(philosopher) 0.026169147342443466 0.018409425392746925 -0.04743023216724396 0.027452781796455383 -0.08495015650987625 -0.08634113520383835 -0.2277374267578125 -0.002839949680492282 0.02435351349413395 -0.08865272253751755 0.03829707205295563 -0.092440664768219 -0.07319308817386627 -0.05574045702815056 0.09172321110963821 -0.11595185101032257 0.009001743979752064 0.018546877428889275 0.024799441918730736 -0.06624063849449158 -0.09144587814807892 0.11758588999509811 0.05667957663536072 -0.09085744619369507 -6.417391123250127E-4 -0.007222024258226156 -0.023651253432035446 -0.030303234234452248 0.08204536139965057 0.11710907518863678 -0.015332600101828575 -0.1181732788681984 -0.07853646576404572 0.05566878989338875 -0.02491266094148159 0.047375813126564026 0.0039793141186237335 -0.058567486703395844 0.008042302913963795 0.04478544741868973 -0.002325917361304164 -0.03137889504432678 0.22578991949558258 0.02211405523121357 0.0952276885509491 -0.10243064165115356 0.03350360691547394 -0.16058139503002167 -0.095985047519207 -0.11372467130422592 -0.08731667697429657 0.1046564057469368 0.023383161053061485 -0.08136950433254242 -0.02760491520166397 0.008833777159452438 -0.038417551666498184 -0.1020226925611496 -0.008429452776908875 -7.938133785501122E-4 -0.01240894291549921 -0.0935630202293396 0.010999148711562157 -0.13081929087638855 0.1092832162976265 0.2045377790927887 -0.10675456374883652 -0.02387893758714199 -0.19411079585552216 -0.17129270732402802 -0.030288387089967728 -0.04834488406777382 0.02977057546377182 -0.11436621099710464 -0.11400105804204941 0.033272501081228256 0.04508036747574806 -0.06176900863647461 0.07535625249147415 -0.04976018890738487 0.06974965333938599 0.058919649571180344 -0.09747442603111267 -0.03347723186016083 -0.014808903448283672 0.03497037664055824 0.09429623931646347 0.11151465773582458 0.13140907883644104 0.09113242477178574 -0.07150666415691376 0.04513182118535042 -0.3182975947856903 0.058187004178762436 -0.0460536815226078 -0.15291562676429749 -0.17312011122703552 0.08370961993932724 -0.028435513377189636 0.07003503292798996
1st-century_Greek_people -0.004115927964448929 0.004976303316652775 -0.00598664628341794 -0.003922771196812391 0.0031929523684084415 -7.268546614795923E-4 -0.0031061519403010607 -0.0061705890111625195 -0.0061906869523227215 -0.006710958667099476 -0.0046492381952703 -0.001818360760807991 -0.0019644114654511213 -0.00408452283591032 3.9697432657703757E-4 -0.007903973571956158 0.001195766730234027 0.004258353263139725 -0.0013490215642377734 -0.0014840969815850258 0.0032473274040967226 0.001952333259396255 -0.0025624476838856936 8.687039371579885E-4 0.004216854926198721 0.001995938830077648 0.0013924259692430496 -4.408307431731373E-4 0.003504935186356306 0.002198441419750452 -0.0010464160004630685 -0.006165080703794956 -0.0077542634680867195 -0.00278942147269845 -0.005567783489823341 0.0014690312091261148 0.004935631528496742 -6.631312426179647E-4 0.004489849787205458 -0.0010430398397147655 0.0021408151369541883 -3.250272711738944E-4 0.0028317710384726524 2.799567300826311E-5 0.0012730767484754324 -0.005183865316212177 0.004818885587155819 -0.01005480159074068 -0.0019155266927555203 -0.010731542482972145 -0.005915721878409386 0.007279139012098312 0.0010955937905237079 -0.010620366781949997 -8.886840660125017E-4 -0.0022132336162030697 -0.003993594087660313 -0.009533613920211792 -0.008043892681598663 -0.0023991588968783617 9.827334433794022E-4 -1.9862293265759945E-4 -8.576636901125312E-4 -0.010817968286573887 0.004134282469749451 0.012144343927502632 -0.006250196602195501 0.004039739724248648 -0.0074341436848044395 -0.0068312291987240314 -0.0017533269710838795 2.4771649623289704E-4 1.4921260299161077E-4 -0.0063544693402945995 -0.004568242002278566 0.004449591040611267 0.001765645109117031 -0.008600479923188686 0.0012652948498725891 4.88513964228332E-4 0.0023658000864088535 0.0012558375019580126 -0.006464431062340736 -0.005235063377767801 0.002749703824520111 -0.002263640519231558 0.008408226072788239 0.006947507616132498 0.00538347102701664 0.0068222833797335625 5.845960695296526E-4 0.0045686219818890095 -0.009425238706171513 0.006048350594937801 -0.003718987572938204 -0.007022579666227102 -0.006449013948440552 0.0029307259246706963 0.003828233340755105 -0.0021656667813658714
, -0.11005804687738419 0.18111757934093475 -0.2528893053531647 -0.07696355879306793 0.13656611740589142 0.21573780477046967 0.7357214689254761 -0.24687789380550385 -0.5317671895027161 -0.1613938808441162 -0.6821717619895935 0.18467308580875397 -0.0710996761918068 0.15495410561561584 0.08068367838859558 -0.2868833839893341 0.002325743669643998 0.07571104168891907 -0.05049437656998634 -0.16155317425727844 0.10882020741701126 -0.0794639065861702 0.2698897421360016 -0.050323426723480225 -0.3451252579689026 0.019815795123577118 -0.17864012718200684 -0.08708314597606659 0.4881145656108856 -0.1426805853843689 -0.2568117082118988 -0.1272742599248886 0.23962660133838654 0.2041904330253601 -0.5648694038391113 -0.012767684645950794 -0.05757708102464676 0.28703373670578003 0.50215744972229 -0.041338950395584106 0.04949682205915451 0.15181289613246918 0.04460220783948898 -0.2639206349849701 -0.34528782963752747 0.2029411345720291 0.2630813717842102 -0.14864297211170197 0.1362706869840622 -0.39878049492836 -0.2960352301597595 -0.030299095436930656 -0.02975364588201046 0.20609912276268005 0.23222947120666504 -0.018907969817519188 -0.06568720191717148 -0.5781086087226868 -0.12793000042438507 0.4424690902233124 0.07972457259893417 -0.20588132739067078 -0.07899817824363708 -0.43992137908935547 0.34628650546073914 0.2600950598716736 -0.1941855549812317 -0.17479896545410156 -6.305276183411479E-4 0.11863239854574203 0.17556440830230713 0.0944756269454956 0.2049923539161682 0.2780150771141052 0.2586713135242462 0.4264940917491913 0.33749568462371826 -0.1689734011888504 0.04844038933515549 0.030512841418385506 -0.1103036105632782 -0.38238242268562317 0.3139092028141022 -0.12147992104291916 -0.3956499695777893 -0.23965144157409668 -0.17852823436260223 -0.45358115434646606 0.06442699581384659 -0.024355361238121986 -0.0750328004360199 0.25776806473731995 0.7509917616844177 -0.2841372787952423 -0.033188022673130035 0.2699509859085083 0.34202489256858826 -0.21024174988269806 0.07337884604930878 0.0058623203076422215
Roman-era_Cynic_philosophers -0.0199690330773592 0.009123231284320354 -0.004330018535256386 -0.009899686090648174 0.00659549655392766 -0.0012702364474534988 7.229820475913584E-4 -0.00783696398139 -0.006538684014230967 -0.0013862538617104292 -8.935942896641791E-4 0.008068510331213474 -0.0020208240021020174 0.0020253246184438467 -0.0028671338222920895 -0.005178146064281464 0.0025604977272450924 0.004275945946574211 -0.008568123914301395 8.069291361607611E-4 0.0017841723747551441 0.007932005450129509 -0.0021554124541580677 -0.004951555281877518 0.009952760301530361 0.0029154724907130003 -0.0017462944379076362 0.00759240984916687 -0.0025713909417390823 0.013124058954417706 -7.917066104710102E-4 -8.224722696468234E-4 -0.008950702846050262 -0.010426525957882404 -4.65841731056571E-4 0.007023447193205357 0.00890773069113493 0.0041193775832653046 3.997118037659675E-4 -7.154223858378828E-4 -0.004001413471996784 0.0023737470619380474 0.007926642894744873 -0.0085036875680089 0.006003725808113813 -0.00510898232460022 -0.0054893894121050835 -0.010776668787002563 -0.008975652977824211 -4.917739424854517E-4 -0.00444489112123847 0.005825161933898926 0.0064823380671441555 -0.007333124056458473 -0.002446370664983988 4.3463241308927536E-4 -6.647281115874648E-4 -0.004909906070679426 -0.006862190552055836 -0.004000096116214991 -0.002432358218356967 0.003533350070938468 -0.001164193730801344 -0.003455342026427388 0.009146502241492271 0.002815212355926633 -9.817061945796013E-4 0.0070082079619169235 -0.008446073159575462 -0.013426271267235279 -0.0048604062758386135 -0.0043261693790555 -0.004334367346018553 -0.011506575159728527 -0.004012828692793846 -0.013736054301261902 0.0010836331639438868 0.001936192624270916 0.009993272833526134 0.0023391374852508307 0.0160505548119545 0.007771587930619717 -0.006303311325609684 0.0035475564654916525 0.006444241851568222 0.0036294551100581884 0.009288143366575241 0.010273376479744911 0.007049362640827894 -0.00323709798976779 0.00568903423845768 0.008339514955878258 -0.005940909963101149 0.009960252791643143 4.310186777729541E-4 -0.01269539911299944 -0.0047728633508086205 8.595779072493315E-4 0.006756131537258625 -0.005866716615855694
Roman-era_Greek_historians 6.184520898386836E-4 8.837167988531291E-4 -0.0011885097483173013 3.481145831756294E-4 -0.001384692033752799 0.0036245149094611406 0.0044481479562819 -0.0025917270686477423 8.840701775625348E-4 -0.010036056861281395 -0.009050150401890278 0.0015088880900293589 -0.001075293286703527 0.0038831084966659546 -7.42721080314368E-4 9.225317044183612E-4 -0.0018502215389162302 -0.001351166283711791 -0.0019727761391550303 -2.554071834310889E-4 -0.0017412315355613828 -0.0037768238689750433 3.6996122798882425E-4 -0.003845720551908016 0.0014979175757616758 -0.0013102949596941471 -0.001647825469262898 -0.004347753245383501 0.002174986759200692 0.004306217655539513 -0.0049027143977582455 0.003895868780091405 0.0036316108889877796 2.809729194268584E-4 0.003043912583962083 0.0018541098106652498 0.002947060391306877 -0.0029826245736330748 0.00662227813154459 -0.0015887513291090727 -5.907703889533877E-4 6.809887709096074E-4 -0.0063126725144684315 7.282663718797266E-4 -0.003458353690803051 0.004580123815685511 -2.819377987179905E-4 -0.002458733506500721 -0.0030698052141815424 -6.099501624703407E-4 0.003826150204986334 -0.0013099232455715537 -2.1126068895682693E-4 9.633482550270855E-4 0.002120153745636344 0.0030894887167960405 -0.0014974125660955906 -0.006732364650815725 8.73172321007587E-5 -0.0024056711699813604 0.004066540859639645 0.0017729218816384673 -0.005973707884550095 3.3017294481396675E-4 0.0030413041822612286 1.7383950762450695E-4 -2.0233230316080153E-4 0.004782645497471094 0.001239977078512311 0.001247947453521192 -0.007749855984002352 -6.913442484801635E-5 -0.004321027547121048 0.002831461140885949 0.0014138789847493172 -8.34087113616988E-5 -0.00953761488199234 2.0739904721267521E-4 0.0010404435452073812 2.323697117390111E-4 -0.0037138957995921373 -0.002972050802782178 5.474340869113803E-4 0.0022574658505618572 -0.00479149492457509 -0.002710761269554496 -0.0032013270538300276 -0.002557008992880583 -0.006340738385915756 5.12343889568001E-4 -4.6733050112379715E-5 -0.003362524788826704 0.009495123289525509 0.0030296265613287687 0.007488016504794359 0.0038950499147176743 0.00511701125651598 2.4601403856649995E-4 0.0037401888985186815 0.0032676842529326677
Diogenes_Lartius -0.07526179403066635 0.056963469833135605 -0.11103082448244095 -0.05149902403354645 -0.0595865398645401 -0.06588275730609894 -0.15095503628253937 -0.04365184158086777 -0.3308485150337219 -0.07530723512172699 -0.2900528609752655 0.1706487238407135 -0.15425343811511993 -0.09827009588479996 0.024887096136808395 -0.19398517906665802 -0.019988298416137695 0.08237412571907043 -0.019224196672439575 -0.05149706453084946 0.05711153894662857 0.1911042332649231 0.09419125318527222 -0.1476854383945465 0.034337952733039856 0.07134672999382019 -0.11562052369117737 -0.024760575965046883 -0.09400460869073868 0.15706001222133636 -0.007441742345690727 -0.1143132895231247 -0.1339181363582611 -0.008087042719125748 -0.07614158093929291 0.13856981694698334 0.2653893232345581 0.05775383487343788 -0.056846439838409424 -0.04796691983938217 -0.03798540309071541 0.0604957640171051 0.11018138378858566 -0.18753834068775177 0.18564967811107635 -0.0838978961110115 0.04354967176914215 -0.18962259590625763 -0.1861569732427597 -0.10549584776163101 -0.148200124502182 0.0557432696223259 0.05600374564528465 -0.40005213022232056 0.050259366631507874 0.06628233939409256 -0.12818175554275513 -0.18345312774181366 -0.058447349816560745 0.03225287050008774 -0.017794404178857803 -0.030465206131339073 -0.04622945189476013 -0.11499709635972977 0.2228371948003769 0.25818514823913574 -0.28720930218696594 0.04974525794386864 -0.18898841738700867 -0.2784135341644287 -0.18018242716789246 -0.005359438247978687 -0.04766072705388069 -0.13486121594905853 0.012811532244086266 0.12304773926734924 -0.06905489414930344 -0.006006339099258184 0.15635043382644653 -0.13027574121952057 0.03711361065506935 -5.91325166169554E-4 -0.0024849188048392534 0.023250332102179527 0.016181470826268196 0.021064551547169685 0.07233037799596786 0.10841958969831467 -0.10742853581905365 -9.112019324675202E-4 -0.015105893835425377 -0.09414871782064438 0.1335441917181015 0.038493476808071136 0.12084665149450302 0.10920596122741699 -0.0753159373998642 0.1002969741821289 0.03480082005262375 0.07764584571123123
Gorgias -0.13072100281715393 0.07342083007097244 -0.11419421434402466 -0.09002301096916199 -0.024058276787400246 -0.0387924425303936 -0.10517609119415283 -0.06147502362728119 -0.3584389388561249 -0.06766332685947418 -0.3253647983074188 0.1776461899280548 -0.16114602982997894 -0.06706637144088745 0.040688566863536835 -0.20355723798274994 -0.015289164148271084 0.07791722565889359 -0.03345117345452309 -0.06129555404186249 0.07361625880002975 0.17000973224639893 0.09463668614625931 -0.13937261700630188 0.02762732282280922 0.08058880269527435 -0.11585488170385361 0.0012402342399582267 -0.06640602648258209 0.15131114423274994 -0.02544315531849861 -0.13666708767414093 -0.10996634513139725 0.005114708095788956 -0.10428479313850403 0.14922255277633667 0.2516465485095978 0.0913204625248909 -0.0059111756272614 -0.04326028749346733 -0.03473048657178879 0.06801179051399231 0.1111670583486557 -0.20136255025863647 0.1465398371219635 -0.054139476269483566 0.06315965950489044 -0.19739075005054474 -0.16374126076698303 -0.14896681904792786 -0.17784383893013 0.056505732238292694 0.04950353130698204 -0.3509819507598877 0.08536412566900253 0.06572949886322021 -0.14407514035701752 -0.2307104766368866 -0.09875281900167465 0.05702478438615799 -0.012553073465824127 -0.05864601209759712 -0.051843758672475815 -0.178449347615242 0.25901368260383606 0.30533379316329956 -0.289562851190567 0.009674754925072193 -0.20187926292419434 -0.27250564098358154 -0.12633009254932404 -0.012176873162388802 0.0010103705571964383 -0.10246486961841583 0.007358566392213106 0.16817958652973175 5.387290148064494E-4 -0.045641787350177765 0.1689419150352478 -0.1243603453040123 0.027683261781930923 -0.04568469151854515 0.009279906749725342 -0.005042628385126591 -0.03194918856024742 -0.010002875700592995 0.049687709659338 0.0696047693490982 -0.05285544693470001 0.009189872071146965 -0.0360170416533947 -0.037222862243652344 0.08885347843170166 -0.006863873451948166 0.08897803723812103 0.05498955026268959 -0.07384373247623444 0.07101175934076309 0.022684305906295776 0.0634770318865776
Metaphysicians 3.8929597940295935E-4 -0.002141285687685013 0.0017698823940008879 -0.004617420025169849 -8.14117374829948E-4 -0.0031275504734367132 -0.0038661810103803873 -8.041592082008719E-4 0.009193108417093754 0.003923743963241577 0.012141650542616844 -0.0026544001884758472 1.2301915558055043E-4 0.004997737240046263 0.007117557339370251 7.802067557349801E-6 -0.003925130236893892 0.002918112324550748 2.746659447439015E-4 -0.006643437780439854 -0.005134071689099073 0.0074826874770224094 -0.0020084595307707787 -0.004104503896087408 0.003303385339677334 4.1630511987023056E-4 0.004581096116453409 0.007803123909980059 0.011180981062352657 -0.00147348758764565 -0.005109309684485197 -0.005151334684342146 -0.0021652146242558956 9.57946409471333E-4 0.00490678520873189 7.424565264955163E-4 -0.007180587854236364 -4.937330959364772E-4 0.0014772269641980529 0.0033808310981839895 0.0030597748700529337 0.004084188491106033 0.00578475883230567 0.0027838328387588263 -0.0015837455866858363 3.587862302083522E-4 0.005176707170903683 -0.00942922756075859 -0.0020749475806951523 -0.009545200504362583 -0.0036753956228494644 0.002583675319328904 0.002092445967718959 9.134293650276959E-4 -0.001782476669177413 3.864031459670514E-4 -0.0017473386833444238 -0.0038560526445508003 -0.004548036027699709 0.0048332358710467815 -0.0023776371963322163 -0.005036246497184038 0.004726773127913475 -0.0015603400534018874 0.0036520222201943398 0.003434958402067423 0.004254024010151625 0.005903682205826044 -0.008728964254260063 -0.002927835565060377 0.0020102497655898333 -0.005422533489763737 0.0027364769484847784 -0.008445239625871181 -0.0116574726998806 -0.012214847840368748 0.006998205091804266 -0.0019204702693969011 0.00330204120837152 0.004900534637272358 0.005901372525840998 0.007634230889379978 -0.008054813370108604 0.002900577848777175 0.0029860420618206263 -0.0029441234655678272 0.005656800232827663 0.012872681021690369 0.011154780164361 0.008068196475505829 1.144666166510433E-4 0.011365625075995922 -0.01620381884276867 -9.500916348770261E-5 -0.002858993597328663 -0.016726162284612656 -0.0023349663242697716 0.001423547277227044 -0.0023836176842451096 -0.005741294007748365
Photios_I_of_Constantinople -0.017276039347052574 0.005904796067625284 -0.0016368235228583217 -0.011316639371216297 0.008358513936400414 0.0016725080786272883 -0.011923642829060555 -0.009891373105347157 -0.004669205751270056 -8.40666878502816E-4 0.0011598111595958471 -8.823252865113318E-4 -0.002368917455896735 -0.003840766381472349 0.002603650325909257 -0.007601033430546522 0.0073846313171088696 0.006567182019352913 -0.012695747427642345 -7.643225253559649E-4 0.002396421041339636 0.004457365721464157 -0.007771949749439955 -0.0043395389802753925 0.0025693303905427456 0.0038967407308518887 -0.007819583639502525 0.010221833363175392 0.0029722810722887516 0.015794308856129646 -0.0034657155629247427 -0.015263338573276997 -0.009059484116733074 -0.0084241246804595 -4.121606471017003E-4 0.011618372052907944 0.011813336983323097 0.0019657332450151443 -0.006316015962511301 -0.0047209844924509525 -0.008831310085952282 0.003798711346462369 0.016938256099820137 -0.01319440919905901 0.00877629779279232 -0.001551550580188632 7.512164302170277E-4 -0.01392338890582323 -0.015265531837940216 -0.01639184169471264 -0.008835009299218655 0.004390151239931583 3.941303875762969E-4 -0.012744087725877762 0.001144851790741086 0.006146089639514685 -0.003849219996482134 -0.008561297319829464 -0.012574372813105583 -9.212532313540578E-5 0.0014188304776325822 0.001389734330587089 0.00576702831313014 -0.007128224242478609 0.005754901561886072 0.015562710352241993 -0.010825056582689285 0.0046428800560534 -0.020046105608344078 -0.019114159047603607 0.0041442206129431725 -0.008384067565202713 -0.002125975675880909 -0.012830648571252823 -0.015402483753859997 -0.018369801342487335 0.008835673332214355 -0.002797973807901144 0.015044870786368847 -0.0013209079625084996 0.01537429541349411 0.0012622722424566746 -0.01889079622924328 -3.003666643053293E-4 0.008113102056086063 -4.8110715579241514E-4 0.014083154499530792 0.017935285344719887 0.01771816425025463 0.008747714571654797 -0.005842960439622402 0.013299304060637951 -0.02818109467625618 0.006825337652117014 -0.0021724007092416286 -0.023725096136331558 -0.014511401765048504 0.007882964797317982 4.853593127336353E-4 -0.0018739851657301188
1st-century_philosophers -0.018736129626631737 -5.148366908542812E-4 0.0017545782029628754 -0.010623356327414513 0.00528925284743309 -0.0034899753518402576 0.0032749460078775883 -0.004371535032987595 8.534286171197891E-4 -0.003382829949259758 0.00942990556359291 -3.6342369276098907E-4 0.0017581857973709702 -0.008310601115226746 -0.002311665564775467 0.004185989499092102 0.0020320729818195105 0.007189752534031868 -0.0086829774081707 4.555265186354518E-4 0.005876833572983742 -0.001722669810988009 -0.01103380136191845 -0.004167774226516485 0.010091051459312439 6.285791168920696E-4 0.004136212635785341 0.006527966354042292 -0.004494508728384972 0.011294343508780003 0.0019071069546043873 0.0029061096720397472 -0.011517327278852463 -0.0033772129099816084 0.013157028704881668 0.007851137779653072 0.0020897334907203913 1.8612286658026278E-4 -0.006237258668988943 -0.003337335307151079 -0.003335973247885704 -7.682163268327713E-4 0.004334282595664263 -0.0028216191567480564 0.001936115208081901 -0.0010354862315580249 -0.0016511953435838223 -0.0014902072725817561 7.761108572594821E-4 -0.0019185309065505862 0.0013603002298623323 -0.0036180538590997458 -0.002626867964863777 -0.006096339784562588 -3.304293495602906E-4 -3.0024765874259174E-4 8.204948389902711E-4 0.005082290153950453 -0.004315477330237627 -0.0114965308457613 0.0018298072973266244 0.007454333361238241 0.006587095092982054 0.0031737745739519596 -0.0016027481760829687 -2.4147925432771444E-4 -9.389308979734778E-4 0.010074078105390072 -4.7253016964532435E-4 -0.005964773241430521 -0.0034602885134518147 -4.040342173539102E-4 -0.002837779000401497 -0.010955819860100746 -0.007116266526281834 -0.016654720529913902 0.0022685539443045855 0.002201045397669077 0.0023461435921490192 -0.0016838472802191973 0.01159972045570612 0.009251805953681469 -0.00991891697049141 0.004215839318931103 0.010280347429215908 -0.0019566859118640423 0.013451764360070229 0.012746360152959824 0.014480995945632458 0.002358337864279747 0.0019695921801030636 0.005430917255580425 -0.024882696568965912 0.006569763645529747 -0.005215623416006565 -0.014873867854475975 -0.011339781805872917 9.115739958360791E-4 0.0017443208489567041 -0.0054005966521799564
Metic_philosophers_in_Classical_Athens -0.09096944332122803 0.008534618653357029 3.77800315618515E-5 -0.05849676579236984 0.03624245524406433 0.010751422494649887 0.006663625128567219 -0.01652737706899643 -0.015246216207742691 0.025045206770300865 0.0038110888563096523 0.020122162997722626 6.201507057994604E-4 -0.00603993097320199 -0.02458064630627632 0.00533420592546463 0.012752655893564224 0.011377794668078423 -0.03465850278735161 0.016216086223721504 0.02330837771296501 0.005784232635051012 -0.04141342267394066 0.0013683901634067297 0.023653872311115265 0.012720735743641853 -0.0011053477646782994 0.03620227426290512 -0.023603219538927078 0.0307454951107502 0.00341220386326313 -0.014697680249810219 -0.02441355399787426 -0.024046000093221664 0.030304692685604095 0.025959305465221405 0.04461344704031944 0.01424464676529169 -0.021120870485901833 -0.01114443689584732 -0.018673038110136986 0.00847089197486639 0.0056772674433887005 -0.030298469588160515 0.010152004659175873 2.7255446184426546E-4 -0.0010076960315927863 -0.02853306196630001 -0.01555855292826891 -0.016092374920845032 -0.020947501063346863 0.00448271119967103 0.0017241914756596088 -0.03209395334124565 0.00780148059129715 0.011536961421370506 -0.01793389581143856 -0.003906918689608574 -0.02886817418038845 4.97196801006794E-4 -0.003146655857563019 0.00693183857947588 0.011932386085391045 -0.0016831455286592245 0.014858811162412167 0.01707637310028076 -0.0011689024977385998 0.02251175232231617 -0.03612647205591202 -0.047562651336193085 0.016680419445037842 -0.018447238951921463 0.005600690841674805 -0.043617818504571915 -0.045137401670217514 -0.061045534908771515 0.0436154305934906 -0.010670766234397888 0.0300772525370121 0.002795454580336809 0.04225212335586548 0.013795008882880211 -0.04968716949224472 -0.012826545163989067 0.03788483142852783 0.0024142474867403507 0.03411641716957092 0.04968317970633507 0.03971388190984726 0.005979740992188454 0.0054932208731770515 0.027978643774986267 -0.07859832048416138 0.018892254680395126 -0.003192986361682415 -0.06899066269397736 -0.023087233304977417 0.002336870413273573 0.0061896368861198425 -0.024266473948955536
Cleanthes -0.009296142496168613 -0.013758862391114235 0.002116346964612603 -0.006674613803625107 0.024362174794077873 0.03485467657446861 0.09710708260536194 -0.01601308584213257 0.00653592124581337 0.019273173063993454 -0.007979164831340313 0.02692507952451706 0.02545471116900444 -0.001237312681041658 -0.043463170528411865 0.04864263907074928 0.009973849169909954 -0.008828296326100826 0.010195774026215076 0.022030171006917953 0.010927842929959297 -0.06830476969480515 0.005466680508106947 0.02959892898797989 0.00733056478202343 -0.012070066295564175 0.01764751598238945 -0.008866152726113796 -0.04400468245148659 -0.047481413930654526 0.012588144280016422 0.06852187216281891 0.0323997437953949 -0.006610446143895388 0.01725071854889393 -0.03972487524151802 -0.03439118713140488 -0.001862435252405703 -0.0011571210343390703 -0.008610744029283524 0.019809922203421593 -0.010597876273095608 -0.09620297700166702 0.028700143098831177 -0.03394506499171257 0.04877743124961853 -0.02375657483935356 0.10181549936532974 0.057824693620204926 0.07775560766458511 0.06672659516334534 -0.0584755502641201 -0.014947788789868355 0.07541671395301819 0.005301494617015123 -0.011126902885735035 0.02728571556508541 0.07225990295410156 0.02426176331937313 -0.013502752408385277 -2.4141991161741316E-5 0.017950981855392456 9.218532941304147E-4 0.04120035469532013 -0.06085160747170448 -0.08403600007295609 0.06331697851419449 -0.016298703849315643 0.09822552651166916 0.10049521923065186 0.013913597911596298 0.027273520827293396 0.005771074444055557 0.0770544558763504 0.06016018986701965 0.044282328337430954 -0.030754830688238144 0.021072089672088623 -0.057617589831352234 0.02936829812824726 -0.0624084547162056 -0.02643873728811741 0.06125868111848831 -0.0012001770082861185 -0.027027174830436707 -0.014506187289953232 -0.06594071537256241 -0.08096840232610703 -0.044551439583301544 -0.023934809491038322 0.007955050095915794 -0.02715739794075489 0.08755923062562943 -0.04017997533082962 0.0033943173475563526 0.054317325353622437 0.057526517659425735 -0.03782180696725845 -0.006898776162415743 -0.01414030883461237
Other_uses -0.015483813360333443 0.011150105856359005 -0.022057034075260162 -0.016387414187192917 -0.0063219633884727955 -0.014703759923577309 -0.03245602175593376 -0.01250657718628645 -0.05284807085990906 -0.012993136420845985 -0.04135706648230553 0.021942760795354843 -0.02412438578903675 -0.023092035204172134 0.006237315014004707 -0.029858211055397987 -0.0028556929901242256 0.019132662564516068 -0.003218321828171611 -0.010517487302422523 0.005133355502039194 0.036559488624334335 0.012214893475174904 -0.022254031151533127 0.008810322731733322 0.009048121981322765 -0.021340997889637947 -0.0053477357141673565 -0.02154289372265339 0.033373650163412094 -0.0015950454398989677 -0.021917017176747322 -0.026718460023403168 -0.006215875037014484 -0.0020519555546343327 0.023705681785941124 0.046962469816207886 0.009178024716675282 -0.01167058851569891 -0.011646143160760403 -0.01117805577814579 0.01165863499045372 0.021593399345874786 -0.030603311955928802 0.0334148183465004 -0.02023792639374733 0.004294953308999538 -0.03501211479306221 -0.03721781075000763 -0.02143367938697338 -0.031117569655179977 0.006541143171489239 0.006887529045343399 -0.06819985806941986 0.0063851154409348965 0.008969945833086967 -0.020127417519688606 -0.022783813998103142 -0.01193362195044756 0.006807165686041117 -9.595199953764677E-4 -0.009083355776965618 -0.008577185682952404 -0.02655322290956974 0.03475514426827431 0.049911439418792725 -0.04128891974687576 0.004436554852873087 -0.04151267185807228 -0.05034065246582031 -0.027696892619132996 -0.009611942805349827 0.0016385694034397602 -0.023330003023147583 -0.004854499362409115 0.017773553729057312 -0.0054331934079527855 -0.004359837621450424 0.02783595211803913 -0.01729324273765087 0.01333565916866064 0.0048229023814201355 -0.011011476628482342 -0.004539744928479195 0.002027898095548153 0.00593165447935462 0.013185135088860989 0.020828217267990112 -0.004213686566799879 0.005948495585471392 -0.0076049454510211945 -0.01660308800637722 -0.0020342227071523666 0.0034539448097348213 0.01917184516787529 2.672751434147358E-4 -0.023960333317518234 0.012853630818426609 -4.0465930942445993E-4 0.011166956275701523
Ancient_Thracian_Greeks -0.0320122055709362 0.0048659383319318295 -0.006594414357095957 -0.024246886372566223 0.012949668802320957 -0.0030118743889033794 -0.004035772755742073 -0.005677833221852779 -0.006967972498387098 0.0048931194469332695 0.0026688051875680685 -0.0011223370674997568 3.6743705277331173E-4 -0.004439476877450943 -0.0011170111829414964 -0.008884571492671967 0.0016103166854009032 0.005313977599143982 -0.016633914783596992 1.5802310372237116E-4 0.002523337956517935 0.011111087165772915 -0.014124782755970955 -0.004488556645810604 0.009276306256651878 0.0014443998225033283 0.0015891945222392678 0.010205683298408985 0.0031131040304899216 0.013128962367773056 -0.0035123396664857864 -0.013218141160905361 -0.015039610676467419 -0.0016804916085675359 0.008474805392324924 0.01540210098028183 0.010896038264036179 -0.0039821104146540165 -0.008185642771422863 -0.0049985554069280624 -0.004906331188976765 -0.0014995646197348833 0.014917845837771893 -0.007751087192445993 0.00363787985406816 -0.004489827435463667 9.001492871902883E-4 -0.014692242257297039 -0.007570201531052589 -0.014103390276432037 -0.016530431807041168 0.012365150265395641 0.004365052096545696 -0.012121983803808689 9.553058189339936E-4 0.0010001705959439278 -0.008744537830352783 -0.005282028112560511 -0.012192253954708576 -0.007131536025553942 -0.004672305192798376 -0.0016869755927473307 0.006323416717350483 -0.009169215336441994 0.013150072656571865 0.015636904165148735 -0.0032491914462298155 0.003461705055087805 -0.016710670664906502 -0.019301144406199455 0.0025667925365269184 -0.009662849828600883 0.001310283550992608 -0.024543270468711853 -0.01531206350773573 -0.028323691338300705 0.01321669202297926 -0.004123501479625702 0.011246981099247932 -9.603056241758168E-4 0.01917966455221176 0.0072619859129190445 -0.023879285901784897 -0.002447665436193347 0.01605793833732605 0.0022959003690630198 0.01798759400844574 0.01969282701611519 0.024424098432064056 0.009355537593364716 -0.00499612744897604 0.01441960409283638 -0.04253139719367027 0.008213100023567677 2.026240326813422E-5 -0.03205529972910881 -0.011813677847385406 0.0021837959066033363 0.007771898992359638 -0.004695465322583914
Roman-era_Peripatetic_philosophers -0.0064048669300973415 0.001651541329920292 -0.004620746709406376 -0.0019161505624651909 0.002680353354662657 0.0077274939976632595 0.011985371820628643 -0.002271920209750533 0.009234940633177757 -0.002436319598928094 0.00830139685422182 2.9681503656320274E-4 0.0034609439317137003 -0.0025128922425210476 -0.006322228349745274 0.011160745285451412 0.0044917273335158825 0.001431747805327177 -0.002393165836110711 0.004368419758975506 -6.677479832433164E-4 -0.0069880704395473 -0.004350227303802967 4.5859013334847987E-4 0.005480519961565733 0.002298735547810793 0.006227388046681881 0.004557069391012192 -0.005218914709985256 -0.001255532493814826 0.0037028733640909195 0.012641946785151958 -0.003257998963817954 -0.0052365828305482864 0.007137827109545469 -0.0056492420844733715 -0.00339707569219172 -0.0051117236725986 -0.009564063511788845 0.0027132255490869284 0.0015928554348647594 -0.006013941019773483 -0.014293162152171135 0.010232958942651749 -0.004687287379056215 0.007882499136030674 -0.008161835372447968 0.012241196818649769 0.0011231958633288741 0.008406096138060093 0.01190886925905943 9.579232428222895E-4 -0.0011871627066284418 0.0026537058874964714 -0.00141790765337646 -0.0014664031332358718 3.5360269248485565E-4 0.0066298446618020535 0.0025350849609822035 -0.012915072962641716 6.964313215576112E-4 0.010012539103627205 0.0044585638679564 0.01110380981117487 -0.011792120523750782 -0.01739485375583172 0.012273475527763367 0.00472404295578599 0.011806130409240723 0.009814389981329441 -0.0021353070624172688 -7.479763007722795E-4 -0.005118051078170538 -6.288900622166693E-4 0.002845748094841838 -0.019054962322115898 -0.004062550608068705 0.009671421721577644 -0.00607130816206336 0.0033904246520251036 0.007931450381875038 0.005340225994586945 -0.0077223707921803 0.009104163385927677 0.014259951189160347 0.002417377894744277 -7.00127799063921E-4 0.004146655090153217 -0.0043793935328722 -0.0010745205217972398 0.004348365124315023 0.004763769451528788 -0.0016536407638341188 0.007049968466162682 0.0023182539734989405 -0.0012016028631478548 0.001821222365833819 0.002886411966755986 0.008965016342699528 -0.010931453667581081
Thrasymachus -0.015952851623296738 -0.006626616232097149 0.0014001557137817144 -0.0157479140907526 0.03018055483698845 0.029546961188316345 0.09827592968940735 -0.013870840892195702 0.010112668387591839 0.02297116257250309 -0.0023870214354246855 0.019083339720964432 0.02809848077595234 0.005723909009248018 -0.039401616901159286 0.03946489095687866 0.011815373785793781 2.0937883527949452E-4 0.0029415804892778397 0.01996472105383873 0.007727398071438074 -0.06280692666769028 0.0030156427528709173 0.02455870248377323 0.012923418544232845 -0.011060189455747604 0.016777226701378822 -0.008546745404601097 -0.029196972027420998 -0.04060104116797447 0.002106507308781147 0.050373926758766174 0.034997161477804184 -0.0026676214765757322 0.012185024097561836 -0.033355824649333954 -0.035224154591560364 0.0013511579018086195 0.0029283438343554735 -0.007646450772881508 0.008930133655667305 -0.011995827779173851 -0.07617630064487457 0.03182423859834671 -0.04413754492998123 0.04396814852952957 -0.011372325010597706 0.08819914609193802 0.06215282157063484 0.06833060830831528 0.060088492929935455 -0.054768722504377365 -0.01581566594541073 0.09332378953695297 -3.5647774348035455E-4 -0.010450391098856926 0.02718430384993553 0.060899246484041214 0.014242829754948616 -0.0013698060065507889 0.001671427977271378 0.003575235605239868 0.00271208630874753 0.027310686185956 -0.049885425716638565 -0.06658690422773361 0.06609872728586197 -0.028073500841856003 0.0734504759311676 0.08927079290151596 0.030313126742839813 0.026627663522958755 0.0156386885792017 0.0751970186829567 0.037670690566301346 0.03839930146932602 -0.009445683099329472 0.005819807760417461 -0.04458601400256157 0.03277016803622246 -0.05569211766123772 -0.026541348546743393 0.04834825173020363 -0.004622836131602526 -0.029147284105420113 -0.006534164771437645 -0.055069636553525925 -0.07386667281389236 -0.02562698908150196 -0.01812061481177807 0.004011534154415131 -8.925175643526018E-4 0.05246025696396828 -0.0445125550031662 -0.014906487427651882 0.025305919349193573 0.04983314126729965 -0.04560929909348488 -0.010495159775018692 -0.014816075563430786
Communicator109610660 -0.02463824301958084 -0.015009217895567417 -0.02725205384194851 -0.029004555195569992 0.06680038571357727 0.061977460980415344 0.1953141838312149 -0.064450204372406 -0.002034188248217106 0.005155916325747967 -0.03998773545026779 0.0481608510017395 0.052052006125450134 -0.0314667709171772 -0.10606963187456131 0.07619359344244003 0.03932956978678703 0.021100880578160286 -0.037992965430021286 0.06424011290073395 0.031945452094078064 -0.13726173341274261 -0.015342635102570057 0.028069978579878807 0.060291022062301636 -0.016193926334381104 0.02712118998169899 -0.03180483356118202 -0.09978775680065155 -0.037438973784446716 0.01367588248103857 0.15527155995368958 -0.003598223440349102 -0.05899285897612572 0.08712682873010635 -0.044128142297267914 0.009584221057593822 0.006912839598953724 -0.05789965018630028 -0.02471563033759594 0.03318985179066658 -0.03364800289273262 -0.2227339893579483 0.04616909846663475 -0.03693171963095665 0.09239383786916733 -0.06442928314208984 0.20252244174480438 0.07029300928115845 0.16656292974948883 0.17482724785804749 -0.10182026773691177 -0.015460529364645481 0.052582576870918274 -0.006563802715390921 -0.015291429124772549 0.03680799528956413 0.14228925108909607 0.04671884700655937 -0.07679270952939987 -0.00568411685526371 0.11222255975008011 -0.007411250378936529 0.14045539498329163 -0.13012944161891937 -0.2381669580936432 0.07882699370384216 0.053322285413742065 0.21332038938999176 0.18011890351772308 -0.040706511586904526 0.06289292126893997 -0.08884485810995102 0.0739879384636879 0.11214988678693771 -0.03676344454288483 -0.12361495196819305 0.10204650461673737 -0.0931675061583519 0.029108481481671333 -0.04106626659631729 -0.006601098459213972 0.05271211266517639 0.055524978786706924 0.04099788889288902 -0.011379996314644814 -0.05437837913632393 -0.04970288276672363 -0.136234313249588 -0.08453767001628876 0.08141691237688065 -0.0724046602845192 0.2599937617778778 -8.885329589247704E-5 0.05967690795660019 0.15422289073467255 0.11260585486888885 -0.026140907779335976 0.04512479528784752 -0.039064496755599976
Diogenes -0.007083690259605646 0.009779957123100758 -0.02636098302900791 2.4107482749968767E-4 -0.014554274268448353 -0.02316206879913807 -0.05313713476061821 -0.012102064676582813 -0.021102193742990494 -0.025467781350016594 -0.020144883543252945 -0.0066786580719053745 -0.028696533292531967 -0.02646838128566742 0.012005501426756382 -0.03682688623666763 0.010458139702677727 0.011362732388079166 -0.007503659930080175 -0.006959313061088324 -0.013800130225718021 0.03497108444571495 0.0163186676800251 -0.02952897921204567 0.013725553639233112 3.3741467632353306E-4 -0.01773340255022049 -0.00781939085572958 -4.246549215167761E-4 0.04151147976517677 0.0016153944889083505 -0.028776507824659348 -0.031621403992176056 0.0012184417573735118 -0.003298540133982897 0.022111592814326286 0.032124921679496765 -0.004212073981761932 -0.01339802984148264 0.004873786587268114 0.0016101672081276774 -0.0016663826536387205 0.040147729218006134 -0.012769924476742744 0.04026235267519951 -0.023354871198534966 0.006642969325184822 -0.04265209287405014 -0.03687804937362671 -0.02520022727549076 -0.023312948644161224 0.01981235295534134 0.012116831727325916 -0.05129801481962204 -0.004475184716284275 0.008373604156076908 -0.0167038906365633 -0.024642420932650566 -0.004329967312514782 -0.0038711668457835913 -0.008713037706911564 -0.012638263404369354 -0.0036258408799767494 -0.02568732388317585 0.03631298616528511 0.05236357823014259 -0.04289501532912254 0.0022390868980437517 -0.04363119974732399 -0.0585842989385128 -0.024731900542974472 -0.013951556757092476 4.044529632665217E-4 -0.033931318670511246 -0.027216166257858276 0.003661501221358776 0.003546557854861021 -0.011313785798847675 0.03291825205087662 -0.022251807153224945 0.01963905431330204 0.014267634600400925 -0.02800324186682701 -0.005129073280841112 0.0048528616316616535 0.009980781935155392 0.02708304673433304 0.03493756428360939 0.009535133838653564 0.01294977217912674 -0.008728716522455215 -3.2222981099039316E-4 -0.043122097849845886 0.02405097894370556 0.007041224278509617 -0.017086919397115707 -0.037871427834033966 0.022625507786870003 -7.493642624467611E-4 0.009152003563940525
CausalAgent100007347 -0.0010541293304413557 0.0012661265209317207 -0.06450126320123672 -0.011285791173577309 0.05083739012479782 0.06196789816021919 0.2101234495639801 -0.08377934992313385 -0.033987026661634445 -0.03570181876420975 -0.08934107422828674 0.04729469120502472 0.04793967679142952 -0.040067173540592194 -0.08918880671262741 0.05071962997317314 0.04454702138900757 0.03076947294175625 -0.036933258175849915 0.05426719784736633 0.015756938606500626 -0.15914539992809296 0.0290385689586401 0.008246568031609058 0.06979081779718399 -0.026673253625631332 0.01689794287085533 -0.068979911506176 -0.08986029028892517 -0.02297399379312992 0.0015370938926935196 0.16934090852737427 -0.022506939247250557 -0.0639258399605751 0.07965442538261414 -0.03517480567097664 0.023432563990354538 0.007815473712980747 -0.04995898902416229 -0.026593675836920738 0.05396508425474167 -0.049466975033283234 -0.2527712285518646 0.039970818907022476 -0.01935765892267227 0.10006901621818542 -0.06639546900987625 0.22231511771678925 0.055530618876218796 0.1754325032234192 0.19890066981315613 -0.11248506605625153 -0.00955275073647499 0.023991405963897705 -0.008646723814308643 -0.013831119984388351 0.031119413673877716 0.130361869931221 0.05853670462965965 -0.10095534473657608 -0.015078384429216385 0.13489259779453278 -0.019652357324957848 0.14698702096939087 -0.13426591455936432 -0.2716367840766907 0.05680820718407631 0.07006464898586273 0.2537321448326111 0.20318631827831268 -0.0842299684882164 0.08979476243257523 -0.12584002315998077 0.08624695241451263 0.15389582514762878 -0.020102811977267265 -0.17516496777534485 0.12966834008693695 -0.1064118817448616 0.02208974026143551 -0.04122042655944824 -0.007745580747723579 0.057432904839515686 0.08374932408332825 0.04901690036058426 -0.014984194189310074 -0.051433950662612915 -0.04530094936490059 -0.1813202202320099 -0.09996644407510757 0.11427263915538788 -0.10413434356451035 0.35935327410697937 0.01265511754900217 0.08549196273088455 0.22422240674495697 0.12588267028331757 -0.013993184082210064 0.07001877576112747 -0.02723494917154312
Sfn -0.010392224416136742 0.012671574018895626 -0.018682515248656273 -0.00631926441565156 -0.00987144187092781 -0.009293577633798122 -0.03913775458931923 -0.006497174967080355 -0.052861593663692474 -0.016564078629016876 -0.0387415885925293 0.028599750250577927 -0.028097866103053093 -0.023629335686564445 0.0021528061479330063 -0.030929677188396454 0.0013551558367908 0.010717526078224182 -0.0037429865915328264 -0.009559694677591324 0.007167361676692963 0.031178170815110207 0.009943658486008644 -0.029107214882969856 0.009534014388918877 0.010116035118699074 -0.021782102063298225 -0.0032824587542563677 -0.019577985629439354 0.027140429243445396 -0.0011154294479638338 -0.017918385565280914 -0.02045583166182041 -0.004737773910164833 -0.008258158341050148 0.022862330079078674 0.038219038397073746 0.005737255327403545 -0.014896819368004799 -0.0030304179526865482 -0.005604846868664026 0.004412526730448008 0.02143809385597706 -0.02601802907884121 0.03060828521847725 -0.018415087834000587 0.002702253870666027 -0.035944946110248566 -0.02585936151444912 -0.01736324280500412 -0.025464344769716263 0.008789470419287682 0.011561187915503979 -0.05806312337517738 0.003629433922469616 0.006372663192451 -0.02259151265025139 -0.03136415407061577 -0.006600831635296345 0.006158590316772461 2.67827941570431E-4 -0.009396322071552277 -0.005198958329856396 -0.0187225379049778 0.036212507635354996 0.05245106294751167 -0.04807720705866814 0.005059773102402687 -0.04570513591170311 -0.05049809068441391 -0.02732175961136818 -0.010163367725908756 -0.0021302266977727413 -0.028664415702223778 -0.009468224830925465 0.019258277490735054 -0.006396474316716194 -0.012138617224991322 0.03159531578421593 -0.024973858147859573 0.010426610708236694 0.004822813905775547 -0.007427454460412264 0.00331665575504303 0.00250072730705142 0.0010719633428379893 0.014515917748212814 0.019450999796390533 -0.008399397134780884 0.003420173656195402 -0.0055223689414560795 -0.011422596871852875 -8.052713237702847E-4 0.010814626701176167 0.013612942770123482 -0.0033300050999969244 -0.017864109948277473 0.01262923888862133 0.004878821782767773 0.01329498365521431
Ontologists -0.06816854327917099 0.001967819407582283 9.11921844817698E-4 -0.04795997589826584 0.030657555907964706 0.0076264915987849236 0.0066499426029622555 -0.017758658155798912 5.828864523209631E-4 0.019926073029637337 0.005354503635317087 0.008700685575604439 0.008930639363825321 -0.007238449994474649 -0.021661464124917984 0.011771409772336483 0.006901796907186508 0.008288171142339706 -0.022010844200849533 0.014375356957316399 0.010733438655734062 -0.0033519533462822437 -0.03505699336528778 0.0051429616287350655 0.023670895025134087 0.010922900401055813 5.966075113974512E-4 0.022304775193333626 -0.009107623249292374 0.018920226022601128 0.0015369860921055079 -0.010514046996831894 -0.017861375585198402 -0.01844196766614914 0.021351560950279236 0.014829925261437893 0.0162039902061224 0.0010620339307934046 -0.012001687660813332 -0.008455620147287846 -0.01562030054628849 0.005928294733166695 0.004706444218754768 -0.015593414194881916 -6.623151712119579E-4 -4.7353372792713344E-4 -0.007098923437297344 -0.017039980739355087 -0.004131984896957874 -0.008754872716963291 -0.015122251585125923 0.0029407083056867123 8.589088683947921E-4 -0.002924214582890272 0.007874919101595879 0.0016151852905750275 -0.007731407880783081 0.0016382870962843299 -0.020820310339331627 0.0013884175568819046 0.004129573702812195 8.964934386312962E-4 0.0072185322642326355 -0.0028907773084938526 0.0014143745647743344 0.008209627121686935 0.0010694994125515223 0.007145795971155167 -0.02585173398256302 -0.02507985383272171 0.0172730665653944 -0.02019878290593624 0.010690116323530674 -0.030020106583833694 -0.0326310396194458 -0.04987720772624016 0.032640907913446426 -0.014018812216818333 0.019279727712273598 -0.001590040628798306 0.03184261545538902 0.009013965725898743 -0.03755306452512741 -0.00468581635504961 0.025590775534510612 0.00311227235943079 0.021366113796830177 0.03265077993273735 0.02936602011322975 0.012038114480674267 0.003062768140807748 0.020398976281285286 -0.06547512859106064 0.011696523986756802 -0.010859726928174496 -0.04876693710684776 -0.012836736626923084 0.004367798566818237 4.78186528198421E-4 -0.017871364951133728
God -0.02195930667221546 0.0036139930598437786 -0.0014633395476266742 -0.017566422000527382 0.0012559080496430397 -0.006098731886595488 -0.005073800217360258 -0.0027258950285613537 -0.016779335215687752 -0.004364611115306616 -0.0035925039555877447 0.006775709800422192 -0.0041227261535823345 -0.006216343492269516 -0.0018494955729693174 -0.011923344805836678 0.008330701850354671 0.004816010128706694 -0.008748458698391914 -0.0019641644321382046 -9.191350545734167E-4 0.011730601079761982 -0.0060643465258181095 -0.009608379565179348 0.004048813600093126 0.0018239376368001103 -0.001358737237751484 0.009746010415256023 0.002895630430430174 0.016550246626138687 -0.004502823576331139 -0.012334362603724003 -0.00774189829826355 -0.005737102124840021 0.004763185512274504 0.015268414281308651 0.010965421795845032 0.008077766746282578 -0.006341057829558849 -0.0041238111443817616 8.599148131906986E-4 0.00546345766633749 0.014162340201437473 -0.011642816476523876 0.0029418841004371643 -0.0015139143215492368 0.004452753812074661 -0.021815096959471703 -0.012424432672560215 -0.010154909454286098 -0.016013290733098984 0.00505719892680645 0.004614292643964291 -0.015189767815172672 0.0046151671558618546 0.002152092754840851 -0.011549266055226326 -0.012856296263635159 -0.008200219832360744 -0.004435193724930286 -0.0016307554906234145 0.0010641334811225533 6.831864593550563E-4 -0.008335649967193604 0.016681203618645668 0.012809532694518566 -0.012956613674759865 0.006139812059700489 -0.018815524876117706 -0.01904231868684292 -0.0013565135886892676 -0.002148775150999427 -0.0019454294815659523 -0.019868433475494385 -0.011062665842473507 -0.017619632184505463 0.00607737572863698 -0.008035998791456223 0.009291833266615868 -0.0011019646190106869 0.01798083819448948 0.004005259834229946 -0.02047029696404934 -0.001456760335713625 0.010203111916780472 0.0052791777998209 0.012004731222987175 0.020621147006750107 0.011744909919798374 0.004178845789283514 -0.0015959839802235365 0.01094112265855074 -0.024901043623685837 0.008181912824511528 0.0010500168427824974 -0.018830398097634315 -0.009520180523395538 0.010440514422953129 0.005977426189929247 -0.004748379345983267
Believer109847727 0.01437760703265667 -0.00727459043264389 0.006173677742481232 0.015595762059092522 0.0060756029561161995 0.01061408594250679 0.02919457107782364 0.0033867398742586374 0.011040096171200275 -0.0027904317248612642 -0.0025076637975871563 0.0033553934190422297 0.012195780873298645 0.00718261580914259 -0.005119252018630505 0.017872337251901627 -0.004209537990391254 -0.002807031385600567 0.006454370450228453 0.007608282379806042 -0.005065124481916428 -0.023436501622200012 0.00853818841278553 0.006653539836406708 -0.0033553673420101404 -0.009281091392040253 0.0012052074307575822 -0.01222299039363861 -0.010840805247426033 -0.023286642506718636 0.0036034968215972185 0.02587234415113926 0.014812719076871872 0.002807129407301545 -0.003418609034270048 -0.011926304548978806 -0.017108723521232605 0.0013213397469371557 0.0032710391096770763 -0.0024761438835412264 0.011288302019238472 -0.004271389916539192 -0.02931731380522251 0.0161743201315403 -0.011656270362436771 0.01274777576327324 -0.006591918412595987 0.03567123785614967 0.02638200856745243 0.030011072754859924 0.027748286724090576 -0.02079501748085022 -0.00418557645753026 0.024538299068808556 2.9230478685349226E-4 -8.433227776549757E-4 0.014408871531486511 0.019854197278618813 0.016470761969685555 -0.0015209669945761561 -0.0016530515858903527 0.0037273592315614223 -0.0011105160228908062 0.015185166150331497 -0.022954901680350304 -0.03409598767757416 0.02140018716454506 -0.010444960556924343 0.04277253523468971 0.03965966776013374 -9.484808542765677E-4 0.009919515810906887 -0.0019142341334372759 0.02877768501639366 0.02441338822245598 0.02178114838898182 -0.021413350477814674 0.01612887904047966 -0.022007688879966736 0.012947751209139824 -0.02521948516368866 -0.009848060086369514 0.028785446658730507 0.007545305881649256 -0.006853207014501095 -0.002498687943443656 -0.02246013842523098 -0.03511356934905052 -0.02863963507115841 -0.015749981626868248 0.008292893879115582 -0.017276417464017868 0.04541846364736557 -0.018076414242386818 0.007237219717353582 0.038187187165021896 0.02775580808520317 -0.011745894327759743 -0.0014927256852388382 0.003092886647209525
Hecato_of_Rhodes -0.008390067145228386 0.002037597354501486 -0.012588336132466793 -0.0114711569622159 0.020069481804966927 0.024711431935429573 0.08302799612283707 -0.014704851433634758 -0.032728832215070724 -0.001668971381150186 -0.045692238956689835 0.03541449457406998 0.007472463883459568 -8.076130761764944E-4 -0.024374699220061302 0.009818137623369694 0.0022189035080373287 0.0019813443068414927 0.00421635527163744 0.005825964733958244 0.011365560814738274 -0.038706108927726746 0.01845383271574974 0.01422885525971651 -0.005443194415420294 6.144199869595468E-4 5.517244571819901E-4 -0.007808801718056202 -0.01994548924267292 -0.03501079976558685 -0.003720050910487771 0.027513988316059113 0.028339454904198647 0.005474276840686798 -0.017184942960739136 -0.025138001888990402 -0.019323598593473434 0.009953044354915619 0.017913594841957092 -0.008425491861999035 0.013115273788571358 0.0033162343315780163 -0.053170643746852875 0.012072743847966194 -0.02926076203584671 0.03169949725270271 0.003866777056828141 0.06049663946032524 0.0407453328371048 0.03633882477879524 0.03383050486445427 -0.039280589669942856 -0.01765766367316246 0.053105369210243225 0.01535379234701395 -0.01044272817671299 0.013187690638005733 0.02661151997745037 0.00930715724825859 0.015649162232875824 0.004009000025689602 -0.014418726786971092 -0.008423245511949062 -0.006337742321193218 -0.014682207256555557 -0.024459408596158028 0.025514060631394386 -0.0309595949947834 0.04856748878955841 0.06094617024064064 0.014832583256065845 0.026541106402873993 0.01998371258378029 0.06978771090507507 0.04604469984769821 0.06726225465536118 -0.0034993374720215797 0.0034596456680446863 -0.03505130484700203 0.015963034704327583 -0.054018646478652954 -0.034504279494285583 0.05824568495154381 -0.012849396094679832 -0.04187336191534996 -0.015405246987938881 -0.046826452016830444 -0.07125387340784073 -0.026563521474599838 -0.008798799477517605 -0.005393649451434612 -0.0032504808623343706 0.07053615152835846 -0.0493454709649086 -0.0024082136806100607 0.038188621401786804 0.04584052413702011 -0.038651566952466965 -0.013192957267165184 -0.0015905647305771708
