82 100 1000
http://dbpedia.org/class/yago/WikicatRoman-eraPhilosophers 0.0042589339427649975 -0.0020187078043818474 -0.002296943450346589 0.001306556980125606 -0.0017443567048758268 -0.001895769382826984 -0.0014328830875456333 -9.875796968117356E-4 0.0014567679027095437 0.0020869066938757896 0.0031128472182899714 0.0019667029846459627 0.0012397198006510735 -6.670732400380075E-4 -0.0041905613616108894 -0.0042297448962926865 -0.0031987461261451244 -0.0031232070177793503 -0.003482511732727289 -0.0045667970553040504 0.0013043354265391827 -5.069781327620149E-4 0.0014653962571173906 -0.0031633730977773666 -0.004048474133014679 0.002487566089257598 0.0027774798218160868 -0.0031352131627500057 0.0027335742488503456 0.0033108580391854048 0.0012626341776922345 0.003258749609813094 -2.209752274211496E-4 0.0038593390490859747 2.407535503152758E-4 0.0037928589154034853 -0.0012400387786328793 -0.004751137923449278 -0.003500072518363595 0.0032842750661075115 -9.175229351967573E-4 0.0016813878901302814 -6.201858632266521E-4 -0.0016783872852101922 -5.550634814426303E-4 -0.0032974183559417725 -0.0015828325413167477 -0.004096906632184982 -0.0013051237910985947 -0.004363805986940861 -8.989323396235704E-5 -0.0011283083586022258 0.0012437099358066916 -7.409438258036971E-4 0.002249841345474124 0.004966059699654579 6.14598102401942E-4 0.0033011948689818382 -0.0014582459116354585 -0.0041497256606817245 0.004244504030793905 -0.00273696007207036 -0.0025626779533922672 -0.0024842144921422005 0.002445445628836751 0.0017910015303641558 -0.0016610657330602407 -0.0030096410773694515 0.0017932767514139414 -0.0032008395064622164 -0.004898568615317345 0.0011011785827577114 0.0030841270927339792 0.002151129301637411 0.004101935774087906 0.003080587601289153 -0.004342304076999426 0.0016608689911663532 -0.0016812850954011083 -4.8053436330519617E-4 0.002574588404968381 0.004016982391476631 -0.00383445480838418 0.0030955856200307608 9.129973477683961E-4 -0.0034812416415661573 -0.004948643501847982 -0.002174556255340576 0.0033567524515092373 -0.003195535857230425 0.002652472350746393 -0.0042648036032915115 -0.002665165578946471 0.003217860823497176 -0.003583085024729371 3.286449355073273E-4 0.0016072120051831007 0.0021640697959810495 0.001520649529993534 -0.005092280451208353
http://dbpedia.org/resource/Hipparchia_of_Maroneia -0.0034389114007353783 -0.006583095993846655 -0.014246005564928055 -0.0010073080193251371 5.235899006947875E-4 0.0022289452608674765 -0.003853111295029521 0.001547020161524415 0.0076121133752167225 -3.768093592952937E-4 0.004518117289990187 0.005266999825835228 0.004759212024509907 -0.005170194432139397 -0.005613131448626518 -0.0019196504727005959 0.006662941072136164 0.009679153561592102 -0.0015535856364294887 0.01077109482139349 -0.008582521229982376 0.009611684828996658 -0.00540069630369544 -0.004409525077790022 0.012419899925589561 -0.001341325230896473 -0.014267959631979465 -0.0020453708712011576 -0.009630579501390457 -0.006234545260667801 0.012095422483980656 -0.0023153082001954317 0.009708656929433346 -0.015008650720119476 0.0027104862965643406 -0.008045563474297523 -0.004324131179600954 -0.014407439157366753 -3.05138120893389E-4 -0.010773916728794575 -0.009845610707998276 -0.0058134146966040134 0.013145597651600838 -0.00931178592145443 0.006350508891046047 -0.0036977806594222784 -0.0013897233875468373 -0.0021955491974949837 0.001130987424403429 0.012182677164673805 -0.00962192565202713 -0.012925194576382637 0.004883366171270609 -0.010547417216002941 -0.003269927343353629 -8.239616872742772E-4 0.0022054139990359545 0.015540817752480507 0.0057469564490020275 0.011265028268098831 0.0036859011743217707 -0.002339949831366539 0.006986314430832863 0.008042209781706333 -0.014810602180659771 0.009403021074831486 0.009455670602619648 0.009332675486803055 -0.001977655803784728 -0.00283665768802166 0.0030912216752767563 -0.004986549727618694 0.014182830229401588 0.004012816585600376 -0.004495272412896156 -0.015465264208614826 0.006680522114038467 0.01027670968323946 -0.007079127244651318 0.004245706368237734 -0.007702014409005642 0.012466460466384888 -0.015349741093814373 -0.006597356870770454 0.0058042495511472225 0.007575160823762417 0.00514458492398262 -0.004655318334698677 -0.010803797282278538 0.0012538583250716329 0.0038988664746284485 -0.0041923862881958485 -6.642682710662484E-4 0.013292431831359863 0.0018256393959745765 -9.057881543412805E-4 0.012013433501124382 -0.0029263151809573174 0.0026660908479243517 0.004318667575716972
http://dbpedia.org/resource/Hermogenes_(philosopher) -0.00355824688449502 -0.011116656474769115 -0.0032283179461956024 -0.009934819303452969 -0.0015434439992532134 0.004555809311568737 -1.6081720241345465E-4 0.007734522223472595 0.007684106007218361 0.00715595530346036 0.007960139773786068 0.005188643466681242 0.0036040805280208588 -0.0030960114672780037 -0.01298592146486044 0.0023894798941910267 -2.2077880566939712E-4 0.008336280472576618 -0.006052438169717789 0.004951460286974907 -0.0012457380071282387 0.009214342571794987 -0.0058541810140013695 -0.0049351854249835014 0.006713933777064085 -0.007101437542587519 -0.011793958954513073 -3.497227153275162E-4 -0.003669543657451868 -0.013438106514513493 0.012004205957055092 -0.008544417098164558 0.011278446763753891 -0.00923995953053236 0.006245845463126898 -0.0016440633917227387 -0.004417291842401028 -0.007606660947203636 0.001289596315473318 -0.015132773667573929 -0.004551033489406109 -0.008409823291003704 0.007800153456628323 -0.0017440610099583864 0.001109408913180232 -8.195037371478975E-4 -0.007464875001460314 -0.006586918607354164 -9.356398950330913E-4 0.0044626579619944096 -0.0027084327302873135 -0.016850601881742477 0.0017155742971226573 -0.007516501005738974 -0.003236758755519986 0.001247386448085308 0.006860895082354546 0.01143998559564352 -0.0032671764492988586 0.0062441336922347546 0.009477823972702026 -0.0021483476739376783 0.009459193795919418 0.004301660228520632 -0.007456593215465546 0.006486688274890184 0.01199894305318594 0.012014292180538177 -0.0014293035492300987 0.0028162552043795586 0.004313810262829065 -0.007505740039050579 0.005758993327617645 3.526477958075702E-4 -2.541148569434881E-4 -0.018999559804797173 0.00994481798261404 0.01313344668596983 0.0015405409503728151 0.00388510525226593 -0.009244441986083984 0.001533994567580521 -0.006621203850954771 -0.008718783035874367 0.001727739698253572 0.002690884517505765 0.00292794406414032 -0.007616041228175163 -0.007735340390354395 0.006050477735698223 0.005103633273392916 -0.008082318119704723 -0.006026447284966707 0.011420796625316143 0.004297775216400623 0.005315070040524006 0.010186993516981602 -0.003726912895217538 0.006222156807780266 8.529573096893728E-4
http://dbpedia.org/class/yago/Philosopher110423589 1.565056445542723E-4 -0.003864646190777421 -0.012221165932714939 0.005145514849573374 -0.003002466633915901 -0.006338803563266993 -0.011988670565187931 -0.0012692377204075456 0.0062020570039749146 -0.004820520523935556 0.00502273952588439 5.794244352728128E-4 -0.007101146969944239 -0.017414884641766548 0.0033233799040317535 -0.010206717997789383 0.004626635927706957 0.01528400182723999 5.908935563638806E-4 0.004404688719660044 -0.018949564546346664 0.008206590078771114 0.007406170014292002 -0.01569664105772972 0.007950953207910061 -0.0083334781229496 -0.009518477134406567 -0.012464573606848717 -0.0015259745996445417 0.003951374441385269 0.0018238257616758347 -0.00941266119480133 0.006818556692451239 0.003000685479491949 -0.001643526484258473 -9.969781240215525E-5 -0.0033953036181628704 -0.008436664938926697 -0.003799553494900465 -7.142572430893779E-4 -0.0066738068126142025 -0.00525593850761652 0.01800118200480938 0.0035767352674156427 0.00929652526974678 -0.0075880237855017185 -0.00586844002828002 -0.008633402176201344 -0.005070182494819164 0.0032938539516180754 -0.01265653595328331 -0.0048330542631447315 0.004075333476066589 -0.008983999490737915 -0.006812205072492361 0.002233467297628522 0.0014652562094852328 0.004666196182370186 0.007434246130287647 0.004556223750114441 0.002181567484512925 -0.005432923324406147 0.004671980626881123 2.268471143906936E-4 -0.003428058698773384 0.012208742089569569 -0.004336445592343807 0.005341589450836182 -0.011178765445947647 -0.00763446930795908 -0.007468651980161667 -0.004962054546922445 0.0036972137168049812 6.788653554394841E-4 -0.009740030393004417 -0.002148318337276578 -5.470096366479993E-4 0.0021568546071648598 -0.004547734744846821 -0.004087231587618589 -0.003490348346531391 0.01708587259054184 -0.005599633324891329 -0.0035583009012043476 -2.517891116440296E-4 0.005579817108809948 0.012454593554139137 0.0024076490662992 -0.004764979239553213 0.005878757685422897 -0.0035973144695162773 -0.010489295236766338 -0.017013784497976303 0.011806411668658257 0.00473388284444809 0.00558344554156065 0.0025543204974383116 0.0065188901498913765 -0.002474013948813081 0.007661605719476938
http://dbpedia.org/resource/Cassius_Longinus_(philosopher) 0.004775151144713163 9.324458660557866E-4 0.0010491333669051528 -0.0052390024065971375 0.003786639776080847 0.0036218103487044573 -0.004119847435504198 -3.9331577136181295E-4 -0.004543547984212637 -0.003512750845402479 -0.0045783338136971 0.002663961611688137 0.00369474571198225 -0.001702263136394322 0.00290074129588902 -0.005350025370717049 0.00296779815107584 0.0047981999814510345 -0.002398743759840727 -0.004229569807648659 -0.0024786237627267838 -0.002830802695825696 -0.0031821143347769976 -0.002045729197561741 0.005661045666784048 -0.0013045701198279858 -0.005823081824928522 0.003867762628942728 0.002491143997758627 0.004742708522826433 0.002502965275198221 0.0018086700001731515 0.004958663135766983 -0.003899267176166177 -0.0018913671374320984 -0.004901889245957136 -0.0042299372144043446 -5.288335378281772E-4 0.0017233663238584995 -0.003397220280021429 0.0020655044354498386 -7.350323721766472E-4 0.003628845326602459 0.0037787226028740406 -7.832783740013838E-4 0.004163236822932959 -4.948230343870819E-4 -0.002019803738221526 0.004019889049232006 -0.002114732749760151 -5.567064363276586E-6 -0.003209357615560293 0.0028739720582962036 -0.004407589789479971 -0.004134275484830141 0.003990716766566038 -6.365897133946419E-4 -7.283463492058218E-5 0.0027850386686623096 0.0044661471620202065 0.0030187584925442934 5.4631076636724174E-5 0.004798114765435457 0.0051487707532942295 -0.0013592775212600827 0.0022303846199065447 -0.0025177255738526583 -0.003137266496196389 0.0035777052398771048 0.004740621894598007 0.0011226354399695992 -0.004441832657903433 0.0015869883354753256 -0.004219284746795893 0.004871867131441832 -0.005601890850812197 -4.817912704311311E-4 -0.004337654449045658 -0.0023972592316567898 0.002345902845263481 0.0048780012875795364 -0.0017498200759291649 0.00165708945132792 0.002918972633779049 -0.004713075235486031 -0.003684886498376727 0.0027119459118694067 -0.0035801357589662075 -8.334637386724353E-4 0.0027304114773869514 0.0037558330222964287 -0.0015719286166131496 9.62938298471272E-4 0.0046405065804719925 -0.004370501730591059 0.0014774559531360865 0.004119109828025103 -0.0016454275464639068 -0.003306785598397255 0.004448864609003067
http://www.w3.org/2002/07/owl#Thing 0.004975435324013233 -0.007541886530816555 -0.01502057071775198 -2.2766721667721868E-4 0.0011685250792652369 -0.007829972542822361 -0.00886104628443718 -0.006346477661281824 0.004047018475830555 -0.00744596915319562 0.003934486303478479 0.0038662110455334187 0.001009997446089983 -0.014442028477787971 9.911663801176473E-5 -0.00704606669023633 0.0034399977885186672 0.013172971084713936 3.658339483081363E-5 0.0033586800564080477 -0.010022664442658424 0.015521855093538761 0.007100776303559542 -0.010837617330253124 0.005557228811085224 -0.003564460203051567 -0.0027594235725700855 -0.013176157139241695 0.0030425090808421373 1.1463235568953678E-4 0.005509448237717152 -0.00739150820299983 8.39201093185693E-5 -0.0014102691784501076 8.096775272861123E-4 -0.005449093412607908 -0.002452243585139513 -0.011478644795715809 -0.005884749814867973 3.3644348150119185E-4 -0.006742475088685751 -4.4085015542805195E-4 0.014977767132222652 0.004498889669775963 0.015158810652792454 -0.008912008255720139 -0.002967547858133912 -0.014239465817809105 -0.0031820638105273247 -9.947303915396333E-4 -0.012943264096975327 4.870570555794984E-4 0.004950684029608965 -0.008156891912221909 -0.011857884004712105 -0.00108231115154922 0.001586880418471992 0.0046237739734351635 0.00981492456048727 0.005167833995074034 -2.179765870096162E-4 -0.010378677397966385 0.006494796834886074 0.0021680472418665886 -0.003706579329445958 0.01363630872219801 1.4803881640546024E-4 0.0011307852109894156 -0.014961105771362782 -0.004586880560964346 -0.008965748362243176 -0.004016707185655832 0.00853720586746931 -0.007284171413630247 -0.010768971405923367 -0.005716895218938589 -0.004092332441359758 -8.295178995467722E-4 -0.0045930445194244385 0.002706256229430437 -0.004132832400500774 0.0159804355353117 -0.00900126900523901 -0.0040248907171189785 0.0014577514957636595 0.005792397540062666 0.011531323194503784 0.0015626600943505764 0.003447890281677246 0.0060041481629014015 4.6209123684093356E-4 -0.012294769287109375 -0.011086435057222843 0.018014468252658844 0.0028756873216480017 0.003084847703576088 -0.0014688957016915083 0.004643967375159264 -1.3100099749863148E-4 0.014158442616462708
http://dbpedia.org/resource/Hermippus_of_Smyrna -0.0031913823913782835 -0.010897291824221611 -0.009439438581466675 -0.0018452772637829185 0.004894541576504707 -0.0018703695386648178 -0.00462998216971755 -0.0018340649548918009 0.006949403788894415 0.002853134647011757 0.009504874236881733 0.010620995424687862 0.004204966127872467 -0.012037129141390324 -0.006944856606423855 -8.081702399067581E-4 0.004297010134905577 0.007417888846248388 -0.004011904820799828 0.011488083750009537 -0.01098362635821104 0.006906560622155666 -0.001766606350429356 -0.0042100101709365845 0.006779900752007961 -0.0035453359596431255 -0.007078525610268116 -0.0017898469232022762 -0.001716979662887752 -0.003254871116951108 0.005115715321153402 -0.007468806114047766 0.00973243173211813 -0.009942105039954185 0.0015848753973841667 -0.002542859874665737 -0.007216169498860836 -0.00660705054178834 -0.006694248411804438 -0.011298379860818386 -0.006409071385860443 -0.0027365447022020817 0.015215517021715641 -0.007664844393730164 0.009188225492835045 -0.009305628947913647 -0.005599950440227985 -0.0026280712336301804 -0.00880584679543972 0.0021214396692812443 -0.007218047510832548 -0.013748826459050179 -8.642319589853287E-4 -0.008324677124619484 -0.004231977742165327 -1.7706722428556532E-4 0.003956541884690523 0.00652142520993948 0.003164188005030155 0.014506149105727673 0.00938115082681179 -0.003646181896328926 0.00821235217154026 -7.500486099161208E-4 -0.005180095788091421 0.012496285140514374 0.01101281400769949 0.006722188554704189 -0.003386336611583829 -0.007116843946278095 -0.0017223772592842579 -0.008872080594301224 0.008765087462961674 0.004541526548564434 -0.0056467605754733086 -0.0169106125831604 8.543386938981712E-4 0.005085078068077564 -0.004153211135417223 0.0023864067625254393 -0.005613465327769518 0.012242422439157963 -0.016343316063284874 -0.010324393399059772 0.007214509882032871 0.008432036265730858 0.003292784094810486 -0.001801591133698821 -0.007722367998212576 0.00894048623740673 0.010270900093019009 -0.0138681810349226 -0.010441869497299194 0.010687706992030144 0.009422172792255878 0.0015361085534095764 0.011891842819750309 -0.0017499425448477268 0.0019344111206009984 0.005695863626897335
http://dbpedia.org/resource/Hippo_(philosopher) -6.593470461666584E-4 -0.003994720056653023 0.0017726825317367911 5.147439078427851E-4 2.553741214796901E-4 0.005997654050588608 0.004617216531187296 0.0022193395998328924 -4.146311548538506E-4 -0.0018668508855625987 7.229410693980753E-4 0.0029636884573847055 0.005250932183116674 0.0038009039126336575 -0.0020966888405382633 0.0013854650314897299 0.004951758775860071 0.004637519363313913 0.003107634373009205 7.179452804848552E-4 -0.0018688744166865945 0.004118806682527065 0.002857290208339691 -0.0011804905952885747 0.006992634851485491 -0.00271817110478878 -0.0027335649356245995 -0.001939226291142404 -0.006421884521842003 -0.0022750329226255417 0.0016850376268848777 5.302462886902504E-5 0.0011732322163879871 -0.0015401857672259212 0.001341076917015016 0.001578058348968625 -2.394932380411774E-4 -0.001847373670898378 0.0038623958826065063 -0.0020327616948634386 4.8244971549138427E-4 0.0034832528326660395 0.0031015845015645027 -0.0017683191690593958 -0.004072623793035746 0.0010045245289802551 0.0010736280819401145 0.002966606058180332 0.00453608063980937 -8.439347147941589E-4 -0.0015254828613251448 -0.0072558666579425335 5.819132784381509E-4 -0.00371129740960896 0.0014365480747073889 0.005552532617002726 0.00472335796803236 0.008808060549199581 -0.003241594647988677 -0.001154212630353868 0.001778317498974502 -9.166027302853763E-4 0.006619906518608332 0.006532612722367048 -0.002073461888357997 -0.0025577994529157877 0.0013798926956951618 0.006018536165356636 0.0036708710249513388 0.003980544395744801 0.0042948913760483265 -0.005686378572136164 -8.679992752149701E-4 -0.0015432169893756509 -0.0026987185701727867 -0.0015628071269020438 -0.0016616587527096272 0.007792077027261257 -8.431488822679967E-5 -6.537607405334711E-4 -0.005229278467595577 0.0017234418774023652 3.372512583155185E-4 -5.410761805251241E-4 0.0042071654461324215 -0.002617563121020794 9.732230100780725E-4 -0.0014044034760445356 -0.004628126043826342 -0.00217372365295887 0.004723548889160156 -0.0042302305810153484 -0.0033278120681643486 -0.0015568495728075504 6.423863233067095E-4 0.002775234403088689 0.0014030025340616703 -0.0032325212378054857 0.0035945107229053974 0.002221421105787158
http://dbpedia.org/resource/Damascius 0.005328659433871508 -0.003371053608134389 -0.0028770724311470985 0.003084014868363738 0.004508955404162407 -0.004606938920915127 0.0029059061780571938 0.005056077614426613 -0.00320038222707808 3.997553139925003E-4 0.001991866622120142 -0.0032894788309931755 -0.0010837113950401545 0.0023189892526715994 -2.5434273993596435E-4 -8.551565115340054E-4 0.001197394565679133 -0.0012324962299317122 -0.0036622341722249985 -0.002462856937199831 -0.0014453616458922625 0.0038879425264894962 8.635608246549964E-4 4.5534936361946166E-4 0.005285661667585373 0.0021190419793128967 -0.005909068044275045 -0.0027562587056308985 0.0023566619493067265 -0.0025780678261071444 -0.0019113004673272371 0.004110091365873814 0.0014071689220145345 -0.0060537331737577915 -0.005897994618862867 -0.0016044076764956117 -0.006336744409054518 -0.006943604443222284 1.4193251263350248E-4 0.0020304580684751272 0.004516909830272198 -0.003572821384295821 -0.0010836373548954725 4.899742780253291E-4 -8.21824767626822E-4 -0.0037565408274531364 -5.620757583528757E-4 -0.00201703910715878 6.563614006154239E-4 -0.005141094326972961 0.004223261959850788 -0.004358705133199692 0.002877454971894622 8.448862936347723E-4 0.0030865282751619816 0.0011731961276382208 -0.003982940223067999 6.556682637892663E-4 0.002790846163406968 0.006898381747305393 0.0018631686689332128 8.746292442083359E-4 0.006716425996273756 0.002160813892260194 -0.001984015805646777 0.002021405380219221 0.003685116535052657 -0.0030659358017146587 -0.00274534965865314 0.003737484570592642 -0.0034702226985245943 -0.0015242121880874038 0.0011832218151539564 0.004023842513561249 -9.170241537503898E-4 2.6309513486921787E-4 0.0011116378009319305 0.0020446917042136192 9.901291923597455E-4 0.0029837682377547026 1.9276990497019142E-4 0.0027590584941208363 -0.0044264160096645355 -0.0020949402824044228 -0.004824510309845209 0.003799588419497013 0.0019900829065591097 0.00238519418053329 -0.0015186199452728033 0.005266926251351833 0.0014908993616700172 0.003445463255047798 0.003827009815722704 0.004983804654330015 -0.001447987975552678 -0.003590117674320936 0.005228123161941767 0.0038345083594322205 3.025768673978746E-4 0.006788108963519335
http://dbpedia.org/resource/Onasander 9.261152008548379E-4 8.413972682319582E-4 -0.003338653827086091 8.413945324718952E-4 -0.0020380059722810984 0.0028615319170057774 -0.004749954678118229 -0.0012984528439119458 -0.0027599697932600975 -0.00529306149110198 5.200650775805116E-6 -7.962369127199054E-4 0.004436754621565342 -0.0036383289843797684 0.002071411581709981 -0.005572795867919922 -0.0016015047440305352 0.004328299313783646 -0.004407417494803667 0.004279850982129574 -0.005715284962207079 0.005769364535808563 0.005063334014266729 -5.811044247820973E-4 -0.002151170978322625 -0.004582810215651989 0.0023406664840877056 0.0014751144917681813 0.006780846975743771 0.0044554551132023335 0.003051282372325659 -0.0025580974761396646 0.0015899769496172667 0.001724985078908503 -0.002762803342193365 0.001866817707195878 -0.006427973508834839 -0.006586416158825159 -0.0013686262536793947 -0.003653712570667267 6.545946234837174E-5 -0.0028130682185292244 0.007635908201336861 5.158623098395765E-4 0.005470904987305403 0.003014815505594015 -0.0024340795353055 0.0015915631083771586 -7.951282896101475E-4 -0.0018060959409922361 -0.0026577888056635857 -0.001521483645774424 -0.001934017869643867 -8.62867571413517E-4 -4.782318137586117E-4 0.003826091531664133 0.0052927834913134575 -5.323775112628937E-4 -0.00316199311055243 0.005617265589535236 0.001167363254353404 -0.0035492461174726486 0.00123045954387635 0.0023545115254819393 -0.0026212173979729414 0.006985068321228027 8.975693490356207E-4 0.004214772023260593 -0.003194090910255909 0.0031111622229218483 0.002574588404968381 -0.004151150118559599 -0.0038155331276357174 0.004211269319057465 -0.002669410314410925 4.4224667362868786E-5 6.30693684797734E-4 0.004609593190252781 0.0026680161245167255 -0.004580708220601082 0.004125756211578846 0.0051124608144164085 -0.0056482707150280476 5.70910342503339E-4 -0.004400111734867096 0.001286594313569367 0.0038395861629396677 0.00391318928450346 9.626185055822134E-5 0.0027285367250442505 0.004843913484364748 -0.003157678060233593 -0.00409690523520112 3.741251421160996E-4 0.0027399270329624414 -0.003955915104597807 -8.61101783812046E-4 0.004204779863357544 0.00384745211340487 0.005294914823025465
http://dbpedia.org/resource/Hecataeus_of_Abdera -0.004356382414698601 -0.01739538460969925 -0.014935890212655067 -0.0071489885449409485 -0.004833542741835117 -9.206950198858976E-4 -0.014490744099020958 0.0015942605677992105 0.011528094299137592 0.0032535570207983255 0.019823720678687096 0.014590142294764519 0.007256763055920601 -0.017533594742417336 -0.013413774780929089 4.5024562859907746E-4 0.006723438855260611 0.01702945865690708 -0.00828943308442831 0.018907884135842323 -0.014865707606077194 0.01570754125714302 -0.004143530037254095 -0.010772885754704475 0.019896164536476135 -0.011480484157800674 -0.021272681653499603 -0.008456362411379814 -0.003506953129544854 -0.013300079852342606 0.013790442608296871 -0.013299550861120224 0.013345853425562382 -0.012088850140571594 -9.761632536537945E-4 -0.01620865799486637 -0.01898161880671978 -0.019506394863128662 -0.012056665495038033 -0.012590977363288403 -0.011515733785927296 -0.004924680106341839 0.0184461809694767 -0.007897211238741875 0.01192802470177412 -0.013167771510779858 -0.009034527465701103 -0.00794704258441925 -0.009060944430530071 0.014357101172208786 -0.01698874868452549 -0.02200966887176037 0.0015462719602510333 -0.012974835000932217 -0.016268281266093254 0.0023203054443001747 0.01139154378324747 0.0213560052216053 0.005216510500758886 0.02249012142419815 0.01233004592359066 -0.004810865502804518 0.019340358674526215 0.003591664135456085 -0.01987900398671627 0.017190618440508842 0.0208254624158144 0.021896226331591606 -0.004025890026241541 -0.008374258875846863 0.003481280989944935 -0.01465301401913166 0.0132296122610569 -0.00409720279276371 -0.0065054274164140224 -0.029626796022057533 0.0038877311162650585 0.018445352092385292 -0.0012132743140682578 0.001559029333293438 -0.011618501506745815 0.02306945249438286 -0.018574371933937073 -0.005122228991240263 0.013334888964891434 0.0097905732691288 0.00885555800050497 0.0028051636181771755 -0.0074645765125751495 0.008251337334513664 0.0057926904410123825 -0.01829833723604679 -0.009545378386974335 0.025471895933151245 0.012120558880269527 0.011548577807843685 0.019394496455788612 0.009016635827720165 -0.0027658999897539616 0.013152685016393661
http://dbpedia.org/resource/Hippias 6.327650044113398E-4 -0.0031815236434340477 -0.0021468892227858305 -0.006287673022598028 0.0010213006753474474 0.0019423238700255752 2.0628984202630818E-5 -1.05697923572734E-4 0.008097870275378227 0.002861794549971819 0.010149667039513588 0.005393178202211857 -9.47165593970567E-4 -0.008457235991954803 -0.0021435441449284554 0.003953376319259405 0.0019860200118273497 0.0035318522714078426 0.0022187773138284683 0.00434455368667841 8.608740754425526E-4 0.0042188093066215515 -9.320528479292989E-4 -0.006854857783764601 0.009945657104253769 -0.00476765725761652 -0.009717847220599651 -0.004522315692156553 -0.0075760590843856335 -0.008694766089320183 0.006411965005099773 -0.008182129822671413 0.0014598239213228226 -0.007022887002676725 0.0043565742671489716 -0.001589136547408998 -0.006112134549766779 -0.0038555676583200693 -6.524174241349101E-4 -0.00516242440789938 -0.00876091979444027 -0.0010496842442080379 0.0016812602989375591 -0.008586972951889038 0.007266098167747259 -0.007011094130575657 0.0015338470693677664 -6.882359739392996E-4 -0.0014474550262093544 7.437074673362076E-4 -0.0026986142620444298 -0.008707103319466114 -0.0025215058121830225 -0.0016594701446592808 -0.005111043807119131 0.006528410129249096 0.005352218169718981 0.0037448275834321976 0.003782186657190323 0.003163121407851577 0.004740630742162466 -0.004591790959239006 0.004877838771790266 -0.001537606120109558 -0.0038219161797314882 0.006337287370115519 0.010543262585997581 0.007320438511669636 0.0037667418364435434 -0.0031296219676733017 0.0062794918194413185 -0.0016689174808561802 0.0041665611788630486 0.0057864501141011715 0.0014785411767661572 -0.013807411305606365 -4.0651264134794474E-4 0.010228010825812817 -0.001898373942822218 -0.0014518104726448655 -0.0033225156366825104 0.002496848814189434 -0.00745752640068531 -0.0023863643873482943 0.006940336897969246 -8.561270078644156E-5 0.005599342752248049 0.0011636007111519575 -0.00782111193984747 0.0017962350975722075 7.66559736803174E-4 -0.008979715406894684 -0.00525522930547595 0.009246423840522766 6.003370508551598E-4 0.0026870279107242823 0.006887766066938639 -0.0010513452580198646 -0.0011720069451257586 0.0030808569863438606
http://dbpedia.org/class/yago/Wikicat4th-centuryBCPhilosophers 0.005438436288386583 0.0019228438613936305 7.872870191931725E-4 7.26927537471056E-5 0.0013120850780978799 0.0033053632359951735 -0.0035215048119425774 -0.0026009848807007074 -0.004919677972793579 0.004153621848672628 -0.0011416105553507805 0.001195129007101059 9.034399408847094E-5 6.771706975996494E-4 0.0016546840779483318 -8.677132427692413E-4 -0.001760611543431878 -0.001342128380201757 -9.2169368872419E-4 0.00366101018153131 -0.0019958314951509237 7.152571342885494E-4 -9.731200407259166E-4 0.0015039811842143536 0.003455929458141327 -0.003967842552810907 -0.002029743045568466 -0.0025833670515567064 -0.0022383553441613913 -0.002550367498770356 -0.0019781955052167177 0.0015696788905188441 0.0035409212578088045 -0.002524545881897211 -0.003214271506294608 0.0033687204122543335 0.0035127021837979555 -0.0017152761574834585 -0.004284686408936977 0.0018120089080184698 -0.004010953940451145 -3.8517272332683206E-4 -0.002324130153283477 0.0051375748589634895 -0.0037944784853607416 0.004947233013808727 0.004618298728018999 -0.001766438246704638 -0.002856634324416518 -0.005213516764342785 -0.003668410237878561 -0.0023698280565440655 0.004724917467683554 -0.0022408543154597282 8.265835349448025E-4 0.004523742478340864 0.0016504046507179737 -0.002704885322600603 6.574004655703902E-4 -0.004103783518075943 0.0019301929278299212 0.0022179370280355215 -0.0055046286433935165 -0.004797027446329594 0.0019627290312200785 0.004064821172505617 0.0031983216758817434 -0.004494680557399988 -1.7857932834886014E-4 -1.675324165262282E-4 -0.0016553662717342377 -0.00200471468269825 0.0013018085155636072 0.0015436724061146379 4.44546778453514E-4 0.0016942807706072927 0.0021870846394449472 0.0027580000460147858 -0.0014565408928319812 -0.0024216161109507084 0.001260913792066276 -0.0019047767855226994 -0.0021685196552425623 0.0011005576234310865 0.003718046238645911 -2.970403293147683E-4 0.0014613800449296832 2.1811333135701716E-4 0.004389582667499781 -0.004092316143214703 -0.005052337422966957 0.002643563784658909 -0.001137776067480445 -0.004197363276034594 -0.0039351400919258595 -0.001740506966598332 -0.0012237902265042067 0.004326837137341499 0.002056168857961893 0.0030725174583494663
http://dbpedia.org/class/yago/PhysicalEntity100001930 -0.0016478027682751417 0.0013007994275540113 -0.014187871478497982 0.004624779336154461 -0.003193318611010909 1.5516456915065646E-4 -0.00422106496989727 -0.002852949546650052 -1.628506724955514E-4 -0.0013421705225482583 0.004699395038187504 0.003307941136881709 -6.330455071292818E-4 -0.00823291391134262 0.00190471182577312 -0.0014721613842993975 -3.929167869500816E-4 0.006800912786275148 0.002537017222493887 0.0035512049216777086 -0.0058707077987492085 0.002987961284816265 0.006395225878804922 -0.012446850538253784 0.004565226845443249 -0.00803366769105196 -0.006659181788563728 -0.0019645921420305967 0.004082838539034128 -7.355456473305821E-4 0.004289701581001282 -0.0025282721035182476 0.002226687967777252 -0.0017076082294806838 -0.00571255199611187 0.001589305349625647 -0.0013125573750585318 -0.010171452537178993 4.6900167944841087E-4 -7.210708572529256E-4 -0.0068083410151302814 -0.004585385322570801 0.013303440064191818 -2.27633019676432E-4 0.011973911896348 -0.003343671327456832 -0.005160832311958075 -0.003657274879515171 -0.003844035556539893 5.086588207632303E-4 -0.003770738374441862 5.62455621547997E-4 0.00120858708396554 -0.0104902982711792 -0.0013294959207996726 0.006727319676429033 -0.002126637613400817 0.0010030819103121758 0.003942734096199274 0.008513730019330978 8.771342691034079E-4 -0.0035900596994906664 0.009403588250279427 0.0016053859144449234 0.001162616303190589 0.01020822674036026 0.0012003786396235228 8.417419157922268E-4 -0.008414119482040405 -0.0010453204158693552 4.760526935569942E-4 -0.0020863390527665615 -7.56662804633379E-4 -0.0033868225291371346 -0.007390894927084446 8.573143277317286E-4 0.0012160484911873937 -0.002448603743687272 9.323914855485782E-5 0.0027613393031060696 -0.0028034395072609186 0.008629248477518559 -0.008556844666600227 5.847369320690632E-4 0.0023280212190002203 3.6493054358288646E-4 0.007430569734424353 0.003887019818648696 -0.001235553645528853 0.00869446899741888 -0.005913594737648964 -0.002385111292824149 -0.0023632950615137815 0.005044110585004091 0.006913376040756702 0.003962610382586718 0.0015090876258909702 0.001166023313999176 0.00210134987719357 0.007871744222939014
http://dbpedia.org/resource/Damon_of_Athens 0.005395902320742607 7.001723861321807E-5 6.710102898068726E-4 0.003990441560745239 -0.002487714169546962 0.002781577641144395 -0.002583686728030443 -3.7333049112930894E-4 -0.003253112081438303 -0.003588095773011446 1.2889254139736295E-4 0.0038009213749319315 -0.0012180228950455785 -0.004222943913191557 -0.004170688800513744 0.0015125193167477846 0.003182541113346815 -0.0019042822532355785 -0.004206553567200899 0.0036212941631674767 0.0010522266384214163 -6.734249764122069E-4 0.003864070400595665 -0.006543824449181557 0.0041731009259819984 -8.394026663154364E-4 0.002414375776425004 -0.00603689718991518 0.004119360353797674 0.0029380328487604856 0.0010344518814235926 0.0036437446251511574 -0.0030912887305021286 4.093865863978863E-4 -6.296969368122518E-4 -0.005412145517766476 -0.005589318461716175 -6.0398466303013265E-5 8.695366559550166E-4 -0.006178474053740501 -2.7356468490324914E-4 -0.005555436946451664 0.007818042300641537 -3.627544501796365E-4 -0.0017790147103369236 -9.098832379095256E-4 0.0033826432190835476 0.0021314560435712337 4.629882168956101E-4 0.0011823575478047132 -0.002366923028603196 -0.0011816828045994043 0.0038677644915878773 -0.005194400437176228 0.0011866017011925578 0.003969079814851284 0.0024442404974251986 -0.0022091278806328773 0.004930057562887669 0.0021023007575422525 0.005252497270703316 0.0026960342656821012 0.004169474355876446 0.005851925350725651 -0.002564657712355256 0.0036361990496516228 0.003468656213954091 0.006281243171542883 -0.004661529324948788 1.0062118235509843E-4 -3.6004558205604553E-4 -0.003620013827458024 -0.0012965253554284573 -0.0026380603667348623 0.002113152062520385 -8.717307355254889E-5 -5.324924713931978E-4 0.004926711320877075 0.004125154111534357 -0.003675957676023245 -0.0043465979397296906 0.0011515442747622728 -0.005276632960885763 -0.0036036078818142414 -0.003743341425433755 -0.0029565400909632444 0.003086411627009511 -0.0039216759614646435 0.00307665066793561 -8.20645218482241E-5 -0.003200273960828781 -0.0042906031012535095 7.634738576598465E-4 0.0053383768536150455 9.16350050829351E-4 -0.003253123490139842 0.0034700771793723106 0.005961362272500992 0.0013884210493415594 7.719009299762547E-4
http://dbpedia.org/resource/Hierocles_of_Alexandria 3.788747708313167E-4 -0.014298585243523121 -0.008980909362435341 -0.0063657998107373714 -0.0026945543941110373 0.004808811936527491 -0.008142088539898396 0.005705960560590029 0.0053323316387832165 4.62997704744339E-4 0.005331229884177446 0.001653688377700746 0.0017072665505111217 -0.008328652940690517 -0.007654847111552954 -0.0028756491374224424 0.006825725082308054 0.014081346802413464 -7.604570710100234E-4 0.004666011314839125 -0.008555332198739052 0.007694838102906942 -0.005610550753772259 -0.009418711066246033 0.010496428236365318 -0.0013315601972863078 -0.009214288555085659 -0.00528858182951808 6.814757362008095E-4 -0.003047125181183219 0.006531402003020048 -0.007094848435372114 0.01019820012152195 -0.01069171354174614 -0.0038788237143307924 -0.011560678482055664 -0.011883100494742393 -0.01012713648378849 -0.006579800974577665 -0.006651401519775391 -0.006424857769161463 -0.004890277981758118 0.013852343894541264 -0.002684319159016013 0.010572017170488834 -0.0045005884021520615 -0.00865805335342884 -0.008859377354383469 -0.005611143074929714 0.006574652157723904 -0.010900299996137619 -0.006620076950639486 0.0022832038812339306 -0.0033801496028900146 -0.008671093732118607 0.004955735057592392 0.0013305072207003832 0.013808581978082657 0.0066708107478916645 0.010593291372060776 0.009916308335959911 -0.0017336590681225061 0.009647276252508163 0.0031852105166763067 -0.007011458743363619 0.006352251395583153 0.012911473400890827 0.015212775208055973 -0.00479010958224535 0.0010645037982612848 -0.0019326623296365142 -0.009250028058886528 0.013178260996937752 0.0050289444625377655 -0.002202891279011965 -0.01193177979439497 0.009217430837452412 0.01265689730644226 -0.003235521027818322 0.00483624916523695 -0.008793823421001434 0.01119241677224636 -0.009219374507665634 -0.0010378268780186772 0.007541139610111713 0.005078661255538464 0.003201086539775133 -0.003875040216371417 -0.0017041228711605072 0.005407785996794701 0.006173878908157349 -0.005884219892323017 -0.005406446289271116 0.015673359856009483 0.003555318806320429 0.007657165173441172 0.012440520338714123 -0.0013053140137344599 0.0020160821732133627 0.0010439067846164107
http://dbpedia.org/resource/Pythagoras -0.007438200991600752 -0.026041153818368912 -0.05003086477518082 -0.0054784431122243404 -0.004527646582573652 -0.002938389778137207 -0.03050757385790348 -0.0031250074971467257 0.009942024946212769 -0.014694632962346077 0.02033056877553463 0.014294728636741638 -1.0915508028119802E-5 -0.05193709954619408 -0.008650485426187515 -0.0122996149584651 0.018180180341005325 0.0439336784183979 -0.008719667792320251 0.027754897251725197 -0.03983604162931442 0.03710402175784111 0.0011475245701149106 -0.03382258117198944 0.029956165701150894 -0.020122377201914787 -0.029287615790963173 -0.02184887044131756 -0.00918324664235115 -0.00510553689673543 0.018965857103466988 -0.020402316004037857 0.012397926300764084 -0.023616518825292587 6.627057446166873E-4 -0.01923663541674614 -0.024128668010234833 -0.04091993346810341 -0.020438827574253082 -0.02552187442779541 -0.02026740089058876 -0.018287518993020058 0.04202331230044365 -0.010428257286548615 0.04292099550366402 -0.029080048203468323 -0.010704330168664455 -0.02858234941959381 -0.02304312214255333 0.01998901553452015 -0.028951380401849747 -0.02632172591984272 0.011965853162109852 -0.0380658321082592 -0.03284496068954468 0.01120160985738039 0.014893902465701103 0.03292802348732948 0.018284663558006287 0.029619676992297173 0.017652755603194237 -0.01549633126705885 0.038592491298913956 0.007175351958721876 -0.02370448224246502 0.04301586374640465 0.021520104259252548 0.030208531767129898 -0.02063346467912197 -0.017738593742251396 -0.009131570346653461 -0.03111269697546959 0.02155522257089615 -0.007035238668322563 -0.02142002247273922 -0.03749104589223862 0.0019924305379390717 0.020770151168107986 -0.007465855684131384 0.0028730330523103476 -0.01602255366742611 0.04346781596541405 -0.04263879358768463 -0.008902624249458313 0.019015178084373474 0.02450370229780674 0.024955935776233673 0.01101037859916687 -0.013405835255980492 0.026720399037003517 0.008069047704339027 -0.03036695346236229 -0.024707620963454247 0.04722752794623375 0.02164788357913494 0.015755416825413704 0.019116684794425964 0.015654053539037704 -0.0011570422211661935 0.021525338292121887
http://dbpedia.org/resource/Proclus -0.00574925821274519 -0.026618734002113342 -0.042196664959192276 0.0012041744776070118 -0.0035889558494091034 -0.003163132816553116 -0.03488914668560028 0.0017830526921898127 0.011593551374971867 -0.011545082554221153 0.025529667735099792 0.009768223389983177 -7.26164085790515E-4 -0.04061432182788849 -0.002671736292541027 -0.00866625551134348 0.01326732151210308 0.03392988070845604 -0.006063228007405996 0.023535197600722313 -0.0418408028781414 0.03608083724975586 0.002164661418646574 -0.025913486257195473 0.02165052853524685 -0.023878034204244614 -0.025449508801102638 -0.023841576650738716 -0.0011687582591548562 -0.008490962907671928 0.013419846072793007 -0.025586582720279694 0.011946430429816246 -0.015642214566469193 -0.003342064330354333 -0.015129253268241882 -0.027693606913089752 -0.039144180715084076 -0.013136197812855244 -0.016323097050189972 -0.021219521760940552 -0.01768505573272705 0.051303599029779434 -0.00420078169554472 0.04558637738227844 -0.03092648833990097 -0.004379686433821917 -0.03075983189046383 -0.017522506415843964 0.01470960397273302 -0.027786681428551674 -0.02114047482609749 0.01005664374679327 -0.03445034101605415 -0.02791205421090126 0.00813869759440422 0.01031673513352871 0.03062293492257595 0.017099356278777122 0.0272451750934124 0.011392838321626186 -0.016442198306322098 0.03652014955878258 -0.0014541036216542125 -0.014855061657726765 0.052267998456954956 0.015314528718590736 0.018223822116851807 -0.02558301016688347 -0.023349503055214882 -0.008388328365981579 -0.030686330050230026 0.016360709443688393 -0.00787744577974081 -0.025347890332341194 -0.01997838169336319 0.00540520902723074 0.007547815330326557 -0.008783896453678608 -0.00434677442535758 -0.012807601131498814 0.0436500646173954 -0.039278578013181686 -0.011154990643262863 0.014124051667749882 0.02130841463804245 0.026018399745225906 0.015764156356453896 -0.0034416313283145428 0.0351405143737793 6.0072517953813076E-5 -0.025032341480255127 -0.04089157283306122 0.05191780999302864 0.02362111769616604 0.017893362790346146 0.008260538801550865 0.02032492682337761 -0.00886708963662386 0.03022785112261772
http://dbpedia.org/class/yago/WikicatWriters 0.004263990558683872 -0.001417206833139062 0.006484818644821644 -0.003282420337200165 0.0017578803235664964 0.005672266241163015 0.004768744111061096 -0.0012053849641233683 0.002828042721375823 -0.0017764936201274395 -0.0018218480981886387 -8.120633428916335E-4 0.004062316380441189 0.004152396693825722 0.0036025596782565117 4.0012854151427746E-4 -0.0055438801646232605 -0.006821370683610439 -0.004988392814993858 4.042108776047826E-5 2.661817707121372E-4 -0.005601160228252411 8.330279961228371E-4 0.0018945932388305664 4.4053466990590096E-4 -7.603465346619487E-4 -0.002571635879576206 -9.063472971320152E-4 0.004967825952917337 -0.003998514264822006 0.002587314695119858 0.0022158706560730934 -0.0045340959914028645 0.0023314389400184155 0.0013224657159298658 -1.1848946451209486E-4 0.0023867764975875616 2.220330061390996E-4 0.005509098060429096 0.0017026556888595223 -0.002292203949764371 -0.004249510820955038 -0.0020774672739207745 -0.001740607200190425 0.0012941787717863917 0.004277270287275314 0.002424621256068349 -0.001808641478419304 0.003288412466645241 -0.004576896317303181 5.832110764458776E-4 0.0015039085410535336 -0.0021541344467550516 0.0015164713840931654 0.002546305302530527 0.0032908390276134014 -3.354680957272649E-4 2.394930925220251E-5 -0.002883314620703459 -7.998707005754113E-4 0.0032192287035286427 0.003675637533888221 0.0019968743436038494 8.293619612231851E-4 5.618855357170105E-4 -0.004427406005561352 1.3844575732946396E-5 -0.0031417012214660645 0.00646329578012228 -0.0027469340711832047 0.0019187830621376634 9.728196891956031E-4 -0.0028970325365662575 0.002202180214226246 0.00489722890779376 -0.0010207094019278884 0.00341982115060091 0.004040776751935482 0.004189266823232174 1.4438590733334422E-4 0.005016290582716465 0.002468785736709833 9.83301317319274E-4 4.297203850001097E-5 -0.005171909928321838 -0.0010964547982439399 -6.170527194626629E-4 -0.0017615437973290682 8.496662485413253E-4 -8.501882548443973E-4 0.003977744374424219 -8.908109157346189E-4 0.007903913967311382 -6.103765917941928E-4 0.0023789172992110252 0.003350280923768878 0.004957431927323341 -3.2984750578179955E-4 0.006035255268216133 -2.740717027336359E-4
http://dbpedia.org/resource/Abaris_the_Hyperborean -0.0010880224872380495 -0.006550770252943039 -0.013135958462953568 -0.005591970402747393 -0.003548395587131381 7.442439673468471E-4 -0.008484634570777416 -3.7437479477375746E-4 0.005924830213189125 0.003023047698661685 0.00656531285494566 -0.0012941292952746153 0.003635767148807645 -0.01377875916659832 -0.0027835038490593433 6.35353266261518E-4 3.806054010055959E-4 0.005707540083676577 0.0018077701097354293 0.002930981572717428 -0.003546218853443861 0.011672683991491795 -0.0017067025182768703 -0.009414907544851303 0.002064671367406845 -1.96788867469877E-4 -0.003973292652517557 -0.009010223671793938 0.003436220111325383 -9.990026010200381E-4 0.002481019590049982 -0.0021716877818107605 -8.055369835346937E-4 7.353334804065526E-4 -0.0017900163074955344 -0.0035699140280485153 -0.007157074753195047 -0.006096511613577604 -1.243419828824699E-4 -0.009858429431915283 -0.008119643665850163 3.172233118675649E-4 0.01264180988073349 0.0012002203147858381 0.0032484380062669516 -1.6882456839084625E-4 0.0034285704605281353 -0.002553106751292944 -0.001254235627129674 0.005813354626297951 -0.007136374246329069 -0.009655858390033245 0.007260405458509922 -0.009946759790182114 -0.009166404604911804 -9.623388759791851E-4 0.006009322125464678 0.005774331279098988 0.0021327834110707045 0.0036031892523169518 0.003189751645550132 -0.0031849818769842386 0.006274959072470665 -0.0034413591492921114 -0.006655569188296795 0.007355257868766785 0.01023893617093563 0.0024410667829215527 -7.582500111311674E-4 -0.004051435273140669 -0.0010280786082148552 -0.0067849792540073395 0.008620400913059711 1.1631660163402557E-4 -8.50049895234406E-4 -0.01134531944990158 0.001416294020600617 -6.475176778621972E-4 -0.0023638992570340633 0.0044572302140295506 -2.9721297323703766E-4 0.004473327659070492 -0.012098290957510471 -0.003634366672486067 0.003760672640055418 0.00651208870112896 0.009287931956350803 0.004208013415336609 -0.0048355176113545895 0.009650466963648796 0.00611962890252471 -0.0034287027083337307 -0.010733367875218391 0.007986849173903465 -0.0011749840341508389 0.004854859318584204 0.004448652733117342 0.007491712458431721 -0.0030599620658904314 0.006140587851405144
http://dbpedia.org/class/yago/Orator110380672 9.030854562297463E-4 -0.0063771773129701614 -0.005021201446652412 -0.002885898808017373 -0.0028533891309052706 -0.007033201865851879 2.450442698318511E-4 -8.850513841025531E-4 0.003846599720418453 -0.007508445531129837 7.640448748134077E-4 -0.004272996913641691 -0.005368558689951897 -0.007097762543708086 0.0010836957953870296 9.40830068429932E-6 0.00638445932418108 0.0048947460018098354 0.0048888144083321095 0.0014223764883354306 -0.0016915593296289444 0.006023784633725882 0.0018905799370259047 -0.0034021700266748667 -5.86816284339875E-4 0.002710084430873394 1.2874987442046404E-4 -0.00658256933093071 7.588188746012747E-4 -0.0019606323912739754 0.0032983673736453056 -0.006366793066263199 0.0019947891123592854 -7.624198915436864E-4 0.003438930492848158 0.0026256018318235874 -0.002100379439070821 -0.001715865801088512 0.0027241697534918785 -1.931738806888461E-4 -0.005998687818646431 -0.004077575169503689 0.005906233564019203 8.912591147236526E-5 0.0033379122614860535 -0.0014354991726577282 -9.423622395843267E-4 -0.0066751753911376 -0.0058361804112792015 -0.0037605378311127424 -5.842578248120844E-4 1.289953652303666E-4 -1.5462418377865106E-4 -0.004533980507403612 -0.0033447560854256153 -0.0019184320699423552 -0.003655095351859927 -9.862362639978528E-4 0.0028795248363167048 0.0014312398852780461 9.874175302684307E-4 -0.004465834703296423 0.006616207771003246 -0.005144352093338966 -0.003800611710175872 0.010643038898706436 -0.002534803468734026 4.932165611535311E-4 -0.0010994571493938565 -6.0701445909217E-4 0.002048355992883444 0.002371234819293022 -4.2856542859226465E-4 -0.0030596747528761625 -0.006714374292641878 -0.001544309314340353 0.0015408281469717622 0.003281831042841077 0.0046747163869440556 0.003694511717185378 -0.0033569687511771917 0.0013844146160408854 -0.003920276649296284 -3.3086613984778523E-4 0.0012624392984434962 -1.5869659546297044E-4 0.001427327748388052 -0.001979445805773139 -0.0012224927777424455 0.007889918051660061 -0.002828073687851429 -0.007493794895708561 -0.002529020421206951 0.00425439327955246 0.004887062590569258 -0.0018692283192649484 -0.0013996021589264274 0.0020695587154477835 0.0017529544420540333 -2.9188120970502496E-4
http://dbpedia.org/resource/Heraclides_Lembus 3.97340627387166E-5 -0.011084558442234993 -0.009539424441754818 -0.0012343835551291704 0.0013803577749058604 -0.002361555118113756 -0.012299133464694023 0.00159611611161381 0.0025200331583619118 -0.002004367532208562 0.01081266812980175 0.0020236107520759106 0.005067014135420322 -0.013723397627472878 -0.004536930471658707 -0.004726479295641184 7.347361533902586E-4 0.009072355926036835 -0.002161949872970581 0.010813144966959953 -0.009163858368992805 0.008685354143381119 5.838837823830545E-4 -0.00758338812738657 0.011521091684699059 -0.0089299650862813 -0.013741543516516685 -0.002530492842197418 -0.007530642673373222 -0.011158958077430725 0.01270466111600399 -0.007088241167366505 0.011611441150307655 -0.008289530873298645 -0.002138086361810565 -0.010973656550049782 -0.014634554274380207 -0.014632419683039188 -0.002658761339262128 -0.0100336205214262 -0.008975193835794926 -0.00569299329072237 0.00967404618859291 -0.006124621257185936 0.007269946858286858 -0.012369289994239807 -0.005468158982694149 -0.010700318962335587 -0.007999666035175323 0.00933445617556572 -0.008218688890337944 -0.014843380078673363 0.005826232023537159 -0.011655479669570923 -0.0060758390463888645 0.00429910235106945 0.004572702571749687 0.011111486703157425 0.0041296230629086494 0.008329061791300774 0.005959811620414257 -0.003964366391301155 0.019127551466226578 0.0039465115405619144 -0.009440827183425426 0.018015913665294647 0.00808601826429367 0.01366452407091856 -0.0012346336152404547 -3.8347847294062376E-4 -0.0011265295324847102 -0.012648049741983414 0.012474563904106617 -0.0017224207986146212 -0.007795831188559532 -0.020987197756767273 0.006941858679056168 0.009677094407379627 -0.0016410767566412687 0.007260769139975309 -0.010927998460829258 0.0187233779579401 -0.013443258590996265 -0.01102464273571968 0.01180538721382618 0.009871271438896656 0.005929847247898579 6.790069164708257E-5 -0.011819633655250072 0.012857688590884209 0.005914691369980574 -0.012343690730631351 -0.006775633431971073 0.016387347131967545 0.011975806206464767 0.003888546023517847 0.014940989203751087 -0.0011504613794386387 0.0039038683753460646 0.007117907516658306
http://dbpedia.org/class/yago/Scientist110560637 -2.8933328576385975E-4 2.266747469548136E-5 -0.003324388526380062 0.0017674159025773406 -0.003278165590018034 -0.005949223414063454 -0.008880658075213432 0.002984539372846484 -0.0010431798873469234 0.001376815838739276 -0.002495514927431941 -0.003991729114204645 3.4208851866424084E-4 -0.004359526559710503 -0.0018552569672465324 -0.007518584839999676 -0.0027468702755868435 0.00769456010311842 0.003572495887055993 0.006259801797568798 -0.007036421913653612 0.006458258256316185 0.004510730039328337 -0.0016560389194637537 7.112681050784886E-4 -0.006740190088748932 -0.003020830452442169 -0.005864801816642284 0.0022624810226261616 0.002101416699588299 0.002832372672855854 7.3870105552487075E-6 -4.1962304385378957E-4 7.384824566543102E-4 8.621414890512824E-4 -0.003945035859942436 -0.004919575527310371 -0.0022450326941907406 -0.0011690533719956875 0.002144524361938238 -0.0023220658767968416 -0.0015349230961874127 0.008271779865026474 -4.705750325229019E-5 0.007536078803241253 -0.0065407296642661095 -1.7084712453652173E-4 -0.001568271080031991 -0.0058120302855968475 -7.516458863392472E-4 -0.007817530073225498 -0.003299325006082654 -0.001528619322925806 -7.328402134589851E-4 9.682874660938978E-4 -0.0017742986092343926 0.0032607829198241234 -8.667970541864634E-4 0.001102879294194281 0.005139400716871023 0.0026202925946563482 -0.0022170571610331535 0.0034122730139642954 0.0025592241436243057 0.0029414729215204716 0.0038981419056653976 -4.793469561263919E-4 0.0016605869168415666 -4.204302094876766E-4 -0.008069259114563465 -0.0025813921820372343 -0.0013928727712482214 4.8377731582149863E-4 -6.265759584493935E-4 2.2538010671269149E-4 0.001892786007374525 -0.003103769151493907 -0.0010323830647394061 -4.33538545621559E-4 -0.0038196761161088943 9.67694038990885E-4 0.00597021821886301 -0.004863939713686705 0.0011855392949655652 4.464993835426867E-4 9.531073155812919E-4 0.00330482074059546 0.006269806995987892 6.12950389040634E-5 0.004600530955940485 0.0014057380612939596 0.001714084530249238 5.1591297960840166E-5 0.009522182866930962 0.006573105230927467 3.95022623706609E-4 -0.0024526738561689854 0.0015154220163822174 0.002271057106554508 0.002268456155434251
http://dbpedia.org/resource/Hieronymus_of_Rhodes -0.004596394952386618 -0.009360521100461483 -0.0028775667306035757 -0.004244065377861261 -0.0024620855692774057 0.006869647651910782 -0.003846672596409917 0.00646471930667758 0.004442946519702673 -1.8290715524926782E-4 0.0012210763525217772 0.0020229832734912634 -0.001268538529984653 -0.002621079096570611 -0.004653136245906353 0.002270266180858016 0.0012399661354720592 0.007734035141766071 6.706432322971523E-4 0.004642768297344446 -0.002996449824422598 0.008256644941866398 -0.004866625182330608 9.52642469201237E-4 0.004542181733995676 -0.001643438939936459 -1.3610842870548368E-5 0.0019186442950740457 -0.005264735780656338 -7.305643521249294E-6 0.006815045140683651 -0.0065899803303182125 0.004724158905446529 -0.005306066479533911 -0.0030878817196935415 -0.003124360926449299 -0.006394688505679369 -0.006269202101975679 0.0010664876317605376 -0.0030267578549683094 -0.0018771208124235272 5.274629802443087E-4 -2.7805939316749573E-4 -0.007405369076877832 0.001079059555195272 0.0028456239961087704 -2.6039540534839034E-4 9.638892370276153E-4 0.0038203897420316935 0.00847198162227869 -0.001045398646965623 -0.0020895428024232388 -0.0014328977558761835 0.0014890750171616673 -2.7467648033052683E-4 -5.60430227778852E-4 0.0020574231166392565 0.002939230063930154 0.0036876678932458162 0.0053365821950137615 0.0017872154712677002 0.0022909087128937244 0.0016535092145204544 0.003133275080472231 -0.007773383986204863 0.002566663082689047 0.004513154737651348 0.006260822527110577 0.0012873993255198002 -0.0032783919014036655 0.0035504912957549095 -0.0023290973622351885 1.2612107093445957E-4 -0.0030335155315697193 -0.005477446597069502 -0.008118427358567715 0.0068806675262749195 0.008908146061003208 -5.00827154610306E-4 0.004878462757915258 -6.730046588927507E-4 -9.340471005998552E-4 -0.003428495256230235 -3.5949115408584476E-4 6.251949234865606E-4 0.0025284418370574713 0.004985728766769171 0.0022901513148099184 -0.008322917856276035 0.0057814777828752995 -7.912178989499807E-4 -0.003857184434309602 -0.003854121547192335 0.005349984858185053 0.0030614130664616823 0.004994453862309456 0.005648920312523842 0.003734709694981575 5.676127038896084E-4 -1.5380431432276964E-4
http://www.wikidata.org/entity/Q24229398 -6.790480110794306E-4 0.008471296168863773 0.009560449980199337 -8.386265835724771E-5 0.005085326731204987 -0.00376277812756598 0.011369271203875542 -0.0013868514215573668 8.309758268296719E-4 0.004705510102212429 -0.008052118122577667 -0.0012183734215795994 -0.0033915259409695864 0.017619391903281212 -0.004251162055879831 0.00552495988085866 -0.008887152187526226 -0.010886931791901588 -0.002380152465775609 -0.009976670145988464 0.011106659658253193 -0.013154305517673492 0.0012666824040934443 0.012958839535713196 -0.0016599581576883793 0.006962834857404232 0.012377681210637093 0.0032006707042455673 -0.0024307211861014366 -0.002352497074753046 -0.003449162468314171 0.008363659493625164 -0.009273543953895569 0.001886948011815548 2.1299936634022743E-4 0.004929991438984871 0.006068523041903973 0.007280739489942789 0.007656267378479242 0.009980840608477592 0.004687312059104443 0.0037164788227528334 -0.00878231879323721 0.006641183514147997 -0.010879774577915668 0.010801357217133045 5.682951305061579E-4 0.006476859096437693 0.0018596404697746038 -0.003142912406474352 0.011566556058824062 0.008129079826176167 -0.003837409894913435 0.006982350721955299 0.008399304002523422 0.002507070079445839 -0.005905461963266134 -0.006736233364790678 1.023013683152385E-4 -0.008958334103226662 -0.007442486472427845 0.004258237313479185 -0.008613549172878265 8.233027183450758E-4 0.00794234685599804 -0.013729394413530827 -0.01072016078978777 -0.0028464249335229397 0.011226562783122063 0.008870554156601429 0.00285164057277143 0.007006674073636532 -0.007777133956551552 7.291763322427869E-4 0.005626351572573185 0.013183721341192722 -0.00496687600389123 -1.7531350022181869E-4 0.003539402037858963 -0.004692322574555874 0.005090316291898489 -0.009069668129086494 0.007008369546383619 -0.0014416254125535488 -0.004974060226231813 -0.011542673222720623 -0.010975465178489685 -6.005966570228338E-4 0.005378387402743101 -0.013009365648031235 -0.002663608407601714 0.011885019019246101 0.011442539282143116 -0.020151907578110695 -0.011594947427511215 -0.005842816084623337 -0.004487683065235615 -0.007963209412992 7.609871099703014E-4 -0.011243444867432117
http://dbpedia.org/resource/Philip_of_Opus -0.004759598523378372 -0.009944785386323929 -0.0032597347162663937 -1.5049066860228777E-5 -0.003104408271610737 0.0028007449582219124 -0.005212127231061459 0.0014225643826648593 0.0038877076003700495 0.0023666666820645332 0.006719645578414202 0.002175229135900736 -0.0024358953814953566 -0.009414487518370152 -0.00562911806628108 0.0022685436997562647 0.006315931677818298 0.0020125762093812227 0.002395888790488243 0.00457954965531826 -0.002508957404643297 0.007895069196820259 -2.5913381250575185E-4 2.1208083489909768E-4 0.0012137031881138682 -0.007479919120669365 -0.00598965585231781 0.0016708018956705928 0.002578908111900091 -0.006272197235375643 0.0091007761657238 2.4500215658918023E-4 0.002650209004059434 -0.0049156686291098595 -0.0041623301804065704 -0.008532990701496601 -0.010224631987512112 -0.012915811501443386 -4.987257998436689E-4 -0.007794683799147606 -1.9081414211541414E-4 -0.0011525917798280716 0.011545242741703987 -0.004567556548863649 0.010042853653430939 -0.003117798827588558 -0.005949146114289761 -0.007283168379217386 -0.0069991289637982845 3.474326804280281E-4 -0.009422946721315384 -0.007501346059143543 0.006755487527698278 -0.009131243452429771 -0.004566075745970011 0.005850545130670071 0.005511682014912367 0.006910872180014849 0.0032314942218363285 0.0050154938362538815 0.0034543308429419994 5.204525659792125E-4 0.013698372058570385 0.00423317588865757 -0.008523344993591309 0.0030845729634165764 0.0095171257853508 0.010801183059811592 0.0018153421115130186 -0.003283115103840828 -0.0028512582648545504 -0.009353578090667725 0.005796537734568119 -0.002430357737466693 2.8600171208381653E-4 -0.012911747209727764 -4.3783854926005006E-4 0.0025614737533032894 -0.003670016536489129 0.005809637252241373 -0.002978087402880192 0.003903206903487444 -0.005843144841492176 -0.0065170833840966225 0.0018566020298749208 -5.322222132235765E-4 -0.001275238348171115 -0.003581761382520199 7.856442825868726E-4 0.004020307678729296 -0.0024746241979300976 -0.008882294408977032 -0.0066245850175619125 0.010504698380827904 0.006899361498653889 6.361890118569136E-4 7.807145593687892E-4 0.006725219078361988 0.0021460948046296835 0.006207605358213186
. -0.15587466955184937 -0.06356320530176163 0.2649115025997162 -0.17798326909542084 0.15153728425502777 0.2181517630815506 0.2893303334712982 0.150239035487175 0.05200040712952614 0.29349344968795776 0.03195156157016754 0.11720474064350128 0.14044338464736938 0.29411011934280396 -0.24510590732097626 0.2808263897895813 -0.09649680554866791 -0.15316146612167358 -0.05303606390953064 0.06314145028591156 0.31506937742233276 -0.20170454680919647 -0.19212450087070465 0.26218050718307495 0.04163823276758194 0.07703973352909088 0.0060985153540968895 0.22848817706108093 -0.11562858521938324 -0.29759544134140015 0.0516231432557106 0.09694785624742508 0.07145131379365921 -0.23532931506633759 0.10561709851026535 0.009516991674900055 0.04160309582948685 0.18766850233078003 0.06771013140678406 -0.14865531027317047 -0.046636052429676056 0.02419850043952465 -0.28776663541793823 -0.12976020574569702 -0.2774134576320648 0.22669515013694763 -0.04399137198925018 0.23701231181621552 0.20018501579761505 0.10128704458475113 0.06997748464345932 -0.18245792388916016 -0.0630090981721878 0.17905132472515106 0.09853730350732803 -0.005411329213529825 0.02783246524631977 0.11016100645065308 -0.11863716691732407 0.02969532646238804 0.10341264307498932 0.19424232840538025 -0.02486231178045273 0.1707119345664978 -0.13462108373641968 -0.2899321913719177 0.26752394437789917 0.08951815962791443 0.3145991265773773 0.254524827003479 0.27537697553634644 0.020661108195781708 0.08003698289394379 0.16380074620246887 0.08425895124673843 -0.22839459776878357 0.16740010678768158 0.18948927521705627 -0.060598380863666534 0.11660012602806091 -0.0700499564409256 -0.28367385268211365 0.06952442973852158 -0.1067655086517334 0.004296444356441498 -0.08839742839336395 -0.24374574422836304 -0.22717058658599854 -0.11550325900316238 -0.2378794252872467 0.23156097531318665 0.1117335706949234 0.344424843788147 -0.2333482801914215 -0.07142384350299835 -0.06263934820890427 0.28750431537628174 -0.2563171982765198 0.14448636770248413 -0.3401067852973938
http://dbpedia.org/resource/Polus 0.001203820458613336 -0.004131768364459276 -0.004457731265574694 -0.004431143403053284 0.0021824431605637074 0.0013329412322491407 -8.422217797487974E-4 -1.077926717698574E-4 -0.0013842143816873431 0.0010121618397533894 -0.0023316461592912674 0.003559925826266408 -8.825113181956112E-4 -0.0013371165841817856 7.829319802112877E-4 0.003976376261562109 5.790754221379757E-4 -0.002969967434182763 0.0010596055071800947 -0.003889645915478468 0.00320671615190804 -0.0021322439424693584 -7.731911027804017E-4 -0.005167948082089424 0.00498927291482687 0.0020172640215605497 -0.0040960609912872314 -0.001628785626962781 0.0024494552053511143 -0.0017878797370940447 -0.0012217870680615306 5.304489168338478E-4 4.152097972109914E-4 -0.0036706668324768543 -0.0027592640835791826 -0.0033549454528838396 -0.0026326007209718227 0.0038373263087123632 0.0010665388545021415 -6.625172100029886E-4 -0.001435316982679069 -0.003937647212296724 0.00380010181106627 -0.005159361287951469 0.0034812907688319683 -0.0024908820632845163 -9.353258064948022E-5 0.001969811972230673 -0.004088390618562698 0.004320603795349598 -0.003608258906751871 -3.373438667040318E-4 4.7235001693479717E-4 -0.00353260594420135 0.0013750896323472261 0.0010147539433091879 0.0023467433638870716 0.003601043252274394 0.004463396966457367 0.0034234817139804363 5.459527601487935E-4 -0.005063789431005716 0.005008065607398748 -6.58011413179338E-4 -0.0010013972641900182 0.003153301542624831 -0.0034494358114898205 -0.0020170658826828003 0.0037380512803792953 -0.0013709720224142075 3.424894530326128E-4 -9.933131514117122E-4 -0.0016547666164115071 0.0048582712188363075 0.0017175801331177354 0.0020584946032613516 -0.0025035319849848747 -0.001701159868389368 0.0032998782116919756 -0.003146819770336151 0.0011095479130744934 -0.0024450861383229494 -0.0019289766205474734 -0.003922545816749334 0.001910128048621118 0.004120806697756052 0.0032698558643460274 0.0034440394956618547 5.057248054072261E-4 -0.002643170766532421 -2.0568084437400103E-4 -0.002515448722988367 0.001763631240464747 2.98702871077694E-5 0.0028308420442044735 0.0010450605768710375 -2.8451625257730484E-4 0.004716110415756702 -0.0014198583085089922 -0.0012014817912131548
http://www.wikidata.org/entity/Q4964182 9.397487156093121E-4 0.007798973470926285 0.00805459264665842 8.412282331846654E-4 -0.00324433040805161 -0.0010515039321035147 1.1135518434457481E-5 -2.4941388983279467E-4 -0.00586765818297863 0.003369444515556097 3.673376049846411E-4 -0.0012381209526211023 9.195051388815045E-4 0.007695756386965513 -3.190143615938723E-5 -8.183299796655774E-4 -9.017103002406657E-4 -0.0029760568868368864 0.0013693365035578609 -0.005922272335737944 0.008215592242777348 -0.008035318925976753 0.0031273646745830774 0.001657496322877705 -0.002871651900932193 0.006286352872848511 0.008601277135312557 -0.0013656608061864972 0.00241392501629889 0.007092331536114216 -0.0073813823983073235 0.005414105020463467 -0.005291278008371592 0.0013308143243193626 -0.003653472289443016 0.007917347364127636 0.00663495808839798 0.008274313062429428 0.0017385261598974466 0.008339286781847477 0.0010404735803604126 -0.001109419041313231 -0.006579769775271416 -0.00182059477083385 -0.008300288580358028 -9.540820028632879E-4 -8.347550756298006E-4 0.008665105327963829 -0.0018664308590814471 2.001551620196551E-4 0.0013124297838658094 0.007769560441374779 0.003003826830536127 0.002746859798207879 0.004466322250664234 0.002008966635912657 2.1899098646827042E-4 -0.0016682717250660062 -0.0037225177511572838 -0.002677193144336343 -0.0017530658515170217 0.0013755649561062455 -0.010029162280261517 0.0016394587000831962 -8.159526623785496E-4 -0.003830855479463935 -0.0015369101893156767 -8.113771327771246E-4 -1.3399595627561212E-4 6.842652801424265E-4 -0.0015874637756496668 0.007853953167796135 -0.00482531450688839 0.0028718821704387665 0.006350826472043991 0.004350879229605198 -0.004593930672854185 -0.0055760908871889114 0.003925703000277281 0.0028506615199148655 0.0035036809276789427 -0.003635638626292348 0.0033482236322015524 1.3173480692785233E-4 -0.0037713246420025826 -0.008194402791559696 -0.004571292083710432 0.0023674629628658295 0.004338795784860849 -0.002524740993976593 0.0012270886218175292 0.008074718527495861 0.007715083193033934 -0.012991514056921005 -0.0036243831273168325 -0.005756172817200422 -0.0065169138833880424 -0.005851191934198141 -0.0015054723480716348 -0.009140980429947376
http://dbpedia.org/class/yago/WikicatAncientGreekRhetoricians 0.0020382872316986322 0.0061668530106544495 0.0031525264494121075 -0.0016482736682519317 -0.00460932357236743 -0.0023822258226573467 0.004384559579193592 -0.0029865577816963196 0.0025054968427866697 -3.413905797060579E-4 -4.488973063416779E-4 3.472157404758036E-4 -0.004947795066982508 -0.0014862302923575044 0.005342647898942232 -2.782139054033905E-4 2.0603786106221378E-4 0.003271988360211253 -0.0047340355813503265 -0.0038826959207654 0.004678788594901562 -0.002269420539960265 0.0022045078221708536 0.004237197805196047 4.608289455063641E-4 1.7461166862631217E-5 0.0016297866823151708 0.0019284182926639915 2.7458887780085206E-4 -0.003507819026708603 0.003862031502649188 0.004489893559366465 -0.001238920260220766 0.0030328070279210806 -0.0030622840858995914 0.002696459414437413 0.004794877953827381 -0.0017719342140480876 0.0025855638086795807 0.0011244193883612752 0.002985419472679496 0.001785345608368516 -0.002908698283135891 -0.0026522416155785322 -0.003327032318338752 0.003975538071244955 0.0017933824565261602 -0.0042884461581707 -0.0022283787839114666 -0.0025683725252747536 0.0020365267992019653 0.0023821957875043154 0.003919950686395168 2.555293613113463E-4 0.00447707436978817 -2.471008920110762E-4 -0.0019783221650868654 1.2144218635512516E-4 0.002541317604482174 -8.88808979652822E-4 -0.003795562544837594 -0.002684210194274783 0.0019384321058169007 6.864710012450814E-4 0.004984206520020962 -0.0047851973213255405 -2.250791876576841E-4 -0.004414588678628206 0.002375958254560828 -0.0020499499514698982 0.002621133578941226 -0.0024088637437671423 -0.0012117011938244104 8.631342643639073E-5 0.003368156496435404 0.001406252384185791 4.260365094523877E-4 -0.002312500961124897 -0.003508183406665921 0.0012086010538041592 0.003553442656993866 -5.982150323688984E-4 0.004160004202276468 3.997259773313999E-4 0.0011881450191140175 -0.005521831568330526 -7.18959781806916E-4 -0.004455982707440853 0.0014298564055934548 -0.0016911847051233053 -0.006060419604182243 0.005534833297133446 1.3873263378627598E-4 -0.0015372266061604023 0.003103942144662142 -2.6399808120913804E-4 1.8206684035249054E-4 -3.4979518386535347E-4 0.003083330113440752 -0.0031666220165789127
http://dbpedia.org/class/yago/WikicatAncientGreekWriters 0.004474489483982325 -0.002923655090853572 0.004900502040982246 0.0036433867644518614 0.0020113717764616013 -0.002076101955026388 0.0014761417405679822 -1.9094147137366235E-4 -0.005197088234126568 0.003625413402915001 3.6801170790567994E-4 0.004248882178217173 -0.001014628680422902 -3.989792603533715E-4 0.001919725676998496 -0.0017217854037880898 -0.0018605180084705353 -0.005053279455751181 0.0031062031630426645 0.0013281002175062895 0.0016798152355477214 0.003209102666005492 0.0032479569781571627 -0.0026731514371931553 0.002168708946555853 -7.091546431183815E-4 0.004698376636952162 -0.0033109746873378754 -0.001819478115066886 0.0032002683728933334 -0.00423680804669857 0.003220857121050358 0.002806088188663125 0.0020226414781063795 2.6440375950187445E-4 -0.0027544291224330664 -0.0017483684932813048 3.885900368914008E-4 1.393486891174689E-4 -0.002938308287411928 0.005211330484598875 4.5151953236199915E-4 0.0031002387404441833 3.9041839772835374E-4 0.002772366162389517 0.0023974967189133167 -0.0034149703569710255 -0.001993002835661173 -0.001733920769765973 0.0025295577943325043 -0.002283525187522173 8.655162528157234E-4 -0.0024363617412745953 0.0038188083562999964 0.0011561563005670905 9.10211936570704E-4 9.904683101922274E-4 -0.001482542254962027 0.004124449100345373 -9.676761692389846E-4 0.0036372842732816935 2.960032725241035E-4 0.0036092447116971016 0.001543563324958086 -0.002543208422139287 -0.00610653730109334 -0.0030672887805849314 7.713016821071506E-4 0.0044497414492070675 -0.0038490118458867073 0.0026287550572305918 -0.003175056539475918 -0.0038661279249936342 -2.4219042097683996E-4 8.307553944177926E-4 2.1657824981957674E-4 6.028832867741585E-4 -8.621219312772155E-4 0.004713993985205889 -0.0019962890073657036 0.002114170463755727 -0.004866126459091902 6.045492482371628E-4 0.004416097421199083 0.0018073082901537418 -0.0023728408850729465 -0.002629196271300316 -0.0038940284866839647 0.0012666487600654364 0.0037202355451881886 -0.0019770909566432238 -0.0012876091059297323 0.00588930444791913 -0.005714246071875095 3.437940904404968E-4 0.0015615352895110846 -1.0131113231182098E-4 -0.0020950438920408487 0.0026305080391466618 4.61618386907503E-4
http://dbpedia.org/class/yago/WikicatAncientGreekMathematicians 0.0037030524108558893 7.777161663398147E-4 -9.75830655079335E-4 0.005204940680414438 -5.180044681765139E-4 0.002898477716371417 0.005671220365911722 -6.208710838109255E-4 6.033129757270217E-4 0.004235595930367708 0.002210055012255907 -0.0019896631129086018 -0.0035887935664504766 4.2887614108622074E-4 0.0036278481129556894 -0.0019256838131695986 0.003441709326580167 -7.312686648219824E-4 -6.003676680848002E-4 -0.0035287889186292887 0.007645642850548029 -0.007730687037110329 0.003114572959020734 -0.0011034798808395863 -0.005176418926566839 0.0023160804994404316 0.002500243252143264 0.0025502138305455446 -0.001449751784093678 0.0040853568352758884 0.0018348180456086993 -0.0026907504070550203 -0.0012403136352077127 0.005122330971062183 -3.4695345675572753E-4 8.151256770361215E-5 0.005902199074625969 0.0031294829677790403 -0.0033945967443287373 0.005257249344140291 -1.0532847954891622E-4 0.0037487270310521126 -0.0020801383070647717 -0.001494119642302394 -0.0026921280659735203 -0.0019688280299305916 0.00325747299939394 0.0038781033363193274 0.0043296292424201965 -0.003568458603695035 0.004367143381386995 -0.0029750224202871323 -0.004654789809137583 0.0018951146630570292 1.562725447001867E-5 -0.0050100116059184074 -0.001938236877322197 0.0015641856007277966 0.003463316708803177 -0.002376374090090394 -0.0013898538891226053 0.004929349757730961 -0.006186860613524914 -0.0024941295851022005 -1.39868090627715E-4 -6.953930133022368E-4 -0.0026234521064907312 0.0016308159101754427 -0.002615035744383931 0.005000178702175617 0.002852276200428605 0.005528884474188089 -0.0046272012405097485 0.003839487209916115 -8.719164761714637E-4 0.001994314370676875 -0.0023491757456213236 7.146527641452849E-4 4.201769479550421E-4 0.004410442430526018 0.004244015086442232 0.001756167970597744 0.004558223765343428 0.004379378166049719 -0.005276436917483807 -0.001575745060108602 -8.22108777356334E-5 -4.095843178220093E-4 -5.029035964980721E-4 -0.003611841704696417 0.003835882991552353 0.007279843557626009 0.007943511940538883 -0.008641652762889862 0.0028402768075466156 -0.0028637296054512262 0.0012107407674193382 -0.0018655018648132682 0.004106032196432352 0.0016288206679746509
http://dbpedia.org/resource/Hermotimus_of_Clazomenae -0.007365734316408634 -0.010017949156463146 -0.011685030534863472 -0.00600083451718092 0.002515932312235236 -0.0015689877327531576 -0.005362335126847029 0.0025286716409027576 0.0062987725250422955 7.654903456568718E-4 0.006278141867369413 0.006636705715209246 0.004973473958671093 -0.005538000259548426 -0.008128567598760128 -0.001113319769501686 -3.456557169556618E-4 0.00642215833067894 9.292528848163784E-4 0.007025553844869137 -0.007947226986289024 0.007399727124720812 -0.0060157678090035915 -0.004937800113111734 0.00786157138645649 -8.795845787972212E-4 -0.010486769489943981 -0.001089579425752163 -0.006267768796533346 -0.003524800529703498 0.010759887285530567 -0.0070140487514436245 0.0101972296833992 -0.0066994596272706985 -0.0010382350301370025 -0.008603868074715137 -0.005826318170875311 -0.006557779852300882 -0.004798523616045713 -0.01209462434053421 -0.004278313834220171 -0.0010146209970116615 0.007116193883121014 -3.771692281588912E-4 0.007239772006869316 -0.003969860728830099 -0.005113848019391298 -0.007059090305119753 -0.002176908543333411 0.0021790005266666412 -0.008839886635541916 -0.013878313824534416 0.0059220073744654655 -0.009374936111271381 -0.010321456007659435 0.00196907133795321 0.008617808111011982 0.008173645474016666 0.0026742012705653906 0.01147020049393177 0.009691810235381126 -0.005646946839988232 0.005260732490569353 0.003756317775696516 -0.011717062443494797 0.005442469846457243 0.006696703843772411 0.006501028314232826 -0.002013095188885927 0.0026277671568095684 0.0041210344061255455 -0.012338327243924141 0.005236627534031868 0.003554707858711481 -0.00829174555838108 -0.01601381041109562 -2.549100900068879E-4 0.005755209363996983 -0.004648576490581036 2.9914447804912925E-4 -0.00963025726377964 0.004363744053989649 -0.009598602540791035 -0.005804318469017744 0.006812678184360266 0.004777679219841957 -4.6333682257682085E-4 -0.003733390010893345 -0.0024184680078178644 0.0030625667423009872 0.0019652419723570347 -0.006299581378698349 -0.002051572548225522 0.009341852739453316 0.008891754783689976 -0.0017008312279358506 0.0061063459143042564 0.001743575558066368 0.0017762365750968456 0.006763886660337448
http://xmlns.com/foaf/0.1/Person 0.005377519875764847 -0.0035797799937427044 -0.0058110118843615055 1.028825354296714E-4 -0.004142530262470245 -0.004403991159051657 -0.008100648410618305 -0.003609215607866645 0.0040550935082137585 -0.0031923973001539707 -0.0014011141611263156 -0.002416243776679039 -0.0032913354225456715 -0.004120611120015383 0.005593567620962858 -0.008001632057130337 -6.062515312805772E-4 0.0013373498804867268 0.002724665915593505 0.0017534466460347176 -0.00454226927831769 0.0015726053388789296 0.006551932077854872 -0.010801373980939388 0.003811110742390156 4.2518528061918914E-5 -6.0402169765438884E-5 -0.005071893334388733 -0.002558964304625988 0.007919681258499622 0.002132449997588992 -0.002279008273035288 0.004466003738343716 0.002312744501978159 -4.115346819162369E-4 -0.0011986689642071724 8.58253100886941E-4 -0.006503118667751551 -0.002440438140183687 0.002338571008294821 7.78274261392653E-4 -0.006734206806868315 0.0035256838891655207 -0.002517377957701683 0.0032849302515387535 -0.0070937518030405045 0.0029357552994042635 -0.00491586746647954 -0.002598947612568736 -0.0011978450929746032 -0.005488761235028505 3.1303800642490387E-4 7.077383925206959E-4 -0.005558582488447428 -0.007904480211436749 4.228496109135449E-4 0.004375392571091652 0.0014975015074014664 0.002982168924063444 0.007736748084425926 0.004437241703271866 -0.007441890425980091 0.005518490914255381 1.640500850044191E-4 -0.0016645073192194104 0.01041074562817812 0.0015459252754226327 -0.0016770357033237815 -0.003187793307006359 -0.002826239913702011 -0.0010006674565374851 -0.004002029541879892 0.006457443814724684 0.001160600921139121 -0.004820839501917362 0.0040313685312867165 -0.0019498843466863036 -0.005348777398467064 -0.004770446568727493 -0.00572440167888999 -0.004813164006918669 0.010770509950816631 -0.004228428937494755 4.381016187835485E-4 0.001817480893805623 0.007564900442957878 0.0015614315634593368 0.0035468540154397488 0.004698426462709904 0.00411739619448781 0.0024709333665668964 -0.003926322795450687 -0.008456666953861713 0.007835681550204754 0.003883600002154708 -1.5142670599743724E-4 -0.005606611724942923 -9.098407463170588E-5 -2.7515481633599848E-5 0.0017248450312763453
http://dbpedia.org/class/yago/Person100007846 0.006266691721975803 7.552020251750946E-4 -0.007255404721945524 0.007386000826954842 -0.005286562722176313 -4.567612777464092E-4 -0.009727729484438896 -0.0036040316335856915 0.005930454935878515 -0.008654178120195866 0.006120374426245689 -0.002280494663864374 -0.001405664486810565 -0.012459864839911461 -4.1086022974923253E-4 -0.008121558465063572 0.0033926141913980246 0.00615849019959569 -0.002657703123986721 -0.0011499279644340277 -0.010031386278569698 0.0053639798425138 0.0031551066786050797 -0.005941738840192556 -4.0238117799162865E-4 -0.00757076870650053 -0.006505155935883522 -0.012150563299655914 -0.0018065132899209857 0.005938038229942322 -0.0012323590926826 -0.0031084464862942696 0.0019112693844363093 0.0020156563259661198 -0.0022208895534276962 -2.7371913893148303E-4 -0.0052370042540133 -0.007363840471953154 1.9461385090835392E-4 0.0015140936011448503 7.515153265558183E-5 -0.00670534186065197 0.016705740243196487 0.0034804774913936853 0.01391163282096386 -0.0052597494795918465 -0.0015940230805426836 -0.010618079453706741 -0.011222672648727894 -0.002777515212073922 -0.002422040794044733 -0.005516213830560446 0.006539518944919109 -0.005515964701771736 -0.0072899083606898785 0.0057550701312720776 0.006335271988064051 0.002708994084969163 0.002810045378282666 0.008575796149671078 2.0709284581243992E-4 -0.00900717917829752 0.008334529586136341 -0.005793183576315641 0.0026556572411209345 0.01431187056005001 0.002463270677253604 0.00656981160864234 -0.007644988596439362 -0.006582371890544891 -0.006759236101061106 -0.0022439006716012955 -0.0013926866231486201 0.0014181624865159392 -8.945006993599236E-4 -0.0024959277361631393 0.0026335970032960176 6.31939503364265E-4 -6.236091139726341E-4 0.0017142994329333305 0.0029800720512866974 0.01320768054574728 -0.0037519033066928387 -0.001224153209477663 0.0018298100912943482 0.006465120706707239 0.011252555064857006 0.0018671343568712473 -4.3252971954643726E-4 0.003055946435779333 -0.0027420371770858765 -0.0036283521912992 -0.0031911414116621017 0.005442850291728973 -0.0012433899100869894 0.006313147488981485 -0.0040399436838924885 0.009920650161802769 -0.0033376032952219248 0.008530325256288052
http://www.w3.org/1999/02/22-rdf-syntax-ns#type 0.13647480309009552 0.26354190707206726 0.18581895530223846 0.144919291138649 -0.04162092134356499 -0.1040605902671814 0.07492095232009888 -0.12648069858551025 -0.14226777851581573 -0.10334213078022003 -0.21075277030467987 -0.17563310265541077 -0.07888807356357574 0.18261346220970154 0.17711038887500763 -0.07732566446065903 -0.05770204961299896 -0.21350707113742828 0.047164905816316605 -0.21537429094314575 0.12475001066923141 -0.18399187922477722 0.10151080042123795 0.10193165391683578 -0.21982795000076294 0.1086386889219284 0.22393199801445007 0.038974106311798096 0.12181036174297333 0.23353202641010284 -0.1767330914735794 0.1373891979455948 -0.17175692319869995 0.2683045566082001 -0.026322247460484505 0.16452305018901825 0.19558174908161163 0.2089207023382187 0.09314417093992233 0.2683369517326355 0.19173233211040497 0.11166997998952866 -0.18767543137073517 0.15719051659107208 -0.14085566997528076 0.09143891930580139 0.09109456837177277 0.10328757017850876 0.04568043723702431 -0.1868717223405838 0.20195691287517548 0.28052595257759094 -0.03727336227893829 0.12717337906360626 0.17035911977291107 -0.07411888241767883 -0.13538527488708496 -0.28896787762641907 -0.06360179930925369 -0.27980583906173706 -0.19552811980247498 0.05265947803854942 -0.2834087312221527 -0.11415860801935196 0.24977366626262665 -0.18819376826286316 -0.32420870661735535 -0.24947109818458557 0.032607197761535645 0.017719434574246407 -0.10537300258874893 0.2331136018037796 -0.23101399838924408 -0.03869103640317917 0.12340670078992844 0.35835227370262146 -0.12473925948143005 -0.2194444239139557 0.0762610211968422 -0.0864025428891182 0.18033665418624878 -0.20756463706493378 0.2749934196472168 0.12943150103092194 -0.13662053644657135 -0.17426171898841858 -0.08231014013290405 0.04350811615586281 0.15147994458675385 -0.14917711913585663 -0.14681166410446167 0.20624913275241852 0.16687613725662231 -0.31723129749298096 -0.14158093929290771 -0.09504596889019012 -0.25059497356414795 -0.053132012486457825 -3.575767041184008E-4 -0.11597079783678055
http://dbpedia.org/class/yago/Wikicat5th-centuryBCGreekPeople -0.0013089639833196998 0.0063442750833928585 0.004391729831695557 -0.0015084468759596348 -0.003470790572464466 -0.004160694312304258 0.0045890710316598415 -0.0017031444003805518 -0.006169008556753397 -0.004834882449358702 -4.784069024026394E-4 -0.0030133521649986506 -0.002027327660471201 -0.0015990161336958408 -6.301269750110805E-4 -0.002245628973469138 4.6351453056558967E-4 -3.3570447703823447E-4 -0.0021686344407498837 7.291368674486876E-4 0.0021562424954026937 -0.006218491587787867 0.004413906019181013 -8.442040416412055E-4 -0.004259390756487846 0.001636468805372715 0.005916575901210308 -0.002849957440048456 5.466098082251847E-5 -4.6694406773895025E-4 0.0014420036459341645 -0.0014244706835597754 0.0010963918175548315 0.002463966142386198 -0.002771078608930111 -5.70472446270287E-4 0.0010451101697981358 0.003804745152592659 0.001906450605019927 0.005435798782855272 0.003738730913028121 0.003125018673017621 -5.363011732697487E-4 0.001436770660802722 0.002770502818748355 -0.0017341371858492494 0.004331790842115879 0.005411194171756506 -0.0036013037897646427 -4.1826473898254335E-4 0.004000714048743248 -2.1924820612184703E-4 -0.002867592265829444 0.005318849813193083 -0.0024629482068121433 -0.0016637786757200956 5.064416909590364E-4 -0.0019074978772550821 0.0034491291735321283 0.002364141633734107 -0.005440499167889357 -1.2855124077759683E-4 -0.004714683163911104 2.0812156435567886E-5 -0.0010582116665318608 -0.006441052071750164 -0.0040008677169680595 0.0011394741013646126 -9.51967725995928E-4 -0.0021508350037038326 -0.005569653119891882 0.0021910734940320253 -1.718611310934648E-4 -0.0024758733343333006 0.005637266207486391 0.0045728012919425964 -0.0019203294068574905 -0.0033089870121330023 -0.0016968086129054427 -0.004677656572312117 0.0018555971328169107 -3.3496580726932734E-5 0.006835177540779114 0.0033162960316985846 -0.004379114601761103 -0.002783906878903508 -0.0045747472904622555 9.59753873758018E-4 -0.002556992694735527 -0.0024238317273557186 0.0017542866989970207 0.005723918322473764 0.0051516019739210606 -0.0031393058598041534 -0.0026816537138074636 -0.003182142972946167 -0.0010122619569301605 -0.0011621987214311957 0.0036018891260027885 -5.609501386061311E-4
http://dbpedia.org/resource/Gorgias -0.0023528707679361105 -0.017444146797060966 -0.03823114186525345 0.0049325209110975266 -0.008991816081106663 -0.005955429747700691 -0.025463305413722992 -0.00247449753805995 0.009885848499834538 -0.014643083326518536 0.012804105877876282 0.002380095422267914 0.002089441753923893 -0.03272412717342377 0.0023021595552563667 -0.013753434643149376 0.011129720136523247 0.031197214499115944 -0.005642971955239773 0.01895693503320217 -0.03635835275053978 0.026463711634278297 0.00524040125310421 -0.022548113018274307 0.01735726371407509 -0.018582429736852646 -0.025471065193414688 -0.020219655707478523 -0.0026005730032920837 -2.138905692845583E-4 0.012695194222033024 -0.02297293022274971 0.014028888195753098 -0.013362198136746883 -0.009055515751242638 -0.015207265503704548 -0.02281811647117138 -0.030808499082922935 -0.01117537822574377 -0.013048367574810982 -0.00919105764478445 -0.012873402796685696 0.035009369254112244 -0.00391449686139822 0.03302139788866043 -0.026284171268343925 -0.0027404790744185448 -0.023978067561984062 -0.018501276150345802 0.0062528979033231735 -0.02690085954964161 -0.017323821783065796 0.010701820254325867 -0.023615380749106407 -0.020757751539349556 0.009127076715230942 0.014450293965637684 0.016391029581427574 0.015843408182263374 0.022614315152168274 0.01659630425274372 -0.016296595335006714 0.024139752611517906 0.0036877114325761795 -0.010773636400699615 0.03555268794298172 0.01418556459248066 0.01378682442009449 -0.027125880122184753 -0.021498482674360275 -0.010344362817704678 -0.027229998260736465 0.020742466673254967 -0.008887529373168945 -0.015817791223526 -0.01759140007197857 -2.0143832080066204E-4 0.005712085869163275 -0.007943660020828247 -0.0029172017239034176 -0.014114816673099995 0.037846796214580536 -0.03357481583952904 -0.0010971729643642902 0.007489183451980352 0.018334371969103813 0.022696776315569878 0.008337268605828285 -0.0015754555352032185 0.027247043326497078 -0.0020675675477832556 -0.02109720930457115 -0.025125719606876373 0.03528568521142006 0.018826846033334732 0.009805304929614067 0.006422651465982199 0.017594873905181885 -0.008296998217701912 0.029280120506882668
http://schema.org/Person 0.005948333069682121 -0.004863386508077383 -0.0039550187066197395 0.0069180442951619625 0.0015365396393463016 1.3580115046352148E-4 -0.008789104409515858 -0.0012213143054395914 -0.0019159307703375816 -0.009586366824805737 0.0015191108686849475 0.0011671121465042233 2.0339144975878298E-4 -0.010428491048514843 6.904332549311221E-4 -0.0069199721328914165 0.005077075678855181 0.005769276991486549 0.002897675381973386 0.0016582299722358584 -0.006237629801034927 0.0071598137728869915 0.0017146379686892033 -0.007721942383795977 -9.310109890066087E-4 0.0016002916963770986 -0.0065207029692828655 -0.0032578150276094675 -0.0013668773462995887 0.0031577430199831724 -4.0765758603811264E-4 -0.006882671266794205 0.0046440730802714825 0.006480630487203598 -0.005932127125561237 0.0031786744948476553 -0.005673391744494438 -0.007164490409195423 -1.6934701125137508E-4 0.003599226474761963 -0.005292162764817476 -0.0016522974474355578 0.010853839106857777 0.004629233386367559 0.006545726675540209 -0.005723132751882076 0.0016459812177345157 -0.006191161461174488 8.515430963598192E-4 0.001456503290683031 -0.004637811332941055 0.0040437281131744385 -0.0019853441044688225 -0.0022204993292689323 -0.004972205031663179 -9.244796819984913E-4 0.0035687212366610765 -8.129607886075974E-4 0.006392975803464651 -0.00237025017850101 0.005009554326534271 -0.0020602510776370764 0.0030146564822643995 0.0030132089741528034 8.650670060887933E-4 0.010651959106326103 -0.0034968326799571514 0.004128313157707453 -0.009368198923766613 -0.004187318962067366 -0.0011898052180185914 0.001967625692486763 -0.0023766811937093735 9.59085242357105E-4 0.0012166043743491173 0.0015074001858010888 -0.002632790943607688 0.0032672423403710127 0.004301196429878473 -0.005179472267627716 -0.003961180802434683 0.009409487247467041 -0.002265765331685543 0.0025547321420162916 0.0032183181028813124 0.005246075335890055 0.0070998710580170155 0.0058662910014390945 -0.003067118115723133 0.00702825840562582 -0.0011592366499826312 -0.007930797524750233 -0.010523633100092411 0.004517771769315004 0.006085544358938932 5.29496930539608E-4 -0.005217378027737141 0.008500534109771252 -0.00506968516856432 0.003820971818640828
http://dbpedia.org/resource/Damo_(philosopher) 0.0033799754455685616 -0.00505609717220068 0.0017332214629277587 0.0012045864714309573 -0.0019011416006833315 -0.002418382093310356 -0.003958168439567089 0.002057144418358803 0.003909610211849213 -0.003339265938848257 0.0015573996352031827 -6.974576390348375E-4 1.7745987861417234E-5 -1.6368785873055458E-4 8.807243430055678E-4 -4.3195916805416346E-4 0.0015778118977323174 -0.002613364951685071 -0.0030217599123716354 0.0030735470354557037 0.0020421864464879036 -0.002417620737105608 -0.004358516074717045 0.003616383532062173 0.0052451081573963165 -0.003061145544052124 4.054837045259774E-4 0.002629558090120554 0.0026794769801199436 -0.0013191180769354105 0.001178793259896338 -8.01301677711308E-4 0.002022998407483101 -0.0018315276829525828 0.0033195577561855316 0.00289878505282104 1.824077044147998E-4 -0.003368062898516655 0.004050854127854109 6.30218768492341E-4 -0.001246458850800991 -0.0058087497018277645 0.006010220851749182 -0.004729314241558313 -0.003021970158442855 -4.93936357088387E-4 -9.66602296102792E-4 -0.0013819397427141666 -0.002900602761656046 0.002484434051439166 -0.003843394573777914 -0.0032595014199614525 0.0033323566894978285 0.0014886936405673623 -0.0022417912259697914 7.992822793312371E-5 0.0015446373727172613 0.002693840069696307 0.0033363965339958668 0.001715969992801547 -0.0024948432110249996 9.679789654910564E-4 0.0018815681105479598 0.004134996794164181 0.0034718429669737816 -0.0031145289540290833 0.0016173028852790594 0.004027541261166334 -0.0033419495448470116 0.003682489041239023 -8.049711468629539E-4 0.0011675329878926277 -7.984059629961848E-4 0.0027319330256432295 -0.0020656937267631292 -0.0028504810761660337 -9.104441851377487E-4 -0.0023011313751339912 -0.0029127460438758135 -0.00320638925768435 0.0032104365527629852 8.410930604441091E-5 1.4850610750727355E-4 -8.777128532528877E-4 0.0040773251093924046 0.0018754680640995502 9.101428440771997E-4 8.236422436311841E-4 0.001519129378721118 -8.225975907407701E-4 -0.002543987473472953 0.0011400915682315826 0.004600275307893753 0.001196222030557692 0.00350566697306931 0.002069632988423109 -0.0012009446509182453 -0.0031591083388775587 0.0017251676181331277 0.00559100741520524
http://dbpedia.org/class/yago/Wikicat5th-centuryBCPhilosophers -0.002230820246040821 -9.865483734756708E-4 -0.008862637914717197 5.527751636691391E-4 -0.0015487241325899959 0.0023228845093399286 -0.0024917798582464457 8.043739362619817E-4 0.0027979325968772173 -0.00433161249384284 -9.996710577979684E-4 -0.00171408720780164 -0.0022115365136414766 -0.004717425908893347 -0.0019875254947692156 -0.0029520816169679165 -2.1685012325178832E-4 0.004533841274678707 1.354512460238766E-5 0.004922395572066307 -0.006658848375082016 0.006491029169410467 -0.0038304170593619347 -0.0015491669764742255 0.003494749078527093 -0.0027748842258006334 -0.001646138378418982 -0.007364446297287941 0.0046420348808169365 -0.0017797885229811072 -5.546834436245263E-4 -3.6361374077387154E-4 0.005217771977186203 -0.0031904573552310467 -0.00559383537620306 -0.006496982183307409 0.0018130420939996839 -0.0029174371156841516 -0.006114442832767963 -0.006603935267776251 -0.004508952610194683 -0.0021066677290946245 0.004920569714158773 0.0027030594646930695 0.00445552309975028 -0.00757726700976491 0.0023992822971194983 -4.466269165277481E-4 0.001791954506188631 -0.001381734386086464 0.0011910670436918736 -0.00188603182323277 0.0014806846156716347 -0.0011362581280991435 -0.007036034017801285 -0.0035445732064545155 -6.066006608307362E-4 5.902379634790123E-4 0.004864310845732689 9.129149257205427E-4 -0.0024188158567994833 -0.00543334661051631 -0.0012317798100411892 -0.0034763349685817957 -0.006504452787339687 0.009355872869491577 0.0029070626478642225 0.003794426564127207 -0.006398462224751711 -0.0069209374487400055 -0.0017237868160009384 -0.0056903003714978695 0.005497176665812731 0.0033445924054831266 -5.920208641327918E-4 -0.0019170485902577639 3.8660185964545235E-5 0.0024315945338457823 3.881602024193853E-4 4.7879450721666217E-4 3.7514022551476955E-4 0.009187694638967514 -0.0014695902355015278 0.0034696459770202637 -0.0035046092234551907 -0.0015735253691673279 2.2645034187007695E-4 -0.0028497211169451475 -0.005549052730202675 0.005545153748244047 -0.004584178328514099 -0.005999380256980658 -0.00421307235956192 0.00713866064324975 0.005751763470470905 -0.0029868967831134796 9.736029314808547E-4 0.006056542973965406 0.003693676320835948 0.0012886582408100367
http://dbpedia.org/resource/Satyrus_the_Peripatetic 0.0030659795738756657 -0.007430123630911112 2.602976164780557E-4 -0.0012877514818683267 0.0022721809800714254 -1.3898142788093537E-4 -0.005455193109810352 5.24378614500165E-4 0.003790129441767931 -2.678136224858463E-4 0.0013046541716903448 -0.002389479661360383 0.0016414329875260592 -0.005738772451877594 -0.003913693595677614 6.435659015551209E-4 0.005046364851295948 0.0025406223721802235 -0.005788776092231274 0.006123353727161884 -0.007163133006542921 0.006497527472674847 -0.004770786035805941 0.001116812927648425 0.004860556218773127 0.0029755327850580215 -0.006338008213788271 -0.005179579835385084 0.002315050922334194 0.0034476174041628838 0.003784940345212817 -0.0036047324538230896 6.185951642692089E-4 -2.745527890510857E-4 6.72037189360708E-4 -0.0014248630031943321 -0.005645550787448883 -0.005748786497861147 0.001689078053459525 -0.006752269342541695 -0.0045270961709320545 0.001972472295165062 0.007420588284730911 0.0023233138490468264 1.7564129666425288E-4 -0.0060737961903214455 0.0023123724386096 0.0010449194815009832 -0.002974136034026742 -0.0016521790530532598 -0.007392488420009613 -0.003460770007222891 -0.003079495159909129 -0.003928317688405514 -0.004019586369395256 0.005437612533569336 5.709604592993855E-4 0.005005863029509783 0.0018546857172623277 -5.7840137742459774E-5 5.898238159716129E-4 -8.7519153021276E-4 0.007002683822065592 0.00354182836599648 6.319492240436375E-4 0.005831304471939802 0.00787063967436552 0.0017015875782817602 0.0028675117064267397 -0.0038367838133126497 -0.0016548977000638843 -0.005296992138028145 -0.0023000510409474373 0.002384317573159933 -0.002299793064594269 8.686924702487886E-4 0.00215081381611526 0.004194006323814392 -0.001094200648367405 0.0021589628886431456 -0.003432211931794882 -0.0011131053324788809 -0.006224235985428095 -0.0017811539582908154 0.002390689915046096 0.0033682668581604958 -0.0030037236865609884 0.002097198972478509 -0.005658089183270931 -0.0023310042452067137 -6.901505403220654E-4 0.0010066705290228128 -0.005319330375641584 0.0066052088513970375 0.0014754878357052803 0.005251006223261356 0.005934356711804867 0.004031079821288586 -4.082724335603416E-4 0.004272387828677893
http://dbpedia.org/resource/Hermagoras_of_Amphipolis -0.0033826609142124653 -0.004689131397753954 -0.012505395337939262 -0.004784112796187401 2.1749583538621664E-4 -0.002143442165106535 -0.002934930147603154 -2.5449786335229874E-5 0.00728591438382864 8.907490409910679E-4 0.010888821445405483 0.008361080661416054 -6.395756499841809E-4 -0.0057833269238471985 -7.784303743392229E-4 9.073209948837757E-4 0.0011962450807914138 0.013116994872689247 -0.005551762413233519 0.003503314219415188 -0.0050150686874985695 0.012124382890760899 -0.0038704483304172754 -9.624296799302101E-4 0.0048936703242361546 -0.006222498137503862 -0.008302592672407627 -3.53476672898978E-4 -0.004008172545582056 -0.00577254593372345 0.009248116984963417 -0.002586209215223789 0.007426375523209572 -0.01150414440780878 -0.003655720967799425 -0.007157644256949425 -0.012104205787181854 -0.011133285239338875 -0.008088108152151108 -0.01300385408103466 -0.009252733550965786 -7.675706874579191E-4 0.013670651242136955 -0.009710882790386677 0.009101985022425652 -0.007918004877865314 -0.0030377632938325405 -8.737627067603171E-4 -3.326436853967607E-4 0.0024508177302777767 -0.006648433394730091 -0.005990737583488226 0.002837503096088767 -0.0020880759693682194 -0.0058049228973686695 -0.0012102726614102721 0.008664355613291264 0.013847582042217255 0.008100345730781555 0.01042729802429676 0.010948743671178818 -0.007884569466114044 0.013553096912801266 0.004315902478992939 -0.012110588140785694 0.013673186302185059 0.011109558865427971 0.011821170337498188 -0.00375534500926733 -0.002052264753729105 0.005453567486256361 -0.012101694941520691 0.010082514025270939 -5.794835742563009E-4 -0.009825432673096657 -0.013953283429145813 8.364720270037651E-5 0.009112386032938957 0.0010774339316412807 0.004986741580069065 -0.009261281229555607 0.009891041554510593 -0.010324717499315739 -0.00837696623057127 0.007637646980583668 0.009000623598694801 0.00734287966042757 0.0035478374920785427 -0.0029442659579217434 0.00927887111902237 0.009050222113728523 -0.004742435645312071 -0.008696290664374828 0.012934034690260887 0.002602700376883149 8.290762780234218E-4 0.007470212876796722 0.001901780953630805 6.031915545463562E-4 -0.0013165896525606513
http://dbpedia.org/class/yago/Organism100004475 0.005208228249102831 -0.0049938322044909 -0.013233750127255917 -0.002440874231979251 -0.0011385227553546429 -0.004133259411901236 -0.003570178523659706 -0.006509436294436455 0.0022728973999619484 -0.009289992973208427 0.003763556480407715 -0.004934556782245636 6.202759104780853E-4 -0.007580181118100882 2.4825744912959635E-4 -0.005141798872500658 0.005337988026440144 0.009621025063097477 -4.39441908383742E-4 0.0019521770300343633 -0.011194595135748386 0.003476549405604601 0.0020477871876209974 -0.012205296196043491 0.004980449099093676 -0.007741088513284922 -0.007580122444778681 -0.00923231616616249 0.00553166214376688 4.015748709207401E-5 9.795675287023187E-4 -1.3963138917461038E-4 0.004391800612211227 8.1074662739411E-4 0.0010597009677439928 -0.004278723616153002 -0.004664419684559107 -0.007244548294693232 0.0014875646447762847 0.0030494858510792255 0.003267128486186266 -0.004584117326885462 0.011049522086977959 0.005674696993082762 0.011443142779171467 -0.009311462752521038 -7.949581486172974E-4 -0.011600077152252197 -0.005753857549279928 0.004766562487930059 -0.0011564901797100902 -0.0016888834070414305 0.006595425773411989 -0.001888138591311872 -0.00980291236191988 5.285750376060605E-4 0.002501459326595068 0.003176179714500904 0.002596871228888631 0.0023937220685184 2.6657385751605034E-4 -0.0036835537757724524 0.004359940532594919 -0.0035558189265429974 -1.3404371566139162E-4 0.0143433241173625 -0.005766655784100294 0.0013693210203200579 -0.003924282267689705 -0.005297025665640831 -0.008720621466636658 -2.972430665977299E-4 0.004012605175375938 0.0011897493386641145 -0.001753791468217969 0.0017563945148140192 -0.005042169243097305 -0.0013856153236702085 -0.003056328045204282 0.0015631765127182007 -1.5937889111228287E-4 0.005227102432399988 -0.005910139065235853 -0.0041735973209142685 2.2966005781199783E-4 0.007845977321267128 0.0033585282508283854 0.003334551118314266 -0.004287574905902147 0.006939990445971489 0.001172945136204362 -0.004008997231721878 -0.0023524395655840635 0.00916317943483591 1.3635643699672073E-4 0.005348970647901297 -0.003364137839525938 0.008829411119222641 2.2034560970496386E-4 0.010484806261956692
http://dbpedia.org/class/yago/WikicatAncientGreekPhilosophers -0.001415435690432787 0.0061461166478693485 2.3102563864085823E-4 -9.631093707866967E-4 6.148102693259716E-4 -0.004575417377054691 2.0416744519025087E-4 -0.0068923733197152615 -0.0012414538068696856 -5.460601532831788E-4 -0.006097850389778614 -0.002375033451244235 -7.038823678158224E-4 0.003788085887208581 6.597781903110445E-4 -0.0012814328074455261 -0.005797662306576967 -0.0022853738628327847 0.002797377062961459 -0.006303057074546814 0.004128375090658665 -3.5932016908191144E-4 -9.221484651789069E-4 -8.76764883287251E-4 -0.0028148789424449205 0.00582245085388422 0.007603099104017019 -0.002482582814991474 0.00668923556804657 0.005941054783761501 -9.125159122049809E-4 0.00190446013584733 -0.0044008842669427395 0.0021177977323532104 -0.0026305783540010452 0.0034783422015607357 0.0031513951253145933 0.0013525880640372634 0.006714774761348963 0.00602839095517993 0.004754824098199606 -0.0017657617572695017 -0.0012746300781145692 0.0020838105119764805 0.0017415250185877085 0.0031118234619498253 0.002798830159008503 0.0013554366305470467 7.072290172800422E-4 0.0015698152128607035 0.002037997357547283 0.0021029410418123007 -0.0016049867263063788 0.0011230959789827466 -2.568747440818697E-4 0.004268554504960775 0.0016373813850805163 -0.0027948857750743628 -0.005496535450220108 -0.008100648410618305 -0.006932510994374752 0.004694603383541107 4.496306355576962E-4 0.002173607936128974 2.9417924815788865E-4 -0.0030820458196103573 -0.005966012366116047 0.001403040369041264 -0.0016016901936382055 0.0013160926755517721 0.0029425828251987696 0.007050147280097008 -2.991969231516123E-4 -0.0011962039861828089 0.004173871595412493 0.0025574706960469484 -0.005372481420636177 -0.007212940137833357 0.003543419763445854 0.002102368976920843 4.5254560973262414E-5 -0.0014122226275503635 0.0038050978910177946 6.215390749275684E-4 0.001782707986421883 -0.0024010716006159782 -0.002837281906977296 -0.0035185522865504026 -0.003114323830232024 -0.002967031905427575 -0.006339144427329302 0.006607127375900745 0.006565444637089968 -0.004154442809522152 -0.002366982866078615 -0.0032330441754311323 -0.0032871831208467484 -1.1708339297911152E-4 6.408484186977148E-4 -0.0032078325748443604
