433 100 10000
http://dbpedia.org/resource/Diogenes 1.0353047400712967E-5 -0.0027083209715783596 -0.0015961563913151622 0.006405034102499485 -0.004121460951864719 -0.005416627041995525 -0.007542462553828955 -0.0016913004219532013 -0.011665239930152893 -0.01703079603612423 -0.0069592976942658424 0.005333071108907461 -0.013925737701356411 -0.016866229474544525 -0.0028788065537810326 -0.017637934535741806 0.022864529862999916 0.002039857441559434 -0.01699293963611126 0.0027321195229887962 -1.5534093836322427E-4 0.008620896376669407 -0.0035688753705471754 -0.0046453215181827545 -0.005030748900026083 0.0010821837931871414 -0.00454640993848443 -0.010707796551287174 0.012764181941747665 0.011961935088038445 -0.001678143278695643 -0.011068927124142647 -0.0026353064458817244 0.01035898458212614 -0.009852946735918522 0.007690051570534706 -0.004409411456435919 -0.00618678517639637 0.005884813144803047 0.011668790131807327 0.005540352780371904 -0.005923818796873093 0.029390789568424225 0.0043616583570837975 0.0064796507358551025 -0.0190749391913414 0.008971950970590115 -0.02358618564903736 -0.012348491698503494 -0.016222842037677765 -0.01362717617303133 0.012853224761784077 0.00898836087435484 -0.007956156507134438 -0.0011785313254222274 0.0031417394056916237 -0.008929925970733166 -0.02705693058669567 0.0014263973571360111 -7.299802382476628E-4 -0.005836795549839735 -0.01104652974754572 0.005392096471041441 -0.02143319696187973 0.020381800830364227 0.038702961057424545 -0.021020444110035896 -0.016342036426067352 -0.026165295392274857 -0.02671155519783497 0.0051422808319330215 -0.003129264572635293 0.009152696467936039 -0.013384009711444378 -0.015395899303257465 0.026726754382252693 0.009220639243721962 -0.024990878999233246 0.013080891221761703 -0.0017723905621096492 0.004654123447835445 -0.007626523729413748 -3.526459913700819E-4 -0.01217892300337553 -0.00812478270381689 0.0027293090242892504 0.0035860042553395033 0.0034067174419760704 0.01552243810147047 0.007578329648822546 -0.0051638539880514145 0.007806791458278894 -0.02784816361963749 0.014877036213874817 -0.006495533976703882 -0.011467195115983486 -0.01986735127866268 0.008400816470384598 0.003410727484151721 0.011155874468386173
http://ru.dbpedia.org/resource/??????? 0.01567712612450123 -0.0016731207724660635 -0.023831412196159363 -0.009356219321489334 -0.02464170940220356 -0.03582203388214111 -0.08969386667013168 -4.185340367257595E-5 -0.020439723506569862 -0.05513012036681175 -0.02754378132522106 -0.029672931879758835 -0.04361242428421974 -0.029509752988815308 0.03615506738424301 -0.05876857414841652 0.022307444363832474 0.0033830655738711357 0.009875988587737083 -0.021591009572148323 -0.021080775186419487 0.05680481716990471 0.008382732979953289 -0.04049556702375412 0.003217852208763361 0.017163284122943878 -0.024392472580075264 -0.018792640417814255 0.02594817243516445 0.04546096920967102 -0.013103045523166656 -0.04080412536859512 -0.03401140496134758 0.022565271705389023 0.02771870419383049 0.0345454216003418 0.03724495694041252 -0.01757759042084217 -0.009058655239641666 -9.525322820991278E-5 0.019660167396068573 -0.0052388692274689674 0.05601791664958 -0.004671902395784855 0.040882471948862076 -0.0418124757707119 0.01961575075984001 -0.0800534263253212 -0.060199443250894547 -0.02186538092792034 -0.024230020120739937 0.024425115436315536 0.01929425075650215 -0.0572345070540905 -0.022991841658949852 -0.013866332359611988 -0.020938681438565254 -0.04789714142680168 -0.013290274888277054 -0.011254385113716125 -0.006329208146780729 -0.008630234748125076 -0.010956290178000927 -0.06604810059070587 0.044787485152482986 0.0777808278799057 -0.07767384499311447 0.009864691644906998 -0.023224428296089172 -0.0875924825668335 -0.04456327483057976 0.0013946641702204943 0.001425576745532453 -0.042451173067092896 -0.008739344775676727 -0.01817476376891136 -0.0046429093927145 0.01313935685902834 0.037724804133176804 -0.023077649995684624 0.04503805190324783 0.0032203684095293283 -0.017169654369354248 -0.008890913799405098 0.015992794185876846 0.02688363939523697 0.021268406882882118 0.047511518001556396 0.0027626827359199524 0.017010398209095 0.012107769027352333 -1.7965573351830244E-4 -0.06579693406820297 0.03160184249281883 -0.0134251918643713 -0.02428077533841133 -0.05224258452653885 0.03006838448345661 0.01227984856814146 0.017754876986145973
http://dbpedia.org/resource/Hipparchia_of_Maroneia 0.07549647986888885 0.002534423489123583 -0.03373599797487259 0.042032234370708466 -0.0655062347650528 -0.09879310429096222 -0.21154849231243134 -0.02072925865650177 -0.07447285950183868 -0.1508965790271759 -0.06985872238874435 -0.06185285001993179 -0.09955063462257385 -0.08771242946386337 0.07715080678462982 -0.16354556381702423 0.08363061398267746 0.02349666692316532 -0.021673819050192833 -0.051300328224897385 -0.06615493446588516 0.1372380256652832 0.022168174386024475 -0.08973117172718048 -0.03930424898862839 0.009347210638225079 -0.049158208072185516 -0.06775042414665222 0.10650251805782318 0.12074234336614609 -0.052302487194538116 -0.11905597150325775 -0.05088158696889877 0.09989503771066666 -0.028697900474071503 0.05792289972305298 0.022243285551667213 -0.05316435545682907 0.04698560759425163 0.050632745027542114 0.03606510907411575 -0.01818959042429924 0.21689164638519287 0.03224416822195053 0.11162737011909485 -0.1199205070734024 0.0804748609662056 -0.22382226586341858 -0.1395571529865265 -0.12262576073408127 -0.1024739146232605 0.095323845744133 0.05402858927845955 -0.10990367084741592 -0.03539688140153885 -0.02592129074037075 -0.05197218060493469 -0.17883895337581635 -0.00795839261263609 -3.053428663406521E-4 -0.030798355117440224 -0.06871228665113449 -0.009188846684992313 -0.20683634281158447 0.16578088700771332 0.2707161605358124 -0.21617069840431213 -0.053459133952856064 -0.1547744870185852 -0.23184309899806976 -0.07274747639894485 -0.022955767810344696 0.027219276875257492 -0.09607073664665222 -0.06028634309768677 0.07114739716053009 0.038199085742235184 -0.07648736983537674 0.11082884669303894 -0.058125391602516174 0.09885590523481369 0.001737171784043312 -0.02806905284523964 -0.04155329614877701 -0.025788309052586555 0.051685214042663574 0.05573759600520134 0.09495546668767929 0.06332037597894669 0.07601408660411835 -0.03381774201989174 0.021592959761619568 -0.2073056995868683 0.07122403383255005 -0.03352988511323929 -0.07091204077005386 -0.17768685519695282 0.10493015497922897 -0.008886249735951424 0.10336795449256897
http://dbpedia.org/ontology/mainInterest -0.03450026363134384 -0.020582886412739754 -0.0026782893110066652 -0.04898243397474289 0.03448881953954697 0.0168070700019598 -0.013876254670321941 -0.016813915222883224 -0.04968694597482681 -0.036142926663160324 -0.04116085171699524 0.01688898541033268 -0.033360738307237625 -0.04471299797296524 -0.042370181530714035 -0.01092340424656868 0.06532216817140579 0.0024151280522346497 -0.052510954439640045 0.01380090694874525 0.030842971056699753 0.012666067108511925 -0.07287293672561646 -0.018290366977453232 0.05105507746338844 0.03392156958580017 -0.007324622478336096 0.0014621381415054202 -0.034301791340112686 0.03446762636303902 0.007334079127758741 6.362942513078451E-4 -0.05175299197435379 -0.012328323908150196 0.0923180803656578 0.03562154620885849 0.057702429592609406 -0.005970422178506851 -0.033147182315588 -0.0205711480230093 0.0044473763555288315 -0.01949157565832138 -0.03097659908235073 -0.012207348830997944 0.0210223738104105 -0.010602599009871483 0.006176119204610586 -0.02848818339407444 -0.04459942877292633 0.023505255579948425 0.004804217256605625 -4.0246325079351664E-4 0.002448681741952896 -0.054784297943115234 -0.015593809075653553 -0.02016553096473217 -0.017900440841913223 -0.014272864907979965 -0.015675252303481102 -0.03697677329182625 -7.693792576901615E-5 0.03829312324523926 0.00861047301441431 -0.030655130743980408 0.015053104609251022 0.03277265280485153 -0.05357398837804794 0.035983070731163025 0.025998493656516075 -0.0648011639714241 -0.02245154231786728 -0.007592519745230675 0.008125507272779942 -0.04691961407661438 -0.007021705619990826 -0.057761430740356445 0.020030567422509193 0.05568471550941467 0.022626839578151703 -0.014858104288578033 0.06919227540493011 -0.0069228122010827065 -0.020756466314196587 -0.00534772640094161 0.05648445710539818 0.024727683514356613 -2.413601614534855E-4 0.05595327913761139 -0.03609469160437584 -0.029734302312135696 0.07329356670379639 -0.005324750207364559 -0.016673864796757698 0.06010571867227554 0.006134350784122944 -0.007243421860039234 -0.012358717620372772 0.008621219545602798 0.050285376608371735 -0.029813893139362335
http://dbpedia.org/resource/Nicomachus_(son_of_Aristotle) -0.004193530883640051 0.01317492127418518 0.005393746308982372 0.012527765706181526 -0.007335187867283821 0.006119477096945047 0.030554737895727158 0.01600983925163746 0.03680240735411644 0.04194199666380882 0.02595307119190693 0.011580217629671097 0.02816350944340229 0.04694942757487297 0.010115000419318676 0.0411095954477787 -0.06353829056024551 -0.008102205581963062 0.05078323185443878 -0.003799538128077984 -0.0024191848933696747 -0.03096441552042961 0.034357305616140366 0.018366433680057526 -0.00939970277249813 -0.013153431005775928 0.006106892134994268 0.00956008955836296 -0.0112179946154356 -0.02201099880039692 0.005647196434438229 0.023887427523732185 0.025575067847967148 -0.02589549869298935 -0.0229487344622612 -0.026460355147719383 -0.017331138253211975 0.02335144765675068 -0.010940643958747387 -0.0014927623560652137 -0.0035569947212934494 0.006364388857036829 -0.03817455843091011 -3.6412751069292426E-4 -0.015575670637190342 0.03793299198150635 -0.03015531785786152 0.08845575153827667 0.04958345741033554 0.032102320343256 0.04314827173948288 -0.027672026306390762 -0.00983742531388998 0.022771328687667847 0.015568130649626255 0.015220955945551395 0.01802249439060688 0.05922313034534454 0.012889623641967773 0.0034542386420071125 -0.0014341671485453844 0.01469542644917965 -0.00839372631162405 0.07448837161064148 -0.051497988402843475 -0.09813350439071655 0.06888996809720993 0.017518896609544754 0.04228195920586586 0.08724937587976456 0.004745615180581808 0.013114958070218563 -0.030288254842162132 0.04284416884183884 0.030877791345119476 -0.007498534396290779 -0.0191904716193676 0.008313656784594059 -0.032754912972450256 0.012638473883271217 -0.035936880856752396 0.005938670132309198 0.010865924879908562 0.018821630626916885 -0.006524926982820034 -0.018963230773806572 -0.008925676345825195 -0.030088745057582855 -0.00527983671054244 -0.003826284548267722 -0.016115933656692505 -0.003624068107455969 0.050055112689733505 -0.0338987372815609 0.013678166083991528 0.027219757437705994 0.034399718046188354 -0.016440799459815025 -0.024050308391451836 -0.010524438694119453
http://dbpedia.org/resource/Photios_I_of_Constantinople -4.0107915992848575E-4 -0.009589328430593014 0.010865675285458565 -0.012512038461863995 0.006032141391187906 -0.006505902856588364 -0.014316580258309841 0.0016861907206475735 -0.008902611210942268 -0.013025045394897461 -0.005650598555803299 -0.004852765239775181 -0.009162647649645805 -0.009192701429128647 -2.5475339498370886E-5 -0.008663545362651348 0.013857090845704079 -0.0021946311462670565 -0.009571464732289314 -7.466623792424798E-4 0.008959797210991383 0.01259605772793293 -0.021192243322730064 -4.8777059419080615E-4 0.0022273787762969732 0.011496126651763916 -0.002477502916008234 0.004754647146910429 0.0015664378879591823 0.006574245635420084 -0.0010601258836686611 -0.00899989902973175 -0.004422249738126993 0.003526106709614396 0.01293339766561985 0.012681936845183372 0.012775122188031673 -0.0056404126808047295 -0.0031815068796277046 0.00153560028411448 -7.333500543609262E-4 -0.003796090604737401 0.010945395566523075 -0.0018542562611401081 0.0050849514082074165 -0.011426049284636974 0.01217823475599289 -0.025464678183197975 -0.0193271953612566 -0.0074538784101605415 -0.008684937842190266 0.005905240774154663 0.004532190505415201 -0.004782659932971001 -0.005421863868832588 -0.01107950508594513 -0.0029512853361666203 -0.01662667654454708 -0.00257176929153502 0.0028743958100676537 0.0028169755823910236 0.004551897291094065 -3.350108818267472E-5 -0.02347455359995365 0.01687677949666977 0.030689699575304985 -0.017689716070890427 6.564684445038438E-4 -0.0015490858349949121 -0.02221493050456047 -0.005198958329856396 0.0013365527847781777 0.010688877664506435 -0.015356089919805527 -0.008119580335915089 -0.006827293895184994 0.012641462497413158 -0.0012486341875046492 0.01355723012238741 0.0022802678868174553 0.013951422646641731 -0.0017085615545511246 -0.003659909125417471 -0.009193720296025276 0.010505222715437412 0.0039320639334619045 -0.004320914391428232 0.010851540602743626 -0.001336146262474358 0.001973001519218087 0.012836668640375137 -0.001285662641748786 -0.010869534686207771 0.008291898295283318 -0.003252123948186636 -0.00659246277064085 -0.013025114312767982 -0.0026194287929683924 0.0035423822700977325 0.0024757778737694025
http://dbpedia.org/resource/Category:Roman-era_philosophers_in_Athens 0.0029945080168545246 -0.0023425084073096514 -3.1366816256195307E-4 -0.01106028538197279 -0.0032712582033127546 -0.011826256290078163 -0.027087965980172157 0.003543943166732788 -0.0067954701371490955 -0.010209182277321815 -0.012989210896193981 -0.011117478832602501 -0.014239907264709473 -0.0027361984830349684 0.004264867398887873 -0.01999889686703682 0.011710903607308865 -0.002371516777202487 -0.0014652488753199577 -2.0601773576345295E-4 -4.052494768984616E-4 0.017041737213730812 -0.016096310690045357 -0.0013286052271723747 -0.006974976044148207 0.011218118481338024 -0.0012648956617340446 0.001576596754603088 0.01253451593220234 0.008143960498273373 -0.005691865924745798 -0.012459748424589634 -0.008253282867372036 0.011611261405050755 0.007392784580588341 0.008584288880228996 0.016171911731362343 -0.002068242523819208 0.005164893344044685 -2.9747126973234117E-4 0.010181870311498642 -0.0010833548149093986 0.021420380100607872 -6.73105358146131E-4 0.006748540326952934 -0.007291846442967653 0.008398047648370266 -0.03042476251721382 -0.01738959550857544 -0.012950167991220951 -0.011559219099581242 0.004499981179833412 0.010806535370647907 -0.012612942606210709 -0.002857210347428918 -0.007015890907496214 -0.005238004960119724 -0.02377094328403473 -0.005260664038360119 -0.004848342388868332 -0.0032124805729836226 -0.001914791762828827 0.0014858159702271223 -0.02679459936916828 0.021222621202468872 0.033584754914045334 -0.02289985679090023 0.002511474071070552 -0.007752285338938236 -0.03238360956311226 -0.005716376006603241 -6.523232441395521E-4 0.0027042522560805082 -0.011039456352591515 -0.0073378244414925575 -0.00666753901168704 0.006259526591747999 -0.0015670889988541603 0.012251273728907108 -0.007387932855635881 0.018285585567355156 -0.006008012220263481 -0.001101417001336813 -0.006275212857872248 -0.0027511054649949074 0.01109503023326397 3.990448312833905E-4 0.010624180547893047 0.0015293511096388102 0.004930182360112667 0.006279625464230776 0.006219165399670601 -0.017359254881739616 0.013700056821107864 -0.008648461662232876 -0.008982069790363312 -0.013358999975025654 0.0040562814101576805 0.007853858172893524 0.008093306794762611
http://dbpedia.org/resource/Sicily 0.006563057191669941 -0.015278938226401806 0.019745221361517906 9.361671982333064E-5 -0.001873151632025838 -0.0060546426102519035 -0.035482876002788544 0.006847951095551252 -0.01669534109532833 -0.026111403480172157 -0.0047616674564778805 -0.007795359008014202 -0.02484908513724804 -0.023221760988235474 -0.003921785391867161 -0.01548750326037407 0.039793312549591064 -0.004535435698926449 -0.02721540629863739 0.003933119121938944 0.009706065990030766 0.02642088569700718 -0.04078838229179382 -0.00708495918661356 7.336359703913331E-4 0.01373427826911211 -0.0019591052550822496 0.0030771188903599977 0.015275861136615276 0.0045834071934223175 -0.004936181474477053 -0.01835937611758709 -0.0022991616278886795 0.022767337039113045 0.021230464801192284 0.01838431879878044 0.009801089763641357 -0.016917487606406212 0.012297405861318111 0.0034913800191134214 -0.002575041027739644 -0.0029254527762532234 0.033874813467264175 0.007576198782771826 0.004394651856273413 -0.02689085341989994 0.024082988500595093 -0.05764853209257126 -0.02410094253718853 -0.02570364437997341 -0.03737446293234825 0.019630873575806618 0.00408106530085206 -0.01087993010878563 -0.004089469090104103 -0.017993008717894554 -0.009541424922645092 -0.042165692895650864 -0.006378690712153912 0.0054956055246293545 -0.005048607941716909 -0.00893041305243969 0.004743518773466349 -0.06845111399888992 0.03150125592947006 0.08070337772369385 -0.04531877487897873 -0.019435245543718338 -0.025432487949728966 -0.06027331203222275 0.00953806471079588 -0.015551636926829815 0.029660459607839584 -0.019655579701066017 -0.026293640956282616 0.004827468656003475 0.03513925522565842 -0.0027642976492643356 0.03210306540131569 -0.010315841995179653 0.028965478762984276 -0.014506152831017971 -9.386143065057695E-4 -0.018485436215996742 0.007111372426152229 0.020209409296512604 -0.007965712808072567 0.01769031584262848 0.006610417272895575 0.00611462164670229 0.008917509578168392 0.010589633136987686 -0.04897560179233551 0.02537365071475506 -0.020735178142786026 -0.021434171125292778 -0.027423668652772903 0.006716099102050066 0.009441408328711987 -5.57761755771935E-4
http://dbpedia.org/resource/Friedrich_Nietzsche -0.005812178365886211 -0.006307080388069153 0.006371632684022188 -0.02711603045463562 0.009480788372457027 0.0054054902866482735 -0.011526387184858322 0.0014541707932949066 -0.01703273318707943 -0.017037222161889076 -0.023617446422576904 0.006840006913989782 -0.009713124483823776 -0.019725974649190903 -0.01753760688006878 -0.0070084878243505955 0.03215703368186951 -0.0037141635548323393 -0.027183257043361664 0.0020001083612442017 0.012504196725785732 0.012318849563598633 -0.03163449093699455 -0.00657060369849205 0.013683183118700981 0.014776723459362984 -0.006119763478636742 0.005747862625867128 -0.0037693555932492018 0.009012799710035324 0.001587555860169232 -0.003133689519017935 -0.017802894115447998 -0.00389504455961287 0.04075109586119652 0.013551455922424793 0.029412727802991867 -0.005667914170771837 -0.007277551107108593 -0.011046634055674076 0.005510569084435701 -0.012683035805821419 -0.009635815396904945 -0.007861719466745853 0.00739619554951787 -0.009047784842550755 0.012773311696946621 -0.02566017396748066 -0.023158999159932137 0.008547032251954079 -0.0039481413550674915 0.0029385494999587536 0.006778090726584196 -0.02130269631743431 -0.00347927026450634 -0.011860042810440063 -0.01050595659762621 -0.012466242536902428 -0.011949574574828148 -0.012863842770457268 -0.006126358639448881 0.014647047966718674 0.001326617319136858 -0.025586606934666634 0.01658695936203003 0.023596152663230896 -0.032692715525627136 0.008433977141976357 0.008115999400615692 -0.03355040028691292 -0.006185814738273621 -9.716872591525316E-4 0.004544596187770367 -0.01687261275947094 -0.007839029654860497 -0.02089698053896427 0.010932465083897114 0.01652177795767784 0.008633781224489212 -0.008666661567986012 0.03124786540865898 -0.008263221941888332 -0.004635222256183624 -0.003082385752350092 0.02540852501988411 0.018051376566290855 -0.002690055640414357 0.022755635902285576 -0.008996879681944847 -0.012362136505544186 0.024834565818309784 -0.0020470372401177883 -0.013316129334270954 0.02351817861199379 -0.003604755038395524 -0.010686676949262619 -0.011606104671955109 0.006519787944853306 0.019489003345370293 -0.009024183265864849
http://dbpedia.org/resource/Proclus 0.02768750861287117 -0.036834586411714554 -0.05526680126786232 -0.12013116478919983 -0.0439014695584774 -0.11408951133489609 -0.3090783953666687 0.002134932903572917 -0.07550480961799622 -0.16986285150051117 -0.09330593049526215 -0.08609937876462936 -0.14284688234329224 -0.08572553098201752 0.06288118660449982 -0.15532293915748596 0.05931147187948227 0.016342364251613617 0.041828084737062454 -0.07399900257587433 -0.006973944138735533 0.18735507130622864 -0.045178722590208054 -0.11628011614084244 0.040232863277196884 0.13112185895442963 -0.06239130347967148 -0.04786907881498337 0.004944236949086189 0.14967769384384155 -0.016817519441246986 -0.1363019496202469 -0.17454533278942108 0.05354681238532066 0.21209272742271423 0.1427774727344513 0.2338263988494873 -0.02660991996526718 -0.06936276704072952 -0.041286639869213104 0.06921562552452087 -0.03441283479332924 0.08142057061195374 -0.06269501894712448 0.14192478358745575 -0.11655627936124802 0.06535079330205917 -0.23906803131103516 -0.2542823255062103 -0.002526083728298545 -0.04734142869710922 0.03650282695889473 0.06549490243196487 -0.22566108405590057 -0.09227089583873749 -0.09436395764350891 -0.08173397183418274 -0.13788706064224243 -0.07752429693937302 -0.06782054901123047 -0.02572154626250267 0.04955519363284111 -0.026094965636730194 -0.22824297845363617 0.12337854504585266 0.1919509917497635 -0.26308301091194153 0.13771656155586243 0.02221936546266079 -0.2840966284275055 -0.19629345834255219 -0.0013546660775318742 -0.021399563178420067 -0.1708705723285675 0.010198960080742836 -0.19202616810798645 -0.03420085087418556 0.18004128336906433 0.11003094911575317 -0.06055134907364845 0.20629838109016418 0.011552161537110806 -0.09181156754493713 0.0020248605869710445 0.17537634074687958 0.11288533359766006 0.06468988955020905 0.22939462959766388 -0.05984434857964516 -0.020550014451146126 0.11903651803731918 -0.007108562625944614 -0.16764147579669952 0.14866483211517334 -0.034819502383470535 -0.07284531742334366 -0.15527376532554626 0.09897269308567047 0.09705464541912079 -0.012367426417768002
http://dbpedia.org/resource/Mathematics 0.01324562355875969 -0.005055797751992941 -9.517745929770172E-4 -0.007375982590019703 -0.010813948698341846 -0.020093906670808792 -0.06741518527269363 -0.008017807267606258 -0.03928773105144501 -0.04522492364048958 -0.02999168261885643 -0.014111354015767574 -0.035271644592285156 -0.023307399824261665 0.015741195529699326 -0.05161716043949127 0.0352831706404686 -0.002128917956724763 -0.021473988890647888 -0.011168614961206913 -0.0023166113533079624 0.03950785472989082 -0.02848932147026062 -0.025187738239765167 -1.9739102572202682E-4 0.01482202485203743 -0.018223365768790245 -0.007208751514554024 0.03146466612815857 0.035330869257450104 -0.0200448390096426 -0.03547519072890282 -0.01990588568150997 0.02223646268248558 0.005972566548734903 0.024849161505699158 0.03242397680878639 -0.010303208604454994 0.015642812475562096 0.00931284949183464 0.013284864835441113 -0.005427671130746603 0.058160118758678436 0.006641652435064316 0.019930819049477577 -0.04102179780602455 0.031064331531524658 -0.08023140579462051 -0.05064459145069122 -0.03292185440659523 -0.029369836673140526 0.03318597003817558 0.01743837259709835 -0.03723344951868057 -0.010807357728481293 -0.019457576796412468 -0.027828199788928032 -0.06909380108118057 -0.010371338576078415 -0.0036502848379313946 -0.005218930076807737 -0.006062311120331287 0.002793288556858897 -0.07389842718839645 0.054075565189123154 0.08711319416761398 -0.08356200158596039 -0.007260140962898731 -0.043188150972127914 -0.09060011059045792 -0.02504553645849228 -0.009324966929852962 0.01666421629488468 -0.040707338601350784 -0.014753013849258423 0.00688621960580349 0.015262632630765438 -0.008224094286561012 0.03465107083320618 -0.016754990443587303 0.04306413233280182 -0.013220912776887417 -0.0056389616802334785 -0.019525926560163498 -2.8880382888019085E-4 0.018401632085442543 0.01392925251275301 0.03719799593091011 0.014108428731560707 0.01738336868584156 0.004264265764504671 0.009235436096787453 -0.06651251018047333 0.035058509558439255 -0.010339925065636635 -0.03157702088356018 -0.04610537365078926 0.027225380763411522 0.017967432737350464 0.016767332330346107
http://dbpedia.org/resource/Michel_de_Montaigne 0.002190773840993643 -0.024385254830121994 0.029469400644302368 -0.023252073675394058 0.004669731017202139 -0.008320529013872147 -0.04948534071445465 0.017535366117954254 -0.022546205669641495 -0.028118260204792023 -0.01296108029782772 -0.0075453659519553185 -0.032363925129175186 -0.017283467575907707 -0.0017774051520973444 -0.022248730063438416 0.04914887994527817 -0.01016407459974289 -0.027136102318763733 -0.001666171126998961 0.023494523018598557 0.032613396644592285 -0.0650857537984848 -0.0036431094631552696 0.002631711307913065 0.0363822802901268 -9.837052784860134E-4 0.004502851981669664 0.005666382610797882 0.009791867807507515 -0.00133636430837214 -0.027384575456380844 -0.01302928477525711 0.021881762892007828 0.03923448547720909 0.030644318088889122 0.023449944332242012 -0.015153751708567142 0.008993799798190594 -5.971267819404602E-4 0.0075426469556987286 -0.005283168517053127 0.01987040415406227 8.332838770002127E-4 0.00857449322938919 -0.024270074442029 0.0312984362244606 -0.07419554144144058 -0.04163004830479622 -0.01562543213367462 -0.03077256679534912 0.020337220281362534 0.011053101159632206 -0.013228844851255417 -0.006572987884283066 -0.022665197029709816 -0.01980671100318432 -0.05780274048447609 -0.024215346202254295 6.441341247409582E-4 -0.00397029984742403 0.0023825604002922773 0.0011871203314512968 -0.08220666646957397 0.03937940299510956 0.08956160396337509 -0.05967056751251221 -0.006557396613061428 -0.019232280552387238 -0.07991994917392731 0.006291978061199188 -0.016583729535341263 0.03399471566081047 -0.0314321331679821 -0.01890040561556816 -0.011830834671854973 0.049791932106018066 0.01210010051727295 0.03394284471869469 -0.003492913208901882 0.040921829640865326 -0.016625620424747467 9.408643236383796E-4 -0.02782185561954975 0.01562817580997944 0.02509385161101818 -0.008429065346717834 0.023857861757278442 3.098412125837058E-4 -0.007199757266789675 0.029494784772396088 0.010979109443724155 -0.05994398146867752 0.031061794608831406 -0.018257316201925278 -0.032505929470062256 -0.02386201173067093 8.011398022063076E-4 0.022819897159934044 -0.005737285129725933
http://www.wikidata.org/entity/Q24229398 -0.06165988743305206 0.01558705698698759 -0.02164895460009575 -0.02472224272787571 0.04134491831064224 0.06146003305912018 0.15127426385879517 -0.03472676873207092 0.01250641979277134 0.05471697449684143 -0.0012627707328647375 0.051512300968170166 0.06058024615049362 0.02008640579879284 -0.06454513967037201 0.07900147885084152 -0.03699915111064911 0.02659531496465206 -0.009447753429412842 0.03113645501434803 0.011436255648732185 -0.10435587167739868 0.030681725591421127 0.03783459961414337 0.051932115107774734 -0.03407777100801468 0.02441120147705078 0.014417014084756374 -0.08146917074918747 -0.01496292557567358 0.021875333040952682 0.09193342179059982 -0.00442581856623292 -0.09484867006540298 0.014128296636044979 -0.028011610731482506 0.004153023939579725 0.03538479283452034 -0.0582103356719017 -0.024145524948835373 -0.012630372308194637 -0.0022792734671384096 -0.13522058725357056 -0.007225826848298311 -0.022770298644900322 0.07970818132162094 -0.06371144950389862 0.17929396033287048 0.07924129068851471 0.09233084321022034 0.10607414692640305 -0.06886128336191177 -0.026079319417476654 0.008912290446460247 0.01846555806696415 0.023405950516462326 0.03317568823695183 0.12768764793872833 0.02150026150047779 -0.048699893057346344 0.008976086974143982 0.06656065583229065 -0.0023445840924978256 0.16663062572479248 -0.10097897797822952 -0.20395272970199585 0.11497679352760315 0.05691616237163544 0.1082482784986496 0.1599884033203125 -0.003923929296433926 0.020586397498846054 -0.07150699943304062 0.04262121766805649 0.054555103182792664 -0.04706700146198273 -0.06252528727054596 0.045879315584897995 -0.07490809261798859 0.012805929407477379 -0.044209860265254974 0.017578236758708954 -0.0023860610090196133 0.049703918397426605 0.029379574581980705 -0.03567365184426308 7.038580952212214E-5 -0.023657754063606262 -0.048353973776102066 -0.03827352449297905 0.027698466554284096 -0.02788911946117878 0.14515036344528198 -0.02162630669772625 0.05132453143596649 0.0636667013168335 0.07988492399454117 -0.020858287811279297 0.01135941967368126 -0.04155360162258148
, 0.3614681661128998 -0.008634895086288452 0.1480432152748108 -0.024049360305070877 -0.45136046409606934 -0.4986993968486786 -1.010924220085144 0.6300773620605469 0.4227500557899475 0.2110072523355484 0.21859203279018402 -0.45454904437065125 -0.03413430601358414 0.6670432686805725 0.5559272170066833 0.06770268827676773 -0.8329423666000366 -0.29234579205513 1.0566836595535278 -0.5486476421356201 -0.06495833396911621 0.4280335009098053 0.18257617950439453 0.06095663458108902 -0.4234294891357422 0.257326602935791 -0.09618960320949554 0.07459992170333862 0.15633216500282288 -0.035163864493370056 -0.08880266547203064 -0.26048874855041504 -0.0030097130220383406 0.0615924708545208 -0.12767180800437927 0.008440496399998665 0.30099162459373474 0.27262771129608154 -0.11458335816860199 -0.08658616989850998 0.2209158092737198 0.08813422918319702 0.14802339673042297 -0.22462637722492218 0.131151482462883 0.03353732451796532 -0.01491736713796854 0.0591571144759655 -0.2282121330499649 0.09021814167499542 0.2161007672548294 -0.17071019113063812 0.0720532163977623 -0.19026121497154236 -0.08631043881177902 -0.11497224867343903 -0.08926323056221008 0.0341104157269001 -0.11723128706216812 0.02415596880018711 -0.0674491673707962 0.18643131852149963 -0.13033278286457062 -0.05964885279536247 -0.0060225920751690865 -0.39015454053878784 -0.09762922674417496 0.2861248254776001 0.3762941360473633 0.06446561962366104 -0.40470778942108154 0.12289174646139145 -0.2551194727420807 0.10435586422681808 0.40293270349502563 -0.5181043744087219 -0.2420438528060913 0.40403464436531067 -0.09756603837013245 0.09147005528211594 0.1304905116558075 -0.06864005327224731 -0.09452681243419647 0.14112761616706848 0.10650613903999329 -6.481723394244909E-4 0.01640428602695465 0.1434112787246704 -0.03585054352879524 0.13512775301933289 -0.06353608518838882 0.11480221152305603 -0.12102578580379486 -0.30668121576309204 -0.1825658082962036 -0.16427835822105408 -0.15656162798404694 0.038248516619205475 -0.23522703349590302 0.027066949754953384
http://dbpedia.org/resource/Eusebius 0.010777434334158897 -0.02230413630604744 0.02472817152738571 -0.008078334853053093 0.006570860743522644 -0.006512463092803955 -0.04697394371032715 0.006383677013218403 -0.02531159296631813 -0.024478407576680183 -0.01102115586400032 -0.005458366125822067 -0.02898447774350643 -0.01702686958014965 0.005638078786432743 -0.02349117025732994 0.04127202183008194 -0.014149932190775871 -0.025796983391046524 -0.0013475159648805857 0.010729009285569191 0.031557925045490265 -0.042422764003276825 -0.0072451247833669186 -0.004968238528817892 0.016554605215787888 -0.002074756193906069 -0.002562727313488722 0.020839804783463478 0.013501239940524101 -0.011915705166757107 -0.024641800671815872 -0.0041666179895401 0.03298146650195122 0.01571904867887497 0.018279576674103737 0.008299265056848526 -0.021573947742581367 0.021435009315609932 0.00837919395416975 4.552960454020649E-4 -6.443851161748171E-4 0.044371820986270905 0.007025616709142923 0.003244070801883936 -0.03235287219285965 0.026631182059645653 -0.07233569025993347 -0.03537357598543167 -0.025879958644509315 -0.037173863500356674 0.029069475829601288 0.0130845932289958 -0.007742563262581825 -0.010564046911895275 -0.01354148332029581 -0.019029049202799797 -0.061558619141578674 -0.01735570654273033 0.003533282084390521 -0.003303241217508912 -0.009837190620601177 0.00855657272040844 -0.07479771226644516 0.04378684237599373 0.09713307023048401 -0.05643385648727417 -0.026399699971079826 -0.038579173386096954 -0.08270293474197388 0.012139546684920788 -0.01668427884578705 0.040034014731645584 -0.03175840526819229 -0.0258575938642025 0.012771079316735268 0.04859801009297371 -0.015452001243829727 0.03509240597486496 -0.007141930982470512 0.033681463450193405 -0.019213832914829254 0.004761919379234314 -0.029160790145397186 0.001568702980875969 0.015151151455938816 7.184254936873913E-4 0.012484597973525524 0.012795142829418182 0.0028180028311908245 0.014434924349188805 0.012573236599564552 -0.06423661857843399 0.022418182343244553 -0.02073456160724163 -0.025923138484358788 -0.03395778313279152 0.010835947468876839 0.012348365969955921 0.004750155843794346
http://dbpedia.org/class/yago/WikicatHellenistic-eraPhilosophers -0.032729607075452805 0.015566793270409107 -0.005173437297344208 0.007611771579831839 0.02079145424067974 0.03865853697061539 0.11300540715456009 -0.01192247960716486 0.02497437782585621 0.06332571059465408 0.019282538443803787 0.036238379776477814 0.0532769076526165 0.03740507736802101 -0.03831424191594124 0.0765598863363266 -0.055331844836473465 6.504006450995803E-4 0.017503127455711365 0.014935334213078022 0.005588393192738295 -0.07588516920804977 0.0318911112844944 0.03271869197487831 0.021892249584197998 -0.032981026917696 0.018533751368522644 0.013977748341858387 -0.060730550438165665 -0.02937515825033188 0.015011932700872421 0.06924290955066681 0.01769021898508072 -0.06488055735826492 -0.0068817948922514915 -0.030022377148270607 -0.023046361282467842 0.034369971603155136 -0.03482561558485031 -0.007506201509386301 -0.01525717880576849 0.002940001431852579 -0.1027015671133995 -0.0038414793089032173 -0.030961928889155388 0.07287926226854324 -0.05177658796310425 0.1578059196472168 0.0719931349158287 0.06793884932994843 0.08386556059122086 -0.05526036024093628 -0.02386593073606491 0.02592146024107933 0.01721481792628765 0.027008382603526115 0.0326346680521965 0.1100282296538353 0.01846328191459179 -0.01934070885181427 0.0023438308853656054 0.04912472888827324 0.0016487420070916414 0.13179399073123932 -0.08691399544477463 -0.16469135880470276 0.10999512672424316 0.02984996698796749 0.0777963176369667 0.1319735050201416 0.01983695663511753 0.019927678629755974 -0.04943860322237015 0.05203692987561226 0.04057440161705017 -0.02831839770078659 -0.035446830093860626 0.030129043385386467 -0.06827973574399948 0.012544347904622555 -0.04620677977800369 0.010277416557073593 0.0024151832330971956 0.032990388572216034 0.013314630836248398 -0.0256000105291605 -0.010431328788399696 -0.027873916551470757 -0.030434489250183105 -0.029378656297922134 0.011385808698832989 -0.016650540754199028 0.10650450736284256 -0.034885019063949585 0.035559043288230896 0.05396910756826401 0.06716243922710419 -0.024360697716474533 -9.033522801473737E-4 -0.03690796345472336
http://dbpedia.org/resource/Category:Ontologists 0.01223957259207964 -0.016022460535168648 0.031905464828014374 0.004303161986172199 0.007534880191087723 0.004894781857728958 -0.015763474628329277 0.011309072375297546 -2.2244290448725224E-5 -0.002764633158221841 7.971443119458854E-4 -0.0032911987509578466 -0.008015609346330166 -0.0014134510420262814 0.0021736817434430122 -0.004370593000203371 0.019579680636525154 -0.01785370334982872 -0.02097822166979313 0.002414841204881668 0.007914149202406406 0.010684208013117313 -0.03570658713579178 0.0031147494446486235 -0.006253836676478386 0.014027195051312447 0.003210316179320216 0.005609914660453796 0.01366764772683382 -0.007742937188595533 -4.3457653373479843E-4 -0.009363604709506035 0.006719125900417566 0.02003871276974678 4.3638944043777883E-4 0.006277373991906643 -0.009753660298883915 -0.012041482143104076 0.02182071842253208 0.002974654780700803 -0.002820574911311269 0.005377462599426508 0.020361408591270447 0.010017720982432365 -0.009810853749513626 -0.010439708828926086 0.02010205015540123 -0.04400103911757469 -0.0031323295552283525 -0.021444164216518402 -0.025363238528370857 0.018931623548269272 -0.0017111762426793575 0.01096771564334631 0.002417091280221939 -0.002571121556684375 -0.005741099361330271 -0.03663785010576248 -0.00717987259849906 0.01518954522907734 0.003927722107619047 -0.012374872341752052 0.002249911893159151 -0.04127997159957886 0.02730862982571125 0.05777837336063385 -0.018216516822576523 -0.01907065324485302 -0.0275051761418581 -0.03160085156559944 0.022425008937716484 -0.01291022077202797 0.03337511420249939 -0.007436712272465229 -0.015997247770428658 0.020998625084757805 0.0350259505212307 -0.012113763950765133 0.0152004798874259 2.1307033603079617E-4 0.010322155430912971 -0.015306537039577961 0.0067400322295725346 -0.022562678903341293 -0.010439424775540829 0.003459952538833022 -0.007819452323019505 -0.004823664668947458 0.01540912501513958 0.0013380114687606692 3.547109372448176E-4 0.009940284304320812 -0.033818405121564865 0.002925015287473798 -0.010079012252390385 -0.017733432352542877 -0.012112581171095371 -0.007529152557253838 -0.002215741202235222 0.005295102018862963
http://dbpedia.org/resource/Gregory_of_Nyssa -0.029809709638357162 0.018088534474372864 0.025478564202785492 0.03269318863749504 0.019748510792851448 0.04321228712797165 0.13485877215862274 0.00675307447090745 0.041922762989997864 0.08442740887403488 0.026286853477358818 0.057376570999622345 0.0737922340631485 0.06378521770238876 -0.03778216242790222 0.11664147675037384 -0.08561981469392776 -0.00319590512663126 0.039119552820920944 0.020696939900517464 0.008554819040000439 -0.10765205323696136 0.03551211580634117 0.06114043667912483 0.020938437432050705 -0.05265030637383461 0.038232624530792236 0.031803060322999954 -0.05710191652178764 -0.03976939246058464 0.019508296623826027 0.08836116641759872 0.03974238410592079 -0.08349450677633286 -0.03433077037334442 -0.046623263508081436 -0.053560689091682434 0.04166000336408615 -0.023586692288517952 0.0015145271318033338 -0.03023584373295307 0.004072400741279125 -0.10051282495260239 0.009135479107499123 -0.04139174148440361 0.09611973911523819 -0.07635366171598434 0.2283538281917572 0.12188779562711716 0.07591694593429565 0.10562068223953247 -0.06857656687498093 -0.03770272806286812 0.05418458580970764 0.04147139564156532 0.04243582487106323 0.04507651552557945 0.15415647625923157 0.043853383511304855 -0.02719549834728241 -0.002495862077921629 0.05831701308488846 -0.0013154199114069343 0.18931952118873596 -0.10302605479955673 -0.2151620239019394 0.14689891040325165 0.024345509707927704 0.09230577200651169 0.18862593173980713 0.044038791209459305 0.021573670208454132 -0.04999547451734543 0.07703966647386551 0.04076332971453667 -0.005926277954131365 -0.015696166083216667 0.0041321623139083385 -0.08567427843809128 0.018137061968445778 -0.058743804693222046 -0.004621018189936876 0.024392057210206985 0.023350585252046585 -0.008981780149042606 -0.05116759240627289 -0.02826261706650257 -0.06345014274120331 -0.015616617165505886 -0.021786002442240715 -0.0011377102928236127 -0.011379090137779713 0.1337735652923584 -0.05737544223666191 0.04173128679394722 0.06838630884885788 0.07632888853549957 -0.0457884781062603 -0.019063692539930344 -0.03074774332344532
http://dbpedia.org/resource/Category:Ancient_Crotonians 7.432941347360611E-4 -0.005333314184099436 0.0032696095295250416 0.0039711217395961285 -0.00534829031676054 -0.0028456617146730423 -0.009722263552248478 0.004683703184127808 -0.0037398829590529203 -0.0025287983007729053 -0.0061676036566495895 -0.003852720372378826 -0.009095807559788227 0.0024907367769628763 0.0026988605968654156 -0.004893654026091099 0.003969789948314428 0.003115597181022167 0.0012187198735773563 6.417111144401133E-4 0.0032683038152754307 0.01224610023200512 -0.003603508463129401 -0.002531141974031925 -0.010451221838593483 8.532883366569877E-4 -0.0026056922506541014 -0.0033206050284206867 0.009804613888263702 -0.0015079679433256388 -4.236075037624687E-4 -0.009309327229857445 0.003179016523063183 0.003743013832718134 -0.0034585793036967516 0.004460664466023445 -0.004384040832519531 7.506116526201367E-4 0.010726694017648697 0.005665680859237909 0.0056344978511333466 -0.004033032339066267 0.010099401697516441 0.005982274655252695 0.0011557822581380606 -0.010273181833326817 0.003974036779254675 -0.012264464050531387 -0.010347887873649597 -0.009251314215362072 -0.006816735025495291 0.010606222786009312 0.002655379706993699 -0.005972432438284159 0.003532722359523177 0.001518342294730246 2.0721161854453385E-4 -0.010032698512077332 0.0026462615933269262 3.476266865618527E-4 0.002822390291839838 -0.005663231946527958 5.773310549557209E-4 -0.01821638084948063 0.007878574542701244 0.02226562425494194 -0.017086265608668327 -0.009549761191010475 -0.01092502474784851 -0.01737196557223797 -0.001740120816975832 9.36789030674845E-4 0.0053931050933897495 -0.008469848893582821 -0.00784305203706026 0.0056033008731901646 0.00419841380789876 -0.0063089062459766865 0.008239748887717724 -7.62582290917635E-4 0.00396594125777483 1.9059452461078763E-4 0.0020648313220590353 -0.0014826448168605566 -0.004603732842952013 0.006049257703125477 0.004344936925917864 -7.180360262282193E-4 0.005779072642326355 0.003285089274868369 6.576265441253781E-4 0.00533261289820075 -0.012671038508415222 0.005299509037286043 -7.468861876986921E-4 -0.00374040100723505 -0.008753879927098751 -0.0010482951765879989 -0.006170064210891724 0.0074572148732841015
http://xmlns.com/foaf/0.1/Person -0.04876682907342911 0.010125858709216118 -6.697580101899803E-5 -0.00781833752989769 0.03390423581004143 0.050149865448474884 0.13312390446662903 -0.016904320567846298 0.021243866533041 0.0569210909307003 0.011117774061858654 0.044110506772994995 0.053352370858192444 0.024201296269893646 -0.05191395431756973 0.07762744277715683 -0.04254148155450821 0.012601730413734913 -0.00796055980026722 0.03222024813294411 0.013120792806148529 -0.08784735202789307 0.02337495982646942 0.04193506017327309 0.03535279259085655 -0.02974541112780571 0.027679091319441795 0.02387290447950363 -0.06527766585350037 -0.030877701938152313 0.018495310097932816 0.0720788836479187 0.014043869450688362 -0.07582440227270126 -0.0034177186898887157 -0.028299035504460335 -0.01295321062207222 0.03796190395951271 -0.03627558797597885 -0.01741136983036995 -0.016876179724931717 -0.001523949089460075 -0.10966528207063675 0.002547935815528035 -0.03600502014160156 0.07676073163747787 -0.05273137241601944 0.16071227192878723 0.07622873783111572 0.07085303962230682 0.09029168635606766 -0.05854802578687668 -0.024237429723143578 0.026051010936498642 0.027010783553123474 0.02095981128513813 0.03244679421186447 0.10689733177423477 0.018891045823693275 -0.03201732411980629 0.0044304849579930305 0.04912417382001877 -9.493897232459858E-5 0.1374317854642868 -0.09174861013889313 -0.1683032363653183 0.10635285079479218 0.038276489824056625 0.0799441933631897 0.13683241605758667 0.016002604737877846 0.013007158413529396 -0.05255163460969925 0.04734906181693077 0.041862282902002335 -0.022037437185645103 -0.04139429330825806 0.02894752286374569 -0.06690861284732819 0.010782508179545403 -0.03911026194691658 0.010890007950365543 0.006127132568508387 0.035442937165498734 0.006517449393868446 -0.02845691330730915 -0.010462724603712559 -0.031150178983807564 -0.027168121188879013 -0.024836700409650803 0.01920170709490776 -0.015959357842803 0.1182216927409172 -0.029461713507771492 0.03659879043698311 0.0521714948117733 0.06843454390764236 -0.02798767387866974 2.1160583128221333E-4 -0.030375195667147636
http://dbpedia.org/resource/Gorgias 0.038222428411245346 -0.004175003618001938 -0.1076747328042984 -0.06958618015050888 -0.06839150190353394 -0.13257360458374023 -0.2969832420349121 -0.02786167338490486 -0.08569996058940887 -0.1842700093984604 -0.11451897770166397 -0.09116833657026291 -0.1212567612528801 -0.08151572197675705 0.0897558256983757 -0.16330625116825104 0.012239751406013966 0.052478719502687454 0.07766442000865936 -0.09574247151613235 -0.0666978731751442 0.17015640437602997 0.059371452778577805 -0.13853155076503754 0.02970791608095169 0.07633724808692932 -0.06689012050628662 -0.0753597617149353 0.0248920489102602 0.18667012453079224 -0.03407081589102745 -0.12278817594051361 -0.17099514603614807 0.03885355964303017 0.12587870657444 0.12501321732997894 0.2023666501045227 -0.01421359833329916 -0.07504185289144516 -0.005316778086125851 0.07462137192487717 -0.035208120942115784 0.11486592143774033 -0.04624299705028534 0.1691838949918747 -0.09957658499479294 0.04248752072453499 -0.16935224831104279 -0.21735785901546478 -0.006801623851060867 -0.001204164233058691 0.03575710579752922 0.0616014301776886 -0.23599085211753845 -0.08445391803979874 -0.0568450503051281 -0.06960652768611908 -0.09609589725732803 -0.04074852913618088 -0.0863998606801033 -0.032221704721450806 0.046435534954071045 -0.04760980233550072 -0.14855413138866425 0.10414909571409225 0.11909586936235428 -0.23921440541744232 0.1248474046587944 0.011331851594150066 -0.21749247610569 -0.22294068336486816 0.021566905081272125 -0.077304407954216 -0.14505723118782043 0.02933446876704693 -0.14786681532859802 -0.09150132536888123 0.12910887598991394 0.0937272384762764 -0.06799668818712234 0.16834929585456848 0.03524135425686836 -0.09584563970565796 0.03446757048368454 0.12162206321954727 0.077370285987854 0.08766010403633118 0.21723276376724243 -0.03841375559568405 0.02085457555949688 0.05822232738137245 -0.01875346153974533 -0.14351731538772583 0.1226988285779953 3.8338027661666274E-4 -0.05058066174387932 -0.1804039627313614 0.13574165105819702 0.058080125600099564 0.03985800966620445
http://dbpedia.org/resource/Category:4th-century_BC_philosophers 0.008952784352004528 -0.018727153539657593 0.04381810501217842 -0.004926591645926237 0.007534426636993885 0.005741721950471401 -0.018353234976530075 0.014689752832055092 -0.014400901272892952 -0.004195213317871094 -1.017959148157388E-4 -3.48229194059968E-4 -0.012796241790056229 -0.0039187101647257805 -0.015529920347034931 0.0027636471204459667 0.038109201937913895 -0.020588938146829605 -0.028689241036772728 0.011922530829906464 0.029284270480275154 0.00968729518353939 -0.059378962963819504 0.007594490423798561 -0.003528929315507412 0.014868803322315216 0.0043342383578419685 0.010031148791313171 0.01023041270673275 -0.016030972823500633 5.128106568008661E-4 -0.00788134429603815 0.01054502185434103 0.0142741734161973 0.017909927293658257 0.004427782259881496 -0.004294116050004959 -0.013238891027867794 0.02388649433851242 6.690883892588317E-4 -0.002997590694576502 7.024353253655136E-4 0.02610206790268421 0.01110597513616085 -0.014168260619044304 -0.019662020727992058 0.023639965802431107 -0.05124321207404137 -0.00857759639620781 -0.023031851276755333 -0.030644085258245468 0.020188210532069206 8.516813395544887E-4 0.00904336292296648 0.0014900404494255781 -0.017118357121944427 -0.009864086285233498 -0.04402748495340347 -0.008204317651689053 0.013045812956988811 -0.0017599038546904922 -0.00713107455521822 0.01441002357751131 -0.05270589888095856 0.027754638344049454 0.07274483144283295 -0.03622615709900856 -0.02204793132841587 -0.03164470195770264 -0.052152957767248154 0.026917802169919014 -0.018061449751257896 0.03709779679775238 -0.013565221801400185 -0.026292644441127777 0.011813218705356121 0.049667444080114365 -0.011253323405981064 0.023144029080867767 0.0014782219659537077 0.02263215184211731 -0.023618236184120178 0.0054893335327506065 -0.01953917182981968 -5.431710742413998E-4 0.014124315232038498 -0.006931602954864502 -0.0036682821810245514 0.004911593161523342 0.0017843430396169424 0.004844542592763901 0.013895603828132153 -0.03992132097482681 0.013482521288096905 -0.01647905260324478 -0.026113305240869522 -0.011793307028710842 -0.0031589411664754152 0.002401613164693117 -6.558547029271722E-4
http://dbpedia.org/resource/Template:Cite_book -0.003636447712779045 -7.061794167384505E-5 -0.02275979146361351 -0.014800244010984898 -0.005477914586663246 -0.01253693550825119 -0.03451618179678917 -0.003584972582757473 -0.007591809146106243 -0.02030576951801777 -0.009498517028987408 -0.014025861397385597 -0.01374433096498251 -0.007565323729068041 0.015129214152693748 -0.016802646219730377 -0.010342100635170937 0.010811355896294117 0.019070478156208992 -0.014250891283154488 -0.008036459796130657 0.021330926567316055 0.014049442484974861 -0.019805964082479477 0.014086443930864334 0.010196640156209469 -0.006763318553566933 -0.009419543668627739 -0.006455680355429649 0.030205873772501945 -0.0013143705436959863 -0.005545192863792181 -0.028141235932707787 -0.00477468129247427 0.03145059570670128 0.020423313602805138 0.03443852439522743 0.003950142301619053 -0.020769832655787468 -0.003441226202994585 0.014740055426955223 -0.00852403324097395 -0.009419014677405357 -0.017697211354970932 0.02489454485476017 -0.0049339644610881805 -3.1857629073783755E-4 -0.00710717448964715 -0.029866212978959084 0.018792130053043365 0.014498832635581493 -0.00783262588083744 0.0067154173739254475 -0.038888949900865555 -0.009913461282849312 -0.008041515946388245 -0.008085477165877819 0.007163406349718571 -0.008078541606664658 -0.013376699760556221 -0.0017879431834444404 0.013902074657380581 -0.0024876445531845093 0.0044266339391469955 -0.006503240205347538 -0.01874186284840107 -0.022175325080752373 0.036620575934648514 0.02351810224354267 -0.01306106522679329 -0.0446941964328289 0.010309647768735886 -0.023213837295770645 -0.017084486782550812 0.020590756088495255 -0.03647682070732117 -0.031242553144693375 0.03743361681699753 0.0055992938578128815 -0.009681611321866512 0.022217409685254097 0.014831768348813057 -0.021891221404075623 0.014834714122116566 0.030239343643188477 0.008975557051599026 0.019227653741836548 0.029931586235761642 -0.017283553257584572 -0.0037136711180210114 0.020199893042445183 -0.00957624800503254 1.6592699103057384E-4 0.020985126495361328 0.0075519029051065445 9.412685758434236E-4 -0.010882776230573654 0.022420890629291534 0.010643509216606617 -0.006019295658916235
http://dbpedia.org/resource/Anaxagoras -0.00546666793525219 -0.013634196482598782 0.010402434505522251 -0.02682541497051716 0.009025821462273598 0.004324714653193951 -0.024497315287590027 -0.0033031764905899763 -0.031141160055994987 -0.029318561777472496 -0.015767816454172134 -0.0026727428194135427 -0.02071172557771206 -0.019677767530083656 -0.009577464312314987 -0.014736322686076164 0.04395315796136856 -0.009008537977933884 -0.03356806933879852 0.005910390987992287 0.018593359738588333 0.01846434734761715 -0.050662484019994736 -0.0032651000656187534 0.012914279475808144 0.026778340339660645 -0.008035139180719852 -3.1523671350441873E-4 0.0060544307343661785 0.015096007846295834 -0.007851410657167435 -0.010611532256007195 -0.021163832396268845 0.013010268099606037 0.035298094153404236 0.016598837450146675 0.02369810827076435 -0.005008036736398935 -0.0014806875260546803 -0.0014340670313686132 0.006306873634457588 -0.003508079331368208 0.009165188297629356 4.109719302505255E-4 0.004999523051083088 -0.01834726147353649 0.01689496822655201 -0.04965324327349663 -0.03535565361380577 -0.012412707321345806 -0.014527403749525547 0.012767852284014225 0.009079072624444962 -0.015614042989909649 -0.008252974599599838 -0.017873287200927734 -0.018077461048960686 -0.039355430752038956 -0.01418101042509079 -0.009039530530571938 -0.006507285870611668 0.007857118733227253 0.002701899968087673 -0.05218452215194702 0.03378533571958542 0.05777185410261154 -0.04449612274765968 0.0023161526769399643 -0.005847425200045109 -0.05754180997610092 -0.006388635840266943 -0.010586547665297985 0.01867343671619892 -0.030457397922873497 -0.0124867744743824 -0.011882515624165535 0.019656362012028694 0.005928707309067249 0.019968552514910698 -0.0034239492379128933 0.03708525002002716 -0.010736598633229733 -0.007368600461632013 -0.017255118116736412 0.01498088426887989 0.020945798605680466 -2.6684929616749287E-4 0.021871056407690048 -0.009938258677721024 -0.00497934315353632 0.02632678486406803 0.00921948067843914 -0.03101716935634613 0.02604513429105282 -0.01363638136535883 -0.01808067597448826 -0.018256673589348793 0.008024717681109905 0.02242870442569256 -0.005912016611546278
http://dbpedia.org/resource/Alexander_of_Aphrodisias 0.006331516895443201 0.016038723289966583 0.016137292608618736 0.027717873454093933 -0.018699536100029945 -0.003540442790836096 0.03183212876319885 0.022664537653326988 0.04761843755841255 0.061065923422575 0.03595487028360367 0.012495115399360657 0.045212361961603165 0.06446495652198792 0.006786774843931198 0.0595351941883564 -0.08287762105464935 -0.012054495513439178 0.06325419247150421 -0.010083320550620556 -0.007880167104303837 -0.039877455681562424 0.04302098974585533 0.03345906734466553 -0.015895145013928413 -0.025683820247650146 0.010681113228201866 0.01398013811558485 -0.010838042944669724 -0.031222600489854813 0.005435159895569086 0.03120342642068863 0.035005081444978714 -0.026919297873973846 -0.04904377460479736 -0.0384741947054863 -0.03728395327925682 0.030973922461271286 -0.011741436086595058 0.006658595986664295 -0.007107276003807783 0.016846220940351486 -0.03558053448796272 0.0037866313941776752 -0.024091562256217003 0.04674479365348816 -0.040706731379032135 0.11895330995321274 0.060762401670217514 0.031999073922634125 0.05524488911032677 -0.03862571343779564 -0.020977454259991646 0.032197896391153336 0.01853509247303009 0.020053403452038765 0.02509792521595955 0.07726024091243744 0.019046740606427193 0.0026148909237235785 -8.892584010027349E-4 0.022280201315879822 -0.009020701050758362 0.0917753353714943 -0.058218736201524734 -0.12205322086811066 0.07988043129444122 0.012197605334222317 0.05101047456264496 0.10091467201709747 0.013925280421972275 0.019106894731521606 -0.035037510097026825 0.04648096486926079 0.039932526648044586 -0.006422173697501421 -0.024432705715298653 0.005090819206088781 -0.04349305480718613 0.014422880485653877 -0.042067985981702805 3.7948458339087665E-4 0.017051005735993385 0.02151336893439293 -0.016131766140460968 -0.03601005673408508 -0.014936554245650768 -0.03796179220080376 0.0029917797073721886 -0.0011941490229219198 -0.024018138647079468 -0.003539545927196741 0.06119508668780327 -0.051667675375938416 0.011654527857899666 0.03144281730055809 0.03800719976425171 -0.016820572316646576 -0.03496720269322395 -0.002489829435944557
http://dbpedia.org/resource/Hermagoras_of_Amphipolis 0.06460794061422348 0.019074395298957825 -0.012720488011837006 0.1058192253112793 -0.05464126169681549 -0.0537869818508625 -0.06091518700122833 -0.009233210235834122 -0.01710372045636177 -0.04923666641116142 0.0013005954679101706 -0.01736055687069893 -0.028162376955151558 -0.033428072929382324 0.07099362462759018 -0.0783454179763794 0.022472746670246124 0.016964586451649666 0.003611233551055193 -0.016195328906178474 -0.0825004056096077 0.05451131984591484 0.07197414338588715 -0.04104745015501976 -0.06778232753276825 -0.05339166149497032 -0.017562860623002052 -0.04763466492295265 0.09953603148460388 0.04415373504161835 -0.034683216363191605 -0.06477711349725723 0.039264436811208725 0.07389923185110092 -0.1264997273683548 -0.021251752972602844 -0.10283561050891876 -0.03701431676745415 0.06440521776676178 0.06183337792754173 -0.011163825169205666 0.008889026008546352 0.16386926174163818 0.05087381228804588 0.04593141749501228 -0.061879899352788925 0.03729832544922829 -0.08458535373210907 -0.0020910892635583878 -0.09714286029338837 -0.08279283344745636 0.07430105656385422 0.012412633746862411 2.990203211084008E-4 0.0027365591377019882 0.020752372220158577 -0.0026568020693957806 -0.08760200440883636 0.03882845491170883 0.033040858805179596 -0.012915336526930332 -0.08700025826692581 -0.0013003770727664232 -0.07846406102180481 0.0829099714756012 0.14772957563400269 -0.07041741162538528 -0.1000734195113182 -0.14935950934886932 -0.08183806389570236 0.01618710346519947 -0.016738535836338997 0.0350874587893486 -0.020070677623152733 -0.06234760954976082 0.1513969451189041 0.04058877006173134 -0.1395503282546997 0.0536067895591259 -0.028330979868769646 -0.014820348471403122 -8.890267927199602E-4 0.010463366284966469 -0.03376966342329979 -0.09568961709737778 3.7959363544359803E-4 0.022731395438313484 -0.01038116030395031 0.08823473006486893 0.08167672902345657 -0.09116120636463165 0.016304826363921165 -0.12387216836214066 -0.0011745407246053219 -0.012200799770653248 -0.03480083867907524 -0.09228222817182541 0.043407682329416275 -0.0583534799516201 0.10188822448253632
http://dbpedia.org/resource/Demetrius_Lacon 0.006012764759361744 0.02153932861983776 -0.007647767197340727 0.030936336144804955 -0.02751467563211918 -0.014985647052526474 0.014306561090052128 0.01917840726673603 0.04351256042718887 0.043430984020233154 0.022791322320699692 -0.007348704617470503 0.030385080724954605 0.059869322925806046 0.027491450309753418 0.03977348282933235 -0.08806589990854263 -0.003738061059266329 0.0793071910738945 -0.026265783235430717 -0.022214122116565704 -0.021536557003855705 0.062247633934020996 0.020870458334684372 -0.02201532945036888 -0.017675310373306274 0.0034733491484075785 0.002450773725286126 -0.007145593408495188 -0.01059456542134285 -0.001351501909084618 0.020081298425793648 0.025524333119392395 -0.02163637802004814 -0.05176127329468727 -0.03068913333117962 -0.025855926796793938 0.02647058106958866 -0.013714662753045559 0.0067746308632195 -0.003185474779456854 0.01181959081441164 -0.02331051230430603 -0.0037608398124575615 -0.007472907658666372 0.03599192947149277 -0.030359376221895218 0.09556068480014801 0.042880717664957047 0.027238111943006516 0.05054328590631485 -0.03265001252293587 -0.007030012551695108 0.014978524297475815 0.015647243708372116 0.024911144748330116 0.017361124977469444 0.06823958456516266 0.015861965715885162 3.6711330176331103E-4 -9.233376476913691E-4 0.01963050663471222 -0.01050549279898405 0.08310864120721817 -0.04757525026798248 -0.10564360022544861 0.06445026397705078 0.01632719486951828 0.040611255913972855 0.08632209151983261 -0.004589602816849947 0.014816945418715477 -0.03916741907596588 0.04626423493027687 0.039181627333164215 -0.013856842182576656 -0.03564712777733803 0.006717390846461058 -0.03601159527897835 0.016807133331894875 -0.03605634346604347 0.00444811163470149 0.002525012008845806 0.02069094404578209 -0.016156161203980446 -0.028869586065411568 -3.876775735989213E-4 -0.02344752848148346 -0.0034662485122680664 0.007112147286534309 -0.02279694192111492 -0.00790799967944622 0.04559394344687462 -0.044823963195085526 0.011100740171968937 0.018665675073862076 0.021796025335788727 -0.012007691897451878 -0.035142723470926285 -3.904911282006651E-4
http://dbpedia.org/resource/Category:5th-century_BC_philosophers 0.014272796921432018 -0.029064485803246498 0.04301486909389496 -0.010472660884261131 0.007392581552267075 -0.004888100083917379 -0.03838434815406799 0.022318564355373383 -0.017241451889276505 -0.008387736044824123 -0.0036069059278815985 -0.006987324450165033 -0.01968861185014248 -0.009762955829501152 -0.0012769679306074977 -0.015698328614234924 0.04328995198011398 -0.022786613553762436 -0.03286338597536087 0.008155670948326588 0.02316143922507763 0.02983318269252777 -0.06813343614339828 0.00633216742426157 -0.015393463894724846 0.027748992666602135 -0.0020956911612302065 0.008052252233028412 0.023899435997009277 -0.012769305147230625 -0.002375372452661395 -0.018456922844052315 0.007470106240361929 0.033373698592185974 0.012795151211321354 0.007498451508581638 -0.005003238096833229 -0.020121602341532707 0.025174187496304512 -0.0013203880516812205 8.15908657386899E-4 -0.0035590839106589556 0.03246089071035385 0.007153812795877457 -0.009814117103815079 -0.03197963535785675 0.03169542923569679 -0.07734441012144089 -0.02064773254096508 -0.0277874693274498 -0.054288867861032486 0.03162446245551109 0.008849035017192364 0.009964486584067345 -0.00705427723005414 -0.021524857729673386 -0.018359845504164696 -0.0619954988360405 -0.01702249050140381 0.019133014604449272 0.0019704275764524937 -0.016184991225600243 0.011413048952817917 -0.08705192059278488 0.051859647035598755 0.10481733828783035 -0.05337190255522728 -0.03224121406674385 -0.03651825711131096 -0.07350675016641617 0.024957217276096344 -0.021183310076594353 0.052734311670064926 -0.02486835978925228 -0.03376542031764984 0.01560529787093401 0.06983490288257599 -0.020297318696975708 0.03025849536061287 -5.255480646155775E-4 0.029043203219771385 -0.02060951665043831 0.01262836903333664 -0.030239287763834 0.0014102417044341564 0.016316289082169533 -0.010721624828875065 4.153396002948284E-4 0.0074292393401265144 -0.0010993053438141942 0.009225561283528805 0.01813868060708046 -0.06687046587467194 0.016131168231368065 -0.029497845098376274 -0.03451300039887428 -0.025268137454986572 -0.01049380749464035 0.009249255061149597 -0.007984092459082603
http://dbpedia.org/resource/Protagoras 0.051251787692308426 -0.013235831633210182 -0.07973621040582657 -0.07475845515727997 -0.06807355582714081 -0.14738507568836212 -0.3129170835018158 -0.014043263159692287 -0.09396254271268845 -0.17632457613945007 -0.12246498465538025 -0.09394567459821701 -0.1261807382106781 -0.0613689199090004 0.08796990662813187 -0.1736912727355957 0.02717633545398712 0.0350780189037323 0.05252549797296524 -0.09809286892414093 -0.04605788365006447 0.17499861121177673 0.03000505082309246 -0.12063774466514587 0.016455581411719322 0.0872979536652565 -0.0741560310125351 -0.07321842759847641 0.035784706473350525 0.17742587625980377 -0.048964690417051315 -0.12125632166862488 -0.16496588289737701 0.035211943089962006 0.11100497096776962 0.12120400369167328 0.21613313257694244 -0.019295405596494675 -0.06128628924489021 -0.00809820368885994 0.09080453217029572 -0.041787002235651016 0.12490764260292053 -0.04156476631760597 0.1541016399860382 -0.11117908358573914 0.05458871275186539 -0.19789305329322815 -0.22737464308738708 -0.031133431941270828 -0.0055933804251253605 0.0393197201192379 0.07285907864570618 -0.23807020485401154 -0.07395318895578384 -0.06699371337890625 -0.08622879534959793 -0.13532699644565582 -0.05327441170811653 -0.07876580208539963 -0.03694974631071091 0.05610710009932518 -0.03974582254886627 -0.16966423392295837 0.12745442986488342 0.14817826449871063 -0.26139363646507263 0.11224504560232162 -0.004318608436733484 -0.2395879328250885 -0.2220272719860077 0.013195852749049664 -0.0706951841711998 -0.1457304060459137 0.026433397084474564 -0.1411757469177246 -0.07816943526268005 0.1200297623872757 0.09488368779420853 -0.06808799505233765 0.18586507439613342 0.019831933081150055 -0.0999922901391983 0.019186407327651978 0.11247462034225464 0.08692442625761032 0.08474279940128326 0.220462366938591 -0.028666377067565918 0.029014481231570244 0.06313002109527588 -0.0031074569560587406 -0.15234293043613434 0.11991964280605316 -0.016306042671203613 -0.0654693990945816 -0.18105866014957428 0.13466736674308777 0.06253207474946976 0.04646817222237587
http://dbpedia.org/resource/Echecratides 0.008249377831816673 0.01529447827488184 -0.0028510522097349167 0.021125275641679764 -0.018253836780786514 -0.008975822478532791 0.018673855811357498 0.014093991369009018 0.03255440667271614 0.0411226786673069 0.01778712309896946 0.004070554859936237 0.03222291171550751 0.04620678722858429 0.02050541155040264 0.03442111983895302 -0.06450751423835754 -0.005255648400634527 0.06111487001180649 -0.020021231845021248 -0.01492390688508749 -0.015345613472163677 0.04355376586318016 0.011678825132548809 -0.012007207609713078 -0.021886900067329407 0.008754345588386059 0.008092493750154972 -0.011146723292768002 -0.01775326393544674 0.005312811583280563 0.01874525099992752 0.02146437019109726 -0.025498870760202408 -0.033136576414108276 -0.02101459726691246 -0.021864289417862892 0.016822706907987595 -0.013202961534261703 0.0049665141850709915 -0.00896848551928997 0.012347626499831676 -0.019060056656599045 -4.165548598393798E-4 -0.002680886071175337 0.03409731015563011 -0.02848377823829651 0.08066906034946442 0.03843338042497635 0.02348252944648266 0.04307834059000015 -0.03108229674398899 -0.006775486748665571 0.01905873790383339 0.007383934687823057 0.017677657306194305 0.021519726142287254 0.05980726704001427 0.01462399773299694 -3.723591798916459E-4 0.002986295847222209 0.009226714260876179 -0.009485420770943165 0.0643148198723793 -0.03722346946597099 -0.09346023947000504 0.05844898894429207 0.008487691171467304 0.03949861600995064 0.07885374873876572 -0.005175107158720493 0.01167258433997631 -0.03338004648685455 0.03867413476109505 0.032510630786418915 -0.004435018636286259 -0.028805043548345566 0.0051736412569880486 -0.03765152394771576 0.010273708961904049 -0.03386935591697693 0.004624188411980867 0.009277031756937504 0.02175353467464447 -0.011455987580120564 -0.026546603068709373 -0.0019618559163063765 -0.01933417096734047 9.165492956526577E-4 0.002264996524900198 -0.020017243921756744 -7.182247936725616E-4 0.04087129607796669 -0.04169173166155815 0.009179677814245224 0.02262280508875847 0.022374436259269714 -0.014938907697796822 -0.02355930209159851 0.0011314344592392445
http://dbpedia.org/resource/Ancient_philosophy 2.931371273007244E-4 -0.03202112391591072 0.044670470058918 -0.02518014796078205 0.01371004618704319 0.004780106712132692 -0.04116625711321831 0.0169691015034914 -0.027530211955308914 -0.02648204192519188 -0.016403935849666595 -0.001295784953981638 -0.03651708364486694 -0.016573816537857056 -0.017678530886769295 -0.005547706503421068 0.05820711702108383 -0.025517983362078667 -0.03943530097603798 0.009773884899914265 0.03418641909956932 0.03446917235851288 -0.08854580670595169 -0.0012769907480105758 0.014737570658326149 0.03982318937778473 -3.589328262023628E-4 0.011760142631828785 0.0038557604420930147 0.004083205945789814 -0.0021752172615379095 -0.01699882559478283 -0.014922413975000381 0.022548502311110497 0.06374825537204742 0.033583320677280426 0.033604979515075684 -0.017657339572906494 0.007139442954212427 -0.01334346178919077 2.63049325440079E-4 -0.008985932916402817 0.016401400789618492 -0.006782326381653547 0.003056552493944764 -0.020171398296952248 0.026736930012702942 -0.0693923756480217 -0.03856158256530762 -0.008948727510869503 -0.026904404163360596 0.01224964763969183 0.00999940000474453 -0.021877137944102287 -0.0059453705325722694 -0.0331050306558609 -0.018637532368302345 -0.05243679881095886 -0.019779060035943985 -0.01049716491252184 -0.005229230038821697 0.009829661808907986 0.013100323267281055 -0.08887150138616562 0.045517608523368835 0.09134401381015778 -0.06423542648553848 -0.0024607060477137566 -0.003628613892942667 -0.09151942282915115 0.0070792557671666145 -0.015352856367826462 0.04368521273136139 -0.04321920871734619 -0.029669029638171196 -0.023572610691189766 0.06963931024074554 0.023537874221801758 0.03074948862195015 -0.003985140938311815 0.05604206770658493 -0.021963968873023987 0.0019992724992334843 -0.03275061398744583 0.03553596884012222 0.032829415053129196 -0.008522377349436283 0.03069261647760868 -0.01526425126940012 -0.017623525112867355 0.05037816986441612 0.020444054156541824 -0.06316518783569336 0.03359979763627052 -0.021294565871357918 -0.03000578097999096 -0.027670366689562798 -0.006149501074105501 0.027097981423139572 -0.022746622562408447
http://www.wikidata.org/entity/Q5 -0.0663386806845665 0.019199706614017487 -0.02635224722325802 -0.017256099730730057 0.04105059802532196 0.06500647962093353 0.1551862508058548 -0.03643312305212021 0.014353842474520206 0.06091099604964256 -0.004434076603502035 0.0642089694738388 0.06902451813220978 0.023687776178121567 -0.06769027560949326 0.08236266672611237 -0.042520854622125626 0.029009442776441574 -0.014265178702771664 0.0376051589846611 0.013509418815374374 -0.11867637187242508 0.030344638973474503 0.035934027284383774 0.05457424372434616 -0.04549736902117729 0.0280911922454834 0.015945659950375557 -0.08267722278833389 -0.02051326259970665 0.022299528121948242 0.0943877324461937 -0.005022650118917227 -0.09603912383317947 0.010466733947396278 -0.03143374249339104 0.005187708884477615 0.0366327278316021 -0.0552465058863163 -0.025754638016223907 -0.007031002081930637 -0.007773951161652803 -0.14009316265583038 -0.0038489638827741146 -0.026639366522431374 0.08946740627288818 -0.06902975589036942 0.19203926622867584 0.08668168634176254 0.09143097698688507 0.11733487993478775 -0.07411516457796097 -0.031787265092134476 0.01825341023504734 0.022944966331124306 0.030126068741083145 0.03003598004579544 0.14365987479686737 0.017474764958024025 -0.0465940497815609 0.00969336275011301 0.07511238753795624 -1.7819786444306374E-4 0.17911136150360107 -0.1147908940911293 -0.21435201168060303 0.12358324229717255 0.0573587641119957 0.10776729136705399 0.16684676706790924 -7.328083156608045E-4 0.023841315880417824 -0.07296975702047348 0.053089968860149384 0.05184858292341232 -0.042300060391426086 -0.0652037188410759 0.043462831526994705 -0.07812360674142838 0.015266609378159046 -0.046914804726839066 0.01880491152405739 -0.006553408224135637 0.043717849999666214 0.02925175614655018 -0.034120574593544006 -0.0029662312008440495 -0.02417084574699402 -0.04213091358542442 -0.04186445474624634 0.026278866454958916 -0.03646659106016159 0.15226180851459503 -0.0177020151168108 0.056700095534324646 0.07704699784517288 0.08597350120544434 -0.02043898217380047 0.00994926132261753 -0.04006087779998779
http://dbpedia.org/resource/Democritus 0.0013925469247624278 -0.029217589646577835 -0.05955462530255318 -0.12343255430459976 -0.02569182775914669 -0.09042103588581085 -0.255493700504303 -0.004262503236532211 -0.07670969516038895 -0.15223002433776855 -0.09776831418275833 -0.06895168870687485 -0.1039593294262886 -0.06253274530172348 0.03905529901385307 -0.11347933113574982 0.026832688599824905 0.035341549664735794 0.03865155577659607 -0.0626368299126625 -0.008462924510240555 0.12139056622982025 -0.021447399631142616 -0.09980828315019608 0.0687808096408844 0.1027727872133255 -0.05775662511587143 -0.044795453548431396 -0.03653869405388832 0.15270063281059265 -0.013607021421194077 -0.07968640327453613 -0.18404099345207214 -0.009216053411364555 0.1966918259859085 0.12208211421966553 0.23472437262535095 0.0029899694491177797 -0.10191813111305237 -0.03226950019598007 0.07578060775995255 -0.042311739176511765 0.014067950658500195 -0.0601310133934021 0.13739937543869019 -0.06236264109611511 0.025478320196270943 -0.10756395012140274 -0.19023114442825317 0.048275355249643326 0.035742104053497314 -0.005615441128611565 0.05248130485415459 -0.22317208349704742 -0.06868596374988556 -0.0710076093673706 -0.06006474420428276 -0.04821070283651352 -0.05339495837688446 -0.10759075731039047 -0.02710735984146595 0.10486077517271042 -0.03193275257945061 -0.09348181635141373 0.06270544230937958 0.04007825255393982 -0.19033730030059814 0.16588860750198364 0.08689992874860764 -0.17509062588214874 -0.20110662281513214 0.021144486963748932 -0.08571386337280273 -0.13550324738025665 0.04149512201547623 -0.20537430047988892 -0.08886092156171799 0.1924624741077423 0.06323249638080597 -0.056545473635196686 0.1780674159526825 0.032250694930553436 -0.09401009976863861 0.03787778690457344 0.1675785779953003 0.075447678565979 0.07216823101043701 0.20924659073352814 -0.07615303993225098 -0.024101732298731804 0.11419528722763062 -0.02619813196361065 -0.06481827050447464 0.13315171003341675 0.007299079559743404 -0.024780837818980217 -0.12784986197948456 0.09896945208311081 0.09899283945560455 -0.0159369558095932
http://dbpedia.org/class/yago/Communicator109610660 -0.11216633766889572 0.019747737795114517 -0.035464026033878326 -0.06174981966614723 0.07454497367143631 0.07879819720983505 0.19809837639331818 -0.05921173840761185 -0.005191061180084944 0.06508287787437439 -0.033819206058979034 0.08303085714578629 0.07950776815414429 0.010679989121854305 -0.11305642127990723 0.11152444034814835 -0.03438344597816467 0.03835060074925423 -0.04109909385442734 0.05049951747059822 0.03932914882898331 -0.14555160701274872 0.01537162996828556 0.046472687274217606 0.10142720490694046 -0.029141856357455254 0.026985133066773415 0.026345763355493546 -0.14164431393146515 -0.0017457789508625865 0.030423808842897415 0.133252814412117 -0.03883929178118706 -0.14465458691120148 0.06766878068447113 -0.02108575776219368 0.04851314052939415 0.05413898080587387 -0.0977594405412674 -0.03749977424740791 -0.006110512651503086 -0.019202006980776787 -0.21056830883026123 -0.016175225377082825 -0.02839810773730278 0.11532780528068542 -0.09054502844810486 0.250988632440567 0.086094930768013 0.14495770633220673 0.16553036868572235 -0.10640787333250046 -0.03518058732151985 -0.012525320053100586 0.018808573484420776 0.027512306347489357 0.032884858548641205 0.18402279913425446 0.011594641022384167 -0.08787419646978378 0.013909018598496914 0.12164923548698425 -0.004725927487015724 0.2241472750902176 -0.13913314044475555 -0.28619149327278137 0.1312147080898285 0.10478391498327255 0.16781462728977203 0.19337274134159088 -0.024145787581801414 0.03550894185900688 -0.11379437148571014 0.04477711021900177 0.07513340562582016 -0.10503441095352173 -0.09299977868795395 0.09794865548610687 -0.09898056089878082 0.011213097721338272 -0.019104642793536186 0.02866257354617119 -0.02108478732407093 0.06250117719173431 0.07385919988155365 -0.03408767655491829 -0.0034467680379748344 0.00606131087988615 -0.08666610717773438 -0.0680675357580185 0.07800842821598053 -0.04743340238928795 0.20289425551891327 0.0019069191766902804 0.06789755076169968 0.09540491551160812 0.09953492134809494 -0.022288719192147255 0.048155032098293304 -0.0778983011841774
http://dbpedia.org/resource/Dicaearchus 0.07933724671602249 -0.042782973498106 0.12953051924705505 0.08887258172035217 -0.015218168497085571 -0.026702912524342537 -0.0959770604968071 0.05261384695768356 -0.037929948419332504 -0.038476262241601944 0.005055299028754234 -0.0060647218488156796 -0.05359361320734024 -0.03799306973814964 0.034252021461725235 -0.06723359227180481 0.12088827043771744 -0.03830328583717346 -0.08557790517807007 0.008549981750547886 -0.005888002924621105 0.07983218133449554 -0.09584716707468033 0.0037810751236975193 -0.09011896699666977 -0.00333227077499032 0.008542180061340332 -0.0056625911965966225 0.15086480975151062 -5.874503985978663E-4 -0.040775738656520844 -0.08954884856939316 0.07192961871623993 0.13737092912197113 -0.10887917876243591 -0.00236069830134511 -0.12347657978534698 -0.06925137341022491 0.1473151445388794 0.0763954222202301 -0.01985359936952591 0.005353256594389677 0.22681182622909546 0.07613933086395264 0.008941743522882462 -0.09839474409818649 0.10938409715890884 -0.2178650200366974 -0.029997019097208977 -0.15370143949985504 -0.17310558259487152 0.12311936169862747 0.012338046915829182 0.03556615114212036 0.010602591559290886 -0.01878204569220543 -0.034903012216091156 -0.19530002772808075 -0.005215024575591087 0.057563893496990204 -0.027895832434296608 -0.11180717498064041 0.02777511067688465 -0.24022358655929565 0.16971231997013092 0.3568214178085327 -0.1542162448167801 -0.18005631864070892 -0.2245563566684723 -0.2187109887599945 0.1137172132730484 -0.055315662175416946 0.16212326288223267 -0.04757310822606087 -0.13518084585666656 0.1953372359275818 0.20569899678230286 -0.19219262897968292 0.11026038229465485 -0.01515231654047966 0.03702358528971672 -0.0587807334959507 0.05055555701255798 -0.11663589626550674 -0.09613247960805893 0.03021196834743023 -0.027348536998033524 -0.03002760373055935 0.1061880886554718 0.07878470420837402 -0.06482475996017456 0.0708969235420227 -0.24593426287174225 0.022471919655799866 -0.07238567620515823 -0.09843700379133224 -0.12677831947803497 0.01699248142540455 -0.04889586940407753 0.08175071328878403
http://dbpedia.org/resource/Nemesius 0.09273876994848251 -0.031213222071528435 0.13603709638118744 0.13745872676372528 -0.031082166358828545 -0.015105945989489555 -0.042668212205171585 0.07429052144289017 0.010443550534546375 0.006838584318757057 0.0566365048289299 -0.0021793441846966743 -0.025777114555239677 -0.006171460263431072 0.05134368687868118 -0.027178818359971046 0.07187291979789734 -0.04436410963535309 -0.041712019592523575 0.006461992859840393 -0.03324239328503609 0.05985294282436371 -0.03866320848464966 0.01720992475748062 -0.11329232901334763 -0.04608428105711937 0.015238283202052116 -0.0012356280349195004 0.1490698903799057 -0.039997488260269165 -0.025672724470496178 -0.07723358273506165 0.12040425837039948 0.1396448165178299 -0.15021160244941711 -0.0320330485701561 -0.19085919857025146 -0.060829393565654755 0.1525477021932602 0.07936768233776093 -0.044572535902261734 0.020698005333542824 0.20901867747306824 0.09155993163585663 -0.01571417599916458 -0.07021518796682358 0.07710534334182739 -0.1475801318883896 0.02671552449464798 -0.1462257355451584 -0.15387406945228577 0.10429897159337997 -0.003520396538078785 0.07850145548582077 0.028879715129733086 -0.002949648769572377 -0.007360530085861683 -0.13949933648109436 0.017285671085119247 0.07613850384950638 -0.016795197501778603 -0.13867604732513428 0.022661535069346428 -0.18544629216194153 0.12755300104618073 0.2882949113845825 -0.07247468084096909 -0.19844792783260345 -0.21348263323307037 -0.13574905693531036 0.14089767634868622 -0.05105673149228096 0.15298599004745483 -0.004474100656807423 -0.12546446919441223 0.22615480422973633 0.2058659791946411 -0.2042091339826584 0.0811491459608078 -0.002532296348363161 -0.023973478004336357 -0.05575297772884369 0.07396987825632095 -0.11137953400611877 -0.1306692659854889 0.0028014525305479765 -0.037582915276288986 -0.08106429874897003 0.12126658111810684 0.08745613694190979 -0.09740985929965973 0.06255028396844864 -0.2185497283935547 -0.02089291252195835 -0.06600034236907959 -0.07389122992753983 -0.09212882071733475 -0.00987761840224266 -0.08251821994781494 0.08615763485431671
http://dbpedia.org/resource/Hellenistic_philosophy 0.0038358019664883614 -0.010997189208865166 0.020588645711541176 -0.002434162423014641 -0.0040036034770309925 -0.0072495280764997005 -0.02402525767683983 0.012521159835159779 -0.007095533888787031 -0.012380633503198624 -0.0018726367270573974 -0.0034625635016709566 -0.017006652429699898 -0.005752661731094122 0.0049621062353253365 -0.009487028233706951 0.024623744189739227 -0.009133686311542988 -0.013432345353066921 -0.004655272234231234 0.010382645763456821 0.021801330149173737 -0.030942441895604134 -5.7607440976426E-4 -0.0014148626942187548 0.012529284693300724 -0.0029452729504555464 0.00827998947352171 0.007360717281699181 0.0031216645147651434 -0.0021941543091088533 -0.010817086324095726 -0.005191532429307699 0.01636558026075363 0.014925484545528889 0.009104562923312187 0.0036029040347784758 -0.0031852733809500933 0.008769245818257332 -0.003188655013218522 -8.615031401859596E-5 -0.005946786608546972 0.019701726734638214 -0.0034828530624508858 8.802427910268307E-4 -0.018401965498924255 0.017650650814175606 -0.038104016333818436 -0.013977575115859509 -0.010270096361637115 -0.017083505168557167 0.010689247399568558 0.006896114908158779 -0.008309840224683285 -0.006842556409537792 -0.006840176414698362 -0.009336501359939575 -0.02409610152244568 -0.00856406893581152 0.0066108061000704765 -0.005321280565112829 -0.005481784697622061 0.007914352230727673 -0.040551502257585526 0.026191551238298416 0.04907195642590523 -0.029266241937875748 -0.00711850356310606 -0.012662817724049091 -0.044015608727931976 0.0032403625082224607 -0.0029087960720062256 0.0222580898553133 -0.01117115281522274 -0.01781924068927765 -0.0027050492353737354 0.03047235682606697 -0.0019309211056679487 0.01669844426214695 -0.004653743468225002 0.02258256822824478 -0.008841417729854584 7.591494941152632E-4 -0.010956121608614922 0.003491415875032544 0.012690580449998379 -0.008294811472296715 0.004390012472867966 -0.0018340654205530882 -0.005538150202482939 0.011378788389265537 0.01269353087991476 -0.031780440360307693 0.015301228500902653 -0.016742441803216934 -0.017996400594711304 -0.014870308339595795 -0.002413027221336961 0.010999022983014584 0.001317413873039186
http://dbpedia.org/class/yago/WikicatPresocraticPhilosophers -0.05482028052210808 0.0165084395557642 -0.0021800058893859386 -0.020001018419861794 0.03902015835046768 0.06037582457065582 0.13189247250556946 -0.01909397915005684 0.02125021442770958 0.059528451412916183 0.0067227678373456 0.05296509340405464 0.05670581012964249 0.03137274086475372 -0.05982455238699913 0.08767709136009216 -0.03226828575134277 0.0068924506194889545 -0.015101317316293716 0.032947611063718796 0.023224230855703354 -0.09311482310295105 0.012168271467089653 0.04596351087093353 0.03869627043604851 -0.026073021814227104 0.02930264361202717 0.020852457731962204 -0.06713614612817764 -0.0312725231051445 0.016602812334895134 0.08161952346563339 0.011987296864390373 -0.07686194032430649 0.013657132163643837 -0.027925297617912292 -0.010341299697756767 0.03735547140240669 -0.04562413692474365 -0.017396574839949608 -0.010334490798413754 -0.003232971765100956 -0.11857987195253372 -0.0017102995188906789 -0.039484862238168716 0.07107920199632645 -0.05780691280961037 0.16333629190921783 0.07991582155227661 0.07640963792800903 0.09008003771305084 -0.05647074803709984 -0.030277719721198082 0.030162153765559196 0.02323334664106369 0.024644527584314346 0.02436225861310959 0.11499526351690292 0.010468784719705582 -0.024542391300201416 0.008442308753728867 0.05682291463017464 9.56845935434103E-4 0.1394157111644745 -0.09585931897163391 -0.1702290028333664 0.11482635885477066 0.04412288963794708 0.08845098316669464 0.1416681855916977 0.014647014439105988 0.02055017650127411 -0.04629610851407051 0.042175255715847015 0.04326919466257095 -0.03481411933898926 -0.03648888319730759 0.0272019375115633 -0.06445520371198654 0.014344369061291218 -0.042203813791275024 0.005077403038740158 9.643745725043118E-4 0.028209412470459938 0.021171649917960167 -0.03263704851269722 -0.010769713670015335 -0.034104619175195694 -0.03717045858502388 -0.03260914236307144 0.028723444789648056 -0.01713091880083084 0.12643447518348694 -0.0292600616812706 0.031186534091830254 0.06019981950521469 0.07554230093955994 -0.031052999198436737 0.008270623162388802 -0.04701288416981697
http://dbpedia.org/resource/Perictione 0.10285928100347519 -0.0017107792664319277 0.056967396289110184 0.1408139169216156 -0.06419529020786285 -0.06367177516222 -0.10834027826786041 0.028223790228366852 -0.020496198907494545 -0.053582023829221725 0.010352463461458683 -0.031156344339251518 -0.04886792600154877 -0.028897633776068687 0.09071870893239975 -0.09567630290985107 0.05278656259179115 -0.014021310955286026 -0.014229534193873405 -0.020710544660687447 -0.07192022353410721 0.08939759433269501 0.028384331613779068 -0.027181262150406837 -0.10406719893217087 -0.04524293914437294 -0.007799666840583086 -0.03519311547279358 0.15512201189994812 0.02967657893896103 -0.04662856459617615 -0.09338513761758804 0.07027983665466309 0.12875112891197205 -0.16709962487220764 -0.015197285450994968 -0.1408897191286087 -0.05843152478337288 0.12262288480997086 0.0850813239812851 -0.01464071124792099 0.011762564070522785 0.2401253581047058 0.07661593705415726 0.03608972206711769 -0.09683042019605637 0.07224144041538239 -0.16076330840587616 -0.02001509629189968 -0.15844523906707764 -0.14763517677783966 0.1230638399720192 0.017570311203598976 0.019051440060138702 0.012064491398632526 0.008503885939717293 -0.02592204138636589 -0.16300898790359497 0.027687901630997658 0.06099643558263779 -0.025142280384898186 -0.12771426141262054 0.0033942509908229113 -0.1777101308107376 0.14871734380722046 0.284736692905426 -0.1288527399301529 -0.1762460619211197 -0.22026202082633972 -0.1650349348783493 0.06483276933431625 -0.04479224979877472 0.10154369473457336 -0.032277755439281464 -0.1107737347483635 0.21458595991134644 0.13037440180778503 -0.19777004420757294 0.09223690629005432 -0.02356010302901268 0.0017260054592043161 -0.0308065265417099 0.032103803008794785 -0.08048932254314423 -0.13207483291625977 0.005762161687016487 0.0016278414987027645 -0.024764858186244965 0.12357060611248016 0.10932502150535583 -0.10919371992349625 0.04785626381635666 -0.21810142695903778 -0.008732548914849758 -0.05379079654812813 -0.07159363478422165 -0.13255572319030762 0.04304894059896469 -0.08174709975719452 0.11623750627040863
http://dbpedia.org/class/yago/Object100002684 -0.06324248015880585 0.026503875851631165 -0.014503687620162964 -0.007958411239087582 0.041277721524238586 0.05573072284460068 0.14446860551834106 -0.02866126224398613 0.004667620174586773 0.059828177094459534 -0.005911513231694698 0.07109873741865158 0.0656479001045227 0.03450571373105049 -0.06781086325645447 0.11178382486104965 -0.06398816406726837 0.02043321542441845 0.01325315237045288 0.02447490580379963 0.007908881641924381 -0.11800350248813629 0.039255913347005844 0.039678703993558884 0.06082511693239212 -0.04595845565199852 0.034043606370687485 0.014181917533278465 -0.0985121876001358 0.004279669374227524 0.019260765984654427 0.10443930327892303 -0.0028273374773561954 -0.11874451488256454 0.01623331755399704 -0.03166911005973816 -0.0013440479524433613 0.04788340628147125 -0.07206470519304276 -0.012001494877040386 -0.008479333482682705 -0.008698519319295883 -0.14067037403583527 -0.0015241045039147139 -0.016415784135460854 0.10483373701572418 -0.08655519038438797 0.24729539453983307 0.09995432943105698 0.10572735965251923 0.14507770538330078 -0.08803199976682663 -0.03250247985124588 -0.007655504625290632 0.031378697603940964 0.03317509964108467 0.03223205357789993 0.16803526878356934 0.03484629467129707 -0.07043174654245377 -0.005085765849798918 0.09681660681962967 -0.003817517077550292 0.2056957632303238 -0.11838384717702866 -0.24477152526378632 0.12750591337680817 0.0701659545302391 0.12783318758010864 0.1783595234155655 -0.00338243436999619 0.023116670548915863 -0.08298256248235703 0.0482240729033947 0.05675693228840828 -0.05485142767429352 -0.0480966754257679 0.04807335138320923 -0.08768241107463837 0.010852821171283722 -0.022996820509433746 0.013089783489704132 -0.008031105622649193 0.044660892337560654 0.0315915122628212 -0.04132731258869171 -0.010480953380465508 -0.015253997407853603 -0.04417477920651436 -0.03407696634531021 0.039935193955898285 -0.02766411192715168 0.15226642787456512 -0.016344845294952393 0.052158065140247345 0.08018531650304794 0.06732983142137527 -0.018499789759516716 0.010866972617805004 -0.04813728854060173
http://dbpedia.org/resource/Abdera,_Thrace 0.011776186525821686 -0.01348163466900587 0.0072964997962117195 -0.007523417007178068 -0.0028277721721678972 -0.005720401648432016 -0.029743876308202744 -5.586155457422137E-4 -0.020800180733203888 -0.024619685485959053 -0.01208357885479927 -0.00925151165574789 -0.01914963126182556 -0.014753734692931175 -0.0033082824666053057 -0.026509730145335197 0.03306924179196358 -0.006260234396904707 -0.020794453099370003 0.0025884252972900867 0.010305975563824177 0.018184872344136238 -0.025142911821603775 -0.005583298392593861 0.003250749781727791 0.011321984231472015 -0.006583507638424635 0.001385505311191082 0.013978952541947365 0.011973113752901554 -0.007361691910773516 -0.02308950386941433 -0.012347052805125713 0.02193944714963436 0.007541026454418898 0.018926018849015236 0.015015487559139729 -0.01396678015589714 0.00905484240502119 9.718289948068559E-5 0.005484642926603556 -0.007321647834032774 0.032854679971933365 0.0017202362651005387 0.006025721784681082 -0.0274259801954031 0.02248663455247879 -0.05266318842768669 -0.02996158041059971 -0.01796804927289486 -0.023252444341778755 0.01618172973394394 0.008255654945969582 -0.016009556129574776 -0.00804232619702816 -0.012506416067481041 -0.0102140624076128 -0.0414092130959034 -0.012932847253978252 -0.002494413871318102 -0.0041196513921022415 -0.003213269403204322 0.0010972742456942797 -0.044782914221286774 0.034398242831230164 0.06409158557653427 -0.04716440290212631 -0.009744645096361637 -0.025596531108021736 -0.04942706599831581 -0.0025807174388319254 -0.007965680211782455 0.020434871315956116 -0.016276830807328224 -0.017421619966626167 0.010060947388410568 0.023842815309762955 -0.009539040736854076 0.028912032023072243 -0.010914948768913746 0.023575879633426666 -0.003827381180599332 -0.005579349584877491 -0.018696531653404236 0.0029776159208267927 0.012476871721446514 0.0073340535163879395 0.013410286046564579 0.004310763441026211 0.004401889629662037 0.010324453003704548 0.010253619402647018 -0.037218041718006134 0.017530858516693115 -0.014619727618992329 -0.021952619776129723 -0.027336405590176582 0.007809641305357218 0.006200843956321478 0.003694618586450815
http://dbpedia.org/class/yago/CausalAgent100007347 -0.1200082004070282 0.04186324030160904 -0.09179022908210754 -0.07637948542833328 0.05758606642484665 0.06261033564805984 0.17670033872127533 -0.09256322681903839 -0.03822428360581398 0.024649178609251976 -0.07812857627868652 0.08602204918861389 0.07336147129535675 0.007480029948055744 -0.11303820461034775 0.09113413095474243 -0.04814020171761513 0.06897585093975067 -0.016454219818115234 0.02818787470459938 0.018475649878382683 -0.1446940302848816 0.06333325803279877 0.012732721865177155 0.12711839377880096 -0.04043031856417656 0.013902338221669197 -0.0029209787026047707 -0.16282698512077332 0.06149516627192497 0.01655947044491768 0.13991773128509521 -0.0857105702161789 -0.18047937750816345 0.079581119120121 0.001005129306577146 0.1089269295334816 0.0689605250954628 -0.1428758054971695 -0.041376180946826935 0.025792881846427917 -0.031117985025048256 -0.20715844631195068 -0.027650943025946617 0.016733381897211075 0.12173721939325333 -0.11420638114213943 0.2949729263782501 0.0623069629073143 0.16473008692264557 0.22679731249809265 -0.12759515643119812 -0.018084732815623283 -0.09231196343898773 0.01463382225483656 0.03219437226653099 0.02241724543273449 0.20701360702514648 0.017780832946300507 -0.13670428097248077 -0.003564829472452402 0.17088399827480316 -0.012073410674929619 0.2704388499259949 -0.1437835395336151 -0.3443329930305481 0.09985432773828506 0.16183015704154968 0.20376110076904297 0.20155414938926697 -0.09628260135650635 0.04865184798836708 -0.18012046813964844 0.018005741760134697 0.10812313109636307 -0.15143980085849762 -0.15782247483730316 0.13305941224098206 -0.10452931374311447 -0.00954233668744564 0.012861181981861591 0.043697211891412735 -0.0504101924598217 0.09751326590776443 0.09907583892345428 -0.0339445024728775 0.0300289373844862 0.05946134775876999 -0.10394340753555298 -0.06705453991889954 0.09967094659805298 -0.0652875229716301 0.22188425064086914 0.02398153766989708 0.0962265133857727 0.11655011028051376 0.0706811398267746 0.01215304434299469 0.06752032786607742 -0.06148136034607887
http://dbpedia.org/resource/Neopythagoreanism 0.005682149436324835 -0.004284820053726435 -0.0016590041341260076 0.0013746801996603608 -0.006918588187545538 -0.014498214237391949 -0.026880623772740364 -0.0016999318031594157 -0.01331833004951477 -0.016779877245426178 -0.00608021067455411 -0.002287885406985879 -0.016462476924061775 -0.014161686412990093 0.004527424927800894 -0.023294689133763313 0.021926362067461014 -0.0025076831225305796 -0.015411751344799995 3.177251201122999E-4 0.004424616694450378 0.025213027372956276 -0.010637788102030754 -0.012574379332363605 -0.005579470191150904 0.005732588469982147 -0.009412395767867565 -0.007022188510745764 0.017936889082193375 0.012707979418337345 -0.007382394280284643 -0.012013907544314861 -0.013058623299002647 0.01233555469661951 0.008447647094726562 0.007951293140649796 0.005575608927756548 -0.004988433327525854 0.004629142582416534 0.0024373556952923536 0.0030444178264588118 -0.0045977006666362286 0.021543659269809723 -8.482217672280967E-4 0.014479692094027996 -0.018755728378891945 0.01673673652112484 -0.04397964105010033 -0.01937440223991871 -0.010982447303831577 -0.02108142524957657 0.01801113970577717 0.006062567234039307 -0.009522605687379837 -0.0016416369471699 -0.010471321642398834 -0.005689166486263275 -0.025958344340324402 -0.0032507702708244324 -0.003131937002763152 -0.005594571121037006 -0.00913745816797018 -9.817268000915647E-4 -0.04187224432826042 0.02897166833281517 0.04268022999167442 -0.0316542312502861 -0.0069444794207811356 -0.02020547166466713 -0.04289733245968819 -0.008331837132573128 -0.009178750216960907 0.012531286105513573 -0.014160636812448502 -0.015928421169519424 0.00685688853263855 0.01002610381692648 -0.0034629444126039743 0.018850194290280342 -0.004221826791763306 0.020088985562324524 1.0547931015025824E-4 -0.001941133989021182 -0.012988230213522911 -0.0021184664219617844 0.013653955422341824 0.006928842049092054 0.015638787299394608 0.002671606605872512 0.004415060859173536 0.00348091428168118 0.005323334131389856 -0.03696146979928017 0.013116591610014439 -0.003058898961171508 -0.013510233722627163 -0.02466978318989277 0.014889267273247242 0.003876904956996441 0.010226450860500336
http://dbpedia.org/class/yago/WikicatRoman-eraPhilosophersInAthens -0.008114835247397423 0.0018207310931757092 0.00550054432824254 -0.00402572238817811 0.00409316923469305 0.006168875843286514 0.01822556182742119 -0.0023919730447232723 0.007133494131267071 0.015250061638653278 0.007504304870963097 0.013939805328845978 0.013033281080424786 0.01005513221025467 -0.015192425809800625 0.022072285413742065 -0.014391612261533737 0.0016898417379707098 0.004191084764897823 0.0033117076382040977 0.0028679410461336374 -0.016102617606520653 -0.0034087011590600014 0.013547386974096298 0.01329562347382307 -5.638005677610636E-4 8.444830891676247E-4 0.004771877080202103 -0.015215982683002949 -0.00558268278837204 0.0060242884792387486 0.017388565465807915 4.2844691779464483E-4 -0.019336599856615067 0.009589306078851223 -0.004484667908400297 0.00436229957267642 0.005620110314339399 -0.01054978184401989 -0.007422428112477064 -0.006267415825277567 0.0017507829470559955 -0.03346509858965874 -0.0031445093918591738 -0.004261852707713842 0.0128498999401927 -0.014057067222893238 0.036395471543073654 0.009502795524895191 0.02488202229142189 0.020573165267705917 -0.015543182380497456 -0.0037187666166573763 0.002558800159022212 0.0016422162298113108 0.003884435398504138 9.442794835194945E-4 0.024983808398246765 0.00546669727191329 -0.008339638821780682 0.006231617648154497 0.02161453291773796 -0.004303507041186094 0.028655249625444412 -0.02716260962188244 -0.043374624103307724 0.027526430785655975 0.012050850316882133 0.026293890550732613 0.03028680384159088 -1.0228127939626575E-4 0.0015618002507835627 -0.010181503370404243 0.011640257202088833 0.010867983102798462 -0.016093363985419273 -0.005825393833220005 0.02118043042719364 -0.01944465935230255 0.0036829235032200813 -0.0059096310287714005 -0.0032039491925388575 -0.0023388806730508804 0.004265160765498877 0.0068920380435884 -0.004225246608257294 -0.002229725243523717 -0.007054248359054327 -0.013128889724612236 -0.014607425779104233 0.016258278861641884 -0.006467677652835846 0.030282864347100258 8.057928062044084E-4 0.002603852655738592 0.01025292556732893 0.02061314322054386 -0.008867453783750534 9.608190157450736E-4 -0.011237331666052341
http://dbpedia.org/resource/Universe 0.010532069019973278 -0.0021037678234279156 0.0027762223035097122 0.010007974691689014 -0.008335024118423462 -0.013313019648194313 -0.021726982668042183 4.996390198357403E-4 -0.0052357506938278675 -0.011542873457074165 5.596150294877589E-4 -0.011041460558772087 -0.01063686702400446 -0.005164516158401966 0.009152986109256744 -0.010571740567684174 0.0012874866370111704 -0.0015481571899726987 7.987107965163887E-4 -6.41620485112071E-4 -0.007987589575350285 0.014187013730406761 0.002326677553355694 -0.01000491064041853 -0.01294783316552639 -0.0033822469413280487 5.396597407525405E-5 -0.0031118961051106453 0.015369501896202564 0.004685215651988983 -0.006041478365659714 -0.010151914320886135 -2.0321193733252585E-4 0.01916056126356125 -0.011222423054277897 0.0062146056443452835 -0.004391081631183624 -0.006484718527644873 0.012210655957460403 0.007829161360859871 0.0012421474093571305 0.006121597718447447 0.02468695491552353 0.00435530673712492 0.0053439573384821415 -0.00804857723414898 0.008657644502818584 -0.021310165524482727 -0.00743224797770381 -0.01611260138452053 -0.016862278804183006 0.011655940674245358 0.0023766052909195423 -0.005920767784118652 -5.108255427330732E-4 -0.004636772908270359 -0.0030061225406825542 -0.01758183166384697 -0.003967736382037401 0.0029735490679740906 -0.005273107904940844 -0.011073444038629532 8.517178357578814E-4 -0.022076306864619255 0.01802240125834942 0.03273899853229523 -0.01506497710943222 -0.011527991853654385 -0.02363721653819084 -0.02277952991425991 -0.0027020848356187344 -0.007878758944571018 0.007861101999878883 -0.0073170894756913185 -0.009814872406423092 0.010407152585685253 0.006680096499621868 -0.011494379490613937 0.013731511309742928 -0.0010428137611597776 0.005345583893358707 -0.0017397655174136162 -0.0017154905945062637 -0.005842379294335842 -0.006942215375602245 0.006312523037195206 0.004726402927190065 0.0061028143391013145 0.013728592544794083 0.006380714010447264 -0.012757059186697006 0.0017104694852605462 -0.0216620322316885 -0.0029065811540931463 -0.0067597501911222935 -0.005700086243450642 -0.016381865367293358 0.005883543752133846 -0.006357863079756498 0.010506800375878811
http://dbpedia.org/resource/Category:Roman-era_students_in_Athens -0.0012451617512851954 -0.011015697382390499 0.021667074412107468 -0.004631120711565018 0.016393527388572693 0.015030435286462307 0.01242070272564888 0.01175191905349493 -2.478523238096386E-4 0.010371843352913857 -3.712328907568008E-5 0.010789565742015839 0.003145900322124362 2.5246807490475476E-4 -0.009584043174982071 0.005540682468563318 0.020120371133089066 -0.012817814946174622 -0.019572915509343147 0.010268648155033588 0.015974750742316246 -0.008081506006419659 -0.03320279344916344 0.014765262603759766 -0.0015219224151223898 0.008907018229365349 0.007573449984192848 0.013820315711200237 -0.004557036329060793 -0.01370691042393446 0.006226193159818649 0.006524891592562199 0.008168922737240791 6.423425511457026E-4 0.01098966971039772 -0.0019036667654290795 -0.005971087608486414 -0.0034827899653464556 0.0063841925002634525 0.0023220807779580355 -0.0030774646438658237 0.001884502125903964 -6.146745290607214E-4 -0.0015981681644916534 -0.01553285401314497 -0.0020431007724255323 0.0023937560617923737 -0.006930140312761068 0.006098118610680103 0.0022260197438299656 -0.010812107473611832 0.007166100665926933 -0.0037281650584191084 0.01581316813826561 0.004333436954766512 -8.666567737236619E-4 -6.969294045120478E-4 -0.008724497631192207 -0.00704902084544301 0.0012701756786555052 0.0010800372110679746 0.005338346119970083 0.009110047481954098 -0.011603660881519318 0.007856227457523346 0.021673109382390976 -9.459216380491853E-4 -0.007285681087523699 3.771967312786728E-4 -0.013139082118868828 0.01979045197367668 -0.0015963298501446843 0.01882719248533249 0.002996069611981511 -0.012701722793281078 0.009628877975046635 0.023767048493027687 -0.006721644662320614 0.0054735103622078896 0.004991461057215929 7.102180388756096E-4 -0.00561416894197464 0.006731047760695219 -0.011682284995913506 0.004159053321927786 -0.0018648568075150251 -0.00751113798469305 -0.01000407338142395 0.0024184552021324635 -0.0013314670650288463 0.011006209999322891 0.006619830150157213 -0.008766178973019123 0.006119053345173597 -0.0023354743607342243 -0.0057807741686701775 0.003669361351057887 -0.006375512573868036 0.008760809898376465 -0.005635703448206186
