1544 100 47425
http://dbpedia.org/resource/Category:260s_BC_deaths -0.012809902429580688 0.003479959676042199 0.0376485250890255 -0.04936510697007179 0.02124052681028843 0.024437617510557175 0.008494597859680653 0.01876450702548027 -0.024278555065393448 0.03614489734172821 -0.010447432287037373 -0.014346452429890633 0.03441106528043747 0.04436684399843216 -0.023763902485370636 0.03700069338083267 -0.02974957600235939 0.013801110908389091 0.015490218065679073 -0.02369818650186062 0.06992392987012863 -0.014124891720712185 0.014974115416407585 0.014606522396206856 0.04008685424923897 0.008925655856728554 -0.051010455936193466 0.003733777441084385 -0.008650544099509716 -0.019780028611421585 0.001582573400810361 -0.018306484445929527 0.019798196852207184 0.039017923176288605 -0.009527070447802544 0.02471986599266529 -3.9079226553440094E-5 0.01812337525188923 0.05232897773385048 -0.01165548712015152 0.021417692303657532 0.01600075699388981 -0.020832333713769913 -0.0019971071742475033 -0.12037483602762222 0.09550421684980392 -0.004669730085879564 0.07908255606889725 -0.06476929783821106 0.05570188909769058 -0.057238396257162094 -0.036449700593948364 -0.017820054665207863 0.06075545400381088 0.08325076103210449 2.455817302688956E-4 0.06367480009794235 0.06013832613825798 -0.041720911860466 0.015779785811901093 -0.004098652396351099 0.11122651398181915 -0.05924970284104347 0.1452033966779709 -0.05577121675014496 -0.03549325466156006 0.0290604867041111 0.07615585625171661 0.06408732384443283 0.01771208643913269 -0.004730952903628349 -0.1024789959192276 -0.023334302008152008 0.10578980296850204 -0.06595727801322937 -0.049565389752388 -0.12725824117660522 0.09611838310956955 0.025521928444504738 -0.06705271452665329 0.011324060149490833 -0.07918599247932434 0.06176547706127167 -0.1295076459646225 0.013995189219713211 -0.06681811809539795 -0.0018647854449227452 -0.06878083944320679 -0.019716396927833557 -0.04119953513145447 0.05035107955336571 0.013136129826307297 0.05992432311177254 -0.05857670307159424 -0.05513156205415726 -0.006059097126126289 -0.06491750478744507 -0.0148853100836277 -0.07966367900371552 0.019621912389993668
http://dbpedia.org/resource/Jerome -0.02819053642451763 -0.019043751060962677 -0.022148549556732178 -0.008518432267010212 0.013820254243910313 0.007488856557756662 0.021582776680588722 0.010104288347065449 0.009405980817973614 0.014913037419319153 0.012104582041501999 0.005049417726695538 -0.03623003512620926 0.017897017300128937 0.009905032813549042 0.029063496738672256 -0.028455864638090134 -0.024988465011119843 -0.02444777637720108 0.039242442697286606 0.029818912968039513 0.024007251486182213 -0.05003667250275612 0.04952031001448631 0.008238748647272587 -0.004837885033339262 -0.0013718927511945367 0.016127200797200203 -0.024996042251586914 -0.05420570448040962 0.017892824485898018 -0.003103645984083414 0.003162795677781105 -0.026367338374257088 0.010942681692540646 0.00829277653247118 0.022801805287599564 -0.011793319135904312 -0.021264640614390373 0.008011684753000736 -0.01756327971816063 0.0034685228019952774 -0.004752719774842262 -0.003395718289539218 -0.00869662594050169 -0.03064590133726597 -0.010527168400585651 -0.025901082903146744 0.019061986356973648 -0.020039740949869156 -0.0035156349185854197 0.017325682565569878 0.003759414190426469 0.011591779999434948 -0.025186073035001755 -0.008502020500600338 -0.008967932313680649 0.0014537931419909 -0.003937956877052784 -0.016408422961831093 0.0033832842018455267 -0.007087270263582468 0.004199435468763113 -0.00165877107065171 0.0074184187687933445 0.016237014904618263 0.013837287202477455 0.004187365062534809 -0.013233491219580173 -0.017198175191879272 0.007082866504788399 0.02056831307709217 0.01896723546087742 -0.025873124599456787 0.0019239934626966715 0.0060223969630897045 0.026357123628258705 0.01382465474307537 -9.348985040560365E-4 -0.0016877761809155345 -0.006980322301387787 -0.0049848398193717 -0.0017328310059383512 0.01213157270103693 0.005596942268311977 -0.002097387332469225 -0.005959394387900829 -1.8689926946535707E-5 0.01299650501459837 -0.02330200746655464 -0.002805741736665368 -0.0011309210676699877 -0.012927534058690071 0.014285296201705933 0.011511079035699368 -0.0065557328052818775 -0.01447466854006052 0.010117662139236927 -0.01665775291621685 0.013886362314224243
http://dbpedia.org/resource/Quintilian -0.04534967616200447 -0.02363751456141472 -0.021898403763771057 -0.01570105366408825 0.008572296239435673 0.004282161593437195 0.0167551152408123 0.011802827008068562 0.010684682056307793 0.01091911643743515 0.013170219026505947 0.0018704463727772236 -0.02699357457458973 0.02062356099486351 0.014712161384522915 0.024567797780036926 -0.01709248684346676 -0.01060480810701847 6.261189701035619E-4 0.011920038610696793 0.02313188463449478 0.014107475988566875 -0.015995370224118233 0.010212619788944721 -0.007554939948022366 0.0022020041942596436 0.009499529376626015 0.007231422234326601 -0.03213708847761154 -0.0682087168097496 0.021990414708852768 -0.019598152488470078 -0.003961371257901192 0.01125122606754303 0.006749505642801523 0.015180113725364208 0.0171244777739048 -0.018966393545269966 -0.0020329179242253304 0.018470223993062973 0.006100485101342201 8.884936105459929E-4 0.014379408210515976 -7.92184378951788E-4 -0.04094928875565529 -0.011065389961004257 -0.016042333096265793 -0.01583189330995083 -0.033582575619220734 0.0021504336036741734 -0.03552727773785591 0.02520712837576866 -0.008043152280151844 0.016799287870526314 0.004237297922372818 -4.604420973919332E-4 0.010159068740904331 -0.004947000648826361 -0.004423406440764666 -0.0014350441051647067 -0.009774371050298214 0.016162030398845673 -0.015766890719532967 0.02819942682981491 0.014322388917207718 0.02725418098270893 0.008249562233686447 0.027625801041722298 -0.004684806801378727 -0.028639866039156914 -0.00869156513363123 -0.009424282237887383 -0.003957838751375675 0.010266291908919811 -0.03795066103339195 7.205510046333075E-4 -0.045093659311532974 0.04269104823470116 0.01167276781052351 -0.041422463953495026 0.0045987628400325775 -0.026735901832580566 0.027320485562086105 -0.049681566655635834 0.01976878009736538 -0.0365653932094574 0.011748175136744976 -0.026069512590765953 0.0012252232991158962 -0.05483390390872955 -0.0031457338482141495 -0.01594133861362934 -0.00868222489953041 -0.011074165813624859 -0.006644862238317728 0.022491388022899628 -0.04190775752067566 0.015592505224049091 -0.011250358074903488 0.02522449754178524
http://dbpedia.org/resource/Thomas_Taylor_(neoplatonist) -0.056047022342681885 -0.05804771929979324 -0.05674704909324646 -0.03151549771428108 0.05360371991991997 0.05568033084273338 -0.011633668094873428 0.00165631587151438 -0.005495383869856596 -0.018297342583537102 0.028134047985076904 0.021199248731136322 -0.0901561826467514 0.07306718081235886 0.03869042545557022 0.11083313077688217 -0.04626558721065521 -0.025611724704504013 -0.056326087564229965 0.06955771148204803 0.03518125042319298 0.03370494768023491 -0.08365911990404129 0.0980701670050621 0.002540611196309328 -0.007895616814494133 -0.003342364216223359 0.003988927695900202 -0.02439142018556595 -0.07465093582868576 0.03301475942134857 -0.021025462076067924 0.009183765389025211 -0.06166043505072594 0.013956891372799873 0.016067570075392723 0.04929432272911072 -0.03710159659385681 -0.04501669853925705 0.02707068808376789 -0.047591276466846466 0.02358410134911537 -0.01900336891412735 -0.007303842343389988 -0.056663211435079575 -0.031515028327703476 -0.0370943583548069 -0.035407546907663345 0.02355254627764225 -0.0191650353372097 -0.018942829221487045 0.02950240857899189 5.7241006288677454E-5 0.030815206468105316 -0.03380843624472618 -0.005976544227451086 -0.016523731872439384 0.027438217774033546 -0.0028057764284312725 -0.03257172554731369 0.010464359074831009 -0.001842485391534865 -0.016066279262304306 0.028982598334550858 0.025579560548067093 0.026256565004587173 0.0333404615521431 0.030861880630254745 0.0017722018528729677 -0.03473709151148796 0.013217859901487827 0.008348005823791027 0.014194786548614502 -0.025936180725693703 -0.026120631024241447 8.118480909615755E-4 -0.004537093918770552 0.03714708238840103 0.016969220712780952 -0.023324066773056984 -0.003587346524000168 -0.013810236006975174 5.476406076923013E-4 0.02045595645904541 -0.0021326697897166014 0.005488964729011059 -6.833104998804629E-4 -0.008512462489306927 0.03789146617054939 -0.04838573560118675 0.005448328331112862 0.01397619117051363 0.007773474790155888 0.019093403592705727 0.02183985710144043 -0.04577099531888962 -0.09035450220108032 0.025420337915420532 -0.06781895458698273 0.06516767293214798
http://dbpedia.org/ontology/mainInterest 0.07346411794424057 -0.12322553247213364 -0.17543505132198334 -0.020065730437636375 0.12415531277656555 0.13373225927352905 -0.241618812084198 -0.08587276935577393 -0.23294596374034882 -0.26279646158218384 0.0769600197672844 0.008988494984805584 -0.031235963106155396 -0.006079676561057568 0.09812632203102112 0.031073730438947678 0.2875382900238037 0.2406620979309082 0.3558732271194458 -0.4035954177379608 -0.2291087955236435 -0.12013891339302063 0.5139124989509583 -0.44424697756767273 -0.06494148075580597 0.008894000202417374 -0.03835182636976242 -0.2310004085302353 0.03238542750477791 0.2649364471435547 -0.15481117367744446 -0.1506846398115158 -0.005334863904863596 -0.01277325488626957 -0.013917463831603527 0.03572668507695198 0.10593011230230331 -0.030572038143873215 -0.056688688695430756 0.05105022341012955 -0.18960925936698914 0.1328648030757904 -0.21411089599132538 -0.034041427075862885 -0.20237253606319427 0.0795784667134285 -0.02010774239897728 0.13709643483161926 -0.04287070408463478 0.15485012531280518 0.12701906263828278 -0.1614678055047989 -9.452660451643169E-4 -0.0351761169731617 -0.016755765303969383 0.00882922112941742 0.008701234124600887 0.10185936093330383 -0.017718803137540817 -0.11204305291175842 -0.027500750496983528 0.11039826273918152 -0.0973719134926796 0.16268686950206757 0.08726930618286133 0.07707346975803375 -0.22705845534801483 -0.058418091386556625 -0.23860403895378113 -0.09656332433223724 -0.18921957910060883 0.050574444234371185 0.007969934493303299 -0.10037799179553986 -0.05338979884982109 0.1030259057879448 -0.22010524570941925 0.018121521919965744 0.03175367787480354 -0.16224974393844604 0.009305224753916264 0.09604378044605255 -0.08091695606708527 0.02335488237440586 -0.04236004501581192 0.1362147033214569 0.04454721510410309 0.14464572072029114 0.14160357415676117 -0.10217192769050598 -0.06838896870613098 -5.645440614898689E-5 -0.007057602982968092 0.186372771859169 0.1777549535036087 -0.1295226514339447 -0.5466598868370056 0.16448476910591125 -0.314500093460083 0.41087841987609863
http://dbpedia.org/resource/Syllogism -0.023691417649388313 -0.02812369540333748 -0.022052230313420296 -0.037246301770210266 0.0425516702234745 0.05530047416687012 -0.028196442872285843 -0.0026284903287887573 -0.03483127802610397 -0.037938475608825684 0.015078405849635601 0.011971168220043182 -0.02376469038426876 0.027027979493141174 0.02400701679289341 0.03718753159046173 -0.010328879579901695 0.0043673645704984665 0.00266732438467443 -8.204768528230488E-4 0.014697988517582417 0.0087578184902668 -0.0020707135554403067 0.014604341238737106 0.011360961943864822 -0.005428640637546778 -0.019419297575950623 -0.016402779147028923 -0.012253817170858383 -0.014828255400061607 0.003225850872695446 -0.02010505087673664 0.008341324515640736 -0.004440482705831528 -8.624751935712993E-4 0.010041705332696438 0.02050212398171425 -0.010533913969993591 -0.004389400128275156 0.011659557931125164 -0.01123516820371151 0.013074896298348904 -0.004584761802107096 0.0017071673646569252 -0.0648408904671669 0.014351760037243366 -0.022163227200508118 0.006929800845682621 -0.031778573989868164 0.008192278444766998 -0.025537190958857536 -0.0012944142799824476 -0.0014615156687796116 0.00540609797462821 0.015735691413283348 0.0014366831164807081 0.012477181851863861 0.012395968660712242 -0.007323592435568571 -0.0064301276579499245 -6.426869658753276E-4 0.02255008928477764 -0.024246547371149063 0.04278842359781265 9.310595924034715E-4 -0.0010400513419881463 0.002201392548158765 0.025660403072834015 0.009599434211850166 -0.007196784019470215 -0.011144991964101791 -0.03542416915297508 -0.008498011156916618 0.03687617927789688 -0.03646793216466904 -0.009239308536052704 -0.05922026187181473 0.02127399481832981 0.009100886061787605 -0.03238406032323837 0.004953067749738693 -0.01951744593679905 0.022360069677233696 -0.05870474874973297 0.012852299958467484 -0.022245923057198524 0.014669607393443584 -0.01554635539650917 0.0045879739336669445 -0.031038673594594002 -5.812217714264989E-4 -0.008386454544961452 0.014974812045693398 -0.017646832391619682 -0.019607139751315117 0.0200972817838192 -0.04365293309092522 0.0094194570556283 -0.019980860874056816 0.02521778829395771
http://dbpedia.org/resource/Category:280s_BC_deaths -0.039668627083301544 -0.02012753300368786 0.008860546164214611 -0.03815858066082001 0.02705789916217327 0.037169717252254486 0.029456008225679398 0.020995426923036575 -0.008291460573673248 0.03393115475773811 0.012216461822390556 0.021059058606624603 -0.010132107883691788 0.051318857818841934 -0.008275864645838737 0.05395364761352539 -0.045663584023714066 -0.02247517742216587 -0.02947033941745758 0.04038039222359657 0.07677269726991653 0.007853027433156967 -0.05497905984520912 0.05945596843957901 0.02521716244518757 0.005255899857729673 -0.019145037978887558 0.03072858601808548 -0.02852260135114193 -0.07816225290298462 0.024911275133490562 -0.006222598720341921 0.016716957092285156 -0.037615034729242325 0.017053714022040367 0.01596938446164131 0.026977406814694405 -3.3101573353633285E-4 0.004103577230125666 -3.94397706259042E-4 -0.013954472728073597 0.013948804698884487 -0.03486444801092148 -0.012551329098641872 -0.07301165908575058 0.026692746207118034 -0.01493061799556017 0.022972697392106056 0.004930431488901377 0.008312694728374481 -0.03206684812903404 0.004966891370713711 -0.009394831024110317 0.04576876387000084 0.016414940357208252 -0.005019963253289461 0.01619669608771801 0.02284386195242405 -0.022573746740818024 -0.003490047063678503 0.0037490359973162413 0.040204983204603195 -0.01592184789478779 0.050132326781749725 -0.016971951350569725 -0.008244245313107967 0.049827609211206436 0.04121896252036095 0.025359729304909706 -0.008297733031213284 0.0251977127045393 -0.012416583485901356 0.012911412864923477 0.025501765310764313 -0.01978670433163643 -0.017651952803134918 -0.008974107913672924 0.046934839338064194 0.010768587701022625 -0.008212769404053688 -0.001732001081109047 -0.041428256779909134 0.028335977345705032 -0.04116931930184364 0.02023153007030487 -0.03920278325676918 -0.018234863877296448 -0.048197776079177856 0.0054765185341238976 -0.05215490236878395 0.03882948309183121 -0.0030279099009931087 0.022864313796162605 -0.012519167736172676 -0.007947596721351147 -0.02758072502911091 -8.979302365332842E-4 -0.014164574444293976 -0.016442015767097473 -0.01278027892112732
http://dbpedia.org/resource/Category:200s_BC_deaths -4.7018902841955423E-4 0.0042189303785562515 0.01994277909398079 -0.01663762517273426 0.01703968085348606 0.015083861537277699 0.006880516652017832 0.004686758387833834 -0.017063351348042488 0.026216816157102585 -0.0032039908692240715 -0.00899299792945385 0.02224460430443287 0.02843466028571129 -0.021321546286344528 0.017363399267196655 -0.012883057817816734 0.008504553698003292 0.01662364788353443 -0.01529956329613924 0.04128308966755867 -0.009069772437214851 0.01030880305916071 -0.0033368170261383057 0.025150511413812637 0.003166329115629196 -0.031320855021476746 0.004114674869924784 -3.1413364922627807E-4 -0.0011606239713728428 -0.004335202742367983 -0.0030637786258012056 0.018468977883458138 -0.009660830721259117 0.00665601622313261 0.009443257004022598 0.0013103801757097244 0.019201098009943962 0.0298162791877985 -0.018978232517838478 0.0012718148063868284 0.01612890139222145 -0.03286312520503998 -0.012184987775981426 -0.07158520072698593 0.04394528642296791 0.0015626003732904792 0.04892754554748535 -0.024160457774996758 0.03447484225034714 -0.019493717700242996 -0.03290575370192528 -0.005444372072815895 0.025113681331276894 0.04237309843301773 -0.0013407362857833505 0.03438742458820343 0.034756794571876526 -0.021962132304906845 0.006673370487987995 0.0025708740577101707 0.05425446107983589 -0.030155260115861893 0.06659200042486191 -0.026796244084835052 -0.02965778298676014 0.008617741987109184 0.03156815469264984 0.011610982939600945 0.013543439097702503 -0.006150408647954464 -0.040396805852651596 -0.010860089212656021 0.04690049588680267 -0.02318139187991619 -0.020129656419157982 -0.054132215678691864 0.04396333545446396 0.012891600839793682 -0.026229530572891235 0.008908741176128387 -0.03501678258180618 0.026769040152430534 -0.055699240416288376 0.006052052602171898 -0.025860579684376717 -0.009746065363287926 -0.03365904092788696 -0.00427697179839015 -0.02425764501094818 0.028077660128474236 0.01116134598851204 0.026649218052625656 -0.028211494907736778 -0.024968503043055534 -0.007651439867913723 -0.04742130637168884 -0.0045247795060276985 -0.052817948162555695 0.020879965275526047
http://dbpedia.org/resource/Photios_I_of_Constantinople -0.06792531162500381 -0.06884630024433136 -0.05038761347532272 -0.051853153854608536 0.05840494856238365 0.0551486611366272 -0.017005635425448418 -7.899395423009992E-4 -0.01677415333688259 -0.026176078245043755 0.025562552735209465 0.011891755275428295 -0.07401077449321747 0.06850704550743103 0.040551986545324326 0.1056627556681633 -0.012001489289104939 -0.0037254029884934425 0.009006360545754433 0.006257902830839157 0.030157072469592094 0.004700344521552324 -0.004200200084596872 0.0166577510535717 -0.01918078400194645 0.01433499250560999 0.008417452685534954 -0.004837708547711372 -0.0406518392264843 -0.08572028577327728 0.014192856848239899 -0.03384997695684433 0.004860524088144302 0.007023803424090147 0.008046227507293224 0.028577515855431557 0.04423137754201889 -0.031035007908940315 -0.013273751363158226 0.0467599593102932 -0.027641529217362404 0.007557187229394913 0.003968496341258287 -0.0031868545338511467 -0.09250301867723465 0.019434435293078423 -0.017833512276411057 0.02147417888045311 -0.04644380509853363 0.026530582457780838 -0.031126849353313446 -0.0032787243835628033 -0.019155608490109444 0.04175321012735367 0.00472957594320178 -0.01794295199215412 0.009003749117255211 0.016026781871914864 -0.014594714157283306 -0.019239434972405434 -0.01328019518405199 0.048382144421339035 -0.034557268023490906 0.07657578587532043 0.03009027987718582 0.04847700893878937 0.01543225347995758 0.04978092387318611 -0.03275911882519722 -0.06307473033666611 -0.013123639859259129 -5.6137898354791105E-5 0.018251288682222366 -0.002853736048564315 -0.06005417928099632 0.01610121689736843 -0.07779870182275772 0.07212573289871216 0.031243273988366127 -0.06590700149536133 0.012956121936440468 -0.042168062180280685 0.034214433282613754 -0.056667573750019073 0.02206975221633911 -0.03224954381585121 -0.005324268247932196 -0.027464155107736588 0.039462264627218246 -0.11456693708896637 0.02707679010927677 -0.012090454809367657 0.02780851162970066 0.014880020171403885 0.02588687278330326 -0.04609370976686478 -0.12305442243814468 0.03468158468604088 -0.06998037546873093 0.07787556201219559
http://ar.dbpedia.org/resource/???????? -0.04976167529821396 -0.08529140055179596 -0.09108373522758484 -0.07242918014526367 0.06084946542978287 0.07970220595598221 -0.08145490288734436 -0.02565450593829155 -0.007124094292521477 -0.0766311064362526 0.00408907700330019 -0.024792347103357315 -0.06174895167350769 0.011919650249183178 0.04842834547162056 0.038503874093294144 -0.029404977336525917 -0.002486265730112791 -0.04877284914255142 0.04332311451435089 0.0033943483140319586 0.04950502887368202 -0.06293319165706635 0.08096402883529663 0.029483703896403313 -0.027574336156249046 -0.047997765243053436 -0.039217233657836914 0.02117905393242836 0.0359906442463398 0.002103052567690611 -0.02391691505908966 -0.02163873240351677 0.07807847112417221 -0.03545431047677994 -0.019842972978949547 -0.01991022378206253 -0.057503532618284225 -0.0168561153113842 0.05112002044916153 0.0189602542668581 -0.006563857663422823 0.12153084576129913 0.03165386617183685 0.07835008949041367 -0.03695758804678917 -0.003377448534592986 -0.06551143527030945 -0.03536707162857056 -0.005321237724274397 -0.012341131456196308 0.012654539197683334 -6.407479522749782E-4 -0.019846763461828232 -0.01263729389756918 4.200137045700103E-4 -0.0049898698925971985 -0.026224523782730103 0.003334903856739402 0.021719234064221382 -0.0033320358488708735 -0.02349342592060566 0.017905930057168007 -0.013862309977412224 -0.001015756162814796 0.013035131618380547 -0.026685398072004318 -0.016803903505206108 -0.05942605435848236 -0.013311179354786873 -0.025775892660021782 0.016012350097298622 0.018207916989922523 -0.008926594629883766 -0.01064473856240511 0.01718371920287609 0.016160624101758003 -0.024296781048178673 -6.8356201518327E-4 0.007407297380268574 -0.0030860230326652527 0.03100435435771942 -0.014612107537686825 -0.019444361329078674 -0.0049031260423362255 0.02491220273077488 -5.360207433113828E-5 0.022791000083088875 -0.024919208139181137 0.0431496761739254 -0.004448006860911846 0.0031675188802182674 -0.04392000287771225 0.012399864383041859 0.00954760704189539 0.05066348612308502 -0.0320267528295517 0.021020537242293358 -0.00836174190044403 0.0233659278601408
http://dbpedia.org/resource/Euclid's_Elements -0.02460852824151516 3.933069237973541E-4 -0.004764912184327841 0.016656778752803802 -0.008957228623330593 -0.025196664035320282 0.047946758568286896 0.016904771327972412 0.015158896334469318 0.05084747076034546 0.005873435642570257 -0.0020397126208990812 -0.00470710638910532 0.005128674209117889 -0.01500009000301361 -0.003481123363599181 -0.011151283048093319 -0.01686938852071762 0.0018935175612568855 0.018889492377638817 0.034879639744758606 0.008573869243264198 -0.00899442844092846 0.001008514198474586 -0.007137975189834833 0.01314249075949192 0.013772216625511646 0.01020052656531334 -0.02484256401658058 -0.05443863943219185 0.014109062030911446 -0.0037111565470695496 0.014563821256160736 -0.0333450511097908 0.026505714282393456 0.014560719951987267 0.024462277069687843 0.014410874806344509 0.003331464249640703 -0.007589633110910654 -0.0120421526953578 -4.058188060298562E-4 -0.03469042852520943 -0.01177560817450285 -0.022007718682289124 -0.012127215974032879 -0.008788623847067356 -0.010874987579882145 9.434161620447412E-5 0.004886569455265999 -0.01280460599809885 0.0044265855103731155 -0.004578384570777416 0.01418419647961855 -0.0068448749370872974 -0.00192313885781914 0.004435569979250431 0.0085673863068223 -0.004425065126270056 -0.009414310567080975 -0.0024229364935308695 0.007729715202003717 -0.0053411549888551235 0.009335852228105068 -0.011410784907639027 -0.008964459411799908 -0.003988565877079964 0.015475945547223091 -0.004097333177924156 -5.80978870857507E-4 -0.013000519946217537 -0.005226833280175924 0.002677908632904291 0.003901588497683406 -0.006170743610709906 0.008141439408063889 -0.01306649949401617 0.011411283165216446 0.0015826779417693615 -0.011534344404935837 0.004161821212619543 -0.013434085063636303 0.0017310824478045106 -0.007351605221629143 0.0019987737759947777 -0.007603384088724852 0.005617138929665089 -0.004991280846297741 0.018212080001831055 -0.020669741556048393 0.002996483352035284 0.004357387777417898 -0.019004764035344124 0.010372321121394634 0.0019577594939619303 0.009935758076608181 -0.06798580288887024 0.02366688847541809 -0.04338417202234268 0.043734822422266006
http://dbpedia.org/resource/Friedrich_Nietzsche -0.02456345222890377 -0.03910199925303459 -0.04640915244817734 0.0038989463355392218 0.04262007400393486 0.04450166970491409 -0.015083144418895245 -8.15718260128051E-4 -0.012835729867219925 -0.039013009518384933 0.03819778561592102 0.04476421698927879 -0.0912378653883934 0.06511244177818298 0.03798210248351097 0.11659862846136093 -0.002925961511209607 -0.010789433494210243 -0.013266436755657196 0.027550412341952324 -0.016868136823177338 3.669738071039319E-4 -0.022680016234517097 0.026387367397546768 -0.03273378312587738 0.006750882137566805 0.0336255244910717 -0.0015969129744917154 -0.018751682713627815 -0.052500735968351364 0.011343794874846935 -0.015121297910809517 0.010307755321264267 -0.12230399250984192 0.03875964134931564 0.019330626353621483 0.059565186500549316 -0.0070733483880758286 -0.05714011192321777 0.0014956435188651085 -0.09263865649700165 0.04514366388320923 -0.10106538236141205 -0.024677488952875137 -0.09787774085998535 -0.022136254236102104 -0.03743492439389229 -0.007817216217517853 0.06019865348935127 -0.01025532465428114 0.029704125598073006 0.016472943127155304 0.0023134450893849134 0.012695478275418282 -0.05683434009552002 -0.009637919254601002 -0.031234610825777054 0.027513427659869194 1.0287028999300674E-4 -0.05919370427727699 0.009206603281199932 -0.010208326391875744 -0.01305548008531332 0.01805093325674534 0.034131914377212524 0.0348028726875782 0.01410809624940157 0.004471706226468086 -0.009422280825674534 -0.032967306673526764 0.005693923216313124 0.02809029258787632 0.011917428113520145 -0.049779944121837616 -0.0037302905693650246 0.008435995317995548 -0.008033864200115204 0.013849781826138496 0.012359000742435455 -0.021163515746593475 -0.004876726772636175 0.011605060659348965 -0.02459823526442051 0.08044750243425369 -0.022666528820991516 0.037405867129564285 -0.004904461093246937 0.025429682806134224 0.0719776377081871 -0.05479389801621437 -0.007040074095129967 0.017339633777737617 0.021807724609971046 0.052559252828359604 0.04765594005584717 -0.09587611258029938 -0.14276933670043945 0.04144430160522461 -0.09196855127811432 0.09660490602254868
http://dbpedia.org/resource/Philolaus -0.13153794407844543 -0.08623956888914108 -0.02641214057803154 -0.16175837814807892 0.09507367014884949 0.12756620347499847 -0.03252526372671127 -9.570858092047274E-4 0.02265266701579094 -0.04328790307044983 0.006033907178789377 0.009537946432828903 -0.07957810908555984 0.04036618396639824 0.033938318490982056 0.053265009075403214 -0.07048775255680084 -0.04068969562649727 -0.08916500955820084 0.09414336830377579 0.03314511105418205 0.032075777649879456 -0.1256621778011322 0.11912620067596436 0.0076060425490140915 -0.013143252581357956 0.013904483988881111 0.029769711196422577 0.019568568095564842 -0.06252875179052353 0.03928971290588379 0.02761947363615036 -0.028366954997181892 0.10969346016645432 -0.02748430334031582 -0.024976370856165886 -0.059378717094659805 -0.01784299872815609 0.03854222968220711 0.03491569682955742 0.06420677900314331 -0.062174826860427856 0.16068552434444427 0.02835570089519024 0.08781066536903381 -0.030659740790724754 -3.7182722007855773E-4 -0.06588539481163025 -0.03177789971232414 -0.02258542738854885 -0.035834066569805145 0.026547249406576157 -0.013197630643844604 -0.003885762533172965 0.003631614614278078 -0.017859453335404396 -0.025937937200069427 -0.07252789288759232 0.004979634191840887 0.06631708890199661 -0.009671191684901714 -0.060377247631549835 0.06305306404829025 -0.09478706121444702 -0.029324639588594437 -0.036618422716856 -0.03117440454661846 -0.05538443103432655 -0.06851252913475037 0.026032380759716034 -0.029410919174551964 0.01716158725321293 0.023907329887151718 0.04435046762228012 0.04035906493663788 0.008004066534340382 0.04478561878204346 -0.07112289220094681 -0.03552505373954773 0.054288312792778015 -0.02189767174422741 0.031146707013249397 -0.02275693044066429 -0.060906145721673965 -0.008116611279547215 0.01616876758635044 -0.04521099105477333 0.0069298469461500645 -0.02291279099881649 -0.061794787645339966 0.04440155252814293 -0.009127464145421982 -0.03977746516466141 0.0024967992212623358 0.0302736833691597 0.01347193494439125 -0.11306159198284149 0.06339675933122635 -0.044625960290431976 0.07186084240674973
http://dbpedia.org/resource/Cynic_epistles -0.04033247381448746 -0.023278210312128067 -0.01281337533146143 -0.017416110262274742 0.017866551876068115 0.015102057717740536 0.024113234132528305 0.012229976244270802 -0.005169238429516554 0.01660769060254097 0.01018149871379137 0.0024469434283673763 -0.01642005704343319 0.008425899781286716 -0.001183337182737887 0.020642725750803947 -0.025324217975139618 -0.015508506447076797 -0.019809650257229805 0.03609412908554077 0.03857200965285301 0.025261348113417625 -0.03686700388789177 0.040424149483442307 0.01541975885629654 -0.0023260999005287886 -0.007427912671118975 0.01402386836707592 -0.027129488065838814 -0.05478445068001747 0.02612532675266266 -0.010443147271871567 0.005826220847666264 -0.030464554205536842 0.016329988837242126 0.02213873155415058 0.025908730924129486 -0.01029975526034832 -0.006858264096081257 0.010214180685579777 -0.013285912573337555 0.008020729757845402 -0.008751742541790009 -0.002781955059617758 -0.02161160297691822 -0.010383480228483677 -0.015503086149692535 -0.013735796324908733 0.0177780631929636 -0.017835814505815506 -0.014346042647957802 0.020693538710474968 0.0030587699729949236 0.01845959946513176 -0.01129006128758192 2.9843521770089865E-4 -0.00372059247456491 0.013875357806682587 -7.942356751300395E-4 -0.018017897382378578 -0.0040635764598846436 0.017492681741714478 -0.016700154170393944 0.030040303245186806 -0.0014012216124683619 0.011652828194200993 0.024775004014372826 0.02660408243536949 0.019519710913300514 -0.02015983685851097 0.013097702525556087 -0.00341645535081625 0.0017348662950098515 -0.009079426527023315 -0.021485477685928345 0.001240851590409875 -0.00970484223216772 0.02846113033592701 0.011193743906915188 -0.01686740294098854 0.004271819721907377 -0.030763372778892517 0.01915975846350193 -0.01610804721713066 0.0168872382491827 -0.02733372338116169 0.0072782570496201515 -0.015663525089621544 0.018826264888048172 -0.03820294141769409 -0.0024063396267592907 -0.012548314407467842 -0.006713807117193937 0.014617624692618847 0.009246105328202248 -0.010920406319200993 -0.022279459983110428 0.005669808015227318 -0.015969572588801384 0.015640772879123688
http://dbpedia.org/resource/Category:Roman-era_Athenian_philosophers -0.04586319252848625 -0.00599730433896184 0.007997550070285797 -0.025335311889648438 0.030297430232167244 0.028138410300016403 0.0470062792301178 0.019315136596560478 -0.009638122282922268 0.06249317154288292 0.015476152300834656 0.01394902914762497 -0.003383635776117444 0.04247551038861275 -0.020011404529213905 0.03023274801671505 -0.0636311024427414 -0.026131778955459595 -0.04465038329362869 0.05777396261692047 0.10874072462320328 0.021706383675336838 -0.07291316241025925 0.08833100646734238 0.047647662460803986 8.069326868280768E-4 -0.04564070701599121 0.03484136983752251 -0.048203714191913605 -0.10835840553045273 0.035995002835989 -0.015371293760836124 0.03568677231669426 -0.11524336040019989 0.04444131255149841 0.037100899964571 0.05760074406862259 -3.4134427551180124E-4 -0.012223266996443272 -0.014590520411729813 -0.039491839706897736 0.029664259403944016 -0.0873928889632225 -0.017628762871026993 -0.0981936976313591 0.014009463600814342 -0.02261701039969921 0.01895044557750225 0.06372041255235672 -0.0205670353025198 -0.017974600195884705 0.02206525392830372 -1.5056591655593365E-4 0.06035054102540016 -0.0042763142846524715 -0.004151802510023117 0.005655658897012472 0.06978938728570938 -0.023549972102046013 -0.040099386125802994 0.01100007351487875 0.05065850540995598 -0.033548250794410706 0.07590129226446152 -0.022331351414322853 -0.0026493286713957787 0.07886362820863724 0.06543254107236862 0.07560516148805618 -0.00212551630102098 0.05041172355413437 -0.022705478593707085 0.003199302824214101 0.021228086203336716 -0.025750765576958656 -0.03371892496943474 -0.016972549259662628 0.07118203490972519 0.01922132447361946 -0.02399950474500656 0.0018205030355602503 -0.061907265335321426 0.03245879337191582 -0.02609185129404068 0.02125956304371357 -0.0371268093585968 -0.02409353293478489 -0.047454532235860825 0.034729763865470886 -0.0918910801410675 0.03636656701564789 -0.0028802647721022367 0.01814592257142067 0.026030180975794792 0.008010109886527061 -0.07241353392601013 -0.03589411824941635 -0.004468281287699938 -0.04758337885141373 0.011407358571887016
http://dbpedia.org/resource/Augustus -0.03725200146436691 -0.031235305592417717 -0.021229209378361702 -0.02303542196750641 0.027066677808761597 0.024283722043037415 4.7009141417220235E-4 0.002178727649152279 -0.011710968799889088 -0.007921296171844006 0.021691234782338142 0.010448222979903221 -0.03203682601451874 0.02388625033199787 0.01735616661608219 0.03479299321770668 -0.016206420958042145 -0.008829896338284016 -0.005383769515901804 0.020439988002181053 0.02183770388364792 0.015455781482160091 -0.0176708847284317 0.02191147953271866 0.0026357178576290607 0.006119268946349621 -0.0012308418517932296 0.00561989052221179 -0.02190457284450531 -0.058009956032037735 0.016039757058024406 -0.01698228344321251 0.0010850549442693591 -0.0025554404128342867 0.006059722974896431 0.020159266889095306 0.02859426848590374 -0.011899245902895927 -3.443294554017484E-4 0.01994701474905014 -0.005398931447416544 0.002334877848625183 1.974493934540078E-4 -0.002774513326585293 -0.05856926366686821 -0.006935594603419304 -0.025083323940634727 -0.007499877363443375 -0.04158041998744011 0.001877753296867013 -0.04014231637120247 0.014963166788220406 -0.00773989874869585 0.009484687820076942 7.405435317195952E-4 -0.004598588217049837 0.00629987008869648 0.009195983409881592 -1.5343124687206E-4 -0.01177234947681427 -0.012116718105971813 0.01789657026529312 -0.025210153311491013 0.036888424307107925 0.013453788124024868 0.01824403740465641 0.010730077512562275 0.02525942213833332 -0.004062038846313953 -0.023655882105231285 -0.006294664461165667 -0.023516889661550522 -0.005753293167799711 0.010856401175260544 -0.04311134293675423 -1.6401206084992737E-4 -0.05334850028157234 0.04132222384214401 0.020090030506253242 -0.043080948293209076 0.011869523674249649 -0.028438908979296684 0.03092273324728012 -0.050214171409606934 0.014307710342109203 -0.03687853738665581 0.015597578138113022 -0.018320467323064804 0.012219913303852081 -0.036863572895526886 -0.01579027995467186 -0.008090447634458542 -7.416959851980209E-4 -0.011142726987600327 -0.00747118704020977 0.016865938901901245 -0.05654333531856537 0.01959485188126564 -0.022007806226611137 0.0358823724091053
http://dbpedia.org/resource/Category:LGBT_people_from_Greece 0.016817674040794373 0.01665373146533966 0.004617474973201752 0.01870906725525856 -0.01292557641863823 -0.022535404190421104 0.018232248723506927 0.0011930144391953945 -0.0023944289423525333 0.028275350108742714 -0.0063654230907559395 -0.016012229025363922 0.03073817305266857 -0.016794534400105476 -0.015469184145331383 -0.032596319913864136 -0.0043143006041646 0.0029091022443026304 0.0045188916847109795 -0.004191340412944555 0.02289406582713127 0.007148807402700186 0.01929190382361412 -0.003995437640696764 0.025677774101495743 0.0028251565527170897 -0.02671339362859726 -0.004846806172281504 -0.0029966230504214764 0.005740780383348465 -0.0060742925852537155 -0.008372154086828232 0.007484786212444305 -0.018186815083026886 0.006706335116177797 0.0044101024977862835 0.004099266603589058 0.014137383550405502 0.009727764874696732 -0.009621758945286274 -0.004236056003719568 0.008603870868682861 -0.023381073027849197 -0.012358531355857849 -0.021297378465533257 0.008414030075073242 -0.004557304084300995 0.012141971848905087 0.003614959539845586 9.32637951336801E-4 -0.005131114274263382 -0.004640271887183189 0.0014757603639736772 0.009757381863892078 0.010025359690189362 4.943139501847327E-4 0.015693718567490578 0.03036918304860592 -0.014224033802747726 -0.0038673910312354565 0.0020593907684087753 0.020619817078113556 -0.013758678920567036 0.019936222583055496 -0.02022714354097843 -0.016490157693624496 8.217173744924366E-4 0.005881067831069231 0.015717636793851852 0.01702788658440113 -0.010071875527501106 -0.019990792497992516 -0.005259316880255938 0.018985405564308167 -0.0042391493916511536 -0.003937683533877134 -0.0170173067599535 0.009805859066545963 0.009673879481852055 -0.009636364877223969 -7.608199375681579E-4 -0.01700323261320591 0.010436599142849445 -0.028000570833683014 0.0015441880095750093 -6.774276844225824E-4 0.0035793499555438757 -0.005713924299925566 0.0060426294803619385 -0.004390253685414791 0.0036997655406594276 0.0017188144847750664 -8.311312994919717E-4 -0.004225585609674454 -0.006231339182704687 -0.0035725748166441917 -0.028224116191267967 3.2509048469364643E-4 -0.029835686087608337 0.016325755044817924
http://dbpedia.org/resource/Category:Political_philosophers -0.002660273341462016 0.018496505916118622 0.04533914476633072 -0.012191199697554111 -0.02506723254919052 -0.044749293476343155 0.04951110854744911 0.023119986057281494 0.014474277384579182 0.07957172393798828 -0.02030385099351406 -0.03632577881217003 0.0641988068819046 -0.015581772662699223 -0.036270055919885635 -0.05148092284798622 -0.011123190633952618 -0.001485492568463087 0.01869930326938629 -0.017451493069529533 0.06985504180192947 8.815183537080884E-5 0.019142834469676018 -0.00511168222874403 0.017535211518406868 0.017080865800380707 -0.02106139250099659 0.01516962330788374 -0.022570764645934105 -0.04855877906084061 0.007199029438197613 -0.02282973937690258 0.012602034024894238 0.04209700971841812 0.004787500016391277 0.022256622090935707 0.010890970937907696 0.017789233475923538 0.052776772528886795 6.576796877197921E-4 0.03174610808491707 -8.644085610285401E-4 -0.0024970704689621925 -0.007538546342402697 -0.06912925839424133 0.06022002175450325 0.005652475170791149 0.05155045539140701 -0.05150611326098442 0.04151301458477974 -0.05142383277416229 -0.023664988577365875 -0.021075619384646416 0.05245126038789749 0.06434138119220734 -0.0035918536596000195 0.04527546092867851 0.039544351398944855 -0.03713425621390343 0.01156949158757925 -0.013014160096645355 0.08977410942316055 -0.04063431918621063 0.09418097138404846 -0.04980379343032837 -0.03304069861769676 0.020132984966039658 0.05539052188396454 0.036350369453430176 0.017689170315861702 -0.008864023722708225 -0.07503048330545425 -0.017062274739146233 0.08854324370622635 -0.05054747685790062 -0.027706895023584366 -0.10790599882602692 0.07257284969091415 0.013304467312991619 -0.058558106422424316 0.015600170940160751 -0.0551968589425087 0.0428830087184906 -0.10758179426193237 0.016381168738007545 -0.045282065868377686 -0.009192136116325855 -0.049469854682683945 -0.0052304333075881 -0.04019545018672943 0.04280117526650429 0.006701107602566481 0.014334910549223423 0.0023657670244574547 -0.005313965491950512 -0.018569935113191605 -0.08087879419326782 0.009763934649527073 -0.06033458560705185 0.037423547357320786
http://dbpedia.org/class/yago/Wikicat4th-centuryBCHistorians 0.016580913215875626 0.021649425849318504 0.018450558185577393 0.0012810435146093369 -0.0026478124782443047 -0.009041325189173222 0.014710831455886364 0.004458252806216478 -0.0066284979693591595 0.018870916217565536 -0.00465327687561512 0.00428676838055253 0.02755843847990036 -0.0032561824191361666 -0.011590884998440742 -0.0072709121741354465 0.0021151788532733917 0.0012573502026498318 0.011694683693349361 -0.009553262032568455 0.01739956997334957 -0.005030294414609671 0.010371090844273567 -0.009349528700113297 0.008439256809651852 0.009384915232658386 -0.007775783073157072 0.009855617769062519 -0.0015999131137505174 -0.004220344126224518 0.003415766404941678 1.6449371469207108E-4 0.006560978014022112 -0.032689981162548065 0.003722704015672207 0.008949237875640392 0.014375121332705021 0.010790064930915833 4.6875502448529005E-4 -0.01645018346607685 -0.010730873793363571 0.015713654458522797 -0.04018942639231682 -0.003141115652397275 -0.03430958092212677 0.024551715701818466 -0.0069815004244446754 0.018417077139019966 0.018497515469789505 0.004325783345848322 -0.0014009852893650532 -0.006228576879948378 0.0014942410634830594 0.017375316470861435 0.010632835328578949 -0.0020442171953618526 0.010372156277298927 0.030004501342773438 -0.008637494407594204 -0.014760111458599567 -6.300685927271843E-4 0.02131122164428234 -0.016776205971837044 0.03331930935382843 -0.011101667769253254 -0.011266234330832958 0.022734101861715317 0.023850340396165848 0.044431913644075394 0.008512066677212715 0.018536601215600967 -0.017139393836259842 -0.012585220858454704 0.011170248501002789 -0.009991345927119255 -0.02542986534535885 -0.017151443287730217 0.028297455981373787 0.011217180639505386 -0.013433405198156834 0.01051665935665369 -0.025466881692409515 0.013790232129395008 -0.00937497429549694 0.007353117689490318 -0.020770642906427383 0.00669251149520278 -0.024971861392259598 5.559741985052824E-4 -0.01628264971077442 0.007039867807179689 -0.00367907015606761 0.020079851150512695 -0.01695176586508751 -0.01312397699803114 -0.013500258326530457 0.023656368255615234 -0.01257270947098732 0.0010534301400184631 -0.017954407259821892
. 0.23735661804676056 0.27883464097976685 0.023437559604644775 0.6026033163070679 -0.32311201095581055 -0.4027521014213562 0.10422535985708237 0.027295975014567375 0.4528765082359314 0.324922114610672 -0.048621293157339096 -0.14908520877361298 -0.25438225269317627 0.14437635242938995 0.05955160781741142 0.11706840991973877 -0.24421285092830658 -0.1565304398536682 -0.16645492613315582 0.3296205401420593 0.2621283531188965 0.091486856341362 -0.1862613409757614 0.2346525639295578 -0.0062637533992528915 0.057731661945581436 -0.05816936492919922 0.07235262542963028 0.21897557377815247 0.39537671208381653 -0.179265558719635 0.13322293758392334 0.07862962037324905 -0.062240201979875565 0.02196422591805458 -0.2038545310497284 -0.3302696943283081 0.4882073402404785 0.24326159060001373 -0.4615684747695923 -0.2685897648334503 0.10012711584568024 -0.46822020411491394 -0.1819303035736084 -0.6138854622840881 0.16261909902095795 -0.15550222992897034 0.08575320243835449 -0.5870394110679626 0.3859529495239258 -0.008756903000175953 -0.28568562865257263 0.056078385561704636 -0.1992751955986023 0.11760573089122772 0.04602573439478874 0.1377074420452118 0.12352476269006729 0.018713878467679024 0.012762592174112797 0.1257370114326477 -0.24360081553459167 0.09947096556425095 -0.3184344470500946 -0.40960052609443665 -0.6635011434555054 -0.7020981907844543 -0.404267817735672 -0.6406803727149963 0.5318800210952759 -0.6408771872520447 -0.011477377265691757 0.050470948219299316 0.05085916817188263 0.3492773473262787 0.18127916753292084 0.24782250821590424 -0.6150153875350952 -0.20177531242370605 0.30565792322158813 -0.2264518439769745 0.5295729637145996 -0.39071863889694214 0.329679936170578 -0.27856719493865967 0.7704688906669617 -0.08813346922397614 0.4519653916358948 -0.09330589324235916 0.6665567755699158 0.3897996246814728 0.4900589883327484 -0.27324506640434265 -0.6055626273155212 -0.412321537733078 0.8115493655204773 0.107620470225811 -0.268008291721344 -0.421527624130249 -0.2105170637369156
http://dbpedia.org/resource/Marsilio_Ficino -0.019557040184736252 -0.03271529823541641 -0.03472550958395004 -0.007742578629404306 0.03507915511727333 0.03591374680399895 -0.02228499762713909 -0.008667283691465855 -0.012589980848133564 -0.041729751974344254 0.02642175927758217 0.033022478222846985 -0.07266445457935333 0.052102018147706985 0.03268369659781456 0.09833524376153946 -0.008923863060772419 -0.010281781665980816 -0.018494989722967148 0.020565683022141457 -0.013117245398461819 0.008486708626151085 -0.028666183352470398 0.02877471223473549 -0.024083247408270836 0.001545952633023262 0.014521961100399494 -0.005559350363910198 -0.014780639670789242 -0.0368817113339901 0.010637287981808186 -0.005932261236011982 0.0028944562654942274 -0.07597633451223373 0.02390495128929615 0.009660745039582253 0.03925662115216255 -0.01834956556558609 -0.03967659920454025 0.015378597192466259 -0.06307388842105865 0.023761702701449394 -0.06237581744790077 -0.015900006517767906 -0.06849677115678787 -0.021686309948563576 -0.029508182778954506 -0.012998895719647408 0.04462936893105507 -0.015236329287290573 0.016054831445217133 0.015354174189269543 0.005707446951419115 0.008355393074452877 -0.04256672412157059 -0.005823609884828329 -0.022557543590664864 0.01641162671148777 -0.0010915582533925772 -0.04048599302768707 0.007595308590680361 -0.00943098682910204 -0.0038377672899514437 0.004596498794853687 0.024086199700832367 0.02179265022277832 0.0016594473272562027 -0.0016214132774621248 -0.008993330411612988 -0.017453879117965698 0.005606073420494795 0.029068009927868843 0.0053978064097464085 -0.025508036836981773 0.0029558385722339153 0.0034550547134131193 0.007239673752337694 3.384287701919675E-4 -0.006370019167661667 0.003634043736383319 -0.011989892460405827 0.008670110255479813 -0.02806982398033142 0.05325767770409584 -0.01668490283191204 0.03765171766281128 -0.012686116620898247 0.01813025213778019 0.04957358539104462 -0.043402329087257385 0.01185799203813076 0.01533406600356102 0.003968181554228067 0.030947281047701836 0.03408529981970787 -0.06072497367858887 -0.09496669471263885 0.027202695608139038 -0.07589153200387955 0.06941162794828415
http://dbpedia.org/resource/Category:Plato 0.0011186068877577782 0.016258256509900093 0.015618303790688515 0.009722873568534851 -0.015080873854458332 -0.021909287199378014 0.028773918747901917 0.01159181073307991 0.005503468681126833 0.04384647309780121 0.0014019430382177234 -0.00883007887750864 0.0249174851924181 -0.020679257810115814 -0.022235434502363205 -0.032591283321380615 -0.005118124186992645 0.004211124964058399 0.0062471963465213776 -0.0038614196237176657 0.022228822112083435 3.98936535930261E-4 0.009457538835704327 -0.0025016763247549534 0.01309184730052948 0.0016838727751746774 -0.013465224765241146 9.040436125360429E-4 -0.014367969706654549 -0.017776645720005035 0.0030938968993723392 0.001083011506125331 0.007681355811655521 -0.031790249049663544 0.011619419790804386 0.014414544217288494 0.014017562381923199 0.013857986778020859 0.01016539242118597 -0.008624282665550709 -0.005747199058532715 -0.0020374658051878214 -0.031815361231565475 -0.010637292638421059 -0.016192693263292313 0.009956005029380322 0.005860630422830582 0.01144078467041254 0.009283320046961308 -6.543768104165792E-4 0.001571775646880269 -6.723373662680387E-4 -0.004769563674926758 0.012869484722614288 0.01148195844143629 0.004233181476593018 0.0020319651812314987 0.013903739862143993 -0.008440675213932991 -0.00730435224249959 0.003118495224043727 0.020418154075741768 -0.0019126285333186388 0.010387866757810116 -0.015294164419174194 -0.01432036142796278 5.851815221831203E-4 0.004382376093417406 0.0066260239109396935 0.01559368520975113 8.466866565868258E-4 -0.014513473957777023 -0.005797112360596657 0.015133394859731197 -0.004215833730995655 7.548675639554858E-4 -0.009791204705834389 0.008130380883812904 -3.685598785523325E-4 -0.006255380809307098 -0.0015700273215770721 -0.01201507356017828 0.00812669936567545 -0.01549129094928503 -0.003227214328944683 -0.004969643894582987 -0.007804987486451864 -0.007026886101812124 0.00974928867071867 -0.018231971189379692 0.005793201271444559 0.005486305337399244 -3.7114761653356254E-5 0.011781110428273678 0.00448961416259408 -0.012392048723995686 -0.03489339351654053 0.010953905992209911 -0.0211566723883152 0.016993101686239243
http://dbpedia.org/resource/Livy -0.00971839390695095 -0.011290628463029861 -0.02062283270061016 0.009906373918056488 0.0048631299287080765 -0.008296758867800236 -0.002514585619792342 2.3031567980069667E-4 0.003970998805016279 -0.006167212501168251 0.007834118790924549 0.003523628693073988 -0.021058890968561172 0.012417323887348175 0.0091953594237566 0.020522814244031906 0.01669936627149582 0.007425015792250633 0.014167334884405136 -0.008189071901142597 -0.009281300008296967 -3.429322096053511E-4 0.011583259329199791 -0.014402875676751137 -0.023564718663692474 0.007298566866666079 0.013469541445374489 7.47687416151166E-4 -0.011916873045265675 -0.01835131272673607 -0.0017308342503383756 -0.008298310451209545 -0.008182749152183533 0.019508501514792442 7.754822727292776E-4 0.00865702610462904 0.0035982162225991488 -0.011770706623792648 -0.0019063202198594809 0.017917798832058907 -0.004548287950456142 -0.005105243530124426 0.01211573462933302 0.002382549224421382 0.0036553917452692986 -0.010156170465052128 0.003337025409564376 0.005085824988782406 -0.015735052525997162 0.013748173601925373 0.009905906394124031 -0.009636638686060905 -0.007057219743728638 0.00645406823605299 -0.0016270936466753483 -0.0062766000628471375 -0.007048848085105419 -0.006335570476949215 0.0031650718301534653 0.0017228188225999475 -0.005540171638131142 2.3384996165987104E-4 -0.0014637549174949527 5.033273191656917E-5 0.012046865187585354 0.02117743529379368 -0.005778583697974682 -0.002886450383812189 -0.04652778431773186 -0.023965829983353615 -0.017187422141432762 0.016226593405008316 0.009310854598879814 -0.026444649323821068 -0.01638912595808506 0.02778211608529091 -0.0018492982489988208 0.002356595126911998 0.006497321184724569 -0.011251786723732948 0.0014023702824488282 0.010168088600039482 -0.010240558534860611 -0.002567004645243287 -0.002595451893284917 0.010451613925397396 -0.003235921962186694 0.008504184894263744 0.01448878925293684 -0.009533973410725594 0.008814206346869469 0.0014369519194588065 -0.002700263634324074 0.023715980350971222 0.02177734300494194 -0.022030729800462723 -0.04753868654370308 0.013438498601317406 -0.012905401177704334 0.03391990065574646
http://dbpedia.org/resource/Internet_Encyclopedia_of_Philosophy -0.04604688286781311 -0.03885622322559357 -0.024820253252983093 -0.028716718778014183 0.03148411586880684 0.038914915174245834 -0.003972192294895649 0.002317586448043585 -0.006727851461619139 -0.00733634689822793 0.019635707139968872 0.015658613294363022 -0.05106198042631149 0.04029323533177376 0.025038791820406914 0.06605264544487 -0.02558104507625103 -0.015886472538113594 -0.016230247914791107 0.027884671464562416 0.03086874634027481 0.01532417256385088 -0.03492898494005203 0.046908777207136154 5.228959489613771E-4 0.005515621043741703 0.004892917349934578 0.008678972721099854 -0.020935572683811188 -0.06732078641653061 0.02039043791592121 -0.01633845642209053 0.0021146901417523623 -0.008064095862209797 0.003662881674245 0.011132544837892056 0.027838531881570816 -0.012225502170622349 -0.009722358547151089 0.01650206558406353 -0.012629354372620583 0.005649849772453308 -0.003973288927227259 0.001469884067773819 -0.05120854824781418 -0.0078186746686697 -0.01852271892130375 -0.0026178774423897266 -0.021498611196875572 0.005007108673453331 -0.026181478053331375 0.011791879311203957 -0.004706846550107002 0.015100612305104733 -5.630190717056394E-4 -0.00792066752910614 2.7412630151957273E-4 0.0018377313390374184 -0.0028850557282567024 -0.00822109542787075 -0.0017308001406490803 0.006303856614977121 -0.014340811409056187 0.02387937158346176 0.006939403712749481 0.01614498905837536 0.012163233943283558 0.018458319827914238 -0.010643204674124718 -0.027474254369735718 -0.002255251631140709 -0.005338243208825588 0.007724396884441376 0.0069885398261249065 -0.020367033779621124 0.005073961801826954 -0.018312789499759674 0.020478440448641777 0.011405966244637966 -0.019613001495599747 0.0032469062134623528 -0.016327891498804092 0.017245246097445488 -0.030909322202205658 0.010575564578175545 -0.017636366188526154 -0.007857920601963997 -0.013572384603321552 0.004017537459731102 -0.042251940816640854 0.015382432378828526 -0.007068523205816746 0.008418839424848557 -0.007857383228838444 -0.005634853150695562 -0.004510984756052494 -0.04596010595560074 0.01653222180902958 -0.021939892321825027 0.02488393522799015
http://xmlns.com/foaf/0.1/Person 0.13970719277858734 0.11994192749261856 0.07963134348392487 0.0911213830113411 -0.1389133334159851 -0.15280796587467194 0.043660689145326614 3.7310621701180935E-4 -0.007816053926944733 0.08498206734657288 -0.06210749223828316 -0.09746546298265457 0.2377895563840866 -0.1964675486087799 -0.0968632847070694 -0.31151577830314636 0.05801091715693474 0.06948652863502502 0.10291579365730286 -0.12025051563978195 0.021296318620443344 -0.016255978494882584 0.16104449331760406 -0.12904642522335052 0.07082779705524445 0.0010381807805970311 -0.07650414109230042 -0.048919688910245895 6.818679976277053E-4 0.10576502978801727 -0.048803310841321945 -0.04585905000567436 -0.003434238489717245 0.040123771876096725 -0.024557815864682198 0.013523221015930176 0.005847164895385504 -0.005198023281991482 0.01464835274964571 -6.641444633714855E-5 0.029787883162498474 0.02598716877400875 -0.010261270217597485 0.021299488842487335 0.03232091665267944 0.05071007087826729 0.01019058097153902 0.037687867879867554 0.054826054722070694 -0.024656541645526886 -0.022634053602814674 0.016227399930357933 0.008192935958504677 0.04298181086778641 0.03597244992852211 0.02190343663096428 0.04825657978653908 0.10347597301006317 -0.03276824951171875 -0.03897934779524803 -0.005808615125715733 0.10855168104171753 -0.07033533602952957 0.13244123756885529 -0.007236828096210957 0.00808715634047985 0.06365998089313507 0.07561473548412323 0.14411811530590057 -0.00814706552773714 0.06057911366224289 -0.07785351574420929 -0.03307062387466431 0.027517594397068024 -0.0682530477643013 -0.05402102321386337 -0.13392721116542816 0.15214316546916962 0.06491496413946152 -0.124333456158638 0.04047102853655815 -0.10376281291246414 0.08199058473110199 -0.04792133346199989 0.040029872208833694 -0.11481201648712158 0.036993809044361115 -0.08027976006269455 0.017238793894648552 -0.07580603659152985 -0.023795653134584427 -0.03954246640205383 0.011153548024594784 0.04908166080713272 0.015214561484754086 -0.06313633918762207 0.07907326519489288 -0.04119351506233215 0.03751317039132118 -0.052797459065914154
http://dbpedia.org/resource/Gorgias 0.08671662956476212 0.0019657842349261045 -0.08908811956644058 0.1392751783132553 0.024614540860056877 0.026180164888501167 -0.14104905724525452 -0.06088896840810776 -0.12177117168903351 -0.2424592822790146 0.09312614798545837 0.11614067852497101 -0.20664188265800476 0.02599928341805935 0.13930368423461914 0.15458926558494568 0.16139261424541473 0.0785142034292221 0.1369089037179947 -0.13928893208503723 -0.29281389713287354 -0.04925940930843353 0.23414641618728638 -0.2646658718585968 -0.1776176393032074 0.020021332427859306 0.1252402663230896 -0.11244206875562668 0.02203938737511635 0.08455471694469452 -0.05860427767038345 -0.016620401293039322 -0.018387671560049057 -0.14164364337921143 0.04159457981586456 0.01589738018810749 0.07903453707695007 -0.0030911050271242857 -0.09477114677429199 -9.295470081269741E-4 -0.16353215277194977 0.08222275972366333 -0.22246751189231873 -0.05018428713083267 -0.2709364593029022 -0.0486367829144001 -0.12377483397722244 -0.040269818156957626 -0.07955127954483032 -0.005791138857603073 0.0345284640789032 0.05143224075436592 0.037551846355199814 -0.14116811752319336 -0.11849603056907654 0.02646695263683796 -0.06915030628442764 -0.019434716552495956 0.06382330507040024 -0.12221544981002808 -0.016922732815146446 -0.11792068928480148 -0.03782811388373375 -0.08715042471885681 0.15674921870231628 0.10023282468318939 -0.20313748717308044 -0.09993003308773041 -0.13048343360424042 -0.0773317813873291 -0.13402937352657318 0.02062288299202919 -0.06098412349820137 -0.07921086251735687 -0.018392132595181465 0.0619388185441494 -0.1293502151966095 -0.10805699229240417 -0.0014067975571379066 -0.06597069650888443 0.007383563090115786 0.0993913784623146 -0.06601076573133469 0.12334173172712326 -0.04184826835989952 0.10683227330446243 0.10357304662466049 0.14409299194812775 0.12725317478179932 -0.056497614830732346 -0.1748165339231491 -0.031653545796871185 -0.028623295947909355 -0.025753609836101532 0.02685723826289177 0.0883021429181099 -0.3207077383995056 0.1423700600862503 -0.0965983122587204 0.23821137845516205
http://dbpedia.org/resource/Category:4th-century_BC_philosophers 0.01858779788017273 0.034235887229442596 0.04394801706075668 0.039904240518808365 -0.05400649458169937 -0.12198060750961304 0.09600219875574112 0.039007872343063354 0.045284297317266464 0.21180172264575958 -0.03959394246339798 -0.11658143997192383 0.1317186951637268 0.01748027466237545 -0.09409981220960617 -0.08680753409862518 -0.0550425723195076 -0.002553629921749234 0.045913588255643845 -0.010010182857513428 0.21357141435146332 0.014796092174947262 0.027807895094156265 0.008595123887062073 0.05708469823002815 0.03104873187839985 -0.07036199420690536 0.015622735023498535 -0.04762258008122444 -0.07753311842679977 -0.020575404167175293 -0.05776027590036392 0.05911753326654434 -0.016179803758859634 0.03509235382080078 0.05800744518637657 0.046587131917476654 0.07828021794557571 0.10398834943771362 -0.04283648356795311 -0.006344808265566826 0.02966456674039364 -0.11533259600400925 -0.04221610352396965 -0.1973525881767273 0.13421104848384857 0.014634651131927967 0.14646054804325104 -0.08299072086811066 0.15342257916927338 -0.06359738111495972 -0.11796003580093384 -0.05131557583808899 0.15922823548316956 0.15680232644081116 -0.010876872576773167 0.13867120444774628 0.1711532175540924 -0.10431930422782898 0.008181001991033554 -0.017721345648169518 0.2640240490436554 -0.11769342422485352 0.286876380443573 -0.15056641399860382 -0.11718180030584335 0.05607111379504204 0.1488134115934372 0.02110179141163826 0.056609489023685455 -0.06444676220417023 -0.1478552371263504 -0.01356330793350935 0.1550031155347824 -0.09373103827238083 -0.04490242153406143 -0.19992847740650177 0.16836419701576233 0.04954519122838974 -0.13768306374549866 0.01814522035419941 -0.1065189316868782 0.06737304478883743 -0.18420930206775665 -0.009667931124567986 -0.007311725057661533 -0.04152669385075569 -0.055290669202804565 0.024765096604824066 -0.041262879967689514 0.1430073231458664 0.08703963458538055 0.053969383239746094 0.03507081791758537 0.01257279422134161 -0.1312498152256012 -0.2955680191516876 0.03243446350097656 -0.25248983502388 0.17569904029369354
http://dbpedia.org/resource/Catholic_Church -0.04038350284099579 -0.03957054391503334 -0.02673126570880413 -0.04379066079854965 0.0388418585062027 0.04928167909383774 -0.009785210713744164 4.058381309732795E-4 -0.019200339913368225 -0.018325043842196465 0.011683247052133083 0.007327207829803228 -0.03553908318281174 0.03287108987569809 0.02257705107331276 0.05307157337665558 -0.022920144721865654 -0.006764907389879227 -0.009294940158724785 0.011467049829661846 0.027751382440328598 0.01690678857266903 -0.025490574538707733 0.03301404044032097 0.008294504135847092 -0.0043411338701844215 -0.02007681131362915 -0.005218152888119221 -0.014015666209161282 -0.0444890521466732 0.010384795255959034 -0.027041886001825333 0.007333716377615929 0.01812867261469364 -0.00411200150847435 0.02100411243736744 0.023819467052817345 -0.023138975724577904 -0.0069419220089912415 0.02431502938270569 -0.006694813258945942 0.018164528533816338 0.011866504326462746 0.005823184736073017 -0.05559000372886658 0.015688272193074226 -0.021671347320079803 0.003440390806645155 -0.014710982330143452 0.00921776331961155 -0.03159129247069359 0.006127356551587582 -0.007446609903126955 0.026840372011065483 0.013995829038321972 0.002385844476521015 0.015467569231987 0.026674674823880196 -0.013221250846982002 -0.009266260080039501 -0.008713667280972004 0.042604416608810425 -0.03363249823451042 0.06009598448872566 4.307851195335388E-4 0.01026611216366291 0.021322553977370262 0.04146606847643852 0.01364399865269661 -0.019121162593364716 0.002661870326846838 -0.037148367613554 -0.006274891551584005 0.026171689853072166 -0.038454584777355194 -0.008620666339993477 -0.05121581256389618 0.04275566339492798 0.012344657443463802 -0.037698421627283096 0.00998961552977562 -0.02916061133146286 0.024777550250291824 -0.05258254334330559 0.010928160510957241 -0.02358512580394745 0.004447232000529766 -0.02553517371416092 0.0029675799887627363 -0.03839968517422676 0.009699295274913311 -0.004044274799525738 0.013588962145149708 0.006199472583830357 0.0010427064262330532 -0.006564229726791382 -0.045042816549539566 0.014894511550664902 -0.024485915899276733 0.0286608524620533
http://dbpedia.org/resource/Template:Snd -0.004063871223479509 -0.04513995349407196 -0.06487926840782166 -0.04724183306097984 0.04143076390028 0.05431664362549782 -0.09775478392839432 -0.030986255034804344 -0.01123165525496006 -0.07198851555585861 -0.02022925578057766 -0.045032668858766556 -0.03888522833585739 0.01245424896478653 0.0354970321059227 0.019060485064983368 -0.023090219125151634 5.67179115023464E-4 -0.04265327751636505 0.024882540106773376 -0.01873570680618286 0.02095772884786129 -0.03432163968682289 0.054488763213157654 0.009682203643023968 -0.021990234032273293 -0.030826793983578682 -0.04131622612476349 0.04635176062583923 0.08179271966218948 -0.016481831669807434 -0.002229478908702731 -0.023900503292679787 0.07325943559408188 -0.03349905461072922 -0.027093904092907906 -0.03430546075105667 -0.01901993341743946 -0.0064344084821641445 0.02176671102643013 0.0095644136890769 -0.003161811036989093 0.06929007172584534 0.031935423612594604 0.06487497687339783 0.002897844184190035 0.015339463949203491 -0.011345282196998596 0.02260551229119301 -0.0021378675010055304 0.008584961295127869 -0.014611789025366306 0.001282118377275765 0.002241427544504404 0.004008733667433262 -0.0034020745661109686 0.007702725939452648 0.02218150533735752 -0.007707083597779274 0.013609328307211399 0.010354484431445599 0.011473553255200386 -0.004993984941393137 0.018876437097787857 -0.026285091415047646 -0.02938184328377247 -0.014295166358351707 -0.013477352447807789 -0.004858165513724089 0.017590221017599106 -0.027662048116326332 -0.02742045372724533 -0.011796096339821815 0.014357812702655792 -0.012375449761748314 -0.0017754565924406052 -0.028908533975481987 -0.0066882106475532055 -0.0011905222199857235 -0.014653811231255531 0.008086292073130608 0.026499006897211075 -0.02854321524500847 0.039419032633304596 -0.04912162572145462 0.06577061861753464 -0.002867609029635787 0.03971674293279648 0.0053837597370147705 0.06602022051811218 0.030521757900714874 0.05049598589539528 0.012373823672533035 0.0508592389523983 0.034956298768520355 -0.05141666159033775 -0.10455326735973358 0.021904677152633667 -0.0935896784067154 0.0757228210568428
http://dbpedia.org/resource/Hermagoras_of_Amphipolis -0.06809350103139877 -0.10936441272497177 -0.12828503549098969 -0.061668261885643005 0.1267293393611908 0.1590847223997116 -0.10203976929187775 -0.027701690793037415 -0.043857358396053314 -0.15823473036289215 0.053166404366493225 0.07852475345134735 -0.20355786383152008 0.1264849454164505 0.11219699680805206 0.23428694903850555 -0.049419816583395004 -0.031939614564180374 -0.09865086525678635 0.10644901543855667 -0.052093230187892914 0.04093189910054207 -0.1320076882839203 0.13371433317661285 -0.025789901614189148 -0.0349506251513958 0.007297213189303875 -0.02258666604757309 0.009761159308254719 -0.009845059365034103 0.023754576221108437 6.157283205538988E-4 -0.013602427206933498 -0.09840765595436096 0.015808522701263428 -0.017101066187024117 0.038686178624629974 -0.0539378896355629 -0.09756162017583847 0.03229347988963127 -0.09129993617534637 0.03323402628302574 -0.005835535936057568 0.008437003940343857 1.255474053323269E-4 -0.08916115760803223 -0.040266767144203186 -0.09262046962976456 0.07960250228643417 -0.05744820088148117 0.03814510256052017 0.04260978847742081 0.019439352676272392 -0.02738170325756073 -0.09932198375463486 -0.014245918951928616 -0.06823737174272537 -0.011096181347966194 0.022632237523794174 -0.0510484017431736 0.019989734515547752 -0.08600658923387527 0.018916772678494453 -0.06548170000314713 0.05884270370006561 0.038964129984378815 -0.02217000722885132 -0.0497928112745285 -0.052567098289728165 -0.029373636469244957 -4.770173691213131E-4 0.0776095911860466 0.02534027397632599 -0.08859186619520187 0.0314616933465004 0.028226830065250397 0.07693620026111603 -0.061138756573200226 -0.01835247315466404 0.039480581879615784 -0.012791337445378304 0.05895552039146423 -0.0636843666434288 0.13613823056221008 -0.03801248222589493 0.09009736776351929 -0.006186866667121649 0.06561315804719925 0.06289761513471603 9.295176714658737E-4 -0.021306421607732773 0.0197307076305151 -0.026259712874889374 0.05305685102939606 0.06227976083755493 -0.041078388690948486 -0.12827229499816895 0.05077501758933067 -0.08134042471647263 0.10529448837041855
http://dbpedia.org/resource/Lucretius 0.004145651124417782 -0.0054347761906683445 -0.020038258284330368 0.023375123739242554 0.0025146424304693937 -0.007372231222689152 -0.0023352860007435083 -0.002978527219966054 3.4491028054617345E-4 -0.01500209141522646 0.005911329295486212 0.009836186654865742 -0.03907395899295807 0.01230211928486824 0.016980165615677834 0.028764568269252777 8.838929352350533E-4 -0.007889998145401478 -9.789845207706094E-4 0.008395844139158726 -0.020753202959895134 0.0036074193194508553 -0.0050477623008191586 -0.002083041239529848 -0.026089809834957123 0.005619759671390057 0.02178213931620121 -0.007983487099409103 -0.005649843718856573 -0.016116950660943985 0.004237770568579435 -5.532907380256802E-5 -3.5160730476491153E-4 -0.04180305823683739 0.015798501670360565 7.288116030395031E-4 0.022199371829628944 -0.007784225977957249 -0.022515129297971725 0.0022985576651990414 -0.03669082000851631 0.017616696655750275 -0.036622241139411926 -0.011246060021221638 -0.035284899175167084 -0.010480597615242004 -0.010979008860886097 -0.010899696499109268 0.03152937442064285 -0.007332715671509504 0.008338901214301586 0.007472670171409845 -0.001199559774249792 0.0055684600956737995 -0.02711351588368416 -0.004978049546480179 -0.018275458365678787 0.010867640376091003 0.005330441985279322 -0.029967203736305237 0.002791637321934104 -0.005035136826336384 -0.004469067789614201 0.002434336580336094 0.021262312307953835 0.011631922796368599 -0.0014583015581592917 0.002956760348752141 0.0019584638066589832 -0.007483579218387604 0.0019771242514252663 0.007122487761080265 0.0012271669693291187 -0.01996842958033085 0.0015462867449969053 7.99496250692755E-4 -0.013049812987446785 -0.0017499490641057491 0.0012870172504335642 -0.010928496718406677 -0.005497272592037916 0.011338560841977596 -0.021039234474301338 0.04738570749759674 -0.01871095784008503 0.02857275865972042 -0.004758299328386784 0.015021862462162971 0.04021286219358444 -0.012155426666140556 -0.0023320468608289957 0.009144552983343601 0.008851362392306328 0.016810035333037376 0.021366138011217117 -0.03409707918763161 -0.07782894372940063 0.016135426238179207 -0.05805211886763573 0.04877755790948868
http://dbpedia.org/class/yago/WikicatAncientMathematicians 0.05295230820775032 0.05676309019327164 0.0618312694132328 0.019864223897457123 -0.04885319992899895 -0.06307201832532883 0.05204378068447113 0.014228441752493382 -0.031628839671611786 0.0724288821220398 -0.024082938209176064 -0.042571134865283966 0.1418703943490982 -0.07496583461761475 -0.06803680211305618 -0.14923937618732452 0.026787471026182175 0.03428885340690613 0.06777865439653397 -0.07639428973197937 0.05748561769723892 -0.019931180402636528 0.10402798652648926 -0.07655401527881622 0.04506329074501991 0.013949219137430191 -0.042372263967990875 -0.0025033073034137487 -0.021921927109360695 0.013338707387447357 -0.013401740230619907 -0.034606728702783585 0.024087801575660706 -0.005720740649849176 -5.708342068828642E-4 0.03433213010430336 0.02766020968556404 0.007358983624726534 0.024367114529013634 -0.004806640092283487 0.011416085995733738 0.026989314705133438 -0.044884826987981796 -6.199620547704399E-4 -0.04117920249700546 0.05952008441090584 0.010204016231000423 0.054813358932733536 0.04276571050286293 0.00812962744385004 -0.01677148975431919 -0.005389607045799494 -0.006079115439206362 0.05772186815738678 0.03893584385514259 0.004643356427550316 0.04287397488951683 0.0920948013663292 -0.036606092005968094 -0.03079509548842907 -0.00509483739733696 0.1115550771355629 -0.06297333538532257 0.13177724182605743 -0.017675044015049934 0.005166003946214914 0.06470105797052383 0.07643576711416245 0.10004476457834244 -0.01122961100190878 0.0368700847029686 -0.06306058168411255 -0.01671498641371727 0.031227681785821915 -0.058750785887241364 -0.034920405596494675 -0.10700301080942154 0.13201498985290527 0.04781383275985718 -0.09523668140172958 0.03248266875743866 -0.09208395332098007 0.06777369976043701 -0.05374026298522949 0.030826663598418236 -0.08781035244464874 0.008470533415675163 -0.06746333092451096 0.026978105306625366 -0.09113319963216782 -4.171350155957043E-5 -0.02713070809841156 0.03129449486732483 0.0353957898914814 0.01685173250734806 -0.07797440886497498 3.702437097672373E-4 -0.016460727900266647 -0.0052289897575974464 -0.001192122814245522
http://dbpedia.org/resource/Themistoclea 0.02392364665865898 0.048334602266550064 0.06331111490726471 0.003869074396789074 -0.005296523217111826 0.003313330002129078 0.03175649791955948 0.016183339059352875 -0.026520946994423866 0.02738264575600624 0.004657100420445204 0.030808961018919945 0.04556970298290253 -0.01147118117660284 -0.029387731105089188 -0.024113284423947334 0.016784897074103355 0.010044143535196781 0.014140591025352478 -0.026379261165857315 -0.008949377574026585 -0.03064817190170288 0.03368430957198143 -0.03506092354655266 0.019604312255978584 0.008334302343428135 -0.007098291534930468 0.017950139939785004 -5.31435725861229E-5 0.015070576220750809 9.102962794713676E-4 0.01782110333442688 0.02357470616698265 -0.10801839083433151 0.02437569387257099 0.01044528279453516 0.014811032451689243 0.033173978328704834 -7.948889979161322E-4 -0.04693939536809921 -0.030526798218488693 0.023993993178009987 -0.10195467621088028 -0.02251449041068554 -0.06891485303640366 0.02413778007030487 -0.008235003799200058 0.035593755543231964 0.07347890734672546 -0.02001761831343174 0.027041463181376457 -0.0012658622581511736 0.0169603880494833 0.001741729211062193 -0.01614794321358204 0.0023248326033353806 -0.004729972220957279 0.030838310718536377 -6.003231392242014E-4 -0.04078110307455063 0.02159079909324646 -0.01174988318234682 -0.013988684862852097 -0.007773859426379204 -0.006803964730352163 -0.012988166883587837 0.01679198257625103 0.003780575469136238 0.06221957877278328 0.01953102834522724 0.04556266963481903 -0.0012209306005388498 -0.009189115837216377 0.01580883003771305 0.025468049570918083 -0.029475508257746696 0.02938407100737095 -0.008018547669053078 -0.006909860298037529 0.023086756467819214 -0.0037502965424209833 -0.021026872098445892 5.10375655721873E-4 0.020331045612692833 0.005238804034888744 -0.01653599739074707 -0.014324680902063847 -0.020323380827903748 0.01156358327716589 -0.04831915348768234 0.009180051274597645 -0.018035154789686203 0.04434289410710335 -0.03352440893650055 -0.0286655742675066 -0.03364594280719757 0.05706527456641197 -0.0315779410302639 0.013754298910498619 -0.04602835699915886
http://dbpedia.org/class/yago/WikicatEpistemologists 0.030252747237682343 0.03408079221844673 0.03891375660896301 0.01480505708605051 -0.036272887140512466 -0.04808107390999794 0.04291350021958351 0.011495654471218586 -0.00823020190000534 0.05945471301674843 -0.013475331477820873 -0.02147434651851654 0.08380347490310669 -0.0597054548561573 -0.04551578685641289 -0.10250066220760345 0.025637924671173096 0.014346141368150711 0.044866304844617844 -0.04145639389753342 0.028996529057621956 -0.012250253930687904 0.059292882680892944 -0.05092872679233551 0.03006085753440857 0.012120788916945457 -0.013704447075724602 0.007694104686379433 -0.01201444398611784 0.003578590229153633 -0.005311818327754736 -6.951099494472146E-4 0.014401335269212723 -0.030472148209810257 0.008411639370024204 0.011366724967956543 0.009411029517650604 0.022137824445962906 0.014447762630879879 -0.022061657160520554 0.012404469773173332 0.00427728146314621 -0.03654511272907257 -0.009164845570921898 -3.926786594092846E-4 0.018504636362195015 0.011326668784022331 0.02382354810833931 0.03496551886200905 -0.0030877755489200354 -0.003639305243268609 -5.686819204129279E-4 0.0018774050986394286 0.01725693978369236 0.015986580401659012 6.223531672731042E-4 0.015121659263968468 0.03464914485812187 -0.01528181228786707 -0.01183919608592987 0.005957948509603739 0.04564214497804642 -0.022556638345122337 0.04016347974538803 -0.009347413666546345 -0.0029250620864331722 0.024763427674770355 0.02224249765276909 0.04219481348991394 0.0045400336384773254 0.02144879475235939 -0.017653748393058777 -0.005809604190289974 0.0025105823297053576 -0.0077498359605669975 -0.01163779478520155 -0.022033004090189934 0.04248852655291557 0.018595518544316292 -0.022543398663401604 0.010702555999159813 -0.039866164326667786 0.019870826974511147 -0.0048615653067827225 0.0076119983568787575 -0.03257613629102707 0.010815126821398735 -0.029095808044075966 0.021417055279016495 -0.04425749182701111 -3.0426308512687683E-6 -0.018249422311782837 0.015858616679906845 0.018351919949054718 0.0037605534307658672 -0.04328111559152603 -0.007766391150653362 -0.0011136457324028015 -0.00798039510846138 0.0076752519235014915
http://dbpedia.org/resource/Category:Ancient_Greek_agnostics -0.05502700433135033 -0.03272516652941704 -0.022140344604849815 -0.04659854620695114 0.04810212552547455 0.0575559101998806 0.009453603066504002 0.01138212252408266 -0.011310048401355743 -0.0033537596464157104 0.020416440442204475 0.021543405950069427 -0.03677208721637726 0.044656138867139816 0.015365717932581902 0.05612510070204735 -0.05723441764712334 -0.029461132362484932 -0.05317922681570053 0.06335016340017319 0.05640564486384392 0.030555177479982376 -0.07589245587587357 0.0973280742764473 0.028266306966543198 -0.011489405296742916 -0.03484601154923439 0.013633658178150654 -0.02519264630973339 -0.06700088083744049 0.031072555109858513 -0.008567461743950844 0.01208655908703804 -0.06698311120271683 0.013759945519268513 0.018731852993369102 0.03760315105319023 -0.02566823735833168 -0.021946173161268234 0.011318440549075603 -0.023015016689896584 0.017448700964450836 -0.021793309599161148 0.0013247700408101082 -0.046613432466983795 -0.016785291954874992 -0.02831009030342102 -0.025495480746030807 0.036985255777835846 -0.03256087377667427 -0.016353176906704903 0.03268523886799812 0.0037424734327942133 0.026785405352711678 -0.01844743825495243 -0.004100450314581394 -0.002114668255671859 0.03484415262937546 -0.01367095671594143 -0.028863785788416862 0.005038944538682699 0.012556364759802818 -0.01475489791482687 0.034506626427173615 -0.0019609243609011173 0.017115602269768715 0.05078181251883507 0.036188121885061264 0.03928375989198685 -0.016461575403809547 0.03909101337194443 2.70786986220628E-4 0.003704559523612261 -0.004971989896148443 -0.022886695340275764 -0.018141239881515503 0.0035257581621408463 0.0451129674911499 0.012716671451926231 -0.014222368597984314 0.003910793922841549 -0.032795973122119904 0.015799934044480324 -0.011047391220927238 0.018689950928092003 -0.028172260150313377 -0.0034822726156562567 -0.026675015687942505 0.02365381270647049 -0.05506015941500664 0.006065222434699535 -0.012276506051421165 -9.971850086003542E-4 0.013298549689352512 0.009987907484173775 -0.032380618155002594 -0.008187740109860897 -0.0032584527507424355 -0.015375029295682907 0.0015450908103957772
http://dbpedia.org/resource/Ancient_philosophy 0.03497544676065445 -0.05403214320540428 -0.09936986118555069 0.051449090242385864 0.0683671310544014 0.05426090955734253 -0.11604701727628708 -0.03867173567414284 -0.06165710464119911 -0.1541605293750763 0.04072640463709831 0.03950212523341179 -0.13206163048744202 0.09358692169189453 0.08268188685178757 0.18268311023712158 0.06958028674125671 0.038900308310985565 0.06344800442457199 -0.06787586212158203 -0.14042937755584717 -0.039289459586143494 0.09913159161806107 -0.09716617316007614 -0.09890040755271912 0.005976359359920025 0.04871188849210739 -0.06713436543941498 0.0015879233833402395 0.06022492051124573 -0.04282413795590401 -0.046196699142456055 -9.753144695423543E-4 -0.09829561412334442 0.022560788318514824 0.0010427167871966958 0.08642657846212387 -0.02939785085618496 -0.09393103420734406 0.030930517241358757 -0.14487379789352417 0.07663710415363312 -0.13829514384269714 -0.013819549232721329 -0.13238032162189484 0.007733297534286976 -0.029869722202420235 0.0386800616979599 0.07468343526124954 0.01737374998629093 0.07330469787120819 -0.03158782422542572 -0.005380422808229923 0.019398953765630722 -0.06375105679035187 -0.006783539429306984 -0.0245679784566164 0.06704708933830261 -0.007364619988948107 -0.09877007454633713 0.009015423245728016 0.030871771275997162 -0.05195428803563118 0.08801151067018509 0.08329880237579346 0.06561638414859772 -0.0011214583646506071 0.018467560410499573 -0.01679242216050625 -0.07064658403396606 -0.008721512742340565 0.03169286623597145 -0.005099398083984852 -0.07969057559967041 -0.04051743075251579 0.0036808461882174015 -0.10161177814006805 0.06157297641038895 0.03519009053707123 -0.09248661249876022 0.010372059419751167 0.018484627828001976 -0.041934531182050705 0.13913995027542114 -0.060839053243398666 0.10367321968078613 0.016977889463305473 0.07208351790904999 0.12279893457889557 -0.03768913447856903 -0.006208375561982393 0.047811996191740036 0.06250844150781631 0.09208546578884125 0.08786676079034805 -0.1774749755859375 -0.2652168273925781 0.07388551533222198 -0.19339624047279358 0.1964682787656784
http://dbpedia.org/resource/Myth -0.03148723021149635 -0.04151775315403938 -0.03610367327928543 -0.02534114383161068 0.03538362681865692 0.039508648216724396 -0.0035418220795691013 0.0015942659229040146 -0.02113224007189274 -0.010724456049501896 0.019359933212399483 0.014900345355272293 -0.036007899791002274 0.028131186962127686 0.016135862097144127 0.04479683190584183 -0.03218432515859604 -0.01400215458124876 -0.026300616562366486 0.03509068489074707 0.03192383423447609 0.03073597513139248 -0.044018737971782684 0.053632430732250214 0.023283902555704117 -0.009534502401947975 -0.030869854614138603 -0.01229234877973795 -0.018172314390540123 -0.035092536360025406 0.013532807119190693 -0.01434648223221302 0.014284045435488224 -0.05324605107307434 0.01796235889196396 0.013866906054317951 0.03178023174405098 -0.019317006692290306 -0.02497771754860878 0.01181140635162592 -0.03193983435630798 0.02495437301695347 -0.02939029410481453 -0.010346505790948868 -0.0319492369890213 -0.02107301540672779 -0.032162558287382126 -0.030033869668841362 0.023198701441287994 -0.01782996952533722 -0.01215042918920517 0.018633415922522545 0.009410986676812172 0.012290256097912788 -0.019269121810793877 -0.0031485885847359896 4.691130015999079E-5 0.038138315081596375 -0.0019472414860501885 -0.028742190450429916 0.004462296608835459 0.007127889897674322 -0.015244306065142155 0.025656400248408318 4.6844640746712685E-4 0.002914716489613056 0.01079853530973196 0.012936718761920929 0.019018512219190598 -0.008812802843749523 -2.600832376629114E-4 -0.005667878780514002 -0.0052357567474246025 -0.0033256178721785545 -0.019436758011579514 -0.006627649534493685 -0.012683520093560219 0.017473064363002777 0.012692330405116081 -0.01768430322408676 0.0033941108267754316 -0.015499429777264595 0.00891263596713543 -0.004984683357179165 -0.001980026252567768 -0.003993611317127943 0.013389594852924347 -0.007568260654807091 0.02435665763914585 -0.0192498080432415 -0.005421524401754141 -7.698313565924764E-4 -0.018772533163428307 0.01643136702477932 0.007511352188885212 0.005402786657214165 -0.06342212110757828 0.02136853337287903 -0.04804264008998871 0.05193646252155304
http://dbpedia.org/resource/Themistocles -0.021045247092843056 -0.0150713250041008 -0.004683983512222767 -0.01129745040088892 0.008282744325697422 -0.0018057652050629258 0.010727768763899803 0.005000772420316935 0.002922791289165616 0.012726807035505772 0.0075577786192297935 -0.006510538514703512 -0.006060319021344185 0.012597380205988884 9.601445053704083E-4 0.011152162216603756 0.007797876372933388 0.002169910352677107 0.016523540019989014 -0.00836779922246933 0.01619008556008339 -0.001432228134945035 0.01367499865591526 -0.00996351521462202 -0.006798073649406433 0.008904434740543365 0.011684122495353222 0.005801909137517214 -0.010177087970077991 -0.03157591074705124 0.00611741840839386 -0.008340585045516491 0.0031689140014350414 0.009196274913847446 0.0058171977289021015 0.0151676619425416 0.008571081794798374 -0.0012200202327221632 0.011272364296019077 0.0013932129368185997 0.0024216703604906797 -0.0038943400140851736 -0.0016016659792512655 -0.00858333334326744 -0.03523802384734154 0.008788005448877811 0.003700094297528267 0.01486984547227621 -0.027994805946946144 0.019299155101180077 -0.01323374081403017 -0.008777162060141563 -0.01432132814079523 0.013578705489635468 0.01123814471065998 -0.004018208011984825 0.010563293471932411 0.0027648373506963253 -0.005911028012633324 0.00844381283968687 -0.003263495396822691 0.02131582796573639 -0.01126040332019329 0.02929009683430195 -0.005133774131536484 0.0037926111835986376 7.789129158481956E-4 0.011245130561292171 -0.023520121350884438 -0.016589075326919556 -0.019403811544179916 -0.008789736777544022 0.001092381658963859 0.006996781565248966 -0.019871588796377182 0.009394574910402298 -0.027180010452866554 0.02279169298708439 0.0033254048321396112 -0.0181012824177742 -0.0022340777795761824 -0.01622527651488781 0.012840181589126587 -0.03126373887062073 0.006790482439100742 -0.010529768653213978 -0.006268863566219807 -0.011154701001942158 7.018218748271465E-4 -0.03115767240524292 0.010666913352906704 0.0011498662643134594 0.0055531226098537445 -0.004217827692627907 -0.004721112083643675 -0.0024399219546467066 -0.059139929711818695 0.012718581594526768 -0.030056901276111603 0.03011808916926384
http://dbpedia.org/property/knownFor 0.00217722007073462 -0.011797776445746422 -0.02544073760509491 -0.001578401424922049 -0.006117166485637426 -0.005083361174911261 -0.022550925612449646 -0.015840601176023483 -0.00630776584148407 -0.027258412912487984 0.0033780550584197044 -0.01728285476565361 -0.005029698368161917 -0.02821010909974575 0.01108274981379509 -0.04122725501656532 0.015804072842001915 0.014808658510446548 0.016359535977244377 -0.0126301608979702 -0.01491954643279314 0.010424303822219372 0.03067542053759098 -0.02619059383869171 0.0018334465567022562 -0.008909525349736214 -0.011123508214950562 -0.03285334259271622 -0.0036269419360905886 -0.005668312776833773 0.0017888888251036406 -0.019794786348938942 -0.010703850537538528 0.01925591751933098 -0.008559751324355602 0.0050531430169939995 0.013824019581079483 -0.03884797543287277 -0.016782259568572044 0.03404109179973602 -0.005572473164647818 0.004574809223413467 0.03185547888278961 0.007823481224477291 0.007162875030189753 -0.02192509174346924 -0.01768660731613636 -0.02582716941833496 -2.529892371967435E-4 -0.02230655774474144 -0.01662617363035679 0.020298510789871216 -9.2240959929768E-5 3.725613350979984E-4 -0.019010165706276894 0.0010742339072749019 -0.006113769020885229 0.012786305509507656 -0.004095705691725016 -0.019378194585442543 -0.01026806142181158 0.0032027573324739933 -0.0129327941685915 0.019410081207752228 0.0199972502887249 0.02760506048798561 -0.007007290609180927 0.01253141276538372 -0.001289095962420106 -0.033223532140254974 -0.00644979253411293 -0.005884150974452496 -0.004517825320363045 -0.0077704936265945435 -0.027673078700900078 -0.0010139640653505921 -0.05221540853381157 0.02761857584118843 0.016086939722299576 -0.04242474213242531 0.009773680940270424 -0.011329492554068565 0.004685340914875269 -0.02326369844377041 0.013845608569681644 -0.02086731046438217 0.011491226963698864 -0.0010272716172039509 0.024362683296203613 -0.059926409274339676 -0.017951063811779022 -0.018926139920949936 -0.023716313764452934 0.038056205958127975 0.03876083716750145 -0.018497232347726822 -0.0754317119717598 0.027038753032684326 -0.03190059959888458 0.05913320183753967
http://dbpedia.org/resource/Phlius -0.023787861689925194 -0.024992793798446655 -0.0202390905469656 -0.010247123427689075 0.017819980159401894 0.01593201979994774 -0.005741135682910681 -0.003832707880064845 -2.8841799939982593E-4 -0.007968909107148647 0.010700585320591927 0.010286809876561165 -0.032777320593595505 0.021921513602137566 0.013315044343471527 0.038850970566272736 -0.02282017469406128 -0.004992284812033176 -0.009972477331757545 0.02319937013089657 0.014270707033574581 0.007617943454533815 -0.019120749086141586 0.030182218179106712 -0.005426135845482349 0.005997883155941963 -7.752515375614166E-4 0.0031614273320883512 -0.013328874483704567 -0.04632440209388733 0.01530767697840929 -0.009760820306837559 0.0055301194079220295 -0.00900341011583805 0.001041360548697412 0.013915198855102062 0.01847374625504017 -0.018560584634542465 -0.007220651488751173 0.01690218783915043 -0.018722284585237503 0.010048380121588707 -0.003325904021039605 -0.003170692827552557 -0.04831833764910698 -0.0027534249238669872 -0.018475718796253204 -0.004765115212649107 -0.016463125124573708 0.0030122194439172745 -0.016628723591566086 0.012474059127271175 -0.006626955699175596 0.015121581964194775 -0.006836540997028351 8.349666022695601E-4 0.004411111585795879 0.012583301402628422 -0.003490104805678129 -0.011601505801081657 -0.006149923428893089 0.012953046709299088 -0.01750434935092926 0.0314984954893589 0.012970035895705223 0.019305160269141197 0.00906184408813715 0.017610449343919754 -0.002667665248736739 -0.02289419062435627 -0.0027294238097965717 -0.009040272794663906 0.008422385901212692 0.0029097790829837322 -0.029620002955198288 -6.221454823389649E-4 -0.028088554739952087 0.035295892506837845 0.0072258226573467255 -0.0244121216237545 0.006697024684399366 -0.02400018274784088 0.014462601393461227 -0.017229905351996422 0.012426146306097507 -0.012382224202156067 0.006403033621609211 -0.013505809009075165 0.013657204806804657 -0.03891856595873833 0.006023759953677654 -3.8959464291110635E-5 0.008396624587476254 -7.301422883756459E-4 0.004526064731180668 -0.01659807376563549 -0.03596722334623337 0.009801466017961502 -0.029762255027890205 0.02904507890343666
http://dbpedia.org/resource/Boethius -0.05168411135673523 -0.053571779280900955 -0.04568864405155182 -0.015083211474120617 0.02710464596748352 0.028875164687633514 0.0030079178977757692 -0.0015913877869024873 0.006991590838879347 -0.00804015714675188 0.023396681994199753 0.002661418169736862 -0.059606269001960754 0.04140283167362213 0.02538205310702324 0.060088835656642914 -0.008111171424388885 -0.010541539639234543 -0.014966700226068497 0.03389396890997887 0.015943054109811783 0.01600979082286358 -0.03845600411295891 0.029952699318528175 -0.01745016872882843 -0.002722801174968481 0.013146989047527313 7.294603856280446E-4 -0.02584482729434967 -0.05830158665776253 0.014594885520637035 -0.019630346447229385 -0.00447848578915 -0.028583737090229988 0.016671793535351753 0.009213807992637157 0.028792286291718483 -0.019845973700284958 -0.022700218483805656 0.029481058940291405 -0.03358002379536629 0.0020094383507966995 -0.006480915006250143 -0.005700563546270132 -0.004931450821459293 -0.03020860254764557 -0.010753671638667583 -0.02059016562998295 0.013929840177297592 -9.489274234510958E-4 0.012578574009239674 0.007461901754140854 -0.008640002459287643 0.017038073390722275 -0.024542640894651413 -0.015457084402441978 -0.015948787331581116 -0.002201309660449624 -0.006648409180343151 -0.013405811041593552 -9.464421309530735E-4 -0.002979961456730962 -6.618121406063437E-4 -1.8131130491383374E-4 0.01944747008383274 0.01676345057785511 -0.003892545821145177 -0.0013204399729147553 -0.04248303174972534 -0.02896462380886078 -0.01265471801161766 0.037652164697647095 0.01656397059559822 -0.031138340011239052 -0.002793066669255495 0.019115161150693893 0.0050279502756893635 0.0019991155713796616 0.001595567911863327 -0.004179040435701609 -0.008295278996229172 0.019901065155863762 -0.018967341631650925 0.018973518162965775 -0.004260804504156113 0.03419463336467743 -0.011086824350059032 0.02385787107050419 0.033553291112184525 -0.028529664501547813 0.014959968626499176 0.008246873505413532 -0.0240400992333889 0.04652177542448044 0.044421181082725525 -0.03828322887420654 -0.10074545443058014 0.03464270383119583 -0.05574925243854523 0.07861707359552383
http://dbpedia.org/class/yago/WikicatPresocraticPhilosophers 0.09910132735967636 0.08788809180259705 0.0799446702003479 0.057590845972299576 -0.08819584548473358 -0.11020175367593765 0.06690976023674011 0.01590518280863762 -0.042078230530023575 0.10598121583461761 -0.04083850234746933 -0.06267636269330978 0.21252267062664032 -0.11423256248235703 -0.09962911903858185 -0.20186704397201538 0.0438041165471077 0.0654253140091896 0.11459771543741226 -0.1293027102947235 0.07880166172981262 -0.03344137221574783 0.15860527753829956 -0.1249883621931076 0.06997762620449066 0.026305772364139557 -0.08112620562314987 -0.021894140169024467 -0.028991468250751495 0.04361506924033165 -0.03795578330755234 -0.055302295833826065 0.03825586289167404 -0.017321668565273285 0.005443008150905371 0.04613156616687775 0.045069873332977295 0.028611324727535248 0.026866493746638298 -0.029320646077394485 -2.1382969862315804E-4 0.05140387639403343 -0.08864379674196243 -0.011529040522873402 -0.08738760650157928 0.10247749090194702 0.011477455496788025 0.09652139991521835 0.043361879885196686 0.02932550013065338 -0.01911739818751812 -0.03028189204633236 -0.005001649260520935 0.0784594938158989 0.05698714032769203 0.016513558104634285 0.07755010575056076 0.14715279638767242 -0.04866175726056099 -0.048736900091171265 0.0019501878414303064 0.17017017304897308 -0.11058762669563293 0.21716465055942535 -0.026324035599827766 -1.3361666060518473E-4 0.0909886285662651 0.12288524210453033 0.1479378640651703 -0.0138205261901021 0.048645857721567154 -0.09954524785280228 -0.035752590745687485 0.042474180459976196 -0.09475509077310562 -0.06280003488063812 -0.16935260593891144 0.20277075469493866 0.07559633255004883 -0.1566050499677658 0.042341090738773346 -0.14434751868247986 0.0965873971581459 -0.07375114411115646 0.03876376152038574 -0.12808938324451447 0.0318509079515934 -0.10524410754442215 0.02891881763935089 -0.10868169367313385 9.723065886646509E-4 -0.02994389459490776 0.05924873799085617 0.020835664123296738 -0.00818081945180893 -0.08550234884023666 -0.0020764812361449003 -0.03776226192712784 -0.04062577709555626 -0.005663503427058458
http://dbpedia.org/resource/Category:Social_critics -0.021839695051312447 0.0040598586201667786 0.03928978368639946 -0.026373211294412613 0.0049988264217972755 -0.0017214512918144464 0.0325252003967762 0.015618139877915382 -0.007433105725795031 0.04672190546989441 0.0016019339673221111 -0.02140260487794876 0.03182468190789223 0.023523621261119843 -0.027276834473013878 -0.0010634034406393766 -0.006474347319453955 0.007529228925704956 0.02349187061190605 -0.022106312215328217 0.055818114429712296 -0.012241032905876637 0.02517637424170971 -0.010607723146677017 0.006283280905336142 0.01144334301352501 -0.007562749553471804 0.017150165513157845 -0.01596444845199585 -0.046112366020679474 -5.619904259219766E-4 -0.014721404761075974 0.010618877597153187 0.04662143811583519 -0.004872359335422516 0.0224143173545599 -0.002169759478420019 0.00967207457870245 0.048240672796964645 0.001295166788622737 0.031958576291799545 -0.008739914745092392 0.006318853236734867 -0.002991868183016777 -0.07358261197805405 0.05918312817811966 0.0018213758012279868 0.057463388890028 -0.0742633268237114 0.05371392145752907 -0.04466104879975319 -0.029870660975575447 -0.024850213900208473 0.04428444430232048 0.05953347682952881 -0.003072305815294385 0.04218876734375954 0.027284011244773865 -0.023932846263051033 0.02242482639849186 -0.01774490997195244 0.0752897709608078 -0.028125572949647903 0.08551125973463058 -0.04048977419734001 -0.020974373444914818 0.020712845027446747 0.055925510823726654 0.012243532575666904 0.005513939540833235 -0.013489121571183205 -0.06023392081260681 -0.013825830072164536 0.07927180826663971 -0.049756381660699844 -0.019636347889900208 -0.08317533135414124 0.06573910266160965 0.00899452529847622 -0.04544781520962715 0.009215977974236012 -0.05583610758185387 0.038012418895959854 -0.10704782605171204 0.0245070680975914 -0.05210438370704651 -0.009083561599254608 -0.05138039216399193 -0.019314821809530258 -0.04984307289123535 0.03833821788430214 -0.004869448021054268 0.02336871437728405 -0.025051748380064964 -0.016835318878293037 -0.005036885384470224 -0.05158373340964317 -0.0010532115120440722 -0.03850541636347771 0.020833201706409454
http://dbpedia.org/class/yago/Object100002684 0.2544446289539337 0.18617871403694153 0.036380697041749954 0.27939572930336 -0.2730216085910797 -0.30664879083633423 0.056305259466171265 -0.02220388688147068 0.05545827001333237 0.09373258799314499 -0.09439904987812042 -0.13835030794143677 0.24577045440673828 -0.31020480394363403 -0.11135212332010269 -0.4509350061416626 0.1144161969423294 0.0628311038017273 0.1275152564048767 -0.12491306662559509 -0.06558241695165634 0.011174969375133514 0.19992893934249878 -0.20646612346172333 0.005165142938494682 0.014885058626532555 0.0011963332071900368 -0.06524766236543655 0.010673229582607746 0.1842278391122818 -0.06878171116113663 -0.03328913077712059 -0.022997718304395676 0.02351231314241886 -0.026862608268857002 -0.008520255796611309 -0.0027007274329662323 0.004802411422133446 -0.02460097335278988 -0.01619829051196575 -0.009231721982359886 0.03201198950409889 -0.02351512387394905 0.013904123567044735 0.11373244971036911 -0.02209378220140934 0.00994808878749609 -0.03376118838787079 0.08509941399097443 -0.05562766268849373 0.020175447687506676 0.061042334884405136 0.037804555147886276 -0.027639973908662796 -0.02465094067156315 0.03821372240781784 0.02852020040154457 0.08800516277551651 0.007056875620037317 -0.0808631107211113 0.0060785929672420025 0.03735770285129547 -0.07493922114372253 0.05773761123418808 0.04339269548654556 0.046042829751968384 -0.024102404713630676 0.020160162821412086 0.09218282997608185 -0.023981323465704918 -0.00446658581495285 -0.04365501552820206 -0.06298451125621796 -0.11192134022712708 -0.07641390711069107 -0.006158007308840752 -0.14624877274036407 0.12443104386329651 0.09681075066328049 -0.17566826939582825 0.066149041056633 -0.048017580062150955 0.049166444689035416 0.15277791023254395 -0.02356862835586071 -0.034284550696611404 0.14800961315631866 0.023549498990178108 0.08630654960870743 0.0454503558576107 -0.15529054403305054 -0.016425035893917084 -0.028559625148773193 0.09979169070720673 0.062264855951070786 -0.06411893665790558 -0.027450790628790855 0.013425540179014206 0.004295936319977045 0.04327360540628433
http://dbpedia.org/resource/Abdera,_Thrace -0.07314441353082657 -0.0815875232219696 -0.06018808111548424 -0.05946764349937439 0.08878730982542038 0.10838362574577332 -0.033584170043468475 -0.0029748387169092894 -0.02676394209265709 -0.05935826152563095 0.03608812764286995 0.0453353114426136 -0.11340241134166718 0.08945974707603455 0.04978162795305252 0.15223440527915955 -0.0817771852016449 -0.04145317152142525 -0.09211082011461258 0.10317735373973846 0.05205761268734932 0.044840361922979355 -0.13335834443569183 0.14852523803710938 0.031080901622772217 -0.02059849724173546 -0.03505471721291542 0.007444761227816343 -0.03694098815321922 -0.09859379380941391 0.048006437718868256 -0.02153792418539524 0.019426584243774414 -0.10584346204996109 0.022097095847129822 0.025017092004418373 0.06801250576972961 -0.050266772508621216 -0.06960146874189377 0.03497885540127754 -0.06688916683197021 0.04492438584566116 -0.04017052426934242 1.3805409253109246E-4 -0.0765056237578392 -0.03530988469719887 -0.06016450375318527 -0.05652576684951782 0.06699740886688232 -0.05567440018057823 -0.022224420681595802 0.06015001982450485 0.008954810909926891 0.032328054308891296 -0.050588686019182205 -0.007913910783827305 -0.02649863064289093 0.04333125054836273 -0.00959452148526907 -0.05403876304626465 0.018836429342627525 -0.0041518425568938255 -0.02831423282623291 0.03835870325565338 0.026120783761143684 0.04560745880007744 0.06341774761676788 0.03714573010802269 0.04887612536549568 -0.03866748884320259 0.05008789896965027 0.007313593756407499 0.008908361196517944 -0.02039165608584881 -0.024538947269320488 -0.021370528265833855 0.007777866441756487 0.04561510682106018 0.015853455290198326 -0.02878841757774353 0.005456338636577129 -0.035186197608709335 0.016769425943493843 0.018975093960762024 0.0120901670306921 -0.01889592967927456 -5.38199907168746E-4 -0.02086460031569004 0.04289744049310684 -0.07657952606678009 -0.002750437706708908 -0.013374222442507744 0.006813614163547754 0.015847599133849144 0.011328352615237236 -0.040308769792318344 -0.037236765027046204 0.01259162463247776 -0.03644682466983795 0.03249857574701309
http://dbpedia.org/resource/Grammar -0.044415585696697235 -0.03922073543071747 -0.029471147805452347 -0.031827621161937714 0.0335247777402401 0.043295226991176605 0.010170857422053814 0.004702702164649963 -0.005784120410680771 -0.003779546357691288 0.010687203146517277 0.01426545437425375 -0.04565665125846863 0.0331767238676548 0.010668845847249031 0.05138577148318291 -0.03860638290643692 -0.016108570620417595 -0.039250582456588745 0.04741523414850235 0.041425224393606186 0.027572717517614365 -0.05561227723956108 0.0625518411397934 0.013448239304125309 -0.004739280324429274 -0.01172531396150589 0.005212123040109873 -0.023285679519176483 -0.054008375853300095 0.020712878555059433 -0.013104164972901344 0.010064941830933094 -0.030884945765137672 0.014562143944203854 0.01925557292997837 0.02268168330192566 -0.014908978715538979 -0.018529746681451797 0.00552772730588913 -0.015250785276293755 0.017867881804704666 -0.014524620026350021 -0.007939452305436134 -0.03653090447187424 -0.022169705480337143 -0.024553945288062096 -0.03101382777094841 0.003335678717121482 -0.013087247498333454 -0.025183415040373802 0.029839949682354927 -0.002111199079081416 0.015550912357866764 -0.01108358521014452 -0.0052915601991117 -0.002409617882221937 0.02194022946059704 -1.385421637678519E-4 -0.019498329609632492 0.0056145708076655865 0.009296419098973274 -0.02215450257062912 0.030480289831757545 -0.0010785587364807725 0.01602190174162388 0.021439040079712868 0.02492557279765606 0.019344260916113853 -0.012009995058178902 0.01213771291077137 -0.011907103471457958 0.0014445512788370252 0.005246039014309645 -0.02811020240187645 -0.008614704944193363 -0.015474648214876652 0.023757390677928925 0.011026203632354736 -0.026792284101247787 0.002239429159089923 -0.018524780869483948 0.024774277582764626 -0.020052693784236908 0.015098217874765396 -0.025904454290866852 0.015972290188074112 -0.01800738275051117 0.011191173456609249 -0.018271364271640778 -0.017027178779244423 -0.006774249952286482 -0.0115971053019166 -0.0059227170422673225 -0.014069635421037674 0.025969257578253746 -0.037517204880714417 0.008975840173661709 -0.020297160372138023 0.029978323727846146
