78 100 1000
Hermagoras_of_Amphipolis 0.0065658362582325935 0.006264533847570419 -0.01974484696984291 0.011322488076984882 -0.009374582208693027 -0.01442032866179943 -0.02044503390789032 -0.012294764630496502 -0.007027792744338512 -0.015245100483298302 -0.005685012321919203 -0.0051079257391393185 -0.0059592826291918755 -0.01704271137714386 0.01883891224861145 -0.011996112763881683 0.0010683768196031451 0.010175305418670177 0.002761939074844122 -0.0062592048197984695 -0.016311069950461388 0.00821683183312416 0.015353071503341198 -0.011060763150453568 -0.0035810929257422686 -0.005125647876411676 8.23337584733963E-4 -0.01594105362892151 0.015907175838947296 0.01763911545276642 -0.00891583040356636 -0.008047492243349552 -0.010658279992640018 0.010712545365095139 -0.006857508793473244 0.00741228275001049 -0.003915890585631132 -0.016870593652129173 0.004589472431689501 0.015044642612338066 0.004586345050483942 -0.005359395407140255 0.01842556707561016 0.0070202648639678955 0.01776006631553173 -0.014015023596584797 0.004309198819100857 -0.010120443068444729 -0.00840669497847557 -0.004335667472332716 -0.00503341481089592 0.007934304885566235 -3.789659822359681E-4 -0.012323440052568913 -2.8289679903537035E-5 0.0047531225718557835 -0.006185414735227823 -0.0032185667660087347 9.436791879124939E-4 -0.01446298137307167 -0.012463010847568512 -0.003487090114504099 4.8186889034695923E-4 -0.010022972710430622 0.008486766368150711 0.0148607874289155 -0.020912280306220055 -0.0044240993447601795 -0.012014145962893963 -0.011325049214065075 -0.017707182094454765 0.0013051126152276993 -0.005075255408883095 -0.0032192463986575603 -0.0027490989305078983 0.013688270933926105 -0.011298662051558495 -0.016925623640418053 0.0051575819961726665 -0.008007712662220001 0.008195785805583 0.008818366564810276 -4.679397097788751E-4 8.149893837980926E-4 0.001740356208756566 0.0016178071964532137 0.0056255836971104145 0.018054837360978127 0.004026147536933422 0.008488742634654045 -0.015313860028982162 -0.005207801703363657 -0.017548706382513046 0.009424295276403427 0.005935864057391882 0.008453155867755413 -0.023382464423775673 0.013426230289041996 -0.012486913241446018 0.019773148000240326
Q215627 0.004582680761814117 -0.0035142898559570312 5.36609732080251E-4 0.005633988417685032 0.003725038841366768 0.001865968806669116 -0.0043128677643835545 -8.162824669852853E-4 -0.0022494057193398476 -0.006584140472114086 1.7883139662444592E-4 0.0013287938199937344 0.001397130312398076 -0.004668994341045618 -0.0014259483432397246 -0.0038475056644529104 0.003001968376338482 0.0019518275512382388 0.002516872249543667 1.5817090752534568E-4 -0.001277468865737319 0.002999858697876334 2.9557498055510223E-4 -0.0035494861658662558 -0.002083520172163844 0.0032325307838618755 -0.004267419688403606 -8.267497760243714E-4 -0.0016217897646129131 0.001682938076555729 -0.0014595333486795425 -0.0044439309276640415 0.003666562493890524 0.005619262810796499 -0.004926548805087805 0.00512039614841342 -0.0031201723031699657 -0.0032912706956267357 0.0019535182509571314 0.004886771086603403 -0.00439044926315546 -8.51995951961726E-4 0.006155926268547773 0.00459859985858202 0.0018683397211134434 -0.0017064206767827272 0.0017984457081183791 -0.0014296219451352954 0.0039851428009569645 0.0012831473723053932 -0.0013354273978620768 0.00435678893700242 -0.003452386474236846 0.0015793154016137123 -0.0017673628171905875 -0.001373568782582879 0.002405522158369422 -0.0018526228377595544 0.00421899976208806 -0.00526840565726161 0.003801335347816348 0.0014303665375337005 -1.3583284453488886E-4 0.00426445109769702 0.0015965059865266085 0.004888033960014582 -0.003419069107621908 0.003106280229985714 -0.0047410340048372746 -2.712865825742483E-4 0.0014462837716564536 0.0050016045570373535 -0.004295749589800835 0.002979876706376672 0.003439222928136587 0.0025648579467087984 -0.0021893384400755167 0.0030732504092156887 0.004165993072092533 -0.004768421873450279 -0.0030241410713642836 0.0040845419280231 0.0010219436371698976 0.0021232732106000185 0.0025092903524637222 0.0029149129986763 0.0038143256679177284 0.0041049751453101635 -0.0034158017951995134 0.0035094653721898794 -1.5025318134576082E-5 -0.0047749909572303295 -0.0056280652061104774 2.48667667619884E-4 0.00466912193223834 -6.960198516026139E-5 -0.004750787280499935 0.006414053961634636 -0.004037343896925449 3.658237401396036E-4
Hagnon_of_Tarsus 0.01155710406601429 0.007864530198276043 -0.021787334233522415 0.01878620684146881 -0.010085965506732464 -0.017903076484799385 -0.02913959138095379 -0.016475839540362358 -0.0015257163904607296 -0.026309199631214142 -0.006889566779136658 -0.014892478473484516 -0.01217697374522686 -0.01737048849463463 0.016398264095187187 -0.022294750437140465 0.0047532906755805016 0.005182402208447456 0.007012457121163607 -0.012199342250823975 -0.026669640094041824 0.01313401386141777 0.019555887207388878 -0.012079034931957722 -6.123158382251859E-4 -0.006704976316541433 0.01032971404492855 -0.02871801145374775 0.02116694301366806 0.023873085156083107 -0.004816322587430477 -0.0037554472219198942 -0.014740122482180595 0.015964113175868988 -0.008115244098007679 0.009018907323479652 -0.003960172180086374 -0.01961926370859146 9.49185574427247E-4 0.018160441890358925 0.0011411989107728004 -0.0087067736312747 0.02995796501636505 0.011501570232212543 0.025911975651979446 -0.01593252643942833 0.009765357710421085 -0.011341030709445477 -0.01601102575659752 -0.005108535755425692 -0.0019442118937149644 0.01776568777859211 0.0014193125534802675 -0.01501542516052723 -0.009391408413648605 0.0037030235398560762 -5.180973093956709E-4 -0.0038510095328092575 0.00916645210236311 -0.011829372495412827 -0.01500859297811985 -0.008111859671771526 -5.871492321603E-4 -0.016947530210018158 0.012040731497108936 0.024267368018627167 -0.023795392364263535 -0.007722231559455395 -0.016706883907318115 -0.019013045355677605 -0.014110294170677662 0.0018502628663554788 -0.010389675386250019 -0.005856100469827652 -0.007953212596476078 0.021100249141454697 -0.011570361442863941 -0.01542971283197403 0.009148440323770046 -0.011339209042489529 0.00926106795668602 0.01756220869719982 -0.0023647313937544823 0.007118045352399349 0.0029066656716167927 0.0025342681910842657 0.010847240686416626 0.018249401822686195 0.007710633333772421 0.016963154077529907 -0.01655631512403488 0.003072942141443491 -0.022378064692020416 0.012362197041511536 0.007651559077203274 0.011454724706709385 -0.021111680194735527 0.01594429276883602 -0.008151249960064888 0.022433172911405563
Q5 6.121672340668738E-4 1.8462419393472373E-4 0.00411207415163517 3.2566001755185425E-4 0.003867070423439145 -0.003343440592288971 -0.003435287158936262 0.0020060655660927296 1.6329767822753638E-4 -0.002261766232550144 0.0010508663253858685 -0.004709293134510517 -0.004289478994905949 0.003918852191418409 0.002161018317565322 -0.003048992482945323 0.0018361544935032725 0.005281750578433275 -0.0013274687808007002 0.0016700553242117167 -4.613807541318238E-4 -0.0018406136659905314 0.0034345488529652357 9.273095056414604E-4 -9.620948112569749E-4 -2.839936350937933E-4 0.002624076558277011 -7.445807568728924E-4 -0.0030265692621469498 7.573217153549194E-4 -0.0022982812952250242 3.235986805520952E-4 -1.3188476441428065E-4 -0.0046079023741185665 -5.562267615459859E-4 0.003493702271953225 -0.00228821556083858 0.00229897303506732 0.004439232405275106 0.005389999132603407 -0.0030536181293427944 0.0025629799347370863 0.0034767978359013796 0.002690729685127735 0.005391636397689581 0.0010086039546877146 0.0030742317903786898 0.002370879054069519 -6.890484946779907E-4 0.004054247867316008 0.0013380993623286486 0.002580096712335944 3.148516407236457E-5 -0.004961368162184954 0.0019115232862532139 -0.004268032964318991 -0.002146379789337516 0.003772286931052804 0.0034785864409059286 -0.002113663125783205 -0.0025912791024893522 -0.0030337052885442972 -8.586652984376997E-5 0.0012322640977799892 -0.002360913436859846 -0.001317743444815278 -0.0014095758087933064 0.004950158763676882 -0.004172871820628643 0.004314518999308348 0.0023713521659374237 -5.3287658374756575E-5 1.7675755952950567E-4 0.003703899448737502 0.002360924147069454 0.003807931672781706 -0.0025684209540486336 -0.001305377227254212 0.001465500215999782 -0.005170233082026243 0.004799758084118366 -0.0025545195676386356 0.003124877344816923 9.633396402932703E-4 0.002731036627665162 5.496633239090443E-4 0.0021928525529801846 0.005164883099496365 -0.004589261021465063 -0.0031119014602154493 0.0022674142383038998 0.003544792765751481 0.0027889187913388014 -8.442935650236905E-4 -0.001538270735181868 -0.001757906167767942 -0.005039626732468605 0.0020754882134497166 -0.004374626558274031 -5.077008390799165E-4
Protagoras 0.012992514297366142 0.005426832940429449 -0.028060201555490494 0.022481616586446762 -0.008064473047852516 -0.025775142014026642 -0.03262609243392944 -0.0232191551476717 -0.0012012848164886236 -0.028628168627619743 -0.0086292689666152 -0.017480716109275818 -0.015955699607729912 -0.030500255525112152 0.019988926127552986 -0.024100804701447487 0.006927769631147385 0.017859414219856262 -7.65994715038687E-4 -0.009642993099987507 -0.037535615265369415 0.0261478703469038 0.027906935662031174 -0.02798234112560749 -0.0060110692866146564 -0.011794046498835087 0.009656090289354324 -0.03465968370437622 0.026754815131425858 0.033679597079753876 -0.007961487397551537 -0.009708937257528305 -0.010841362178325653 0.02122730016708374 -0.010647318325936794 0.013113177381455898 -0.006423354148864746 -0.021570267155766487 0.003121340414509177 0.026846008375287056 0.0020196964032948017 -0.013567027635872364 0.03864414617419243 0.015383082441985607 0.03507319837808609 -0.021914757788181305 0.006714326329529285 -0.023234952241182327 -0.026294393464922905 -0.01200918573886156 -0.006555965635925531 0.02119741030037403 0.0032776971347630024 -0.019553640857338905 -0.010545262135565281 0.009482963010668755 -0.00968200247734785 -0.008175943978130817 0.006989703048020601 -0.021189043298363686 -0.02010483667254448 -0.009299276396632195 0.003515158547088504 -0.022652719169855118 0.017440497875213623 0.03688455745577812 -0.03533881902694702 -0.008012261241674423 -0.03039846196770668 -0.021702904254198074 -0.02142718806862831 0.0017559317639097571 -0.011113184504210949 -0.010477910749614239 -0.010299259796738625 0.025764310732483864 -0.014938573352992535 -0.030354106798768044 0.009166723117232323 -0.011830206029117107 0.009410800412297249 0.017764706164598465 -0.008493145927786827 0.00971643440425396 0.0021287817507982254 7.699375273659825E-4 0.01902168057858944 0.03353764861822128 0.008085436187684536 0.02123417891561985 -0.025874918326735497 8.960026316344738E-4 -0.02525462955236435 0.019071456044912338 0.015986019745469093 0.0075926450081169605 -0.0317930169403553 0.02727212756872177 -0.016871845349669456 0.025172695517539978
Abaris_the_Hyperborean 0.00606828136369586 0.003856110153719783 -0.023458881303668022 0.008411257527768612 -0.011003056541085243 -0.017019808292388916 -0.024050580337643623 -0.016406821087002754 0.001772616757079959 -0.014148632995784283 -0.0010475361486896873 -0.014867771416902542 -0.006553052458912134 -0.020428232848644257 0.013557728379964828 -0.014810143038630486 -1.132945908466354E-4 0.005724913440644741 0.005964167881757021 -0.008226785808801651 -0.0164177343249321 0.017231497913599014 0.01123277097940445 -0.017560703679919243 -0.007637518923729658 -0.0023981595877557993 0.007956168614327908 -0.025798985734581947 0.01740759052336216 0.02059203013777733 -0.0060961367562413216 -0.006389543414115906 -0.012576787732541561 0.018700221553444862 -0.007107920479029417 0.005544967949390411 -0.002582460641860962 -0.010407792404294014 0.0038830472622066736 0.011539800092577934 -0.004518948029726744 -0.001968113472685218 0.02898433990776539 0.0137109886854887 0.018512694165110588 -0.009452765807509422 0.010503994300961494 -0.010370651260018349 -0.01052823942154646 -9.337012888863683E-4 -0.00442444859072566 0.0074362135492265224 0.0068097468465566635 -0.015345440246164799 -0.00856295321136713 -8.066757582128048E-4 -1.0588071745587513E-4 -0.005554332863539457 0.0027188437525182962 -0.014694743789732456 -0.014826245605945587 -0.007276988122612238 2.981489524245262E-4 -0.016791393980383873 0.008090946823358536 0.019033854827284813 -0.014007961377501488 -0.0072678010910749435 -0.014928294345736504 -0.01654856652021408 -0.013609877787530422 0.0020641733426600695 -0.005316645372658968 -0.007838157005608082 -0.00392219377681613 0.013481708243489265 -0.010543937794864178 -0.020780324935913086 0.0025620178785175085 -0.004791088402271271 0.009792990982532501 0.009963322430849075 -0.0070617361925542355 0.003066892037168145 0.0033609867095947266 0.004486787598580122 0.01630707085132599 0.020027510821819305 0.005307037848979235 0.01692093536257744 -0.012780466116964817 0.002053099451586604 -0.019748400896787643 0.010065935552120209 0.0030145482160151005 0.00837556179612875 -0.02086513675749302 0.02066141366958618 -0.010969198308885098 0.01699388399720192
Speaker110630188 -0.0029132955241948366 -0.0022165640257298946 -0.0018873711815103889 -7.464357768185437E-4 0.0017505453433841467 0.0013374518603086472 0.0013376037823036313 0.001532800612039864 -0.003188176080584526 -0.007641333620995283 -0.0025255458895117044 -0.0017188744386658072 -0.002710368949919939 -0.005538299214094877 0.0010498163755983114 -0.001815509283915162 0.002379092387855053 -0.002026282250881195 0.004847600590437651 -0.0031617607455700636 -0.005684434901922941 -2.4310918524861336E-4 0.0037754399236291647 -0.00460783438757062 -0.003446498652920127 0.003112634178251028 -0.0025545174721628428 -0.0036476876121014357 0.007035551592707634 0.002546729752793908 -0.004922283813357353 -0.005405138712376356 0.0017225357005372643 0.0046967556700110435 0.0020370525307953358 5.355295143090189E-4 0.0033617836888879538 -0.0027004913426935673 -0.001856490271165967 -4.248151381034404E-4 -9.46981250308454E-4 -0.0022236346267163754 0.007459008600562811 3.629918792285025E-4 0.002703482285141945 -9.537051082588732E-4 -0.002434162888675928 0.002195501234382391 -0.0025421204045414925 0.0015855004312470555 0.003699718974530697 0.006558944471180439 0.004072855226695538 0.0017886317800730467 -0.0026826937682926655 0.005297285504639149 -0.0015308851143345237 -0.005328118801116943 -0.00349259446375072 -0.005401480942964554 -0.003808387788012624 9.274575277231634E-4 -0.002613804070279002 0.0013343091122806072 0.005941012874245644 0.002510329242795706 -0.00793488509953022 -0.0010422862833365798 -0.0012436860706657171 -0.0039120689034461975 0.002174511319026351 0.002382512204349041 0.0033924346789717674 0.002463424578309059 0.002390589565038681 0.0022036866284906864 -0.005504747852683067 6.243494572117925E-4 0.0032071692403405905 -0.0014525072183459997 -0.0025681613478809595 0.003838962409645319 0.0013346101623028517 0.002381950616836548 0.003993785008788109 0.002616971032693982 -8.96617530088406E-6 0.00347254890948534 6.195962778292596E-4 0.0052004060707986355 -0.0043892390094697475 0.0038889162242412567 -0.006962212268263102 0.002228537341579795 -0.0025284532457590103 0.0037219005171209574 -0.007786735892295837 0.002474465873092413 4.8121780855581164E-4 0.0038902764208614826
Cassius_Longinus_(philosopher) -0.002422051038593054 -8.459063246846199E-4 -0.0029933983460068703 0.0049492428079247475 0.002912866650149226 -0.0016014468856155872 -0.006134225521236658 -0.002875325968489051 -3.709724696818739E-4 -0.00219498248770833 0.0033143856562674046 -0.0018160674953833222 -0.0010129711590707302 0.0027080692816525698 9.951094398275018E-4 0.0016201965045183897 -0.0011289449175819755 -0.003048965474590659 -0.002687809756025672 -1.4536095841322094E-4 -0.005304299760609865 -1.9907380919903517E-4 0.0013329307548701763 0.003445933572947979 -0.002378510544076562 -0.005571920424699783 0.0035253181122243404 -0.004800231195986271 0.005178837105631828 -3.1548674451187253E-4 -0.005151563324034214 -0.0027503715828061104 -0.0037927923258394003 -4.6460545854642987E-4 0.0018924790201708674 0.006095577962696552 1.397137821186334E-4 2.389714354649186E-4 0.004261718597263098 0.0066027515567839146 -0.002000042237341404 -0.0039862338453531265 0.007415395695716143 0.004811192397028208 0.0073033710941672325 -9.184813825413585E-4 0.003668820718303323 0.001733218552544713 0.003926485776901245 8.944130968302488E-4 0.004939944017678499 -1.5010828064987436E-5 -7.596956565976143E-4 -0.00339632504619658 0.002003024099394679 -0.0013136945199221373 -0.004296424333006144 0.004402382764965296 -5.240909522399306E-4 -0.005263682920485735 -0.006913712713867426 0.004864054266363382 4.1851235437206924E-4 -0.0035300315357744694 0.0020686329808086157 0.006290778052061796 -2.856035716831684E-4 -0.00230106757953763 0.003537083277478814 3.317318332847208E-4 0.003024892881512642 -2.657935256138444E-4 -0.005324372556060553 0.0012656088219955564 -0.0037365753669291735 0.004260985180735588 0.0038198777474462986 -0.004781852010637522 -0.005045600235462189 -0.0052167936228215694 0.0022197843063622713 -0.0025342630688101053 -0.001306098885834217 -0.005226062145084143 0.0012260343646630645 -0.0035598082467913628 -0.0021179502364248037 0.004151021596044302 0.003596746362745762 0.0032708311919122934 6.394915981218219E-4 0.00574839673936367 -6.237818743102252E-4 0.0038006568793207407 0.004372415132820606 0.005213723052293062 -0.005153997801244259 0.0019515145104378462 -0.002047610003501177 6.031125085428357E-4
type -0.10171934962272644 -0.06054151803255081 0.23672454059123993 -0.17649662494659424 0.11187576502561569 0.23586931824684143 0.2860330045223236 0.19518181681632996 0.03116339072585106 0.24998889863491058 0.04548823460936546 0.14701862633228302 0.12955991923809052 0.21603892743587494 -0.207071915268898 0.2378535270690918 -0.040139082819223404 -0.10091200470924377 -0.038804616779088974 0.08830637484788895 0.27085965871810913 -0.17738668620586395 -0.18091139197349548 0.18871769309043884 0.058806829154491425 0.07609497010707855 -0.0775371715426445 0.26883822679519653 -0.19048023223876953 -0.27311328053474426 0.06280574947595596 0.1020609438419342 0.10789713263511658 -0.19472382962703705 0.09048301726579666 -0.06369635462760925 0.03544032201170921 0.17958498001098633 -0.019144028425216675 -0.21019627153873444 -0.01027197390794754 0.07176492363214493 -0.33507078886032104 -0.14133495092391968 -0.29348140954971313 0.19360694289207458 -0.07262065261602402 0.19017353653907776 0.17596139013767242 0.06304212659597397 0.05128343775868416 -0.1588125228881836 -0.031861789524555206 0.16067887842655182 0.07000087201595306 -0.03835458308458328 0.03522327542304993 0.07500350475311279 -0.06262030452489853 0.1344105750322342 0.1787651777267456 0.11092080920934677 -0.04280325025320053 0.15994687378406525 -0.13143488764762878 -0.2806027829647064 0.25308719277381897 0.05965745449066162 0.2559634745121002 0.2094350904226303 0.19136804342269897 -0.015872711315751076 0.11903873085975647 0.11711171269416809 0.0878821462392807 -0.24111700057983398 0.14249584078788757 0.22227460145950317 -0.05419939383864403 0.10686156153678894 -0.09533493220806122 -0.1814153641462326 0.03630947321653366 -0.06118231639266014 -0.020184721797704697 -0.034747011959552765 -0.15176203846931458 -0.2216862291097641 -0.10156767815351486 -0.17273274064064026 0.22688598930835724 0.013590862043201923 0.21016259491443634 -0.15745696425437927 -0.09719105809926987 -0.07485833764076233 0.2765333354473114 -0.22002758085727692 0.11659611761569977 -0.22781771421432495
Onasander 0.0026806213427335024 0.004772956017404795 -0.008966891095042229 0.0071314601227641106 -0.005712152924388647 -0.005397464614361525 -0.012759249657392502 -0.008799990639090538 -0.003026420483365655 -0.012273265048861504 -0.001940620131790638 -0.006586412433534861 -1.8910496146418154E-4 -0.0073663718067109585 0.009018290787935257 -0.012412935495376587 -0.0019065600354224443 0.004894042853266001 -0.0018307315185666084 -1.6965233953669667E-5 -0.012435397133231163 0.0097519401460886 0.010621791705489159 -0.0046846987679600716 -0.006120423320680857 -0.006604980211704969 0.007170256692916155 -0.006819133646786213 0.012550093233585358 0.012851674109697342 8.723119390197098E-5 -0.0059355478733778 -0.0031610513105988503 0.008958186022937298 -0.005056757014244795 0.0056138052605092525 -0.004767729435116053 -0.00961356982588768 9.350531036034226E-5 0.005646754056215286 1.3825295900460333E-4 -0.004341974388808012 0.016682211309671402 0.005337008740752935 0.014431841671466827 -0.002093116519972682 5.197058198973536E-4 -0.00266067311167717 -0.005705117713660002 -0.0035090167075395584 -0.0029293345287442207 0.005449262913316488 -0.0021476978436112404 -0.004132134839892387 -0.0012237594928592443 0.0039950148202478886 0.0035111212637275457 -0.003893876913934946 -0.0027764879632741213 -0.0021733539178967476 -0.007239095401018858 -0.005911666434258223 -5.929263425059617E-4 -0.003923723008483648 0.0030360787641257048 0.013510536402463913 -0.008939356543123722 0.0011745544616132975 -0.009781358763575554 -0.0036071734502911568 -0.002053017495200038 -6.045305053703487E-4 -0.00937232282012701 6.564026116393507E-4 -0.004977790173143148 0.010570923797786236 -0.004307262599468231 -0.004285022616386414 0.004548479802906513 -0.008619708940386772 0.007867833599448204 0.00832050759345293 -0.004115797113627195 0.0029123134445399046 -0.0029529202729463577 0.0013421416515484452 0.0073061538860201836 0.011059386655688286 0.004042935092002153 0.006717117968946695 -0.0033752904273569584 -0.0016020702896639705 -0.009261991828680038 0.002515193773433566 0.006290812510997057 -0.001334217144176364 -0.011973402462899685 0.01045737974345684 3.428268537390977E-4 0.009749159216880798
Polus 0.0016972888261079788 -6.367082823999226E-4 0.0020771706476807594 0.003303171368315816 -0.001155587611719966 0.003225441323593259 0.003568118903785944 -3.159150364808738E-4 -0.0023201503790915012 -0.004932519979774952 -0.0019528106786310673 1.32429733639583E-4 0.0032631701324135065 0.003945189993828535 0.0016785128973424435 -0.0014338771579787135 0.004878896288573742 0.0032651610672473907 0.004155262373387814 -0.0023072189651429653 -0.002601033542305231 0.0033696615137159824 0.005340091418474913 -0.0017981164855882525 0.0040786005556583405 -0.0020018944051116705 5.50973454664927E-5 -0.003263377584517002 -0.004191252868622541 0.0024314173497259617 -7.932216976769269E-4 8.851988823153079E-4 -0.0014292652485892177 0.0032319752499461174 3.5811460111290216E-4 0.003583361394703388 0.0018293090397492051 -7.366266218014061E-4 0.0045923697762191296 0.002298407955095172 0.002873311284929514 0.004458222072571516 0.003098756540566683 9.959202725440264E-4 -0.0036434666253626347 5.178254214115441E-4 0.0025018530432134867 0.002546180272474885 0.0037152916193008423 -0.003555591916665435 4.360497114248574E-4 -0.00265916483476758 5.137062398716807E-4 -0.0035903952084481716 0.002697356278076768 0.0047800359316170216 0.0028768887277692556 0.004529174417257309 -0.0031313470099121332 -0.00491903442889452 -0.0016709662741050124 -0.0018796317745000124 0.003507794812321663 0.003658295376226306 0.002049405360594392 -0.0022885072976350784 -0.0047946348786354065 0.002314148936420679 0.0012334052007645369 0.0019392329268157482 7.146256393752992E-4 -0.0028897575102746487 -0.004475707188248634 -0.0034555112943053246 -0.0020029903389513493 0.004971311427652836 -0.004636224824935198 0.003323417389765382 0.0013324192259460688 -0.002722719684243202 -0.002397559117525816 0.001633934793062508 0.003150898963212967 0.0019383176695555449 0.002635869663208723 -0.00391639769077301 0.0020064180716872215 0.001222081365995109 -0.0019528602715581656 -0.001953850267454982 0.0010231472551822662 -0.002616691868752241 -0.004650813061743975 -0.003009483451023698 -2.102166326949373E-4 0.0023755792062729597 -0.00428928155452013 -0.0013877642340958118 0.002193043939769268 0.003980634734034538
Proclus 0.016298655420541763 0.008646193891763687 -0.048361703753471375 0.02963883988559246 -0.015971841290593147 -0.040565215051174164 -0.05465734004974365 -0.03908003866672516 -0.00950178038328886 -0.0515761524438858 -0.0072493776679039 -0.025484120473265648 -0.028451994061470032 -0.03861777111887932 0.04046405851840973 -0.04055508226156235 0.004296183120459318 0.019225409254431725 0.003674212144687772 -0.013043230399489403 -0.04873580485582352 0.03551531583070755 0.03111889772117138 -0.030538715422153473 -0.008183054625988007 -0.01626328006386757 0.010418365709483624 -0.05340136960148811 0.03258129954338074 0.04992592707276344 -0.01058892346918583 -0.021185927093029022 -0.02035851962864399 0.029947562143206596 -0.015939297154545784 0.014375312253832817 -0.0010312008671462536 -0.038154199719429016 -0.0010336461709812284 0.04295627027750015 -0.0033417714294046164 -0.010097059421241283 0.061982158571481705 0.02716522477567196 0.04910110682249069 -0.037853870540857315 0.006734118331223726 -0.03661913797259331 -0.028431102633476257 -0.014690924435853958 -0.010996711440384388 0.03301607817411423 0.006488334387540817 -0.02798943594098091 -0.01584034413099289 0.007885768078267574 -0.007936459966003895 -0.007644102443009615 0.012101855129003525 -0.03010610304772854 -0.03297476842999458 -0.018006442114710808 0.003588675521314144 -0.02289535105228424 0.02613493986427784 0.054095108062028885 -0.042359087616205215 -0.005758787505328655 -0.040571361780166626 -0.03895729035139084 -0.03217596933245659 0.0019100145436823368 -0.023721667006611824 -0.021087341010570526 -0.020565634593367577 0.042944759130477905 -0.03206140547990799 -0.03468707203865051 0.010898606851696968 -0.024806028231978416 0.01826508902013302 0.029890146106481552 -0.005551820155233145 0.009375890716910362 0.0057566119357943535 0.002682628808543086 0.030896853655576706 0.039400942623615265 0.021051127463579178 0.027748018503189087 -0.043606460094451904 -0.0036934649106115103 -0.03779534250497818 0.03209385275840759 0.01946214772760868 0.01418480183929205 -0.05423017963767052 0.041870418936014175 -0.02435949258506298 0.04576210305094719
Orator110380672 0.004430120810866356 3.784176951739937E-4 -0.005763562861829996 0.006040304433554411 -0.003127303207293153 -5.219849408604205E-4 0.001019917195662856 3.4644227707758546E-4 0.002837017411366105 -0.0063398415222764015 -1.1477827501948923E-4 0.0010457923635840416 -9.127776138484478E-4 -0.004636005498468876 1.601602416485548E-4 2.918279787991196E-4 -1.7029746959451586E-4 0.0031043889466673136 0.003391639329493046 -8.079127292148769E-4 -0.005008330103009939 4.2902762652374804E-4 0.0056713903322815895 7.398127345368266E-4 -0.005023630801588297 -0.0023175952956080437 -0.0036863144487142563 -0.004023742862045765 -2.6259111473336816E-4 0.0025734412483870983 -0.005481034982949495 4.031105199828744E-4 -0.0055847009643912315 -0.0024593977723270655 -0.003475174307823181 -0.002120916498824954 6.486363708972931E-4 -3.776702214963734E-4 -7.197816157713532E-4 0.002676613163203001 -0.0011452350299805403 -0.002104976214468479 0.004069541115313768 -1.4242618635762483E-4 -4.7714918036945164E-4 -0.001981564797461033 -0.0018413173966109753 -0.0037510672118514776 0.00308552710339427 -0.004441198892891407 0.0033957704436033964 -1.1419258953537792E-5 -0.004437198396772146 -0.00414728419855237 -0.0013455095468088984 -0.0031253593042492867 -8.261300390586257E-4 -0.005233049392700195 0.005742982495576143 -0.004079677630215883 0.0024281064979732037 -0.00118842045776546 3.7289707688614726E-4 -0.0020260338205844164 0.003637762740254402 0.005838663317263126 -9.037387208081782E-4 -5.833422765135765E-4 0.0010876184096559882 2.3215739929582924E-4 -0.007035455666482449 0.004904731642454863 -0.0043753343634307384 0.0032613424118608236 0.0027994904667139053 0.001820813282392919 -0.006275660824030638 -7.867746753618121E-4 3.9079412817955017E-4 -0.004377078730612993 9.63952683378011E-4 -0.002353821648284793 -0.004922958090901375 -0.003518738318234682 -0.002805979223921895 0.0024322685785591602 0.0056294784881174564 0.0033285082317888737 0.004004696384072304 0.0033639625180512667 -3.7877522117923945E-5 -0.0023643618915230036 0.0025295396335422993 0.0065082404762506485 2.71660799626261E-4 0.004909581039100885 -0.0010690789204090834 0.005094519816339016 0.0021809192840009928 0.006752157583832741
Pyrrho 0.007920686155557632 0.007121043745428324 -0.03183085098862648 0.023178666830062866 -0.012266655452549458 -0.026260685175657272 -0.0296791959553957 -0.025587111711502075 -0.0015927405329421163 -0.030933063477277756 -0.008531368337571621 -0.01934119127690792 -0.009486550465226173 -0.018617551773786545 0.02197450026869774 -0.02653202787041664 0.0028886874206364155 0.013016902841627598 -0.0014329171972349286 -0.006047150585800409 -0.03347200155258179 0.0147484689950943 0.021513113752007484 -0.01640840619802475 -0.004931313451379538 -0.013106361962854862 0.002571969525888562 -0.03171222656965256 0.01886013150215149 0.030880559235811234 -0.007144140545278788 -0.015074796974658966 -0.008954714983701706 0.015000272542238235 -0.014000755734741688 0.007909370586276054 -0.004711291287094355 -0.018492819741368294 0.003858305746689439 0.025065967813134193 0.005197927821427584 -0.00997580774128437 0.03454677760601044 0.016680605709552765 0.031397636979818344 -0.021746059879660606 0.008555385284125805 -0.014710986986756325 -0.01863892190158367 -0.010246853344142437 -0.006637215614318848 0.013376771472394466 0.0054586115293204784 -0.015881024301052094 -0.004675891250371933 0.006783713586628437 -7.943134987726808E-4 -0.009066486731171608 0.009177617728710175 -0.01631327159702778 -0.01479152962565422 -0.008854447863996029 -0.0012748377630487084 -0.011759764514863491 0.017576852813363075 0.026453247293829918 -0.02564152330160141 -0.009241270832717419 -0.02923625148832798 -0.023099137470126152 -0.022542575374245644 -0.0011473625199869275 -0.009974400512874126 -0.013378722593188286 -0.007817713543772697 0.02772282250225544 -0.018424298614263535 -0.026582328602671623 2.4025047605391592E-4 -0.016077425330877304 0.007383339572697878 0.021077515557408333 -0.00898145604878664 0.010133086703717709 7.801374886184931E-4 0.004492728039622307 0.01962738111615181 0.02412542514503002 0.013229187577962875 0.023170961067080498 -0.024289123713970184 -0.0016651353798806667 -0.016109079122543335 0.017186185345053673 0.01575501263141632 0.010003665462136269 -0.026097994297742844 0.024819908663630486 -0.014257332310080528 0.028682421892881393
PhysicalEntity100001930 0.0021701257210224867 0.0037910952232778072 -0.00977680366486311 0.01070317905396223 -0.0032804489601403475 -0.012787273153662682 -0.012638067826628685 -0.008933920413255692 0.0030976501293480396 -0.008932199329137802 -0.0016178967198356986 -0.006493091117590666 -0.010714223608374596 -0.011823239736258984 0.008914301171898842 -0.013582172803580761 0.0012515462003648281 0.008959712460637093 0.0021819956600666046 -0.003813824849203229 -0.017339948564767838 0.004073323681950569 0.012242592871189117 -0.012958666309714317 4.7820061445236206E-4 -0.006435499992221594 8.554399246349931E-4 -0.016955111175775528 0.006103441584855318 0.013347734697163105 -0.004740723874419928 -0.006999312900006771 -0.0011659470619633794 0.011627723462879658 -0.0028612338937819004 0.008333646692335606 0.0028835635166615248 -0.004494516644626856 0.0022002740297466516 0.012551113031804562 -0.0028460060711950064 -0.005212153773754835 0.01885274425148964 0.010175518691539764 0.009188544936478138 -0.005562355741858482 -0.0017793725710362196 -0.004886987153440714 -0.004404556471854448 -7.139688823372126E-4 -0.00567504670470953 0.004481961019337177 0.0018557306611910462 -0.006180873140692711 -0.0014106533490121365 0.0015864777378737926 -0.003426734823733568 -0.002846316434442997 0.004467608407139778 -0.00926574319601059 -0.009131522849202156 -0.0017875689081847668 -0.0033091118093580008 -0.004551762714982033 0.005340988747775555 0.009427848272025585 -0.01676507107913494 -0.0015099786687642336 -0.011103369295597076 -0.007526739034801722 -0.009932398796081543 0.004521336406469345 -0.0069832270964980125 -4.524350515566766E-6 -0.007275644689798355 0.013095669448375702 -0.00599345238879323 -0.008981163613498211 -0.002130345907062292 -0.008292552083730698 0.003755598794668913 0.010287167504429817 0.003192121861502528 -7.326448103412986E-4 -0.0025633659679442644 -3.034145920537412E-4 0.009877141565084457 0.007584778591990471 5.05043426528573E-4 0.0032225409522652626 -0.011886360123753548 -0.0015942766331136227 -0.013675863854587078 0.005149387288838625 0.003910259809345007 0.0058931089006364346 -0.010549144819378853 0.009625508449971676 -0.004674802999943495 0.007555194664746523
Hippias 0.007953127846121788 0.006002004723995924 -0.007410993333905935 0.004500917159020901 -0.0043006823398172855 -0.010505596175789833 -0.009536796249449253 -0.011592008173465729 0.0031863590702414513 -0.0101453373208642 0.002658104756847024 -0.005067842081189156 -0.008492162451148033 -0.012559791095554829 0.010954773053526878 -0.007966481149196625 0.0020780800841748714 0.0023492882028222084 0.005162891931831837 -0.0051408628933131695 -0.007325687911361456 0.006654880475252867 0.009463259018957615 -0.01221903134137392 0.0019839841406792402 -0.00548714492470026 -8.672488038428128E-4 -0.01550278626382351 0.0033070973586291075 0.00921143963932991 -9.047039784491062E-4 -0.009094126522541046 -0.007685252930969 0.008286349475383759 -2.6054709451273084E-4 0.005396218504756689 -0.002406221115961671 -0.006372510921210051 0.0023691460955888033 0.010885301977396011 -0.0035618331748992205 -0.001395901432260871 0.01132796611636877 0.0014755630400031805 0.01611735299229622 -0.012921992689371109 0.006651004776358604 -0.005744439549744129 -0.00771116791293025 -0.006596501916646957 5.858038202859461E-4 0.005363401025533676 -0.0022374915424734354 -0.005254295654594898 -0.0037740834522992373 0.006379558704793453 3.6892833304591477E-4 -0.006523142568767071 0.005052125081419945 -0.00955059751868248 -0.00795238558202982 -0.008113967254757881 -7.492770673707128E-4 -0.011282127350568771 0.008181558921933174 0.01351283211261034 -0.008681189268827438 -0.001535913092084229 -0.006731140892952681 -0.011791598983108997 -0.00514759449288249 0.005190489813685417 -0.007142253220081329 -3.53152776369825E-4 7.968063000589609E-4 0.006225571036338806 -0.010255713015794754 -0.005120899062603712 0.0023531774058938026 -0.008555866777896881 0.005310051143169403 0.005634803790599108 -0.00215477985329926 0.003689129836857319 0.0045022377744317055 -0.0026014905888587236 0.010782931931316853 0.012449962086975574 5.063683493062854E-4 0.006413751281797886 -0.013445795513689518 -0.004876920487731695 -0.01232761237770319 0.009778357110917568 0.001789773814380169 0.004285541363060474 -0.01299783494323492 0.008818143978714943 -0.007235475815832615 0.012436965480446815
Satyrus_the_Peripatetic 0.0038179135881364346 -0.003097732551395893 -7.213057251647115E-4 0.0027755210176110268 7.081523071974516E-4 -0.004695397801697254 -0.008237049914896488 -0.004638087935745716 0.0028091599233448505 -0.0032001130748540163 -0.001408141921274364 -0.00650438666343689 -6.363600259646773E-4 -0.004842854104936123 7.84005387686193E-5 -0.0023026177659630775 0.0035234233364462852 4.8458308447152376E-4 -0.003969188779592514 0.0019480491755530238 -0.008281104266643524 0.006339163053780794 -0.001320007722824812 0.0010203049750998616 5.999461282044649E-4 0.0031404222827404737 -0.001234329422004521 -0.008403429761528969 0.0065621803514659405 0.008680643513798714 6.347343442030251E-4 -0.003593605477362871 -0.003377965185791254 0.004890909884124994 9.496325219515711E-5 0.002848257077857852 -0.0024891369976103306 -0.00503928866237402 0.004367007873952389 7.594361086376011E-4 -0.002931027440354228 0.002258020918816328 0.009504234418272972 0.005800098180770874 0.0028085531666874886 -0.00653410516679287 0.004872109275311232 0.0010503018274903297 -0.004310596734285355 -0.0034938061144202948 -0.005275439471006393 0.00224517285823822 -0.0039134277030825615 -0.0038642296567559242 -0.0024701994843780994 0.004866608884185553 -0.0012901568552479148 0.0016575902700424194 6.443828460760415E-4 -0.007343734614551067 -0.006007685791701078 -6.495612906292081E-4 0.00336273992434144 -5.852675531059504E-4 0.005168587435036898 0.00713419821113348 6.037111161276698E-4 -0.0012287095887586474 8.952166535891593E-4 -0.006601373199373484 -0.003932814113795757 -0.0012301416136324406 -0.007211675867438316 0.001132808974944055 -0.0027234109584242105 0.008843117393553257 -8.863711263984442E-4 -0.0022859913296997547 2.5628667208366096E-4 -3.34313721396029E-4 -1.3903685612604022E-5 -0.0013933498412370682 -0.003013512585312128 -4.2056519305333495E-4 0.0026110715698450804 0.001646776800043881 -0.002512209117412567 0.005852879490703344 -0.00288560101762414 -0.0022729788906872272 -0.005867382045835257 0.004024476744234562 -0.006503051146864891 0.0052740913815796375 0.0026200839783996344 0.00667068175971508 -0.0013730295468121767 0.00666109099984169 -0.0022335858084261417 0.005440562032163143
Androcydes_(Pythagorean) 0.01008511334657669 0.007700437214225531 -0.01139173936098814 0.0065387580543756485 -0.0106614138931036 -0.007484438829123974 -0.01343741174787283 -0.010847698897123337 -0.0062657305970788 -0.013441509567201138 0.002093765651807189 -0.010195673443377018 -0.0018249723361805081 -0.0142512246966362 0.0070299725048244 -0.01513960026204586 -0.0026771696284413338 0.005557854659855366 0.005941770039498806 -9.444834431633353E-4 -0.01738954707980156 0.013304658234119415 0.014115353114902973 -0.010479720309376717 1.384818460792303E-4 -0.006865714676678181 0.001114554237574339 -0.016454435884952545 0.006819622125476599 0.01820986531674862 -3.2607046887278557E-4 -0.008842414245009422 -0.008895877748727798 0.006352675147354603 2.356095938012004E-4 0.006656133569777012 -7.654330693185329E-4 -0.007335668429732323 -8.23951093479991E-4 0.01554946880787611 0.004269853234291077 -0.006248215679079294 0.022298533469438553 0.011592276394367218 0.015608894638717175 -0.009104025550186634 7.52425636164844E-4 -0.0076528252102434635 -0.012773444876074791 -0.006460885517299175 -0.005534946918487549 0.011269788257777691 0.0033323608804494143 -0.00751172099262476 -0.005671002436429262 0.006050001364201307 -0.006414668168872595 -0.0011673688422888517 -0.0013228842290118337 -0.004024186637252569 -0.008222823962569237 -0.0012688999995589256 -0.0011284922948107123 -0.012585884891450405 0.008133611641824245 0.010800709947943687 -0.014066541567444801 -0.002762331161648035 -0.01066739670932293 -0.013154753483831882 -0.012716485187411308 -0.0012484895996749401 -0.004886781796813011 -0.0038239778950810432 -0.003243636107072234 0.010919323191046715 -0.008290293626487255 -0.014286535792052746 0.0072584389708936214 -0.005001509096473455 2.1719060896430165E-4 0.014185657724738121 -0.006545643787831068 0.007401441223919392 -0.003661209251731634 0.0034586822148412466 0.009302114136517048 0.010175790637731552 0.007682351861149073 0.011773211881518364 -0.013822789303958416 -6.927127251401544E-4 -0.006954522337764502 0.009307200089097023 0.008358253166079521 0.006346748676151037 -0.010836814530193806 0.006705579813569784 -0.004357032012194395 0.010614601895213127
WikicatAncientGreekMathematicians 9.243317181244493E-4 -0.004341107793152332 -0.0019086443353444338 -0.0025879519525915384 -0.0019411704270169139 -0.0069734822027385235 0.00257138186134398 -0.001718364772386849 0.0028935489244759083 -0.00658066663891077 -0.001188591355457902 -0.005507861264050007 -0.005214259494096041 -0.0028391543310135603 0.0010724137537181377 0.001132920035161078 0.004735718946903944 0.0014128441689535975 0.004924184642732143 -9.127064840868115E-4 0.0014218514552339911 0.003014273475855589 0.0019948650151491165 -5.69976691622287E-4 -0.0025879351887851954 0.00412015663459897 0.0030448664911091328 -0.005558470729738474 0.0021055275574326515 -0.0011170556535944343 0.0016662870766595006 -0.004452860448509455 1.6300186689477414E-4 5.744904046878219E-4 0.003666336415335536 0.005001511424779892 2.583563618827611E-4 0.001312114531174302 0.004873965866863728 0.0026191261131316423 -0.004385142587125301 -0.0031976501923054457 0.002908561145886779 0.0012747477740049362 4.834867431782186E-4 0.0010703799780458212 -4.995161361875944E-5 -0.0037754273507744074 -0.004161106422543526 -0.005032870452851057 0.0021395499352365732 0.002090472262352705 -0.0011846780544146895 -0.0019089982379227877 -5.766871036030352E-4 -0.0023388038389384747 -0.005073438864201307 -0.0032384132500737906 0.0012024936731904745 -0.002270187484100461 -0.0012575900182127953 -0.002286544069647789 0.003664276096969843 -0.005357329733669758 -0.0017926053842529655 0.0070373015478253365 -0.0046402872540056705 -0.0014238108415156603 0.001095541287213564 0.0011868402361869812 0.0027574466075748205 0.005089693237096071 -0.0029814974404871464 -0.0023276989813894033 -0.005079301539808512 0.0014343108050525188 8.303542854264379E-4 0.0013852453557774425 0.005219421349465847 0.0032244136091321707 -0.0016090483404695988 -0.0022481821943074465 -8.869465091265738E-4 1.1629121581790969E-4 2.3989233886823058E-4 -0.0023631281219422817 -6.13626791164279E-4 -0.0022034624125808477 -4.0143527439795434E-4 0.00548997987061739 -0.0034780108835548162 -0.004655193071812391 9.294728515669703E-4 4.989036824554205E-4 0.003724347800016403 -0.0026038007345050573 -0.002718755742534995 9.826176101341844E-4 0.0022379078436642885 -0.002639052690938115
NaturalPerson 0.002428259700536728 0.0010594130726531148 -0.004806832410395145 0.0012907723430544138 0.0022677485831081867 7.705483585596085E-4 0.0015408463077619672 0.002264914568513632 -7.844257052056491E-4 0.0010970071889460087 -0.002735119080170989 -6.116497097536922E-4 -1.4558904513251036E-4 -0.0015531377866864204 -8.386812405660748E-4 2.0862056408077478E-4 0.003811866044998169 -0.002175898291170597 -0.003988918382674456 5.978125263936818E-4 -0.00524383457377553 0.002418450079858303 0.005639738868921995 -0.002743057208135724 0.0027048978954553604 -0.004084668587893248 -0.003494072239845991 -0.003901858115568757 0.0010219376999884844 0.0032264215406030416 9.792990749701858E-4 6.056229467503726E-4 -0.0027349796146154404 0.002180760493502021 3.9049782208167017E-4 0.00406468752771616 0.0032569440081715584 -0.0034694112837314606 0.0015611691633239388 -0.0020631414372473955 -0.0022734464146196842 -7.174460915848613E-4 8.351181168109179E-4 -0.0028242035768926144 0.001470972434617579 -5.604235047940165E-5 -0.004598402883857489 0.0013374446425586939 -8.43590940348804E-4 0.004041535314172506 0.0011612114030867815 -0.0035962669644504786 -0.004070982802659273 0.0017712133703753352 -0.004193278029561043 0.0024169792886823416 -0.0030734906904399395 -0.0032510505989193916 1.3390355161391199E-4 0.00210912199690938 -0.004596368409693241 -0.00503004202619195 -0.004465270321816206 -0.0029126256704330444 -2.7164019411429763E-4 1.9589514704421163E-4 0.001850152388215065 1.0797153663588688E-4 7.205245783552527E-4 5.903197452425957E-4 0.003430423093959689 -0.0030818472150713205 -0.005494176410138607 -0.0031533031724393368 -0.003249472239986062 4.54591354355216E-5 -0.0013739195419475436 -5.989804631099105E-4 -0.0011703044874593616 -0.0014930194010958076 9.233178570866585E-4 0.002200437942519784 7.980071241036057E-4 -0.0032891349401324987 -0.004785686265677214 0.0010667365277186036 0.005118622910231352 -0.0017759713809937239 0.0014053162885829806 -0.0037904102355241776 -0.002476978348568082 0.0021271847654134035 0.0033051783684641123 -0.0011176253901794553 0.0032594790682196617 1.5462057490367442E-5 -0.005814576055854559 0.004840790294110775 0.0010883371578529477 -0.003635701024904847
Thing 0.007279633544385433 3.8719939766451716E-4 -0.010837317444384098 0.004719607997685671 0.0010749477660283446 -0.01315046101808548 -0.008252627216279507 -0.01312179770320654 5.937890964560211E-4 -0.010730965994298458 -0.002869982272386551 -0.002794775180518627 -0.001873308327049017 -0.007795756682753563 0.005030628759413958 -0.009596562013030052 1.9536319086910225E-6 0.006197409704327583 0.0012667779810726643 -0.0047229137271642685 -0.006958834361284971 0.010399230755865574 0.01106084231287241 -0.007028528489172459 -0.001483836444094777 -0.0011958826798945665 0.00699086906388402 -0.015775755047798157 0.009718749672174454 0.008183225058019161 -6.766535225324333E-4 -0.00410132622346282 -0.007162048015743494 0.006431883666664362 -1.5569949755445123E-4 0.0023698776494711637 0.0040041073225438595 -0.006552413105964661 -1.1759154585888609E-4 0.012464852072298527 -0.0022373851388692856 5.742193316109478E-4 0.013501573354005814 0.010766508057713509 0.013154096901416779 -0.005953890737146139 8.163703023456037E-4 -0.009894214570522308 -0.0018444597953930497 -0.0056030526757240295 -0.005717914085835218 0.00954811368137598 0.002839040942490101 -0.004700181540101767 -0.006262070965021849 -0.0018378334352746606 -0.0031429538503289223 -0.002973513677716255 0.006708466447889805 -0.007498272694647312 -0.01033634040504694 -0.0065529015846550465 -0.0018891091458499432 -0.0018483249004930258 0.004858952481299639 0.009089553728699684 -0.01149502769112587 -0.005892796907573938 -0.013751444406807423 -0.0037028761580586433 -0.011297584511339664 0.005342212971299887 -0.0015486613847315311 -0.007723941933363676 -0.007584409322589636 0.008421364240348339 -0.00901633221656084 -0.010850784368813038 -0.0022244867868721485 -9.713539038784802E-4 0.002894170116633177 0.008623704314231873 -6.42443192191422E-5 -0.0011346639366820455 -0.0012234010500833392 -4.3362684664316475E-5 0.00865717139095068 0.005460051819682121 0.008130320347845554 0.002403904916718602 -0.00641739321872592 -0.003989731892943382 -0.0061260974034667015 0.009958705864846706 0.0010749073699116707 0.0026450359728187323 -0.012371523305773735 0.00625256635248661 -0.0015448270132765174 0.01235111802816391
Q24229398 0.0049313451163470745 0.0029846387915313244 -0.0051505910232663155 0.0015221061185002327 0.001934328582137823 9.184923255816102E-4 -0.007001940160989761 -0.005129074677824974 -0.003500434337183833 -0.0070236120373010635 0.002668776549398899 -0.0017636832781136036 -0.0029781460762023926 -0.001798983896151185 0.004428280983120203 -8.257232257165015E-4 -0.0029409972485154867 0.002369107911363244 0.003063105046749115 -0.002609616843983531 -0.006842686794698238 -0.0015830259071663022 0.006712784059345722 -0.0033267128746956587 0.0040402477607131 -0.0011063253041356802 0.005400870461016893 -0.00659404881298542 -6.833134684711695E-4 0.00707663269713521 -3.1060486799106E-4 -0.0022638272494077682 0.00372074986808002 -0.0012431751238182187 0.002906720619648695 -0.0016783431638032198 -0.002998356707394123 -0.0026010703295469284 0.0015130337560549378 0.004993061069399118 0.003034074790775776 -3.726457362063229E-4 0.005147438030689955 -0.001210243091918528 -5.997082917019725E-4 0.002294605365023017 2.2884528152644634E-4 0.002413923153653741 0.002809620462357998 -0.004221260081976652 -0.0027275201864540577 -0.0018158010207116604 -9.31619360926561E-5 -0.004331423435360193 8.527074242010713E-4 0.00211533741094172 8.23827984277159E-4 0.0039217108860611916 0.004154483787715435 -0.0026122236158698797 -0.005815419834107161 -0.003277398180216551 2.3036214770399965E-5 0.002963029546663165 -4.7244573943316936E-4 0.0027165361680090427 4.881903878413141E-4 0.0025953922886401415 -0.004858281463384628 3.1105277594178915E-4 -0.0014692991971969604 -0.00385860214009881 0.003340089228004217 4.392290720716119E-4 -0.0038049770519137383 0.006588519085198641 0.0025233819615095854 -0.005742926616221666 -3.8522062823176384E-4 9.416274260729551E-4 0.002414196729660034 0.0027474197559058666 -0.004277772735804319 -5.510211340151727E-4 -0.0022684272844344378 -0.003731637727469206 7.540307706221938E-5 -0.001032812986522913 0.005407929886132479 0.004415926057845354 -0.006470070220530033 0.0010723231825977564 0.0024858592078089714 0.0027737922500818968 -0.002014299388974905 0.003044774755835533 -0.005457628518342972 0.004443541169166565 -0.0011372173903509974 -2.775315078906715E-4
Agent 0.0016299766721203923 0.005600901320576668 -0.008693691343069077 0.001916823093779385 -0.0016706029418855906 -0.009004219435155392 -0.0024221520870923996 -0.0074348230846226215 0.0018359251553192735 -0.0053702909499406815 0.0021142028272151947 4.308289790060371E-4 -0.0053909653797745705 -6.607522955164313E-4 0.007827532477676868 -0.0045165144838392735 -9.159265900962055E-4 0.006399290636181831 -0.0029807768296450377 -0.006092521362006664 -0.0024990953970700502 0.006221517454832792 0.0018026874167844653 0.0012437242548912764 -0.004298145417124033 -0.002844314556568861 0.0018685563700273633 -0.0024261255748569965 0.0020842202939093113 0.0060005709528923035 0.0012388217728585005 0.001978797372430563 -8.674873970448971E-4 5.167120834812522E-4 -0.005289691500365734 6.889880169183016E-4 -0.003968064673244953 -0.004860178101807833 -0.0038862961810082197 3.0139429145492613E-4 -0.002425950486212969 0.0021662332583218813 0.010373929515480995 -0.0020142800640314817 0.006467600353062153 -0.00562340347096324 8.602007874287665E-4 0.0025442594196647406 3.859674325212836E-4 -0.004731903783977032 0.001946246949955821 0.0066260104067623615 0.001193489646539092 0.0013826567446812987 5.364725802792236E-5 -0.003351423656567931 0.0029566793236881495 0.0028242692351341248 0.0061432234942913055 -0.002004422014579177 5.272494745440781E-4 -0.00625054445117712 0.0022502143401652575 -0.0014969658805057406 -9.07444569747895E-4 0.008484628051519394 -0.004517284221947193 0.001530835754238069 -0.005261274985969067 -0.0031485988292843103 -0.0010840697214007378 -0.001249404507689178 -0.0015671498840674758 -0.0031948855612426996 -0.005830316338688135 0.004381253384053707 -0.007176040206104517 -0.0027813685592263937 0.0043396176770329475 3.761421248782426E-5 -8.579574059695005E-4 0.0034659667871892452 6.480221054516733E-4 -0.0027218149043619633 0.002838136861100793 0.0028176247142255306 0.006121925078332424 0.008627758361399174 0.004154701251536608 0.006315622478723526 -3.86624364182353E-4 0.003364718984812498 -0.006996391341090202 0.004016099032014608 -0.0012776277726516128 -7.054860470816493E-4 -0.008471625857055187 0.004917195066809654 -0.0022594709880650043 -2.2415490821003914E-4
Hecataeus_of_Abdera 0.011150549165904522 0.0058636353351175785 -0.025913214311003685 0.02120755799114704 -0.006834754254668951 -0.030102578923106194 -0.02940821275115013 -0.027485545724630356 -0.0018654833547770977 -0.026375235989689827 -0.004688091576099396 -0.011491144075989723 -0.012675398029386997 -0.025209086015820503 0.021152008324861526 -0.02787483111023903 0.005250006448477507 0.008594675920903683 0.002125345403328538 -0.007037462666630745 -0.032296258956193924 0.015996864065527916 0.02079807221889496 -0.018036022782325745 -0.00886286236345768 -0.0066060773096978664 0.011308157816529274 -0.0281154066324234 0.022324319928884506 0.03430498018860817 -0.00944672804325819 -0.01159657258540392 -0.009478253312408924 0.020656339824199677 -0.008210341446101665 0.012410249561071396 -0.0014344974188134074 -0.015336083248257637 -1.301568845519796E-4 0.022491829469799995 0.0019247171003371477 -0.005961299873888493 0.04135233908891678 0.01339492667466402 0.032222166657447815 -0.02394913323223591 0.005280353594571352 -0.015406889840960503 -0.023806210607290268 -0.011617669835686684 -0.00245018326677382 0.014589168131351471 6.189866689965129E-5 -0.018794942647218704 -0.0037839715369045734 0.0011276549194008112 -0.005450001917779446 -0.011983593925833702 0.006456677336245775 -0.011854487471282482 -0.018112650141119957 -0.0113758509978652 -5.524065345525742E-4 -0.021441662684082985 0.019075196236371994 0.031803496181964874 -0.028714681044220924 -0.009951092302799225 -0.027713779360055923 -0.0270901620388031 -0.025831835344433784 0.0043153055012226105 -0.014894532039761543 -0.008734275586903095 -0.009064278565347195 0.025283625349402428 -0.02008572220802307 -0.028066372498869896 0.0044761174358427525 -0.012900549918413162 0.012192953377962112 0.02074158936738968 -0.007456014398485422 0.001528949593193829 0.0037465195637196302 0.004258409142494202 0.015083338133990765 0.023629887029528618 0.009391366504132748 0.020873624831438065 -0.020309297367930412 -0.005790432915091515 -0.027384519577026367 0.014808411709964275 0.014198162592947483 0.0065587046556174755 -0.032031312584877014 0.021141085773706436 -0.01195028331130743 0.02717442251741886
Organism100004475 0.009607506915926933 0.0012535258429124951 -0.015017427504062653 0.013451472856104374 -0.0014094793004915118 -0.017783351242542267 -0.01100965403020382 -0.006837189197540283 -0.004476100206375122 -0.012558270245790482 -7.818557787686586E-4 -0.01168096624314785 -0.008403864689171314 -0.007395385764539242 0.010082791559398174 -0.012390749529004097 0.002068920060992241 0.0025403290055692196 -0.0012194662122055888 -0.0073606595396995544 -0.014472131617367268 0.01237546931952238 0.011394571512937546 -0.008552368730306625 4.0099918260239065E-4 -0.0016169799491763115 4.2468748870305717E-4 -0.017777666449546814 0.01237452495843172 0.012442084029316902 -0.00642445357516408 -8.350569987669587E-4 -0.006277552340179682 0.005351228639483452 -0.010118423029780388 0.0037647923454642296 -0.005784501321613789 -0.015372831374406815 0.001872090040706098 0.015235191211104393 0.004898694809526205 -0.007086400408297777 0.015776295214891434 0.008104225620627403 0.013956001959741116 -0.013184315524995327 0.0033039276022464037 -0.009429339319467545 -0.008212747983634472 -0.007969952188432217 0.00285781710408628 0.005294335074722767 0.0035352627746760845 -0.006383704021573067 7.866320083849132E-4 0.002519416157156229 -0.006341622211039066 -0.00363966659642756 0.00526219978928566 -0.0029851386789232492 -0.009591779671609402 -0.003650099039077759 0.006047187373042107 -0.006787842605262995 0.006051513832062483 0.014974113553762436 -0.010665308684110641 -0.006101254373788834 -0.015173828229308128 -0.006861829664558172 -0.013288156129419804 0.0017066290602087975 -0.0069470396265387535 -0.0011482941918075085 -0.005767701659351587 0.014931992627680302 -0.007053752895444632 -0.009860720485448837 0.003956526052206755 -0.0036338733043521643 0.005169493146240711 0.01117261964827776 -0.005488482769578695 5.803145468235016E-4 -0.002949126297608018 0.005054590292274952 0.009288577362895012 0.014957132749259472 0.004205354489386082 0.012968205846846104 -0.01173216849565506 0.004347279667854309 -0.005981780588626862 0.01146612223237753 0.004264208488166332 0.0010224611032754183 -0.011065137572586536 0.015628457069396973 -0.005520921666175127 0.01760309748351574
Democritus 0.011405405588448048 0.011094511486589909 -0.04395344480872154 0.025108156725764275 -0.014896237291395664 -0.03649696707725525 -0.04183679074048996 -0.037115465849637985 -0.00852575059980154 -0.04328712821006775 -0.01107108872383833 -0.021546633914113045 -0.02006499655544758 -0.0383165143430233 0.02761128731071949 -0.03789609670639038 0.009084509685635567 0.018928589299321175 0.0016055457526817918 -0.012551565654575825 -0.042695485055446625 0.025241930037736893 0.028598273172974586 -0.03205564245581627 -0.004091924987733364 -0.013039203360676765 0.012781666591763496 -0.04511493816971779 0.026826193556189537 0.047363534569740295 -0.009970862418413162 -0.01260219607502222 -0.02239331789314747 0.02689491957426071 -0.009135434404015541 0.011973252519965172 -1.648320467211306E-4 -0.029415588825941086 -8.674253476783633E-4 0.03277142718434334 0.0018538571894168854 -0.014041949063539505 0.049083661288022995 0.022225521504878998 0.04826255142688751 -0.028252942487597466 0.009263793006539345 -0.02471633441746235 -0.028224168345332146 -0.004865506198257208 -0.0024568026419728994 0.021951178088784218 0.005189802963286638 -0.0293650571256876 -0.011509076692163944 0.006463875062763691 -0.0059723034501075745 -0.008022082038223743 0.010019421577453613 -0.02538333274424076 -0.029009919613599777 -0.011918345466256142 0.006288608070462942 -0.02036658674478531 0.018217211589217186 0.0388355627655983 -0.03999615088105202 -0.004621919710189104 -0.035538915544748306 -0.030528968200087547 -0.033657897263765335 0.004500850569456816 -0.024224091321229935 -0.019277941435575485 -0.012858296744525433 0.033389195799827576 -0.026369808241724968 -0.03112965077161789 0.007047484163194895 -0.01757114939391613 0.018324194476008415 0.029933001846075058 -0.008230241015553474 0.01112280786037445 0.007332909386605024 0.006325853988528252 0.025663653388619423 0.03926074877381325 0.012257046066224575 0.024876341223716736 -0.03189871460199356 -0.003458917373791337 -0.027854343876242638 0.029002560302615166 0.018493637442588806 0.015762463212013245 -0.043108079582452774 0.03722555935382843 -0.014566267840564251 0.03519792854785919
Hermotimus_of_Clazomenae 0.007745758630335331 0.002455520909279585 -0.011713478714227676 0.006302580237388611 -0.010133405216038227 -0.014356521889567375 -0.01514061726629734 -0.009259148500859737 2.9902413371019065E-4 -0.012881075032055378 -0.003089277073740959 -0.010324661619961262 -0.008018885739147663 -0.010546998120844364 0.007207345217466354 -0.01611963100731373 5.692626582458615E-4 0.0075812386348843575 -0.0013672692002728581 -0.00865655206143856 -0.013919845223426819 0.013313266448676586 0.00951754953712225 -0.013590363785624504 -0.005286020692437887 -0.007832443341612816 0.001174643635749817 -0.015942184254527092 0.011859351769089699 0.012855371460318565 0.0011488836025819182 -0.009713987819850445 -0.00210019014775753 0.013586755841970444 -3.884339239448309E-4 0.008501073345541954 0.0011948976898565888 -0.010957662016153336 0.005354922264814377 0.008241822011768818 0.00331324664875865 -0.00859044212847948 0.02163601480424404 0.013131434097886086 0.014020038768649101 -0.009647096507251263 1.0894745355471969E-4 -0.01443275436758995 -0.010306591168045998 -0.006656741723418236 0.0021720316726714373 0.00436042807996273 0.002313845092430711 -0.013138191774487495 -0.0015952842077240348 8.290129480883479E-4 -3.712696488946676E-4 -0.003918934613466263 -0.0012604848016053438 -0.011966146528720856 -0.009011128917336464 -0.0077314842492341995 8.826182456687093E-4 -0.01027112640440464 0.010506906546652317 0.017030876129865646 -0.01678118295967579 -0.0015206487150862813 -0.01751469075679779 -0.010490105487406254 -0.013303982093930244 0.002915208227932453 -0.011082376353442669 -0.00926792249083519 -0.0010914977174252272 0.01131017878651619 -0.004877039697021246 -0.0098216338083148 0.007981215603649616 -0.006783455144613981 0.0036196489818394184 0.006233525928109884 0.0015733798500150442 7.878215983510017E-4 -0.0022565226536244154 -0.0011344588128849864 0.010604801587760448 0.009005356580018997 0.004469967447221279 0.012287074699997902 -0.015282439067959785 -0.0019931956194341183 -0.016408147290349007 0.011487482115626335 0.005483880173414946 0.007206022273749113 -0.018703730776906013 0.010066559538245201 -0.0024637242313474417 0.013970921747386456
Damascius -0.003770199604332447 0.0025652586482465267 -0.004226488061249256 -0.002098202472552657 6.118586752563715E-4 -0.004647042602300644 -0.002568417927250266 -0.006036209873855114 0.001113611739128828 -2.750872226897627E-4 -0.0029548730235546827 -4.3855776311829686E-4 -9.068622603081167E-4 -3.2512214966118336E-4 -3.921515017282218E-4 -0.0016585717676207423 -0.00480974605306983 0.0013550905277952552 0.003268500091508031 -0.004137005656957626 1.7173333617392927E-4 0.004018613137304783 -0.0012609051773324609 -0.004277853295207024 -5.998208653181791E-4 0.003791356459259987 0.005352392327040434 -0.005385336000472307 0.005928129889070988 0.0046567171812057495 0.0011567181209102273 -0.001672206330113113 -0.0028716200031340122 -2.4478256818838418E-5 -0.0023743710480630398 0.0017035386990755796 3.292373148724437E-4 -0.0030753565952181816 0.005366938188672066 0.003940762020647526 0.0014695514691993594 -0.004367821384221315 0.0044557806104421616 4.4293468818068504E-4 0.0067757293581962585 5.068529862910509E-4 0.0024761538952589035 -0.0016229988541454077 -0.0011936501832678914 0.004776689223945141 -7.340731681324542E-4 -5.746411043219268E-4 -0.0012995689176023006 -0.001329258200712502 -0.0026824655942618847 0.004850856494158506 0.0034454548731446266 0.001159262377768755 -0.004547260235995054 -0.0055351415649056435 -0.0058101508766412735 0.0034396464470773935 0.004982432816177607 0.0023291257675737143 -0.002967044012621045 0.0018817269010469317 -0.002658204408362508 0.004988571163266897 -0.004185929894447327 -5.885545397177339E-4 0.004203257150948048 0.0037623997777700424 0.0022031781263649464 -0.0016231037443503737 0.0013455790467560291 -8.001859532669187E-4 -0.0040589589625597 -0.0059272777289152145 0.0025456068105995655 0.002507117809727788 -0.0022847545333206654 0.0029027347918599844 -2.107198815792799E-4 -0.0011626920895650983 0.004770469386130571 5.829324945807457E-4 -8.909064927138388E-4 -0.002482403302565217 -0.004490905907005072 0.0010922779329121113 -0.006013834848999977 0.003977603279054165 -7.029961561784148E-4 0.004209638107568026 0.0014668458607047796 -5.574488895945251E-4 -0.00382796349003911 0.0038822831120342016 -0.0012765175197273493 0.002978286240249872
WikicatPresocraticPhilosophers -9.417227120138705E-4 0.005017417017370462 -0.0015005124732851982 9.457360283704475E-5 -0.00498247379437089 -0.007264766376465559 -8.593249949626625E-4 -0.003844589926302433 -0.005392862483859062 -0.008388533256947994 6.415746756829321E-4 -0.0037765768356621265 -0.0037866977509111166 -0.007242770865559578 0.0015020580030977726 -0.005876810289919376 0.0018383815186098218 0.0035618036054074764 -0.0017388806445524096 0.0011135597014799714 -0.004066444933414459 -0.0013095283647999167 0.006912498734891415 -0.005533992778509855 -0.0034667798317968845 -7.160708191804588E-4 0.005192598327994347 -0.00818368699401617 0.002053176984190941 0.002759872004389763 0.0017810009885579348 -0.0046483539044857025 5.810909788124263E-4 0.0039007870946079493 -0.004183831159025431 -0.0010351334931328893 -0.001219537458382547 -0.001307983067817986 0.001014013192616403 0.006753736175596714 0.00213220645673573 9.231189615093172E-4 0.0071100229397416115 0.002551940968260169 0.009263564832508564 -0.006072398740798235 0.004665445536375046 0.0012184625957161188 -0.007156080100685358 1.9998717471025884E-4 0.001454170560464263 3.0641636112704873E-4 -0.0021290695294737816 0.0016457012388855219 -0.004868369549512863 -6.151502020657063E-4 9.457121486775577E-4 -8.447016007266939E-4 0.005205592140555382 0.00237478269264102 -0.006793713662773371 -0.002584206871688366 -0.0017415822949260473 -0.00182647246401757 -0.001055561937391758 3.747992741409689E-5 -0.005594983696937561 0.002284318208694458 -0.00573535542935133 -0.005938516464084387 -0.0080338716506958 3.7822415470145643E-4 -2.844908449333161E-4 -0.004304076544940472 0.0030497817788273096 0.005771085154265165 -0.0034641248639672995 -0.0051659406162798405 -0.001485122018493712 -0.005922327283769846 0.0018369511235505342 0.004962111357599497 0.0039056239183992147 0.003351332852616906 -0.0027702355291694403 -5.816756747663021E-4 -0.001095626037567854 0.004658890888094902 -0.0020570368506014347 0.002171363914385438 -9.537239675410092E-4 0.003513350384309888 -0.001112493802793324 0.003214542753994465 4.906574613414705E-4 -7.585320854559541E-4 -0.004248330835253 0.003709679702296853 0.0012281195959076285 0.005438225343823433
Writer110794014 2.471132902428508E-4 0.0031666758004575968 -0.002454701578244567 0.006891363300383091 0.002170050982385874 -0.008409342728555202 -0.007486238609999418 -0.0028963973745703697 -0.0030488765332847834 -0.0011848271824419498 1.0772395035019144E-4 -1.1484446440590546E-4 -3.0193221755325794E-4 -0.002428872510790825 3.6380934761837125E-4 -2.6165504823438823E-4 -0.0017317613819614053 0.0015773435588926077 -0.0015334413619711995 -8.838551002554595E-4 -7.819317979738116E-4 0.002182090887799859 0.005693649407476187 -0.004171489272266626 -0.002518844325095415 -0.002799377776682377 7.400334579870105E-4 -4.5116437831893563E-4 0.0031720593106001616 0.002120056888088584 3.488663933239877E-4 -0.0038762653712183237 -0.004859257489442825 -0.0010524388635531068 -0.0034429430961608887 2.748538099694997E-4 0.001465631416067481 -0.004747246857732534 -1.4690721582155675E-4 0.0036128575447946787 3.8894807221367955E-4 0.0022816185373812914 5.433239857666194E-4 0.0072648306377232075 0.00577964773401618 -0.005588047206401825 -0.0025125988759100437 -0.004440894350409508 -0.006139115430414677 -0.005023336503654718 0.00431632436811924 -0.0013085143873468041 0.0027027379255741835 -0.003777996404096484 -0.005358839873224497 -0.002395681571215391 -0.005453269928693771 0.0029154394287616014 0.0012712139869108796 -0.002086053369566798 -0.004719968419522047 0.0017625602195039392 -0.0034856200218200684 0.0018600219627842307 3.233611350879073E-4 0.005079303868114948 -0.001899639843031764 0.0033429895993322134 -8.91058414708823E-4 -0.004252451006323099 -0.0071999793872237206 0.003555446630343795 -0.004740859381854534 -3.3560500014573336E-4 -7.62678449973464E-4 8.538822876289487E-4 -0.006478418130427599 -0.0015548993833363056 0.0027947721537202597 -0.004719189368188381 -7.00807198882103E-4 0.0035530689638108015 -0.005118082277476788 -3.6882347194477916E-4 -0.0030075442045927048 -0.0018791566835716367 0.004802764859050512 0.006191958673298359 -5.509856273420155E-4 -2.2376887500286102E-5 -0.008015225641429424 0.0015132817206904292 0.0012528881197795272 0.003715967759490013 0.003996013198047876 0.002775076311081648 -3.8445761310867965E-4 0.004833872430026531 -0.0041353339329361916 0.005089962389320135
Philosopher 0.0031254871282726526 0.0011188858188688755 6.279053632169962E-4 -0.003737427992746234 0.0042429338209331036 -0.0014704857021570206 -0.00492659630253911 -0.005863488651812077 -8.759986376389861E-4 0.002510963473469019 -0.004437857307493687 -0.0022538185585290194 8.915157523006201E-4 -8.167339256033301E-4 -5.125765455886722E-4 -0.004256429150700569 -0.003138267667964101 0.003944523632526398 0.0022246423177421093 -0.0015368479071184993 0.0013613105984404683 0.0030681700445711613 0.0034474378917366266 0.0035130158066749573 -0.00458512594923377 0.0016983406385406852 -0.00262014614418149 0.0014706989750266075 0.0029758592136204243 0.0020400816574692726 -1.397596934111789E-4 3.206516266800463E-4 0.0029899051878601313 0.0011364310048520565 -0.004066812805831432 -0.00422747153788805 -0.004747788421809673 0.0031882398761808872 0.0018880420830100775 0.0017743901116773486 0.003390316618606448 0.002374059986323118 0.004707477055490017 0.0014560343697667122 0.003359973430633545 0.0018840079428628087 2.9779967735521495E-4 -0.002977816853672266 -8.787311962805688E-4 -5.256462609395385E-4 -0.002697609132155776 0.0032912720926105976 -4.486402031034231E-4 0.0014875319320708513 0.0014237598516047 -0.003473634133115411 5.799465579912066E-4 -0.004484016448259354 6.030312506482005E-4 0.0017637868877500296 -0.005358457565307617 0.0017351427813991904 -0.001973985228687525 0.003411031560972333 0.00326352845877409 -6.792518252041191E-5 -0.004977543372660875 -0.00231581786647439 7.715477840974927E-4 0.003767323214560747 1.27336970763281E-4 -0.0036944171879440546 -0.0011156238615512848 -0.0030850665643811226 0.0025526518002152443 -0.0027379721868783236 -0.004846539814025164 -0.0027399701066315174 -0.002216123975813389 0.0018389886245131493 -0.004161902237683535 0.005047149024903774 5.525891901925206E-4 -0.002082182327285409 -0.00427577830851078 -0.00485523184761405 4.2319047497585416E-4 0.005798229482024908 0.002110032131895423 -0.002711669774726033 0.0026012433227151632 -0.0038704846519976854 -0.004515310749411583 0.0029182606376707554 0.0024133105762302876 -0.0011130609782412648 -0.0025310609489679337 0.0018849421758204699 9.552901610732079E-4 0.005626475438475609
Hippo_(philosopher) -4.52937267255038E-4 0.0026186734903603792 -0.008623561821877956 0.004938217811286449 -0.0019563152454793453 -0.007783906068652868 -0.007941351272165775 -0.004002894274890423 0.0028630741871893406 -0.008427252992987633 -0.004888925701379776 -0.0024424362927675247 0.002199773443862796 -0.008609478361904621 0.006258547771722078 -0.0019755505491048098 -8.9207076234743E-4 0.0038025605026632547 0.002980382414534688 0.0016927269753068686 -0.009437000378966331 -0.0011945907026529312 0.005471748765558004 -0.003362815361469984 0.0021677790209650993 5.957754910923541E-4 -0.001720675965771079 -0.01005367562174797 0.00730024604126811 0.007994351908564568 -1.5207180695142597E-5 0.0017735097790136933 -0.006586924195289612 0.002376830903813243 -0.006864787545055151 0.001042590825818479 -0.0032156510278582573 -0.003923991695046425 0.004174757283180952 0.0010687817120924592 7.366504723904654E-5 -0.004760234151035547 0.0023054680787026882 -9.491424425505102E-4 0.010219086892902851 -0.00608900235965848 0.0011148699559271336 -0.003586337435990572 -0.007088276091963053 -0.0039964825846254826 -0.003053248394280672 0.0021632215939462185 0.00285539124161005 -0.002792783547192812 -5.470623727887869E-4 0.004376740660518408 5.024527199566364E-4 -0.0037046961952000856 0.0046116928569972515 -0.0027906340546905994 -0.00867338478565216 1.8152312259189785E-4 -0.0023967691231518984 -0.007521672174334526 0.0017291199183091521 0.0017061165999621153 -7.86764663644135E-4 -3.492064570309594E-5 -0.004699067212641239 -0.0027848761528730392 -0.008941258303821087 0.003841916797682643 0.0020110290497541428 0.0024991799145936966 1.668852783041075E-4 0.009160502813756466 -0.005005794111639261 -4.3810554780066013E-4 1.7402865341864526E-4 -0.0013333969982340932 8.492183405905962E-4 0.007930592633783817 -0.00483796838670969 0.0013362776953727007 0.00522946659475565 0.00524899223819375 0.008229414001107216 0.002128769177943468 -0.002230623736977577 0.004054832272231579 -1.588855084264651E-4 -0.0040093958377838135 -0.0011861188104376197 9.028745698742568E-4 0.0017252318793907762 0.0030849005561321974 -0.006650848314166069 0.005214226897805929 -0.007436979562044144 0.006720275618135929
Wikicat4th-centuryBCPhilosophers -8.267820230685174E-4 -0.0013505145907402039 -0.001185515895485878 7.304087048396468E-4 0.0017060359241440892 -0.0036952635273337364 -0.0020258789882063866 0.0029109150636941195 0.002886611269786954 -0.0056789331138134 -0.0033327091950923204 -9.541999315842986E-4 0.0036409832537174225 -0.0013559223152697086 0.005105999298393726 0.003082732670009136 0.004431932233273983 -8.887863950803876E-4 7.972402963787317E-4 0.004308084025979042 -0.0012172549031674862 -0.0037793510127812624 -0.0038344443310052156 0.0014971334021538496 -0.004413480404764414 0.00232377415522933 0.0029335501603782177 -0.004990175366401672 0.0042925551533699036 0.004586179740726948 -0.005391387734562159 7.707080221734941E-4 -0.0024229621049016714 0.0025711990892887115 -0.001868467079475522 0.004982735496014357 -0.0028565642423927784 -0.0011462096590548754 0.002956516807898879 0.0012742482358589768 -0.0020816829055547714 0.0018262302037328482 0.006102029699832201 -0.002968373941257596 9.227680275216699E-4 5.023833364248276E-5 -0.0033382342662662268 -0.002535112202167511 -4.3055537389591336E-4 -0.002022509928792715 -0.004272212740033865 -6.080754101276398E-4 0.004768149461597204 -6.297925137914717E-4 -0.00191224564332515 0.00304073141887784 -0.004860641434788704 0.001308789593167603 -5.516896490007639E-4 0.0010848441161215305 -0.005305168684571981 4.224390722811222E-4 -0.0033153363037854433 0.001985190436244011 -3.21297935442999E-4 0.0010844437638297677 -0.0013219761895015836 -7.462752400897443E-4 0.0027465049643069506 1.802606857381761E-4 0.002180252457037568 0.0040265340358018875 -0.0016514566959813237 -0.0015878856647759676 -5.804849206469953E-4 0.0034636245109140873 -0.0034326515160501003 -6.197807961143553E-4 -0.0034326883032917976 -0.0014059182722121477 -0.0013224130962044 0.004002848640084267 -0.0024378690868616104 -0.002730692271143198 -1.475878816563636E-4 0.00269011571072042 -0.0020696804858744144 -0.0013044648803770542 -0.0018540974706411362 -0.003055485198274255 -0.006238067056983709 8.132219081744552E-4 0.003560030600056052 -0.002000581007450819 2.8218270745128393E-4 0.005234490614384413 -0.00118372798897326 -0.003160447347909212 -2.3687051725573838E-4 1.0574847692623734E-4
YagoLegalActorGeo 0.004675204865634441 0.007028729189187288 -0.013891779817640781 0.01036581676453352 -0.003358793444931507 -0.009771938435733318 -0.0082662058994174 -0.010659141466021538 6.570235709659755E-4 -0.012091325595974922 -0.0061218091286718845 -0.006543290335685015 -0.002602944616228342 -0.0026966684963554144 0.007693672087043524 -0.012322699651122093 0.004711373243480921 0.00325223826803267 0.0018343256087973714 -0.0024036248214542866 -0.011517496779561043 0.006520251277834177 0.005329614970833063 -0.005906394682824612 0.00102803239133209 7.284341263584793E-4 -0.0013983966782689095 -0.00989869050681591 0.001496792072430253 0.013308005407452583 0.0015252511948347092 0.0011669963132590055 -0.0018520349403843284 0.002754927147179842 -0.001439258805476129 0.001988263800740242 0.004467842634767294 -0.010949180461466312 0.005327379796653986 0.009149374440312386 -0.0012457704870030284 -0.0037454855628311634 0.015270542353391647 0.0023610463831573725 0.009314212948083878 -0.0051146866753697395 0.0041455733589828014 -0.001962692243978381 -0.0015938521828502417 0.0031080753542482853 -0.0014631468802690506 0.003480917541310191 0.003824329935014248 -0.009427962824702263 0.002064645290374756 -0.002320209750905633 -0.0048990631476044655 0.0018907343037426472 0.005273876246064901 -0.004945254418998957 -0.011198089458048344 -0.0030062920413911343 -0.004285611677914858 -0.001261869096197188 -3.4515646984800696E-4 0.009797775186598301 -0.012152617797255516 -0.0024697480257600546 -0.008345607668161392 -0.007779854349792004 -0.007381372153759003 0.006394948344677687 -2.448816376272589E-4 -4.805156495422125E-4 -0.0022685620933771133 0.008005579933524132 -0.0036421893164515495 -0.006369885988533497 -0.002775511471554637 -0.003042442724108696 0.003073512576520443 0.010020564310252666 -0.005001756828278303 2.3147056344896555E-4 7.11777014657855E-4 0.0014742705971002579 0.006951276678591967 0.005038287956267595 -0.001297132344916463 9.078226867131889E-4 -0.01068783737719059 0.004894917365163565 -0.0016172501491382718 0.0065174344927072525 -5.509387701749802E-4 -8.057620725594461E-4 -0.010079803876578808 0.004664264153689146 -0.002513521583750844 0.009871499612927437
WikicatWriters 0.00549401855096221 0.0014331081183627248 -0.001517522381618619 7.362044416368008E-4 7.844710489735007E-4 0.0020193064119666815 -0.0056994520127773285 -0.003512784605845809 -0.0045914556831121445 0.002879152540117502 -7.171952165663242E-4 8.281925111077726E-4 -6.120196776464581E-4 -0.0014283792115747929 0.002493341453373432 -0.0022924020886421204 -0.001303973258472979 1.417627208866179E-4 -7.369639351963997E-4 0.003690040670335293 -0.004433237481862307 0.0026505901478230953 2.6231573428958654E-5 -2.603935427032411E-4 0.0037588016130030155 -0.004901815205812454 -0.002143446821719408 -0.004822569899260998 -0.0012115369318053126 -0.001199505291879177 -0.0018895318498834968 2.463569398969412E-4 0.0032516028732061386 -0.0019390253582969308 -0.003781562903895974 0.003334525041282177 0.0026575534138828516 -0.003765418194234371 -0.004439381416887045 0.002579847350716591 -0.00470117898657918 -0.0013817029539495707 8.499753894284368E-4 0.005618926603347063 -0.001153215765953064 0.0032541239634156227 0.004877304192632437 -0.0033878935500979424 -0.004239633679389954 -0.004920946899801493 -0.004630507435649633 -0.002110069617629051 0.004926616791635752 -0.0036857272498309612 -7.989011646714061E-5 0.005035851150751114 0.001767346286214888 -0.0022448482923209667 0.0012349830940365791 -0.004347098059952259 0.001183664775453508 0.0013599038356915116 -0.004254218656569719 -0.005567813757807016 0.002025754889473319 0.006723553407937288 0.0024577341973781586 -0.004038360435515642 -0.002136126859113574 -0.0017042605904862285 -0.0025396891869604588 -0.002646370092406869 0.001104925642721355 8.212616667151451E-4 -6.462601595558226E-4 0.0023997174575924873 0.0015424599405378103 0.0017514307983219624 -0.0013150215381756425 -0.002977186581119895 0.001366645796224475 1.2350367614999413E-4 -0.003325555706396699 0.0010911795543506742 0.004395572934299707 5.191397503949702E-4 0.002776994137093425 0.0017754842992872 0.0046176789328455925 -0.0022862162441015244 -0.006264171563088894 0.0019774436950683594 -0.003753454890102148 -0.0015636859461665154 -0.002521214308217168 -6.979295867495239E-4 -0.0027818435337394476 0.0065704528242349625 9.690604056231678E-4 0.005744608119130135
Damon_of_Athens 2.2693653590977192E-5 0.005297480616718531 -0.0037468362133949995 0.005118814762681723 0.002261157613247633 -0.002948390319943428 -0.005524938460439444 -0.006505259778350592 -5.38030406460166E-4 0.0023659327998757362 -0.0015187120297923684 -0.0033196043223142624 0.0013034448493272066 -0.003856402589008212 -0.0021794454660266638 -0.0031708423048257828 9.002673905342817E-4 0.005263193044811487 0.002195557113736868 -0.004171664826571941 6.0430640587583184E-5 0.006085848901420832 0.005576788447797298 -0.0022879871539771557 -2.108267945004627E-4 -1.6452447744086385E-4 0.0014738349709659815 -8.166866609826684E-4 0.005314843729138374 -0.00193093903362751 0.0034477824810892344 0.0034735361114144325 0.003694106824696064 -0.0032477984204888344 0.003993936348706484 0.0018784431740641594 -0.0023462348617613316 -0.006006141193211079 0.004719880875200033 0.005770022980868816 -3.7644003168679774E-4 0.002852808916941285 0.0032289004884660244 4.6388947521336377E-4 0.0034181398805230856 0.0035801345948129892 0.004614126402884722 -0.004587619099766016 -0.005833098664879799 -7.873950526118279E-4 0.001381529844366014 0.004791130777448416 0.003889025654643774 -0.0011871476890519261 -2.0589193445630372E-4 -0.0032342036720365286 0.004637909587472677 0.0023651698138564825 0.0014042732072994113 -0.002790445927530527 -0.0032924553379416466 -0.0017875555204227567 0.0035551025066524744 -0.005817069672048092 -0.0017309526447206736 0.006902015767991543 -0.002820187946781516 9.601891506463289E-4 0.0012545636855065823 -8.402161183767021E-4 -2.907142916228622E-4 -9.18131263460964E-4 -0.00592495733872056 0.004088317975401878 -0.005108007695525885 0.003602462587878108 0.0028461350593715906 -0.0013865306973457336 0.0025400291197001934 0.004184018354862928 0.00569734163582325 0.0023743528872728348 0.0020010625012218952 -0.003330443287268281 -4.346159694250673E-4 -0.001936506014317274 0.005214607808738947 0.004976501222699881 0.002427096478641033 -0.0022504881490021944 -0.0017530120676383376 0.0010939930798485875 -5.758978659287095E-5 -7.096072076819837E-4 -5.809954600408673E-4 0.0012758272932842374 -0.0013122034724801779 3.197038313373923E-5 -0.0014369675191119313 1.92128965863958E-4
Person 0.007882261648774147 0.00854447204619646 -0.017029384151101112 0.013857152312994003 -0.008954468183219433 -0.017386190593242645 -0.017177965492010117 -0.013071512803435326 -0.003706153016537428 -0.015075062401592731 0.0018933205865323544 -0.005415611434727907 -0.004230371210724115 -0.007253244984894991 0.008392885327339172 -0.008982795290648937 0.0011388742132112384 0.0015837890096008778 0.0035954646300524473 -0.008386283181607723 -0.010346564464271069 0.013979466632008553 0.0065903072245419025 -0.014509261585772038 -5.464035202749074E-4 -0.0017585844034329057 0.0011992313666269183 -0.016704056411981583 0.007873273454606533 0.018901314586400986 -0.008051120676100254 -0.0012893870007246733 -0.008226840756833553 0.0067909592762589455 -0.005012218374758959 0.0019185792189091444 -0.0036762591917067766 -0.010508681647479534 -0.0039016103837639093 0.01018286868929863 0.002992126392200589 -0.008152573369443417 0.022621778771281242 0.004849964752793312 0.018965275958180428 -0.007463861256837845 0.004568341188132763 -0.005194125231355429 -0.01384806726127863 -0.004715423099696636 5.347066326066852E-4 0.00587101373821497 -0.001430994481779635 -0.00947087723761797 -0.004969782195985317 0.0020652483217418194 -3.610872590797953E-5 -0.0061981575563549995 0.007495024707168341 -0.0035687184426933527 -0.008224382996559143 -0.004427073523402214 -0.0018937380518764257 -0.012410529889166355 0.009672160260379314 0.012881604954600334 -0.01837856136262417 -0.004224894568324089 -0.009439161978662014 -0.0073336767964065075 -0.011142595671117306 0.0056971111334860325 -0.010763049125671387 -0.005697830114513636 -0.009397788904607296 0.010290591977536678 -0.008140232414007187 -0.012159516103565693 0.0030474234372377396 -0.0066750445403158665 0.0058323838748037815 0.005161857232451439 -0.0028012082912027836 0.004524705931544304 0.005623559467494488 0.0032626460306346416 0.008572804741561413 0.008475270122289658 0.00858503021299839 0.014472099021077156 -0.011123580858111382 0.0017257941653952003 -0.009132608771324158 0.004437094088643789 8.085062727332115E-4 0.008144229650497437 -0.012481993064284325 0.007808482274413109 -0.010388188064098358 0.014637310057878494
Object100002684 0.001239587552845478 0.007493459153920412 -0.01803727075457573 0.011784512549638748 -0.00551803270354867 -0.009074346162378788 -0.010664952918887138 -0.01213078387081623 -0.002505037933588028 -0.009195545688271523 -3.2776931766420603E-4 -0.0041253152303397655 -0.005781244952231646 -0.009261585772037506 0.009630735032260418 -0.008738178759813309 -0.0018611487466841936 0.005110820755362511 0.004456255119293928 -0.003635081695392728 -0.010806124657392502 0.0043574245646595955 0.01343778520822525 -0.014894912950694561 -0.0013334006071090698 -0.00866526085883379 0.0016130033181980252 -0.0111339520663023 0.012673312798142433 0.011247162707149982 -0.0012290478916838765 -0.0035069757141172886 -0.005318794399499893 0.0077505819499492645 -0.008370044641196728 0.008380768820643425 0.002159388968721032 -0.01186688244342804 0.004607678856700659 0.012505617924034595 -0.004565392155200243 -0.006311980076134205 0.021467825397849083 0.0069757490418851376 0.018573086708784103 -0.006282441318035126 -0.001159785664640367 -0.0050431895069777966 -0.007322699297219515 -0.0030207757372409105 -3.787875175476074E-4 0.009891022928059101 2.536057436373085E-4 -0.011984852142632008 7.391669205389917E-4 0.007146981544792652 -0.006000700872391462 -0.004836001433432102 0.0033766054548323154 -0.0033019036054611206 -0.010362054221332073 -0.003439200110733509 0.00495521817356348 -0.004759353585541248 0.009384652599692345 0.014324789866805077 -0.011964584700763226 -0.004425932187587023 -0.013582747429609299 -0.005288450978696346 -0.004987621679902077 0.004608802497386932 -0.01026824302971363 -0.0062074558809399605 -0.0078860092908144 0.015757903456687927 -0.005301439203321934 -0.01428521890193224 0.002571303164586425 -0.0023237646091729403 0.0037088734097778797 0.008303665556013584 -0.0038472460582852364 0.0035031537991017103 0.0017713982379063964 -0.0024231048300862312 0.009152170270681381 0.012126130983233452 0.004069174639880657 0.01082254946231842 -0.01600920408964157 0.003086006734520197 -0.005716427229344845 0.005206358153373003 0.009082967415452003 0.0065300967544317245 -0.01312808133661747 0.008689031936228275 -0.002224202733486891 0.01369265653192997
WikicatAncientGreekBiographers -0.004520908929407597 0.00434607220813632 0.0034259287640452385 -0.0011706881923601031 0.002219822257757187 -0.002777212532237172 0.004377570003271103 -0.00327447266317904 0.004392670467495918 -0.0017894934862852097 0.004702077247202396 0.003061489202082157 0.0024849739857017994 0.002550601027905941 -0.0023005413822829723 0.0025484287180006504 -0.0020336268935352564 0.003860559081658721 0.0021934958640486 -0.004639241378754377 0.0010718547273427248 -0.0024784693960100412 -0.0024619714822620153 0.004518401809036732 0.003496931865811348 7.350750383920968E-4 0.003516893135383725 9.732511825859547E-4 0.005184974521398544 -0.004290486220270395 0.004078722558915615 -0.001032415428198874 -0.003341925097629428 -6.881644367240369E-4 -0.0039053703658282757 -0.0038703575264662504 0.0016936417669057846 0.0027037332765758038 0.002160267671570182 0.004992499947547913 -0.004069517366588116 0.0042616319842636585 0.004970282781869173 0.0033465714659541845 0.0036502941511571407 0.00292148906737566 -0.002739623421803117 -0.004746337421238422 0.003904223907738924 0.0040122149512171745 -2.528023032937199E-4 -0.0034489904064685106 -9.289368754252791E-4 0.0018874488305300474 0.002040072111412883 -0.002465779660269618 -0.0018119062297046185 8.535696542821825E-5 -0.0012246243422850966 0.0013212496414780617 9.434589883312583E-4 2.1668273257091641E-4 -0.002991878194734454 -0.0044286116026341915 0.0016327258199453354 -0.001747415284626186 0.003069472499191761 -0.0030895040836185217 0.003086608136072755 0.0011517353123053908 6.399046396836638E-4 -0.0018477458506822586 0.004441049415618181 -0.004306672140955925 0.002902989275753498 -0.003657952882349491 -8.49306583404541E-4 -0.002587569411844015 0.0019479813054203987 -0.004882081411778927 -0.004741448909044266 -0.004183758050203323 0.0015910569345578551 -0.004964276682585478 -0.003114721504971385 -0.00175354047678411 -0.004452688153833151 -0.002015849342569709 0.0015469262143597007 -0.002749040024355054 -8.448492735624313E-6 0.0029443963430821896 -0.003162461332976818 -0.004383738152682781 0.003053173888474703 9.6060277428478E-5 4.425178049132228E-4 0.005321819335222244 0.002949262736365199 0.0036061545833945274
Diogenes_Lartius 0.019728224724531174 0.014595162123441696 -0.04025067389011383 0.027316318824887276 -0.015588304027915001 -0.043962374329566956 -0.054310183972120285 -0.04073844105005264 -0.0016076838364824653 -0.04544368013739586 -0.011290239170193672 -0.02354762889444828 -0.025877777487039566 -0.035236526280641556 0.03775336593389511 -0.046300556510686874 0.005290044937282801 0.020704055204987526 0.003436448285356164 -0.014627376571297646 -0.04637110233306885 0.029881959781050682 0.03520858660340309 -0.03151215612888336 -0.014271405525505543 -0.016699593514204025 0.010092110373079777 -0.052981168031692505 0.03571278601884842 0.053949616849422455 -0.014213035814464092 -0.02193964459002018 -0.020332839339971542 0.031144676730036736 -0.01942451111972332 0.009604251012206078 -0.009193646721541882 -0.030530475080013275 0.007543507032096386 0.0335201770067215 0.002511562779545784 -0.010374031960964203 0.059705618768930435 0.02626880817115307 0.05370026081800461 -0.0369061641395092 0.00837029330432415 -0.028882848098874092 -0.035241056233644485 -0.013079931028187275 -0.01111065223813057 0.02541695162653923 0.009153980761766434 -0.03467107564210892 -0.009074925445020199 0.006542526185512543 -0.008901586756110191 -0.012332042679190636 0.011584388092160225 -0.024930479004979134 -0.03611311689019203 -0.018362656235694885 0.010325937531888485 -0.02738310396671295 0.025903811678290367 0.04870174825191498 -0.0479792095720768 -0.007014005910605192 -0.04613378643989563 -0.03256181254982948 -0.038628410547971725 -0.0017455171328037977 -0.022723078727722168 -0.017657049000263214 -0.012877875939011574 0.045375190675258636 -0.03093024715781212 -0.040351565927267075 0.004715766292065382 -0.022382870316505432 0.015602941624820232 0.03143586218357086 -0.011760156601667404 0.006340086460113525 0.006289991550147533 0.005530061665922403 0.0318840891122818 0.0453142412006855 0.020994296297430992 0.03261072561144829 -0.03813972324132919 -0.0022032596170902252 -0.03463136404752731 0.026795553043484688 0.015142922289669514 0.019661251455545425 -0.047954004257917404 0.03894482180476189 -0.026285890489816666 0.041172318160533905
Gorgias 0.017196940258145332 0.012171710841357708 -0.040508680045604706 0.03579249605536461 -0.02093268372118473 -0.048199716955423355 -0.053923457860946655 -0.04063677415251732 -0.006415447685867548 -0.05127705633640289 -0.010799928568303585 -0.025808487087488174 -0.022822804749011993 -0.042181968688964844 0.03870340436697006 -0.04732842743396759 0.008850542828440666 0.020224928855895996 0.0095292953774333 -0.014165173284709454 -0.052855975925922394 0.03157760947942734 0.03317809849977493 -0.034040749073028564 -0.008687252178788185 -0.01690731756389141 0.01059510838240385 -0.0468728244304657 0.031686823815107346 0.05610843375325203 -0.010089783929288387 -0.017813336104154587 -0.020967751741409302 0.037024471908807755 -0.01832784339785576 0.010602862574160099 -0.007508253678679466 -0.03220931813120842 1.7652496171649545E-4 0.035525187849998474 -0.003066283417865634 -0.013486244715750217 0.06200689077377319 0.025136150419712067 0.05622829124331474 -0.039026398211717606 0.007824262604117393 -0.02907555364072323 -0.029644150286912918 -0.0074722436256706715 -0.010307212360203266 0.030320029705762863 0.0014609552454203367 -0.02713008224964142 -0.007887857034802437 0.009091668762266636 -0.00749995419755578 -0.009802688844501972 0.016174597665667534 -0.02702179178595543 -0.032445140182971954 -0.019852042198181152 0.003784823464229703 -0.02618546225130558 0.021617911756038666 0.05144362896680832 -0.04515790939331055 -0.014234059490263462 -0.0421358160674572 -0.033141061663627625 -0.033710528165102005 0.0024324555415660143 -0.021209195256233215 -0.02152160182595253 -0.018267368897795677 0.04912757873535156 -0.031443849205970764 -0.037736404687166214 0.010717811062932014 -0.021203918382525444 0.013208859600126743 0.03689051419496536 -0.00719441520050168 0.008004133589565754 7.993627805262804E-4 0.006190476007759571 0.026414278894662857 0.0437530055642128 0.016505597159266472 0.034474991261959076 -0.044268906116485596 -0.00625558802857995 -0.04065299406647682 0.03083936870098114 0.021551283076405525 0.018699269741773605 -0.051946304738521576 0.03822882100939751 -0.01826959289610386 0.043949443846940994
WikicatAncientPhilosophers 0.004577308427542448 -0.0019435407593846321 -0.0038974194321781397 0.004446132108569145 -0.004196761175990105 -0.004732644651085138 -0.005756324622780085 -0.0013941487995907664 0.001414358732290566 -0.0016678152605891228 -8.988567860797048E-4 9.128914680331945E-4 0.002881432417780161 -0.002764194505289197 -0.003260293509811163 0.0025593158788979053 -0.003652376588433981 0.0043586320243775845 0.004782421980053186 -0.0019032100681215525 -2.778670168481767E-4 -5.198832368478179E-4 0.0020012599416077137 -0.0025223963893949986 -0.0017548023024573922 0.0034145857207477093 -0.004198316950351 -9.10667353309691E-4 -8.803486707620323E-4 0.006207453086972237 0.004032585304230452 -0.003987755626440048 -3.756993100978434E-4 0.0010143594117835164 -4.1843520011752844E-4 0.0017611330840736628 1.3016120647080243E-4 -0.0018420631531625986 -0.002200518501922488 0.0010901542846113443 0.0037482460029423237 0.0013210580218583345 -0.0020859120413661003 0.0054642739705741405 0.0062277186661958694 0.0023380799684673548 -0.002033241093158722 4.7757814172655344E-4 -7.126497221179307E-4 0.004814046900719404 -0.0017430275911465287 0.0022460229229182005 0.0041663432493805885 -0.005075510125607252 -0.003897434566169977 0.0016684656729921699 -0.004194066859781742 0.0022356731351464987 -6.314772181212902E-4 -0.0027587853837758303 0.0019445039797574282 -0.0027108851354569197 -0.0014815659960731864 -0.0036582595203071833 0.0032074451446533203 -3.216488112229854E-4 -0.003122864058241248 -0.004331626929342747 0.004252722952514887 0.0014799805358052254 -0.0020055114291608334 -6.715513300150633E-4 -0.0046384562738239765 -0.003219504142180085 6.399768753908575E-4 0.003307582810521126 0.002486875746399164 -0.005149191245436668 0.0011775651946663857 6.418305565603077E-4 0.005202773027122021 0.0038750572130084038 0.004797480069100857 -0.00458383047953248 -0.0026125942822545767 -0.0028004474006593227 -0.0041261096484959126 0.0030705714598298073 0.002302072010934353 0.0032520650420337915 -0.006032227072864771 0.005422629415988922 -0.0037848225329071283 -0.0018714109901338816 -0.0015610415721312165 0.005734933074563742 4.3843057937920094E-4 0.006126376800239086 0.003362473798915744 -2.5368528440594673E-5
Whole100003553 0.008441479876637459 0.00545887928456068 -0.01665160246193409 0.004842597525566816 -0.0018737752689048648 -0.015644636005163193 -0.013008355163037777 -0.009502154774963856 -0.0047111595049500465 -0.008925545029342175 0.0017075666692107916 -0.004868657328188419 -0.0033647867385298014 -0.010605178773403168 0.006391218397766352 -0.013925512321293354 0.0038207792676985264 0.0046269092708826065 0.004375366028398275 -0.0054960404522717 -0.014380824752151966 0.004454270005226135 0.009579229168593884 -0.010747004300355911 5.126316682435572E-4 -0.004468624480068684 -1.2063028407283127E-4 -0.018629565834999084 0.008926625363528728 0.01663477160036564 -0.0070930891670286655 9.287581633543596E-5 -0.009955279529094696 0.013738509267568588 -0.0032667105551809072 0.002399223856627941 8.029111195355654E-4 -0.013535913079977036 0.0036006546579301357 0.013294456526637077 0.0024359349627047777 -0.0055421800352633 0.01385581586509943 0.007457341067492962 0.015414612367749214 -0.010712127201259136 9.331908659078181E-4 -0.005888581741601229 -0.006281807087361813 -0.0029125111177563667 -0.004768724087625742 0.011217744089663029 -2.2703947615809739E-4 -0.009370055049657822 -0.003090082434937358 0.005699096247553825 -0.003384998068213463 -0.0031439648009836674 -0.0011718383757397532 -0.0036047783214598894 -0.010700860992074013 -0.0026523375418037176 -0.003146309871226549 -0.008237471804022789 0.008940687403082848 0.00882638432085514 -0.009291460737586021 -0.0010078514460474253 -0.010976552031934261 -0.007570634596049786 -0.0057950676418840885 -0.0011792519362643361 -0.0038842784706503153 -0.0024410944897681475 -0.0038899031933397055 0.00826967041939497 -0.0049827382899820805 -0.010200713761150837 0.004160689190030098 -0.00983608141541481 0.004511562176048756 0.012153754942119122 9.414171800017357E-4 -0.0012594398576766253 0.0018125491915270686 0.005797313991934061 0.010625120252370834 0.011220080778002739 9.060309384949505E-4 0.006232390645891428 -0.010392547585070133 0.0029310942627489567 -0.007427165750414133 0.009497735649347305 0.007229723036289215 0.009137777611613274 -0.01639600843191147 0.015233729034662247 -0.009848940186202526 0.015224166214466095
Q4964182 -0.00380528112873435 0.004630866926163435 -6.743128760717809E-4 0.0034641355741769075 0.0030175703577697277 -0.005468770395964384 -0.0011798168998211622 -6.338441162370145E-4 -0.004000137094408274 -0.00508221285417676 7.605297723785043E-4 0.0014701437903568149 0.0020544438157230616 6.664235843345523E-5 -0.0018319373484700918 -0.002137853065505624 6.03147258516401E-4 0.004010784439742565 9.541582548990846E-4 -9.6364070486743E-5 2.078042016364634E-4 -0.0029875554610043764 -3.050785744562745E-4 -9.789593750610948E-4 0.0017421951051801443 -6.951803807169199E-4 8.788293052930385E-5 0.0022307117469608784 -1.4479021774604917E-4 4.576978972181678E-4 -0.0021803327836096287 -3.308166051283479E-4 0.0032193996012210846 0.0038347062654793262 -9.963632328435779E-4 -0.0041289604268968105 0.0018920614384114742 -0.0031217532232403755 0.0012613780563697219 0.005560174584388733 -0.00258144224062562 8.093311917036772E-4 0.002751231426373124 -0.0043977596797049046 0.003117200918495655 0.003628584323450923 0.002120370976626873 5.14826038852334E-4 -6.828219047747552E-4 0.002871019998565316 0.0015735146589577198 -0.0013362356694415212 0.001585044781677425 -0.0015555165009573102 0.0028758293483406305 0.003240188118070364 0.001582292839884758 -3.888969076797366E-4 0.004552023485302925 0.0032981454860419035 -0.0033487805631011724 -9.521479951217771E-4 0.0036164182238280773 -0.005053779575973749 -0.0027650869451463223 0.0036257971078157425 -3.4907867666333914E-4 0.004953389056026936 -0.001946937059983611 -0.0022408298682421446 -0.0031207683496177197 -0.0017581501742824912 -0.004806123208254576 0.00160347914788872 0.00318474555388093 -0.0027282407972961664 9.521397878415883E-4 0.0016251764027401805 8.61226231791079E-4 -0.005287375766783953 0.0030215654987841845 7.867362583056092E-4 0.003705729730427265 -0.0031600811053067446 0.0013242874993011355 -0.0015966895734891295 -3.2667681807652116E-4 0.0036361024249345064 -0.004500239156186581 0.005375884473323822 -0.0036567621864378452 -0.003562797326594591 -0.0021851833444088697 3.9771481533534825E-4 -0.0013357116840779781 -9.153645951300859E-4 -6.653598975390196E-4 0.004584955051541328 -0.004765545949339867 0.004699693527072668
WikicatAncientGreekRhetoricians -3.3526093466207385E-4 -0.004229639191180468 -5.001176032237709E-4 0.0016919175395742059 7.491933647543192E-4 -0.0014488610904663801 0.0028125038370490074 -9.346433216705918E-5 -6.22654682956636E-4 -3.0631691333837807E-4 -0.0024365538265556097 -0.0026086096186190844 -2.4843079154379666E-4 -2.694091817829758E-4 -0.0015715070767328143 1.3843461056239903E-4 -0.0035111168399453163 -3.818285040324554E-5 0.0013456136221066117 -0.0019805997144430876 -5.809209542348981E-4 -0.0036068877670913935 0.0019488625694066286 -0.002423540921881795 -0.0011753416620194912 -0.0021577610168606043 9.420323185622692E-4 -6.341083790175617E-4 -0.0030095898546278477 -0.0019874954596161842 -0.005262307357043028 4.538966459222138E-4 -0.004964882042258978 -0.0019332258962094784 -0.0045284852385520935 -0.003277962561696768 -0.002374850446358323 0.0012446952750906348 -0.0010492163710296154 3.9400492096319795E-4 -6.087358924560249E-4 -3.5276199923828244E-4 0.002201490569859743 -0.002723268698900938 0.0047381361946463585 0.0031391913071274757 0.0026844320818781853 -0.004453492350876331 -0.0026886628475040197 -2.4689556448720396E-4 1.4932503108866513E-4 0.004837764892727137 8.649918017908931E-4 0.0019483643118292093 -0.002363369567319751 -0.0014343882212415338 0.0026660114526748657 -0.0012342504924163222 0.0011519448598846793 -0.0028443073388189077 -0.0011044484563171864 -0.0018777408404275775 0.004781836643815041 -0.003915281500667334 0.0033765004482120275 0.004172446671873331 -7.072979933582246E-4 -0.0015538709703832865 -0.005591175053268671 0.003550975350663066 0.0024764458648860455 0.004576252773404121 -3.8035583565942943E-4 -7.82267889007926E-4 3.381293499842286E-4 0.005875184200704098 0.0023239427246153355 -2.3589550983160734E-4 -0.0036184079945087433 -0.004591037053614855 -0.003938094712793827 0.00379563239403069 0.0023144858423620462 0.0018977307481691241 5.323758814483881E-4 -0.002544519491493702 0.0053071435540914536 -0.003309956518933177 5.644150078296661E-4 -0.003977735992521048 -0.004937121644616127 -0.003476274199783802 -0.0033590293023735285 9.22777340747416E-4 -3.519279125612229E-4 8.191564120352268E-4 7.369020022451878E-5 0.00144737318623811 -0.0023446069099009037 -0.001496097887866199
